word,0,1,2,3,4,5,6,7,8,9,10,11,12,13,14,15,16,17,18,19,20,21,22,23,24,25,26,27,28,29,30,31,32,33,34,35,36,37,38,39,40,41,42,43,44,45,46,47,48,49,50,51,52,53,54,55,56,57,58,59,60,61,62,63,64,65,66,67,68,69,70,71,72,73,74,75,76,77,78,79,80,81,82,83,84,85,86,87,88,89,90,91,92,93,94,95,96,97,98,99,100,101,102,103,104,105,106,107,108,109,110,111,112,113,114,115,116,117,118,119,120,121,122,123,124,125,126,127,128,129,130,131,132,133,134,135,136,137,138,139,140,141,142,143,144,145,146,147,148,149,150,151,152,153,154,155,156,157,158,159,160,161,162,163,164,165,166,167,168,169,170,171,172,173,174,175,176,177,178,179,180,181,182,183,184,185,186,187,188,189,190,191,192,193,194,195,196,197,198,199,200,201,202,203,204,205,206,207,208,209,210,211,212,213,214,215,216,217,218,219,220,221,222,223,224,225,226,227,228,229,230,231,232,233,234,235,236,237,238,239,240,241,242,243,244,245,246,247,248,249,250,251,252,253,254,255,256,257,258,259,260,261,262,263,264,265,266,267,268,269,270,271,272,273,274,275,276,277,278,279,280,281,282,283,284,285,286,287,288,289,290,291,292,293,294,295,296,297,298,299,300,301,302,303,304,305,306,307,308,309,310,311,312,313,314,315,316,317,318,319,320,321,322,323,324,325,326,327,328,329,330,331,332,333,334,335,336,337,338,339,340,341,342,343,344,345,346,347,348,349,350,351,352,353,354,355,356,357,358,359,360,361,362,363,364,365,366,367,368,369,370,371,372,373,374,375,376,377,378,379,380,381,382,383,384,385,386,387,388,389,390,391,392,393,394,395,396,397,398,399
b'\xe5\xae\x9e\xe9\xaa\x8c',-0.7112338542938232,1.2534005641937256,1.821866750717163,1.3672584295272827,-0.4904545545578003,1.0411410331726074,-2.1871564388275146,-1.6992764472961426,0.11848673224449158,-0.9556429982185364,-0.3360768258571625,-3.087858200073242,-0.6477476358413696,-0.6893336176872253,0.3084578514099121,-0.6038799285888672,-1.6115148067474365,-1.44129478931427,-0.9409293532371521,1.5327353477478027,-0.9693721532821655,-0.6508915424346924,0.6051942706108093,-1.2577935457229614,0.7333811521530151,0.864909291267395,0.5515125393867493,-1.5804072618484497,1.0320039987564087,-0.4041973948478699,2.5022754669189453,-0.3091294765472412,-0.10271061211824417,-1.293082594871521,0.36741501092910767,0.26673638820648193,1.1946686506271362,0.14397120475769043,-0.04452912136912346,0.23077969253063202,-0.2674337923526764,1.7403736114501953,0.7433539032936096,0.7497673034667969,-1.287569284439087,-0.09907717257738113,0.7843498587608337,-0.30804577469825745,-0.29893767833709717,-0.5518066883087158,1.438106894493103,0.9667171239852905,-1.8531239032745361,0.9731184840202332,0.08935029059648514,-0.03619614988565445,1.6802548170089722,-0.396267294883728,-0.17858591675758362,-0.12522420287132263,-0.5078068375587463,0.5574713349342346,-0.9724677205085754,-0.16765190660953522,0.10077512264251709,0.24935156106948853,0.7428856492042542,-2.4410595893859863,1.9157150983810425,2.0920603275299072,-0.8246581554412842,-1.0210115909576416,-0.4499387741088867,-0.1718500703573227,-0.07059039175510406,-0.8400733470916748,-1.567710041999817,1.077372670173645,-0.19419443607330322,1.9856574535369873,0.17191322147846222,2.158055543899536,1.9502313137054443,-3.352576732635498,-0.6367239952087402,0.4705357551574707,-0.6851164102554321,-0.654985785484314,-0.8312696218490601,-1.1288012266159058,-0.3131978511810303,-1.5318782329559326,-0.18570105731487274,1.434518814086914,-1.26593816280365,-0.22431473433971405,-0.6760138273239136,-0.11738723516464233,0.21017934381961823,1.149343729019165,-1.8649306297302246,0.2319103181362152,1.1419997215270996,1.1460130214691162,-0.04024951159954071,-0.6435483694076538,-1.2342352867126465,2.4120278358459473,0.48483920097351074,-0.5241942405700684,-1.794020652770996,0.7109989523887634,0.03008757159113884,-1.0619158744812012,1.0370502471923828,2.666517734527588,-0.12976457178592682,-0.3483322858810425,-0.4644016623497009,0.1765589565038681,1.8900165557861328,-1.1339662075042725,-0.35997265577316284,0.1967248022556305,-0.6673356294631958,0.4896344840526581,1.4141979217529297,-0.7165931463241577,-1.0177831649780273,-0.039292629808187485,1.556886911392212,0.8666014671325684,-0.8414791226387024,-0.39815953373908997,1.1488970518112183,2.144103765487671,0.10174059122800827,-0.9464370012283325,-1.6716147661209106,0.46344324946403503,0.13364219665527344,-2.2968931198120117,1.3623334169387817,-0.4884500503540039,0.7535253167152405,-0.6652613282203674,0.43927282094955444,-0.9849895238876343,1.9967882633209229,-1.027841567993164,-0.32188716530799866,0.7981846928596497,1.7166510820388794,0.8547348976135254,-0.24989941716194153,0.045692507177591324,0.05548940971493721,0.11582008749246597,-0.5678139925003052,-0.30805695056915283,-0.70949786901474,1.1535778045654297,-0.6485639810562134,1.7080010175704956,-0.856224000453949,-0.5706564784049988,-1.3225644826889038,-1.9029459953308105,-0.9028302431106567,1.0421003103256226,-1.1293036937713623,-1.4667823314666748,1.4036628007888794,0.2037089318037033,-0.23493696749210358,2.634011745452881,0.8430622816085815,0.6076705455780029,1.9356917142868042,1.9594314098358154,-1.3678520917892456,0.13615477085113525,-0.9726272821426392,1.3143922090530396,-1.4610106945037842,0.29729583859443665,-0.47380539774894714,-0.8027071356773376,-0.6624592542648315,-0.4473332166671753,-0.48636487126350403,0.31134599447250366,0.9648726582527161,0.34390789270401,-0.3671647012233734,0.3508712947368622,0.6929860711097717,0.9800395369529724,-0.32136040925979614,-1.2034385204315186,0.30596283078193665,0.6823588013648987,-0.4927646815776825,-2.360974073410034,-0.8105813264846802,-0.878735363483429,-0.2880483865737915,-1.8609365224838257,1.1167362928390503,-0.3946932256221771,0.5952866077423096,0.5047900080680847,1.9956446886062622,1.7697495222091675,-1.1013766527175903,0.5244467258453369,0.0032765052746981382,-1.5589343309402466,1.6822831630706787,0.18154564499855042,0.09756217896938324,0.7835278511047363,0.8967611193656921,1.1654585599899292,-0.02945336513221264,-0.6784310936927795,-0.4655868411064148,0.027522986754775047,1.8116096258163452,-2.4730799198150635,1.897010326385498,0.3893583416938782,-0.4607275426387787,1.9988455772399902,0.9041570425033569,0.09417899698019028,-2.3067710399627686,-0.12199904769659042,0.8083751797676086,1.147864818572998,-0.689301073551178,-0.8348615765571594,-1.119289517402649,-0.15026892721652985,1.3804879188537598,0.6000562906265259,0.7327909469604492,0.29431888461112976,-0.9090160727500916,0.4665180444717407,-0.3471836447715759,-0.5172427892684937,-0.5253429412841797,-0.45148470997810364,-0.4013804495334625,-0.8470527529716492,1.3283088207244873,1.135268211364746,0.4123614728450775,0.5614731311798096,0.36205580830574036,0.33471739292144775,-1.2581247091293335,0.5506227612495422,0.23179662227630615,-1.2970974445343018,0.9454969167709351,-0.2816440463066101,1.4186736345291138,-0.01991255395114422,-2.2086572647094727,0.5617626309394836,2.260498285293579,-1.8477953672409058,0.8362695574760437,-0.6851205825805664,-0.3513357639312744,-0.8187018036842346,0.3196755051612854,1.5341517925262451,-0.5476950407028198,-0.6263216733932495,2.2486331462860107,-0.37470677495002747,-0.6233594417572021,0.44607013463974,2.168931484222412,0.21146954596042633,1.325127363204956,-1.267179250717163,0.07386405020952225,-0.11895419657230377,1.338159203529358,2.314051866531372,-0.3531152009963989,0.7546140551567078,-1.2684259414672852,0.8116888403892517,-0.31325697898864746,-1.5072588920593262,-0.02815375290811062,-2.8425421714782715,0.036430634558200836,-1.410050630569458,0.5728294849395752,1.0609147548675537,-0.8329685926437378,-1.9730894565582275,0.0801885798573494,0.04826078191399574,-1.47111177444458,0.10222875326871872,1.7453010082244873,0.018478214740753174,0.9379932284355164,-1.0251295566558838,-2.5187020301818848,-0.5613549947738647,0.22552074491977692,0.3994982838630676,-2.0855913162231445,-1.0380452871322632,-0.5687548518180847,0.4849441349506378,1.1079593896865845,-0.8479259610176086,1.879320740699768,-0.21619349718093872,-0.9493787884712219,-1.2434134483337402,1.2953695058822632,0.9032995104789734,0.8462409973144531,-1.615155816078186,0.28358304500579834,0.09238289296627045,-0.5323270559310913,0.5852060317993164,-0.22296525537967682,1.1083827018737793,-0.17922279238700867,-1.013510823249817,0.036501407623291016,0.0905204638838768,-0.10760491341352463,-0.27562493085861206,-0.44007226824760437,-0.4683215618133545,0.7077184915542603,1.8108247518539429,0.011459761299192905,0.9565445184707642,-1.4713493585586548,-1.9237788915634155,-1.7253859043121338,0.6758959293365479,2.0167384147644043,0.039570827037096024,-0.5620015859603882,-1.3055477142333984,-0.4596240818500519,0.219669908285141,-0.19968855381011963,-0.966475248336792,-1.4157743453979492,0.05139622464776039,-2.3061413764953613,2.209656238555908,-0.298806369304657,-1.7744299173355103,-0.7884836792945862,1.0357346534729004,-0.46760180592536926,1.8792310953140259,0.7105656862258911,-0.7467010617256165,-0.0004360310558695346,0.0367770679295063,1.3842251300811768,0.03182884305715561,1.8609576225280762,-1.2548415660858154,1.4603633880615234,-1.3832181692123413,-1.0078924894332886,2.3041017055511475,-1.3976260423660278,-1.4314993619918823,1.415305495262146,0.820555567741394,-1.2782132625579834,0.5299748778343201,-0.04068992659449577,0.3868410289287567,1.7666916847229004,0.654100775718689,0.6747419238090515,-0.35739073157310486,-0.6662165522575378,-0.4157108962535858
b'\xe7\x94\xb5\xe5\xad\x90\xe6\x98\xbe\xe5\xbe\xae\xe9\x95\x9c',-0.5508750677108765,-0.034298110753297806,0.2030072808265686,-0.6214614510536194,0.2471161037683487,0.4969141185283661,0.3160354495048523,-0.4721861183643341,0.4245047867298126,-0.08004675805568695,-0.6726135015487671,-0.14493094384670258,0.7266563773155212,-0.22457945346832275,-0.26390978693962097,-0.09770084172487259,-0.04706602916121483,-1.2814303636550903,-0.570644736289978,0.06367294490337372,-0.12925459444522858,-0.7568559050559998,0.14525267481803894,-0.10905253142118454,0.5336325764656067,-0.06728370487689972,0.40338850021362305,-0.9236507415771484,-0.02338399365544319,-0.3278762698173523,0.40086081624031067,0.03950412943959236,-0.02200539968907833,0.3343280851840973,0.12117082625627518,-0.7589899897575378,0.743705689907074,0.22860540449619293,0.5386255979537964,-0.5560958981513977,0.15923458337783813,0.9879212379455566,-0.6741371154785156,0.04762621596455574,0.07543795555830002,-0.5254754424095154,-0.06959294527769089,-0.22799746692180634,0.24007943272590637,0.08520577102899551,-0.7378911972045898,0.6372426152229309,-0.14679719507694244,0.0985882356762886,-0.04709821939468384,-0.7325337529182434,-0.4666019678115845,-0.06563685834407806,-0.2728181779384613,-0.3397887945175171,-1.1249123811721802,-0.34708842635154724,0.636536180973053,-0.16606348752975464,0.6712726950645447,-0.3710929751396179,-1.0523231029510498,-0.8580023050308228,-0.3034873902797699,0.3432929217815399,-0.06460848450660706,0.013387189246714115,-0.1502259522676468,0.9100629687309265,-0.312185674905777,0.1380879133939743,-0.08562969416379929,0.415144681930542,1.3921231031417847,0.4146057069301605,-0.13404954969882965,0.5339199304580688,1.0401623249053955,-1.3740986585617065,-0.31409990787506104,-0.17072038352489471,0.5294849872589111,1.0918203592300415,0.3748490512371063,-0.18316352367401123,0.22273609042167664,0.6807169318199158,-0.037315573543310165,0.20979006588459015,0.13748210668563843,0.12251077592372894,-0.30375951528549194,-0.082007497549057,0.32007545232772827,0.4344867169857025,0.012445599772036076,-0.31220072507858276,-0.49471741914749146,-0.114686019718647,0.12872938811779022,0.244255930185318,-0.2684674859046936,1.2734928131103516,0.5671581029891968,-0.055706433951854706,-0.23215113580226898,0.3516608476638794,0.36044853925704956,-0.21449927985668182,-0.413579523563385,0.7969843149185181,-0.9377274513244629,-0.2823110520839691,-0.367685467004776,0.39373379945755005,0.1307022124528885,0.15144792199134827,-0.24716560542583466,0.3781954348087311,-0.2741738259792328,-0.0678701177239418,0.9015294909477234,-0.6779947280883789,-0.23342560231685638,0.8587620854377747,0.0621151365339756,0.6480761766433716,-1.2952098846435547,-0.007112440653145313,-0.22115091979503632,0.7027849555015564,-0.290735125541687,-0.48521506786346436,0.2050676792860031,-0.1679057627916336,0.588216245174408,-0.37388476729393005,-0.02029469981789589,1.094620943069458,-0.01435091532766819,-0.031581804156303406,0.6203920245170593,-0.45115962624549866,0.41456207633018494,0.17363081872463226,0.4461418688297272,0.9168601036071777,-0.5860297679901123,0.3104627728462219,0.19382286071777344,-0.35972195863723755,0.13036948442459106,-0.17990335822105408,-0.18831974267959595,0.0763673260807991,0.020345402881503105,0.6079099774360657,-0.029453715309500694,0.3302886188030243,-0.23924829065799713,-0.006447103340178728,0.8832452297210693,-0.555448591709137,0.27913182973861694,-0.3142271935939789,-0.4966259002685547,-0.015253691002726555,1.3305766582489014,0.902807891368866,-0.5614515542984009,0.38642314076423645,0.8020144701004028,-0.28080594539642334,0.43729859590530396,1.3787277936935425,-1.2281241416931152,0.1346297711133957,0.18834127485752106,-0.4342963397502899,-0.2962667644023895,0.09744539856910706,0.26763996481895447,0.07382092624902725,-0.571312427520752,-0.23671506345272064,-0.03211513161659241,0.5740112662315369,0.3404267728328705,0.08983837813138962,-0.28856053948402405,-0.2602805197238922,0.045649513602256775,-0.20295175909996033,-0.9705847501754761,-0.3659913241863251,0.7868250608444214,-0.32339590787887573,-0.35043561458587646,-0.8981919884681702,0.06435337662696838,0.3014650046825409,0.34716278314590454,0.10653163492679596,0.6481736302375793,-0.14441238343715668,-0.4255092442035675,-0.4804282784461975,-0.18383671343326569,0.8458746075630188,0.01636221818625927,-0.002422991441562772,-0.21217229962348938,-0.26716750860214233,0.41285741329193115,-0.8012068867683411,-0.44901230931282043,-0.7697036862373352,0.1878460794687271,1.2979276180267334,-0.9542540907859802,0.16892555356025696,-0.19583076238632202,-0.5960374474525452,1.0310496091842651,-0.7373780608177185,0.94486004114151,0.3829025626182556,-0.2789763808250427,0.5605230331420898,0.7270338535308838,0.37439554929733276,-0.6305813193321228,0.5271840691566467,-0.3898952305316925,-0.5690423250198364,-0.3829827308654785,-0.6683083176612854,-0.7796676158905029,-0.516430139541626,-0.3652365207672119,0.8446226119995117,0.25168830156326294,-0.7482694983482361,-0.29484015703201294,0.6504468321800232,-0.3849143087863922,-0.043389156460762024,-0.14834249019622803,0.3401873707771301,0.5143161416053772,-0.16730788350105286,0.5379288196563721,-0.1418898105621338,0.6147658824920654,0.41828563809394836,-0.7956152558326721,0.13739702105522156,-0.8382931351661682,-0.15081141889095306,0.13988932967185974,0.4358959496021271,0.8418791890144348,0.2228526622056961,0.5101351141929626,-0.5826098918914795,-0.20966961979866028,0.10996414721012115,0.8957074880599976,0.302144855260849,0.06672941148281097,-0.18590830266475677,-0.6583593487739563,0.026252267882227898,-0.4939122200012207,0.4482322633266449,-0.4849819839000702,-0.4038604199886322,1.2059931755065918,-0.25755178928375244,-0.9626373648643494,0.24288254976272583,-0.3048021197319031,0.2748318910598755,-0.48626723885536194,-0.008399171754717827,-0.36055174469947815,0.15067733824253082,0.23309426009655,0.15915079414844513,-0.2947697043418884,0.8207919001579285,-1.0701477527618408,0.5470695495605469,-0.2779679298400879,-0.700262188911438,1.121938943862915,-0.45834699273109436,-0.2539549767971039,-0.4181651771068573,0.32393577694892883,-0.2473626285791397,-0.5229758620262146,-0.7570700645446777,-0.8258070945739746,0.22089602053165436,-0.008068155497312546,0.3410508632659912,0.6308236122131348,-0.47185173630714417,0.28939321637153625,-0.7975915670394897,-0.4444599747657776,-0.3849312365055084,-0.10384973883628845,-0.3218318819999695,0.14386509358882904,-1.1730271577835083,0.2716027498245239,0.32490649819374084,-0.7324785590171814,-0.13602887094020844,-0.6707617044448853,-0.5267132520675659,0.4991692304611206,0.12135392427444458,-0.4080708920955658,0.4044528901576996,0.0006490289233624935,-0.8521756529808044,0.4171631336212158,-1.088828682899475,-0.4469555914402008,-0.4133894145488739,-0.9824787378311157,-0.9660637974739075,0.05771064758300781,-0.40208739042282104,-0.2513865828514099,-0.9614706039428711,-0.6594127416610718,-1.1008278131484985,0.2667939066886902,0.3911559283733368,0.2618410587310791,0.6735947132110596,-0.2163940668106079,-0.4893879294395447,0.041750624775886536,-0.28795358538627625,-0.08076877892017365,-0.9659717679023743,0.37813591957092285,-0.5493411421775818,-0.21130235493183136,0.10473166406154633,-0.05842433124780655,0.3736180365085602,0.2375851422548294,-0.4979774057865143,-1.3942278623580933,-0.8228786587715149,-0.29471585154533386,0.7061211466789246,0.6159425973892212,-0.8741695880889893,0.2580367922782898,-0.3983041048049927,1.1453406810760498,0.8243237137794495,0.22913290560245514,-0.3307640552520752,-0.3677000403404236,-0.7330841422080994,0.5989917516708374,0.0933593213558197,0.19941619038581848,-0.04534585401415825,0.39374205470085144,-0.33386948704719543,-0.96656334400177,-0.01881679706275463,0.8063017129898071,-0.41216346621513367,-0.2656992971897125,-0.6175490021705627,0.2361738681793213,0.5635981559753418,-0.5969139933586121,-0.05341743305325508,0.7054628133773804,0.5122811198234558,0.5808339715003967,0.2511870563030243,0.7973132133483887,-0.5600771903991699
b'\xe5\x88\x86\xe5\xb8\x83',-1.4602473974227905,-0.5617647171020508,-1.4131776094436646,0.9168798923492432,1.3648351430892944,0.40524786710739136,-1.0664533376693726,0.722789466381073,1.2586472034454346,-1.4442130327224731,0.7963717579841614,1.3479201793670654,-0.18572057783603668,0.8760038018226624,-2.0783183574676514,-3.626577854156494,-0.4552013576030731,0.7997007369995117,-0.9390124678611755,3.4698712825775146,-0.4342997372150421,0.3672877252101898,-0.3615575134754181,0.8521431684494019,0.2212003767490387,0.7049772143363953,4.155532360076904,-1.8647383451461792,-0.8447937369346619,-0.1832915097475052,1.1532968282699585,0.8704283237457275,2.0540881156921387,0.30720454454421997,-0.4328082501888275,-1.1685370206832886,1.5854747295379639,0.5442222356796265,-0.741595447063446,-1.7288092374801636,1.0316197872161865,0.24089299142360687,1.6046653985977173,-0.2046857476234436,1.0262645483016968,2.626882791519165,-2.055434465408325,-0.28888750076293945,0.6331146359443665,-1.1929055452346802,-0.9873666763305664,0.4495241343975067,1.1786398887634277,-1.440793514251709,-3.15523362159729,0.6759052872657776,-2.127319812774658,-0.04527786374092102,-0.49804627895355225,2.8392045497894287,-1.0831395387649536,1.8568583726882935,0.31654104590415955,0.632055938243866,1.1880922317504883,-0.8610025644302368,-0.28422847390174866,-0.8755561113357544,-1.4945484399795532,1.4659444093704224,-0.05942676588892937,-1.5571836233139038,0.35677364468574524,2.2694003582000732,0.013426363468170166,0.3945797085762024,-0.6969517469406128,-1.1020407676696777,1.632725715637207,-1.507013201713562,0.35900014638900757,0.5977755784988403,-1.048576831817627,-2.2672805786132812,0.07464838027954102,0.910993218421936,5.297595977783203,-1.6256239414215088,3.3389804363250732,1.7454307079315186,-2.4778566360473633,0.8832177519798279,-1.9546754360198975,1.0128549337387085,0.34348979592323303,0.9440482258796692,-0.4545734226703644,0.011855860240757465,-0.15841887891292572,0.6820892095565796,0.47116684913635254,-1.497308373451233,-1.2056022882461548,-0.6360983848571777,-1.27742600440979,-0.14848370850086212,0.06867958605289459,3.2354047298431396,-0.4104398787021637,1.9967056512832642,0.16806422173976898,2.2325572967529297,-0.07294238358736038,-0.805431067943573,-0.8621985912322998,1.0505436658859253,-0.9526827335357666,0.778082549571991,-1.1955821514129639,0.8906738758087158,-0.9595732688903809,2.485114097595215,-1.4894177913665771,-0.6907570958137512,-1.5948797464370728,0.05962381511926651,-1.3264120817184448,0.20298846065998077,-1.8168447017669678,0.06594429165124893,-0.9468038082122803,2.3297786712646484,-1.5186387300491333,2.041367769241333,-0.5109655857086182,-0.8286586999893188,1.9356038570404053,0.8584496974945068,1.339938759803772,0.4419797956943512,1.0378016233444214,-2.134251832962036,1.1403709650039673,0.06982341408729553,1.2551302909851074,0.1850920170545578,0.9522415995597839,-0.1311647891998291,0.3547617793083191,-2.5328056812286377,1.889123558998108,1.888975977897644,1.3626940250396729,-1.3752578496932983,-1.6936756372451782,-0.5598360896110535,0.48079487681388855,-2.743565320968628,1.4225153923034668,-0.04471965879201889,0.9974742531776428,-1.321528434753418,0.690233588218689,0.48141828179359436,0.9664990305900574,-1.0174304246902466,-0.8278384208679199,0.765621542930603,-1.2728523015975952,0.8114579916000366,0.8390343189239502,-0.47770610451698303,2.643186092376709,-0.9773061871528625,-0.5478115081787109,-1.8454763889312744,-0.5564319491386414,-0.8464221358299255,0.1933668553829193,0.6896511912345886,0.9448662400245667,0.5532093048095703,0.5086463689804077,-2.0493710041046143,1.466755747795105,-1.8965449333190918,0.1929369866847992,-0.8270759582519531,0.29758983850479126,-1.168107271194458,1.349550485610962,-0.5979824662208557,0.4777676463127136,0.7627502679824829,0.6597948670387268,0.8770269751548767,-2.342674732208252,-2.046919345855713,-2.4085512161254883,2.4273080825805664,-1.077221155166626,-1.3680756092071533,0.3974093794822693,-2.978881597518921,1.0564159154891968,-0.4812694787979126,-1.2707571983337402,-2.3533430099487305,-0.9392876625061035,2.146214485168457,0.5067505836486816,-0.19792361557483673,-1.9726152420043945,1.511378526687622,-0.022295303642749786,0.8153447508811951,2.0452773571014404,-0.05776657536625862,0.3953518271446228,0.024568544700741768,-0.28872743248939514,0.3370976746082306,-0.3285115361213684,-1.1607623100280762,-0.04871229827404022,0.672204315662384,-2.527750253677368,-1.5805686712265015,2.3535542488098145,0.6440560817718506,-0.2785301208496094,-0.620292603969574,-2.926940441131592,0.6852194666862488,1.5336567163467407,-0.1301782727241516,-1.695441722869873,1.894763469696045,-1.1230822801589966,0.2689133286476135,0.15908190608024597,0.167830690741539,-2.1597254276275635,-1.094581961631775,-0.010171142406761646,-0.6296001076698303,-0.2660478949546814,-0.740153431892395,0.35255923867225647,2.7854771614074707,-0.966874897480011,-0.2822529971599579,-2.0154144763946533,2.3564510345458984,-0.3815668523311615,-0.7906913757324219,0.14455431699752808,1.2755775451660156,1.4848012924194336,1.5008447170257568,-0.606593906879425,-2.447777271270752,1.1679003238677979,-0.7181471586227417,0.560874879360199,0.5027284026145935,0.20927821099758148,-0.8741186261177063,-0.3945091664791107,1.1118501424789429,1.2033931016921997,0.4380910396575928,0.802996039390564,-1.900411605834961,-0.039022695273160934,4.17302942276001,0.14389808475971222,-0.8672865629196167,0.3777635097503662,-0.5150834918022156,-0.3629324436187744,0.8788381218910217,1.2891108989715576,-0.5095818042755127,0.09912928193807602,-2.3153233528137207,0.3421195149421692,-1.001258373260498,0.5797778367996216,-0.09996140748262405,0.4899718463420868,1.462692141532898,-1.4025479555130005,-0.22669155895709991,-0.7126882672309875,1.4156956672668457,-0.6619822382926941,-0.08435379713773727,-0.5230348706245422,0.34043970704078674,-0.5197995901107788,0.8653209209442139,-2.3116869926452637,0.6665742993354797,-0.422683984041214,1.6654002666473389,-0.9989057779312134,-1.446642518043518,0.6642444729804993,-0.5756884813308716,-0.8096437454223633,0.7469670176506042,-1.117182970046997,1.8125076293945312,1.8148256540298462,-2.0087108612060547,-0.14695903658866882,2.4776268005371094,0.46485427021980286,2.014270544052124,-0.17783986032009125,-2.58882212638855,1.934944987297058,3.6142146587371826,-1.0554291009902954,0.4462307095527649,0.5052723288536072,0.5773846507072449,0.968433141708374,-0.2767770290374756,1.1517566442489624,0.637092113494873,1.6342300176620483,-2.4491689205169678,0.13690482079982758,0.9869365692138672,-0.9864880442619324,0.7428662180900574,-0.1649049073457718,1.338127613067627,-0.8066069483757019,-0.9647384285926819,-0.2048967033624649,-1.664125680923462,-1.1657518148422241,-0.5643660426139832,-1.2834205627441406,0.43501701951026917,-0.37211325764656067,0.5932310223579407,-2.8433892726898193,1.4246469736099243,-3.019219160079956,0.6939880847930908,0.46293333172798157,-2.286756992340088,0.8699724078178406,1.2022686004638672,-0.025397691875696182,-0.872086763381958,-0.6275493502616882,-2.0793392658233643,-2.4952468872070312,-0.0834641382098198,-2.405411958694458,-0.4206975996494293,1.0425810813903809,-2.6493656635284424,1.8807491064071655,2.074230909347534,1.7054988145828247,0.7594624161720276,-2.160393714904785,0.5900276303291321,1.0814157724380493,0.5893804430961609,-1.00105619430542,0.3701751232147217,0.16430167853832245,-0.5831004977226257,0.31280556321144104,-0.9272465705871582,0.557121753692627,-0.9582701921463013,2.563835382461548,-2.292442560195923,-0.35683473944664,-1.227109670639038,-2.2314441204071045,1.0044788122177124,-0.5743780136108398,-1.1626335382461548,-0.3359410762786865,-1.4432200193405151,-4.002767562866211,0.9706278443336487,-0.4916311502456665,-0.4836243987083435,-1.0165420770645142,-0.05472661554813385
b'\xe5\x88\x9d\xe6\xad\xa5',0.5520039200782776,1.1882383823394775,0.9288216233253479,0.07452145963907242,-1.8761005401611328,1.2004237174987793,-0.1309608668088913,0.18114922940731049,-0.0009628512780182064,-0.149038165807724,-1.457472562789917,-0.35671573877334595,-1.5335206985473633,-0.676401674747467,-1.3722220659255981,-0.5950528383255005,0.5263979434967041,1.0044541358947754,-1.0094517469406128,0.40422970056533813,0.09527701884508133,-0.3551103472709656,-0.15083973109722137,0.019431881606578827,0.7676193118095398,0.9229691028594971,-0.9787486791610718,-1.4630094766616821,1.1792380809783936,-1.5599472522735596,2.2503268718719482,1.8482338190078735,-1.0967860221862793,1.4808673858642578,0.8329845070838928,-0.7128475904464722,1.1710737943649292,0.5817664265632629,0.3434179425239563,-0.34515759348869324,-0.09121832251548767,-0.029208717867732048,-0.6983976364135742,0.8549842834472656,1.2273927927017212,-1.1820411682128906,0.45622408390045166,0.4822087585926056,-0.14856819808483124,0.35949718952178955,-0.5577793717384338,0.532304584980011,1.8964406251907349,-1.4112627506256104,-0.8665575981140137,-0.14108557999134064,0.820801317691803,-1.839669108390808,-0.17423756420612335,1.1277046203613281,0.44751060009002686,0.9847455620765686,1.406934142112732,-0.47365668416023254,-1.598648190498352,-0.5393068194389343,0.3537673056125641,1.2177218198776245,-0.7526563405990601,1.722922444343567,-0.5180150270462036,-0.9285569787025452,-0.15506882965564728,0.3639528751373291,-0.11072941869497299,0.25720423460006714,0.6101135611534119,1.489861249923706,0.06068805232644081,0.2170344889163971,-1.0522540807724,1.3818649053573608,1.078309416770935,-3.2434518337249756,0.4649525582790375,0.3935377299785614,-1.090089201927185,-0.4143170118331909,-0.6522161960601807,-0.5684826374053955,-0.667729914188385,-1.8596937656402588,-1.1963131427764893,0.20603132247924805,-0.442076712846756,0.031551335006952286,-0.4349018931388855,0.39347758889198303,-0.5374277234077454,-0.579614520072937,-0.47466519474983215,-0.250497430562973,-0.5915688872337341,1.3076872825622559,-0.3597813546657562,0.20384863018989563,-0.6809070706367493,0.7542718648910522,0.5490825772285461,0.4486674964427948,1.346733570098877,0.39595547318458557,-0.04443700984120369,0.08709400147199631,1.5236808061599731,-0.5722574591636658,1.0132673978805542,-0.025478675961494446,0.015825267881155014,-0.12636709213256836,0.7593884468078613,-0.622127115726471,-0.24195212125778198,1.0547113418579102,-1.3942104578018188,-0.9208930134773254,-0.9520471692085266,-1.3452026844024658,0.39484477043151855,1.1017533540725708,-0.3334487974643707,1.3064535856246948,0.7173617482185364,-0.70967036485672,0.07618395239114761,-1.1075773239135742,-0.2433537393808365,0.44054514169692993,-1.1438997983932495,0.04379764199256897,0.23639412224292755,0.6008913516998291,0.1616775393486023,1.27187180519104,0.22856758534908295,1.4350299835205078,0.9865038394927979,0.43618112802505493,-0.04394388943910599,-1.165771245956421,-0.3272872865200043,-0.6052735447883606,0.25862064957618713,-0.5090287327766418,-0.1000591591000557,0.43437060713768005,0.15801328420639038,0.005749959964305162,0.05250740051269531,1.5185798406600952,-0.22454704344272614,0.7343583106994629,0.7007114887237549,-0.12247618287801743,0.9147487878799438,-0.6340489387512207,0.003250795416533947,1.619064211845398,-0.6365445852279663,0.24825988709926605,0.5200240612030029,-0.603756844997406,-0.5793646574020386,-1.3215537071228027,1.2464120388031006,1.0916881561279297,1.4800325632095337,0.8633077144622803,1.63027822971344,0.6149202585220337,-0.03727621212601662,-0.14027239382266998,1.6048014163970947,-0.49933791160583496,0.49579471349716187,0.9553304314613342,-0.3952161371707916,1.9580323696136475,-0.7153133749961853,-1.1038143634796143,-1.2116830348968506,0.38622990250587463,0.821086049079895,-0.07057217508554459,-1.115738034248352,0.48126938939094543,0.6702623963356018,1.3288495540618896,0.41756632924079895,-0.40817171335220337,1.2315616607666016,-0.07862775772809982,0.5832474827766418,-0.28850486874580383,-0.6054503321647644,-1.5247546434402466,0.8487616181373596,-0.7005481123924255,1.0412546396255493,0.30429282784461975,-2.2189323902130127,1.0839654207229614,0.2247467339038849,-0.02119774930179119,0.3520039916038513,-0.2396198958158493,-0.2689884901046753,-1.7884302139282227,-0.6085890531539917,-0.4617205858230591,0.06235333904623985,0.1011916771531105,-1.013440728187561,0.635499894618988,-0.2051580399274826,-0.5246214270591736,0.2992814779281616,0.03704550117254257,0.8975546360015869,1.0024116039276123,0.4245080053806305,0.8818360567092896,0.7405003905296326,0.7247415781021118,2.139464855194092,0.6361890435218811,0.7916637063026428,-0.1859649121761322,0.1417064070701599,1.0825974941253662,0.6733028292655945,-0.9240845441818237,0.5664268136024475,-0.1578335016965866,2.1659739017486572,0.0014944387366995215,-1.3259128332138062,0.282397598028183,-0.22101697325706482,0.43881985545158386,0.6716940402984619,0.0939069464802742,-0.5249503254890442,1.0592128038406372,-0.7976764440536499,-0.4794307053089142,1.3225653171539307,0.5478167533874512,-0.538173258304596,0.9460344910621643,-1.8344557285308838,0.6255409717559814,-2.2485039234161377,-0.07183738052845001,0.18745078146457672,-0.6111561059951782,2.3839399814605713,-0.6370357275009155,0.8027825355529785,0.5034868717193604,-0.5688994526863098,-1.1134417057037354,0.6324894428253174,-1.9246432781219482,0.8278650641441345,-0.047889143228530884,-0.7062104344367981,-0.9871922731399536,1.0972027778625488,-0.3107631504535675,-0.7061800956726074,-0.537087082862854,2.221257209777832,-1.0705459117889404,-0.3587532937526703,0.19719845056533813,0.9859566688537598,-0.5427315831184387,-0.4431256651878357,1.3090845346450806,-1.3968229293823242,-0.4123653769493103,1.6145683526992798,-0.7207394242286682,-0.6134132742881775,1.223714828491211,-1.472483515739441,2.249114751815796,-0.26870909333229065,-0.8616244792938232,0.014188031665980816,-2.551793098449707,1.654556155204773,-0.921434760093689,-0.48947131633758545,1.3736826181411743,-0.8012961149215698,0.1947888731956482,0.3914441466331482,0.5496008396148682,1.017661452293396,0.07077942043542862,0.3413061201572418,-0.459710955619812,-1.4229278564453125,-1.2912689447402954,-1.6126437187194824,1.714035987854004,0.06734053790569305,0.5572806596755981,-0.3753756880760193,-0.012335707433521748,0.8676792979240417,-0.12877574563026428,1.5981305837631226,-1.2135435342788696,1.2198232412338257,-0.6295505166053772,-0.6357665061950684,0.1855621188879013,2.4283297061920166,-0.45521676540374756,0.16999365389347076,-1.0402112007141113,0.695317268371582,0.39491766691207886,-1.2696983814239502,0.08617667853832245,-0.8001875877380371,-0.5254014730453491,-2.8735578060150146,-1.402896523475647,-1.1699402332305908,0.605783998966217,-2.3862967491149902,0.6648060083389282,-0.5379201769828796,0.32447803020477295,0.558777928352356,-0.21812650561332703,-0.40175530314445496,0.7988193035125732,-0.6008323431015015,0.4790395498275757,-0.06633797287940979,-0.24716702103614807,1.3837841749191284,-0.0901244655251503,-0.41437631845474243,-0.9758050441741943,0.9248387217521667,0.7121953368186951,-0.36285123229026794,0.12827347218990326,-0.7279828786849976,-0.47823566198349,-0.24869081377983093,0.7549863457679749,0.3074962794780731,-0.9925841689109802,1.3873882293701172,-0.2121838629245758,-1.417542576789856,0.08585456013679504,1.192521095275879,-0.8209555149078369,-1.011440396308899,-1.2216910123825073,0.9865567088127136,-0.48120003938674927,0.2724243700504303,-0.23365502059459686,-0.25188007950782776,0.13723964989185333,0.07880975306034088,1.1602749824523926,-0.6476535201072693,0.008917354978621006,0.2543167173862457,-0.7756160497665405,-0.19304293394088745,2.0221786499023438,0.4290868937969208,-0.03671121969819069,-0.350078821182251,0.36994102597236633,-0.0930560976266861,-0.8296721577644348,-0.912731945514679,0.032594505697488785
b'\xe9\x80\x89\xe6\x8b\xa9',0.3353690505027771,-0.6045928001403809,1.6685175895690918,0.8277621865272522,0.6620537042617798,-2.139659881591797,1.3545820713043213,-0.33774128556251526,1.885568380355835,-0.662002444267273,-0.6783559322357178,-0.3091443181037903,-1.6740351915359497,-1.5651443004608154,-0.9380074739456177,-0.10310842841863632,-0.75755774974823,-1.5858092308044434,-0.6448129415512085,-0.8897240161895752,-0.417624294757843,-1.4882535934448242,1.1527541875839233,0.739081859588623,1.2589616775512695,1.204214334487915,-0.5916232466697693,-0.6934517025947571,0.23091791570186615,-1.0645842552185059,0.9351881146430969,-0.679149866104126,-0.05768733099102974,0.05921709164977074,-2.2915046215057373,-1.045089840888977,1.153568983078003,0.040378451347351074,-1.2146309614181519,1.9462796449661255,-0.8865875005722046,-0.3404662013053894,-1.2889152765274048,0.7526586651802063,-0.8520882725715637,-1.226982593536377,-0.6865864992141724,0.45053261518478394,0.8535968661308289,-1.5265073776245117,-0.48038703203201294,0.5967234969139099,0.7128896713256836,-0.15464474260807037,0.9039073586463928,1.1834421157836914,-0.2938511371612549,0.9099475145339966,1.5754573345184326,-2.1317689418792725,2.881387710571289,-0.06021694466471672,0.1013936921954155,0.28624314069747925,0.6271186470985413,0.3046083152294159,0.1460651308298111,0.5955484509468079,0.3955090343952179,0.9712621569633484,0.8899244666099548,0.3971705734729767,0.8384513258934021,1.356178641319275,-0.33164140582084656,-1.2875946760177612,2.3916547298431396,-0.3644828200340271,-0.18924501538276672,-1.1126399040222168,0.7589470148086548,1.352523684501648,0.8432702422142029,-0.4909543991088867,0.42488211393356323,-0.19718948006629944,1.5142111778259277,0.8510088920593262,-1.0144031047821045,0.2555633783340454,0.7808026671409607,-0.27117234468460083,-0.18833991885185242,1.2387200593948364,-1.6199976205825806,0.14110319316387177,-0.4560624659061432,0.5578719973564148,-0.889380693435669,0.7233688831329346,0.8998355269432068,-0.3079566955566406,1.1355150938034058,0.2647872567176819,-0.050092633813619614,-0.20243042707443237,0.2700102627277374,1.1456516981124878,-0.5017223358154297,1.1295433044433594,-1.9233819246292114,0.4262982904911041,0.5427232980728149,-0.5184957981109619,0.853232204914093,1.4084886312484741,-0.06933318823575974,1.0202912092208862,-0.9144794940948486,0.16104386746883392,1.4657697677612305,1.5072345733642578,0.5945236086845398,-0.19830814003944397,2.1255271434783936,-0.4828031063079834,-0.036245010793209076,-0.6653185486793518,1.1943492889404297,-0.6047905087471008,-1.945143461227417,1.8526533842086792,1.9265459775924683,-1.5068840980529785,-0.4391242563724518,0.1752961277961731,0.5004644393920898,0.33991971611976624,0.9859399199485779,0.10432513058185577,-0.04863108694553375,-1.1838022470474243,0.43388643860816956,0.8364073038101196,0.8329551815986633,0.2686576843261719,0.6664165258407593,-0.6186575889587402,-0.6682447791099548,-2.1525399684906006,-0.38338175415992737,1.4743247032165527,0.606336236000061,0.6850522756576538,-0.5649989247322083,0.7060069441795349,-0.4387853741645813,-0.4560036063194275,-0.04074430093169212,-1.224434494972229,0.0542052686214447,0.2531985938549042,-1.3841849565505981,-0.2630820870399475,-2.152477502822876,-1.6836551427841187,1.2200779914855957,-1.4888163805007935,-0.22405265271663666,0.33365580439567566,0.969883143901825,-0.12859474122524261,-0.6600180864334106,-0.9634480476379395,0.7902209162712097,-0.6284167766571045,0.26633819937705994,0.6754099726676941,1.2127647399902344,1.324141263961792,1.6287668943405151,-1.5476404428482056,0.6327946782112122,0.3416111171245575,-1.2182426452636719,0.755190372467041,0.3603192865848541,-0.10408484190702438,-0.09195933490991592,0.5876070261001587,1.3893903493881226,-1.5512914657592773,0.33625471591949463,-0.45831775665283203,-0.38559797406196594,-1.0030659437179565,1.7788033485412598,0.71518474817276,-0.0790017694234848,0.2843162417411804,-0.4162543714046478,-1.4100873470306396,-1.316022515296936,0.06884050369262695,0.2794339060783386,0.5518919229507446,2.476487398147583,-1.1011606454849243,2.332321882247925,0.17523857951164246,2.8770108222961426,1.5931103229522705,-0.19769294559955597,0.37138524651527405,0.6347465515136719,0.4706519842147827,-0.02818194031715393,-1.0867009162902832,0.956434428691864,0.16501855850219727,-0.16212011873722076,1.1135202646255493,-1.980757713317871,0.42881646752357483,-0.01791173592209816,-0.5630788207054138,1.8954342603683472,-0.8260880708694458,0.2872660756111145,-0.6708077192306519,1.356177568435669,0.6685105562210083,-1.2077664136886597,0.5068766474723816,-0.8525162935256958,-0.1380290389060974,0.08984705060720444,1.096071720123291,1.2986934185028076,-0.0797196701169014,1.660376787185669,0.8271127343177795,-1.6856999397277832,0.34536823630332947,-0.9388984441757202,0.3735407292842865,0.6327685713768005,0.6019636392593384,-1.451783299446106,0.8680155873298645,0.3636174499988556,-0.7071470618247986,0.4377312660217285,-2.295954465866089,-2.620293140411377,0.9297677874565125,1.4569542407989502,2.0069596767425537,-2.06772518157959,0.08283044397830963,0.3720017075538635,1.3952900171279907,0.2974527180194855,-0.9375382661819458,-1.172080636024475,-0.6990603804588318,0.27072060108184814,0.7147865295410156,0.011411330662667751,0.03845823556184769,0.2652696371078491,-0.42682087421417236,0.9935526847839355,-1.304976224899292,1.1773840188980103,0.11673399806022644,-1.6215122938156128,-2.642939329147339,0.9215401411056519,1.5826326608657837,-1.883821725845337,0.9544357061386108,-0.9085167050361633,-1.6554372310638428,-0.13448116183280945,-1.1311594247817993,-1.414732813835144,1.9506272077560425,0.7198618650436401,-0.5447408556938171,-0.7383466362953186,0.5529772639274597,0.2972249984741211,1.4658643007278442,-0.6922764182090759,-0.731357753276825,0.051560282707214355,1.2797694206237793,0.4960055649280548,0.1483331173658371,0.0645255297422409,-1.1327252388000488,1.1504361629486084,0.1700894981622696,-0.41023895144462585,-1.0064198970794678,1.0413092374801636,-1.2069567441940308,0.42222434282302856,-0.6755834817886353,-1.1995221376419067,-1.4031589031219482,-0.6449525356292725,-1.4471795558929443,-1.5977213382720947,-0.05624670535326004,0.7245126962661743,1.3802341222763062,0.6754119992256165,1.4443808794021606,-0.2794613838195801,1.9512442350387573,0.42267540097236633,-0.5151540040969849,-0.20794086158275604,-0.19410733878612518,3.508969306945801,-0.14351236820220947,0.9579281210899353,-0.8587425947189331,1.359581470489502,-0.7679564356803894,-1.4030016660690308,-1.590185284614563,-0.9959012269973755,0.8599885106086731,0.9711076617240906,-1.7375202178955078,0.14610683917999268,-1.043050765991211,-1.6616748571395874,-0.027518777176737785,0.4281846284866333,0.12195472419261932,1.1599267721176147,-0.4514767527580261,0.029110433533787727,1.0274873971939087,0.7236557006835938,0.7851577401161194,0.6742679476737976,0.41729679703712463,0.029529131948947906,0.5638474225997925,-0.038921888917684555,0.020368337631225586,0.773701548576355,-0.2864651083946228,0.44316667318344116,0.5929657816886902,-1.377015471458435,1.7369239330291748,-1.244986891746521,-0.4374839663505554,-2.0301244258880615,-1.002182960510254,0.08766580373048782,0.5796688795089722,-1.8650249242782593,-1.4772199392318726,1.4225342273712158,-0.3675519526004791,-2.196180820465088,0.7446897625923157,-0.45896613597869873,0.20893587172031403,0.49755436182022095,0.20999297499656677,0.31723812222480774,0.38122355937957764,-0.5375312566757202,1.2585572004318237,-0.15152855217456818,-0.24655568599700928,-0.7822858095169067,1.0494722127914429,-2.1330044269561768,0.9078551530838013,0.6467403769493103,-0.1182544007897377,-0.15588338673114777,0.9989898204803467,-0.41041210293769836,-0.47150200605392456,-1.177626371383667,3.5453968048095703,-0.49292224645614624,-0.2390916645526886,0.43472230434417725,-1.1013867855072021
b'\xe4\xbd\x9c\xe7\x94\xa8',1.4897115230560303,0.6132432818412781,-0.5429025292396545,0.08665499091148376,0.9983180165290833,-0.4455699622631073,-0.8445305824279785,-0.5750569105148315,0.5488871932029724,0.9418594241142273,-0.8901042342185974,-1.848191499710083,0.3091995120048523,-0.3991912007331848,-0.8778407573699951,-2.531558036804199,0.34882688522338867,-1.551267147064209,-1.3019052743911743,1.9270784854888916,2.3974368572235107,0.028524626046419144,0.6231347322463989,0.1648222953081131,0.24283333122730255,1.238224983215332,0.8154013752937317,-1.0157463550567627,-0.2864547669887543,0.1394762247800827,1.8993539810180664,2.035903215408325,0.9624844193458557,2.3573341369628906,1.1861320734024048,-0.5264797806739807,0.7627584934234619,-0.41252362728118896,0.44246676564216614,-0.02786937728524208,1.145185947418213,1.0184731483459473,1.1157640218734741,1.9528117179870605,0.6118797063827515,-1.0795025825500488,-0.17569100856781006,2.9694430828094482,-0.13604645431041718,-1.5159915685653687,0.7841317057609558,0.7835292220115662,0.1819600611925125,0.518913745880127,-0.7340508699417114,-2.13478946685791,-0.7598434090614319,1.1831228733062744,-2.0152411460876465,-3.439103841781616,-1.074828863143921,1.4329800605773926,0.16204440593719482,0.12564998865127563,-0.7239659428596497,0.6250467896461487,-0.9966735243797302,-0.08375152200460434,-0.8071381449699402,1.4171736240386963,0.18086178600788116,-0.6844691634178162,0.7912001609802246,1.7602659463882446,-0.6847535371780396,1.097070574760437,-1.2455251216888428,-1.769723653793335,0.0981406569480896,-1.1874662637710571,-1.895639419555664,2.0289642810821533,-0.9076419472694397,-1.0317176580429077,-0.3376416563987732,-0.9792382121086121,0.5473288893699646,-0.7459244132041931,2.327284336090088,-0.272068589925766,1.2308564186096191,0.9754794836044312,-0.12790325284004211,-0.596316397190094,-1.4979934692382812,1.994025468826294,2.4362711906433105,1.5223109722137451,-0.2036062777042389,-0.8993233442306519,-0.09560833871364594,-0.04883204773068428,-1.6751958131790161,-0.5867714285850525,-1.7646774053573608,-0.5744785666465759,0.43844762444496155,1.191062092781067,-1.1687309741973877,-0.4046505391597748,-0.0763004794716835,2.4291255474090576,-0.4523389935493469,-0.9769262075424194,-0.9320654273033142,-0.12412665784358978,2.158092498779297,1.0204654932022095,-0.6509259939193726,1.6674433946609497,0.42343395948410034,1.6051687002182007,0.28836050629615784,1.753963589668274,-1.171628713607788,2.037872552871704,-0.08434226363897324,-0.8041670918464661,0.05790206044912338,1.6802711486816406,-0.7506890892982483,0.48965299129486084,-1.3706753253936768,0.10836654156446457,-0.27088847756385803,-0.7273759245872498,0.2327900230884552,-1.0799683332443237,1.2381268739700317,-1.8619544506072998,1.3983057737350464,-1.8470613956451416,1.0156371593475342,-1.453469157218933,0.8384250998497009,-0.9625118374824524,3.3931188583374023,-0.3678801655769348,0.9688040018081665,2.080439805984497,0.9495241045951843,0.8398709297180176,0.15729303658008575,-1.2764257192611694,-0.40821942687034607,0.37518495321273804,-1.317936897277832,-0.3868940472602844,0.7838402390480042,0.04573927819728851,0.2033834159374237,0.2086295187473297,0.9393242001533508,0.20625227689743042,0.6872405409812927,0.8400534987449646,0.5610071420669556,-0.8123205900192261,-0.640518844127655,0.37680914998054504,1.1530981063842773,-0.5742620825767517,0.901291012763977,-0.6597069501876831,2.151735305786133,-0.18020500242710114,-0.09545399248600006,0.014090939424932003,0.6851581335067749,1.576676607131958,-1.3105443716049194,0.8288654685020447,1.2624499797821045,0.42073720693588257,0.21473245322704315,0.17807307839393616,0.043252166360616684,1.1043391227722168,-0.013776144944131374,-1.5959997177124023,-0.5514621138572693,0.5470630526542664,0.18805330991744995,0.20089231431484222,-1.454499363899231,-0.045020170509815216,-1.9790918827056885,-0.8341105580329895,-1.6496703624725342,-0.515188455581665,0.7159913778305054,0.5708770751953125,0.7854332327842712,-2.1369681358337402,0.6248367428779602,0.08865362405776978,1.4689189195632935,-1.0360428094863892,3.1483490467071533,-0.6251866221427917,-0.7935088276863098,0.4953116178512573,1.3688900470733643,2.3328115940093994,0.27088072896003723,0.28881967067718506,0.020439855754375458,-2.0791311264038086,1.5913615226745605,-1.236939549446106,-0.7790648341178894,-0.17792794108390808,1.190868854522705,-1.3748984336853027,-1.2957035303115845,-0.06890782713890076,0.6903820037841797,-0.3917255997657776,0.0650598481297493,0.1799657791852951,0.4629853069782257,1.2398728132247925,-0.042898427695035934,1.4823791980743408,-1.2271101474761963,-1.7846988439559937,-1.7596551179885864,2.32791805267334,0.3138754069805145,0.4664303660392761,-0.6862079501152039,0.9293744564056396,-1.5879607200622559,-0.8068978190422058,1.3086152076721191,0.4609001874923706,1.1689003705978394,-1.8344950675964355,0.16046521067619324,0.785830557346344,-0.9112030863761902,-0.2613227367401123,0.29522210359573364,1.3063026666641235,-0.4066912531852722,-0.9051827192306519,0.7521523833274841,0.00775755662471056,1.7075046300888062,-0.40554702281951904,-1.1041239500045776,-0.05597059056162834,-0.9127330780029297,-1.5848264694213867,-0.6871499419212341,-0.0025963603984564543,2.4118099212646484,-0.6719481945037842,1.9386765956878662,-0.12840597331523895,-0.9274905920028687,-0.525757372379303,0.5456265211105347,-1.1659209728240967,0.45279866456985474,-0.7973422408103943,-1.2963541746139526,-1.9550398588180542,2.0670764446258545,1.578258752822876,-2.2113144397735596,0.4421045184135437,1.9276078939437866,-1.4672462940216064,0.07471241801977158,0.4842839539051056,0.9178488254547119,1.1409331560134888,-0.3341319262981415,-0.3012334406375885,-3.0004944801330566,0.7596867084503174,0.7403497695922852,-0.48159047961235046,-0.23268046975135803,-0.9360554218292236,1.0088165998458862,1.6884669065475464,0.04173058643937111,-0.6221555471420288,0.23629774153232574,-1.3569804430007935,-1.1111868619918823,-0.2708268463611603,-3.590909957885742,0.2714790105819702,1.5815365314483643,-2.2067949771881104,0.3441075384616852,-1.2622798681259155,-1.348490834236145,1.6090654134750366,-2.2127790451049805,0.9719984531402588,1.0880162715911865,0.5184545516967773,-0.24621126055717468,-1.3203532695770264,-0.18770436942577362,-1.0588250160217285,0.10220362991094589,0.021288875490427017,0.9126438498497009,0.809727668762207,-1.3444337844848633,0.22659191489219666,-0.20277754962444305,0.8608065843582153,0.7002491354942322,-0.621997594833374,-0.8679084777832031,1.1553809642791748,-0.007895511575043201,-2.4386258125305176,-0.431113600730896,-0.882561445236206,1.5012234449386597,-0.5504314303398132,0.8402705788612366,-2.2901926040649414,-0.10699131339788437,-1.0805683135986328,-0.8678578734397888,-1.0711884498596191,0.46570703387260437,-0.07709841430187225,-0.6729186773300171,-1.4162850379943848,-2.424212694168091,0.608252763748169,-1.2394543886184692,-1.2356797456741333,-0.002858136547729373,-1.0761581659317017,1.3023836612701416,-1.540905237197876,0.2524118721485138,0.8309204578399658,-1.2837735414505005,1.3258721828460693,-1.0410231351852417,1.8557512760162354,0.3626948893070221,1.3383491039276123,-1.6455929279327393,0.7060951590538025,-1.3700305223464966,1.0576558113098145,0.03009062260389328,1.2940932512283325,0.7902932167053223,0.012234156019985676,-0.17583312094211578,0.6493955850601196,1.3863279819488525,-1.2028754949569702,-1.1059074401855469,0.10161606967449188,0.2639297544956207,0.3500775098800659,1.5892513990402222,-0.7571985721588135,0.19616995751857758,-1.5506203174591064,-1.9740828275680542,1.4328559637069702,-0.4022694230079651,0.6574068665504456,-0.8413733839988708,-2.5802695751190186,-0.7800005078315735,1.298471212387085,1.8566076755523682,-0.6973766684532166,0.6105338335037231,2.518667459487915,-0.5352374911308289,1.3204478025436401,-0.5114295482635498,-1.315575361251831
b'\xe4\xb8\x80\xe5\xae\x9a',2.5110669136047363,0.7471272945404053,1.3651469945907593,1.6238906383514404,0.928825855255127,-0.15666654706001282,-0.3486332297325134,-1.2527341842651367,1.9496344327926636,-1.3899749517440796,-0.7020343542098999,0.47399020195007324,-0.12682902812957764,0.44241052865982056,-1.3714889287948608,-0.30202561616897583,-1.3003510236740112,-1.279276728630066,0.19559182226657867,-0.7960699200630188,-0.14656715095043182,-1.2485198974609375,1.2188090085983276,-0.2918817400932312,-0.042170003056526184,0.2709463834762573,-2.7139296531677246,-1.146422028541565,1.3690704107284546,-0.7209706902503967,-0.463029682636261,0.8608883023262024,-0.7747753858566284,1.0421488285064697,-0.31190386414527893,-2.009608507156372,0.03606826812028885,0.12762890756130219,-0.6632941365242004,1.5959392786026,0.5745925903320312,0.8233270049095154,-1.427378535270691,-0.938536524772644,0.37629324197769165,-1.1921337842941284,-1.7200945615768433,1.3250991106033325,1.8558716773986816,-0.5264458656311035,0.3051358163356781,0.008786424994468689,1.0703269243240356,-1.3412754535675049,1.2003364562988281,-0.5936120748519897,-0.840228796005249,1.2813230752944946,-0.8211771845817566,-0.7270618081092834,-0.7108256220817566,0.014167120680212975,-0.6487023234367371,-0.5346180200576782,-0.9887920022010803,0.9013956785202026,0.6314740777015686,1.8497281074523926,0.09360763430595398,0.32500380277633667,0.6379500031471252,0.027004968374967575,0.23871919512748718,1.161094069480896,-0.18171341717243195,-0.2936534583568573,-0.7188595533370972,0.528071403503418,-2.3075456619262695,-1.5820508003234863,0.13875947892665863,1.2672902345657349,-1.1517095565795898,-0.5803619027137756,-0.49879154562950134,-0.4165046215057373,1.0976535081863403,-0.7596983909606934,-0.002164435340091586,0.5235763192176819,1.5678484439849854,-2.3280129432678223,-0.994769811630249,0.9264594912528992,-1.0013850927352905,0.6234981417655945,0.3701532185077667,1.0619703531265259,-0.8385276794433594,-0.9725544452667236,0.22696156799793243,-0.7977907657623291,0.36234569549560547,-0.9470171928405762,-1.6568162441253662,1.302199363708496,-1.538076400756836,-0.5181869864463806,1.0383855104446411,-0.6822319030761719,-0.15972356498241425,-0.8268084526062012,1.5157334804534912,-1.528993010520935,1.6485350131988525,1.30146324634552,-0.4377591907978058,0.6942130327224731,-0.6430813074111938,1.2357711791992188,0.09177287667989731,1.4120383262634277,0.322101891040802,0.7885196805000305,0.4499281346797943,-0.7758092880249023,1.0069679021835327,-2.370604991912842,0.17617720365524292,0.9521544575691223,-0.9405549168586731,2.0373148918151855,1.0465481281280518,-1.9669746160507202,0.5362730026245117,-1.4868626594543457,-0.11094918102025986,-0.5561150908470154,2.158529758453369,0.09816568344831467,-0.41154178977012634,-0.812873363494873,0.10646159201860428,0.30987149477005005,-0.2494691163301468,0.27075499296188354,2.020052433013916,0.2021884024143219,-0.7138535380363464,0.0272789616137743,-1.3986517190933228,0.6660088300704956,0.4735318422317505,-1.9325141906738281,-0.4404657781124115,0.5538071990013123,-0.39251095056533813,-2.6724698543548584,-0.04213573411107063,0.3027137219905853,1.4766374826431274,0.8069924116134644,-0.9624974727630615,0.052007392048835754,-0.6768319606781006,-0.5311992168426514,0.9938901662826538,1.4644495248794556,0.4516090452671051,-2.103996753692627,-0.8951841592788696,0.39421162009239197,-0.3001962900161743,-2.380183696746826,-0.7574148774147034,-0.8579996824264526,0.7616345286369324,1.3360686302185059,0.7704064846038818,-2.1916990280151367,-0.23125998675823212,0.19499348104000092,0.029164530336856842,1.8733779191970825,1.264773964881897,0.7503230571746826,1.217155933380127,1.3478635549545288,1.0098249912261963,0.11823674291372299,0.24854864180088043,-0.4266190230846405,0.7589890360832214,0.935856282711029,-0.7606480717658997,-0.9732236862182617,-0.7722784280776978,-1.959098219871521,0.540512204170227,-1.6700321435928345,-1.4743708372116089,0.28670552372932434,-0.19868628680706024,-2.4728293418884277,0.3555125296115875,1.115048885345459,0.6674872040748596,-0.7734376192092896,1.7212878465652466,0.7414864897727966,1.042650580406189,0.1085798516869545,0.9582694172859192,-0.10685532540082932,3.831254005432129,0.4416521489620209,0.8472328186035156,-2.2705674171447754,0.2917745113372803,0.04972654953598976,0.26468566060066223,-1.0998164415359497,-1.0600004196166992,-1.7821296453475952,-0.380160927772522,1.0273469686508179,0.8387069702148438,-0.7158275246620178,-0.17927849292755127,1.544921875,1.536942481994629,-1.617483139038086,-0.3007453978061676,1.1215871572494507,0.6943873763084412,0.3724522292613983,-1.313071370124817,-0.23758454620838165,0.22229577600955963,0.7030559182167053,0.7766150236129761,2.00887393951416,-1.900011658668518,1.029312252998352,-1.0014768838882446,0.8199092149734497,-0.06275525689125061,-1.5166538953781128,-0.5415784120559692,1.60079824924469,-0.2962535321712494,-0.11318682134151459,2.180149793624878,0.7590358257293701,-0.7147207260131836,0.42682695388793945,0.4894499182701111,0.2579948604106903,-0.3395894467830658,-0.37869346141815186,0.0556027777493,2.2058656215667725,-0.9796695113182068,-0.666327178478241,-2.4286112785339355,-1.7415751218795776,-0.07174099236726761,1.260948657989502,-0.2803179621696472,0.8660901188850403,-1.9983561038970947,1.623848557472229,-0.6222540736198425,-1.882954716682434,0.9063099026679993,0.06930854171514511,-0.9654006958007812,-2.6561620235443115,0.45401325821876526,0.7855277061462402,-0.6035608053207397,-0.8833616971969604,0.6883013844490051,-1.0627813339233398,0.19825492799282074,-1.0092864036560059,-0.4714612662792206,0.133814737200737,0.4617099165916443,-0.29941561818122864,-2.818476915359497,-0.7763291597366333,0.4638722240924835,-1.1665798425674438,0.5152037739753723,-0.5278148651123047,-0.17263366281986237,-1.3567149639129639,-0.7602121233940125,-0.20059314370155334,0.8265022039413452,-0.3127245008945465,-0.39351898431777954,-1.0272371768951416,-1.8037779331207275,-0.009039491415023804,0.7887976169586182,0.1112581193447113,1.0317606925964355,0.6369891166687012,0.026452044025063515,0.5263606309890747,-0.044799238443374634,0.6433373689651489,1.1522414684295654,-0.4546794891357422,-0.5877309441566467,0.5228292942047119,-0.45975422859191895,0.6108509302139282,1.133341908454895,-0.7222403287887573,1.1277406215667725,-1.002475380897522,0.44274282455444336,-1.5067217350006104,1.6923412084579468,-1.6202481985092163,1.000205397605896,-0.013367480598390102,0.6002007126808167,0.42379188537597656,1.5024707317352295,-0.15426042675971985,0.7012209892272949,1.4837779998779297,-1.6298757791519165,0.4566126763820648,0.6307840347290039,-1.5280323028564453,-1.2759711742401123,-0.8765384554862976,-0.8220247626304626,-0.8041839599609375,0.4323771893978119,0.31455156207084656,-0.5206761956214905,1.9311882257461548,-1.7111144065856934,0.5742872357368469,-2.0761213302612305,0.670707106590271,1.738935947418213,-0.8547722101211548,1.3306820392608643,-0.1614261418581009,-0.8439287543296814,0.13110220432281494,-0.5978667140007019,-0.7280321717262268,-1.4032701253890991,1.1189991235733032,-0.2082354873418808,-0.5841076970100403,0.18283632397651672,0.33560121059417725,-1.7846903800964355,-0.5197179913520813,-0.24718932807445526,1.2508548498153687,1.5753810405731201,-1.5190465450286865,-0.2386055737733841,-0.9476757049560547,2.547584056854248,-1.4429056644439697,1.068039894104004,0.6045651435852051,1.045071005821228,-0.8307480812072754,1.2910438776016235,1.6879246234893799,-1.263316035270691,-0.516688346862793,0.2860827147960663,-0.7166056632995605,-1.5179469585418701,-0.05724087357521057,1.4454714059829712,-0.057849008589982986,-0.7352824807167053,2.1211485862731934,1.5620657205581665,-1.7296810150146484,1.0767431259155273,0.34901973605155945,-1.2965569496154785,0.5328752398490906,1.6646795272827148,-1.2959283590316772
b'\xe9\x83\xa8',-1.942753553390503,-1.758715033531189,-0.9988405108451843,1.367457628250122,-0.7135454416275024,1.1431299448013306,1.066662073135376,0.15542912483215332,0.2629493772983551,2.091437339782715,-0.1159854382276535,-1.2240101099014282,-0.6490009427070618,1.3520729541778564,2.04107666015625,-0.794026792049408,-3.0860376358032227,-0.4893277585506439,0.34265315532684326,0.2058844417333603,-1.8341419696807861,0.3329888880252838,-1.4141209125518799,-1.8269888162612915,0.003165322123095393,2.585320234298706,0.17951369285583496,0.23037099838256836,-0.026583675295114517,2.1949803829193115,0.9609687328338623,-0.23809625208377838,-0.04569951444864273,-1.294887900352478,2.1386220455169678,0.5386217832565308,0.9801396131515503,0.33053410053253174,-1.5675294399261475,-1.723068118095398,0.8062915205955505,0.380403995513916,2.6240134239196777,0.824652910232544,1.3300656080245972,-2.3119843006134033,-0.8068205714225769,-1.1862871646881104,-1.0928566455841064,0.4976361095905304,0.8372091054916382,-1.8974456787109375,1.3801859617233276,-1.6845897436141968,-1.3916637897491455,0.759458065032959,1.0453429222106934,-1.2882713079452515,-0.5333892703056335,-1.1482188701629639,-0.8852740526199341,1.0165787935256958,0.7415816187858582,0.9486360549926758,-0.5311269164085388,0.32132789492607117,0.04058597981929779,0.8475911617279053,-0.1549985557794571,2.287959098815918,1.1393136978149414,0.8874909281730652,0.5536095499992371,0.18828599154949188,1.3864200115203857,-0.09688752889633179,1.8774292469024658,0.2479466050863266,0.475619912147522,0.002937799785286188,-2.0507757663726807,0.8345372080802917,-1.4145787954330444,-0.7618663907051086,0.9680288434028625,-0.6599768996238708,-3.1608071327209473,-0.6717478036880493,0.8978564143180847,-1.7876378297805786,0.5095158219337463,0.44682547450065613,-0.8248811960220337,-0.4186539351940155,-0.7450294494628906,2.1404013633728027,1.4082813262939453,-0.3811142146587372,-0.6731796860694885,-0.08846770226955414,-1.1886504888534546,1.0073025226593018,0.6838735342025757,1.9260903596878052,0.6384293437004089,0.9558466076850891,-0.26566794514656067,-2.5643651485443115,-0.33507654070854187,-0.708130419254303,-2.15840744972229,-0.43721669912338257,0.7200222015380859,2.5965561866760254,2.4339816570281982,-2.1529016494750977,0.6876031756401062,0.09556758403778076,0.9252649545669556,-1.3655518293380737,1.1801410913467407,0.312294602394104,0.9437440633773804,0.8674200177192688,0.21456928551197052,-1.0775998830795288,0.8450007438659668,-0.10185416787862778,1.3928645849227905,0.6843665838241577,2.2274014949798584,2.5783815383911133,0.7126325368881226,-1.4240397214889526,-1.8237501382827759,-0.2650737166404724,-0.611487627029419,1.4642657041549683,-0.7533937096595764,-0.5315462946891785,0.8591545820236206,0.11104992032051086,-0.12327159941196442,0.34794339537620544,2.570256233215332,1.0310114622116089,0.4123802185058594,1.3426886796951294,1.149108648300171,0.44018441438674927,0.23720842599868774,2.412355899810791,0.7268815040588379,-1.1443172693252563,-1.666201114654541,-1.016706943511963,-0.1265295147895813,-0.19905385375022888,-2.574995756149292,-0.11383725702762604,1.6157523393630981,-0.20661088824272156,-1.2257741689682007,-0.7388976812362671,1.4324241876602173,-0.013338785618543625,2.724400520324707,-1.5296978950500488,0.9637293219566345,1.9480780363082886,0.8677421808242798,-0.8417577743530273,-0.18381285667419434,1.517828345298767,1.6813660860061646,0.24017392098903656,0.007832679897546768,0.9213473200798035,2.828603982925415,-0.5658897161483765,-0.5045245885848999,-0.7484610080718994,-0.504591703414917,0.12731561064720154,-0.5746215581893921,0.8583797216415405,-1.7120555639266968,0.6913934946060181,-0.9727482795715332,0.3842371106147766,0.12377863377332687,0.014801681973040104,-1.3758330345153809,0.09464894980192184,0.20367439091205597,-0.5604480504989624,-0.47515562176704407,-0.3871746361255646,-2.1496803760528564,-1.6927801370620728,0.6787229180335999,-0.7609755396842957,-0.2446822226047516,-3.370096445083618,1.1055575609207153,-0.5027121901512146,0.3432347774505615,0.8496848344802856,0.9734016060829163,-0.20306596159934998,1.9268380403518677,2.060882091522217,-0.5755715370178223,-2.114276647567749,0.6595807671546936,-0.5284510850906372,-0.8118347525596619,0.5716840028762817,0.1271369755268097,1.8404403924942017,-0.318816214799881,-0.4087717831134796,-0.9748170971870422,-1.0749218463897705,-0.6308717727661133,-0.1588437706232071,0.30987074971199036,-0.03052542917430401,-1.4467988014221191,-0.94197678565979,1.6965630054473877,1.1191987991333008,1.9841268062591553,0.9876037240028381,1.010454773902893,-1.1036691665649414,-1.4383563995361328,-0.23366805911064148,-1.445419192314148,-0.5038792490959167,-1.3044592142105103,-0.8571105003356934,-1.4876155853271484,-1.7496731281280518,0.9329457879066467,2.421459913253784,1.5034641027450562,2.2163827419281006,1.1223055124282837,1.4229768514633179,-0.7748410105705261,2.787763833999634,-0.8324123620986938,-0.15034203231334686,-1.2052979469299316,2.3192007541656494,0.17689260840415955,0.13545450568199158,-1.1599957942962646,0.5016510486602783,-0.6096131801605225,2.9180517196655273,2.699209213256836,1.704197645187378,-1.1401878595352173,0.3523764908313751,0.4890636205673218,-1.279880166053772,0.6031588315963745,1.6307278871536255,-3.2052974700927734,1.2533842325210571,0.32146477699279785,1.742371678352356,1.7238668203353882,-1.9756767749786377,-0.4750324785709381,0.652255654335022,-1.5908254384994507,1.2028082609176636,0.7277189493179321,-0.42605090141296387,0.42539358139038086,-1.2945905923843384,0.0736326351761818,-0.38198933005332947,-0.4870452582836151,-0.7847860455513,-0.09561756998300552,0.21967220306396484,0.3373427987098694,-1.3549787998199463,0.36951926350593567,-0.30413275957107544,0.5428605675697327,-1.618274450302124,-0.6863147616386414,1.3429577350616455,-1.389294147491455,-0.004749561194330454,-0.00778203085064888,-0.21247735619544983,2.393211841583252,2.5284314155578613,0.09135326743125916,-0.7059173583984375,0.31328675150871277,1.3666574954986572,-1.4332363605499268,-0.5496715903282166,-0.4909795820713043,2.541898012161255,0.11069726198911667,0.3058207631111145,-0.04059790074825287,-0.6580387353897095,0.6792646646499634,0.2188308984041214,1.1204288005828857,2.0135600566864014,0.8597002625465393,0.10196984559297562,1.3816779851913452,-0.44233813881874084,1.7732869386672974,-0.01396340411156416,-1.6929935216903687,-0.4420013725757599,-1.0949498414993286,-0.26953980326652527,-0.5925981998443604,0.971004843711853,-0.5650704503059387,-2.146298408508301,1.6482850313186646,0.4649931490421295,-2.314065456390381,0.42414870858192444,0.9623286724090576,0.35993248224258423,-0.43310219049453735,0.14518730342388153,-0.07358864694833755,2.3231797218322754,-0.43094754219055176,-0.10415719449520111,0.26352524757385254,0.8102220296859741,0.9805943965911865,-0.8104866743087769,0.3899836838245392,-1.6133041381835938,0.022885039448738098,0.959518313407898,0.6249594688415527,-1.133190393447876,0.3421044945716858,-0.5990818738937378,-1.8457976579666138,-1.2406779527664185,-0.38503462076187134,0.14789220690727234,0.35344618558883667,0.4258533716201782,0.7625185251235962,0.5956519842147827,2.1775805950164795,0.30239659547805786,-1.6192375421524048,-1.2421523332595825,0.2503816485404968,-1.6412837505340576,-1.269302248954773,-0.14149610698223114,-1.2222082614898682,1.0667309761047363,1.9083729982376099,-0.7856220006942749,-1.2495300769805908,1.8212188482284546,-1.384570598602295,-1.4850043058395386,0.49494031071662903,-0.08439990133047104,0.09747730940580368,0.2774093449115753,1.4167571067810059,1.4942165613174438,0.2582038640975952,-1.6901196241378784,0.9724733233451843,1.4671547412872314,0.12282437831163406,-0.29275065660476685,0.36811700463294983,-1.1899840831756592,0.22815245389938354,0.7105483412742615,0.028447899967432022,1.4347317218780518
b'\xe6\x84\x9f\xe5\x99\xa8',-0.0326298326253891,0.057780470699071884,-0.05165904015302658,0.003014329122379422,-0.032924503087997437,0.18525633215904236,0.06285174936056137,-0.010402786545455456,0.0809321478009224,0.0010952777229249477,0.118472620844841,0.2217036336660385,0.11847522854804993,0.13232798874378204,-0.14912563562393188,-0.025833377614617348,0.04623490199446678,0.0024479515850543976,0.009108657948672771,0.12303029745817184,0.09220295399427414,0.04767635464668274,0.14341214299201965,0.08424066752195358,0.07509258389472961,0.01644185557961464,0.041917916387319565,-0.00145110790617764,-0.08547518402338028,0.024991421028971672,-0.11964686214923859,-0.06901893764734268,0.014310942962765694,-0.02482103928923607,0.16603296995162964,-0.0854785144329071,0.1017092913389206,0.11307094246149063,0.1320856809616089,-0.13197103142738342,-0.07569457590579987,-0.03795513138175011,0.044531289488077164,0.04350384324789047,0.11048457026481628,0.057105954736471176,-0.132895827293396,-0.16563108563423157,-0.0029958125669509172,-0.07007524371147156,0.07506605237722397,-0.007926641032099724,0.06406194716691971,-0.06379204243421555,0.05199454352259636,-0.04452476650476456,-0.11221259087324142,0.07989727705717087,-0.004245182033628225,0.11971443146467209,-0.1014331504702568,-0.006682281848043203,0.03648288547992706,-0.10142431408166885,0.1440262496471405,0.10717521607875824,-0.0069497572258114815,0.004779633600264788,0.007125413045287132,-0.0204787477850914,-0.0498550720512867,-0.014509445056319237,0.012049076147377491,-0.006920330226421356,-0.02307177148759365,-0.06174113228917122,0.018046973273158073,0.0901704654097557,0.06044141203165054,0.12404079735279083,0.04239752143621445,0.054485391825437546,0.056808095425367355,-0.0013990179868414998,0.04919075593352318,-0.0369451642036438,0.15791970491409302,0.05859887972474098,0.04465104639530182,0.04563627764582634,0.04058706387877464,0.05997193604707718,-0.1162421926856041,-0.14307722449302673,0.17332908511161804,0.0859898254275322,0.01340329460799694,0.03147945553064346,0.14383897185325623,-0.0767456442117691,-0.034702856093645096,-0.06818464398384094,-0.0612618587911129,-0.06104470416903496,-0.000323973799822852,-0.00809950940310955,-0.05994262546300888,0.007424903567880392,0.07830831408500671,0.003756335936486721,-0.07517166435718536,0.040808409452438354,0.08403704315423965,0.0503399483859539,-0.17018315196037292,-0.036056291311979294,0.05639765411615372,0.017118168994784355,-0.09640588611364365,0.008625074289739132,-0.03873318433761597,0.12083513289690018,-0.07201210409402847,-0.08490805327892303,-0.04703889787197113,-0.004282647278159857,-0.040429409593343735,0.03406374901533127,-0.052524466067552567,0.00027244380908086896,0.06192891672253609,-0.017895488068461418,-0.037775542587041855,0.201773002743721,-0.026078667491674423,0.007498750928789377,0.08672502636909485,0.15902255475521088,0.0049639916978776455,0.011124580167233944,0.10779855400323868,-0.050133418291807175,0.030814629048109055,0.01829160563647747,0.030735434964299202,0.039973802864551544,0.09445705264806747,-0.0027980355080217123,-0.1310417503118515,0.19168902933597565,0.04964359477162361,0.0324530228972435,0.06777763366699219,0.012526211328804493,0.0050594094209373,-0.08150915056467056,0.057406820356845856,-0.09795910120010376,0.019020384177565575,0.022532163187861443,-0.06448047608137131,0.05585700273513794,0.14002913236618042,0.013172057457268238,-0.007722864858806133,0.021967586129903793,0.02513601817190647,-0.0013193347258493304,0.11907872557640076,-0.05047093704342842,0.07734713703393936,-0.13706077635288239,0.17527487874031067,0.026950353756546974,-0.12708717584609985,-0.024634525179862976,0.006109780166298151,-0.0664118304848671,0.18339844048023224,0.02017081528902054,-0.12031295895576477,0.03675707429647446,0.0934206172823906,-0.0607103630900383,-0.045158155262470245,-0.05542594566941261,0.09653794020414352,-3.8354002754203975e-05,0.0016464818036183715,0.02199563942849636,-0.08377083390951157,0.0065307701006531715,-0.040476664900779724,-0.04491101950407028,0.07431675493717194,-0.028476715087890625,-0.01464887149631977,-0.036923233419656754,0.008341239765286446,0.0653780996799469,-0.11908828467130661,-0.004066132009029388,0.02782627008855343,-0.08494750410318375,-0.006458031479269266,-0.0554647222161293,-0.022965649142861366,-0.029964057728648186,-0.015142164193093777,0.06162242963910103,0.032525256276130676,-0.05549884960055351,-0.02294241636991501,-0.059595391154289246,-0.12993909418582916,0.10514882951974869,0.05294531211256981,-0.04413267597556114,0.08018333464860916,-0.044422004371881485,-0.1046796515583992,-0.06841148436069489,0.020863313227891922,0.01888224482536316,-0.10710778832435608,0.040219951421022415,-0.11015258729457855,0.09676586836576462,0.16712327301502228,-0.026224903762340546,0.033636052161455154,0.004728285130113363,0.12832500040531158,-0.09403754770755768,-0.015342050231993198,0.11727892607450485,-0.06362451612949371,-0.011641616001725197,-0.0861644372344017,-0.09627652913331985,-0.1225443109869957,-0.07689623534679413,-0.07078161090612411,-0.028793107718229294,-0.026877423748373985,0.05789996683597565,0.0755651667714119,-0.15755683183670044,0.1346694827079773,0.1323322057723999,-0.0023824304807931185,-0.005134214647114277,0.09571021795272827,0.13237102329730988,0.13084006309509277,-0.07345321029424667,0.041444163769483566,-0.053345825523138046,-0.040280748158693314,0.1537715196609497,-0.15715216100215912,-0.05527932569384575,-0.13802793622016907,-0.13220970332622528,-0.03165153041481972,-0.04101237282156944,0.0389961376786232,-0.06023384630680084,0.13239791989326477,-0.07095185667276382,0.04657202214002609,0.10230203717947006,-0.00948796421289444,-0.04028976708650589,0.06643324345350266,-0.0740521177649498,0.09798356145620346,0.026844695210456848,0.10119956731796265,0.08138930052518845,-0.013686008751392365,-0.047626376152038574,0.10589022934436798,0.09974360466003418,0.048984963446855545,0.1507544070482254,-0.029116660356521606,0.034449923783540726,-0.09310570359230042,0.05360017344355583,0.0583929568529129,0.1269391030073166,-0.09295699745416641,0.03110283613204956,0.09268220514059067,0.13146941363811493,-0.0452287383377552,-0.0030530383810400963,0.12368174642324448,-0.017409255728125572,0.05483118072152138,-0.08011385798454285,-0.050549864768981934,0.03947952389717102,-0.0667179524898529,0.09567272663116455,-0.08406708389520645,0.046774547547101974,-0.11109460145235062,-0.018458543345332146,0.1288900226354599,0.09189227968454361,-0.00237478781491518,-0.0017926788423210382,-0.020008092746138573,-0.04427560046315193,0.036884501576423645,0.11015157401561737,-0.058147136121988297,0.012115771882236004,-0.009953250177204609,0.06930205971002579,0.07872277498245239,-0.043390996754169464,-0.19674718379974365,-0.0066467830911278725,0.10246750712394714,0.012612213380634785,-0.10578151792287827,-0.05281781777739525,-0.18033307790756226,-0.06740062683820724,-0.00776766799390316,-0.14611954987049103,-0.05619197338819504,-0.027040043845772743,0.06999793648719788,0.017736366018652916,-0.06277557462453842,0.0502300001680851,0.009415444917976856,-0.13236701488494873,-0.0913335531949997,-0.07667863368988037,0.008868967182934284,-0.04993538185954094,0.10554488003253937,0.049017034471035004,0.011034054681658745,0.16313256323337555,0.07281354814767838,0.04627901688218117,0.0032212964724749327,-0.05281209200620651,-0.06497196853160858,-0.006957325618714094,0.02823922596871853,-0.1510390192270279,-0.035962775349617004,0.05602646619081497,-0.0018727072747424245,0.05088786408305168,0.06478659063577652,0.019763721153140068,-0.060538649559020996,-0.10379236936569214,-0.05234208703041077,-0.09071800112724304,0.059490058571100235,-0.10723705589771271,0.03449266403913498,-0.09410031884908676,0.02274165116250515,-0.004607848823070526,-0.07666687667369843,-0.04168394207954407,0.07020112127065659,-0.15048947930335999,-0.06061756983399391,0.03865935653448105,-0.09259647876024246,0.025832051411271095,-0.11346344649791718,-0.13630716502666473,-0.04174783453345299,-0.0575796477496624,-0.08014963567256927,-0.02791704423725605,-0.11752288043498993,0.0018942285096272826,0.019480936229228973,-0.06415270268917084,-0.061358287930488586,-0.05914198234677315,-0.039165034890174866,-0.018330993130803108,-0.04014338552951813,-0.0008259586757048965,0.06609568744897842,-0.030745260417461395
b'\xe7\x94\xb5\xe5\x8c\x96\xe5\xad\xa6',0.24473650753498077,-0.2686963379383087,0.2308240532875061,-0.024885740131139755,0.33794453740119934,0.4800543487071991,-0.4283237159252167,-0.3671981692314148,-0.09261782467365265,0.2073153704404831,-0.07318592071533203,0.7389038801193237,-0.289301335811615,-0.5216629505157471,-0.15700890123844147,0.02912862040102482,-0.16524666547775269,-0.7952418923377991,-0.11725015938282013,-0.43828222155570984,0.6745700836181641,-0.6135784387588501,-0.058120936155319214,-0.5555219650268555,0.1954571008682251,-0.18748368322849274,-0.1559145301580429,-0.7417348623275757,0.6093795895576477,-0.4664062559604645,0.8370465040206909,0.03431618586182594,0.017367441207170486,0.8116981387138367,0.007861237972974777,0.1380339115858078,0.27546411752700806,-0.3578297197818756,0.6081057190895081,0.19954358041286469,-0.3818560242652893,0.17708827555179596,-0.3069532811641693,-0.10434133559465408,0.1280251294374466,-0.619142472743988,-0.3680066466331482,0.3047756254673004,-0.06284597516059875,-0.4412444233894348,-0.1602940857410431,0.45683109760284424,-0.039788298308849335,0.04704643040895462,-0.4313493072986603,0.19234971702098846,0.14691175520420074,0.34118932485580444,-0.20699404180049896,-0.08167687803506851,-0.5645822882652283,0.8533786535263062,0.368679404258728,-0.36526307463645935,0.2874625325202942,-0.021361328661441803,-0.30223092436790466,-0.6633253693580627,-0.046515002846717834,0.31239011883735657,0.16865567862987518,0.048650115728378296,-0.41044074296951294,0.496771901845932,-0.3802420198917389,0.3531274199485779,0.1795825958251953,0.17028748989105225,0.2751510739326477,-0.06551159918308258,-0.13553448021411896,0.5655592679977417,0.4369712173938751,-0.4075982868671417,0.22249622642993927,-0.5628511905670166,0.04974481090903282,-0.29201582074165344,0.17735737562179565,0.36620834469795227,0.11637048423290253,0.48559296131134033,-0.09190687537193298,-0.22576645016670227,-0.08413352072238922,-0.15511612594127655,0.2502443492412567,-0.23970484733581543,-0.04148796945810318,-0.06935420632362366,-0.1331765353679657,0.3662554919719696,-0.2520505487918854,-0.5688477158546448,0.030612042173743248,-0.223170667886734,-0.48363885283470154,0.5639525055885315,0.4533504843711853,0.4127086400985718,-0.709060788154602,0.5730342864990234,0.29418817162513733,0.35853111743927,0.0421343632042408,0.5050450563430786,-0.14707709848880768,-0.061857063323259354,0.08972851932048798,0.09345274418592453,-0.2711465060710907,0.28749966621398926,-0.6165286302566528,0.4099833369255066,-0.18398720026016235,0.7896295785903931,0.3019661605358124,0.07932477444410324,-0.4935986399650574,0.8816223740577698,-0.023227278143167496,0.27075183391571045,-0.861453115940094,0.13663175702095032,0.24008063971996307,-0.07422991096973419,0.3393948972225189,-0.10533241182565689,0.28429853916168213,0.11135547608137131,0.7368929982185364,-0.06665626168251038,-0.22494138777256012,0.34373074769973755,0.20040883123874664,-0.409228652715683,-0.20148321986198425,-0.9756823182106018,0.47252053022384644,0.684461236000061,0.1920909285545349,0.5906018018722534,-0.5859737396240234,-0.5805361270904541,0.21301493048667908,-0.1761174350976944,0.026407228782773018,-0.26159948110580444,-0.2924601137638092,0.30041131377220154,-0.2234257012605667,0.9726176857948303,-0.002614401513710618,0.5127177238464355,-0.48124024271965027,-0.10243890434503555,0.07696852833032608,-0.6813002228736877,0.16498833894729614,-0.06269486993551254,-0.1117582768201828,0.3405552804470062,0.7349281311035156,0.2027365118265152,0.2174466997385025,0.04241380840539932,0.9492731094360352,-0.17778675258159637,0.13828343152999878,0.8534885048866272,-0.7619841694831848,0.025748280808329582,-0.3522474765777588,-0.016400739550590515,0.27005308866500854,-0.4137911796569824,0.1596233993768692,0.18367210030555725,-0.5378702282905579,-0.6301975250244141,-0.3038344085216522,0.30035558342933655,-0.10634877532720566,-0.24547579884529114,-0.09789806604385376,-0.30169445276260376,-0.15833568572998047,0.10726642608642578,-0.736167311668396,-0.7572203278541565,-0.04946626350283623,0.3001166582107544,-0.03306180238723755,-0.9689021110534668,-0.34531763195991516,-0.22162501513957977,-0.08172741532325745,-0.6071793437004089,1.143349289894104,-0.20722515881061554,0.37169158458709717,0.21580050885677338,0.44648799300193787,0.009162760339677334,0.0984119176864624,-0.3804599642753601,-0.01738240383565426,-0.3797110617160797,0.45518866181373596,-0.16952933371067047,-0.6139547824859619,-0.3255325257778168,-0.1490362286567688,0.5212959051132202,-0.3609245717525482,-0.17067913711071014,-0.6293176412582397,0.034024570137262344,0.6544265747070312,-0.10030238330364227,0.6174235939979553,-0.3108882009983063,0.026902705430984497,0.4014497697353363,0.3595561981201172,0.5539157390594482,-0.4663763642311096,0.6577736735343933,0.18186792731285095,-0.4419967532157898,-0.9471075534820557,-0.003060702234506607,-0.6346284747123718,-0.24286717176437378,0.20105206966400146,-0.3497920632362366,0.5265116095542908,-0.13308408856391907,0.26363396644592285,0.917240560054779,-0.005269948393106461,-0.4861396849155426,-0.10258506238460541,-0.27750876545906067,0.27122801542282104,-0.6129779815673828,0.6763289570808411,-0.22692503035068512,0.654727041721344,0.5904466509819031,0.011488314718008041,0.08960144966840744,-0.40661197900772095,0.014674121513962746,0.3046267330646515,-0.46627077460289,0.30599653720855713,0.16567279398441315,0.35047662258148193,0.19133321940898895,-0.31023335456848145,0.3111986815929413,0.7523924708366394,-0.29636240005493164,-0.5178645253181458,0.015820322558283806,-0.1493448168039322,-0.3587430715560913,-0.14722636342048645,0.3394232392311096,-0.40864264965057373,-0.45871925354003906,0.4185560345649719,-0.03892822936177254,-0.34207770228385925,0.20905359089374542,-0.15070882439613342,0.24573452770709991,-0.32550594210624695,-0.13862206041812897,-0.015567377209663391,0.3007717430591583,0.7485716342926025,-0.038816262036561966,0.1070665493607521,1.1060785055160522,-1.0098544359207153,0.6298630237579346,0.3000488877296448,-0.09278665482997894,0.4400079548358917,-0.5442003011703491,0.2874113619327545,-1.039312720298767,-0.652494490146637,0.22051683068275452,-0.4661701023578644,0.15552687644958496,0.22094528377056122,0.03588605299592018,0.053029853850603104,0.09062633663415909,-0.007733848877251148,-0.047797322273254395,0.897742748260498,-0.16898809373378754,-0.4337376654148102,-0.12755872309207916,0.19414646923542023,0.3605686128139496,-0.1794029027223587,-0.8060564994812012,-0.06058265641331673,-0.05341850966215134,-0.20330537855625153,-0.185971200466156,-0.323220431804657,-0.3526238799095154,-0.468658983707428,-0.78349369764328,0.39532023668289185,0.7030207514762878,0.29733380675315857,-0.17881451547145844,0.530221164226532,-0.4860480725765228,-0.30640894174575806,-0.3206455111503601,0.12874914705753326,-0.42376723885536194,0.04891428351402283,-0.08712881803512573,-0.16660763323307037,-0.1837891787290573,-0.7552361488342285,-0.14300714433193207,-0.15196464955806732,0.1046043336391449,-0.5915921330451965,0.7088977098464966,-0.31108909845352173,-0.7268673777580261,-0.24115845561027527,-0.23515371978282928,0.03811738267540932,-0.5396226644515991,0.7685232162475586,0.35371893644332886,0.12108365446329117,-0.3877902030944824,-0.03813984990119934,-0.038753725588321686,0.09329190850257874,0.12228409200906754,-1.9249264001846313,0.05027493089437485,-0.07933276891708374,0.6227447986602783,0.9147391319274902,-0.4210573732852936,0.12070200592279434,0.4881950616836548,-0.055765293538570404,0.5090770125389099,-0.05283015966415405,-0.15025120973587036,-0.09408146888017654,-0.10733482986688614,0.3033599853515625,0.8233890533447266,0.6331929564476013,-0.546442449092865,0.2836584150791168,-0.3374094069004059,-0.6024472117424011,0.2591789960861206,0.6393738985061646,-0.009396643377840519,0.5981301665306091,-0.7401674389839172,-0.04283846542239189,0.23034663498401642,0.07882814109325409,0.16867010295391083,0.30553486943244934,0.3776082694530487,0.2945418059825897,0.15556396543979645,0.5488781929016113,0.1010955199599266
b'\xe5\x9f\xba\xe7\xa1\x80',0.16729652881622314,1.4092861413955688,0.4453776478767395,0.8288774490356445,-0.31546780467033386,0.006598742213100195,0.18934783339500427,-1.0543392896652222,0.26711535453796387,0.9287862777709961,0.2554999887943268,0.12809211015701294,-0.5631651282310486,-0.15934376418590546,-0.8827205896377563,-0.08005409687757492,0.6717236042022705,-1.5690252780914307,-0.15062151849269867,0.09486579895019531,0.3640623390674591,0.07875147461891174,-0.26169127225875854,-1.0769790410995483,0.38565388321876526,0.6327301859855652,-1.2686609029769897,-1.082648754119873,-0.7506908774375916,0.7699655294418335,0.9525549411773682,-0.17649653553962708,-0.10546284914016724,1.8652819395065308,2.1794421672821045,-0.3887028396129608,1.5056463479995728,-0.8038915395736694,1.0905905961990356,0.2841053605079651,0.8628034591674805,1.8421730995178223,-0.48330169916152954,1.6072638034820557,-0.45665672421455383,-1.0455846786499023,-0.36599496006965637,0.7141696810722351,-0.056129004806280136,-0.0221104696393013,0.8336408734321594,1.1491141319274902,2.040925979614258,-1.0047314167022705,-1.9051741361618042,2.546018123626709,0.1880239099264145,-0.21108976006507874,-1.2497211694717407,-1.100134253501892,1.3933974504470825,2.326308012008667,-0.1566907912492752,-0.16893315315246582,-0.6592670679092407,-0.6414318680763245,0.3062061667442322,0.5281988978385925,1.2186803817749023,1.9421204328536987,0.9431322813034058,-0.3171694278717041,-0.15987177193164825,2.436372995376587,-0.6251040697097778,-0.0938345193862915,0.13218504190444946,0.44016262888908386,0.2687167227268219,-0.21968376636505127,-0.9434748291969299,-0.15503749251365662,-0.3409285247325897,-1.9625109434127808,1.9407944679260254,-0.21423031389713287,-0.2538937032222748,0.4795825779438019,-0.005313265137374401,-0.3601905107498169,-2.412435293197632,-0.7157290577888489,-0.7398770451545715,1.5032973289489746,0.9637369513511658,0.3413279950618744,1.4785006046295166,-0.1681978851556778,0.7128816246986389,0.23324120044708252,-0.3667655885219574,-2.1550509929656982,-0.46022945642471313,0.13506324589252472,0.23951642215251923,-1.073747992515564,-1.1927299499511719,0.40481656789779663,0.8896965384483337,0.10268080234527588,-1.1214935779571533,-0.14204257726669312,1.076249361038208,0.6250845789909363,1.0148738622665405,-1.3020834922790527,-1.1542046070098877,-0.2875412404537201,-0.4793442189693451,1.534307599067688,1.8485958576202393,-1.2666563987731934,0.5197762846946716,1.934389591217041,-1.2252132892608643,1.1322249174118042,-0.46133455634117126,-2.617469072341919,-0.6239433884620667,0.7968297004699707,-1.3156224489212036,2.0217339992523193,-0.7843549251556396,0.8469784259796143,-2.009681224822998,0.8070439100265503,-0.7498478293418884,1.3878135681152344,0.05747989937663078,-0.26554012298583984,1.0806394815444946,-0.1747341901063919,-0.01555370818823576,-0.45733627676963806,1.2013256549835205,0.7761246562004089,0.7485169172286987,-0.7918497920036316,0.276099294424057,0.21890601515769958,0.18862946331501007,0.9683382511138916,0.899107813835144,0.4744778275489807,3.0392000675201416,-1.2129303216934204,-0.643882155418396,1.4837383031845093,-0.08489940315485,2.196885108947754,-0.6714083552360535,0.7453793883323669,-1.4391485452651978,0.17515580356121063,-1.3506022691726685,-0.7080642580986023,-2.0779943466186523,-1.5071852207183838,-0.0428428091108799,-0.8658486008644104,-0.8703420162200928,-0.5130496025085449,-0.36609089374542236,-0.661679208278656,1.0387725830078125,0.5878896713256836,-0.5462157726287842,0.15661132335662842,0.10527945309877396,2.2734975814819336,-0.8750041723251343,1.4603443145751953,0.284919798374176,0.7526293992996216,-2.4619951248168945,0.9402810335159302,-0.4010481536388397,1.0282838344573975,-0.0063317627646028996,-1.42782461643219,-1.4378440380096436,-0.8870580196380615,0.034854527562856674,0.3079867959022522,0.40441155433654785,0.14812064170837402,0.20262515544891357,1.4657169580459595,-1.5475577116012573,-1.5424302816390991,0.8260448575019836,-0.3925285041332245,0.35271894931793213,-0.4966837167739868,-0.30536723136901855,0.035630449652671814,1.7701847553253174,-2.1064858436584473,-0.05152689665555954,0.27857866883277893,0.6451635956764221,3.0015201568603516,-1.0784618854522705,0.6113892197608948,0.32399025559425354,-0.04447564855217934,-0.833296000957489,-1.3073210716247559,1.0182335376739502,-0.5832551717758179,-0.6388013958930969,0.2708218991756439,-0.19711834192276,0.48397132754325867,-0.9437875747680664,-0.19857844710350037,-0.8523417711257935,0.5715345740318298,0.42817819118499756,1.0882655382156372,0.04499780014157295,-0.38153108954429626,1.9290002584457397,0.977795422077179,1.806402564048767,0.3935338258743286,-0.1950313299894333,-0.11036831140518188,-0.7622337937355042,-1.6942787170410156,-1.7611244916915894,-2.251007318496704,-0.7503774762153625,1.2885249853134155,0.528879702091217,0.5902756452560425,-0.41806942224502563,1.0202500820159912,0.0591215118765831,-0.9076235294342041,0.11729837208986282,0.9272168278694153,0.6508271098136902,-0.012158266268670559,0.20661208033561707,0.2758486866950989,-0.5856417417526245,-0.0379190519452095,1.0304720401763916,0.19923031330108643,-2.1342837810516357,-0.5670701265335083,1.046129584312439,-1.2636909484863281,-1.4975305795669556,0.2659790515899658,1.3839491605758667,-0.12862050533294678,0.3884240388870239,1.4383394718170166,-0.5998287796974182,-1.5567690134048462,0.20163512229919434,-1.7221654653549194,0.7386472821235657,0.8373743891716003,0.4475327134132385,-2.3248021602630615,1.5242098569869995,1.278728723526001,0.48508942127227783,-0.6673883199691772,1.47999906539917,-0.7114177346229553,-0.5009180903434753,-0.8305399417877197,-0.47434040904045105,1.922415018081665,3.6735048294067383,-0.06240396574139595,-1.8648744821548462,-1.4212766885757446,1.2066903114318848,-1.9571470022201538,-1.2746144533157349,1.3663160800933838,-0.30135586857795715,3.2663145065307617,-1.0342007875442505,0.18638752400875092,-1.9854472875595093,-2.3983657360076904,-0.0942382663488388,-2.8610987663269043,-0.697752833366394,-1.564369797706604,0.8133032321929932,1.2081375122070312,2.787092447280884,-1.0957671403884888,0.3575749099254608,0.7348771691322327,1.3427013158798218,1.1053476333618164,0.7029445767402649,-0.7860022783279419,0.6216079592704773,0.9926231503486633,2.324139356613159,1.973359227180481,-0.12537498772144318,0.14499028027057648,1.9083510637283325,-0.6627303957939148,0.1761041283607483,-2.8719217777252197,0.36955347657203674,-0.8986327052116394,0.379758358001709,0.3505018949508667,0.4996921718120575,0.45072588324546814,0.061503149569034576,1.0146546363830566,-0.9541413187980652,0.5658718943595886,0.6236062049865723,0.0754445418715477,0.6581276059150696,-0.49475735425949097,-0.5003834962844849,-0.00975640956312418,-1.3380587100982666,-0.27786746621131897,-2.996840476989746,0.26344117522239685,0.48707515001296997,-0.8673887252807617,-0.9760450720787048,0.9097558259963989,-0.31606578826904297,-1.2322309017181396,-0.7503705024719238,-0.07127954065799713,0.9780951142311096,0.28909945487976074,-1.2780017852783203,-0.693243682384491,0.6135401725769043,-0.8877360820770264,-0.7812950015068054,1.2535920143127441,-0.18236121535301208,-0.32698696851730347,-1.9435023069381714,-0.04914560541510582,-0.19495049118995667,0.0758407786488533,0.6555851697921753,-0.6929790377616882,1.4259604215621948,0.462024450302124,0.2786843478679657,0.9887705445289612,1.681886911392212,-0.7512194514274597,-0.7740964293479919,-1.5329667329788208,1.1027384996414185,1.3391391038894653,1.4411107301712036,0.09039317816495895,0.022093839943408966,1.53255033493042,-0.2677093744277954,-0.15068353712558746,-0.9092503190040588,-0.6506279706954956,0.26765647530555725,0.6175862550735474,1.2105664014816284,0.9765772223472595,0.713338315486908,-1.1248993873596191,1.9369384050369263,0.5701305866241455,-1.1320990324020386,-1.195011019706726,0.23020139336585999,1.496943712234497
b'\xe5\x8f\x91\xe6\x8c\xa5',1.063712239265442,-0.2066473513841629,-0.14285939931869507,0.08980200439691544,0.2856642007827759,-0.5702489018440247,0.20021076500415802,0.22399310767650604,-0.03966587781906128,-0.20271874964237213,-1.2351497411727905,-3.830446720123291,-0.38077083230018616,-0.04045601934194565,-0.34164658188819885,-0.35126474499702454,-0.05189254507422447,-0.42025691270828247,0.5471137762069702,0.4669092297554016,1.400715947151184,-0.9564757943153381,2.2253828048706055,1.1897971630096436,-0.7244333624839783,2.4972639083862305,0.3397628366947174,-1.1764448881149292,0.9591825008392334,-0.27105408906936646,-0.06773540377616882,0.6092014312744141,0.6988305449485779,1.5259509086608887,1.9764529466629028,-2.283719062805176,-0.19652603566646576,-1.2724196910858154,0.31354889273643494,0.9467090964317322,1.3707538843154907,3.360564947128296,-0.02093825861811638,0.464039146900177,0.5348101854324341,-1.7076525688171387,0.38024091720581055,0.15912552177906036,0.20818066596984863,-1.2270748615264893,-0.5488421320915222,-0.7435129880905151,1.5342763662338257,0.1764114797115326,-0.8349591493606567,-0.6227033734321594,0.34649670124053955,0.2983173429965973,1.5300885438919067,-1.6436256170272827,0.09981213510036469,0.3709307014942169,-2.7996110916137695,-0.8679160475730896,-0.766589879989624,1.991930603981018,1.5286827087402344,-0.03178085386753082,1.2948001623153687,1.9596118927001953,-0.46367815136909485,-1.5294559001922607,-0.1728789061307907,-0.2218390703201294,-0.08116570115089417,-1.7533260583877563,-2.9593377113342285,-1.218776822090149,-1.2491044998168945,-0.22595159709453583,0.37554576992988586,0.3886704444885254,0.21048380434513092,-1.7961552143096924,-1.2991737127304077,-0.29992640018463135,0.25175222754478455,0.30523428320884705,0.9100959300994873,2.4401168823242188,0.03301034867763519,-0.17547161877155304,-0.24767901003360748,-0.9718338847160339,-1.3221908807754517,0.1322445273399353,0.20791400969028473,1.5092997550964355,-0.8736013174057007,-0.8238596320152283,1.6380729675292969,0.9880173802375793,0.12175019830465317,-1.7194359302520752,-1.2914693355560303,0.341484934091568,-0.10040599852800369,0.38873279094696045,1.058977723121643,1.1909699440002441,-1.8838928937911987,-0.09331095218658447,0.3890186548233032,-0.8631156086921692,-0.01690875180065632,0.15570341050624847,-0.01721910946071148,0.10540466010570526,-2.7583906650543213,0.5050445795059204,2.8331918716430664,-0.7948046326637268,-2.039210319519043,0.19268271327018738,-0.01438577938824892,1.024316430091858,0.8790789842605591,0.6482414603233337,-1.1682318449020386,0.8111050128936768,-1.2245732545852661,1.1382919549942017,0.9430024027824402,-1.073835015296936,-1.3489717245101929,0.3736356496810913,0.21307294070720673,-0.8966502547264099,0.04310090094804764,0.4740011990070343,-0.3176456093788147,-1.913436770439148,1.4550358057022095,-0.08153524249792099,0.34826815128326416,0.3249965012073517,1.420241117477417,-1.2857359647750854,-0.9016833305358887,-1.19314706325531,-1.7560575008392334,0.07546966522932053,2.7235589027404785,0.8038690686225891,1.0715051889419556,0.12651732563972473,0.6446561217308044,1.1997826099395752,1.1277804374694824,-0.569456934928894,-1.775577187538147,-0.8612326383590698,-1.060410976409912,1.2759848833084106,-0.16881021857261658,1.2736846208572388,2.3901824951171875,0.30367663502693176,-0.4773958921432495,-1.155882477760315,1.4358443021774292,1.2199251651763916,-0.7693000435829163,-1.6215729713439941,0.08044421672821045,-1.0854613780975342,-0.9911549091339111,2.017730474472046,0.2855503559112549,0.9275597333908081,-1.723347544670105,0.20852522552013397,0.4173826277256012,0.7599775791168213,-2.5512466430664062,-0.5006346106529236,2.1171648502349854,2.303513288497925,-0.04983184486627579,-0.8626033067703247,-0.49871259927749634,-1.4611589908599854,-0.046595413237810135,-1.2369568347930908,0.45020395517349243,-0.3794762194156647,-1.09209144115448,-0.5053462386131287,-1.4409524202346802,-1.5749499797821045,-0.833045244216919,-1.4820466041564941,0.04048021137714386,-0.8792220950126648,-0.9506205320358276,0.24118800461292267,-2.147155284881592,-1.1354179382324219,1.4444050788879395,0.2095261961221695,1.5332462787628174,0.5532512068748474,1.172827124595642,1.546649694442749,-0.6147354245185852,2.357745409011841,0.5215100049972534,-1.789172649383545,0.20171979069709778,0.4118283689022064,-1.3402931690216064,-0.4614526927471161,0.8106879591941833,0.7000528573989868,-1.803491234779358,1.0049316883087158,-0.6403459310531616,-0.5856025218963623,0.179580420255661,1.02222740650177,-0.11189808696508408,-0.5919047594070435,-0.31075936555862427,-0.8931430578231812,-2.1314170360565186,-0.598808228969574,0.33943822979927063,0.7992706298828125,-0.3731463849544525,0.5133602023124695,2.4477875232696533,0.9846386909484863,-1.4852041006088257,-1.5440528392791748,-0.7876375317573547,-0.31817397475242615,0.9437974095344543,1.9638844728469849,-0.28378352522850037,0.9028460383415222,-1.0462433099746704,0.6821454167366028,0.20779205858707428,0.5218378305435181,-1.3130923509597778,1.1069347858428955,1.5188212394714355,0.3887842893600464,-0.1595461368560791,-1.206565260887146,-2.268016815185547,0.8973644971847534,0.3582286536693573,-0.2642553150653839,-0.626430094242096,1.2491137981414795,0.4857121706008911,-1.3309471607208252,1.4367563724517822,1.2552733421325684,0.6211202144622803,-1.0607337951660156,-0.7382941842079163,-0.49323487281799316,0.6540414094924927,-1.1162704229354858,-2.731065273284912,-1.9180145263671875,1.7799419164657593,0.7372751832008362,-2.4476406574249268,0.9682559370994568,-1.355866551399231,0.2516658902168274,1.1330991983413696,-1.5523337125778198,-0.6552404761314392,0.7292254567146301,0.5461599826812744,1.1890301704406738,-2.987475633621216,-0.03423965722322464,1.5501809120178223,0.3614402413368225,0.16844677925109863,1.6622999906539917,1.7967532873153687,0.2167397141456604,-0.17767150700092316,0.6287843585014343,-2.3088295459747314,1.1417583227157593,1.7401610612869263,-2.1244757175445557,-1.0697146654129028,-1.4069451093673706,1.3288527727127075,0.03571271523833275,1.5509560108184814,0.21586129069328308,-1.327286958694458,-0.6211742162704468,-1.4518333673477173,0.6191174387931824,0.09110800176858902,0.07422766089439392,1.3987096548080444,-1.2449705600738525,-1.0212026834487915,-0.8194552063941956,-1.2896194458007812,2.05484676361084,0.55170077085495,-1.3575661182403564,1.8508731126785278,-1.0165513753890991,1.300129771232605,1.8315972089767456,2.4869532585144043,0.000877730140928179,-1.4098362922668457,0.39279115200042725,1.1508371829986572,-1.8123233318328857,-0.7698562741279602,0.3713654577732086,0.1829637885093689,-0.870644211769104,-0.6259683966636658,-1.3888036012649536,-0.12147793173789978,-1.222129464149475,-0.633283793926239,0.32967159152030945,0.5184791684150696,0.8424941301345825,-0.8405902981758118,-0.8393920660018921,-1.041043758392334,1.0982712507247925,-1.3998297452926636,-1.883217453956604,-0.3595275580883026,-0.09988579154014587,1.1783400774002075,-1.6277055740356445,-2.334494113922119,-0.8631752729415894,1.2366852760314941,-0.5039435029029846,0.5930908918380737,0.6434320211410522,0.8978525996208191,-0.013797005638480186,0.6260716319084167,-0.04308141767978668,-2.6113169193267822,-0.7360395789146423,-0.2913621664047241,1.225426197052002,-0.09234972298145294,-1.8640583753585815,-1.8638120889663696,-0.0998060330748558,-0.7377541065216064,-2.2257957458496094,-1.0525137186050415,0.4334421455860138,0.7050050497055054,1.0082517862319946,1.4058533906936646,-1.5935630798339844,0.09665441513061523,0.5644965171813965,-0.29825979471206665,-0.07720090448856354,-0.19796492159366608,1.0078418254852295,0.4912452697753906,-0.38943567872047424,1.2039005756378174,-0.4512234628200531,0.329666405916214,-1.138994574546814,3.546130657196045,1.5900484323501587,-1.560651183128357,-0.5252842307090759,1.612249732017517,-0.5984583497047424
