word,0,1,2,3,4,5,6,7,8,9,10,11,12,13,14,15,16,17,18,19,20,21,22,23,24,25,26,27,28,29,30,31,32,33,34,35,36,37,38,39,40,41,42,43,44,45,46,47,48,49,50,51,52,53,54,55,56,57,58,59,60,61,62,63,64,65,66,67,68,69,70,71,72,73,74,75,76,77,78,79,80,81,82,83,84,85,86,87,88,89,90,91,92,93,94,95,96,97,98,99,100,101,102,103,104,105,106,107,108,109,110,111,112,113,114,115,116,117,118,119,120,121,122,123,124,125,126,127,128,129,130,131,132,133,134,135,136,137,138,139,140,141,142,143,144,145,146,147,148,149,150,151,152,153,154,155,156,157,158,159,160,161,162,163,164,165,166,167,168,169,170,171,172,173,174,175,176,177,178,179,180,181,182,183,184,185,186,187,188,189,190,191,192,193,194,195,196,197,198,199,200,201,202,203,204,205,206,207,208,209,210,211,212,213,214,215,216,217,218,219,220,221,222,223,224,225,226,227,228,229,230,231,232,233,234,235,236,237,238,239,240,241,242,243,244,245,246,247,248,249,250,251,252,253,254,255,256,257,258,259,260,261,262,263,264,265,266,267,268,269,270,271,272,273,274,275,276,277,278,279,280,281,282,283,284,285,286,287,288,289,290,291,292,293,294,295,296,297,298,299,300,301,302,303,304,305,306,307,308,309,310,311,312,313,314,315,316,317,318,319,320,321,322,323,324,325,326,327,328,329,330,331,332,333,334,335,336,337,338,339,340,341,342,343,344,345,346,347,348,349,350,351,352,353,354,355,356,357,358,359,360,361,362,363,364,365,366,367,368,369,370,371,372,373,374,375,376,377,378,379,380,381,382,383,384,385,386,387,388,389,390,391,392,393,394,395,396,397,398,399
b'\xe8\xbf\x90\xe8\xa1\x8c',-0.793450117111206,0.6019745469093323,0.33680403232574463,0.5100118517875671,0.5375553965568542,-0.6561335921287537,-0.8014876842498779,-0.2897327244281769,-0.7984545826911926,-1.1557259559631348,0.03786768019199371,-2.9918923377990723,0.039911024272441864,-2.1092166900634766,0.4072585105895996,-2.2835841178894043,0.320658802986145,-2.32352614402771,-0.6853550672531128,-1.1555622816085815,2.794177770614624,-1.3455613851547241,-0.5031757950782776,0.5634622573852539,1.140904426574707,0.18945342302322388,2.221330165863037,-1.7340383529663086,-0.43440720438957214,-1.2496352195739746,1.9456056356430054,-0.5190037488937378,0.9385392069816589,-1.126333475112915,1.2202732563018799,-0.0035151478368788958,-0.09197235852479935,-0.9721804261207581,-3.8079097270965576,0.23619568347930908,0.24720649421215057,-0.01850329153239727,-0.394938200712204,-0.3051872253417969,0.037806443870067596,0.1962275207042694,0.07493023574352264,-0.5893200039863586,-1.4088077545166016,-1.4405571222305298,2.2959465980529785,0.4483920931816101,-0.029650412499904633,0.3024478256702423,-0.6349385976791382,-0.5464617013931274,-0.44498077034950256,-0.210346058011055,-0.1828112006187439,-1.3026793003082275,-2.3223681449890137,-0.4268627464771271,-0.7645055055618286,0.8540248274803162,-0.40630653500556946,-0.2986331880092621,-0.6576356887817383,1.702075481414795,-1.4782253503799438,1.2917722463607788,1.2075340747833252,0.0780792087316513,0.9151667356491089,0.9346619248390198,-0.3135150671005249,0.6886008381843567,-0.7537612915039062,-0.8165644407272339,-0.038487259298563004,-0.013727528043091297,-3.1919798851013184,-1.2681334018707275,-0.915715754032135,-0.5948448181152344,-1.0360314846038818,-0.5997992753982544,2.3581323623657227,0.0940290167927742,1.3962457180023193,0.6084822416305542,-2.0512404441833496,-1.3105007410049438,-0.3699851334095001,0.38305458426475525,0.599553644657135,-1.7569714784622192,-1.8102375268936157,0.3764970004558563,1.1802458763122559,2.0345988273620605,-1.4385265111923218,0.1422964632511139,0.40898701548576355,-0.5376742482185364,0.9795868992805481,-2.994889736175537,-0.40853503346443176,2.6163856983184814,1.2855548858642578,1.6459753513336182,-2.0584969520568848,-1.7407110929489136,-1.2381007671356201,-1.1794248819351196,-0.8206875324249268,-0.845974862575531,0.9299211502075195,0.46590158343315125,1.8259550333023071,2.0852906703948975,-0.3262176513671875,0.3963053524494171,-0.39067330956459045,2.152754545211792,-0.8956610560417175,-0.05297670513391495,-1.2027801275253296,0.5412532687187195,-0.44216638803482056,0.2968253791332245,-0.1184261292219162,2.4874770641326904,-0.5761059522628784,-1.943010926246643,-1.1776227951049805,0.01990829035639763,-0.6476531624794006,0.6290940046310425,-0.24214749038219452,-0.0238314401358366,-1.2386178970336914,0.26543861627578735,1.4269075393676758,-1.881245732307434,0.99721360206604,-1.9358131885528564,1.7417861223220825,-0.834169864654541,1.2073605060577393,-1.754620909690857,-0.2490963339805603,2.3864095211029053,-0.9827567338943481,1.3274765014648438,-1.0355737209320068,-1.6631696224212646,0.47367945313453674,1.5643197298049927,0.5094128251075745,-0.14748680591583252,-0.5245173573493958,-0.46348023414611816,-0.3217926621437073,-0.4080919623374939,1.124326229095459,-1.0915583372116089,0.6286665797233582,-1.0854065418243408,1.174094319343567,0.021069837734103203,0.22447195649147034,-0.14438578486442566,-0.07771990448236465,-1.0400677919387817,-0.9095511436462402,-0.8523499965667725,1.8748464584350586,1.8147186040878296,-0.7551600933074951,1.1171311140060425,-1.6929441690444946,-0.9367530345916748,-1.8114581108093262,1.271690845489502,0.5025879144668579,-1.3382154703140259,1.4760212898254395,0.22892211377620697,-0.1634637862443924,-0.775568425655365,0.814163088798523,-0.038455136120319366,1.6960806846618652,-0.07163697481155396,-0.7779083847999573,0.3899157643318176,-1.9798641204833984,1.6398488283157349,-2.7017009258270264,-0.8638468980789185,2.20033597946167,0.6794185042381287,-1.1678376197814941,-0.8643397688865662,1.3217523097991943,-0.5072494745254517,1.1855672597885132,0.7951674461364746,-0.4108872711658478,0.9456992149353027,0.41701674461364746,0.2173043042421341,-0.42366093397140503,1.7709511518478394,-0.6892297267913818,2.5312883853912354,0.5088832378387451,-1.0509835481643677,0.8087189197540283,0.38799142837524414,1.0999118089675903,-1.193647027015686,-0.5869526863098145,0.12638823688030243,-0.6987709999084473,-0.14763237535953522,-1.5132012367248535,0.0035368879325687885,3.3739242553710938,-0.7761235237121582,1.9582923650741577,-0.141960009932518,0.6759526133537292,0.961010217666626,-1.3664257526397705,0.03139904513955116,0.4441280663013458,0.949609100818634,0.4828896224498749,-1.021822214126587,0.4685988128185272,-2.2459559440612793,0.9405063986778259,1.6210720539093018,1.206142544746399,0.9876388907432556,-0.8331593871116638,-0.7927746176719666,-0.9083446860313416,2.437426805496216,1.1781312227249146,-0.5063778758049011,0.6101762652397156,-1.4192826747894287,-0.18259987235069275,0.5571092963218689,0.8035740852355957,1.0657835006713867,0.7106408476829529,0.10123449563980103,0.29233938455581665,-0.8320704102516174,0.13374492526054382,-1.8199326992034912,0.2386545091867447,1.3101515769958496,-0.4112638831138611,0.1248079314827919,0.9253988862037659,1.5825588703155518,0.43916669487953186,0.7024019956588745,1.2272751331329346,-0.758589506149292,1.8754568099975586,0.6115456819534302,1.2581995725631714,-0.19412066042423248,0.5696955323219299,-0.744106113910675,0.43335652351379395,1.911104679107666,1.551276683807373,-2.024475574493408,1.9452732801437378,1.2052805423736572,-0.030934792011976242,1.303681492805481,0.29687264561653137,0.367561399936676,-0.8045263886451721,0.008286334574222565,-2.221895933151245,-1.6873092651367188,2.5308547019958496,-0.9669690728187561,1.9508768320083618,2.9907331466674805,0.7746663689613342,-0.17265494167804718,-0.03788946196436882,-1.2717031240463257,-0.5754402279853821,-0.6019429564476013,0.04242795333266258,-0.17078395187854767,-1.9207944869995117,-0.7610219717025757,1.0248547792434692,-0.6777584552764893,-0.18513067066669464,1.8557730913162231,-0.33934229612350464,1.8421155214309692,0.22943127155303955,-0.28005120158195496,1.4468069076538086,1.6373592615127563,-0.5282233357429504,-1.795940637588501,0.38289394974708557,-1.1207773685455322,-0.9395013451576233,2.4386610984802246,1.1607918739318848,-1.7696298360824585,0.2070772349834442,1.2999451160430908,-1.9228683710098267,-1.1605490446090698,0.29099974036216736,-0.42340323328971863,-0.2355983406305313,-3.5455164909362793,0.08264559507369995,-0.9136673808097839,1.9062280654907227,0.03805966675281525,0.9200010895729065,-0.20059506595134735,-0.931244969367981,-1.3039661645889282,0.8981618881225586,-0.7794649004936218,-1.30764639377594,0.8144947290420532,-0.6297244429588318,0.5037696361541748,0.24053582549095154,-0.8212406039237976,-0.6458261609077454,1.2575557231903076,-1.024733543395996,-1.3677033185958862,0.9254207611083984,-1.0310381650924683,0.3849318325519562,0.6767124533653259,2.2547996044158936,0.5379956960678101,0.12221333384513855,-0.335234671831131,-1.3015387058258057,-1.3740500211715698,-1.3160439729690552,0.7571894526481628,-0.8690585494041443,-0.4887014627456665,1.802790880203247,0.10508736968040466,1.4559102058410645,1.6238592863082886,-0.9341654181480408,-0.016944169998168945,0.9563039541244507,0.9561366438865662,0.690471887588501,0.013885684311389923,-0.6498770713806152,-0.9357228875160217,0.7293314337730408,-0.2623431086540222,-0.794912576675415,-2.7870874404907227,-0.16984209418296814,-1.8293548822402954,-0.544759213924408,-1.7326908111572266,1.4705805778503418,0.8741989731788635,-0.5838208198547363,-0.44277462363243103,-1.5693755149841309,1.125271201133728,3.216218948364258,2.056746006011963,-0.3319588601589203,-0.0985916405916214,2.083143472671509,-0.7079301476478577
b'\xe5\xae\x9e\xe9\xaa\x8c',-0.7112338542938232,1.2534005641937256,1.821866750717163,1.3672584295272827,-0.4904545545578003,1.0411410331726074,-2.1871564388275146,-1.6992764472961426,0.11848673224449158,-0.9556429982185364,-0.3360768258571625,-3.087858200073242,-0.6477476358413696,-0.6893336176872253,0.3084578514099121,-0.6038799285888672,-1.6115148067474365,-1.44129478931427,-0.9409293532371521,1.5327353477478027,-0.9693721532821655,-0.6508915424346924,0.6051942706108093,-1.2577935457229614,0.7333811521530151,0.864909291267395,0.5515125393867493,-1.5804072618484497,1.0320039987564087,-0.4041973948478699,2.5022754669189453,-0.3091294765472412,-0.10271061211824417,-1.293082594871521,0.36741501092910767,0.26673638820648193,1.1946686506271362,0.14397120475769043,-0.04452912136912346,0.23077969253063202,-0.2674337923526764,1.7403736114501953,0.7433539032936096,0.7497673034667969,-1.287569284439087,-0.09907717257738113,0.7843498587608337,-0.30804577469825745,-0.29893767833709717,-0.5518066883087158,1.438106894493103,0.9667171239852905,-1.8531239032745361,0.9731184840202332,0.08935029059648514,-0.03619614988565445,1.6802548170089722,-0.396267294883728,-0.17858591675758362,-0.12522420287132263,-0.5078068375587463,0.5574713349342346,-0.9724677205085754,-0.16765190660953522,0.10077512264251709,0.24935156106948853,0.7428856492042542,-2.4410595893859863,1.9157150983810425,2.0920603275299072,-0.8246581554412842,-1.0210115909576416,-0.4499387741088867,-0.1718500703573227,-0.07059039175510406,-0.8400733470916748,-1.567710041999817,1.077372670173645,-0.19419443607330322,1.9856574535369873,0.17191322147846222,2.158055543899536,1.9502313137054443,-3.352576732635498,-0.6367239952087402,0.4705357551574707,-0.6851164102554321,-0.654985785484314,-0.8312696218490601,-1.1288012266159058,-0.3131978511810303,-1.5318782329559326,-0.18570105731487274,1.434518814086914,-1.26593816280365,-0.22431473433971405,-0.6760138273239136,-0.11738723516464233,0.21017934381961823,1.149343729019165,-1.8649306297302246,0.2319103181362152,1.1419997215270996,1.1460130214691162,-0.04024951159954071,-0.6435483694076538,-1.2342352867126465,2.4120278358459473,0.48483920097351074,-0.5241942405700684,-1.794020652770996,0.7109989523887634,0.03008757159113884,-1.0619158744812012,1.0370502471923828,2.666517734527588,-0.12976457178592682,-0.3483322858810425,-0.4644016623497009,0.1765589565038681,1.8900165557861328,-1.1339662075042725,-0.35997265577316284,0.1967248022556305,-0.6673356294631958,0.4896344840526581,1.4141979217529297,-0.7165931463241577,-1.0177831649780273,-0.039292629808187485,1.556886911392212,0.8666014671325684,-0.8414791226387024,-0.39815953373908997,1.1488970518112183,2.144103765487671,0.10174059122800827,-0.9464370012283325,-1.6716147661209106,0.46344324946403503,0.13364219665527344,-2.2968931198120117,1.3623334169387817,-0.4884500503540039,0.7535253167152405,-0.6652613282203674,0.43927282094955444,-0.9849895238876343,1.9967882633209229,-1.027841567993164,-0.32188716530799866,0.7981846928596497,1.7166510820388794,0.8547348976135254,-0.24989941716194153,0.045692507177591324,0.05548940971493721,0.11582008749246597,-0.5678139925003052,-0.30805695056915283,-0.70949786901474,1.1535778045654297,-0.6485639810562134,1.7080010175704956,-0.856224000453949,-0.5706564784049988,-1.3225644826889038,-1.9029459953308105,-0.9028302431106567,1.0421003103256226,-1.1293036937713623,-1.4667823314666748,1.4036628007888794,0.2037089318037033,-0.23493696749210358,2.634011745452881,0.8430622816085815,0.6076705455780029,1.9356917142868042,1.9594314098358154,-1.3678520917892456,0.13615477085113525,-0.9726272821426392,1.3143922090530396,-1.4610106945037842,0.29729583859443665,-0.47380539774894714,-0.8027071356773376,-0.6624592542648315,-0.4473332166671753,-0.48636487126350403,0.31134599447250366,0.9648726582527161,0.34390789270401,-0.3671647012233734,0.3508712947368622,0.6929860711097717,0.9800395369529724,-0.32136040925979614,-1.2034385204315186,0.30596283078193665,0.6823588013648987,-0.4927646815776825,-2.360974073410034,-0.8105813264846802,-0.878735363483429,-0.2880483865737915,-1.8609365224838257,1.1167362928390503,-0.3946932256221771,0.5952866077423096,0.5047900080680847,1.9956446886062622,1.7697495222091675,-1.1013766527175903,0.5244467258453369,0.0032765052746981382,-1.5589343309402466,1.6822831630706787,0.18154564499855042,0.09756217896938324,0.7835278511047363,0.8967611193656921,1.1654585599899292,-0.02945336513221264,-0.6784310936927795,-0.4655868411064148,0.027522986754775047,1.8116096258163452,-2.4730799198150635,1.897010326385498,0.3893583416938782,-0.4607275426387787,1.9988455772399902,0.9041570425033569,0.09417899698019028,-2.3067710399627686,-0.12199904769659042,0.8083751797676086,1.147864818572998,-0.689301073551178,-0.8348615765571594,-1.119289517402649,-0.15026892721652985,1.3804879188537598,0.6000562906265259,0.7327909469604492,0.29431888461112976,-0.9090160727500916,0.4665180444717407,-0.3471836447715759,-0.5172427892684937,-0.5253429412841797,-0.45148470997810364,-0.4013804495334625,-0.8470527529716492,1.3283088207244873,1.135268211364746,0.4123614728450775,0.5614731311798096,0.36205580830574036,0.33471739292144775,-1.2581247091293335,0.5506227612495422,0.23179662227630615,-1.2970974445343018,0.9454969167709351,-0.2816440463066101,1.4186736345291138,-0.01991255395114422,-2.2086572647094727,0.5617626309394836,2.260498285293579,-1.8477953672409058,0.8362695574760437,-0.6851205825805664,-0.3513357639312744,-0.8187018036842346,0.3196755051612854,1.5341517925262451,-0.5476950407028198,-0.6263216733932495,2.2486331462860107,-0.37470677495002747,-0.6233594417572021,0.44607013463974,2.168931484222412,0.21146954596042633,1.325127363204956,-1.267179250717163,0.07386405020952225,-0.11895419657230377,1.338159203529358,2.314051866531372,-0.3531152009963989,0.7546140551567078,-1.2684259414672852,0.8116888403892517,-0.31325697898864746,-1.5072588920593262,-0.02815375290811062,-2.8425421714782715,0.036430634558200836,-1.410050630569458,0.5728294849395752,1.0609147548675537,-0.8329685926437378,-1.9730894565582275,0.0801885798573494,0.04826078191399574,-1.47111177444458,0.10222875326871872,1.7453010082244873,0.018478214740753174,0.9379932284355164,-1.0251295566558838,-2.5187020301818848,-0.5613549947738647,0.22552074491977692,0.3994982838630676,-2.0855913162231445,-1.0380452871322632,-0.5687548518180847,0.4849441349506378,1.1079593896865845,-0.8479259610176086,1.879320740699768,-0.21619349718093872,-0.9493787884712219,-1.2434134483337402,1.2953695058822632,0.9032995104789734,0.8462409973144531,-1.615155816078186,0.28358304500579834,0.09238289296627045,-0.5323270559310913,0.5852060317993164,-0.22296525537967682,1.1083827018737793,-0.17922279238700867,-1.013510823249817,0.036501407623291016,0.0905204638838768,-0.10760491341352463,-0.27562493085861206,-0.44007226824760437,-0.4683215618133545,0.7077184915542603,1.8108247518539429,0.011459761299192905,0.9565445184707642,-1.4713493585586548,-1.9237788915634155,-1.7253859043121338,0.6758959293365479,2.0167384147644043,0.039570827037096024,-0.5620015859603882,-1.3055477142333984,-0.4596240818500519,0.219669908285141,-0.19968855381011963,-0.966475248336792,-1.4157743453979492,0.05139622464776039,-2.3061413764953613,2.209656238555908,-0.298806369304657,-1.7744299173355103,-0.7884836792945862,1.0357346534729004,-0.46760180592536926,1.8792310953140259,0.7105656862258911,-0.7467010617256165,-0.0004360310558695346,0.0367770679295063,1.3842251300811768,0.03182884305715561,1.8609576225280762,-1.2548415660858154,1.4603633880615234,-1.3832181692123413,-1.0078924894332886,2.3041017055511475,-1.3976260423660278,-1.4314993619918823,1.415305495262146,0.820555567741394,-1.2782132625579834,0.5299748778343201,-0.04068992659449577,0.3868410289287567,1.7666916847229004,0.654100775718689,0.6747419238090515,-0.35739073157310486,-0.6662165522575378,-0.4157108962535858
b'\xe5\x80\xbc',0.06260903924703598,0.29185497760772705,1.745558738708496,-1.1742171049118042,0.9617996215820312,0.2560546398162842,-0.4667028486728668,1.2335631847381592,-0.14888252317905426,-0.16004014015197754,0.7780622839927673,-0.026239849627017975,0.9166943430900574,-1.4085317850112915,-1.5466023683547974,-0.10959773510694504,-0.4428290128707886,-0.6620427370071411,0.25467777252197266,-0.7211513519287109,0.3102419376373291,-1.539870262145996,0.6276219487190247,0.033297739923000336,0.5837792754173279,0.1705969125032425,1.096075177192688,-0.7259471416473389,1.9827224016189575,0.16147546470165253,-1.286097526550293,0.14955149590969086,-0.1506740152835846,-0.9021252989768982,0.9258441925048828,-1.524948239326477,-0.10017894208431244,-0.7639361023902893,-0.8696857690811157,2.4159483909606934,0.2512160837650299,0.8505676984786987,1.063178539276123,-0.6712572574615479,-1.5418661832809448,-0.9497326612472534,-3.216719627380371,2.22843074798584,-0.12150723487138748,-1.4151691198349,-2.381326675415039,-1.568605661392212,0.012231738306581974,0.0371834933757782,-1.1352732181549072,-0.2338653802871704,0.26436537504196167,0.42164772748947144,1.289388656616211,-0.2444404512643814,0.009520893916487694,1.905896782875061,0.0667438805103302,0.8742201924324036,1.1445419788360596,-0.19197720289230347,-2.391207695007324,-0.4042322039604187,0.647933840751648,1.5474287271499634,0.13727179169654846,0.6716052293777466,1.0449161529541016,0.707384467124939,0.8453744649887085,-0.09321045130491257,0.032578371465206146,-0.8128682374954224,-0.2725572884082794,-0.13818976283073425,0.27557745575904846,3.1095223426818848,0.24198929965496063,-0.14025406539440155,-0.43237537145614624,-0.11911523342132568,0.8098762035369873,2.7646613121032715,0.20863774418830872,-0.01414890494197607,-0.137247696518898,-0.5938244462013245,-1.6068161725997925,0.6648386120796204,0.772336483001709,1.340401530265808,-0.657733678817749,0.9346985220909119,0.18535245954990387,-0.11650751531124115,-0.4655625820159912,-1.44268798828125,0.4889119863510132,2.412855863571167,0.39983659982681274,-0.37277930974960327,-0.32809048891067505,1.906293511390686,1.8866701126098633,2.5995442867279053,-1.0112091302871704,-0.2134556919336319,0.7795938849449158,-0.8297684192657471,-0.12716379761695862,1.5980008840560913,0.3836768865585327,0.5655518770217896,1.4642921686172485,3.0802080631256104,0.2865513563156128,0.5576475858688354,-1.6130084991455078,0.11809451878070831,-1.0244402885437012,-0.41705581545829773,0.8670416474342346,0.25303393602371216,-0.9091858863830566,0.9498521685600281,-1.9131853580474854,0.5719362497329712,-0.45166876912117004,-1.4699103832244873,1.7208261489868164,1.0185720920562744,0.0168968066573143,0.7022791504859924,1.0813138484954834,0.4598418176174164,1.0491528511047363,-1.4170159101486206,1.6142451763153076,1.8381237983703613,0.4538648724555969,-0.8562440276145935,0.35658374428749084,0.5037866234779358,0.36016714572906494,-1.7497140169143677,1.1191179752349854,2.779569387435913,-0.25435900688171387,0.13032133877277374,-0.9383109211921692,0.485551655292511,-1.0134289264678955,-1.5812442302703857,0.018595457077026367,2.3725030422210693,-1.2958005666732788,-1.0637166500091553,-1.0906437635421753,0.3506696820259094,-2.0972330570220947,0.9749153256416321,-0.1716608703136444,0.09601622074842453,1.0008769035339355,-1.723555088043213,-0.06966050714254379,-0.5753265023231506,2.0730786323547363,0.016446106135845184,2.632704973220825,-0.5411477088928223,1.7030956745147705,0.7867382764816284,1.343684434890747,-0.2247854322195053,-1.8525011539459229,-1.5833898782730103,0.05300798639655113,-1.6586004495620728,-1.5927404165267944,-0.8291749358177185,0.15765827894210815,0.3702147901058197,1.4053778648376465,-0.2726812958717346,-0.03909775987267494,0.48337531089782715,0.6017141938209534,1.2023169994354248,-0.8448265790939331,-2.540390968322754,1.2947375774383545,0.2324085235595703,-1.1560167074203491,-0.5557125210762024,-1.0835509300231934,-1.063666582107544,-0.6976925730705261,-0.6010619401931763,1.1104745864868164,-1.4161516427993774,0.40371859073638916,-0.22205252945423126,2.219027042388916,-0.5980938673019409,2.288849115371704,1.0391035079956055,-0.7950955629348755,-0.24634361267089844,1.3762084245681763,-0.2292577177286148,-0.4032129645347595,-1.2122353315353394,0.28142544627189636,-1.653317928314209,-0.7055612206459045,0.7333195209503174,0.6963518261909485,-0.8293080925941467,1.0849864482879639,-0.8824927806854248,0.9418544769287109,-0.04296470806002617,0.773874819278717,-0.6197841167449951,-0.5099270343780518,-1.162109613418579,-0.631014347076416,1.0763405561447144,0.05664803460240364,-0.22138622403144836,-0.9320633411407471,0.3850629925727844,-0.44388139247894287,-1.5799566507339478,-0.0659010261297226,0.7604115009307861,-0.31406399607658386,0.5160229206085205,-1.2011100053787231,1.0656887292861938,0.5240892171859741,-2.512491226196289,0.15570485591888428,2.102452278137207,1.6923335790634155,0.19880400598049164,1.1778849363327026,-0.7748884558677673,-0.019240090623497963,1.4553111791610718,0.7812141180038452,0.03447132185101509,-0.22242453694343567,1.008710265159607,0.6729913353919983,1.1630213260650635,0.06889309734106064,-1.0738561153411865,-0.9262945652008057,0.06764574348926544,0.9886507987976074,-1.2760707139968872,1.086472749710083,2.8779985904693604,0.011182836256921291,0.34366077184677124,2.3836476802825928,0.47427356243133545,1.4352092742919922,-1.9720349311828613,-1.2391184568405151,-2.4013078212738037,-0.7553340792655945,-1.3782778978347778,-0.49019569158554077,0.8883982300758362,2.5301451683044434,-2.1519877910614014,-1.533721685409546,0.6846380829811096,0.4846174418926239,0.2454669326543808,-0.1277630776166916,0.4545140564441681,-1.2052199840545654,-0.44059911370277405,0.3838111460208893,0.5647575259208679,1.6773570775985718,0.6465042233467102,-0.09037815034389496,0.8326932191848755,0.20269101858139038,0.04337615147233009,-0.4568153917789459,-1.5851114988327026,0.42270341515541077,0.7808459401130676,-0.6609424352645874,-0.8928281664848328,1.0670239925384521,-1.313671350479126,-0.37536054849624634,-0.5558187365531921,-0.7833859324455261,1.8879138231277466,0.4343177080154419,0.1877458691596985,0.3161865174770355,-0.2595883309841156,-0.6995061039924622,1.4737542867660522,1.4521814584732056,1.1649457216262817,0.8819388151168823,-0.6747491955757141,1.6710532903671265,-0.8120675086975098,-3.1736996173858643,-0.8134045600891113,0.9882692098617554,0.3935225307941437,1.4860669374465942,-0.6984419226646423,-0.713603675365448,0.23004744946956635,-0.07604412734508514,-0.3897304832935333,0.8409057259559631,0.042285554111003876,1.9696168899536133,-0.06401030719280243,1.1484873294830322,-2.1494522094726562,-0.22101140022277832,0.4518197774887085,0.8247484564781189,-0.31490054726600647,0.23313197493553162,1.2211387157440186,-1.5120384693145752,0.34647151827812195,-2.884350538253784,1.4510412216186523,-0.7103075385093689,-1.3331717252731323,0.4480137228965759,-0.39128318428993225,0.8284569382667542,-1.0491389036178589,0.8650816082954407,-1.4369031190872192,0.22532036900520325,-2.749232769012451,-0.6239101886749268,0.061215855181217194,-0.20626142621040344,-1.3247849941253662,-1.6111713647842407,-1.0215743780136108,0.4094924330711365,1.142642855644226,1.75913667678833,0.7548683881759644,0.5105417370796204,-0.5271541476249695,-0.4145994782447815,-0.39770662784576416,2.7107086181640625,-0.2985602617263794,-1.5744280815124512,-0.08444411307573318,-0.8970344662666321,-0.9460822939872742,-0.15459837019443512,-0.20778684318065643,-1.3281668424606323,-1.3790991306304932,-1.8084582090377808,0.21543660759925842,-1.076395869255066,0.5671567916870117,1.3822922706604004,-0.030359599739313126,1.2368978261947632,0.07323948293924332,-0.6458553671836853,-0.8997696042060852,0.22024250030517578,0.6249296069145203,0.5822952389717102,-1.1341403722763062,-0.3455383777618408,-0.8130969405174255
b'\xe7\x94\xb5\xe5\xad\x90\xe6\x98\xbe\xe5\xbe\xae\xe9\x95\x9c',-0.5508750677108765,-0.034298110753297806,0.2030072808265686,-0.6214614510536194,0.2471161037683487,0.4969141185283661,0.3160354495048523,-0.4721861183643341,0.4245047867298126,-0.08004675805568695,-0.6726135015487671,-0.14493094384670258,0.7266563773155212,-0.22457945346832275,-0.26390978693962097,-0.09770084172487259,-0.04706602916121483,-1.2814303636550903,-0.570644736289978,0.06367294490337372,-0.12925459444522858,-0.7568559050559998,0.14525267481803894,-0.10905253142118454,0.5336325764656067,-0.06728370487689972,0.40338850021362305,-0.9236507415771484,-0.02338399365544319,-0.3278762698173523,0.40086081624031067,0.03950412943959236,-0.02200539968907833,0.3343280851840973,0.12117082625627518,-0.7589899897575378,0.743705689907074,0.22860540449619293,0.5386255979537964,-0.5560958981513977,0.15923458337783813,0.9879212379455566,-0.6741371154785156,0.04762621596455574,0.07543795555830002,-0.5254754424095154,-0.06959294527769089,-0.22799746692180634,0.24007943272590637,0.08520577102899551,-0.7378911972045898,0.6372426152229309,-0.14679719507694244,0.0985882356762886,-0.04709821939468384,-0.7325337529182434,-0.4666019678115845,-0.06563685834407806,-0.2728181779384613,-0.3397887945175171,-1.1249123811721802,-0.34708842635154724,0.636536180973053,-0.16606348752975464,0.6712726950645447,-0.3710929751396179,-1.0523231029510498,-0.8580023050308228,-0.3034873902797699,0.3432929217815399,-0.06460848450660706,0.013387189246714115,-0.1502259522676468,0.9100629687309265,-0.312185674905777,0.1380879133939743,-0.08562969416379929,0.415144681930542,1.3921231031417847,0.4146057069301605,-0.13404954969882965,0.5339199304580688,1.0401623249053955,-1.3740986585617065,-0.31409990787506104,-0.17072038352489471,0.5294849872589111,1.0918203592300415,0.3748490512371063,-0.18316352367401123,0.22273609042167664,0.6807169318199158,-0.037315573543310165,0.20979006588459015,0.13748210668563843,0.12251077592372894,-0.30375951528549194,-0.082007497549057,0.32007545232772827,0.4344867169857025,0.012445599772036076,-0.31220072507858276,-0.49471741914749146,-0.114686019718647,0.12872938811779022,0.244255930185318,-0.2684674859046936,1.2734928131103516,0.5671581029891968,-0.055706433951854706,-0.23215113580226898,0.3516608476638794,0.36044853925704956,-0.21449927985668182,-0.413579523563385,0.7969843149185181,-0.9377274513244629,-0.2823110520839691,-0.367685467004776,0.39373379945755005,0.1307022124528885,0.15144792199134827,-0.24716560542583466,0.3781954348087311,-0.2741738259792328,-0.0678701177239418,0.9015294909477234,-0.6779947280883789,-0.23342560231685638,0.8587620854377747,0.0621151365339756,0.6480761766433716,-1.2952098846435547,-0.007112440653145313,-0.22115091979503632,0.7027849555015564,-0.290735125541687,-0.48521506786346436,0.2050676792860031,-0.1679057627916336,0.588216245174408,-0.37388476729393005,-0.02029469981789589,1.094620943069458,-0.01435091532766819,-0.031581804156303406,0.6203920245170593,-0.45115962624549866,0.41456207633018494,0.17363081872463226,0.4461418688297272,0.9168601036071777,-0.5860297679901123,0.3104627728462219,0.19382286071777344,-0.35972195863723755,0.13036948442459106,-0.17990335822105408,-0.18831974267959595,0.0763673260807991,0.020345402881503105,0.6079099774360657,-0.029453715309500694,0.3302886188030243,-0.23924829065799713,-0.006447103340178728,0.8832452297210693,-0.555448591709137,0.27913182973861694,-0.3142271935939789,-0.4966259002685547,-0.015253691002726555,1.3305766582489014,0.902807891368866,-0.5614515542984009,0.38642314076423645,0.8020144701004028,-0.28080594539642334,0.43729859590530396,1.3787277936935425,-1.2281241416931152,0.1346297711133957,0.18834127485752106,-0.4342963397502899,-0.2962667644023895,0.09744539856910706,0.26763996481895447,0.07382092624902725,-0.571312427520752,-0.23671506345272064,-0.03211513161659241,0.5740112662315369,0.3404267728328705,0.08983837813138962,-0.28856053948402405,-0.2602805197238922,0.045649513602256775,-0.20295175909996033,-0.9705847501754761,-0.3659913241863251,0.7868250608444214,-0.32339590787887573,-0.35043561458587646,-0.8981919884681702,0.06435337662696838,0.3014650046825409,0.34716278314590454,0.10653163492679596,0.6481736302375793,-0.14441238343715668,-0.4255092442035675,-0.4804282784461975,-0.18383671343326569,0.8458746075630188,0.01636221818625927,-0.002422991441562772,-0.21217229962348938,-0.26716750860214233,0.41285741329193115,-0.8012068867683411,-0.44901230931282043,-0.7697036862373352,0.1878460794687271,1.2979276180267334,-0.9542540907859802,0.16892555356025696,-0.19583076238632202,-0.5960374474525452,1.0310496091842651,-0.7373780608177185,0.94486004114151,0.3829025626182556,-0.2789763808250427,0.5605230331420898,0.7270338535308838,0.37439554929733276,-0.6305813193321228,0.5271840691566467,-0.3898952305316925,-0.5690423250198364,-0.3829827308654785,-0.6683083176612854,-0.7796676158905029,-0.516430139541626,-0.3652365207672119,0.8446226119995117,0.25168830156326294,-0.7482694983482361,-0.29484015703201294,0.6504468321800232,-0.3849143087863922,-0.043389156460762024,-0.14834249019622803,0.3401873707771301,0.5143161416053772,-0.16730788350105286,0.5379288196563721,-0.1418898105621338,0.6147658824920654,0.41828563809394836,-0.7956152558326721,0.13739702105522156,-0.8382931351661682,-0.15081141889095306,0.13988932967185974,0.4358959496021271,0.8418791890144348,0.2228526622056961,0.5101351141929626,-0.5826098918914795,-0.20966961979866028,0.10996414721012115,0.8957074880599976,0.302144855260849,0.06672941148281097,-0.18590830266475677,-0.6583593487739563,0.026252267882227898,-0.4939122200012207,0.4482322633266449,-0.4849819839000702,-0.4038604199886322,1.2059931755065918,-0.25755178928375244,-0.9626373648643494,0.24288254976272583,-0.3048021197319031,0.2748318910598755,-0.48626723885536194,-0.008399171754717827,-0.36055174469947815,0.15067733824253082,0.23309426009655,0.15915079414844513,-0.2947697043418884,0.8207919001579285,-1.0701477527618408,0.5470695495605469,-0.2779679298400879,-0.700262188911438,1.121938943862915,-0.45834699273109436,-0.2539549767971039,-0.4181651771068573,0.32393577694892883,-0.2473626285791397,-0.5229758620262146,-0.7570700645446777,-0.8258070945739746,0.22089602053165436,-0.008068155497312546,0.3410508632659912,0.6308236122131348,-0.47185173630714417,0.28939321637153625,-0.7975915670394897,-0.4444599747657776,-0.3849312365055084,-0.10384973883628845,-0.3218318819999695,0.14386509358882904,-1.1730271577835083,0.2716027498245239,0.32490649819374084,-0.7324785590171814,-0.13602887094020844,-0.6707617044448853,-0.5267132520675659,0.4991692304611206,0.12135392427444458,-0.4080708920955658,0.4044528901576996,0.0006490289233624935,-0.8521756529808044,0.4171631336212158,-1.088828682899475,-0.4469555914402008,-0.4133894145488739,-0.9824787378311157,-0.9660637974739075,0.05771064758300781,-0.40208739042282104,-0.2513865828514099,-0.9614706039428711,-0.6594127416610718,-1.1008278131484985,0.2667939066886902,0.3911559283733368,0.2618410587310791,0.6735947132110596,-0.2163940668106079,-0.4893879294395447,0.041750624775886536,-0.28795358538627625,-0.08076877892017365,-0.9659717679023743,0.37813591957092285,-0.5493411421775818,-0.21130235493183136,0.10473166406154633,-0.05842433124780655,0.3736180365085602,0.2375851422548294,-0.4979774057865143,-1.3942278623580933,-0.8228786587715149,-0.29471585154533386,0.7061211466789246,0.6159425973892212,-0.8741695880889893,0.2580367922782898,-0.3983041048049927,1.1453406810760498,0.8243237137794495,0.22913290560245514,-0.3307640552520752,-0.3677000403404236,-0.7330841422080994,0.5989917516708374,0.0933593213558197,0.19941619038581848,-0.04534585401415825,0.39374205470085144,-0.33386948704719543,-0.96656334400177,-0.01881679706275463,0.8063017129898071,-0.41216346621513367,-0.2656992971897125,-0.6175490021705627,0.2361738681793213,0.5635981559753418,-0.5969139933586121,-0.05341743305325508,0.7054628133773804,0.5122811198234558,0.5808339715003967,0.2511870563030243,0.7973132133483887,-0.5600771903991699
b'\xe8\xa7\xa3\xe5\x86\xb3',1.9540057182312012,0.8669824004173279,3.235391616821289,1.5676718950271606,0.6760885119438171,-1.2033743858337402,2.063288927078247,-0.9618003368377686,2.2944531440734863,0.21465669572353363,-0.7760801911354065,-0.8557803630828857,0.019829755648970604,-0.6269261240959167,0.9114739894866943,0.1195056289434433,-0.09188535064458847,-0.3549756705760956,1.0113626718521118,1.3635321855545044,-1.890716552734375,0.15856897830963135,-0.023175638169050217,0.016652049496769905,-0.17813685536384583,0.09795814752578735,0.703728973865509,-0.3989937901496887,0.19994686543941498,-0.7991764545440674,1.9140169620513916,-0.3524671196937561,1.9821537733078003,0.3373791575431824,-0.5356937646865845,-0.5379615426063538,0.6633560061454773,-0.16168177127838135,0.7687639594078064,1.0964088439941406,0.15697985887527466,0.7020621299743652,-0.3710031807422638,-0.9796224236488342,-1.4262429475784302,-1.455925464630127,-1.3314985036849976,-1.1287150382995605,-0.5625013709068298,-0.8596941232681274,-0.6221686601638794,-0.2858423590660095,1.7770671844482422,0.03782879188656807,-0.0030425952281802893,1.0679720640182495,0.39721062779426575,-0.660815954208374,1.044363021850586,0.7876997590065002,0.8436551690101624,-0.7212218642234802,-1.7777587175369263,0.6649702191352844,1.700118064880371,-0.34844303131103516,-0.18634997308254242,0.9855192303657532,-0.2796071469783783,2.1683104038238525,-1.3094755411148071,-1.1605883836746216,-0.8379448652267456,1.1123303174972534,1.0405819416046143,-0.5096570253372192,0.9297133684158325,-2.4988584518432617,0.15952830016613007,-0.3140474557876587,-1.9696788787841797,0.5847873091697693,1.063660979270935,0.37482336163520813,-0.8875374794006348,1.5393800735473633,-0.6133894324302673,-0.8992614150047302,1.87369704246521,1.6257160902023315,-2.501171588897705,-1.2187604904174805,-1.4024534225463867,-0.38478150963783264,0.009571938775479794,1.949455976486206,1.8042120933532715,-1.4661563634872437,-0.1746707707643509,1.6221727132797241,0.5746187567710876,-0.1570899337530136,0.42257145047187805,0.7529486417770386,-0.6122052669525146,-1.7584987878799438,-1.021630048751831,0.9104166030883789,-0.2946261167526245,0.8884524703025818,-1.223838210105896,-1.606902837753296,0.5515503287315369,-0.45834431052207947,-0.7830730676651001,-1.2036058902740479,-0.8174090385437012,0.17701804637908936,-1.2468018531799316,1.5148429870605469,1.041651725769043,1.337714672088623,1.1831820011138916,-1.1414915323257446,0.11142747849225998,0.8954597115516663,0.2144029140472412,-1.505179524421692,-0.1402476578950882,0.48732447624206543,0.47515326738357544,1.6799283027648926,-1.4967622756958008,-2.1497702598571777,-1.234238624572754,0.01662229187786579,0.6042577028274536,-1.5465298891067505,-0.006454685237258673,0.8686118721961975,-0.7900392413139343,1.928902506828308,0.2398701310157776,-1.3736077547073364,0.2708272337913513,-1.278982400894165,1.6289392709732056,-0.5772945880889893,1.6808185577392578,0.5697786808013916,-1.8733183145523071,-0.45211145281791687,1.5393084287643433,2.030078411102295,-1.1427726745605469,0.4217531979084015,0.10149425268173218,0.6506412625312805,0.33821922540664673,0.9661999940872192,-0.8294162154197693,1.3757680654525757,-1.2123945951461792,0.901326060295105,-2.4044272899627686,0.45945993065834045,1.9547157287597656,1.7863041162490845,-0.09791909158229828,0.13661296665668488,0.42484185099601746,-2.1166036128997803,-0.3113608956336975,-1.3017101287841797,1.359912633895874,-1.0103251934051514,-0.916215181350708,2.0060205459594727,0.45066317915916443,1.1579188108444214,-0.6914948225021362,0.7976351380348206,-0.4003722071647644,1.170990228652954,-0.6901690363883972,0.8342883586883545,1.727884292602539,1.0112322568893433,-0.7957673072814941,-1.3273910284042358,-0.2478816956281662,0.1589260995388031,0.2707775831222534,-2.4794538021087646,-0.08888373523950577,0.8219231367111206,-1.676287055015564,0.7876930832862854,-0.6812357306480408,-1.1058768033981323,1.0678980350494385,-1.0431747436523438,1.9528673887252808,0.23007909953594208,-1.9807848930358887,1.2763582468032837,0.14048223197460175,-0.468980997800827,-0.485688716173172,0.26153865456581116,-0.828335165977478,1.2485578060150146,-1.5896916389465332,0.23741000890731812,0.8581294417381287,2.1365394592285156,0.9569272994995117,-0.07163560390472412,0.7498114109039307,-0.2841489911079407,0.3810809850692749,-0.18189677596092224,0.3664388358592987,1.012505292892456,0.5225765705108643,1.9198729991912842,1.9261091947555542,0.32230162620544434,0.49440285563468933,-0.30992743372917175,-1.01553213596344,0.05197883024811745,1.230857491493225,0.6210941076278687,-0.49498510360717773,1.5319591760635376,-0.38980916142463684,0.029709547758102417,3.033250570297241,-0.27511680126190186,-0.7588883638381958,1.352200984954834,0.8159768581390381,-0.6956712007522583,-0.6573178172111511,-0.2220594882965088,-1.222108006477356,1.7732995748519897,-0.4265616834163666,0.5227524042129517,0.04945267364382744,-0.554110050201416,0.33164316415786743,-0.20091547071933746,0.32640084624290466,-0.30142268538475037,1.7449569702148438,2.3287065029144287,-0.02317289635539055,2.048760414123535,0.2851368188858032,0.38281744718551636,-0.998362123966217,0.9235475063323975,-0.44578537344932556,0.18684504926204681,1.0793534517288208,0.2670978605747223,1.6931287050247192,-1.0221682786941528,-0.753760814666748,0.5737520456314087,1.0144762992858887,-1.0803331136703491,-0.3481617271900177,-0.8977144956588745,-1.0559511184692383,-0.7078388929367065,0.48386242985725403,-0.004084830172359943,1.7147952318191528,0.3730325400829315,0.8553138375282288,-0.5995352864265442,1.3714780807495117,-0.8865786194801331,0.5211987495422363,-0.05689724534749985,1.175695538520813,1.0556105375289917,-2.0918867588043213,-0.23853978514671326,0.5710762739181519,0.09830917418003082,0.683772087097168,0.07753314822912216,-0.6892675161361694,2.142448663711548,0.9245917201042175,0.7553434371948242,-2.4771440029144287,-0.5839248299598694,-1.659468650817871,-0.10135415941476822,0.3373951017856598,-0.5465927720069885,1.0335297584533691,1.006685733795166,2.5756418704986572,0.47058549523353577,0.36320996284484863,-0.45685699582099915,-1.066007375717163,-0.539509117603302,-1.5360186100006104,0.026372414082288742,-1.7079379558563232,2.1130781173706055,-2.276820421218872,1.312575101852417,0.012979860417544842,0.8351328372955322,1.147532343864441,-1.2794883251190186,-0.8899717926979065,-0.7510428428649902,-1.1406153440475464,0.17223775386810303,-0.4611451029777527,-0.7970814108848572,1.3596569299697876,-0.12019450217485428,-2.7171640396118164,0.7144168019294739,-1.78121018409729,-0.9153076410293579,-1.2295634746551514,-1.5543885231018066,-0.2136174738407135,1.1949348449707031,-2.171332597732544,-0.3212887942790985,1.5514758825302124,-0.728153645992279,0.30962449312210083,2.2874886989593506,-2.2302119731903076,0.909794807434082,0.682146430015564,-0.12448233366012573,-0.21086464822292328,0.2365199774503708,-0.5519176125526428,-0.02517964132130146,0.039588671177625656,-2.5278520584106445,-0.1435539275407791,-2.3243319988250732,2.4364757537841797,-2.7893359661102295,0.11343363672494888,-1.5648492574691772,-2.1948070526123047,0.38628169894218445,-0.34630081057548523,-0.3024110198020935,0.19728510081768036,-0.7286601662635803,-1.1164871454238892,1.0393537282943726,0.38367727398872375,-0.6498897075653076,0.17032642662525177,0.08861234039068222,1.466638445854187,0.8361068367958069,-3.033006429672241,-0.2570423185825348,0.0018057480920106173,-0.2215292751789093,1.566139578819275,0.5972998142242432,0.008445939980447292,-1.8919275999069214,0.34980687499046326,0.2843380570411682,-0.17947326600551605,0.5317427515983582,0.6091020703315735,-0.017832251265645027,0.6068499684333801,-0.04170318320393562,-1.1269181966781616,-1.2836576700210571,2.8934507369995117,2.8963425159454346,-1.9811424016952515,0.3612079322338104,2.2175240516662598,-0.5940791964530945
b'\xe6\xbf\x80\xe5\x85\x89',-0.08933518826961517,0.026388071477413177,0.32435283064842224,-1.1878719329833984,0.48223066329956055,-0.27005231380462646,-0.13744008541107178,-0.7219083309173584,-0.5733803510665894,0.3056403696537018,-1.9750386476516724,-0.025015203282237053,0.29484426975250244,-0.07979076355695724,-0.12226340174674988,0.1354888677597046,0.881907045841217,-2.093918561935425,0.5451755523681641,-0.6926543712615967,0.15180546045303345,-0.09335808455944061,0.6982555389404297,0.492044061422348,0.8919116854667664,-0.4017636179924011,1.1978039741516113,-0.9131038188934326,1.3864052295684814,-0.41582491993904114,1.0406394004821777,-0.1599598228931427,-0.4668024480342865,2.043222665786743,0.39468199014663696,-0.13543441891670227,1.7257136106491089,-0.5909010171890259,0.6381182670593262,-0.20645131170749664,-0.8690059781074524,0.8056110143661499,-0.07246871292591095,-0.24832184612751007,-0.48363450169563293,-1.2148512601852417,-0.5010467171669006,0.09814828634262085,0.25485703349113464,0.30296507477760315,-1.5945374965667725,-0.8687061667442322,-0.7863336205482483,1.0801382064819336,0.6639367341995239,-0.669293999671936,-0.5289589166641235,0.04090036824345589,-0.9789511561393738,0.42248761653900146,0.2720743417739868,0.38337504863739014,0.7954755425453186,0.5702682137489319,-0.16923220455646515,-0.2504781186580658,-0.8021547198295593,-0.32382288575172424,1.1303904056549072,0.29730281233787537,0.23893994092941284,-0.6251392364501953,-0.6061665415763855,-0.23224256932735443,-0.6465567350387573,1.16746187210083,-0.9121707677841187,0.1542375534772873,-0.04833938926458359,0.7885566353797913,0.26418858766555786,0.6210126876831055,1.2695485353469849,-2.372110605239868,0.8391409516334534,-0.9765370488166809,1.1499325037002563,-0.13401366770267487,0.09561558812856674,0.008610107004642487,0.19983743131160736,-0.3529295027256012,-0.31112778186798096,-0.2089034467935562,-1.1616337299346924,-0.4606519937515259,-0.17331311106681824,-0.017603576183319092,1.3623604774475098,0.9969798922538757,-0.7907449007034302,0.8993537425994873,-1.3839811086654663,-0.5808496475219727,0.21697737276554108,-0.23631469905376434,-0.0029331587720662355,1.3719253540039062,-0.12104940414428711,0.4773293137550354,-0.7329066395759583,0.4355459213256836,1.0276850461959839,-0.5627496838569641,0.6962408423423767,1.9251512289047241,-0.2684778571128845,-0.46690061688423157,-0.19660009443759918,0.8448790907859802,1.2914624214172363,-0.18157528340816498,-1.2251968383789062,1.1583925485610962,-0.05336043983697891,0.42146438360214233,2.3335840702056885,-0.5168898701667786,0.38005080819129944,0.9515507221221924,-1.1779522895812988,1.000351071357727,-0.8634318709373474,-1.2261370420455933,0.5610941648483276,0.22205747663974762,-0.7850667834281921,-0.6761470437049866,0.18552741408348083,-0.1777120977640152,1.490025281906128,-0.6848030090332031,-0.09580682963132858,1.4943608045578003,-0.27952128648757935,-0.002476960187777877,-0.45796412229537964,-0.3468494713306427,0.8775679469108582,0.0646931454539299,-0.36647969484329224,0.8385111093521118,0.8875096440315247,-0.30825233459472656,-0.03315339982509613,-0.8279396295547485,-0.7033509612083435,-0.7334836721420288,-0.7054234147071838,0.14492368698120117,-2.4906113147735596,0.49975764751434326,-0.8387206792831421,0.051564570516347885,-0.4847457706928253,-1.5341802835464478,0.9675173163414001,-0.08276405185461044,1.5249892473220825,-0.34032300114631653,-0.06935543566942215,-0.6733528971672058,1.6556403636932373,-0.6872016787528992,-0.9420240521430969,0.8045476675033569,1.5043929815292358,-0.21548694372177124,0.4349173307418823,0.14803235232830048,-0.6492637395858765,0.9958871006965637,-0.6288345456123352,0.0987703874707222,-0.48061931133270264,0.43894803524017334,-0.8569912910461426,-0.4834659993648529,-0.4986296594142914,-1.3835655450820923,0.8690552711486816,0.6924682259559631,0.8103432059288025,0.4567839801311493,-0.2719579339027405,-0.583628237247467,-0.015114955604076385,-0.9414453506469727,-0.6841473579406738,-0.9737390279769897,-0.5757033824920654,-0.8067798018455505,0.34092316031455994,-2.622713565826416,-0.0418483130633831,-1.6332186460494995,-0.8801836967468262,-1.035464882850647,2.1467669010162354,0.036095429211854935,-0.6566077470779419,-0.13993601500988007,-0.4958617687225342,0.23712584376335144,-1.1830896139144897,0.3958224654197693,0.5001953840255737,0.14785954356193542,0.1838827282190323,-0.742883026599884,-0.024200208485126495,-0.9647436738014221,-1.2312554121017456,2.1142590045928955,-0.8509656190872192,0.8841896057128906,-0.900179386138916,-1.3169251680374146,1.5900498628616333,-1.8351699113845825,2.2826108932495117,0.5446717143058777,0.855351984500885,0.11480162292718887,1.0259689092636108,-1.084551453590393,-0.23623350262641907,0.089308001101017,-0.17208994925022125,0.4475679397583008,0.42402198910713196,-0.9069763422012329,-1.612115740776062,0.14144763350486755,-1.4826457500457764,-0.09681308269500732,-0.6331095695495605,0.6278896927833557,0.20545463263988495,2.258901834487915,-0.38689813017845154,-0.2692464292049408,0.5040088295936584,-0.7391317486763,-0.03748320788145065,-0.4114181697368622,0.6115038394927979,-0.4471075236797333,0.7721152901649475,0.3271426856517792,-0.8085864782333374,0.8430610299110413,-0.41387060284614563,0.4305556118488312,-0.17014190554618835,0.8024472594261169,1.0491242408752441,0.2284856140613556,0.5972104072570801,-0.8742640614509583,-0.14279581606388092,0.6900647878646851,0.8167540431022644,0.36599695682525635,0.20435255765914917,-0.2517419159412384,0.27071326971054077,1.4899518489837646,-0.2553815543651581,1.2257519960403442,-0.7180730104446411,-0.9031311869621277,0.18353527784347534,0.06647170335054398,-1.2933481931686401,-0.47851741313934326,-0.30520936846733093,0.9136980772018433,-0.12257908284664154,-0.6906063556671143,-0.11158861964941025,-0.2900916337966919,-1.3205528259277344,0.1829364150762558,0.14981572329998016,0.4112018644809723,-1.204560399055481,3.0161008834838867,0.21549338102340698,-0.37969112396240234,-0.21750952303409576,-0.6528050303459167,-0.6900252103805542,0.41399598121643066,-0.8148918151855469,0.8335337042808533,-0.6729448437690735,-0.009612656198441982,-0.13840509951114655,-0.14524368941783905,0.7395504117012024,0.1590385138988495,1.0810576677322388,-0.7651540040969849,0.364937961101532,0.5076088309288025,0.09825138002634048,-0.3719688057899475,-0.05871642753481865,-0.7369656562805176,-0.7640323638916016,-0.6126556992530823,0.24197092652320862,-0.38078752160072327,0.5978990793228149,-0.22304345667362213,-1.3281923532485962,-0.07858388870954514,0.22823645174503326,-0.8718997240066528,0.1294747292995453,0.17954601347446442,0.7597315311431885,-0.4917599558830261,1.5457210540771484,-1.0850600004196167,-0.2018207311630249,-0.5020992755889893,-0.11809807270765305,-0.4633062183856964,0.9064070582389832,-0.1803620159626007,-0.12420359998941422,-0.7690938115119934,-0.8319036364555359,-0.5274808406829834,-0.7061749696731567,-0.19283853471279144,-1.5733689069747925,1.9432034492492676,-0.3505997359752655,-1.0015926361083984,0.17419956624507904,0.6415308713912964,0.3685401678085327,0.06345105916261673,1.0326035022735596,-0.968681275844574,-0.03193465992808342,1.0216526985168457,-0.997013509273529,1.0939981937408447,0.33179542422294617,-0.555656373500824,-1.8240755796432495,-0.255452424287796,-0.9521316289901733,0.7709270715713501,-0.6810397505760193,-1.830736517906189,0.41169315576553345,0.6303636431694031,0.9126463532447815,1.6820875406265259,0.8195580840110779,-0.9813525676727295,-0.07522338628768921,-0.6100006103515625,0.8452799916267395,-0.244780495762825,-1.1390268802642822,-0.21367429196834564,0.5611381530761719,-0.8803941607475281,-1.2663086652755737,1.7238404750823975,0.9918276071548462,0.9559041857719421,1.10470712184906,-1.6074305772781372,0.2420452982187271,-0.3493196666240692,-0.5216341018676758,2.461941719055176,1.402335286140442,0.34799978137016296,0.19026611745357513,-0.5541945695877075,1.5560567378997803,-0.13797825574874878
b'\xe7\xb3\xbb\xe7\xbb\x9f',1.3813155889511108,-0.35060206055641174,-0.35892030596733093,-0.12269414961338043,1.0211714506149292,0.49897006154060364,2.1603147983551025,0.4774067997932434,1.185004711151123,-0.4922638237476349,-1.7909533977508545,-1.048487901687622,-1.1612722873687744,-1.8857924938201904,0.26933789253234863,0.3839254081249237,1.5128974914550781,-1.5328625440597534,-1.6851871013641357,0.355457067489624,2.0119471549987793,-0.11299023777246475,-0.5533633232116699,-0.6987007260322571,0.9703301787376404,0.5445953011512756,1.2796427011489868,-2.9957687854766846,0.46666455268859863,-0.07285735756158829,2.7615787982940674,1.9217311143875122,1.4059840440750122,0.7845911979675293,0.7261666059494019,1.1886677742004395,0.5724232196807861,-1.9824683666229248,0.8761600852012634,0.572420597076416,-0.04098834469914436,0.20089924335479736,0.1523810476064682,-1.2513675689697266,-0.21567988395690918,-0.15694569051265717,-1.4169384241104126,0.8664716482162476,-0.5785861611366272,1.6388484239578247,-0.539377748966217,1.5377849340438843,0.07205214351415634,-0.2920277714729309,-0.1971973031759262,0.06798545271158218,1.3869500160217285,-0.2744717597961426,0.6904095411300659,-0.9130982160568237,-0.5310719609260559,0.009214908815920353,-0.5364909768104553,2.1357624530792236,0.2868884801864624,-1.066010594367981,0.6299502849578857,0.6980372071266174,0.9549522399902344,0.9272588491439819,-0.3812981843948364,0.20241551101207733,3.265184164047241,1.2724496126174927,0.3053576648235321,0.3891439437866211,1.5206304788589478,0.4586993157863617,-0.9853053689002991,-0.23154574632644653,0.8142149448394775,1.9294353723526,0.40542569756507874,-1.0603452920913696,0.44057512283325195,-1.6533843278884888,1.2368239164352417,-0.6617852449417114,0.5901637673377991,0.7187198400497437,-0.30807268619537354,0.5530099868774414,-0.15862590074539185,1.1019436120986938,-1.448964238166809,0.5148720741271973,0.9683505296707153,0.957028329372406,0.46884480118751526,1.5480663776397705,-1.2991645336151123,1.7608263492584229,-0.6955658793449402,-0.824255108833313,-0.3907434642314911,-2.9799699783325195,0.0528201088309288,-0.8709594011306763,1.3195643424987793,1.8122901916503906,0.9442024230957031,-0.9314532279968262,-1.423634648323059,0.23066329956054688,0.9707943201065063,1.044877052307129,-0.21918272972106934,0.2850707769393921,1.5998928546905518,3.049283504486084,0.37879133224487305,-0.08271938562393188,0.37033024430274963,0.984763503074646,-1.63483726978302,1.6850863695144653,0.8223046064376831,-0.8507344126701355,1.2210062742233276,1.3249260187149048,-1.645188808441162,2.1302096843719482,0.6289462447166443,0.2435799539089203,0.1874065101146698,-2.352276563644409,-0.39175423979759216,0.9422523379325867,-0.5298343300819397,-0.8837860226631165,-1.8210861682891846,-0.16882164776325226,2.280608892440796,1.4996007680892944,0.13090498745441437,0.3851417899131775,2.363767147064209,-0.44251349568367004,0.5092262029647827,-0.985843300819397,1.0946375131607056,2.276150941848755,0.3397248387336731,-1.1580736637115479,-1.0082545280456543,-1.2117347717285156,0.88422030210495,0.2206929624080658,-1.5802828073501587,1.8796573877334595,-0.52852463722229,0.20200015604496002,0.3040442168712616,-1.0037486553192139,0.0599876344203949,-0.15156510472297668,2.511509418487549,0.5788071751594543,-0.15775473415851593,0.0983319878578186,1.0521998405456543,-0.9939988255500793,1.1670116186141968,-0.19362159073352814,-1.2370200157165527,-0.769692599773407,-0.3235221803188324,1.7966814041137695,0.15719464421272278,2.2608323097229004,-1.9582033157348633,0.4835342466831207,0.65638267993927,0.33871695399284363,-1.705281376838684,1.0299930572509766,-0.7984221577644348,1.954073429107666,-0.31351765990257263,-1.0236284732818604,0.2569277286529541,-0.9038538336753845,-0.6206053495407104,0.9005666375160217,-1.074462890625,-0.6841425895690918,-0.5376957058906555,1.5108801126480103,-1.9962278604507446,-0.015612202696502209,2.0855584144592285,0.3403474688529968,-0.2237626612186432,-1.1468026638031006,-0.056102506816387177,-1.6134841442108154,1.2870577573776245,-0.8120407462120056,1.3932894468307495,0.6677687168121338,0.23864470422267914,1.8367400169372559,-0.18619658052921295,1.5480608940124512,0.05199847370386124,1.3592077493667603,2.0641212463378906,0.017116783186793327,0.8942965269088745,-1.5869812965393066,1.0194977521896362,-1.3102073669433594,-0.48895466327667236,1.8605194091796875,-1.278290867805481,1.5906577110290527,0.06874366104602814,-1.6045217514038086,2.429713726043701,-0.4877742826938629,0.8152885437011719,-0.5114573240280151,0.749240517616272,0.5010116696357727,1.0588247776031494,0.9721186757087708,-0.046243954449892044,0.43422025442123413,-0.4200034439563751,0.35302650928497314,-0.7977465391159058,-1.1293230056762695,-1.2324308156967163,-0.010221741162240505,0.5203710794448853,0.33823928236961365,1.1066120862960815,-0.6720779538154602,-1.635619044303894,2.2342381477355957,1.974431037902832,1.1930110454559326,-0.1018943265080452,1.2547708749771118,1.3178870677947998,0.9964948892593384,0.6437532901763916,-0.39272716641426086,2.0232479572296143,1.1078518629074097,-2.3484010696411133,-0.8911838531494141,-1.23354172706604,-1.9375665187835693,0.9516195058822632,-1.1444600820541382,-0.33110034465789795,-0.2730117738246918,1.1060656309127808,1.019958734512329,-0.1328713297843933,-0.17850951850414276,0.8745728731155396,-0.3235369920730591,0.27314960956573486,-0.5756576061248779,-0.08821965008974075,0.11669705808162689,0.512198805809021,0.5254709720611572,-0.36517930030822754,0.3895503580570221,2.87355375289917,-2.979020595550537,0.7427414655685425,0.37308230996131897,-1.7175307273864746,0.24581490457057953,1.2848418951034546,-0.9332055449485779,-0.9686631560325623,0.2709946632385254,0.18738941848278046,-1.4105839729309082,0.5225884318351746,0.1987619400024414,-0.7198073267936707,1.8835625648498535,1.2475509643554688,-1.4463731050491333,-0.6139728426933289,-2.047532796859741,0.19490788877010345,0.5187913179397583,-1.304762363433838,-0.7959640622138977,0.21473966538906097,1.621565580368042,0.14524495601654053,-0.15840120613574982,0.9704611897468567,0.650842547416687,1.4452534914016724,0.9963545799255371,0.04026491940021515,-1.2392685413360596,0.985264241695404,2.163332939147949,3.7008795738220215,-0.042323652654886246,-1.6496233940124512,-0.2699459493160248,-0.06567937135696411,0.08208131045103073,-0.303665429353714,-0.8614355325698853,0.4976988732814789,0.03494689613580704,-0.5766792893409729,-0.19206444919109344,1.4198012351989746,0.1199791356921196,1.2743275165557861,-2.1844122409820557,1.0640043020248413,-2.663203001022339,0.7065200805664062,1.0690195560455322,1.9990994930267334,-0.3492391109466553,-0.7421298623085022,-0.10764112323522568,0.40301957726478577,0.7585638761520386,-0.08546440303325653,-0.3214974105358124,-0.00981645192950964,0.7320254445075989,-0.9082227349281311,0.8259018063545227,0.166739821434021,0.8076985478401184,-0.8432967066764832,-0.7308138012886047,0.09785632789134979,-2.0492658615112305,0.6506312489509583,-0.10060019791126251,-0.26463019847869873,-0.49803343415260315,-2.209399700164795,1.2719806432724,-0.2128065675497055,-0.9558693170547485,-2.577725887298584,-1.727468490600586,0.89362633228302,0.2520812153816223,0.9086477756500244,-0.793091356754303,1.5102492570877075,-1.2725728750228882,0.7881300449371338,0.04129400849342346,0.7130020260810852,0.22012853622436523,0.2984967529773712,-0.2868995666503906,-0.3709448575973511,-0.9297055602073669,0.1792478859424591,-0.1793300360441208,-1.153173804283142,-2.783712148666382,-1.4364826679229736,-0.924705982208252,0.11429651081562042,1.86161470413208,2.941621780395508,-0.5802302956581116,1.3829798698425293,-1.2965521812438965,0.23742136359214783,0.12437064945697784,0.9128974080085754,0.499213308095932,-0.4800848364830017,-1.0623081922531128,1.5052727460861206,-0.1900007277727127
b'\xe7\xb2\xbe\xe7\xa1\xae\xe6\xb5\x8b\xe9\x87\x8f',0.14902862906455994,-0.03264300897717476,0.1692659705877304,-0.10922322422266006,0.01811738684773445,-0.08052078634500504,-0.07863210886716843,0.08692321181297302,-0.069308340549469,0.15933121740818024,0.0017083975253626704,-0.046568453311920166,0.14562520384788513,-0.15844391286373138,0.06468722224235535,-0.08098431676626205,0.005876776296645403,-0.09929893910884857,-0.026202598586678505,0.008398483507335186,0.052556004375219345,0.009326997213065624,0.1045793667435646,0.08541412651538849,0.17400552332401276,-0.23830775916576385,0.19846634566783905,-0.20535239577293396,0.08721140027046204,-0.07986483722925186,0.19501163065433502,-0.04727500304579735,0.244421124458313,0.08481341600418091,-0.19452038407325745,-0.22319337725639343,0.16990794241428375,-0.050054363906383514,0.06243319809436798,0.04306971654295921,-0.18375949561595917,-0.0688089057803154,-0.15726007521152496,-0.2973562777042389,0.15065278112888336,-0.10520275682210922,-0.13866308331489563,-0.02269323356449604,-0.013054103590548038,-0.16236846148967743,-0.14305362105369568,0.07108750939369202,0.05638798326253891,0.1885194033384323,-0.26085856556892395,0.06728086620569229,-0.08127418160438538,-0.16224616765975952,0.026209447532892227,0.07622835040092468,-0.36088722944259644,-0.09462127089500427,-0.23980385065078735,-0.05271158739924431,0.051363199949264526,-0.10364407300949097,-0.00243055890314281,-0.14964084327220917,-0.049535516649484634,0.2495824694633484,0.1429847627878189,-0.1521047204732895,-0.40113314986228943,-0.180343896150589,0.13606718182563782,-0.3332725763320923,-0.055516522377729416,-0.05445278808474541,0.07152333110570908,0.0032284515909850597,0.02611088939011097,0.09887068718671799,-0.054806869477033615,-0.33029407262802124,-0.11214558780193329,-0.0875314474105835,0.07218001037836075,0.02506887912750244,0.03846404701471329,0.11248209327459335,-0.05820923671126366,-0.011021534912288189,-0.18955101072788239,0.03807227313518524,0.09776563197374344,-0.06717377156019211,-0.21716582775115967,0.015025823377072811,0.2622520923614502,0.19886071979999542,-0.052673883736133575,0.12958769500255585,-0.24470572173595428,-0.15603625774383545,0.08115377277135849,-0.2031158208847046,0.012761267833411694,0.11070934683084488,0.10565834492444992,0.03644397109746933,-0.11342110484838486,-0.22950303554534912,0.3077130913734436,-0.26234161853790283,-0.16520178318023682,0.4019728899002075,0.11472058296203613,-0.013096866197884083,-0.05275275930762291,0.17514823377132416,0.14631447196006775,-0.1854657083749771,0.12401480227708817,0.36758020520210266,-0.10851182043552399,0.30748867988586426,0.28478777408599854,-0.0664931982755661,-0.053572241216897964,0.2770647406578064,-0.2715429961681366,0.0764741525053978,-0.05787548050284386,-0.031347133219242096,0.03293636068701744,0.15622198581695557,0.30335912108421326,-0.04277390241622925,-0.05973333492875099,0.035357363522052765,0.17551884055137634,-0.12817206978797913,0.05207433924078941,0.10246029496192932,-0.03864670544862747,0.03604384884238243,-0.09465352445840836,-0.0748305395245552,0.10745439678430557,-0.04599563032388687,0.07857179641723633,0.17699642479419708,0.13100123405456543,-0.02666788548231125,-0.06386248022317886,0.024388596415519714,0.06831161677837372,-0.16331282258033752,0.04364202544093132,0.15556512773036957,-0.1522391140460968,0.10786990821361542,0.290385365486145,0.12271709740161896,-0.019695965573191643,-0.17331069707870483,-0.13015075027942657,-0.13205258548259735,-0.009719674475491047,-0.31762075424194336,-0.029100453481078148,-0.3258342146873474,0.2668662369251251,-0.0011487489100545645,0.08867467939853668,-0.09080834686756134,0.11933345347642899,0.022462250664830208,-0.13580980896949768,-0.048229072242975235,-0.22885195910930634,0.1578800529241562,-0.00039195353747345507,0.10073879361152649,0.046204276382923126,0.04884696379303932,-0.06342829763889313,-0.02964380942285061,-0.040501050651073456,-0.2695354223251343,0.05935215204954147,-0.1585695743560791,0.031087668612599373,-0.056805167347192764,-0.1375676840543747,-0.02212030440568924,-0.1078672856092453,-0.026718705892562866,-0.07401813566684723,-0.22030551731586456,0.0009529669187031686,0.14718304574489594,-0.25973621010780334,-0.41479432582855225,-0.26377010345458984,-0.053296640515327454,-0.1330345720052719,-0.11921244859695435,0.2350621521472931,-0.23734411597251892,0.20413734018802643,0.14178524911403656,-0.0025662423577159643,-0.055300112813711166,0.045149628072977066,0.17207477986812592,-0.043263450264930725,0.1317615956068039,0.1299898326396942,-0.15451107919216156,0.09951094537973404,-0.05647025629878044,0.11343007534742355,0.06220808997750282,0.09167028963565826,0.052073001861572266,0.009326967410743237,-0.1180654838681221,0.33609387278556824,-0.2026369273662567,0.20806585252285004,-0.1592748910188675,-0.04996391385793686,0.10314803570508957,0.03031225875020027,0.26286444067955017,-0.14240293204784393,0.14485804736614227,0.05503946170210838,-0.2366737574338913,0.04367591068148613,0.2002810537815094,-0.0679560974240303,-0.04466433823108673,-0.11208444833755493,0.07208186388015747,0.009222102351486683,0.21981123089790344,0.05752535164356232,0.4822338819503784,-0.010685398243367672,-0.28426694869995117,-0.06292490661144257,-0.24950747191905975,0.01922588422894478,-0.19408336281776428,0.2957051992416382,0.1148180291056633,0.03135111182928085,0.013879225589334965,-0.13730089366436005,-0.058542050421237946,-0.12102531641721725,-0.03869064897298813,0.02374463714659214,-0.0029707469511777163,0.039326250553131104,-0.12699776887893677,-0.03066611848771572,0.1359473168849945,-0.07875946909189224,0.20625224709510803,0.24865595996379852,-0.039209168404340744,0.1644662469625473,-0.08078359812498093,-0.13405399024486542,-0.1664460003376007,0.06500671058893204,-0.039208292961120605,0.0030412001069635153,0.06096646562218666,0.265171617269516,0.044205985963344574,-0.15574200451374054,0.1314127892255783,-0.07564302533864975,0.018291592597961426,-0.0028803490567952394,0.07420144230127335,0.05406655743718147,-0.18291059136390686,0.08074302971363068,0.1262357532978058,0.19939512014389038,0.20893645286560059,-0.12226198613643646,0.19300448894500732,-0.1095544621348381,0.1022166758775711,-0.0137513168156147,-0.14550065994262695,-0.08532819151878357,-0.14881731569766998,0.007951759733259678,-0.1052851527929306,-0.016777344048023224,-0.18989403545856476,-0.0023175496608018875,-0.20593498647212982,0.13109256327152252,0.15520811080932617,-0.08402211219072342,0.0263765100389719,0.13890841603279114,-0.08109654486179352,-0.15443037450313568,0.027183428406715393,-0.05732104927301407,-0.11233297735452652,0.07533400505781174,-0.2156739979982376,0.1230500191450119,-0.007835079915821552,-0.2934640645980835,0.07703360170125961,-0.04358934983611107,0.030213255435228348,0.02767268195748329,-0.32128995656967163,0.2410079687833786,0.2412331998348236,0.0646291971206665,-0.2884407639503479,0.034642498940229416,-0.004805685020983219,0.15757663547992706,-0.2686343789100647,-0.21682405471801758,-0.07276400923728943,0.07177962362766266,0.05268638953566551,0.1239682212471962,-0.17676188051700592,-0.09804597496986389,0.0151460450142622,-0.1380360871553421,0.06949975341558456,-0.1950569748878479,0.18516132235527039,-0.10255736857652664,0.08096212893724442,0.09849819540977478,-0.2209097295999527,0.08541261404752731,-0.0632334053516388,-0.16872449219226837,-0.07829703390598297,-0.22058171033859253,-0.10873393714427948,-0.16140875220298767,-0.22038333117961884,-0.1952235847711563,-0.0795833170413971,-0.28824618458747864,0.09178885817527771,-0.18165476620197296,-0.030077701434493065,0.13360172510147095,0.03957683593034744,0.07036138325929642,0.22743061184883118,0.15449118614196777,0.1071026623249054,0.30304938554763794,-0.2954927384853363,-0.3305695652961731,-0.10135354101657867,0.1581280678510666,-0.12348800897598267,-0.25748512148857117,0.04971085116267204,-0.059171952307224274,-0.4127403795719147,-0.2621642053127289,0.10565032809972763,-0.14765574038028717,0.013815521262586117,0.2026650309562683,-0.09491447359323502,0.17545321583747864,0.1263550966978073,-0.18249548971652985,-0.1679951697587967,0.30847257375717163,-0.05404703691601753,0.10653895139694214,-0.03798317909240723,-0.07336409389972687,-0.12631848454475403
b'\xe5\xae\x9e\xe7\x8e\xb0',1.3428515195846558,0.9709866642951965,0.6387314200401306,1.032020092010498,2.2480239868164062,0.1761525571346283,1.660154104232788,-0.24234503507614136,0.048606473952531815,0.43347781896591187,-0.33650144934654236,-0.46437767148017883,-0.29074496030807495,-2.46594500541687,-0.5582007765769958,-0.9756789803504944,0.028049228712916374,-0.18381524085998535,-2.0354132652282715,-1.3479408025741577,1.2400671243667603,0.19102656841278076,1.169033408164978,0.2017514854669571,0.3373948931694031,0.1380995810031891,1.6873732805252075,-0.386850506067276,-0.7349830865859985,0.006940404884517193,0.47041529417037964,0.4131598174571991,2.4499831199645996,1.3956632614135742,-0.40243998169898987,-1.242943286895752,-0.7925257682800293,-1.9303994178771973,-0.8630963563919067,1.3664697408676147,-0.06375154107809067,1.1577825546264648,-1.3923587799072266,0.21758101880550385,0.3594171702861786,-1.3584556579589844,0.4237412214279175,0.1760934591293335,-1.5763288736343384,-2.5556976795196533,-0.39627760648727417,0.9398335218429565,1.6642122268676758,-0.43623828887939453,1.0684306621551514,1.3940620422363281,0.6550140380859375,-1.2053654193878174,0.4643183648586273,-0.8237403631210327,-0.20850491523742676,0.2062227874994278,-1.5426409244537354,-1.3333238363265991,0.2668854594230652,1.062381625175476,-0.7561172246932983,-0.7488893866539001,1.664162516593933,2.550997495651245,0.954766035079956,0.6181987524032593,0.1491747945547104,0.6270152926445007,0.9834085702896118,0.8291539549827576,0.9743952751159668,-0.7892295122146606,-0.5394936203956604,0.9597780704498291,-1.9404374361038208,0.5097484588623047,-0.039505962282419205,-1.4313806295394897,0.2735247313976288,0.5208438634872437,-0.387747585773468,-0.267141193151474,1.4695401191711426,0.7752252221107483,-2.475106716156006,-2.266927480697632,-0.11235301941633224,0.11745912581682205,-0.72760009765625,-0.16058781743049622,-1.2121367454528809,0.29103270173072815,0.5153132677078247,0.6462826728820801,-0.03635348007082939,0.4946950376033783,0.28718140721321106,-0.9869206547737122,1.6244066953659058,-1.5270339250564575,-1.027092456817627,0.2418425977230072,-0.30429935455322266,0.05920330807566643,-1.1526352167129517,-1.4661407470703125,0.6629794836044312,0.15393143892288208,-0.5641322731971741,-0.6334307193756104,-1.4175986051559448,0.18193092942237854,-1.2834327220916748,2.020467519760132,0.08888223022222519,0.4280032813549042,-0.11935670673847198,0.19974131882190704,0.46637433767318726,0.5598154664039612,-0.2633664011955261,-0.8016831874847412,0.4757010042667389,0.6673940420150757,-1.3232218027114868,2.7376632690429688,0.2681150436401367,-1.5879604816436768,-0.14301247894763947,-0.38537949323654175,0.9247581958770752,-0.7088276147842407,1.7764886617660522,1.301031470298767,0.12611746788024902,-0.09309118241071701,0.6538951396942139,-0.5059463977813721,0.5229472517967224,-0.05389343574643135,1.2262078523635864,-0.9673707485198975,-0.15308815240859985,-0.3911958634853363,-1.141269326210022,2.1100940704345703,1.5762866735458374,1.1152328252792358,-0.752434253692627,-1.432847499847412,-1.6012872457504272,0.8763386607170105,1.2696689367294312,0.593926727771759,0.4141446053981781,0.6057973504066467,1.3291432857513428,0.93553227186203,-1.1615734100341797,-0.4109833538532257,0.8478962182998657,0.6495035886764526,0.6665863990783691,-0.7886114716529846,0.39480993151664734,-1.1054545640945435,0.6023159027099609,-0.10086381435394287,1.1107492446899414,-0.8682137727737427,0.4214380085468292,-0.7161270380020142,0.3353242874145508,2.1240234375,-0.5431979298591614,0.19324849545955658,0.24606648087501526,0.07009574770927429,-1.9773271083831787,0.7496629357337952,0.1322726160287857,1.573681116104126,0.24502098560333252,-0.6969178915023804,-0.5479761958122253,-0.04598250985145569,0.5344639420509338,-0.3138641119003296,0.09516095370054245,0.2735324203968048,-1.1790424585342407,0.5564579963684082,-1.1532824039459229,-2.504333257675171,0.2769336998462677,0.2864910364151001,0.4838375151157379,-1.0348479747772217,-1.5154850482940674,0.9580283761024475,0.8437061905860901,1.5361591577529907,1.8453038930892944,0.0532241016626358,-0.38032957911491394,1.2336474657058716,-1.203668475151062,0.6992051601409912,0.9172536134719849,1.8131283521652222,0.7185657024383545,-0.2256094217300415,1.0510705709457397,0.3308236002922058,0.317361980676651,0.5730659365653992,-1.8613510131835938,1.546979546546936,2.1554207801818848,0.8791348934173584,1.2050467729568481,-0.0850212424993515,1.446678876876831,-0.3695294260978699,0.7966986298561096,1.3354995250701904,0.9126466512680054,1.4150447845458984,-0.48015642166137695,-0.13159380853176117,0.18016289174556732,-1.3000811338424683,0.86105877161026,-1.199594259262085,0.5139892101287842,-0.729983389377594,-1.3224998712539673,0.8663555979728699,-0.3118114471435547,0.9958124160766602,-0.323941707611084,0.7452189326286316,-1.097206711769104,2.0382635593414307,0.08678433299064636,0.03468345105648041,-1.6616945266723633,-0.7531786561012268,0.1285330057144165,1.3250809907913208,0.05068109929561615,1.7925543785095215,0.10437837988138199,0.11015297472476959,-2.620939254760742,-0.5760359764099121,-0.23000343143939972,-0.12055889517068863,-0.8246515989303589,2.041947603225708,-0.5544984340667725,-0.43949320912361145,1.1757498979568481,0.6303375363349915,-1.7505980730056763,-1.4550423622131348,-0.20154790580272675,-1.08555006980896,-0.5241698026657104,1.2244279384613037,-1.9459513425827026,-1.1233441829681396,1.5934585332870483,-0.8832573294639587,-0.8900495171546936,0.7494552135467529,-0.5784437656402588,-1.7727223634719849,1.2607671022415161,0.6426855325698853,1.5466254949569702,-0.48805174231529236,1.2510557174682617,0.7755575180053711,-0.7105101346969604,-0.19647668302059174,-0.21586920320987701,-0.028171705082058907,-0.513347327709198,-0.10120004415512085,-0.9534668922424316,2.9348011016845703,0.27780503034591675,0.02658579871058464,-1.893896222114563,-0.7255684733390808,-0.16496744751930237,-0.36741402745246887,-0.4897556006908417,-2.7108078002929688,0.06661844998598099,-1.4541473388671875,2.2160215377807617,-1.5796478986740112,-0.8771880269050598,-0.5446407198905945,-0.010223628021776676,0.0945393294095993,-1.9200040102005005,-0.7724918723106384,0.17683948576450348,0.9484602212905884,-1.3930436372756958,-0.15866084396839142,-1.477723240852356,-0.0821790024638176,-0.7956111431121826,-0.7772273421287537,1.0698208808898926,-0.5154553055763245,-0.5746006965637207,-0.75285404920578,-0.052444834262132645,-0.8740227222442627,0.039670977741479874,-0.16678456962108612,-0.21920622885227203,-1.8274860382080078,-0.4947175979614258,0.1297341287136078,0.8816767930984497,-0.7505581378936768,-0.6895202398300171,-0.47390851378440857,-1.0849244594573975,-0.5499011278152466,1.7965563535690308,-0.4468920826911926,1.5547715425491333,1.0437116622924805,-2.788585662841797,-1.0803816318511963,-1.0257045030593872,0.4012462794780731,0.7354695796966553,0.3612982928752899,0.019291505217552185,-1.3266466856002808,1.1216633319854736,-0.9377063512802124,-1.0371065139770508,-0.126692533493042,1.7803966999053955,-0.9730225801467896,-0.09151849150657654,-1.0443180799484253,-1.0872825384140015,0.6086847186088562,-1.582161784172058,0.5800908803939819,-0.9773057699203491,-1.0268676280975342,-0.4412024915218353,1.4058469533920288,-0.13279208540916443,-1.73127281665802,-1.4570839405059814,1.2414944171905518,1.9620031118392944,-0.7054882645606995,-2.86798357963562,0.597004771232605,-0.27077382802963257,-0.15076960623264313,1.1853666305541992,-1.4532957077026367,1.8071941137313843,-1.8329534530639648,-0.3937433958053589,-0.8611294031143188,-1.06416916847229,0.9116628170013428,0.3172515332698822,0.37473809719085693,0.23174813389778137,-0.1500374972820282,-1.4040913581848145,0.27862632274627686,3.449129581451416,2.1411690711975098,-1.7822514772415161,-1.3868147134780884,2.7556772232055664,-0.37313222885131836
b'\xe5\xb9\xb2\xe6\xb6\x89',1.1171455383300781,0.4493909776210785,0.5338183045387268,1.389207124710083,0.8820448517799377,-0.28466135263442993,0.18262697756290436,-1.586464524269104,1.9773414134979248,0.6525043845176697,-1.0185680389404297,-1.002068281173706,0.8049747347831726,0.5131937861442566,2.4266157150268555,-0.5949021577835083,-0.5458817481994629,-2.325946092605591,2.27201509475708,0.6413261294364929,-0.4170458912849426,0.5284102559089661,0.45789840817451477,-0.2182924896478653,-1.4794254302978516,0.6127486824989319,-1.4126660823822021,-0.5434397459030151,0.6494234800338745,-0.6745245456695557,1.5184104442596436,0.8458867073059082,0.5061559677124023,1.0370368957519531,-0.683504581451416,0.21744896471500397,-1.1902552843093872,-1.1397074460983276,-1.120689034461975,-0.5497836470603943,-1.48916757106781,0.8156802654266357,-0.10415732860565186,-1.4033461809158325,1.6761226654052734,-0.1770177185535431,0.5861399173736572,0.14774255454540253,-0.0635872408747673,1.7671012878417969,0.03204357251524925,2.1284306049346924,2.1077253818511963,0.34309121966362,0.04201139882206917,0.2041982263326645,-0.5605547428131104,0.7317522764205933,-0.9494812488555908,0.2131999433040619,1.5583549737930298,-0.755713939666748,-0.4720480740070343,0.7840055227279663,1.069201111793518,-0.7421543002128601,1.0669564008712769,-0.4168328642845154,-0.25291430950164795,1.709473729133606,0.21483930945396423,-2.305903196334839,-0.07766830921173096,1.119789481163025,1.0348507165908813,0.9629767537117004,-0.15259787440299988,0.9041125178337097,-1.423670768737793,-0.34985634684562683,0.21188484132289886,0.3031374216079712,1.143993616104126,-0.7262712121009827,0.30688977241516113,-0.1542191356420517,1.1114747524261475,-1.2649325132369995,0.3785013258457184,0.7130835056304932,-0.5516062378883362,-1.0440305471420288,1.3336108922958374,-1.1433435678482056,0.12222377210855484,1.462715744972229,0.337343692779541,-0.6652352213859558,-0.6704748868942261,-0.22486844658851624,-0.23185424506664276,1.5767842531204224,0.961588442325592,0.5516180992126465,-1.512157917022705,-0.008952631615102291,0.3792368769645691,0.9111482501029968,-0.3981945216655731,0.30080893635749817,-0.2436549961566925,-1.099344253540039,1.9816710948944092,-0.9746457934379578,-0.33987957239151,0.5731508731842041,-1.2293404340744019,0.43176624178886414,-1.0831966400146484,2.060330629348755,0.7887399792671204,-0.23202666640281677,0.31549710035324097,0.968212902545929,-0.6257466077804565,-0.6544749140739441,0.9368072152137756,-0.735246479511261,1.6439059972763062,1.2803785800933838,0.07464217394590378,0.4875829517841339,-0.4672485888004303,-0.7815176844596863,0.013161247596144676,1.1451761722564697,0.8313356637954712,0.2953563332557678,0.8810626268386841,-1.1784850358963013,0.8156822323799133,-2.476597785949707,0.5930801630020142,0.8152249455451965,-0.7995725274085999,-0.5039063096046448,0.04256337136030197,1.3250398635864258,2.2354464530944824,-0.9556481242179871,0.6085836291313171,-0.3687058687210083,1.831391453742981,0.1127033680677414,-0.8131909966468811,0.969781219959259,-0.5551466345787048,-0.8606821298599243,0.25950220227241516,0.07501327246427536,1.3803433179855347,-0.4891491234302521,-0.6498399972915649,0.12114772945642471,-0.8588540554046631,0.4686143398284912,1.5800189971923828,-0.5097081065177917,-1.7622326612472534,0.9318853616714478,-1.6242464780807495,-0.4659293293952942,1.2362616062164307,0.6045805215835571,-0.5983754992485046,-0.7009421586990356,-0.3797508776187897,2.9983184337615967,-0.11660578846931458,1.1154232025146484,1.542223572731018,-0.5120099186897278,-0.7386631369590759,1.239931344985962,-1.169637680053711,0.9045135974884033,-0.19259284436702728,-0.3783171772956848,-1.3572312593460083,-1.3343877792358398,1.4003915786743164,-0.39048442244529724,-1.8638859987258911,0.6446153521537781,-0.1877792626619339,-0.6800209879875183,-1.9856308698654175,-0.9136931300163269,-2.4965553283691406,-0.4264695346355438,-0.6856492757797241,-0.2747413218021393,-0.9907716512680054,-1.330440640449524,-0.7452676296234131,-0.4571622312068939,0.6140568256378174,-1.5817598104476929,1.5505708456039429,-0.05901239067316055,0.2816239297389984,0.48296016454696655,0.6168553829193115,2.2350351810455322,0.7115365862846375,-1.093571662902832,-1.7473007440567017,-1.0805301666259766,2.176771640777588,-0.9803515076637268,0.45356085896492004,-0.6580536961555481,-0.7437512278556824,-0.033846817910671234,-1.9194220304489136,0.1045825332403183,1.3224869966506958,-1.3248530626296997,0.07798237353563309,-0.35037049651145935,-0.34558725357055664,-0.31553784012794495,0.48786187171936035,0.156844824552536,0.8620218634605408,0.08964372426271439,0.6454327702522278,-0.32376235723495483,0.47930842638015747,-1.182508945465088,-0.5069150924682617,0.06455102562904358,-0.808788537979126,1.4337990283966064,-1.6175787448883057,-0.6998674869537354,-0.028657814487814903,-0.44328534603118896,1.3793517351150513,0.25791096687316895,-0.6312596797943115,-0.8649892210960388,0.28716710209846497,-1.1781418323516846,0.6444342732429504,-0.726055920124054,1.3186882734298706,2.552966356277466,0.8748063445091248,0.6677433252334595,-2.2630298137664795,-0.41208744049072266,-0.8572137355804443,-0.7149654626846313,-0.16288039088249207,1.6805379390716553,0.7238935232162476,-0.4918244779109955,1.7302933931350708,-0.637859582901001,-1.5039085149765015,1.209627389907837,3.164863109588623,-1.0861414670944214,-1.1090166568756104,-1.1897907257080078,-1.765967607498169,-0.7758917808532715,0.5161983370780945,0.6958332657814026,-2.123582124710083,0.38347455859184265,-1.0398062467575073,-1.9922566413879395,-2.1345508098602295,-2.1585116386413574,1.6300660371780396,1.527503252029419,0.2940749228000641,-0.8484671115875244,-1.2906272411346436,-1.8030282258987427,-0.933760404586792,0.04699011147022247,0.42036253213882446,0.12968668341636658,-0.05593356490135193,0.46656501293182373,-1.0746419429779053,0.7487043142318726,-0.8067182898521423,-0.9147689938545227,-0.6730247139930725,0.7707729339599609,-0.039106812328100204,0.7426106929779053,1.1396687030792236,-0.5013788342475891,0.5285693407058716,-0.4295530617237091,0.6153527498245239,1.3208866119384766,-2.0245723724365234,0.3095106780529022,1.010985016822815,-1.3348321914672852,-0.4852440059185028,-0.9300907850265503,-0.9839412569999695,-0.7991129755973816,0.0719793513417244,-0.04576494172215462,1.5988088846206665,-0.11794252693653107,-0.3151317536830902,0.4463628828525543,-0.003061007708311081,0.5510493516921997,0.17056052386760712,-1.747179627418518,1.3822174072265625,-0.24819739162921906,0.9254361391067505,-0.5499528050422668,0.23991502821445465,-0.4688433110713959,0.586104154586792,-1.5877422094345093,-1.4546173810958862,0.9432903528213501,1.0331546068191528,-1.5439914464950562,0.7128943204879761,0.3499640226364136,0.08284936845302582,0.7573537826538086,-1.9710813760757446,0.13001461327075958,0.6837120056152344,2.1318976879119873,-0.8037171959877014,0.8690922856330872,-0.3981523811817169,-1.958262324333191,0.3423908054828644,-0.521839439868927,-0.4782862961292267,-0.8413325548171997,1.9567545652389526,0.44882363080978394,-1.0893986225128174,-0.815948486328125,-1.2914057970046997,0.3132759630680084,-0.24196776747703552,0.9037489295005798,-0.5417410731315613,0.18360872566699982,1.195146918296814,0.5828608870506287,-1.59395170211792,0.1034054234623909,0.538293182849884,-0.640172004699707,1.0141257047653198,0.7777195572853088,-2.522449493408203,-0.4161940813064575,0.1426398903131485,-1.1477242708206177,1.2176220417022705,0.3312970995903015,-1.3090050220489502,-1.9340226650238037,0.5991170406341553,0.670204758644104,-0.1382622867822647,1.3237581253051758,1.6369999647140503,-0.3173430263996124,0.28589582443237305,1.2596287727355957,0.4496328830718994,0.28915488719940186,-0.824539065361023,1.8095990419387817,0.04589013755321503,1.5068691968917847,0.8868325352668762,-1.3672813177108765
b'\xe6\xba\xaf\xe6\xba\x90',0.4650898277759552,-0.14009954035282135,-0.9076421856880188,0.2674294412136078,-0.6557433605194092,0.14912548661231995,-0.24857813119888306,0.45479243993759155,-0.13785065710544586,-0.1963801383972168,-0.13661624491214752,0.45206865668296814,0.03879847750067711,0.20189014077186584,-1.032955527305603,-0.9498458504676819,0.6697125434875488,0.0020603227894753218,-0.6206346154212952,-0.12645888328552246,0.8371375799179077,0.8011269569396973,0.030146898701786995,-0.0531444251537323,-0.08102437853813171,0.30654868483543396,-0.6095487475395203,-0.5639560222625732,0.2939946949481964,-0.44725456833839417,0.955915093421936,0.49916940927505493,0.2319662868976593,-0.8312336802482605,-0.1899566650390625,-0.5938146710395813,-0.127306267619133,-0.3590942919254303,0.5289788842201233,-0.27942538261413574,0.7262688875198364,0.16586123406887054,0.5440623164176941,-0.18538083136081696,0.17236009240150452,0.1340915560722351,-0.019214820116758347,-0.6300874948501587,0.6284924745559692,-1.4970637559890747,1.0682860612869263,1.0302610397338867,0.06419619172811508,-0.7550828456878662,-0.18579478561878204,0.147469162940979,0.4390476942062378,-0.7622502446174622,-0.28467413783073425,0.11279754340648651,-0.11884817481040955,1.3354263305664062,-0.7405617833137512,-0.48219072818756104,0.4515855014324188,-0.12547430396080017,0.19414807856082916,-0.3361581265926361,-0.11334886401891708,0.360156387090683,-0.141536682844162,-0.1518619954586029,-0.8304471969604492,0.4463806748390198,-0.19978998601436615,-0.3118070065975189,-0.005355925299227238,-0.010435548610985279,0.1620679497718811,-0.09750468283891678,-0.712166428565979,0.2349534034729004,-0.2753453552722931,-0.3740338683128357,0.6261342167854309,0.47851431369781494,0.5264940857887268,-0.44922780990600586,0.9224937558174133,0.3034512996673584,-0.4627649486064911,1.0552902221679688,0.28180304169654846,-0.19118815660476685,-0.5952966809272766,-0.05843961983919144,0.08413968980312347,0.06412696093320847,-0.43575721979141235,0.5174744129180908,0.3320007026195526,0.36909279227256775,-0.49312201142311096,-1.3400146961212158,-0.6098108291625977,0.18407674133777618,-0.2788284420967102,-0.15106108784675598,0.3766728639602661,0.07232074439525604,-0.33347880840301514,0.15264801681041718,-0.42777395248413086,0.36476099491119385,-0.2579773962497711,-0.00879739411175251,-0.24649231135845184,0.07484620809555054,0.06037503480911255,0.2436629831790924,-0.3126934766769409,0.11635474860668182,-0.21763376891613007,0.4846196174621582,-0.2706913948059082,-0.13967131078243256,-0.8033307194709778,0.12975160777568817,-0.003686798270791769,0.02078842930495739,-0.17986485362052917,0.04207346960902214,0.18808534741401672,-0.2550583779811859,0.06189693883061409,-0.7058621048927307,0.5824390053749084,0.6285645365715027,-0.2505263686180115,-0.014310735277831554,-0.1471855342388153,-0.04860197752714157,-0.9378862977027893,-0.19068647921085358,-0.38069459795951843,-0.00512019544839859,0.5020129084587097,0.13307657837867737,0.08252587914466858,0.31661343574523926,0.3655858337879181,-0.27993208169937134,-0.3329876661300659,-0.016268132254481316,1.0423060655593872,-0.43015754222869873,0.9746503233909607,-0.1994696855545044,0.7661399841308594,-0.5880256295204163,0.28602686524391174,0.8682092428207397,0.24193374812602997,-1.150530457496643,0.1810852438211441,0.27095550298690796,0.6308138966560364,-0.622196614742279,0.13574567437171936,-0.3220967948436737,0.1523873656988144,-0.14968405663967133,0.1309610903263092,0.3012566864490509,-0.151677668094635,-0.3010549247264862,0.2599136531352997,-0.4289582371711731,-0.5785961151123047,1.366250991821289,0.7929905652999878,0.3500325679779053,-0.0033698896877467632,-0.49650323390960693,0.27851051092147827,-0.34080415964126587,-0.08852756023406982,0.026085251942276955,0.3562164306640625,-0.28558894991874695,-0.31622448563575745,-0.6339885592460632,-0.27543458342552185,-0.0191314909607172,-0.6210124492645264,-0.229276642203331,0.5098178386688232,-0.0781577080488205,-0.6792098879814148,-0.1266745626926422,0.1351514309644699,-0.32376357913017273,-0.006730998866260052,-0.5309045314788818,0.7064476609230042,0.6454797983169556,-0.031637273728847504,-0.6972401142120361,-1.1366095542907715,-0.8995028734207153,0.7628927230834961,-0.14793254435062408,-0.7724030017852783,-0.5028428435325623,-0.07301163673400879,-0.2807904779911041,-0.47026583552360535,-0.24806638062000275,-0.2308347374200821,0.3591730296611786,0.26345646381378174,0.4653800129890442,0.3576333820819855,0.17955175042152405,0.8578410148620605,0.4429709315299988,-0.11364851146936417,-0.3301137089729309,0.2569195628166199,0.32151103019714355,-0.6355623602867126,-1.167070984840393,-0.39046111702919006,-0.6477422714233398,-0.29255515336990356,0.34643983840942383,-0.08732743561267853,-0.10582036525011063,0.1756204515695572,-0.46282634139060974,0.47658318281173706,-0.561801016330719,-0.11718960851430893,0.04336453974246979,0.7232450842857361,0.0924520194530487,-0.882197916507721,0.18541698157787323,-0.482574999332428,0.31940561532974243,0.23145335912704468,-0.19673635065555573,-0.49013620615005493,-0.1229180172085762,0.4428178369998932,0.06702125072479248,-0.03725118562579155,-0.07572029531002045,0.21505168080329895,-0.1655815988779068,0.19618459045886993,-0.7515982389450073,-0.5996604561805725,0.33450424671173096,0.2736475169658661,0.47096699476242065,-0.03837241977453232,-0.46093249320983887,0.12160611897706985,0.5445160865783691,-0.10112728178501129,-0.5113028287887573,-0.21268858015537262,-0.28407320380210876,0.2505936622619629,-0.13899001479148865,-0.503792405128479,-0.412280410528183,0.07360871136188507,0.799260675907135,-0.05474573001265526,-0.03694402799010277,0.0646207183599472,-0.23547112941741943,-0.4794882535934448,-0.5457172989845276,1.0197337865829468,-0.026620516553521156,0.41352012753486633,-0.2916843295097351,-0.6700903177261353,0.38778480887413025,1.199708104133606,0.2979651391506195,-0.7029518485069275,0.3559836745262146,-0.6183884143829346,-0.21837292611598969,0.41039836406707764,0.3246173858642578,-0.5735906958580017,-0.23497818410396576,-0.0783226490020752,0.09209471195936203,-0.5439950823783875,0.36850041151046753,-0.11951316893100739,-0.08904761075973511,0.4244052767753601,-0.2363067865371704,0.23120687901973724,-0.49158188700675964,0.09630179405212402,-0.03725636750459671,0.39683806896209717,-0.38704827427864075,-0.09413857012987137,-0.018124599009752274,-0.6582984328269958,-0.18172891438007355,0.46514347195625305,0.08713460713624954,0.30643579363822937,0.15403856337070465,-0.5929559469223022,0.15318405628204346,0.14896905422210693,-0.23892207443714142,-0.8556748628616333,-0.537717878818512,-0.10464923828840256,-0.1836421638727188,-0.06211290881037712,-0.13903303444385529,0.830650806427002,0.7241354584693909,-1.0049644708633423,-0.4523520767688751,-0.7794556617736816,-0.3627002537250519,0.09877853095531464,-1.1294039487838745,-0.9850417375564575,-0.6984325647354126,-0.46434158086776733,0.19116850197315216,0.523876965045929,0.07460269331932068,-0.5744715929031372,-0.19716095924377441,-0.665095329284668,-0.5077248811721802,-0.3621329069137573,0.4314231872558594,-0.09084205329418182,-0.776102602481842,1.0240696668624878,0.3820302486419678,-0.10376948863267899,-0.8404080867767334,0.06943316757678986,0.17532895505428314,0.45774948596954346,-0.6698660254478455,-0.363995224237442,-0.492642343044281,0.026697007939219475,0.981276273727417,-0.19619543850421906,0.26619723439216614,0.12699288129806519,0.0318489670753479,0.00224691117182374,-0.5241162776947021,-0.6509494185447693,-0.6300555467605591,-0.763083815574646,0.1100865975022316,-0.06349296122789383,0.828287661075592,-0.30335351824760437,-0.10390979051589966,-0.22618967294692993,0.34396618604660034,0.11157796531915665,0.387634813785553,-0.17991586029529572,0.18572960793972015,-0.183805912733078,-0.1667785346508026,0.28716662526130676,-0.5357499718666077,-0.17024892568588257,0.1441047489643097,-0.2053573727607727,-0.2300746738910675,0.4169272184371948,-0.15954376757144928,0.28441762924194336,0.7544360756874084
b'\xe6\xb5\x8b\xe9\x87\x8f',-1.190495252609253,1.6239250898361206,1.0794552564620972,0.15331262350082397,-1.2991485595703125,-1.35550856590271,-0.04959316924214363,-0.6458099484443665,1.7532620429992676,-0.5898240208625793,0.3343379497528076,-0.7989989519119263,1.0556602478027344,-1.6110121011734009,-0.39415016770362854,-1.1345981359481812,-0.5245729088783264,-2.7047536373138428,0.1870514452457428,0.2515197992324829,0.30195188522338867,-1.2485380172729492,-0.2966296970844269,-1.379440426826477,-0.001732280827127397,0.02426992543041706,0.10433777421712875,-1.0899327993392944,1.4594709873199463,-2.53080153465271,1.2173240184783936,1.3029674291610718,1.6780178546905518,0.6599735617637634,-0.2185593992471695,-1.2108888626098633,1.5342941284179688,0.5672557950019836,0.9735050797462463,-0.12516722083091736,-0.6331577897071838,1.1190602779388428,-0.3029809594154358,-3.150315761566162,2.215815782546997,-0.553736686706543,-1.3785219192504883,0.013025837019085884,0.995083212852478,-0.7133656740188599,0.5816811919212341,0.7317385673522949,0.6883295774459839,-1.60520339012146,-1.3397988080978394,-0.11337802559137344,0.8956830501556396,-0.747137725353241,0.5197312831878662,1.8360092639923096,-2.055203437805176,1.1466736793518066,0.10916837304830551,0.9574785828590393,1.3708655834197998,-0.6239025592803955,-0.3960196077823639,-1.9167015552520752,0.9014509320259094,1.3306570053100586,-0.20742519199848175,-3.079669237136841,-1.228474736213684,-1.3132847547531128,1.044402003288269,0.16141435503959656,-0.6627308130264282,-0.7368850708007812,-0.6948127150535583,-0.7089625597000122,-1.4416766166687012,1.6655559539794922,0.4010624289512634,-1.544392704963684,-0.40512019395828247,-0.13969992101192474,1.837021827697754,0.6322905421257019,-0.002010046038776636,0.31683242321014404,0.16136735677719116,-0.8085406422615051,-1.4963812828063965,2.3533153533935547,0.2603347897529602,-0.010983040556311607,-1.6854721307754517,-1.4694958925247192,-0.20276355743408203,0.6127908229827881,-0.16961230337619781,1.5354896783828735,-0.21072304248809814,-0.44035014510154724,0.9086494445800781,-0.45311275124549866,0.015586275607347488,2.888514518737793,-0.2277599275112152,0.5812714695930481,-0.7923211455345154,-1.4063153266906738,2.2843449115753174,-1.72135591506958,-0.2697368264198303,2.344578742980957,0.11181197315454483,-0.253762423992157,-2.277644395828247,0.0018977783620357513,1.3651297092437744,-1.4526245594024658,-0.0869903564453125,2.388976812362671,-2.6072006225585938,-0.07377804070711136,1.7056759595870972,-0.1451849639415741,-1.1462256908416748,1.7660373449325562,-1.6150871515274048,0.0017138684634119272,-0.5348616242408752,-0.20642103254795074,1.1517091989517212,0.064697265625,0.07407324761152267,-0.4612567722797394,-1.4808989763259888,-0.10255628824234009,1.6393864154815674,-0.5783341526985168,2.1283819675445557,1.132095217704773,0.8398782014846802,-1.0329512357711792,-0.3301919400691986,0.9303871393203735,1.273887276649475,-1.8247298002243042,1.0951660871505737,0.39585351943969727,0.43713611364364624,-0.05309976637363434,-0.8998588919639587,1.138166904449463,0.8341917991638184,-1.0405919551849365,-0.6290004849433899,1.2201448678970337,0.04196514934301376,1.2682894468307495,0.0018220976926386356,0.4064371585845947,-0.6804622411727905,-1.3362812995910645,-0.6267786622047424,1.7131226062774658,-0.14400212466716766,0.09573625028133392,-0.4078589975833893,-2.498079299926758,1.2122385501861572,0.3664800524711609,1.4813883304595947,-0.1387554258108139,0.4260954260826111,0.35419079661369324,0.10434698313474655,1.3448050022125244,-2.0989673137664795,-0.4657793343067169,0.7780646085739136,0.163247749209404,-0.016357796266674995,-1.3415533304214478,0.6339827179908752,0.5480853915214539,-0.4824533462524414,-2.721442222595215,0.699705183506012,0.10421735793352127,-0.5503103137016296,-0.16733841598033905,-0.5124796628952026,0.31965741515159607,0.3513639569282532,-1.0588505268096924,-1.5114762783050537,-0.8931837677955627,1.0579087734222412,1.0668607950210571,-1.6557581424713135,-3.7852447032928467,-0.8368398547172546,-0.8738763332366943,-0.13534633815288544,-0.9844352602958679,0.7196006178855896,-1.1104754209518433,1.5510090589523315,0.3685571253299713,-0.07099592685699463,0.2782953977584839,-0.37376490235328674,0.5395498871803284,-1.1874499320983887,-1.778030514717102,0.9148586392402649,-1.7494298219680786,0.04341396689414978,-0.023463351652026176,-0.8834558725357056,1.4778025150299072,0.833977997303009,0.7633722424507141,0.12165805697441101,-0.2496153563261032,1.568507194519043,-0.30058446526527405,1.9312937259674072,0.03746293857693672,-1.0141185522079468,0.5055644512176514,1.0483978986740112,1.4095393419265747,-1.505229115486145,1.6170779466629028,1.2965493202209473,-0.282947301864624,-0.013386026956140995,0.47261252999305725,-0.7113057374954224,0.3261520564556122,1.400618076324463,0.7021631598472595,-1.388996958732605,0.7215101718902588,1.021041750907898,2.352344512939453,0.09998807311058044,-1.9309096336364746,1.5868343114852905,-1.311133861541748,-0.7343308329582214,-0.295668363571167,0.9618109464645386,0.1755821406841278,1.2505509853363037,0.8423107862472534,-0.4004957675933838,0.3253938555717468,-1.1590008735656738,1.405715823173523,0.41772472858428955,1.151406168937683,1.3293174505233765,-0.1441313475370407,-0.036699000746011734,0.861530601978302,-1.1799300909042358,1.8565040826797485,3.080937623977661,-1.0363913774490356,0.5740747451782227,-1.5875825881958008,-0.6733763217926025,-1.867600440979004,-1.2252510786056519,0.44789573550224304,0.5287251472473145,-0.39002445340156555,2.7623989582061768,0.3573090434074402,-1.6531084775924683,-0.4581485390663147,-0.6438916921615601,0.7511091828346252,0.3157581686973572,-0.626669704914093,-1.345603108406067,0.8223376870155334,1.1097068786621094,-0.6271138787269592,0.9015714526176453,1.7288740873336792,-0.555753767490387,-0.15312246978282928,-1.0311721563339233,0.03367684409022331,0.48162612318992615,-1.0391533374786377,1.543441653251648,0.11927256733179092,0.5719928741455078,-0.7723775506019592,-0.2785699665546417,-0.27451732754707336,-1.2574846744537354,-0.9743161797523499,0.12548290193080902,-0.4694961905479431,-0.650708794593811,1.0046807527542114,-0.045837607234716415,-0.8152568936347961,-0.5922796130180359,0.06286237388849258,-0.26710939407348633,-0.2400418519973755,-0.38454514741897583,-2.925863742828369,0.37081387639045715,-0.5597497224807739,-0.1497046947479248,0.6811503767967224,-0.2821550965309143,0.6224013566970825,-1.7364633083343506,-1.0881458520889282,1.3847564458847046,-0.17757903039455414,0.1721978783607483,-1.6458427906036377,2.347677230834961,-0.626530647277832,1.484781265258789,-1.4017666578292847,-0.7693537473678589,0.3773069977760315,-0.22632451355457306,-1.0119268894195557,-0.4356374144554138,0.9849153757095337,-0.5132346153259277,-1.3985556364059448,-1.133358120918274,1.0653176307678223,0.20694206655025482,1.9127886295318604,-0.16063855588436127,-0.45999062061309814,0.8137487173080444,-1.9500410556793213,0.1130514144897461,-0.6102452874183655,0.20336146652698517,-0.882663905620575,0.041222963482141495,-2.4071805477142334,-0.9555536508560181,-1.4478416442871094,0.1139785647392273,-0.9501526355743408,-2.120633125305176,-0.2691097855567932,-1.8842867612838745,0.8749377727508545,0.38977235555648804,0.21587473154067993,0.9395453929901123,0.8304852843284607,-1.193598747253418,1.0897332429885864,0.6588549613952637,0.09047374874353409,-2.0579347610473633,-1.2685108184814453,1.8696569204330444,0.25303518772125244,0.2137216031551361,-0.22537028789520264,-1.0590769052505493,-1.6455981731414795,-2.373642921447754,0.2652394473552704,-0.2912865877151489,-0.6652818918228149,2.6578452587127686,-1.7740685939788818,1.1871938705444336,-0.7166897654533386,-1.0713692903518677,-1.6159019470214844,-1.0556789636611938,0.7882174253463745,-0.25785690546035767,-1.5540295839309692,-2.434046983718872,-0.3764750361442566
