word,0,1,2,3,4,5,6,7,8,9,10,11,12,13,14,15,16,17,18,19,20,21,22,23,24,25,26,27,28,29,30,31,32,33,34,35,36,37,38,39,40,41,42,43,44,45,46,47,48,49,50,51,52,53,54,55,56,57,58,59,60,61,62,63,64,65,66,67,68,69,70,71,72,73,74,75,76,77,78,79,80,81,82,83,84,85,86,87,88,89,90,91,92,93,94,95,96,97,98,99,100,101,102,103,104,105,106,107,108,109,110,111,112,113,114,115,116,117,118,119,120,121,122,123,124,125,126,127,128,129,130,131,132,133,134,135,136,137,138,139,140,141,142,143,144,145,146,147,148,149,150,151,152,153,154,155,156,157,158,159,160,161,162,163,164,165,166,167,168,169,170,171,172,173,174,175,176,177,178,179,180,181,182,183,184,185,186,187,188,189,190,191,192,193,194,195,196,197,198,199,200,201,202,203,204,205,206,207,208,209,210,211,212,213,214,215,216,217,218,219,220,221,222,223,224,225,226,227,228,229,230,231,232,233,234,235,236,237,238,239,240,241,242,243,244,245,246,247,248,249,250,251,252,253,254,255,256,257,258,259,260,261,262,263,264,265,266,267,268,269,270,271,272,273,274,275,276,277,278,279,280,281,282,283,284,285,286,287,288,289,290,291,292,293,294,295,296,297,298,299,300,301,302,303,304,305,306,307,308,309,310,311,312,313,314,315,316,317,318,319,320,321,322,323,324,325,326,327,328,329,330,331,332,333,334,335,336,337,338,339,340,341,342,343,344,345,346,347,348,349,350,351,352,353,354,355,356,357,358,359,360,361,362,363,364,365,366,367,368,369,370,371,372,373,374,375,376,377,378,379,380,381,382,383,384,385,386,387,388,389,390,391,392,393,394,395,396,397,398,399
b'\xe8\xbf\x90\xe8\xa1\x8c',-0.793450117111206,0.6019745469093323,0.33680403232574463,0.5100118517875671,0.5375553965568542,-0.6561335921287537,-0.8014876842498779,-0.2897327244281769,-0.7984545826911926,-1.1557259559631348,0.03786768019199371,-2.9918923377990723,0.039911024272441864,-2.1092166900634766,0.4072585105895996,-2.2835841178894043,0.320658802986145,-2.32352614402771,-0.6853550672531128,-1.1555622816085815,2.794177770614624,-1.3455613851547241,-0.5031757950782776,0.5634622573852539,1.140904426574707,0.18945342302322388,2.221330165863037,-1.7340383529663086,-0.43440720438957214,-1.2496352195739746,1.9456056356430054,-0.5190037488937378,0.9385392069816589,-1.126333475112915,1.2202732563018799,-0.0035151478368788958,-0.09197235852479935,-0.9721804261207581,-3.8079097270965576,0.23619568347930908,0.24720649421215057,-0.01850329153239727,-0.394938200712204,-0.3051872253417969,0.037806443870067596,0.1962275207042694,0.07493023574352264,-0.5893200039863586,-1.4088077545166016,-1.4405571222305298,2.2959465980529785,0.4483920931816101,-0.029650412499904633,0.3024478256702423,-0.6349385976791382,-0.5464617013931274,-0.44498077034950256,-0.210346058011055,-0.1828112006187439,-1.3026793003082275,-2.3223681449890137,-0.4268627464771271,-0.7645055055618286,0.8540248274803162,-0.40630653500556946,-0.2986331880092621,-0.6576356887817383,1.702075481414795,-1.4782253503799438,1.2917722463607788,1.2075340747833252,0.0780792087316513,0.9151667356491089,0.9346619248390198,-0.3135150671005249,0.6886008381843567,-0.7537612915039062,-0.8165644407272339,-0.038487259298563004,-0.013727528043091297,-3.1919798851013184,-1.2681334018707275,-0.915715754032135,-0.5948448181152344,-1.0360314846038818,-0.5997992753982544,2.3581323623657227,0.0940290167927742,1.3962457180023193,0.6084822416305542,-2.0512404441833496,-1.3105007410049438,-0.3699851334095001,0.38305458426475525,0.599553644657135,-1.7569714784622192,-1.8102375268936157,0.3764970004558563,1.1802458763122559,2.0345988273620605,-1.4385265111923218,0.1422964632511139,0.40898701548576355,-0.5376742482185364,0.9795868992805481,-2.994889736175537,-0.40853503346443176,2.6163856983184814,1.2855548858642578,1.6459753513336182,-2.0584969520568848,-1.7407110929489136,-1.2381007671356201,-1.1794248819351196,-0.8206875324249268,-0.845974862575531,0.9299211502075195,0.46590158343315125,1.8259550333023071,2.0852906703948975,-0.3262176513671875,0.3963053524494171,-0.39067330956459045,2.152754545211792,-0.8956610560417175,-0.05297670513391495,-1.2027801275253296,0.5412532687187195,-0.44216638803482056,0.2968253791332245,-0.1184261292219162,2.4874770641326904,-0.5761059522628784,-1.943010926246643,-1.1776227951049805,0.01990829035639763,-0.6476531624794006,0.6290940046310425,-0.24214749038219452,-0.0238314401358366,-1.2386178970336914,0.26543861627578735,1.4269075393676758,-1.881245732307434,0.99721360206604,-1.9358131885528564,1.7417861223220825,-0.834169864654541,1.2073605060577393,-1.754620909690857,-0.2490963339805603,2.3864095211029053,-0.9827567338943481,1.3274765014648438,-1.0355737209320068,-1.6631696224212646,0.47367945313453674,1.5643197298049927,0.5094128251075745,-0.14748680591583252,-0.5245173573493958,-0.46348023414611816,-0.3217926621437073,-0.4080919623374939,1.124326229095459,-1.0915583372116089,0.6286665797233582,-1.0854065418243408,1.174094319343567,0.021069837734103203,0.22447195649147034,-0.14438578486442566,-0.07771990448236465,-1.0400677919387817,-0.9095511436462402,-0.8523499965667725,1.8748464584350586,1.8147186040878296,-0.7551600933074951,1.1171311140060425,-1.6929441690444946,-0.9367530345916748,-1.8114581108093262,1.271690845489502,0.5025879144668579,-1.3382154703140259,1.4760212898254395,0.22892211377620697,-0.1634637862443924,-0.775568425655365,0.814163088798523,-0.038455136120319366,1.6960806846618652,-0.07163697481155396,-0.7779083847999573,0.3899157643318176,-1.9798641204833984,1.6398488283157349,-2.7017009258270264,-0.8638468980789185,2.20033597946167,0.6794185042381287,-1.1678376197814941,-0.8643397688865662,1.3217523097991943,-0.5072494745254517,1.1855672597885132,0.7951674461364746,-0.4108872711658478,0.9456992149353027,0.41701674461364746,0.2173043042421341,-0.42366093397140503,1.7709511518478394,-0.6892297267913818,2.5312883853912354,0.5088832378387451,-1.0509835481643677,0.8087189197540283,0.38799142837524414,1.0999118089675903,-1.193647027015686,-0.5869526863098145,0.12638823688030243,-0.6987709999084473,-0.14763237535953522,-1.5132012367248535,0.0035368879325687885,3.3739242553710938,-0.7761235237121582,1.9582923650741577,-0.141960009932518,0.6759526133537292,0.961010217666626,-1.3664257526397705,0.03139904513955116,0.4441280663013458,0.949609100818634,0.4828896224498749,-1.021822214126587,0.4685988128185272,-2.2459559440612793,0.9405063986778259,1.6210720539093018,1.206142544746399,0.9876388907432556,-0.8331593871116638,-0.7927746176719666,-0.9083446860313416,2.437426805496216,1.1781312227249146,-0.5063778758049011,0.6101762652397156,-1.4192826747894287,-0.18259987235069275,0.5571092963218689,0.8035740852355957,1.0657835006713867,0.7106408476829529,0.10123449563980103,0.29233938455581665,-0.8320704102516174,0.13374492526054382,-1.8199326992034912,0.2386545091867447,1.3101515769958496,-0.4112638831138611,0.1248079314827919,0.9253988862037659,1.5825588703155518,0.43916669487953186,0.7024019956588745,1.2272751331329346,-0.758589506149292,1.8754568099975586,0.6115456819534302,1.2581995725631714,-0.19412066042423248,0.5696955323219299,-0.744106113910675,0.43335652351379395,1.911104679107666,1.551276683807373,-2.024475574493408,1.9452732801437378,1.2052805423736572,-0.030934792011976242,1.303681492805481,0.29687264561653137,0.367561399936676,-0.8045263886451721,0.008286334574222565,-2.221895933151245,-1.6873092651367188,2.5308547019958496,-0.9669690728187561,1.9508768320083618,2.9907331466674805,0.7746663689613342,-0.17265494167804718,-0.03788946196436882,-1.2717031240463257,-0.5754402279853821,-0.6019429564476013,0.04242795333266258,-0.17078395187854767,-1.9207944869995117,-0.7610219717025757,1.0248547792434692,-0.6777584552764893,-0.18513067066669464,1.8557730913162231,-0.33934229612350464,1.8421155214309692,0.22943127155303955,-0.28005120158195496,1.4468069076538086,1.6373592615127563,-0.5282233357429504,-1.795940637588501,0.38289394974708557,-1.1207773685455322,-0.9395013451576233,2.4386610984802246,1.1607918739318848,-1.7696298360824585,0.2070772349834442,1.2999451160430908,-1.9228683710098267,-1.1605490446090698,0.29099974036216736,-0.42340323328971863,-0.2355983406305313,-3.5455164909362793,0.08264559507369995,-0.9136673808097839,1.9062280654907227,0.03805966675281525,0.9200010895729065,-0.20059506595134735,-0.931244969367981,-1.3039661645889282,0.8981618881225586,-0.7794649004936218,-1.30764639377594,0.8144947290420532,-0.6297244429588318,0.5037696361541748,0.24053582549095154,-0.8212406039237976,-0.6458261609077454,1.2575557231903076,-1.024733543395996,-1.3677033185958862,0.9254207611083984,-1.0310381650924683,0.3849318325519562,0.6767124533653259,2.2547996044158936,0.5379956960678101,0.12221333384513855,-0.335234671831131,-1.3015387058258057,-1.3740500211715698,-1.3160439729690552,0.7571894526481628,-0.8690585494041443,-0.4887014627456665,1.802790880203247,0.10508736968040466,1.4559102058410645,1.6238592863082886,-0.9341654181480408,-0.016944169998168945,0.9563039541244507,0.9561366438865662,0.690471887588501,0.013885684311389923,-0.6498770713806152,-0.9357228875160217,0.7293314337730408,-0.2623431086540222,-0.794912576675415,-2.7870874404907227,-0.16984209418296814,-1.8293548822402954,-0.544759213924408,-1.7326908111572266,1.4705805778503418,0.8741989731788635,-0.5838208198547363,-0.44277462363243103,-1.5693755149841309,1.125271201133728,3.216218948364258,2.056746006011963,-0.3319588601589203,-0.0985916405916214,2.083143472671509,-0.7079301476478577
b'\xe8\xae\xbe\xe5\xa4\x87',0.4299317002296448,0.27157509326934814,0.24338212609291077,-1.0541270971298218,1.663988471031189,-0.936181366443634,-0.2213689386844635,0.46526241302490234,0.0057264394126832485,1.7105484008789062,-2.2942802906036377,-0.6217066049575806,0.6307897567749023,-1.5881168842315674,-0.3755023777484894,0.611923336982727,-0.630470335483551,-1.1053096055984497,-1.247613787651062,0.4882901906967163,0.8114339113235474,-0.6882434487342834,-0.49062851071357727,-0.837960958480835,0.18670062720775604,0.47688186168670654,1.1046521663665771,-1.590796709060669,-0.46254992485046387,-0.5701086521148682,1.92623770236969,2.6488425731658936,0.9631305932998657,1.284027338027954,0.07533995807170868,0.3320457339286804,-0.5100145936012268,-0.5949286818504333,0.27588701248168945,0.7941877841949463,1.135087490081787,-0.4156312346458435,0.20966213941574097,0.20111656188964844,0.19306278228759766,-2.057267665863037,0.16439484059810638,-0.7106308937072754,0.5632384419441223,-0.1934674084186554,0.3532427251338959,1.8071826696395874,-1.8616572618484497,-0.9344994425773621,0.6401301026344299,-1.2572771310806274,0.8455328345298767,-0.4731597900390625,0.6102576851844788,-0.15402483940124512,-0.6635926365852356,-0.04987679794430733,0.891364336013794,-0.01346069760620594,0.6151076555252075,0.748023509979248,-0.6617605686187744,-0.590855062007904,2.73660945892334,1.1002100706100464,0.11808950453996658,-0.4964250326156616,0.5858972072601318,1.1425552368164062,-1.1557339429855347,1.5552653074264526,0.6425163149833679,0.8369396924972534,-0.7365076541900635,-0.31097912788391113,0.07283177971839905,1.2532576322555542,2.0150444507598877,-0.5826135277748108,0.9447430372238159,-1.5834660530090332,0.15800702571868896,1.7122374773025513,1.0456806421279907,-1.8379783630371094,-0.46172675490379333,-0.8915847539901733,0.5415764451026917,0.403278648853302,1.1605476140975952,-0.30775538086891174,-0.0398414172232151,0.2748038172721863,0.9160721302032471,1.114405870437622,-3.023768663406372,-0.7319626808166504,0.7748978734016418,-1.00337815284729,0.9922298789024353,-1.7403498888015747,0.5057932138442993,1.2598884105682373,0.07313858717679977,2.2674198150634766,-1.1580313444137573,0.657089352607727,-0.16254350543022156,-1.5476523637771606,-0.00814640149474144,-0.3731558322906494,1.0777804851531982,1.0189911127090454,1.860087513923645,2.241081953048706,2.7052221298217773,1.0532562732696533,-1.321939468383789,0.19226261973381042,-0.4619220197200775,-0.9198018312454224,1.7212249040603638,0.24698400497436523,-0.23710864782333374,1.510124683380127,-0.2637319266796112,2.3041045665740967,2.098702907562256,-1.2040941715240479,-0.37357184290885925,-1.9411216974258423,-0.09108608216047287,-0.3478779196739197,0.31560835242271423,-1.118870496749878,0.06619170308113098,0.15333454310894012,1.0982471704483032,0.5812430381774902,1.3767229318618774,-0.13542938232421875,1.059110403060913,-0.1847342848777771,1.5664750337600708,-1.4713032245635986,2.4381957054138184,1.677225112915039,0.7654998898506165,-0.03070601262152195,-0.16650289297103882,0.06102140620350838,-1.6757692098617554,2.4737765789031982,-2.541018009185791,1.9993396997451782,-0.31564998626708984,1.128640055656433,0.49012407660484314,0.42676421999931335,-1.1068955659866333,0.02086319774389267,1.1741567850112915,-0.313999205827713,0.9728174805641174,0.12809857726097107,-0.3560436964035034,-1.8830691576004028,1.7726696729660034,-1.1262320280075073,0.3556167781352997,-1.3250948190689087,-0.09362688660621643,0.09419498592615128,1.8663283586502075,1.6432675123214722,-1.305363416671753,0.37781956791877747,0.2552459239959717,0.6107849478721619,-1.7046808004379272,-0.7749272584915161,0.24007458984851837,1.4871740341186523,0.02806711383163929,0.30902740359306335,-0.030949145555496216,0.06463909894227982,-1.3486886024475098,-0.005307191051542759,0.7681658267974854,-0.5902800559997559,0.08191991597414017,1.4624344110488892,-1.1623622179031372,-0.9926830530166626,0.3833547532558441,0.2796820104122162,-0.5731625556945801,-1.7125556468963623,-0.15266570448875427,-0.40879392623901367,2.5620739459991455,0.2367793172597885,2.321911334991455,0.5764318704605103,-0.1210491806268692,1.646236777305603,-0.05621781572699547,0.18345271050930023,-0.8671742677688599,1.900409460067749,1.0138684511184692,0.5648929476737976,-0.611335039138794,-0.6884424686431885,0.6155001521110535,0.9590393900871277,-0.40292632579803467,0.9623057246208191,-1.3578381538391113,0.5441224575042725,0.19504563510417938,-2.739264965057373,1.0977882146835327,-0.1875040978193283,1.9693673849105835,1.4358934164047241,-0.08167891204357147,1.1750874519348145,0.5738049745559692,-1.1881780624389648,-0.7315731644630432,2.194115161895752,-1.3454101085662842,0.9912651181221008,-0.33260610699653625,-1.350469708442688,-0.15820445120334625,-0.2765315771102905,-0.24021658301353455,0.6894575357437134,1.3062372207641602,-0.27613115310668945,-1.063847541809082,2.362856864929199,0.4251084327697754,0.9329245686531067,-0.8837957382202148,1.402590036392212,-0.06801417469978333,-0.39462316036224365,0.6940677165985107,-0.10568130016326904,1.1946196556091309,0.043917376548051834,-2.786032199859619,0.4237976670265198,-2.2196877002716064,-0.7394539713859558,-1.441374659538269,0.008554606698453426,0.24332977831363678,1.3488579988479614,1.4480624198913574,1.0952812433242798,-1.7507158517837524,0.40041062235832214,0.7023239731788635,-1.4844473600387573,0.05034179240465164,0.842029869556427,0.4050515592098236,0.18805591762065887,-1.1066255569458008,1.827461838722229,1.3193780183792114,-0.4773363471031189,1.8521451950073242,-1.773851990699768,0.08678807318210602,-0.8404973745346069,-1.942559003829956,0.467085063457489,0.0484699122607708,0.19052806496620178,-0.048833586275577545,0.3498108685016632,-0.40506863594055176,-1.0629009008407593,0.8905831575393677,1.1463046073913574,-2.8895106315612793,1.568939208984375,-0.581643283367157,0.33264538645744324,-1.6958649158477783,-0.5026226043701172,-0.09019096195697784,0.6395496129989624,-1.507987380027771,-0.6645987033843994,-0.6254507899284363,0.7695712447166443,-0.07556284964084625,0.6939876675605774,1.712618350982666,-0.21229545772075653,2.332310438156128,0.3562684655189514,-0.9928027987480164,-1.346758484840393,2.366072654724121,-0.2797461748123169,1.068716049194336,0.33783918619155884,0.03751102462410927,-2.739682912826538,0.5698282718658447,0.6340275406837463,0.9556242227554321,-0.7725970149040222,-0.9874446392059326,-0.5299162864685059,-1.4515920877456665,-1.3533051013946533,1.232338309288025,0.5178127884864807,0.7018512487411499,-1.4356675148010254,0.4593813419342041,-1.7343649864196777,0.8664827346801758,-0.3131810426712036,0.1218719407916069,-0.8740410804748535,-0.8790609240531921,-0.9684157371520996,0.7342926859855652,-0.6313906311988831,0.7029483318328857,0.617017924785614,-1.7770450115203857,-1.8657630681991577,-0.42491987347602844,-0.09646046161651611,-0.8844184875488281,1.1881704330444336,0.6992001533508301,0.020624732598662376,1.7956193685531616,-1.7296526432037354,0.4474492073059082,0.9990376830101013,0.017339471727609634,-0.42721229791641235,-1.4251322746276855,0.21150816977024078,-0.05888425186276436,-0.8439427614212036,-1.0892900228500366,-1.7829688787460327,-0.08157096058130264,1.69414222240448,-0.4095577001571655,0.35184144973754883,0.9960170388221741,0.4575180411338806,0.3838822841644287,0.45143795013427734,2.1660282611846924,0.3205132484436035,-0.9384745955467224,-0.37339791655540466,0.9744166731834412,-0.04004392400383949,-2.245957612991333,-1.2928179502487183,-1.4978129863739014,-2.6000990867614746,-2.19185471534729,0.6315451860427856,0.24127650260925293,0.8746447563171387,1.2156585454940796,0.041872065514326096,-0.4869682192802429,0.008493490517139435,-0.9782249331474304,-0.2789047956466675,1.6157172918319702,0.24715867638587952,0.37020212411880493,0.2698531448841095,2.884000301361084,0.8951854109764099
b'\xe7\x94\xb5\xe5\xad\x90\xe6\x98\xbe\xe5\xbe\xae\xe9\x95\x9c',-0.5508750677108765,-0.034298110753297806,0.2030072808265686,-0.6214614510536194,0.2471161037683487,0.4969141185283661,0.3160354495048523,-0.4721861183643341,0.4245047867298126,-0.08004675805568695,-0.6726135015487671,-0.14493094384670258,0.7266563773155212,-0.22457945346832275,-0.26390978693962097,-0.09770084172487259,-0.04706602916121483,-1.2814303636550903,-0.570644736289978,0.06367294490337372,-0.12925459444522858,-0.7568559050559998,0.14525267481803894,-0.10905253142118454,0.5336325764656067,-0.06728370487689972,0.40338850021362305,-0.9236507415771484,-0.02338399365544319,-0.3278762698173523,0.40086081624031067,0.03950412943959236,-0.02200539968907833,0.3343280851840973,0.12117082625627518,-0.7589899897575378,0.743705689907074,0.22860540449619293,0.5386255979537964,-0.5560958981513977,0.15923458337783813,0.9879212379455566,-0.6741371154785156,0.04762621596455574,0.07543795555830002,-0.5254754424095154,-0.06959294527769089,-0.22799746692180634,0.24007943272590637,0.08520577102899551,-0.7378911972045898,0.6372426152229309,-0.14679719507694244,0.0985882356762886,-0.04709821939468384,-0.7325337529182434,-0.4666019678115845,-0.06563685834407806,-0.2728181779384613,-0.3397887945175171,-1.1249123811721802,-0.34708842635154724,0.636536180973053,-0.16606348752975464,0.6712726950645447,-0.3710929751396179,-1.0523231029510498,-0.8580023050308228,-0.3034873902797699,0.3432929217815399,-0.06460848450660706,0.013387189246714115,-0.1502259522676468,0.9100629687309265,-0.312185674905777,0.1380879133939743,-0.08562969416379929,0.415144681930542,1.3921231031417847,0.4146057069301605,-0.13404954969882965,0.5339199304580688,1.0401623249053955,-1.3740986585617065,-0.31409990787506104,-0.17072038352489471,0.5294849872589111,1.0918203592300415,0.3748490512371063,-0.18316352367401123,0.22273609042167664,0.6807169318199158,-0.037315573543310165,0.20979006588459015,0.13748210668563843,0.12251077592372894,-0.30375951528549194,-0.082007497549057,0.32007545232772827,0.4344867169857025,0.012445599772036076,-0.31220072507858276,-0.49471741914749146,-0.114686019718647,0.12872938811779022,0.244255930185318,-0.2684674859046936,1.2734928131103516,0.5671581029891968,-0.055706433951854706,-0.23215113580226898,0.3516608476638794,0.36044853925704956,-0.21449927985668182,-0.413579523563385,0.7969843149185181,-0.9377274513244629,-0.2823110520839691,-0.367685467004776,0.39373379945755005,0.1307022124528885,0.15144792199134827,-0.24716560542583466,0.3781954348087311,-0.2741738259792328,-0.0678701177239418,0.9015294909477234,-0.6779947280883789,-0.23342560231685638,0.8587620854377747,0.0621151365339756,0.6480761766433716,-1.2952098846435547,-0.007112440653145313,-0.22115091979503632,0.7027849555015564,-0.290735125541687,-0.48521506786346436,0.2050676792860031,-0.1679057627916336,0.588216245174408,-0.37388476729393005,-0.02029469981789589,1.094620943069458,-0.01435091532766819,-0.031581804156303406,0.6203920245170593,-0.45115962624549866,0.41456207633018494,0.17363081872463226,0.4461418688297272,0.9168601036071777,-0.5860297679901123,0.3104627728462219,0.19382286071777344,-0.35972195863723755,0.13036948442459106,-0.17990335822105408,-0.18831974267959595,0.0763673260807991,0.020345402881503105,0.6079099774360657,-0.029453715309500694,0.3302886188030243,-0.23924829065799713,-0.006447103340178728,0.8832452297210693,-0.555448591709137,0.27913182973861694,-0.3142271935939789,-0.4966259002685547,-0.015253691002726555,1.3305766582489014,0.902807891368866,-0.5614515542984009,0.38642314076423645,0.8020144701004028,-0.28080594539642334,0.43729859590530396,1.3787277936935425,-1.2281241416931152,0.1346297711133957,0.18834127485752106,-0.4342963397502899,-0.2962667644023895,0.09744539856910706,0.26763996481895447,0.07382092624902725,-0.571312427520752,-0.23671506345272064,-0.03211513161659241,0.5740112662315369,0.3404267728328705,0.08983837813138962,-0.28856053948402405,-0.2602805197238922,0.045649513602256775,-0.20295175909996033,-0.9705847501754761,-0.3659913241863251,0.7868250608444214,-0.32339590787887573,-0.35043561458587646,-0.8981919884681702,0.06435337662696838,0.3014650046825409,0.34716278314590454,0.10653163492679596,0.6481736302375793,-0.14441238343715668,-0.4255092442035675,-0.4804282784461975,-0.18383671343326569,0.8458746075630188,0.01636221818625927,-0.002422991441562772,-0.21217229962348938,-0.26716750860214233,0.41285741329193115,-0.8012068867683411,-0.44901230931282043,-0.7697036862373352,0.1878460794687271,1.2979276180267334,-0.9542540907859802,0.16892555356025696,-0.19583076238632202,-0.5960374474525452,1.0310496091842651,-0.7373780608177185,0.94486004114151,0.3829025626182556,-0.2789763808250427,0.5605230331420898,0.7270338535308838,0.37439554929733276,-0.6305813193321228,0.5271840691566467,-0.3898952305316925,-0.5690423250198364,-0.3829827308654785,-0.6683083176612854,-0.7796676158905029,-0.516430139541626,-0.3652365207672119,0.8446226119995117,0.25168830156326294,-0.7482694983482361,-0.29484015703201294,0.6504468321800232,-0.3849143087863922,-0.043389156460762024,-0.14834249019622803,0.3401873707771301,0.5143161416053772,-0.16730788350105286,0.5379288196563721,-0.1418898105621338,0.6147658824920654,0.41828563809394836,-0.7956152558326721,0.13739702105522156,-0.8382931351661682,-0.15081141889095306,0.13988932967185974,0.4358959496021271,0.8418791890144348,0.2228526622056961,0.5101351141929626,-0.5826098918914795,-0.20966961979866028,0.10996414721012115,0.8957074880599976,0.302144855260849,0.06672941148281097,-0.18590830266475677,-0.6583593487739563,0.026252267882227898,-0.4939122200012207,0.4482322633266449,-0.4849819839000702,-0.4038604199886322,1.2059931755065918,-0.25755178928375244,-0.9626373648643494,0.24288254976272583,-0.3048021197319031,0.2748318910598755,-0.48626723885536194,-0.008399171754717827,-0.36055174469947815,0.15067733824253082,0.23309426009655,0.15915079414844513,-0.2947697043418884,0.8207919001579285,-1.0701477527618408,0.5470695495605469,-0.2779679298400879,-0.700262188911438,1.121938943862915,-0.45834699273109436,-0.2539549767971039,-0.4181651771068573,0.32393577694892883,-0.2473626285791397,-0.5229758620262146,-0.7570700645446777,-0.8258070945739746,0.22089602053165436,-0.008068155497312546,0.3410508632659912,0.6308236122131348,-0.47185173630714417,0.28939321637153625,-0.7975915670394897,-0.4444599747657776,-0.3849312365055084,-0.10384973883628845,-0.3218318819999695,0.14386509358882904,-1.1730271577835083,0.2716027498245239,0.32490649819374084,-0.7324785590171814,-0.13602887094020844,-0.6707617044448853,-0.5267132520675659,0.4991692304611206,0.12135392427444458,-0.4080708920955658,0.4044528901576996,0.0006490289233624935,-0.8521756529808044,0.4171631336212158,-1.088828682899475,-0.4469555914402008,-0.4133894145488739,-0.9824787378311157,-0.9660637974739075,0.05771064758300781,-0.40208739042282104,-0.2513865828514099,-0.9614706039428711,-0.6594127416610718,-1.1008278131484985,0.2667939066886902,0.3911559283733368,0.2618410587310791,0.6735947132110596,-0.2163940668106079,-0.4893879294395447,0.041750624775886536,-0.28795358538627625,-0.08076877892017365,-0.9659717679023743,0.37813591957092285,-0.5493411421775818,-0.21130235493183136,0.10473166406154633,-0.05842433124780655,0.3736180365085602,0.2375851422548294,-0.4979774057865143,-1.3942278623580933,-0.8228786587715149,-0.29471585154533386,0.7061211466789246,0.6159425973892212,-0.8741695880889893,0.2580367922782898,-0.3983041048049927,1.1453406810760498,0.8243237137794495,0.22913290560245514,-0.3307640552520752,-0.3677000403404236,-0.7330841422080994,0.5989917516708374,0.0933593213558197,0.19941619038581848,-0.04534585401415825,0.39374205470085144,-0.33386948704719543,-0.96656334400177,-0.01881679706275463,0.8063017129898071,-0.41216346621513367,-0.2656992971897125,-0.6175490021705627,0.2361738681793213,0.5635981559753418,-0.5969139933586121,-0.05341743305325508,0.7054628133773804,0.5122811198234558,0.5808339715003967,0.2511870563030243,0.7973132133483887,-0.5600771903991699
b'\xe5\xae\x9e\xe9\xaa\x8c\xe5\xae\xa4',-0.33431828022003174,2.0036377906799316,0.6961081027984619,-0.4035153090953827,-1.0162729024887085,-1.1264736652374268,-0.7400335669517517,-0.6896368861198425,-0.6087946891784668,-0.07354670017957687,0.07666884362697601,-0.45264798402786255,-1.2334752082824707,1.051002860069275,1.5283490419387817,-0.9630811214447021,-0.13119450211524963,0.4216694235801697,-0.21595627069473267,0.3729088008403778,0.3704206943511963,-0.6949212551116943,-1.123083472251892,-0.94450443983078,0.4351842403411865,0.961645245552063,1.0179389715194702,-0.7810950875282288,-0.8368874192237854,-0.2943215072154999,1.069469690322876,1.9718340635299683,1.0797258615493774,-0.4742242395877838,1.1505742073059082,0.16441990435123444,0.7708455920219421,1.0690670013427734,-0.40445563197135925,-0.8649904727935791,-2.5545449256896973,0.09875980019569397,-0.32423102855682373,-0.39798784255981445,-1.720381498336792,0.5202591419219971,0.14435870945453644,-1.5504757165908813,-1.0829893350601196,0.43479201197624207,-0.1623390167951584,1.5368071794509888,-0.9916213750839233,0.8126752972602844,0.5918503403663635,-1.0691078901290894,-0.44961807131767273,-0.15943565964698792,0.5491941571235657,-0.08019289374351501,-1.5229473114013672,0.5287531614303589,1.0332614183425903,-0.11334449052810669,0.5150488018989563,-0.5317741632461548,-0.2861802279949188,-1.8628342151641846,1.1860358715057373,0.9413883686065674,-0.47163739800453186,-0.06914480775594711,-0.5142418742179871,0.2100720852613449,-0.8977488875389099,-1.9378455877304077,1.1211323738098145,-0.3273332417011261,2.252509593963623,1.0245853662490845,-1.3060036897659302,-0.43266749382019043,2.4254400730133057,-3.8435144424438477,-0.9385112524032593,0.8802596926689148,-1.3478367328643799,-0.5592312812805176,0.29941508173942566,-0.8987706303596497,-0.010551102459430695,-0.8002349734306335,0.024376992136240005,0.632236897945404,-1.1862841844558716,-0.21695518493652344,-0.21433377265930176,-0.8728826642036438,-1.3483302593231201,1.8045011758804321,-2.008023977279663,0.011108662001788616,-0.8874980211257935,-0.15461501479148865,1.6578967571258545,-0.187925323843956,-0.6945895552635193,0.9360467791557312,0.38977953791618347,-0.007505024317651987,-1.7816157341003418,1.1918166875839233,-1.4372633695602417,0.04868869483470917,1.246824026107788,1.8532930612564087,1.0231374502182007,-1.195988655090332,0.8528370261192322,0.9122596383094788,0.5026377439498901,-1.1931099891662598,-1.3214203119277954,-0.1199718713760376,-0.3282543420791626,0.4915580153465271,1.9109419584274292,-0.3943091928958893,-0.386522114276886,-0.26416563987731934,0.8256938457489014,0.6524891257286072,-0.9357027411460876,1.5272610187530518,1.3021100759506226,0.16261447966098785,2.665356397628784,0.5036556124687195,-0.36645400524139404,-0.07852498441934586,0.4005482792854309,0.006170873995870352,1.0452470779418945,0.0331742949783802,0.3797631859779358,0.12705861032009125,0.8138120770454407,-0.5799944400787354,0.0521770678460598,-1.222766637802124,-0.5142170190811157,0.6447031497955322,1.7200292348861694,1.939781904220581,-0.576513409614563,1.6172046661376953,1.385686993598938,1.6920710802078247,-2.2992215156555176,1.5360100269317627,-1.5794122219085693,0.7622211575508118,0.684188187122345,0.09456538408994675,-0.5563803315162659,0.297780841588974,-0.2949836552143097,-1.0568554401397705,0.7722851037979126,-0.162072092294693,-0.3147509694099426,-0.3258199989795685,1.2837647199630737,-0.29747313261032104,-0.6056631207466125,1.4976511001586914,1.6817008256912231,-0.9820765256881714,1.124306321144104,1.104448914527893,-1.4516862630844116,1.4834833145141602,-1.5548826456069946,0.7149884700775146,-0.5395559668540955,-0.8552826046943665,0.019275739789009094,1.00994074344635,0.26141220331192017,-0.9026381373405457,-1.3959473371505737,0.08369456976652145,0.04463425278663635,-0.9344276785850525,0.19189947843551636,-1.3775043487548828,0.8990528583526611,2.2448458671569824,-1.469538688659668,-1.8934296369552612,1.0014196634292603,0.544170081615448,0.577362060546875,-2.8547680377960205,0.06345123052597046,0.21880951523780823,-0.09610261768102646,-2.759357213973999,1.0707547664642334,0.8657946586608887,-0.2573756277561188,0.864996612071991,0.1413383185863495,0.30451714992523193,0.19146762788295746,-0.6446099877357483,1.1462661027908325,0.7063986659049988,0.871935248374939,-0.40055203437805176,0.2641162574291229,-1.6708228588104248,-2.5517537593841553,1.3565689325332642,-1.17586350440979,0.7335537672042847,0.2616138458251953,-1.9910762310028076,2.2779858112335205,-1.6077455282211304,2.850660800933838,-0.36516088247299194,-0.16416320204734802,0.3230546712875366,2.3226656913757324,-0.3996588885784149,-1.487068772315979,1.1480636596679688,-1.6512398719787598,0.3188011944293976,-1.133017659187317,-2.1679775714874268,-1.3522931337356567,-1.5067625045776367,0.668399453163147,0.7798064351081848,0.8472263813018799,1.4937645196914673,-0.3483913838863373,0.5128670334815979,-0.20546668767929077,0.8541742563247681,-1.5193172693252563,-1.9601478576660156,-0.3146217167377472,0.9748165011405945,0.18094894289970398,1.4346026182174683,2.693084239959717,-0.16808611154556274,-2.4422476291656494,-0.20738230645656586,-1.5384427309036255,1.722646713256836,-0.27856016159057617,-3.6709883213043213,-0.4099122881889343,0.5389569997787476,-0.29338786005973816,0.6961167454719543,-0.15399882197380066,-0.37346914410591125,1.5697728395462036,0.6468764543533325,0.11500490456819534,0.4924541413784027,-0.6907023191452026,0.20881521701812744,0.6782479882240295,2.452543258666992,1.8191548585891724,-1.053757905960083,0.29201820492744446,0.11862202733755112,-0.4111374020576477,-1.2140002250671387,0.06376355141401291,1.0237982273101807,-0.11663533002138138,2.014775514602661,0.535240113735199,0.9541853666305542,1.0522043704986572,0.2883225977420807,0.468881219625473,-0.48978662490844727,-1.7066845893859863,0.43067988753318787,-0.9544851183891296,0.6517012715339661,2.815598487854004,-1.81330406665802,1.2661874294281006,-0.23847177624702454,0.2338930070400238,2.553342580795288,-1.3275134563446045,1.0476113557815552,-1.1678533554077148,0.7757068276405334,-1.3621972799301147,1.3736237287521362,0.3701307475566864,0.8251270651817322,-0.5513534545898438,0.97821444272995,0.3544847369194031,0.49350565671920776,1.0720999240875244,-0.6657264828681946,-2.291081190109253,-1.6385035514831543,0.5722489356994629,0.07640180736780167,2.164936065673828,-0.21384470164775848,0.6856859922409058,-0.4765498638153076,-1.0907533168792725,-1.6071454286575317,0.8068256378173828,2.888728618621826,-0.08083285391330719,0.41410860419273376,-1.2236729860305786,-1.2213196754455566,-1.2622249126434326,-1.56804358959198,0.27616363763809204,-1.6738548278808594,-0.413420706987381,-0.2768860161304474,-0.7530369758605957,0.1321462243795395,0.03669166937470436,0.6145041584968567,-0.6696687340736389,-0.589586615562439,1.9196686744689941,2.525120258331299,0.483739972114563,-0.1459316909313202,0.15541258454322815,0.8472179174423218,0.5370392799377441,-1.0759398937225342,3.0586113929748535,0.5485487580299377,-0.7350682616233826,-1.4030799865722656,-1.415865421295166,0.20209544897079468,1.6763981580734253,0.6677689552307129,-2.1470377445220947,-0.5169081687927246,-0.5901119112968445,0.5308581590652466,-0.34345266222953796,-0.33567458391189575,-2.4587292671203613,1.4746921062469482,-0.8506004214286804,0.9243239164352417,0.7010495662689209,0.5907785296440125,-0.9666234850883484,2.1820409297943115,1.8377857208251953,0.9078982472419739,2.3231594562530518,-0.4494556486606598,2.1393890380859375,-2.1100292205810547,-2.241262674331665,0.5940280556678772,-0.16009561717510223,-0.04535478726029396,1.6199030876159668,-0.2633858621120453,-2.7664990425109863,-1.2260513305664062,-0.5567935705184937,1.1881465911865234,1.1068933010101318,0.018435832113027573,1.0755869150161743,-0.13433566689491272,0.8599869608879089,0.5050456523895264
b'\xe7\xae\xa1\xe7\x90\x86',-0.46841809153556824,-0.47031620144844055,-0.16462822258472443,0.4819693863391876,0.41975370049476624,-1.2687757015228271,1.6086211204528809,-1.3744558095932007,1.4419113397598267,0.10076098889112473,-1.2801576852798462,-2.5736637115478516,-1.3644132614135742,-2.952106237411499,0.025817539542913437,1.4358097314834595,-0.4162655770778656,-0.9711309671401978,-0.3344586193561554,0.5550633668899536,1.6726751327514648,1.3359553813934326,-2.002788782119751,-2.143209457397461,-0.9406989812850952,0.11848587542772293,-1.2051634788513184,-0.008210002444684505,-0.09169267863035202,-0.7508860230445862,1.150907039642334,1.048829197883606,2.059558391571045,-0.9294342398643494,-0.6646705269813538,-0.6806272268295288,-0.2516947090625763,-1.6995280981063843,-1.3252192735671997,-1.0123289823532104,0.8821229338645935,0.4955407977104187,-0.6118054986000061,-0.5816972255706787,0.7588707804679871,0.6816019415855408,0.939418613910675,0.8680634498596191,-2.199204921722412,1.8938144445419312,2.353559970855713,0.24986079335212708,0.6429299712181091,-1.4992402791976929,0.5996068716049194,0.8333242535591125,-0.05354892835021019,-1.0295313596725464,-0.05224786698818207,0.06033483147621155,1.4529294967651367,-0.7353197932243347,0.9037086367607117,0.9369633793830872,0.8463011384010315,0.4816778898239136,0.41394612193107605,-0.16394227743148804,0.7295908331871033,1.5519605875015259,-0.33182278275489807,-0.7517322301864624,-0.5883389115333557,-0.08323466777801514,-0.758526086807251,1.062677264213562,2.478426218032837,-1.747631311416626,1.8583499193191528,0.6579495668411255,-2.312897205352783,0.4120008945465088,-0.1106281504034996,-0.5889736413955688,-1.0016924142837524,-0.039454977959394455,0.2676847279071808,-1.2159667015075684,0.271355003118515,-1.683219313621521,-0.2326887845993042,-0.4029897153377533,-0.4731537401676178,-1.3206244707107544,0.149094820022583,2.379127264022827,1.9520686864852905,-1.9155699014663696,-1.7111117839813232,0.9511823654174805,0.6440823674201965,1.7576680183410645,2.6501550674438477,-1.5871891975402832,-1.136601209640503,-0.6445187926292419,0.60146164894104,-0.20038798451423645,2.8934671878814697,1.1713297367095947,0.4234725832939148,-0.7013037204742432,0.5206385254859924,-1.0340229272842407,-1.2691004276275635,-2.5794177055358887,1.2883356809616089,-0.5088452696800232,0.4541156589984894,1.1541324853897095,1.7981634140014648,1.058609127998352,-0.008072465658187866,1.007827639579773,-0.9557916522026062,-0.8934298157691956,-0.4214054346084595,-0.9234585165977478,0.28131890296936035,0.8911531567573547,0.49474427103996277,0.38252103328704834,0.3073027729988098,-1.6331168413162231,0.17622175812721252,-0.7712894082069397,-0.22934521734714508,0.6886570453643799,-0.8060578107833862,0.8402063846588135,0.21881739795207977,0.16680908203125,1.6490000486373901,-0.7148925065994263,0.3055556118488312,-0.007021181285381317,1.836599349975586,0.4124644696712494,0.39293235540390015,-0.16378429532051086,0.07647476345300674,0.8927381038665771,0.04538913071155548,-1.4170784950256348,0.38312578201293945,-0.3449605405330658,0.33233246207237244,0.5054771900177002,0.15955102443695068,0.058766789734363556,0.7458921670913696,-0.05050105229020119,0.17186960577964783,0.08697189390659332,-0.18905465304851532,0.0585164874792099,1.5540505647659302,0.785622775554657,-1.1666417121887207,1.9513579607009888,-0.33316412568092346,-0.3950274884700775,-2.2473552227020264,-0.9259684681892395,2.0501160621643066,0.11705869436264038,0.3479824960231781,0.7791858911514282,3.0972189903259277,0.8308537006378174,-0.28898486495018005,-0.45487716794013977,1.4123098850250244,0.5081802010536194,-0.599905252456665,-1.3774255514144897,1.4577383995056152,1.4931408166885376,-0.47667017579078674,-0.22454394400119781,-1.0600974559783936,-0.011713115498423576,-0.09697313606739044,0.4949409067630768,-0.05571814253926277,-0.007204537745565176,-1.440929651260376,0.7202965617179871,-0.921268105506897,-0.09048807621002197,1.6971991062164307,-0.18443253636360168,-1.6515769958496094,-2.3243329524993896,1.6071001291275024,1.7221763134002686,0.71233069896698,-1.9138175249099731,2.2656216621398926,0.2274860143661499,-0.19957289099693298,0.4053756296634674,-0.8934333324432373,0.284772127866745,0.4036330580711365,0.5772624611854553,-0.02374526485800743,-1.0544148683547974,2.074324607849121,0.26750391721725464,0.17646588385105133,-0.9795832633972168,-0.398953914642334,-0.1677182912826538,-0.9208666682243347,-1.1462743282318115,-0.6112866997718811,-0.13081641495227814,-0.22268569469451904,-0.7201578617095947,-1.2657111883163452,-0.11225287616252899,-0.023295311257243156,0.20227596163749695,1.4092342853546143,1.703238606452942,0.1398867666721344,0.7621700763702393,0.223841592669487,-0.4975420832633972,-0.5437090992927551,0.7447216510772705,-0.6326125860214233,0.17959706485271454,-0.29489433765411377,0.29017403721809387,0.07651323080062866,-0.240597203373909,0.6574923396110535,0.3208262324333191,-0.24737071990966797,-1.230381965637207,0.4386639893054962,0.6704295873641968,-1.2043248414993286,1.2920242547988892,0.3999752402305603,0.692319929599762,1.6374156475067139,0.6613138914108276,-2.345228433609009,-0.24317678809165955,-0.16124607622623444,0.6548615097999573,-0.7561919689178467,0.44082459807395935,-0.6681251525878906,-0.3794836699962616,-0.5543034076690674,2.252558946609497,-1.1636232137680054,-0.35329535603523254,0.2410021424293518,-1.2477577924728394,-1.6810567378997803,-1.0611380338668823,0.31247833371162415,0.55696702003479,0.4270523488521576,-1.159866452217102,2.8351714611053467,-0.7664984464645386,0.5766279101371765,-2.0261013507843018,1.2196298837661743,-1.3174775838851929,-1.6723675727844238,1.3952528238296509,0.006411730777472258,0.5503323674201965,-0.7841229438781738,0.8463985323905945,1.852463960647583,-2.5871224403381348,0.021796440705657005,0.474185973405838,-1.188917875289917,0.12053327262401581,-1.4008971452713013,0.6398743391036987,-0.48687276244163513,-0.4529830813407898,0.0029029513243585825,-0.7622639536857605,-0.23780836164951324,-1.707345962524414,0.1636350005865097,1.5960760116577148,-0.6480382084846497,-0.4515516757965088,0.7454577088356018,-0.39307230710983276,-0.01644144393503666,1.135291576385498,0.10760855674743652,-1.7102839946746826,1.3238886594772339,0.345996618270874,0.5775231122970581,-0.589658260345459,0.02667154185473919,-1.5904676914215088,-1.0810444355010986,1.1851173639297485,-0.058731045573949814,0.8663753271102905,1.1598094701766968,-0.6450831890106201,-0.9932968616485596,-2.4026622772216797,0.008815941400825977,-0.3128875195980072,-0.010618284344673157,-1.1828805208206177,-0.239655539393425,0.6413033604621887,1.0681008100509644,-0.2621631920337677,0.27340397238731384,-0.47323060035705566,-1.0028012990951538,0.14385688304901123,-0.36003202199935913,-0.46552547812461853,1.1986780166625977,-1.854623556137085,-1.0842469930648804,0.9196439385414124,0.22882989048957825,1.1577997207641602,-1.9051060676574707,-0.37670019268989563,-1.3840726613998413,0.6654279828071594,2.345517873764038,-2.7967641353607178,1.3012287616729736,-0.004721578676253557,0.931214451789856,-0.9214431047439575,0.06730522960424423,-0.06790363788604736,0.36822399497032166,-0.09399589151144028,-0.2598094046115875,-0.4135785698890686,-0.2772960960865021,-0.11275043338537216,0.4540816843509674,-0.13825206458568573,0.5208243131637573,0.7333940267562866,-1.3878670930862427,0.33157816529273987,-0.3008921444416046,2.1642894744873047,-1.3885375261306763,-0.340122789144516,0.23646612465381622,0.358675479888916,0.2652507722377777,1.02309250831604,-1.1054739952087402,-1.6416071653366089,1.0900871753692627,-1.5835587978363037,0.061381060630083084,-0.7912549376487732,2.9548823833465576,-0.10534831136465073,0.672444760799408,1.3405358791351318,-1.0495128631591797,-1.0851408243179321,1.1084178686141968,-0.6848585605621338,-0.29276731610298157,-0.9136051535606384,2.2663393020629883,0.24909135699272156
b'\xe5\xad\xa6\xe6\xa0\xa1',-0.3358214497566223,1.1959266662597656,0.9753080606460571,0.5829677581787109,0.8015592694282532,0.2842235863208771,0.10618816316127777,-1.8846696615219116,0.41565388441085815,0.6088644862174988,0.16529475152492523,1.4591591358184814,0.1337626576423645,-1.409975290298462,-0.7244974374771118,-1.295475959777832,-1.160757064819336,-1.9990487098693848,1.7679295539855957,1.6215651035308838,1.3637433052062988,1.3018885850906372,-0.5666671991348267,0.09245043992996216,-1.6552684307098389,-1.4366923570632935,-0.08781208097934723,-0.32218262553215027,0.42948925495147705,1.0517112016677856,1.0563238859176636,1.3715500831604004,1.7606643438339233,-1.2471811771392822,1.1836936473846436,-1.3751113414764404,0.5533587336540222,-0.2612999677658081,-0.26987338066101074,0.38834086060523987,0.2070695012807846,-0.557746946811676,0.9753231406211853,0.6218940019607544,-0.32808518409729004,-2.4026713371276855,-0.7720263600349426,-2.620145082473755,-1.1360793113708496,-0.843900740146637,3.110417366027832,-0.3830915689468384,0.923871636390686,-1.5965790748596191,0.7799604535102844,0.5632753372192383,0.13201312720775604,0.6832350492477417,-0.29839858412742615,-0.06607542186975479,-0.1573714315891266,1.2937127351760864,0.040678057819604874,0.7128937840461731,-0.8629977703094482,-0.1989406794309616,0.1547982394695282,0.5478341579437256,0.7263500690460205,-0.8268827199935913,0.5334038734436035,0.1853046864271164,0.7290864586830139,-0.10869448632001877,-1.1118935346603394,1.5039914846420288,2.9161155223846436,0.5481123924255371,-0.620829701423645,0.0036571912933140993,-0.08957374840974808,2.1435842514038086,1.4724445343017578,-0.9656974077224731,0.15730343759059906,0.7046639323234558,-0.864583432674408,-0.4073839485645294,0.6998896598815918,-0.13279101252555847,0.3639387786388397,-1.121092438697815,0.2303593009710312,-0.6014736890792847,-0.8314769268035889,-1.4115263223648071,0.5574639439582825,-0.5358449220657349,-1.6760185956954956,1.385765552520752,-1.1697273254394531,0.6401923894882202,2.2496492862701416,0.7311466336250305,-0.044700294733047485,0.5121495127677917,0.4204212725162506,0.33230841159820557,1.349531650543213,-0.11014910787343979,-0.8677683472633362,0.2004414051771164,1.2892911434173584,-0.915690541267395,1.0196647644042969,1.0167310237884521,0.43728873133659363,-0.3671988546848297,1.2716561555862427,-0.2531985938549042,0.0041829985566437244,1.839515209197998,0.032331474125385284,0.11390398442745209,0.46673688292503357,-1.8043948411941528,1.478737235069275,0.06808210909366608,-2.3893017768859863,-1.2690315246582031,0.5219603180885315,0.4207715392112732,1.2769161462783813,-1.0484219789505005,2.0478105545043945,-2.1349611282348633,-1.2750605344772339,0.19252392649650574,-1.791753888130188,1.6006277799606323,0.9545508027076721,-0.6199272274971008,0.5843906998634338,-1.7075022459030151,1.3009670972824097,-2.4452710151672363,-0.2356320023536682,-0.28308913111686707,1.7035332918167114,0.8261590003967285,0.639765202999115,-1.908809781074524,2.3569815158843994,-0.6996211409568787,-1.3054561614990234,1.6589136123657227,1.461719036102295,0.8989985585212708,-3.244999885559082,0.3724241554737091,1.5002155303955078,0.9776228666305542,-1.928144097328186,0.9833478331565857,-0.05580103397369385,0.3484490215778351,1.1825348138809204,-0.3823975622653961,-1.4404209852218628,1.4121527671813965,-1.2298436164855957,0.12886902689933777,0.02073201723396778,0.48028701543807983,0.5614266991615295,0.17670069634914398,-0.8575951457023621,-0.02512252889573574,0.09409462660551071,2.057959794998169,0.07896171510219574,-0.40009433031082153,2.0641024112701416,0.22377459704875946,-0.4064914882183075,-0.2853630483150482,-0.874382734298706,1.7439504861831665,0.3864116072654724,-0.7941991090774536,-1.0398317575454712,0.7846545577049255,-1.4702579975128174,1.345374584197998,0.13573487102985382,-0.071841761469841,-0.8121686577796936,-0.3050229549407959,-1.7119497060775757,-1.1625888347625732,-0.8549073934555054,1.0365586280822754,-0.26346850395202637,-0.9806945323944092,0.766767144203186,1.371370553970337,0.755382776260376,-1.4195340871810913,0.21928353607654572,2.2414181232452393,0.23452554643154144,0.17287622392177582,-0.2568064332008362,-1.2827433347702026,-1.101138710975647,0.08000055700540543,0.05509437248110771,1.327905297279358,2.347456216812134,1.8121461868286133,-1.239945411682129,0.13973037898540497,-1.6869361400604248,0.3837737441062927,0.7594619393348694,-0.6726307272911072,-0.8584689497947693,0.1371677666902542,1.9647670984268188,-0.12241075187921524,3.096649169921875,-1.1943901777267456,1.3925915956497192,-0.8595298528671265,1.385719656944275,-0.890472412109375,-2.720985174179077,0.3801550567150116,1.2362556457519531,0.9743780493736267,0.003378503955900669,-1.0392369031906128,-0.6292054057121277,0.0576891154050827,1.5006625652313232,-1.3766533136367798,-0.4789307415485382,0.6282666921615601,-0.20027947425842285,0.20073910057544708,1.8482742309570312,1.6409589052200317,-0.7609567642211914,-0.48176586627960205,-0.8272261619567871,1.4521697759628296,-0.31587645411491394,0.0727115124464035,0.18253761529922485,-0.40128645300865173,-0.4182577431201935,-0.37305599451065063,2.3177602291107178,0.3549033999443054,-0.8239604234695435,-2.071611166000366,-1.1279152631759644,0.4475102424621582,2.558626413345337,1.2901761531829834,1.681096076965332,1.4942995309829712,-0.2038639485836029,-0.6437342166900635,0.5563427209854126,0.20021195709705353,-0.021689215674996376,-0.18555057048797607,0.8621096014976501,0.30704888701438904,-0.5493494272232056,-1.156571626663208,0.1962428092956543,1.0220749378204346,0.25584250688552856,-2.641849994659424,-1.1678447723388672,1.5145171880722046,1.6979557275772095,1.0392677783966064,-1.613836407661438,0.0037149498239159584,0.5912805795669556,-0.14202356338500977,-2.3674376010894775,-3.3149020671844482,0.03986119106411934,1.5003875494003296,-1.565658450126648,-1.8244822025299072,0.3758288025856018,0.9104369878768921,0.9772779941558838,1.0663268566131592,0.11311045289039612,-0.5216234922409058,1.672506332397461,1.539535403251648,0.7157526016235352,0.3498794138431549,-0.0738041028380394,0.9337233901023865,0.3237113356590271,-0.6512371897697449,-0.47291961312294006,-0.5277097821235657,0.766898512840271,-0.9493860006332397,0.33169424533843994,0.8643673658370972,-2.0485143661499023,-1.3503655195236206,1.185115098953247,2.0341413021087646,1.5158625841140747,-0.22263024747371674,0.5286380648612976,-0.0704217404127121,-0.06770102679729462,0.31895336508750916,-0.4085414409637451,0.11601921170949936,-2.1243956089019775,-1.0198700428009033,-0.675547182559967,1.24393630027771,-0.5579433441162109,-0.35404476523399353,2.78387188911438,2.115203857421875,0.21092212200164795,-1.0231523513793945,0.3804171681404114,1.1920868158340454,0.3268987536430359,2.853367328643799,-0.3894815742969513,0.6513440608978271,1.0678192377090454,1.835580825805664,-1.984054446220398,-1.5604948997497559,-0.4311272203922272,-0.9178250432014465,-0.5601988434791565,0.8228147029876709,1.8973716497421265,-1.8611222505569458,-0.6935340762138367,-1.5502365827560425,-0.5509034395217896,1.8113821744918823,-1.969050645828247,-0.25117751955986023,1.4120765924453735,-0.664995551109314,0.6987672448158264,2.807750701904297,-1.8245471715927124,0.9222670197486877,-3.3610761165618896,0.28623032569885254,-4.117034435272217,0.7032315731048584,0.1515781134366989,0.5609068274497986,0.5151327252388,0.8897149562835693,1.1244770288467407,1.141517162322998,-0.2711907625198364,-2.169257402420044,0.18168112635612488,-0.5950672030448914,-0.16578279435634613,-0.5174793004989624,-1.6439886093139648,2.2580623626708984,0.9564482569694519,0.23843692243099213,1.628712773323059,1.9121707677841187,0.023124467581510544,0.4619302749633789,1.226839303970337,0.8101989030838013,-1.026355266571045,-1.2376121282577515,-0.13318175077438354,1.7834011316299438
b'\xe6\x95\x99\xe5\xad\xa6',-0.17434917390346527,1.0354716777801514,-0.49712976813316345,1.4207326173782349,0.10731041431427002,0.42779913544654846,-0.054996784776449203,-1.5389536619186401,0.12854807078838348,0.7905929088592529,-1.0431147813796997,-1.431281328201294,-1.871004581451416,0.12498453259468079,-0.21330490708351135,-1.4388427734375,0.27171245217323303,-1.3747261762619019,-0.22486965358257294,0.4302763342857361,0.9748715162277222,1.484731674194336,0.26228106021881104,-0.7832843065261841,-0.11133267730474472,1.122686505317688,-1.3775150775909424,-0.975841760635376,-0.6569706201553345,-1.2868841886520386,1.897014856338501,0.47805458307266235,0.6049991250038147,-2.353593111038208,-0.055283136665821075,-1.5526748895645142,-1.0938669443130493,-0.5556550025939941,-0.9475410580635071,-0.5865502953529358,1.1964852809906006,1.919382095336914,-0.6541697978973389,-0.10903718322515488,-1.3454228639602661,-0.708437979221344,0.2470604032278061,-1.4711825847625732,0.6773355603218079,-1.8324987888336182,2.1874544620513916,0.40275052189826965,0.4378519356250763,1.1222208738327026,-1.2255640029907227,0.7013248801231384,0.12208045274019241,0.3020004332065582,-0.9524908065795898,-0.8709908127784729,0.8831768035888672,1.0801012516021729,-0.3523986041545868,-0.2857760787010193,0.09655603021383286,-1.6999620199203491,0.6944760084152222,-1.4059536457061768,0.8518824577331543,-0.0461285337805748,0.08219357579946518,-1.4019818305969238,0.313019722700119,1.322197437286377,-2.2899222373962402,0.7885727882385254,0.4163261651992798,-0.008155419491231441,-0.4678351581096649,-1.2482059001922607,-0.4703761637210846,-0.38241079449653625,0.2964649200439453,-2.2621822357177734,-0.0684984028339386,-1.391373872756958,-0.7330021262168884,0.11628754436969757,-1.0399681329727173,1.0871652364730835,-1.0125635862350464,-0.9190378785133362,0.5643467903137207,-0.38670095801353455,1.6158485412597656,1.1360867023468018,1.6923494338989258,-1.1562063694000244,-1.5155797004699707,1.0376040935516357,-1.3247824907302856,-1.492266297340393,2.0907816886901855,0.22485627233982086,0.24215400218963623,-0.7187344431877136,0.21669790148735046,1.4101473093032837,0.22585490345954895,0.4337976276874542,-2.067405939102173,0.40905866026878357,-0.1580936759710312,-0.8347928524017334,-0.06478848308324814,-1.390586495399475,1.0797715187072754,-0.4552575945854187,0.36477330327033997,0.836615800857544,2.468371868133545,-0.029295777902007103,-1.032124638557434,0.6270593404769897,0.09053778648376465,-0.49594441056251526,-0.4387355148792267,-0.07431317120790482,-0.29136887192726135,-0.010879785753786564,1.0688492059707642,2.0119194984436035,-0.8920192122459412,0.6309078335762024,0.8202770948410034,-0.6360174417495728,0.8689152598381042,0.26000115275382996,-2.7377500534057617,-0.1249898299574852,0.8504311442375183,-0.7433711886405945,1.160156011581421,0.9177613854408264,1.8482426404953003,0.08773316442966461,1.5527554750442505,-0.8440476059913635,0.8057963848114014,-0.8331754207611084,0.3115687072277069,-1.24080228805542,1.6246534585952759,-0.23818114399909973,-0.26291748881340027,0.6100790500640869,1.9369239807128906,1.9855620861053467,-0.2679743766784668,0.01186198741197586,-0.43043920397758484,1.2746347188949585,-0.01244275737553835,-0.11649192869663239,-0.21746599674224854,-2.5836782455444336,0.39488622546195984,-1.9230130910873413,-0.09358629584312439,0.6567261815071106,-1.1028282642364502,0.856330931186676,-1.9991098642349243,0.3512386679649353,0.03659980744123459,1.4171767234802246,1.731385350227356,-1.0754538774490356,0.9889071583747864,-0.19058290123939514,-0.1933821141719818,0.9118757843971252,2.1765265464782715,0.2090602070093155,-0.45677709579467773,-1.305092453956604,1.6693044900894165,0.6343346834182739,0.21606558561325073,1.2708933353424072,-0.6914084553718567,1.1186623573303223,0.4800097942352295,-0.052297674119472504,-0.4139547049999237,-1.2619677782058716,-0.5464308261871338,2.3431150913238525,-1.4815409183502197,-0.8920781016349792,-1.159860610961914,1.0469197034835815,0.1596744805574417,-1.6562137603759766,-0.01991099677979946,-0.00924228597432375,0.44292646646499634,-2.3278536796569824,1.5846548080444336,0.9436123371124268,0.2829074561595917,0.005585813894867897,-1.2923381328582764,0.5497825145721436,0.17234641313552856,0.025340747088193893,0.6754470467567444,-0.23041577637195587,1.642215609550476,1.8659875392913818,0.33628538250923157,0.010740217752754688,-1.8340260982513428,1.3916453123092651,0.011040288023650646,0.28168654441833496,-1.221639633178711,-1.48640775680542,0.29493409395217896,-0.5646674036979675,3.1290388107299805,-3.616237163543701,0.4563732445240021,0.6626957058906555,2.1064720153808594,0.44887062907218933,-2.387329578399658,0.26105988025665283,-1.3702764511108398,1.1981769800186157,-0.0074816239066421986,1.919755220413208,-0.40449732542037964,0.12134382128715515,-0.9362058043479919,1.738592505455017,-0.9992650747299194,0.9239175319671631,-0.771540641784668,-0.39476150274276733,-0.790424108505249,0.945286750793457,-0.6560806632041931,0.57994145154953,-1.607954740524292,0.45383307337760925,1.9830801486968994,0.1437278389930725,1.5627726316452026,-0.1750594973564148,-1.807607889175415,-0.5527092218399048,0.4956992268562317,-0.37684908509254456,-0.4890293478965759,-0.052149392664432526,-0.4554274380207062,0.18263109028339386,0.05433725193142891,1.4421944618225098,0.7431901693344116,0.23958909511566162,0.1462082713842392,-0.8597351312637329,0.4922001361846924,2.3374240398406982,1.1719063520431519,0.7266031503677368,-0.12987759709358215,2.1372039318084717,-0.2403305023908615,-0.8239670395851135,2.0864615440368652,1.1903355121612549,0.03218400850892067,0.5396469831466675,0.046977244317531586,1.1404579877853394,1.0077828168869019,0.8655616641044617,-2.8697171211242676,-1.193061113357544,0.3330042064189911,0.7853186726570129,-0.9290618300437927,1.6001038551330566,-1.0081013441085815,2.7109012603759766,-1.8669596910476685,0.31177574396133423,0.48828181624412537,0.04313294589519501,0.7787059545516968,-0.28533998131752014,1.0221449136734009,0.058242492377758026,0.5128498673439026,-0.14017507433891296,0.714129626750946,0.40559011697769165,-0.3867950439453125,0.39920929074287415,0.5100506544113159,-0.3287118077278137,-0.2991237938404083,0.06006293743848801,-0.3458814322948456,0.0009936109418049455,0.3250766098499298,0.1752949357032776,-0.4870288074016571,-0.16882586479187012,-0.10975392907857895,-0.44703444838523865,2.109755516052246,-0.21698467433452606,0.3027673065662384,-1.712586522102356,1.082022786140442,-0.3543320894241333,1.497534990310669,1.5103466510772705,0.3144262433052063,-1.5624644756317139,-0.9299864768981934,0.9351666569709778,-0.4734530746936798,-0.5460500121116638,2.4471025466918945,-0.08379204571247101,0.29337918758392334,-0.8577300906181335,-1.5751339197158813,0.08878771215677261,-0.41982418298721313,0.4178842306137085,-1.7773029804229736,0.5089110732078552,0.4253575801849365,1.1359952688217163,-0.2791859209537506,-0.06176402047276497,-0.6361484527587891,0.4478154182434082,-0.6774512529373169,-0.30273929238319397,0.287238210439682,0.044231005012989044,0.7487086057662964,-1.197015404701233,0.47022420167922974,0.8544971346855164,-0.10840276628732681,0.46892303228378296,0.8871644139289856,-1.5167471170425415,0.12625151872634888,0.3878539204597473,0.3534330725669861,-1.9849205017089844,-0.798344075679779,0.850429356098175,-0.8505221605300903,-1.2781349420547485,-0.7333987951278687,-1.0891225337982178,1.027883768081665,0.6675003170967102,1.5777454376220703,1.9253872632980347,2.581282138824463,0.20929138362407684,0.8556441068649292,0.30089205503463745,-0.27519747614860535,-0.5527130365371704,0.4754525423049927,0.652134895324707,0.6419080495834351,0.05961758643388748,0.5922926664352417,0.012742565013468266,0.9767014980316162,-0.9172622561454773,1.9711918830871582,1.8387911319732666,-0.6261782050132751,-0.9946112036705017,1.190885305404663,2.276704788208008
b'\xe6\x94\xb9\xe8\xbf\x9b',0.6123870611190796,0.45743146538734436,0.2303987592458725,0.5580661296844482,0.5690677165985107,-0.9723080992698669,-0.7949629426002502,-1.0484079122543335,1.5414515733718872,-0.8407872915267944,-0.8300275206565857,0.4099098742008209,1.5752415657043457,-1.0362975597381592,0.5440256595611572,0.49923446774482727,0.5937394499778748,-0.8928288221359253,-0.2720586955547333,-0.25421494245529175,1.1143381595611572,-1.1871260404586792,0.9298145771026611,0.08491192758083344,0.2586657404899597,0.3473348319530487,-0.13491198420524597,-2.3791534900665283,-0.004846402909606695,-0.24691841006278992,1.6440861225128174,0.7364389300346375,0.22643563151359558,-0.2252184897661209,0.4650702178478241,0.058135878294706345,-0.07633110880851746,-0.9048907160758972,0.9239453673362732,0.6263285279273987,0.5031799674034119,0.1486082375049591,0.608670175075531,-0.12072664499282837,-0.4266091585159302,-1.4286142587661743,0.7392174005508423,-0.5194700360298157,-0.1447737067937851,-0.24608345329761505,1.4402731657028198,-0.11561597883701324,-1.1892385482788086,2.1068243980407715,-0.7352335453033447,2.0876758098602295,2.031477451324463,-1.7882158756256104,0.4643942713737488,-0.997525691986084,0.299716979265213,0.840131938457489,-1.5989618301391602,-0.5111262798309326,-1.5290193557739258,0.04196899011731148,0.8106575608253479,0.5739110708236694,0.19364862143993378,1.7916321754455566,0.5258206129074097,-0.682114839553833,0.29900801181793213,-0.39025864005088806,-1.5604312419891357,0.27902770042419434,0.9882503747940063,0.17413026094436646,-0.5212908983230591,-0.6046667695045471,-0.02376662753522396,1.791619896888733,-0.34839731454849243,-3.4691200256347656,-0.3503943085670471,-1.3267285823822021,-0.6398467421531677,0.8805460929870605,-0.17826424539089203,1.098008394241333,-1.0753037929534912,1.230031132698059,1.5809531211853027,0.9290621876716614,0.46611252427101135,1.375815987586975,-0.02910872921347618,-0.6003485321998596,0.8210307359695435,1.0856313705444336,-0.3297837972640991,-1.5745283365249634,-0.9783264398574829,-0.6598507165908813,-1.2084646224975586,-1.6286870241165161,-0.2100134789943695,1.6522411108016968,-0.8419008255004883,0.06875309348106384,-0.9276147484779358,-0.45059746503829956,0.9945045709609985,-1.3871198892593384,-0.39093223214149475,-1.1080986261367798,0.07103953510522842,2.1538665294647217,-1.6950291395187378,1.4422380924224854,2.266066789627075,0.29931777715682983,0.686016321182251,1.256713628768921,0.4496467113494873,0.5612629652023315,-1.2544915676116943,-2.3775980472564697,-1.6880884170532227,1.4870963096618652,0.9829637408256531,2.634995937347412,0.5758216977119446,-0.570006787776947,-0.3789912760257721,0.47108757495880127,0.5435789227485657,-0.5874583125114441,-0.8649649620056152,-0.3408448398113251,-0.15267954766750336,-1.0600824356079102,1.4044448137283325,0.5331612825393677,0.38877514004707336,1.8959871530532837,0.7320266962051392,-0.8004096150398254,0.4057508409023285,-1.1910076141357422,-0.07111834734678268,1.6836835145950317,1.0179778337478638,0.927270770072937,0.7345260381698608,0.9225155115127563,0.9709653854370117,0.9674553871154785,0.6593611836433411,1.3789464235305786,-3.04856014251709,1.2013651132583618,-0.0933433547616005,1.1299421787261963,-0.08494135737419128,-1.2591545581817627,0.1618795543909073,0.3879905045032501,0.005755844060331583,-1.062416434288025,-0.7927681803703308,0.11584839969873428,1.3784300088882446,-0.34255990386009216,0.30603301525115967,0.6663823127746582,0.38409242033958435,-0.39846572279930115,1.391252875328064,0.3876219689846039,-0.560804009437561,-0.4213155508041382,0.47763168811798096,1.4329273700714111,-1.6789823770523071,-0.25246432423591614,1.5839511156082153,1.384547472000122,-0.5864303112030029,-1.3481019735336304,-0.63104248046875,-0.041416142135858536,0.6766054630279541,-0.19938910007476807,-0.8933926820755005,-0.322533518075943,-0.6944183111190796,0.12346549332141876,-0.9337007403373718,-0.6187499761581421,-0.06647278368473053,0.1750468760728836,-0.07427311688661575,-0.8863004446029663,0.00323431845754385,0.6687362194061279,2.099029064178467,0.4755241274833679,1.5504077672958374,-1.4843883514404297,-0.13215385377407074,1.9206010103225708,-0.650956928730011,1.1106783151626587,-0.8608542084693909,0.09709285199642181,-0.1896369904279709,-0.5661552548408508,-0.4470812976360321,-0.5599419474601746,-1.6181731224060059,-0.1077386736869812,0.7082046270370483,1.5522308349609375,-0.595824658870697,-0.24056851863861084,-2.5276527404785156,-0.6829180121421814,2.0039851665496826,0.07774471491575241,0.9428878426551819,1.4981372356414795,0.45910972356796265,1.1796756982803345,2.06545090675354,-0.8977310061454773,0.637380063533783,0.5187456607818604,0.7807628512382507,-1.4798346757888794,-0.6162272691726685,-0.47677916288375854,0.40632328391075134,-1.3634880781173706,0.9066702723503113,-0.7694566249847412,-1.1092956066131592,1.4968419075012207,1.5451630353927612,0.3391103446483612,0.5995749831199646,0.31351086497306824,0.5767638683319092,-0.7903590798377991,-0.5519908666610718,-0.259135901927948,-0.2065550982952118,0.3087310791015625,0.6276072263717651,0.5875532031059265,-3.4778695106506348,0.5367498993873596,-0.4420425295829773,-2.1536965370178223,-0.37559008598327637,-0.4351075291633606,0.0672791376709938,-0.48091408610343933,2.189563512802124,0.26706135272979736,-0.7585049867630005,0.03265387564897537,1.0391591787338257,-0.4773191511631012,1.573612928390503,-0.6867012977600098,0.15319310128688812,-2.192763566970825,-1.037099838256836,1.7470329999923706,1.7496509552001953,-1.2074373960494995,1.525698184967041,-1.4044885635375977,0.8401966094970703,-0.12195546180009842,-1.2266569137573242,0.2589570879936218,2.0227837562561035,-1.3501578569412231,-1.1797493696212769,-0.8555817604064941,-0.2256852388381958,-1.33811354637146,-1.3799288272857666,1.2899476289749146,-2.553776979446411,3.3877930641174316,-0.05319913104176521,0.32325679063796997,-0.7134931683540344,-2.1978843212127686,1.589309811592102,-0.4451574683189392,0.2483280450105667,-1.1044367551803589,-0.5910412669181824,0.05720878764986992,1.5444023609161377,-1.3695324659347534,0.3327803909778595,-0.29717519879341125,0.7439193725585938,-0.13174018263816833,-0.9109950065612793,-1.0353679656982422,-0.410053014755249,-0.6816611289978027,0.7767491936683655,-0.6659848690032959,-0.805160641670227,0.1741618812084198,-1.763988733291626,-0.8556647896766663,-1.4088513851165771,-0.5966680645942688,-0.544483482837677,1.6490776538848877,0.04950821027159691,0.5459470748901367,1.8500062227249146,-0.1443358063697815,0.7748697996139526,-1.472756028175354,1.4558689594268799,-0.7370351552963257,-1.1065452098846436,0.5644648671150208,0.9847641587257385,-1.2392725944519043,-2.223902940750122,0.3689289391040802,0.19047248363494873,0.8671689629554749,0.21111218631267548,0.26269060373306274,0.17640358209609985,-2.109966278076172,-0.6494285464286804,-0.5164826512336731,-1.1700890064239502,-0.3757125735282898,0.6705030798912048,0.8846180438995361,1.383357048034668,-1.1878310441970825,-0.3943752646446228,-0.20395098626613617,-0.77256178855896,0.12333608418703079,-1.765218734741211,1.0328580141067505,-0.746087908744812,1.2794697284698486,-1.2154022455215454,0.026242710649967194,-1.418495774269104,-0.28593796491622925,1.354003667831421,-0.7049207091331482,1.4964795112609863,-1.909826636314392,-0.1391552835702896,-0.03648114576935768,0.2898743152618408,-0.13355359435081482,-2.4105536937713623,-0.20024295151233673,0.8339828252792358,-0.05005268007516861,1.4335731267929077,1.3678779602050781,0.28681427240371704,-0.9535700678825378,-0.335960328578949,0.07802357524633408,-1.3721871376037598,0.24758781492710114,3.419753074645996,0.6769840121269226,1.837910771369934,-0.9408146739006042,0.9940129518508911,-0.5344260334968567,0.6128191947937012,2.6891748905181885,-0.9082332253456116,-0.5172700881958008,1.1535139083862305,-0.7723373174667358
b'\xe5\xad\xa6\xe9\x99\xa2',-0.7763969898223877,0.2281615287065506,0.4166356921195984,-0.02083989605307579,0.46145138144493103,1.0277749300003052,0.8823007345199585,-2.110487222671509,-0.20871558785438538,-0.7480743527412415,0.07410231977701187,2.3621935844421387,-0.7670382857322693,-0.35481593012809753,-0.41215214133262634,-1.9611130952835083,-0.27278754115104675,-0.45318809151649475,-0.3643026649951935,-0.9396881461143494,3.032517671585083,-2.6416380405426025,-2.0785398483276367,-0.03949979320168495,-0.25937479734420776,-1.0135737657546997,-1.0043044090270996,-0.15966273844242096,2.211942195892334,2.7122385501861572,0.4652511179447174,0.9248232245445251,0.9502288699150085,-0.6579722166061401,0.6168342232704163,-1.74271821975708,-0.143697127699852,0.22684581577777863,-2.0298588275909424,-1.5791791677474976,-1.2600739002227783,0.2860105633735657,0.44787707924842834,-0.962649941444397,-3.1825308799743652,-1.6100767850875854,0.49597686529159546,-2.6868133544921875,-1.6121267080307007,0.31461307406425476,3.2158043384552,-0.08741534501314163,0.8865890502929688,-0.6262621283531189,-1.2828850746154785,-0.4699953496456146,1.4117400646209717,-0.6780793070793152,-0.4391452968120575,1.2800965309143066,0.492565780878067,0.6238593459129333,0.8846359848976135,1.919007420539856,-0.6335052251815796,-0.669041097164154,0.6777146458625793,1.300055980682373,-0.6800869107246399,1.0530853271484375,0.5418263673782349,0.14944852888584137,0.08377886563539505,-1.3310003280639648,0.28859132528305054,2.6394011974334717,4.762890815734863,-0.5912013649940491,1.8043389320373535,-0.6616159081459045,-1.6305525302886963,-0.04271033778786659,0.406731516122818,-0.9037915468215942,-1.3930555582046509,-0.6590797901153564,-0.7983466982841492,-0.8186380863189697,-0.7888644933700562,-1.2372822761535645,-0.4085093140602112,0.8411048054695129,-0.2688710689544678,-1.9200154542922974,-0.9506406784057617,-2.897845506668091,1.3794387578964233,-1.0918781757354736,-3.023517608642578,2.0814998149871826,-0.10211722552776337,0.5510013699531555,0.8406360745429993,0.7447474598884583,1.2494940757751465,1.0694259405136108,-0.4583999514579773,0.2337460070848465,0.18424908816814423,-1.2866411209106445,-2.3303585052490234,1.950104832649231,1.2049832344055176,-1.227868676185608,-0.14770632982254028,0.9161251783370972,1.4953601360321045,-0.3038604259490967,1.1116474866867065,-0.1711169183254242,1.1440775394439697,0.6926444172859192,0.8295134902000427,0.4740007519721985,-1.8520903587341309,-0.20303040742874146,0.9018527269363403,-1.5632383823394775,-0.14227905869483948,0.17628680169582367,1.4972156286239624,0.5332907438278198,2.296617031097412,-0.20061883330345154,0.8703747987747192,-1.9350427389144897,-0.13797856867313385,1.9540785551071167,-1.0630457401275635,0.2903178930282593,1.39224112033844,0.5815424919128418,-0.2704189121723175,0.4256058931350708,0.0659790188074112,-0.5935341119766235,0.7722381353378296,0.47248026728630066,-0.27635103464126587,0.1769137680530548,0.5918174982070923,-1.2710928916931152,0.47551846504211426,-0.5667673349380493,-0.2276466339826584,0.851260244846344,1.4849119186401367,-0.9357620477676392,-1.8467214107513428,-1.5021740198135376,0.31187838315963745,-0.7972537279129028,-2.1704392433166504,1.742197036743164,0.4620194733142853,1.303579330444336,0.5727590918540955,-2.0308640003204346,-1.3982079029083252,1.5797901153564453,-0.24503500759601593,0.5277357697486877,-0.21183574199676514,-0.6763744354248047,-1.8598380088806152,1.1617785692214966,0.8480471968650818,-0.50806725025177,0.3776107728481293,0.6520333886146545,0.17518304288387299,0.8157861232757568,-0.3763941526412964,-0.625005841255188,-1.1785770654678345,-1.202639102935791,-1.659817099571228,1.3328603506088257,0.3861207365989685,0.6207048892974854,-1.626738429069519,-0.008295925334095955,-0.4744921326637268,1.2064998149871826,1.1656609773635864,0.10552085191011429,-0.49473944306373596,0.05323993042111397,-1.4282320737838745,0.05698027089238167,0.07559669762849808,0.5594505667686462,0.24607007205486298,0.9531855583190918,0.39886772632598877,2.170912981033325,-2.370605230331421,-2.7379047870635986,1.4009122848510742,0.7688542604446411,0.8975299596786499,1.1044851541519165,-0.9339735507965088,-1.75649094581604,-0.5899460315704346,-0.21719470620155334,-0.9386798739433289,1.5111358165740967,1.5294619798660278,1.077372670173645,-0.009806819260120392,0.48192235827445984,-2.215435743331909,0.590968132019043,1.1817781925201416,-0.5391613245010376,0.6079305410385132,0.3814086318016052,0.8042908906936646,-0.3415237367153168,3.180211305618286,-2.076760768890381,0.7572058439254761,0.7184228301048279,2.1328957080841064,1.2216581106185913,-1.1134254932403564,-0.7181153893470764,-1.4269617795944214,-1.0621486902236938,-0.07802765816450119,0.031318873167037964,-0.5406063795089722,-1.6996756792068481,2.2447004318237305,-0.3839430809020996,-1.0100127458572388,1.712012529373169,1.8645298480987549,-1.441701054573059,-0.16544757783412933,0.7914915084838867,0.4078701138496399,-1.1437000036239624,0.7841199636459351,2.1545989513397217,-0.35927730798721313,1.0141593217849731,0.3601735830307007,1.69758939743042,-2.060950517654419,0.9511182904243469,2.165245294570923,-0.8937722444534302,-1.4141128063201904,-0.5934104323387146,-2.4366044998168945,-0.7118908166885376,1.5186145305633545,-0.8155303597450256,-0.750125527381897,0.31157127022743225,3.3147082328796387,1.7675883769989014,-0.3385860025882721,-0.32663482427597046,1.2396833896636963,-1.811329960823059,-0.08573364466428757,-0.18856027722358704,0.9302389025688171,-0.509190559387207,-0.9474883675575256,0.3309409022331238,-0.22188076376914978,-3.4233617782592773,0.2986292541027069,2.3954482078552246,1.9025603532791138,0.32464542984962463,-0.09462404251098633,1.0450798273086548,0.37798693776130676,-0.31064626574516296,-0.11463886499404907,-0.8617262840270996,-0.6596788167953491,1.319392204284668,-0.7680644989013672,-0.4060506820678711,0.04657840356230736,-1.237996220588684,-0.22189147770404816,1.1764131784439087,0.728712797164917,2.0080137252807617,0.8293654918670654,0.6870403289794922,-0.4050760865211487,-0.3311731815338135,-0.37093958258628845,-0.03491198271512985,2.493340492248535,0.8672715425491333,0.23965145647525787,0.11337542533874512,0.4628542959690094,1.9408915042877197,0.04860612377524376,-1.705538034439087,-2.9286837577819824,-0.8010464310646057,0.9803217053413391,1.6050931215286255,1.4581552743911743,0.45906421542167664,-0.6701253652572632,0.03914792835712433,-1.316125750541687,0.07323382049798965,-1.4229261875152588,0.5026684403419495,-1.3044918775558472,1.4435917139053345,-0.4488128125667572,0.5366476774215698,-3.9755163192749023,-0.5547746419906616,2.943558931350708,1.505551815032959,1.5840051174163818,-0.6820347905158997,-1.9199650287628174,1.5455619096755981,-0.19580721855163574,0.48167315125465393,2.999260425567627,0.39225003123283386,1.105501651763916,0.41713380813598633,-0.18591158092021942,-1.4488415718078613,0.41503480076789856,0.27412477135658264,1.4863296747207642,1.2351309061050415,-0.3577312231063843,0.20653429627418518,-0.08746499568223953,-1.1381123065948486,0.31944993138313293,0.9820746779441833,-2.9746198654174805,0.050894591957330704,-0.9770466089248657,-0.4368084669113159,0.30064913630485535,2.771517515182495,-2.7392232418060303,1.4733216762542725,-2.304293155670166,0.15104800462722778,-3.4970295429229736,0.6459778547286987,-0.31978273391723633,0.6253390908241272,-1.6836447715759277,0.7749572396278381,0.42434823513031006,0.7634227275848389,3.4183943271636963,1.7669587135314941,0.2952002286911011,-0.346047967672348,-1.6882554292678833,0.0121165681630373,-1.9932544231414795,2.9385218620300293,1.278727412223816,0.28279319405555725,1.8515677452087402,0.05159701034426689,-1.5379807949066162,2.2565758228302,2.014821767807007,-0.8482134342193604,-0.40991532802581787,0.4319324493408203,-0.038770291954278946,1.8271008729934692
b'\xe6\x95\xb0\xe6\x8d\xae',0.9955880045890808,-0.35083091259002686,0.12386718392372131,-2.5894577503204346,1.5071420669555664,-0.24261033535003662,0.0847315713763237,-0.7305445075035095,0.5487648248672485,0.09760412573814392,0.45870840549468994,-0.3497425615787506,0.40919971466064453,-1.9105064868927002,-1.7281959056854248,-0.49512815475463867,-1.2228432893753052,-2.1492042541503906,-0.4733274579048157,-1.5898188352584839,0.3879348039627075,-1.4960139989852905,-1.0583285093307495,0.15538454055786133,0.9255581498146057,0.2408885806798935,0.3803230822086334,-1.25459623336792,1.8014156818389893,-1.1297938823699951,2.0364770889282227,2.034902811050415,0.630479633808136,-1.0806533098220825,0.8147004246711731,-1.3267732858657837,0.4273258447647095,-1.4394307136535645,-3.1695075035095215,1.6757310628890991,0.8298292756080627,2.6087305545806885,-1.0568844079971313,-0.1620073765516281,0.48411697149276733,1.5086350440979004,-0.7082085609436035,0.13088084757328033,-0.4238229990005493,-0.296711802482605,-1.1087908744812012,-0.558292806148529,-1.1990036964416504,-1.5479581356048584,-1.089551568031311,-2.319744348526001,1.4317898750305176,-1.4707977771759033,-0.5452163219451904,2.312021255493164,-2.585845947265625,0.06277572363615036,-0.8531220555305481,0.929781436920166,-0.057739026844501495,-0.9910797476768494,-1.4383782148361206,-0.7010671496391296,1.464844822883606,0.6829840540885925,0.08057615160942078,1.0683523416519165,-1.36563241481781,0.47180426120758057,1.6247328519821167,0.14493060111999512,2.415138006210327,-1.5153632164001465,0.6432722806930542,0.884197473526001,-0.4262520968914032,0.05264357477426529,1.677478551864624,-0.7700724601745605,1.604173183441162,0.3206728994846344,0.2479974776506424,0.8050616383552551,0.2526963949203491,-2.014617681503296,-0.1051347404718399,-1.5398777723312378,-0.8967756628990173,1.6875770092010498,-1.1575578451156616,1.1348789930343628,-0.70579594373703,-0.8454597592353821,-1.2554047107696533,0.3459526300430298,-1.2523273229599,-0.07551661878824234,0.35544919967651367,0.7932024598121643,1.7749617099761963,-1.276668906211853,0.11645400524139404,2.016950845718384,0.9658521413803101,2.7205936908721924,-0.2722342908382416,-0.10830313712358475,1.6058458089828491,-1.7642325162887573,-0.6625871062278748,1.3038520812988281,-0.9929516911506653,0.9675190448760986,0.5538877248764038,2.8337769508361816,2.0332555770874023,0.17703315615653992,-1.415521264076233,-0.5724751353263855,-1.9240331649780273,0.7392531037330627,0.0330539271235466,1.3957701921463013,0.7517884373664856,2.6219005584716797,-0.600081741809845,1.9042224884033203,-0.29493147134780884,-0.8346929550170898,0.9008424878120422,1.286739468574524,0.3611924946308136,0.12007254362106323,0.06580368429422379,1.1170507669448853,-1.2299771308898926,1.8275974988937378,1.2771003246307373,3.720766305923462,-0.8231294751167297,0.3090885281562805,2.1188886165618896,-0.8627223372459412,0.42212027311325073,-2.322127103805542,0.1991710215806961,0.6505593061447144,-0.05940468981862068,-0.2364317774772644,-0.880448579788208,0.39382320642471313,-0.061314716935157776,-1.075954556465149,-1.158023476600647,2.466838836669922,0.13648144900798798,-2.105145215988159,-0.8809404373168945,-0.4543647766113281,0.4480116367340088,-0.7831593751907349,-0.9740971922874451,-0.9126420021057129,-0.957027018070221,0.5653749108314514,-0.4233754575252533,0.12335087358951569,1.1840565204620361,1.554052710533142,2.201960802078247,-0.061203643679618835,0.47039955854415894,-1.5625392198562622,0.8594491481781006,0.8837050199508667,-1.4825881719589233,-1.449662446975708,1.1226085424423218,0.48956987261772156,-1.2046884298324585,-0.6754165291786194,-1.4824451208114624,1.3646044731140137,0.2524336278438568,-0.7069545388221741,-1.9906071424484253,-1.337249755859375,0.3249352276325226,0.29795095324516296,-1.605297565460205,-0.1353156715631485,-1.0397149324417114,3.1778712272644043,-3.003448009490967,-0.11201874911785126,-0.11617894470691681,-0.42918989062309265,-1.3745174407958984,-0.8988831639289856,0.5539832711219788,-1.7333613634109497,2.020038604736328,0.26082155108451843,1.5444273948669434,0.8172913789749146,-0.6609610915184021,2.7841994762420654,0.9364647269248962,-0.10627865046262741,-1.1743888854980469,0.3990340828895569,-0.0016304344171658158,-0.5433463454246521,-1.4531787633895874,-1.6115705966949463,-0.5191118121147156,1.0361384153366089,-0.8161089420318604,0.05746476352214813,0.9733461141586304,-0.47587355971336365,1.80666983127594,-0.2258661985397339,1.5010648965835571,0.012268244288861752,1.2413766384124756,-0.5249713659286499,0.0963616594672203,1.0921437740325928,1.2909950017929077,-0.8792341351509094,-0.32306158542633057,0.9787822961807251,-0.21349860727787018,0.3727042078971863,-1.830223798751831,-1.5913993120193481,-0.8968598246574402,-0.04953937232494354,-0.22744999825954437,0.481058269739151,-2.340440034866333,-0.7809263467788696,0.3563797175884247,3.4181325435638428,0.7237446904182434,0.8068452477455139,-0.2309403270483017,-0.2761557698249817,0.810127317905426,-0.416507750749588,1.8259837627410889,1.326831579208374,1.0820666551589966,-0.7220458388328552,-1.4476240873336792,1.4017657041549683,-1.0947654247283936,-0.5296409130096436,0.3503088653087616,1.0221811532974243,1.9331961870193481,-1.2059270143508911,0.8620725274085999,-1.1716214418411255,-0.7119998931884766,0.5519013404846191,1.0778207778930664,-1.4984954595565796,0.196699857711792,1.1606792211532593,-0.1424073576927185,-1.2803987264633179,0.5916700959205627,-0.6670275926589966,0.25155484676361084,-0.024649983271956444,1.1054855585098267,-2.2638092041015625,-1.738343358039856,-0.7856165170669556,-0.13755883276462555,1.4629113674163818,1.8799233436584473,-1.343121886253357,-0.42285099625587463,1.7636343240737915,0.7204554080963135,-0.6983829736709595,1.5539560317993164,1.2273879051208496,-1.807685375213623,0.6720665097236633,-0.24503156542778015,0.013497230596840382,-0.14770059287548065,-1.9217350482940674,1.2119663953781128,-0.7495909929275513,-0.016972921788692474,-1.926847219467163,-0.9238452315330505,-0.743080735206604,1.3880034685134888,-0.18380360305309296,0.06180097535252571,0.9428074359893799,0.13314788043498993,1.0952924489974976,-0.7461234927177429,-0.7852749824523926,-0.08003866672515869,1.6554772853851318,-0.9607357382774353,1.5947508811950684,-0.12461572885513306,-0.8525152802467346,1.4124412536621094,-0.9311304688453674,0.43050479888916016,-0.46581318974494934,1.231083631515503,-1.0513399839401245,-0.4766598641872406,0.5596577525138855,-0.9113986492156982,-0.7015365958213806,-0.8174982070922852,-1.7726800441741943,1.2398779392242432,-0.2965780794620514,-0.9815139174461365,0.9294012188911438,-1.2026808261871338,-0.9522289037704468,-2.586515188217163,0.6443249583244324,1.1904559135437012,-0.21629929542541504,1.4205427169799805,0.11367839574813843,-0.7376672029495239,-0.4266626536846161,-0.6775832176208496,0.8576677441596985,-2.3932385444641113,0.6417533159255981,0.5352557897567749,-1.0643222332000732,1.350598931312561,-1.538046956062317,0.36928778886795044,1.0738821029663086,0.7479039430618286,-0.9207882285118103,1.6728121042251587,-0.7084379196166992,-0.6489485502243042,-0.9925508499145508,-1.2762787342071533,-1.19752037525177,-0.3546067178249359,1.557652235031128,0.19111865758895874,-0.42128971219062805,-0.5265255570411682,0.7298654317855835,-0.23824161291122437,0.3973386585712433,0.6829849481582642,-1.179314136505127,-2.355703353881836,-0.5688730478286743,0.868645191192627,-2.3202905654907227,0.9681299328804016,1.1806001663208008,0.11168147623538971,0.2263079285621643,-0.5962349772453308,-0.36476027965545654,0.053819555789232254,-1.5461093187332153,1.5113896131515503,-0.0029724380001425743,0.13871780037879944,-0.35794204473495483,-1.1470119953155518,-1.0798672437667847,-0.15174923837184906,1.1821391582489014,-1.507590889930725,-1.8236057758331299,1.5004477500915527,-1.672289490699768
b'\xe9\x97\xae\xe9\xa2\x98',0.9314494132995605,-0.5346182584762573,3.72292423248291,-0.1478663682937622,2.9402551651000977,-0.40041741728782654,-0.35852766036987305,-0.4471539855003357,1.2656984329223633,1.3426125049591064,-1.6345723867416382,-2.0541281700134277,1.1633883714675903,-0.532337486743927,-0.30945149064064026,-1.6642142534255981,-0.2770114541053772,-1.5720325708389282,-1.8393664360046387,0.6796426773071289,-1.121720552444458,-2.465970277786255,0.8390326499938965,1.0912294387817383,0.9933978319168091,0.22854331135749817,-0.4263550043106079,1.123534083366394,1.06905198097229,-0.686860978603363,2.7857441902160645,1.1550976037979126,0.4802151024341583,-0.33820992708206177,0.1671684831380844,1.1733342409133911,0.4606534540653229,0.05796950310468674,1.1988953351974487,1.653607726097107,0.397289901971817,0.7802980542182922,-0.9993504285812378,0.6653442978858948,-0.9241313338279724,-0.9421755075454712,0.6561819911003113,-0.6684144139289856,-0.8570582270622253,0.4587312340736389,-1.2238329648971558,1.722762942314148,-0.02817874774336815,-0.44552406668663025,0.7892037630081177,0.666608989238739,0.8933795094490051,0.18008776009082794,0.11349683254957199,-1.3270052671432495,0.36176955699920654,1.0128636360168457,-2.6213483810424805,0.7302102446556091,-0.8095833659172058,-0.7680094242095947,1.6949571371078491,1.0008529424667358,-0.7267597913742065,1.4068270921707153,0.3655233681201935,-1.5338603258132935,-0.23130394518375397,0.2865610420703888,2.322455406188965,0.13237255811691284,1.8049978017807007,-0.1657460778951645,-1.3867098093032837,-0.6994459629058838,-1.002750039100647,1.826375961303711,0.1509016901254654,-0.7090522050857544,-1.083460807800293,-0.6578842401504517,-1.0315539836883545,-0.5439612865447998,1.4157673120498657,-0.9713616967201233,-0.9161370396614075,-1.676015019416809,-0.08515757322311401,0.08118609338998795,-0.3111298382282257,2.8868274688720703,0.08864950388669968,-1.1946361064910889,0.22914327681064606,0.6957883834838867,0.17616166174411774,-1.854887843132019,-1.0009255409240723,-0.6837484836578369,-0.9231853485107422,-0.17131847143173218,-0.5768415927886963,1.9364738464355469,2.955953359603882,2.2476887702941895,0.33601608872413635,1.624434232711792,0.5398069024085999,-0.6112715601921082,-1.1788091659545898,-0.42186322808265686,-1.6031373739242554,2.0588138103485107,-0.2221723347902298,1.2310512065887451,1.162901520729065,1.292239785194397,-1.1477456092834473,-0.2179727703332901,0.656089186668396,-1.787894368171692,0.3863627016544342,-2.158600330352783,0.6086599826812744,2.582061290740967,0.6427552700042725,1.4960352182388306,0.3397776782512665,-1.4374799728393555,-1.1438902616500854,-1.888533115386963,-0.6126869916915894,-1.1055567264556885,0.30894869565963745,-0.2880623936653137,-1.6127593517303467,-1.2684677839279175,1.0795183181762695,1.3793996572494507,1.7952556610107422,-0.25573214888572693,1.4956252574920654,-0.6486446857452393,1.4434484243392944,-0.04693685844540596,1.0639450550079346,0.9431536793708801,1.0917824506759644,-1.3452361822128296,-0.20793277025222778,0.015042508020997047,0.7327496409416199,-0.2598487436771393,-0.5820804238319397,0.6956931352615356,2.6447644233703613,-1.2172462940216064,-2.0372085571289062,0.42227715253829956,-0.6285432577133179,1.756892204284668,-0.0021215358283370733,0.3396231234073639,-0.7012822031974792,0.900465726852417,0.8314000368118286,-1.549174427986145,0.41968128085136414,-1.0970591306686401,1.6845852136611938,-0.21772168576717377,-0.8665794730186462,1.246300458908081,1.2460875511169434,1.2201006412506104,-0.3931768536567688,0.7121251821517944,1.7181272506713867,0.09134881943464279,-1.5941402912139893,1.3589930534362793,0.3923860192298889,0.6174395084381104,-1.4668097496032715,-1.7862111330032349,1.546213150024414,-0.15273810923099518,-0.48395511507987976,-0.31436318159103394,-0.32804328203201294,-1.704986333847046,-2.258488655090332,0.9664382934570312,-1.126285195350647,-1.0865952968597412,-0.4873465597629547,0.12268056720495224,0.9250109791755676,0.6036269664764404,-0.30266568064689636,0.8246368765830994,1.592101812362671,-2.0934386253356934,1.353608250617981,-0.1957588940858841,-0.09546717256307602,0.8614410758018494,-0.6708593964576721,0.9597315192222595,0.16215023398399353,0.6545804738998413,1.333214521408081,-1.5127907991409302,-0.6768006086349487,1.3593188524246216,-1.6652909517288208,-1.3534785509109497,-0.32419872283935547,0.15579867362976074,-0.0035746253561228514,0.835412323474884,-0.8903124332427979,-1.0075968503952026,-0.2764951288700104,0.8519158363342285,-0.5444709658622742,0.5668624639511108,-0.5474032759666443,2.1391000747680664,0.5897936224937439,0.8241037726402283,1.0553487539291382,1.3725638389587402,1.7573312520980835,0.863733172416687,0.09132510423660278,1.6519972085952759,0.020900147035717964,0.185014545917511,2.2742738723754883,0.3373744785785675,0.365481436252594,1.74603271484375,-1.0278854370117188,-2.1499428749084473,1.8633474111557007,0.9997270107269287,0.6949663162231445,1.1509655714035034,1.1090246438980103,-1.97195565700531,-0.947719931602478,2.5871148109436035,1.6275347471237183,2.574537992477417,-2.3481099605560303,1.1633855104446411,0.7144582271575928,-0.3873048424720764,-1.376414179801941,0.6381828188896179,1.0506001710891724,-0.15082143247127533,1.7420551776885986,-1.0525950193405151,-2.478722095489502,0.389017790555954,0.898658812046051,-1.447621464729309,-2.2590341567993164,1.3657857179641724,-1.068237066268921,-1.625343918800354,0.0046732365153729916,-0.41631343960762024,1.55140221118927,-0.05038568004965782,0.356033056974411,-1.7862658500671387,1.2470325231552124,-0.9298789501190186,-1.7104113101959229,-0.4593278169631958,-0.09585481137037277,0.059661656618118286,-0.9539191722869873,0.030357150360941887,-0.3503369987010956,0.5015499591827393,0.8422897458076477,1.578069806098938,-1.1213897466659546,1.267245888710022,-0.9963518977165222,0.07505249232053757,-1.4881070852279663,-3.1343908309936523,0.350626140832901,0.7693543434143066,0.36511725187301636,0.5156509876251221,3.7450780868530273,1.9600166082382202,3.402883291244507,1.9854252338409424,-0.872353196144104,0.11269203573465347,-1.0206735134124756,1.422956943511963,-1.941820502281189,0.5465236902236938,-0.9713643789291382,0.17741774022579193,-0.3068806231021881,1.3856512308120728,-0.19829927384853363,-0.4213639199733734,0.7604243755340576,-1.4062840938568115,-0.11745898425579071,-0.02007409930229187,0.4549447000026703,-1.1920442581176758,-0.09602799266576767,0.9119790196418762,1.0359076261520386,-1.437709093093872,-3.4560468196868896,-1.865103840827942,0.28545594215393066,0.4223097562789917,-0.9822027087211609,-1.4701604843139648,0.6185988187789917,-0.9824634194374084,-1.7198364734649658,-0.5914351940155029,-1.0458694696426392,0.005836078897118568,-0.26714038848876953,0.47104790806770325,-0.24736911058425903,0.2664165794849396,-0.1260162591934204,0.5623605847358704,-0.7368672490119934,0.5834759473800659,0.022821467369794846,-0.007423569448292255,-0.2775437533855438,-1.9984983205795288,1.1805793046951294,-0.4782869219779968,0.6818773150444031,-2.4754369258880615,-0.5274983048439026,0.015763625502586365,-0.9889424443244934,-0.17139087617397308,-1.293570876121521,0.06008545309305191,0.2249830961227417,2.370279550552368,-0.061707258224487305,-0.341647207736969,0.715286135673523,-0.0005796591285616159,-1.7154734134674072,0.03701519966125488,2.811812400817871,0.6436179280281067,-0.13158337771892548,0.15919411182403564,-0.047984328120946884,-0.4684827923774719,0.890100359916687,0.810038685798645,-1.0416250228881836,-0.5747226476669312,0.7445191740989685,3.1884047985076904,-1.354854702949524,1.6985052824020386,2.41951322555542,0.04844793677330017,0.031730957329273224,0.20432747900485992,-0.10031247138977051,0.5696623921394348,-0.3077080249786377,1.086728572845459,0.025621255859732628,1.0307807922363281,1.7869209051132202,-2.4744303226470947
b'\xe6\xa3\x80\xe6\xb5\x8b',0.3480304777622223,1.0064258575439453,1.0159968137741089,-0.5734360814094543,0.16342659294605255,0.0783330574631691,-0.4847855567932129,-0.47750598192214966,2.000749349594116,-1.146429419517517,-1.4717708826065063,-0.8172564506530762,0.47154778242111206,-1.4042093753814697,0.9512001872062683,-0.5573655366897583,-0.4318158030509949,-0.8423221111297607,0.0987820252776146,0.6800759434700012,-0.7118412852287292,-1.4507830142974854,0.5305586457252502,0.1258421540260315,0.14823411405086517,0.3555339574813843,0.7049589157104492,-1.3660379648208618,1.095985770225525,-0.8191198706626892,0.9361249208450317,2.1622660160064697,-0.0032140191178768873,0.7139480113983154,0.9468740820884705,0.2099594622850418,2.499190092086792,-0.668609082698822,-1.4870352745056152,0.7532548308372498,-0.05567702278494835,1.1133381128311157,-0.02841794118285179,0.28570398688316345,0.16979002952575684,0.05677422881126404,-0.4839608371257782,0.0627824068069458,-0.5994027256965637,-0.4050765335559845,-0.9710545539855957,1.8747360706329346,-0.6734262108802795,0.5400664806365967,0.048553429543972015,1.2617037296295166,0.3060949444770813,-1.5829253196716309,1.235114336013794,0.6269018054008484,-0.24087058007717133,-0.28847557306289673,-0.1727883517742157,-0.3939996361732483,0.5466724634170532,0.5610733032226562,0.008942907676100731,-0.4240088164806366,1.4092364311218262,0.7499947547912598,-0.6505764722824097,-1.8329161405563354,-0.8988683223724365,-1.3530806303024292,-0.1588621735572815,-0.02459419146180153,-0.5198488235473633,1.1705371141433716,-0.4817761480808258,-0.23988638818264008,-0.8460631370544434,1.3408958911895752,0.8878257274627686,-2.0406646728515625,-1.0837005376815796,0.7296551465988159,1.9239500761032104,0.1894000768661499,0.011165653355419636,-0.4290105998516083,0.0017965584993362427,-1.8132076263427734,-0.7108005285263062,1.171620488166809,-0.21397961676120758,0.5473994612693787,-1.5699543952941895,-0.7915138006210327,1.0236750841140747,0.17391955852508545,-1.9507653713226318,-0.40481236577033997,-0.21157300472259521,-0.5983273386955261,-0.8691090941429138,-0.5679563283920288,-0.41981208324432373,2.817934036254883,0.09066871553659439,0.43288666009902954,0.48890072107315063,-0.8457954525947571,0.6303526759147644,-1.5362377166748047,0.54366135597229,1.3835620880126953,0.5864137411117554,0.8933489918708801,-0.29718759655952454,0.9883241057395935,0.6887879371643066,0.18007417023181915,-0.7219541072845459,-0.0785488709807396,-0.2946019470691681,-0.02714039944112301,-0.026079470291733742,0.296989768743515,-0.9890003204345703,0.12337472289800644,0.1177498996257782,1.2903434038162231,-0.7159009575843811,-0.5089011788368225,1.0342916250228882,0.36520811915397644,1.2000633478164673,-1.0005364418029785,-1.531630039215088,0.17151641845703125,-0.002253758953884244,-0.8958542943000793,1.800519585609436,1.0344958305358887,-0.669930636882782,-0.34259065985679626,1.1532469987869263,-0.6627132892608643,1.345862865447998,-2.1270105838775635,-0.286782443523407,0.26351115107536316,0.8022687435150146,0.24900852143764496,0.16745388507843018,0.27602070569992065,1.4401487112045288,-1.1241886615753174,-0.5369895100593567,0.5037372708320618,-0.2703704237937927,0.8166884779930115,1.0790810585021973,1.8228626251220703,2.517160177230835,0.383041650056839,2.0548205375671387,0.08548545092344284,0.6518539786338806,1.4260653257369995,0.1929950714111328,-1.0431714057922363,1.8424911499023438,0.008741865865886211,1.257901668548584,-1.0097160339355469,0.9209732413291931,-0.6242527961730957,0.5778639316558838,1.4231027364730835,-1.9782116413116455,-0.7097020745277405,0.9172376394271851,-0.6529892086982727,-0.8482362031936646,-1.6732447147369385,0.7306511402130127,0.9171385765075684,-0.5872897505760193,-1.1395063400268555,0.5272383093833923,-1.6802597045898438,1.955156683921814,-1.7554172277450562,0.8723875284194946,0.5099376440048218,-0.3018343448638916,0.7732047438621521,-0.7436406016349792,-0.6285939812660217,1.6793814897537231,-0.6069881916046143,-0.5656934976577759,-2.754155158996582,-1.5505672693252563,-2.0290212631225586,0.5827323198318481,-1.9647142887115479,2.2349865436553955,-1.0796805620193481,0.0740060955286026,1.5794565677642822,-0.17799577116966248,0.6883878111839294,0.6578828692436218,0.04097515344619751,1.209662675857544,-1.6908360719680786,-0.2136799395084381,-1.493712306022644,0.3425401747226715,-0.7485260367393494,0.5880088210105896,1.4648584127426147,-1.1602615118026733,0.34840795397758484,0.05962436646223068,-1.2841572761535645,1.6580784320831299,-1.2946193218231201,2.0032525062561035,0.18224117159843445,-1.52753746509552,2.2839229106903076,0.8631559610366821,-0.251360684633255,-2.9373607635498047,-0.0117450300604105,0.8107797503471375,-0.11074520647525787,-0.2831849455833435,-0.5043217539787292,-1.0886598825454712,-1.7175825834274292,0.7094442248344421,1.218278408050537,-1.0140180587768555,-1.1561102867126465,0.8978214859962463,2.8965413570404053,1.6179239749908447,0.47008681297302246,0.39661529660224915,-1.800372838973999,-0.13755612075328827,-0.8520736694335938,1.1968485116958618,-0.9058963656425476,1.2263513803482056,1.7523363828659058,-1.3303160667419434,-0.3139669895172119,-1.749710202217102,1.1983391046524048,0.09643470495939255,0.8464426398277283,1.2131081819534302,-0.707100510597229,0.5765721797943115,0.6455737948417664,-0.3530169129371643,0.35310935974121094,1.3669300079345703,-0.49988672137260437,0.9283030033111572,-1.1409974098205566,-2.0735082626342773,-0.46573859453201294,-1.0461149215698242,-0.18028846383094788,-0.2560141384601593,0.7534226179122925,1.942853331565857,-1.2981352806091309,-0.32231810688972473,-0.440112829208374,0.08758990466594696,1.4001543521881104,0.4378000795841217,-0.6091328263282776,-0.5607162714004517,1.1401557922363281,1.1121877431869507,-0.8941988348960876,1.451806902885437,0.8363832235336304,-0.0866299644112587,0.7988008856773376,-0.5543327331542969,-0.06273229420185089,0.6675443053245544,-2.730454683303833,1.2578965425491333,-1.611640214920044,1.2355395555496216,-0.029665296897292137,-1.3302342891693115,0.307730495929718,-0.8530187606811523,0.7991802096366882,1.0169048309326172,-0.9470787048339844,0.6790823340415955,-0.2380327582359314,-0.28765732049942017,-0.41240230202674866,-0.18999655544757843,1.2744762897491455,-0.42272230982780457,-0.2369634062051773,-1.0413635969161987,-2.4737284183502197,0.12877582013607025,-0.6232356429100037,-0.08628302812576294,0.9419426321983337,0.9870473742485046,0.6719159483909607,-1.6666936874389648,-0.26467135548591614,1.1993910074234009,0.25988614559173584,-0.4353271722793579,-1.9883599281311035,0.5330730676651001,-0.09248505532741547,-0.6121290922164917,-0.6705665588378906,-0.6303148865699768,-0.9240702390670776,-0.723771333694458,-1.1568706035614014,-0.7982259392738342,-0.9529640674591064,-0.30564093589782715,0.27085933089256287,0.43624258041381836,0.5674939751625061,0.05987008661031723,0.8059858083724976,0.40385985374450684,0.08344452828168869,0.1748948097229004,0.011344222351908684,1.2938824892044067,-2.2152693271636963,1.1570297479629517,-1.646538257598877,-0.2646562159061432,-1.9860860109329224,-0.8148414492607117,-0.17260494828224182,1.077052354812622,0.15323247015476227,-2.661907434463501,-0.8134453296661377,-0.3353852927684784,0.949179470539093,0.689535915851593,-0.7103830575942993,-0.04846024513244629,-0.1805092990398407,0.924185037612915,1.712087631225586,1.7681889533996582,-1.147279143333435,-2.34613299369812,0.6062344908714294,2.3608150482177734,-0.9054666757583618,0.3202216923236847,-0.5658106803894043,-0.3559485077857971,-2.0709068775177,-0.04035354033112526,-0.5589492321014404,0.07781583070755005,-0.7600570321083069,2.0187313556671143,-0.8049091100692749,-0.12928301095962524,-0.21861542761325836,-1.6953738927841187,-0.957842230796814,0.5320349335670471,0.24523617327213287,-0.2366705983877182,-0.42669007182121277,1.665588617324829,-1.9591107368469238
