word,0,1,2,3,4,5,6,7,8,9,10,11,12,13,14,15,16,17,18,19,20,21,22,23,24,25,26,27,28,29,30,31,32,33,34,35,36,37,38,39,40,41,42,43,44,45,46,47,48,49,50,51,52,53,54,55,56,57,58,59,60,61,62,63,64,65,66,67,68,69,70,71,72,73,74,75,76,77,78,79,80,81,82,83,84,85,86,87,88,89,90,91,92,93,94,95,96,97,98,99,100,101,102,103,104,105,106,107,108,109,110,111,112,113,114,115,116,117,118,119,120,121,122,123,124,125,126,127,128,129,130,131,132,133,134,135,136,137,138,139,140,141,142,143,144,145,146,147,148,149,150,151,152,153,154,155,156,157,158,159,160,161,162,163,164,165,166,167,168,169,170,171,172,173,174,175,176,177,178,179,180,181,182,183,184,185,186,187,188,189,190,191,192,193,194,195,196,197,198,199,200,201,202,203,204,205,206,207,208,209,210,211,212,213,214,215,216,217,218,219,220,221,222,223,224,225,226,227,228,229,230,231,232,233,234,235,236,237,238,239,240,241,242,243,244,245,246,247,248,249,250,251,252,253,254,255,256,257,258,259,260,261,262,263,264,265,266,267,268,269,270,271,272,273,274,275,276,277,278,279,280,281,282,283,284,285,286,287,288,289,290,291,292,293,294,295,296,297,298,299,300,301,302,303,304,305,306,307,308,309,310,311,312,313,314,315,316,317,318,319,320,321,322,323,324,325,326,327,328,329,330,331,332,333,334,335,336,337,338,339,340,341,342,343,344,345,346,347,348,349,350,351,352,353,354,355,356,357,358,359,360,361,362,363,364,365,366,367,368,369,370,371,372,373,374,375,376,377,378,379,380,381,382,383,384,385,386,387,388,389,390,391,392,393,394,395,396,397,398,399
b'\xe7\xbb\x93\xe6\x99\xb6\xe4\xbd\x93',-0.21513938903808594,-0.03948689252138138,0.012159241363406181,-0.09443965554237366,0.04515907168388367,0.04686830937862396,-0.05182399973273277,-0.0049921623431146145,0.11466580629348755,-0.1248474046587944,0.07503509521484375,0.18473008275032043,0.10968047380447388,0.03040323778986931,-0.25672444701194763,-0.04674054682254791,-0.07631184160709381,0.13967712223529816,0.12694980204105377,-0.09547234326601028,0.007528151385486126,0.09903442859649658,0.22281916439533234,0.032595470547676086,-0.1416994035243988,-0.0041797226294875145,0.05186765640974045,-0.13911931216716766,-0.11052257567644119,-0.04110979288816452,-0.16177567839622498,-0.02348029427230358,0.14411041140556335,-0.14698968827724457,-0.05328673496842384,-0.10397467762231827,0.26317310333251953,-0.12380735576152802,0.2273665964603424,-0.33759671449661255,-0.07264597713947296,-0.026832476258277893,-0.1572684645652771,0.22869522869586945,-0.10544061660766602,-0.1869504153728485,-0.22516301274299622,0.21173980832099915,0.061962857842445374,0.12575769424438477,-0.2192423939704895,0.009896309114992619,-0.04331455007195473,0.13241086900234222,0.18833115696907043,-0.06605032086372375,-0.38630416989326477,-0.10429931432008743,0.17038148641586304,-0.10944126546382904,-0.12287081032991409,0.20303671061992645,0.11257639527320862,-0.11185817420482635,0.22807562351226807,0.08476251363754272,-0.005333098117262125,-0.0822388082742691,-0.2510232627391815,0.056532684713602066,0.09917295724153519,-0.004483350086957216,-0.22407586872577667,0.34138500690460205,0.1945057064294815,-0.007852936163544655,-0.012635811232030392,-0.05411335080862045,0.1592169553041458,-0.18992659449577332,-0.11651717126369476,0.13874416053295135,0.2785336673259735,-0.28538140654563904,0.2027314454317093,-0.12199661135673523,-0.006693553179502487,-0.2858278751373291,0.20422154664993286,0.14612068235874176,0.09955722093582153,-0.09324224293231964,-0.22313541173934937,-0.1781393140554428,0.022321145981550217,0.024426739662885666,-0.10482215881347656,0.09129422158002853,0.16461697220802307,-0.12024789303541183,0.016350341960787773,-0.18388576805591583,-0.1919596642255783,-0.0515812449157238,-0.08428478240966797,0.08397117257118225,-0.2337093949317932,0.20033825933933258,0.1689838320016861,0.13535669445991516,0.08428896963596344,0.29244503378868103,0.0730825886130333,0.06945805996656418,-0.2125222533941269,0.3107292652130127,0.14212872087955475,-0.06302902102470398,0.25964120030403137,-0.00979310367256403,-0.02938356064260006,0.20782895386219025,0.004666266962885857,0.16039268672466278,-0.33918696641921997,0.19567151367664337,0.34017834067344666,-0.18305134773254395,-0.12966744601726532,0.08957977592945099,-0.17966099083423615,0.14752601087093353,-0.2566453516483307,0.011641114018857479,-0.16874006390571594,0.003926169127225876,-0.04135306924581528,-0.2452385127544403,0.01867874711751938,0.02704034186899662,0.04374353587627411,-0.14984335005283356,0.0841570794582367,-0.0235847607254982,0.15542607009410858,-0.18058525025844574,-0.2513505220413208,-0.158988356590271,0.005576310679316521,0.1390409916639328,-0.12179893255233765,0.1918453872203827,-0.10465589165687561,0.06648476421833038,-0.09673235565423965,-0.3117453157901764,0.038745660334825516,-0.16523157060146332,-0.022426653653383255,-0.13529644906520844,-0.015128973871469498,-0.020178943872451782,0.08970417827367783,0.03571658954024315,0.1477387249469757,0.262931764125824,0.08766971528530121,-0.1892908215522766,0.22695687413215637,-0.04768718034029007,-0.0964399129152298,0.011635569855570793,0.22138868272304535,-0.1767786294221878,0.3127444386482239,-0.03912541642785072,0.20936056971549988,-0.07762902230024338,0.2137923240661621,0.1258244663476944,0.019731808453798294,0.14021262526512146,-0.12395085394382477,-0.004535772372037172,-0.06296045333147049,-0.27482104301452637,0.09719092398881912,0.038576073944568634,0.10585744678974152,-0.3138673007488251,0.15033070743083954,-0.11767459660768509,-0.06164518743753433,-0.02491261437535286,0.15384697914123535,0.06859808415174484,-0.014948793686926365,-0.22241508960723877,-0.1021566167473793,-0.3009045422077179,-0.0809222161769867,-0.22325991094112396,-0.03104919195175171,-0.4044300615787506,-0.21087735891342163,-0.2662399411201477,-0.22319945693016052,-0.17348724603652954,0.14451029896736145,0.17129391431808472,0.1195928081870079,0.09741582721471786,0.043224968016147614,0.15790188312530518,-0.006436211057007313,0.11112173646688461,-0.04099206626415253,-0.24513939023017883,0.1819639503955841,-0.10319840908050537,0.13686993718147278,-0.05066477134823799,0.22687174379825592,0.008919518440961838,-0.1627185195684433,-0.008965279906988144,0.14385820925235748,-0.08169934898614883,0.2221800684928894,-0.07768230140209198,-0.11541399359703064,0.06322561949491501,-0.196182519197464,0.02983926236629486,-0.03442763909697533,0.04421120136976242,-0.31974777579307556,-0.1140468493103981,0.1668088436126709,-0.1762876957654953,-0.19837407767772675,-0.04571031406521797,-0.34028682112693787,-0.18671393394470215,-0.28452304005622864,-0.04414781183004379,-0.013334807008504868,-0.26059746742248535,-0.027934907004237175,0.25597840547561646,-0.08297356218099594,0.06747130304574966,0.043744321912527084,0.023906799033284187,0.13305781781673431,-0.015169571153819561,0.13380686938762665,0.07078850269317627,-0.005165765527635813,0.2246188372373581,-0.18447689712047577,-0.15328559279441833,-0.19442273676395416,-0.06222439184784889,0.08368249237537384,-0.07602488994598389,0.21391291916370392,0.06281908601522446,0.0770120918750763,0.014628255739808083,-0.007922484539449215,0.12387067079544067,0.0472361221909523,-0.3500261604785919,0.061849333345890045,-0.18581631779670715,-0.01893783174455166,-0.18793588876724243,0.01441293302923441,0.20903052389621735,-0.24913054704666138,0.11113088577985764,0.17389944195747375,-0.02535717375576496,-0.13784067332744598,-0.16095605492591858,-0.012917286716401577,0.14241944253444672,-0.0728224664926529,0.0833863690495491,0.09818901121616364,-0.09439234435558319,0.13801874220371246,0.3413552939891815,0.36326560378074646,0.03266655281186104,0.14271903038024902,0.30841001868247986,0.07886196672916412,0.06712210178375244,0.14224135875701904,0.01772208698093891,-0.17605915665626526,-0.15656350553035736,-0.18764136731624603,0.2055089920759201,-0.087307408452034,-0.1066162958741188,0.15890903770923615,0.09341125190258026,-0.13353390991687775,0.05784747004508972,0.026465781033039093,-0.19784601032733917,0.28883427381515503,0.16352805495262146,-0.11819940060377121,0.06407652050256729,0.22611971199512482,-0.09447737783193588,-0.1064532995223999,-0.1514338254928589,0.1030181422829628,0.3695145547389984,-0.272175133228302,-0.017486708238720894,-0.28643596172332764,-0.03199366480112076,-0.022343508899211884,-0.11057767271995544,0.08087755739688873,0.04745493084192276,0.034832265228033066,-0.22902826964855194,-0.04342177137732506,-0.234712153673172,-0.13400863111019135,0.11409029364585876,-0.00030212930869311094,0.054122474044561386,0.11750277876853943,0.030951963737607002,0.057115036994218826,0.06695978343486786,-0.30825915932655334,-0.060009464621543884,-0.11028672754764557,-0.227525994181633,-0.2298143059015274,0.37729546427726746,0.06371625512838364,-0.029834935441613197,-0.24671094119548798,0.03171071782708168,0.07088012993335724,-0.24692988395690918,0.30750173330307007,-0.17040981352329254,-0.08743859082460403,0.1770506054162979,-0.09888452291488647,0.15879489481449127,0.20197337865829468,-0.014588157646358013,-0.2340703308582306,-0.11690621078014374,-0.2938845753669739,-0.057339586317539215,-0.004819751717150211,-0.0005640436429530382,0.1744457483291626,-0.08083772659301758,0.04272306337952614,0.16725002229213715,-0.07450538128614426,-0.19742578268051147,-0.09618969261646271,-0.31565025448799133,-0.0819649025797844,0.14059998095035553,0.003936249762773514,-0.1347591131925583,0.06324876844882965,-0.06366181373596191,-0.18309950828552246,0.12840892374515533,0.020915629342198372,-0.06368018686771393,-0.15746347606182098,-0.07386674731969833,-0.22795629501342773,0.028895558789372444,0.16955965757369995,0.048663850873708725,-0.0588945597410202,0.12349078804254532,0.15990878641605377,0.1277027130126953,0.0304206982254982,0.02455703169107437
b'\xe7\xbb\x93\xe6\x99\xb6',0.4642570912837982,0.15930286049842834,1.1302474737167358,-0.4241742789745331,0.20627810060977936,0.1919833868741989,0.8546307682991028,-1.1034109592437744,0.18454690277576447,-0.255715548992157,0.22971375286579132,0.17281080782413483,-0.9282525777816772,-1.041009545326233,0.6802027821540833,0.9384807348251343,0.34652987122535706,0.1112748384475708,1.1022799015045166,-1.0692732334136963,0.40368595719337463,-0.7600833177566528,1.6504898071289062,-0.21952806413173676,-0.2596058249473572,0.6678023338317871,0.4360579550266266,-1.2099509239196777,0.3682750165462494,0.43912526965141296,-0.14686356484889984,-0.277396023273468,0.4672461450099945,-0.2650350332260132,0.21581092476844788,-0.6107416749000549,1.2298610210418701,0.4994560182094574,-0.4578993022441864,-1.2672269344329834,-1.3554301261901855,1.0872652530670166,-1.5334959030151367,-0.6947931051254272,0.024104049429297447,-1.0181806087493896,-1.0094448328018188,1.6565310955047607,0.019471948966383934,-0.6073195934295654,-0.2063625305891037,-0.4985324442386627,0.3558616042137146,0.8190001249313354,-0.19675585627555847,0.07525430619716644,-0.7998557686805725,-0.7194901704788208,0.7442524433135986,-1.9500808715820312,-0.6132611632347107,1.654926061630249,-1.1292208433151245,-0.08015475422143936,0.7300071120262146,0.06657655537128448,-0.9449790120124817,-0.28728240728378296,-1.2188036441802979,0.5887941122055054,1.0910024642944336,-0.5914841890335083,-0.1754477471113205,1.3704577684402466,-0.4879710078239441,-0.19603590667247772,-0.26711025834083557,0.8141816854476929,0.5783796310424805,-0.5880875587463379,-1.1151670217514038,0.9020525813102722,0.9639860391616821,-1.6987453699111938,0.3949841260910034,-0.2756013870239258,-0.503282904624939,-1.4868382215499878,-0.4398004412651062,0.21308745443820953,-0.6933208703994751,0.44306430220603943,-0.014667627401649952,-0.6848339438438416,0.653132975101471,-1.8657113313674927,-0.7952645421028137,0.18542969226837158,0.8916295766830444,-0.6161308884620667,1.0358299016952515,0.1335275024175644,-0.42503902316093445,0.2860122621059418,-1.0917547941207886,-0.2371809333562851,-0.24496345221996307,1.674721598625183,1.4289103746414185,0.9273782968521118,-0.4358859658241272,1.4285067319869995,0.6991914510726929,-0.6100708842277527,-0.5057808756828308,0.782932698726654,-0.4579406976699829,0.015836268663406372,1.001508116722107,-0.32519373297691345,0.33004066348075867,0.8144118785858154,0.33203408122062683,0.15995633602142334,-1.5772860050201416,0.8342328071594238,1.5287690162658691,-0.5896477103233337,-0.4324249029159546,0.5249021053314209,-0.9024649858474731,1.3786839246749878,-1.47028648853302,0.2540122866630554,-0.2730029821395874,1.0326236486434937,0.2649576663970947,-1.3179064989089966,0.39751318097114563,-0.3778001666069031,0.5696596503257751,-0.02886688895523548,0.6349010467529297,0.5260986089706421,0.15624038875102997,0.40764299035072327,-1.6405309438705444,-0.5505952835083008,-0.10546864569187164,0.641504168510437,-0.4703521430492401,0.5360061526298523,-0.7532598376274109,0.21044085919857025,-0.576683759689331,-0.2456739842891693,-0.43734899163246155,-1.3284358978271484,-0.22313900291919708,-0.9493470191955566,-0.7201295495033264,0.18020294606685638,0.5327816009521484,2.4263362884521484,-0.6514925956726074,0.7403184175491333,-0.018008986487984657,-0.7122625112533569,-0.137961283326149,-1.6653276681900024,-0.19574306905269623,0.9961678385734558,0.8050304651260376,-0.694033145904541,1.0920922756195068,0.3279416561126709,0.43440723419189453,0.1415788233280182,0.8595693707466125,0.37275341153144836,-0.9653860330581665,0.5687211155891418,-0.7661202549934387,-0.6359412670135498,0.9995526671409607,-0.7051078677177429,-0.351179301738739,1.1155534982681274,1.0919957160949707,-0.8156585097312927,0.43011748790740967,0.34336647391319275,0.059401266276836395,-0.9527709484100342,-0.7275739908218384,1.3292300701141357,1.3959356546401978,-0.7162972092628479,0.04082009568810463,-2.653498411178589,-0.034297384321689606,-0.7068262696266174,0.05810840055346489,-1.107689619064331,-0.11240165680646896,-0.5380669832229614,-0.19848331809043884,0.0015386813320219517,1.045306921005249,-0.646975576877594,-0.7223218679428101,-0.6304989457130432,-0.17289583384990692,0.13979369401931763,-0.05594765022397041,0.7342267036437988,0.6270081996917725,-2.3045990467071533,0.7581087946891785,-0.25665003061294556,-0.05749226734042168,-1.5655966997146606,1.056505560874939,-1.0198687314987183,-0.7293851375579834,-0.051149722188711166,0.012335149571299553,-0.8266297578811646,0.6375937461853027,1.2387149333953857,-0.14345969259738922,0.34933164715766907,-1.366994857788086,0.842708170413971,-0.7232078313827515,1.1900049448013306,-1.0679486989974976,-0.7174754738807678,0.6678479313850403,-1.694187045097351,-0.3599838316440582,-0.7690951824188232,-1.7168089151382446,0.08262984454631805,-0.43382203578948975,0.6621997356414795,0.5132541060447693,0.5295329093933105,-1.0368212461471558,1.1821414232254028,-0.6499808430671692,0.14434169232845306,0.9340280890464783,-1.3134255409240723,0.5714015364646912,0.10985886305570602,1.0905729532241821,1.09651780128479,-0.4097323715686798,-0.1523190587759018,-1.0486620664596558,-0.6531105041503906,-2.2262847423553467,-0.16105787456035614,-0.7972602248191833,-1.42293381690979,0.1728287786245346,-1.0003572702407837,0.8912549018859863,0.5885826349258423,-0.555504322052002,1.1592141389846802,1.2156354188919067,-0.4645055830478668,0.8974629640579224,-0.9218416810035706,0.5762169361114502,-2.0945119857788086,-0.7143506407737732,0.31065428256988525,-1.5622248649597168,-0.5405482053756714,1.4653959274291992,-0.05360669270157814,-0.9539759755134583,-0.5225247740745544,-0.14614920318126678,0.6289288401603699,0.13466665148735046,-0.20577172935009003,-0.4411240816116333,-0.4690520167350769,1.9101073741912842,1.3662666082382202,0.5816478729248047,-0.09489012509584427,-0.160553440451622,1.3220884799957275,-0.3869515359401703,0.16658973693847656,0.48755571246147156,0.026210147887468338,0.9206335544586182,-1.3114646673202515,-0.737238347530365,-0.7178425192832947,-0.6361759305000305,-0.5961295366287231,0.8700839877128601,-0.39225366711616516,-0.49248844385147095,0.31949856877326965,0.8988017439842224,-0.5702387094497681,2.019439458847046,0.15462885797023773,-0.6707523465156555,0.3314308524131775,-0.5364068150520325,-0.9470969438552856,-0.8277172446250916,-0.7065726518630981,1.5894438028335571,0.42783108353614807,-0.22389830648899078,-0.5875986814498901,-1.3220075368881226,-1.0408133268356323,0.4552864730358124,0.12372415512800217,0.38937410712242126,0.48944705724716187,1.9323030710220337,0.2975335419178009,0.5176282525062561,0.025791162624955177,-1.9949415922164917,-0.9065827131271362,-0.9535627961158752,0.3607514202594757,0.6437826156616211,-1.1175390481948853,-0.9222754836082458,0.9027059674263,-1.0218799114227295,-0.26879966259002686,-1.0984206199645996,-0.7532182931900024,-1.4696508646011353,1.4390143156051636,0.5905346274375916,-0.40895065665245056,-0.9921189546585083,0.3051040470600128,0.4367777407169342,-0.8549025058746338,1.3209826946258545,-0.3223058581352234,0.27952396869659424,-0.25053778290748596,1.234300971031189,1.370962142944336,0.39594513177871704,-0.7398115992546082,-1.3811709880828857,1.1003249883651733,-1.8422924280166626,-0.09753621369600296,0.49004438519477844,-0.6886255741119385,2.1582770347595215,-0.5541465878486633,0.972183346748352,0.405203253030777,0.26536449790000916,-0.8833511471748352,1.0672492980957031,-1.1596843004226685,-1.524324655532837,-0.3589242398738861,0.1717752069234848,-0.5586450695991516,1.5285266637802124,-0.9419592022895813,-0.08445236831903458,-0.7376635074615479,-0.6166257858276367,-0.8996692895889282,-0.021228495985269547,-1.4266763925552368,-1.7517728805541992,1.2475930452346802,0.02614760771393776,0.6046077013015747,0.9597762823104858,1.4550977945327759,0.7917619347572327,0.5855467319488525,0.8324356079101562,0.038362808525562286
b'\xe7\xa7\x91\xe5\xb1\x9e',0.055673886090517044,0.02465200610458851,0.10515978932380676,0.105026014149189,0.004119365010410547,0.04122345149517059,0.004455516580492258,-0.0794525146484375,0.07366356998682022,-0.08739540725946426,0.14882279932498932,0.1858881264925003,0.16700677573680878,0.13047777116298676,-0.11892778426408768,-0.0015661107609048486,0.07161083072423935,0.1709800511598587,-0.08395954221487045,0.09444113075733185,0.041364867240190506,-0.18947674334049225,0.14629335701465607,0.031769510358572006,-0.017359385266900063,0.16481447219848633,0.04865063354372978,0.19352757930755615,0.10223055630922318,0.025035161525011063,-0.0479879304766655,-0.18035180866718292,0.10467347502708435,-0.07919766753911972,0.03352142870426178,-0.051506076008081436,0.030656050890684128,0.05708698928356171,0.15034012496471405,-0.09628351032733917,-0.03698497265577316,-0.1405782252550125,0.08467946946620941,0.03611139953136444,0.11072614789009094,0.061349086463451385,-0.024996986612677574,-0.020050181075930595,-0.10001539438962936,-0.09517274796962738,0.013854337856173515,-0.042580485343933105,0.14680756628513336,-0.10255298018455505,-0.00021197505702730268,-0.07724505662918091,-0.1268288642168045,0.10686961561441422,0.22156397998332977,-0.011117318645119667,-0.16748903691768646,0.08250627666711807,0.021896854043006897,-0.05439374968409538,0.3073411285877228,-0.0770890936255455,0.023494698107242584,-0.10490873456001282,-0.0229423176497221,-0.14904886484146118,0.030663087964057922,0.019861266016960144,-0.18024063110351562,0.026130346581339836,-0.06778820604085922,0.06106337532401085,-0.017925551161170006,0.1421913504600525,-0.013362022116780281,0.12665528059005737,0.0333535335958004,0.05672807991504669,0.05001054331660271,-0.10477523505687714,0.059646036475896835,-0.017636263743042946,0.12153450399637222,0.09440620243549347,0.06534043699502945,0.16346138715744019,0.030080175027251244,0.05164750665426254,-0.09488299489021301,-0.0213299673050642,0.033302657306194305,-0.03493070602416992,0.05969877913594246,-0.026673531159758568,0.05978846549987793,0.07307032495737076,-0.11679361015558243,-0.051490720361471176,0.16614864766597748,-0.07358109951019287,-0.11372993141412735,0.09694410115480423,-0.11511474847793579,0.012264364399015903,0.09137366712093353,0.061190515756607056,0.12725861370563507,0.11905188858509064,0.011383200995624065,0.05981608107686043,0.05299046263098717,0.007734732702374458,-0.05176297575235367,0.17278315126895905,0.07820271700620651,-0.06300651282072067,-0.24300655722618103,0.05948780104517937,-0.018237072974443436,-0.016745083034038544,-0.08227604627609253,0.09063510596752167,0.019779616966843605,0.08265754580497742,-0.03632277622818947,-0.05601928010582924,0.14268851280212402,0.08338916301727295,-0.10010276734828949,0.1745425909757614,-0.1579594910144806,0.001650654710829258,0.0724116787314415,0.07019170373678207,-0.02285810001194477,-0.0807860791683197,-0.01885855384171009,-0.005768541246652603,0.1401173323392868,0.08101397752761841,0.044907424598932266,-0.01662306673824787,0.15070544183254242,-0.1421409696340561,-0.1471569687128067,0.13635876774787903,-0.012364797294139862,-0.020442074164748192,-0.03170543909072876,-0.1633557677268982,-0.020976539701223373,-0.13097931444644928,0.05842428281903267,-0.2083137035369873,-0.0908307209610939,-0.1624433696269989,-0.050955746322870255,0.09138384461402893,0.11654301732778549,-0.03438113257288933,0.05519117787480354,0.03901517391204834,-0.017662035301327705,-0.10578349977731705,0.12688156962394714,-0.08418301492929459,0.0025610316079109907,0.07102256268262863,0.28912895917892456,0.0929698795080185,-0.03579658269882202,-0.06347817182540894,-0.08117076754570007,-0.2784302234649658,-0.02153170295059681,0.26450851559638977,0.015315797179937363,-0.002524028066545725,0.04446389898657799,0.018985727801918983,-0.0018032423686236143,-0.19848139584064484,0.18271757662296295,0.07779132574796677,-0.14851422607898712,0.005910368170589209,0.029268356040120125,0.0661119669675827,-0.004957953933626413,0.12465556710958481,-0.034055303782224655,-0.13948427140712738,-0.06748878210783005,-0.09334233403205872,-0.025630246847867966,0.033312082290649414,-0.10746785998344421,-0.0006235404289327562,0.037016429007053375,-0.1735231876373291,-0.029088202863931656,0.12231823801994324,-0.1584811508655548,-0.07798471301794052,0.00325112440623343,-0.014938010834157467,0.04948290064930916,-0.017892565578222275,0.037564076483249664,0.06818773597478867,-0.04057295620441437,0.044044189155101776,-0.006057053804397583,-0.1993565857410431,-0.04152632877230644,-0.0018015292007476091,-0.008941514417529106,-0.024711990728974342,0.21829169988632202,-0.02597183920443058,-0.05505330115556717,0.09189961850643158,-0.033515602350234985,-0.013544305227696896,0.07872586697340012,-0.04332072287797928,-0.07967444509267807,-0.05453621968626976,-0.002361882943660021,-0.10293912142515182,-0.009104786440730095,0.13404108583927155,-0.27612024545669556,0.01529296301305294,-0.12464366853237152,-0.10550090670585632,-0.16879510879516602,-0.04410925880074501,-0.06943785399198532,-0.10949312150478363,-0.09177467972040176,-0.04776595160365105,0.14265497028827667,-0.24852809309959412,0.051240433007478714,0.059631142765283585,-0.123587965965271,0.014412954449653625,-0.11097132414579391,0.19945959746837616,0.08593102544546127,-0.09781812131404877,0.03270101174712181,0.0829358622431755,0.02370268478989601,0.024240195751190186,-0.02305442839860916,-0.105034738779068,-0.1650151163339615,0.1166614517569542,-0.029730068519711494,0.05894099548459053,0.045784201472997665,-0.08667763322591782,0.07156547158956528,-0.05190059170126915,0.11017017066478729,0.054229263216257095,-0.017804959788918495,0.031254708766937256,0.02444424107670784,0.048984333872795105,0.08451804518699646,-0.08760327845811844,0.12738879024982452,0.21946224570274353,0.00862614531069994,-0.16633157432079315,0.13034996390342712,0.26121899485588074,0.006163636222481728,0.15398745238780975,-0.01081820297986269,0.0678197368979454,-0.03625454381108284,-0.12465357780456543,0.11356484889984131,0.1544511765241623,-0.07256963104009628,0.03600969910621643,0.0374629907310009,0.06644038110971451,-0.16675060987472534,0.012807543389499187,-0.04487714171409607,-0.07864183187484741,0.08048836886882782,-0.041273701936006546,-0.04350334778428078,-0.06371216475963593,-0.15854713320732117,-0.12654992938041687,-0.18447117507457733,-0.012229940854012966,-0.013730606064200401,-0.14187656342983246,-0.07475017011165619,0.017927249893546104,-0.03895719721913338,0.010296990163624287,-0.024399027228355408,0.0013318368000909686,0.03776009753346443,0.19837884604930878,-0.034956272691488266,-0.11981989443302155,-0.04787443205714226,-0.052533846348524094,-0.0013459755573421717,0.13536101579666138,-0.19448234140872955,-0.010366001166403294,-0.08313707262277603,-0.03311167657375336,-0.08564051240682602,0.1974755823612213,-0.1622980535030365,0.042532242834568024,-0.013751553371548653,-0.026149393990635872,0.08172619342803955,0.002363602165132761,-0.07887902855873108,0.11122196912765503,-0.11853069067001343,0.04050212353467941,0.05285261571407318,-0.15249189734458923,-0.10480131208896637,-0.07594349980354309,-0.12439737468957901,-0.16749900579452515,0.06898477673530579,0.08549278229475021,0.012769809924066067,-0.0003074206179007888,-0.08001386374235153,0.0344640389084816,-0.23776374757289886,0.11082108318805695,0.03724369779229164,-0.04624578729271889,0.13495342433452606,-0.010241121053695679,-0.027910249307751656,-0.07831480354070663,0.10310611873865128,0.08143725991249084,-0.016521191224455833,0.009194688871502876,-0.07765703648328781,-0.06838616728782654,-0.05347485467791557,-0.150039941072464,0.26501333713531494,-0.22312656044960022,0.022844348102808,0.06103155016899109,0.16217447817325592,0.22597286105155945,-0.1365222930908203,-0.06235768273472786,0.1560857892036438,-0.00017998498515225947,-0.12522096931934357,-0.04809252917766571,-0.03967222943902016,0.08765994012355804,-0.114995576441288,-0.042385634034872055,-0.01802286133170128,-0.007098637521266937,-0.005389403086155653,-0.17118868231773376,-0.18365921080112457,0.005134990438818932,0.08880285918712616,0.06701548397541046,-0.1723235845565796,0.031352441757917404,-0.2200874239206314,0.060921117663383484,-0.06315283477306366,-0.014761652797460556,-0.13127277791500092,0.02834339626133442
b'\xe7\x94\xb5\xe5\xad\x90\xe6\x98\xbe\xe5\xbe\xae\xe9\x95\x9c',-0.5508750677108765,-0.034298110753297806,0.2030072808265686,-0.6214614510536194,0.2471161037683487,0.4969141185283661,0.3160354495048523,-0.4721861183643341,0.4245047867298126,-0.08004675805568695,-0.6726135015487671,-0.14493094384670258,0.7266563773155212,-0.22457945346832275,-0.26390978693962097,-0.09770084172487259,-0.04706602916121483,-1.2814303636550903,-0.570644736289978,0.06367294490337372,-0.12925459444522858,-0.7568559050559998,0.14525267481803894,-0.10905253142118454,0.5336325764656067,-0.06728370487689972,0.40338850021362305,-0.9236507415771484,-0.02338399365544319,-0.3278762698173523,0.40086081624031067,0.03950412943959236,-0.02200539968907833,0.3343280851840973,0.12117082625627518,-0.7589899897575378,0.743705689907074,0.22860540449619293,0.5386255979537964,-0.5560958981513977,0.15923458337783813,0.9879212379455566,-0.6741371154785156,0.04762621596455574,0.07543795555830002,-0.5254754424095154,-0.06959294527769089,-0.22799746692180634,0.24007943272590637,0.08520577102899551,-0.7378911972045898,0.6372426152229309,-0.14679719507694244,0.0985882356762886,-0.04709821939468384,-0.7325337529182434,-0.4666019678115845,-0.06563685834407806,-0.2728181779384613,-0.3397887945175171,-1.1249123811721802,-0.34708842635154724,0.636536180973053,-0.16606348752975464,0.6712726950645447,-0.3710929751396179,-1.0523231029510498,-0.8580023050308228,-0.3034873902797699,0.3432929217815399,-0.06460848450660706,0.013387189246714115,-0.1502259522676468,0.9100629687309265,-0.312185674905777,0.1380879133939743,-0.08562969416379929,0.415144681930542,1.3921231031417847,0.4146057069301605,-0.13404954969882965,0.5339199304580688,1.0401623249053955,-1.3740986585617065,-0.31409990787506104,-0.17072038352489471,0.5294849872589111,1.0918203592300415,0.3748490512371063,-0.18316352367401123,0.22273609042167664,0.6807169318199158,-0.037315573543310165,0.20979006588459015,0.13748210668563843,0.12251077592372894,-0.30375951528549194,-0.082007497549057,0.32007545232772827,0.4344867169857025,0.012445599772036076,-0.31220072507858276,-0.49471741914749146,-0.114686019718647,0.12872938811779022,0.244255930185318,-0.2684674859046936,1.2734928131103516,0.5671581029891968,-0.055706433951854706,-0.23215113580226898,0.3516608476638794,0.36044853925704956,-0.21449927985668182,-0.413579523563385,0.7969843149185181,-0.9377274513244629,-0.2823110520839691,-0.367685467004776,0.39373379945755005,0.1307022124528885,0.15144792199134827,-0.24716560542583466,0.3781954348087311,-0.2741738259792328,-0.0678701177239418,0.9015294909477234,-0.6779947280883789,-0.23342560231685638,0.8587620854377747,0.0621151365339756,0.6480761766433716,-1.2952098846435547,-0.007112440653145313,-0.22115091979503632,0.7027849555015564,-0.290735125541687,-0.48521506786346436,0.2050676792860031,-0.1679057627916336,0.588216245174408,-0.37388476729393005,-0.02029469981789589,1.094620943069458,-0.01435091532766819,-0.031581804156303406,0.6203920245170593,-0.45115962624549866,0.41456207633018494,0.17363081872463226,0.4461418688297272,0.9168601036071777,-0.5860297679901123,0.3104627728462219,0.19382286071777344,-0.35972195863723755,0.13036948442459106,-0.17990335822105408,-0.18831974267959595,0.0763673260807991,0.020345402881503105,0.6079099774360657,-0.029453715309500694,0.3302886188030243,-0.23924829065799713,-0.006447103340178728,0.8832452297210693,-0.555448591709137,0.27913182973861694,-0.3142271935939789,-0.4966259002685547,-0.015253691002726555,1.3305766582489014,0.902807891368866,-0.5614515542984009,0.38642314076423645,0.8020144701004028,-0.28080594539642334,0.43729859590530396,1.3787277936935425,-1.2281241416931152,0.1346297711133957,0.18834127485752106,-0.4342963397502899,-0.2962667644023895,0.09744539856910706,0.26763996481895447,0.07382092624902725,-0.571312427520752,-0.23671506345272064,-0.03211513161659241,0.5740112662315369,0.3404267728328705,0.08983837813138962,-0.28856053948402405,-0.2602805197238922,0.045649513602256775,-0.20295175909996033,-0.9705847501754761,-0.3659913241863251,0.7868250608444214,-0.32339590787887573,-0.35043561458587646,-0.8981919884681702,0.06435337662696838,0.3014650046825409,0.34716278314590454,0.10653163492679596,0.6481736302375793,-0.14441238343715668,-0.4255092442035675,-0.4804282784461975,-0.18383671343326569,0.8458746075630188,0.01636221818625927,-0.002422991441562772,-0.21217229962348938,-0.26716750860214233,0.41285741329193115,-0.8012068867683411,-0.44901230931282043,-0.7697036862373352,0.1878460794687271,1.2979276180267334,-0.9542540907859802,0.16892555356025696,-0.19583076238632202,-0.5960374474525452,1.0310496091842651,-0.7373780608177185,0.94486004114151,0.3829025626182556,-0.2789763808250427,0.5605230331420898,0.7270338535308838,0.37439554929733276,-0.6305813193321228,0.5271840691566467,-0.3898952305316925,-0.5690423250198364,-0.3829827308654785,-0.6683083176612854,-0.7796676158905029,-0.516430139541626,-0.3652365207672119,0.8446226119995117,0.25168830156326294,-0.7482694983482361,-0.29484015703201294,0.6504468321800232,-0.3849143087863922,-0.043389156460762024,-0.14834249019622803,0.3401873707771301,0.5143161416053772,-0.16730788350105286,0.5379288196563721,-0.1418898105621338,0.6147658824920654,0.41828563809394836,-0.7956152558326721,0.13739702105522156,-0.8382931351661682,-0.15081141889095306,0.13988932967185974,0.4358959496021271,0.8418791890144348,0.2228526622056961,0.5101351141929626,-0.5826098918914795,-0.20966961979866028,0.10996414721012115,0.8957074880599976,0.302144855260849,0.06672941148281097,-0.18590830266475677,-0.6583593487739563,0.026252267882227898,-0.4939122200012207,0.4482322633266449,-0.4849819839000702,-0.4038604199886322,1.2059931755065918,-0.25755178928375244,-0.9626373648643494,0.24288254976272583,-0.3048021197319031,0.2748318910598755,-0.48626723885536194,-0.008399171754717827,-0.36055174469947815,0.15067733824253082,0.23309426009655,0.15915079414844513,-0.2947697043418884,0.8207919001579285,-1.0701477527618408,0.5470695495605469,-0.2779679298400879,-0.700262188911438,1.121938943862915,-0.45834699273109436,-0.2539549767971039,-0.4181651771068573,0.32393577694892883,-0.2473626285791397,-0.5229758620262146,-0.7570700645446777,-0.8258070945739746,0.22089602053165436,-0.008068155497312546,0.3410508632659912,0.6308236122131348,-0.47185173630714417,0.28939321637153625,-0.7975915670394897,-0.4444599747657776,-0.3849312365055084,-0.10384973883628845,-0.3218318819999695,0.14386509358882904,-1.1730271577835083,0.2716027498245239,0.32490649819374084,-0.7324785590171814,-0.13602887094020844,-0.6707617044448853,-0.5267132520675659,0.4991692304611206,0.12135392427444458,-0.4080708920955658,0.4044528901576996,0.0006490289233624935,-0.8521756529808044,0.4171631336212158,-1.088828682899475,-0.4469555914402008,-0.4133894145488739,-0.9824787378311157,-0.9660637974739075,0.05771064758300781,-0.40208739042282104,-0.2513865828514099,-0.9614706039428711,-0.6594127416610718,-1.1008278131484985,0.2667939066886902,0.3911559283733368,0.2618410587310791,0.6735947132110596,-0.2163940668106079,-0.4893879294395447,0.041750624775886536,-0.28795358538627625,-0.08076877892017365,-0.9659717679023743,0.37813591957092285,-0.5493411421775818,-0.21130235493183136,0.10473166406154633,-0.05842433124780655,0.3736180365085602,0.2375851422548294,-0.4979774057865143,-1.3942278623580933,-0.8228786587715149,-0.29471585154533386,0.7061211466789246,0.6159425973892212,-0.8741695880889893,0.2580367922782898,-0.3983041048049927,1.1453406810760498,0.8243237137794495,0.22913290560245514,-0.3307640552520752,-0.3677000403404236,-0.7330841422080994,0.5989917516708374,0.0933593213558197,0.19941619038581848,-0.04534585401415825,0.39374205470085144,-0.33386948704719543,-0.96656334400177,-0.01881679706275463,0.8063017129898071,-0.41216346621513367,-0.2656992971897125,-0.6175490021705627,0.2361738681793213,0.5635981559753418,-0.5969139933586121,-0.05341743305325508,0.7054628133773804,0.5122811198234558,0.5808339715003967,0.2511870563030243,0.7973132133483887,-0.5600771903991699
b'\xe4\xbb\xa5\xe6\x9d\x9f',0.04740278422832489,0.02799108624458313,-0.04378320276737213,0.018391279503703117,0.04793816804885864,0.007551752496510744,-0.022866347804665565,-0.015233775600790977,0.0018303664401173592,-0.011003389023244381,0.09234866499900818,-0.002469809493049979,-0.007522977888584137,0.035022228956222534,-0.06147191673517227,-0.03363889083266258,0.00526860635727644,0.006175285205245018,0.017325274646282196,-0.046386562287807465,0.008783699944615364,0.004706304054707289,0.009685636498034,-0.004641439765691757,0.018325887620449066,0.05651993677020073,-0.02636411041021347,-0.0010831770487129688,-0.045454733073711395,0.018845446407794952,0.030465343967080116,-0.01725436933338642,-0.05295124650001526,0.03241099789738655,0.032810382544994354,-0.0404912568628788,0.024428410455584526,0.02198413573205471,-0.015542308799922466,-0.03974354267120361,-0.003139752894639969,0.06741521507501602,-0.06685331463813782,-0.03793080151081085,0.03096834011375904,0.012626214884221554,-0.05894697457551956,0.019900625571608543,-0.01573104038834572,-0.04202602058649063,0.06175560876727104,0.01994900219142437,0.014112747274339199,-0.003451006719842553,0.053058963268995285,-0.032290268689394,-0.017194677144289017,0.006153779104351997,-0.019316531717777252,0.00052194285672158,-0.036047760397195816,0.028995675966143608,-0.013990622013807297,-0.019154133275151253,0.03816854581236839,0.06956510990858078,-0.005716720595955849,0.008738587610423565,0.02550625614821911,-0.010333011858165264,-0.046831607818603516,-0.016770808026194572,-0.043273989111185074,0.012257298454642296,-0.019983159378170967,0.018597692251205444,-0.009221499785780907,0.02217753790318966,-0.00654439814388752,-0.010858376510441303,0.004266777075827122,-0.01831280067563057,-0.005483923014253378,0.0018870278727263212,0.014283210970461369,-0.017866093665361404,-0.006433046422898769,-0.0416121780872345,0.05450165271759033,0.013256894424557686,-0.01123831607401371,0.04089652746915817,-0.008777545765042305,-0.01176373939961195,-0.000847203191369772,0.044536467641592026,0.04840114712715149,0.04708190634846687,0.07150550186634064,-0.0411098338663578,0.020589865744113922,-0.007042821496725082,0.061822302639484406,-0.029538031667470932,0.009258179925382137,0.0517498217523098,-0.050941888242959976,0.01926431804895401,-0.01758560724556446,0.010314593091607094,-0.04914218187332153,0.006649047136306763,0.02718118391931057,-0.014031356200575829,-0.05028073862195015,0.0033562611788511276,-0.00987279787659645,-0.019103040918707848,0.012709698639810085,-0.008457090705633163,0.005740166641771793,0.0279789250344038,0.0370812863111496,0.014182306826114655,-0.12676244974136353,-0.011580029502511024,0.00603001331910491,-0.010637611150741577,-0.062137532979249954,-0.017509330064058304,-0.005861320532858372,0.001691394834779203,-0.06721829622983932,0.03018433414399624,-0.0037178550846874714,-0.0761079415678978,-0.022817883640527725,0.03893687576055527,0.012596510350704193,-0.05429887771606445,0.02009345032274723,-0.005746655166149139,0.023024387657642365,0.04113905504345894,0.04483881592750549,0.0024785238783806562,0.032418664544820786,0.04311583191156387,-0.015600950457155704,-0.010816557332873344,-0.006259416230022907,0.0009981233160942793,0.06056269258260727,0.028770780190825462,0.007715377025306225,-0.018881363794207573,0.013995181769132614,-0.0003372234641574323,0.027250319719314575,0.04366523399949074,-0.03128533065319061,0.025345437228679657,-0.03470725938677788,0.03543238714337349,-0.00899847038090229,0.05728309974074364,-0.05970112606883049,-0.05908677726984024,-0.02145039662718773,0.0323956161737442,-0.017017969861626625,-0.006399490870535374,-0.015925422310829163,-0.04055651277303696,-0.001156686688773334,-0.07509330660104752,-0.00238958653062582,-0.0035484677646309137,-0.032720498740673065,0.003794258926063776,-0.019029846414923668,-0.04173104837536812,0.03876018151640892,-0.011882349848747253,-0.020889637991786003,0.013697593472898006,0.019840003922581673,0.04585971310734749,0.04972439631819725,-0.0757109671831131,0.03719301521778107,-0.0202571302652359,0.017774662002921104,0.014435666613280773,-0.03347114101052284,0.02185697667300701,-0.06082374230027199,0.03835444524884224,-0.01053911168128252,0.019302327185869217,-0.02622501365840435,-0.010650694370269775,-0.024930739775300026,0.01624959520995617,-0.04596756771206856,-0.016638314351439476,-0.01256463211029768,0.015972135588526726,0.009422008879482746,-0.001864105463027954,-0.01735774613916874,-0.007491969503462315,0.027698609977960587,-0.01409903634339571,-0.015103560872375965,0.049314044415950775,-0.011965914629399776,-0.034034933894872665,0.006645429413765669,0.037474848330020905,0.035727206617593765,0.025130240246653557,0.06219911947846413,-0.02011941187083721,0.021220583468675613,0.02040869928896427,0.021639622747898102,-0.020109109580516815,0.02143953926861286,-0.021362312138080597,-0.007730558514595032,0.009762808680534363,-0.05095440521836281,-0.033645644783973694,0.02042459510266781,0.03839261457324028,-0.004107527434825897,0.028413884341716766,-0.006010967772454023,-0.05240121856331825,0.011103533208370209,-0.01121332123875618,0.01965467631816864,0.004633394535630941,-0.025473691523075104,0.041375160217285156,0.015811873599886894,-0.021153656765818596,-0.026832858100533485,0.024675415828824043,0.018808912485837936,-0.01997988671064377,0.04446418955922127,0.06418624520301819,0.009042919613420963,-0.010095812380313873,0.014049725607037544,-0.05535664036870003,-0.012230693362653255,0.017491742968559265,-0.04062332957983017,-0.02221568487584591,-0.03359013423323631,-0.03609699755907059,0.0023117910604923964,0.013385316357016563,0.0003950914542656392,-0.034805312752723694,0.05107187107205391,0.048758357763290405,0.037854403257369995,0.04805667698383331,-0.013327551074326038,-0.03566228225827217,0.0905824825167656,-0.018592990934848785,-0.022449787706136703,0.002462186384946108,0.025113387033343315,0.033345408737659454,-0.012385193258523941,0.011951682157814503,-0.023094527423381805,-0.08342477679252625,0.022700514644384384,-0.04269487410783768,0.038176245987415314,0.026795294135808945,-0.0075531513430178165,0.048295874148607254,-0.03233819082379341,0.012378454208374023,0.04257109761238098,-0.0019636836368590593,0.02468021586537361,0.014621119014918804,0.03458985313773155,0.029753824695944786,-0.006773043889552355,0.0628121867775917,-0.015080450102686882,0.047762323170900345,0.02634032443165779,0.02645038813352585,-0.01866881176829338,0.03691716119647026,-0.006206905469298363,-0.03524884581565857,0.011774462647736073,0.03242286294698715,-0.04737519845366478,0.05053587630391121,0.01863943412899971,0.009427255019545555,0.03212318196892738,0.030045758932828903,0.015288110822439194,0.022085977718234062,-0.04928567260503769,0.03711382672190666,0.028970330953598022,0.027017971500754356,0.014085033908486366,0.004843904171139002,-0.03514782339334488,-0.028724312782287598,-0.04556355997920036,0.01672234944999218,-0.0023931371979415417,-0.0662834420800209,-0.023923706263303757,0.009855199605226517,-0.03153211995959282,-0.005534135736525059,0.01683754473924637,-0.005184945184737444,0.026406006887555122,0.005095841828733683,0.006291249301284552,-0.016953108832240105,0.016678936779499054,0.0013260729610919952,0.029144998639822006,0.04149853065609932,-0.0015928053762763739,0.0851253941655159,0.03698047995567322,-0.0002903009008150548,-0.0016058508772403002,0.07470894604921341,0.002589782001450658,0.03281934931874275,-0.07774513959884644,0.02638055942952633,-0.0094607537612319,-0.0036901908461004496,-0.04903757572174072,0.003080337308347225,-0.026693927124142647,0.0340854674577713,-0.050679244101047516,-0.014073566533625126,-0.0630425438284874,-0.052228450775146484,0.006250388920307159,-0.0027619830798357725,-0.06814323365688324,-0.0391169898211956,0.03254369646310806,-0.012854755856096745,-0.022802036255598068,0.008817131631076336,-0.011156021617352962,-0.0076384162530303,-0.016525836661458015,-0.06862868368625641,0.048707492649555206,-0.04829072207212448,-0.12446149438619614,-0.008813979104161263,-0.05160189047455788,0.02378682605922222,-0.038944605737924576,-0.06586961448192596,-0.013700589537620544,-0.04486115276813507,-0.009558357298374176,-0.002471644664183259,0.00567428907379508,0.02649405039846897,-0.037014611065387726,0.061486102640628815,0.005834053736180067,0.02802935801446438,-0.029694588854908943,0.0006187913822941482,0.005238380748778582,0.0015702735399827361,-0.029033340513706207,-0.014400098472833633
b'\xe5\x88\x86\xe7\xb1\xbb',0.4025791883468628,1.6693272590637207,-1.6436920166015625,-0.6482241749763489,-0.5529220104217529,-0.3148987889289856,0.9639168381690979,-1.1697971820831299,2.1674084663391113,-2.731412649154663,-0.21048349142074585,0.23382876813411713,0.7584536075592041,-0.08738937973976135,-0.24358993768692017,-1.7156293392181396,-0.6030367612838745,-0.32006973028182983,-1.3937448263168335,-0.39190879464149475,-1.1404742002487183,0.9056872725486755,-0.4608578085899353,-0.9475305080413818,0.753178060054779,1.013939380645752,-0.9133682250976562,-1.2193305492401123,1.3327924013137817,0.5320457816123962,0.9689638614654541,0.5967541933059692,1.0143128633499146,-0.10514304041862488,1.1105153560638428,-1.7303454875946045,1.2174431085586548,-3.350658655166626,0.02998913824558258,-0.04910403490066528,-0.204755038022995,-0.8887035846710205,0.5598538517951965,0.9122532606124878,-0.009794301353394985,1.409812092781067,-0.561854898929596,-1.3222801685333252,-0.8151583075523376,-0.6874616146087646,0.868386447429657,0.9240000247955322,0.11470571160316467,-2.0555880069732666,-2.2764856815338135,1.5415977239608765,-1.243904948234558,0.5056776404380798,-0.8220681548118591,0.09213211387395859,-0.11219219863414764,0.5676860213279724,-1.0184842348098755,0.03820578008890152,1.6847186088562012,-0.6316480040550232,0.611492395401001,0.21945734322071075,-0.0654999315738678,1.6669390201568604,-0.039909783750772476,-0.03941323608160019,-1.485379695892334,0.5148409008979797,0.12801826000213623,-0.16238775849342346,1.1190509796142578,0.4034165143966675,1.151561975479126,-1.274429440498352,-0.14895771443843842,0.18607717752456665,-0.32914742827415466,-0.5093135833740234,1.8231123685836792,-1.0354253053665161,2.0025458335876465,-0.6510142087936401,-0.8773965835571289,0.6606863141059875,-0.8625735640525818,-0.16978411376476288,-1.4819133281707764,1.0354076623916626,-2.1059727668762207,0.8934906125068665,-0.46643495559692383,-0.2139756977558136,0.2012106478214264,1.383994221687317,-0.022024136036634445,-0.0015630358830094337,0.1261100471019745,-0.8782816529273987,-0.3449004292488098,-0.738298237323761,1.7318986654281616,0.6692579984664917,0.9060436487197876,1.035493016242981,-0.18773026764392853,1.87118399143219,-0.006509192753583193,-0.8363888263702393,-0.1080891340970993,-0.3470984697341919,-0.6945841312408447,2.0904929637908936,0.5468398332595825,-0.24596527218818665,-0.21631018817424774,-0.098276786506176,-0.05520464852452278,0.571620762348175,-0.4234950542449951,1.009656548500061,-1.1054039001464844,-0.6517641544342041,2.42372465133667,1.8455649614334106,-1.9870715141296387,1.7225427627563477,-0.5459181070327759,0.0867931991815567,1.2617770433425903,-1.0206942558288574,-0.9432454705238342,0.2392978072166443,-1.6239064931869507,-0.8251045346260071,-1.331001877784729,0.26539960503578186,2.0353920459747314,1.0400757789611816,0.23323595523834229,-0.48996007442474365,2.6079390048980713,-0.955941915512085,0.38173216581344604,-0.2405366152524948,-0.42737483978271484,1.1477503776550293,-0.579470694065094,-0.24804873764514923,0.1463724672794342,1.5812708139419556,2.1494553089141846,-1.740792989730835,-0.06279908865690231,-1.068000316619873,1.9168529510498047,0.9817493557929993,0.8161936402320862,0.8065396547317505,0.6452813744544983,-0.6036065220832825,-0.480010062456131,-1.7035218477249146,0.13157722353935242,0.3072740137577057,-0.32269150018692017,-0.7877745628356934,0.9445307850837708,0.3811308741569519,-0.6121671199798584,-0.5073497891426086,2.386312961578369,0.4745643138885498,0.8064571022987366,1.4331398010253906,1.5885953903198242,-0.021685678511857986,0.5833534598350525,0.2943444550037384,0.5601176023483276,1.1160821914672852,2.425196409225464,0.3823397755622864,-0.9078922867774963,-0.4078032076358795,-1.337895393371582,1.6178139448165894,-2.596522092819214,-0.18996071815490723,-0.620841383934021,-1.4027044773101807,-0.8485197424888611,-0.4578062891960144,-0.6362981796264648,0.3683636486530304,0.42933180928230286,0.4635864794254303,-0.9055355191230774,-1.022421956062317,-1.377083659172058,-0.12434703856706619,1.2447494268417358,-1.2173173427581787,0.46838250756263733,-0.5192126035690308,1.0175145864486694,0.3084339499473572,0.25893741846084595,-0.3724789321422577,-0.0320696197450161,-0.15767356753349304,0.47017383575439453,-0.93416827917099,0.49276474118232727,1.7782200574874878,-1.0760518312454224,0.7978600859642029,-0.8234025835990906,2.108118772506714,-1.6242176294326782,0.3178294003009796,-0.9471918940544128,-0.5218254327774048,1.6811028718948364,1.5145552158355713,-2.5696773529052734,-0.3006843030452728,1.2824565172195435,0.20050698518753052,0.2752917408943176,-0.756205677986145,-0.7501572966575623,0.43016791343688965,-1.077526569366455,-1.0827935934066772,-2.004152774810791,-1.2814987897872925,-1.4261242151260376,-1.5180327892303467,0.5696848630905151,1.7431789636611938,-0.37189942598342896,0.26364052295684814,0.3310476243495941,1.5276461839675903,-0.40589678287506104,-1.6081806421279907,-0.47251030802726746,0.4274199903011322,0.3780844509601593,-0.25309643149375916,0.7888461351394653,-0.27800995111465454,0.13840538263320923,-0.1667848825454712,-0.4430875778198242,-1.0345178842544556,0.48037731647491455,1.008015751838684,-1.9967299699783325,0.010601873509585857,0.9541202783584595,-2.448538303375244,2.250039577484131,-0.12208834290504456,0.5044774413108826,0.6836367249488831,0.029931405559182167,0.34928369522094727,-1.664641261100769,0.06694576144218445,-0.17987288534641266,-3.0036098957061768,0.3479873836040497,-1.1046563386917114,1.5078192949295044,0.18894590437412262,0.5521776080131531,-1.1606502532958984,0.5145142078399658,1.2350571155548096,-0.2888447344303131,-0.5059757232666016,1.1452730894088745,-1.4395160675048828,-0.6715900301933289,0.5800660848617554,1.3980708122253418,-0.4472999572753906,-0.5144782066345215,1.7181529998779297,-1.437564730644226,-0.6143106818199158,0.0285949669778347,0.9887218475341797,-0.1560373455286026,-0.7877711057662964,-0.0048429714515805244,-0.48820722103118896,-1.1028833389282227,-1.4336830377578735,-1.7745858430862427,1.0576070547103882,1.1195709705352783,0.3251394033432007,0.12584441900253296,-1.0812546014785767,1.2850639820098877,0.4219802916049957,-0.677498459815979,-1.2849645614624023,0.2338426411151886,1.2965550422668457,0.8328951001167297,1.619792103767395,0.9275767207145691,-0.22642946243286133,1.0297560691833496,1.7548011541366577,-0.8875250816345215,-0.10915707051753998,0.45733803510665894,0.20465131103992462,-1.2933719158172607,1.1027884483337402,-1.0292303562164307,1.7017440795898438,-1.124159336090088,-0.39690062403678894,0.6327685117721558,0.9450802803039551,1.2359269857406616,-1.4952641725540161,-1.7995885610580444,0.7586007714271545,-1.1282485723495483,-1.2668931484222412,-1.4326272010803223,-0.39470821619033813,-2.0543346405029297,-1.7337557077407837,-0.062080033123493195,0.2651902437210083,-0.13299787044525146,1.2042412757873535,0.08415193110704422,0.21928520500659943,-1.2702234983444214,-0.9355672001838684,0.5938072800636292,-1.4303054809570312,1.2521082162857056,1.035880446434021,-1.670607089996338,0.76167893409729,-0.38443273305892944,-0.8415205478668213,-1.0932708978652954,-0.7819282412528992,-1.522900104522705,-1.5561683177947998,1.2489674091339111,0.7465514540672302,0.5179483294487,-2.0997262001037598,-0.05452081561088562,0.19056124985218048,0.8887993097305298,2.0801565647125244,-0.5695822238922119,-1.5232632160186768,-0.7576587796211243,-0.37059175968170166,1.7980945110321045,-0.884756863117218,-1.0990896224975586,0.0668170228600502,1.0438809394836426,-0.505756676197052,0.4274955987930298,-1.4277315139770508,-0.5849958658218384,1.1958024501800537,-0.13483533263206482,0.9665213227272034,1.7700705528259277,0.3486933410167694,-0.6777086853981018,0.0380629301071167,-2.10984468460083,0.8114110827445984,-0.5348609089851379,-1.5383604764938354,-0.5271947383880615,-0.3493942618370056
b'\xe5\x85\xb1\xe5\xad\x98',0.9956197142601013,0.1304684728384018,0.47542497515678406,0.31117016077041626,0.9787008166313171,-0.29965680837631226,0.5772852897644043,-0.56016606092453,1.2087161540985107,-0.727859616279602,0.5364438891410828,-0.5008504986763,-0.7383018136024475,-0.36167705059051514,0.2729116678237915,-0.811485767364502,0.3189363181591034,-0.33772045373916626,-0.1030629500746727,-0.4392639100551605,0.45468565821647644,-0.5148186683654785,0.878800094127655,-1.0028969049453735,0.9001135230064392,0.17869262397289276,0.7116931080818176,-0.8170613050460815,-0.5776939392089844,-0.4802665114402771,0.2606419622898102,0.9830772280693054,-0.04695763438940048,0.13181708753108978,0.09739367663860321,-0.0914391577243805,0.3866715133190155,0.10939996689558029,-1.0898497104644775,0.014522495679557323,-0.3404160737991333,0.1361970156431198,-0.3611436188220978,-0.12677404284477234,0.0713346004486084,0.5245428681373596,0.49960437417030334,-0.006193338893353939,-0.21469174325466156,-1.1180229187011719,0.5536413788795471,0.40109509229660034,0.00833179522305727,0.7307152152061462,-0.10349009931087494,0.1304851621389389,-0.4586963653564453,0.4076784551143646,-1.2091673612594604,-0.37755119800567627,1.174013614654541,-0.34147918224334717,-0.8434470295906067,-1.055315613746643,0.869174599647522,-0.5782936811447144,-0.08176326751708984,-0.5073786973953247,-0.9082884192466736,0.323013037443161,0.9021899700164795,0.17431646585464478,-0.5580103993415833,1.8029603958129883,-0.03979039937257767,0.11159230023622513,0.540478527545929,-0.684219479560852,0.6312547922134399,-0.40314874053001404,-0.32781368494033813,-0.2985953092575073,-0.3102942407131195,-0.269047349691391,0.4039470851421356,0.016186164692044258,0.9436559677124023,-1.4718929529190063,1.100572943687439,0.2568186819553375,-2.0217809677124023,0.14964576065540314,0.3550887405872345,-0.41410431265830994,-0.32613906264305115,-0.33448830246925354,0.2534264326095581,0.031682997941970825,-0.10349150747060776,0.6923973560333252,0.3543928861618042,0.859746515750885,0.7517341375350952,-0.8071863651275635,-0.30345290899276733,-0.056609947234392166,-0.7802224159240723,-0.42600584030151367,0.9582497477531433,-0.21341364085674286,-0.7649109363555908,-0.13157081604003906,-0.9904302954673767,-0.20073848962783813,0.3026933968067169,-0.1673613041639328,0.10018959641456604,-0.786754846572876,0.5184466242790222,0.28705349564552307,1.0983713865280151,0.2095264196395874,0.21322667598724365,0.4705362915992737,0.4427282214164734,0.3865714371204376,-0.5969353318214417,-0.903175950050354,0.049034956842660904,-0.04440091550350189,-0.12901166081428528,0.9541143774986267,-0.8378404378890991,-0.8060725927352905,0.46354252099990845,0.3372957408428192,1.3913390636444092,0.08723242580890656,-1.229479432106018,-0.13718292117118835,-0.3211316764354706,-0.3525192439556122,0.22482065856456757,-1.2056264877319336,0.36340174078941345,-0.48034602403640747,0.5332705974578857,-0.8032183647155762,-0.014237814582884312,0.33483240008354187,-0.0926690474152565,1.254551649093628,0.14418476819992065,0.4390494227409363,-0.4474272131919861,-0.7377603054046631,-0.10978299379348755,-0.48827317357063293,0.3738407790660858,-0.7956932783126831,0.5048441886901855,0.25573334097862244,1.0527033805847168,0.7799555063247681,0.0853957012295723,1.4202492237091064,-0.15995320677757263,-0.019701361656188965,-1.1497418880462646,-0.02167191170156002,0.685607373714447,-0.15144293010234833,0.10627898573875427,-0.6767809987068176,-0.17920812964439392,-1.5873706340789795,-1.3483830690383911,0.4603961408138275,0.061773642897605896,0.3522889018058777,-0.13337288796901703,0.44069620966911316,-0.11777789890766144,-0.09667135030031204,-0.5932472348213196,0.3354600965976715,0.692866861820221,0.5465553402900696,0.9598957896232605,-0.732729434967041,0.5667929649353027,-0.13809986412525177,-0.6474974155426025,0.07638087123632431,-0.19513921439647675,0.9822819828987122,1.0325920581817627,-0.8191874623298645,-0.4981345534324646,-0.6129747629165649,-0.06800208985805511,-1.3924602270126343,0.10905209928750992,-0.6491906046867371,-1.2317414283752441,0.1193435862660408,-0.5870699286460876,-0.9859074354171753,1.1267591714859009,1.1100431680679321,1.1850348711013794,-0.16753007471561432,-0.3887019157409668,0.5774089097976685,0.28951495885849,-0.8167785406112671,-0.08968153595924377,-0.42180150747299194,0.33207499980926514,0.45897239446640015,-0.22907930612564087,-0.30113497376441956,-0.29295966029167175,-0.8520980477333069,0.7801685929298401,-0.02118399180471897,0.5668333768844604,-1.098917841911316,0.8171653747558594,0.40005266666412354,-0.773073136806488,0.034454699605703354,-0.45034146308898926,0.9381467700004578,1.223139762878418,1.0339598655700684,-0.9422223567962646,-0.5135048031806946,0.14002759754657745,-1.0230680704116821,0.4788159430027008,-0.5335646867752075,-0.8076258301734924,0.6224588751792908,0.5212426781654358,0.18263472616672516,-1.2170344591140747,0.2486003190279007,-1.1282861232757568,0.1338735967874527,0.096406489610672,-1.2125545740127563,-0.11300695687532425,0.2723739445209503,-0.502208948135376,-0.027152754366397858,0.31876736879348755,0.01597694680094719,0.2949881851673126,-0.2807918190956116,-1.1469546556472778,-0.7707730531692505,0.504514753818512,0.04710383340716362,-0.7750477194786072,0.6446934938430786,0.5444775223731995,-0.6018076539039612,1.3734867572784424,0.9680013656616211,-0.7148798108100891,0.5695831179618835,1.068580985069275,-0.3810483515262604,0.38251492381095886,-0.646354079246521,-0.5236608982086182,-0.9098981618881226,0.3539283573627472,-0.3866399824619293,-0.3720575273036957,-0.19229207932949066,-0.564763069152832,-0.349574476480484,-0.2067229449748993,-0.22146491706371307,0.362253338098526,0.7916245460510254,0.5398020148277283,-0.40048450231552124,-0.537472128868103,0.12687234580516815,-0.18759755790233612,1.0827010869979858,-0.08713717013597488,-0.43363890051841736,0.035857830196619034,0.22077734768390656,-0.7048214673995972,0.8301450610160828,-0.5865176320075989,-0.03759923204779625,0.9944674968719482,0.09733063727617264,-0.8547448515892029,-0.2902635633945465,-0.21087612211704254,-0.8161914944648743,0.6815898418426514,-0.5194676518440247,-1.66472589969635,1.008338212966919,-0.8295266628265381,0.3347558379173279,-0.14283081889152527,0.20458181202411652,-1.112000823020935,1.1425244808197021,-0.8707917928695679,0.6366739273071289,-0.09960870444774628,0.37817907333374023,0.24777191877365112,0.4975548982620239,-0.19561970233917236,0.14188027381896973,0.7752560973167419,0.025299616158008575,-0.5220864415168762,-0.19664688408374786,0.36195454001426697,0.3568170964717865,0.0866883248090744,0.043974582105875015,-1.081708550453186,0.6255393028259277,-0.5993574857711792,-0.43452924489974976,-0.6972869634628296,0.5064515471458435,0.4697410762310028,-1.0424479246139526,0.7951682209968567,-0.07765868306159973,-0.5057085752487183,-0.4629743695259094,-0.762970507144928,0.6789807081222534,-0.5171380043029785,0.8809155821800232,-0.8015276789665222,0.49843084812164307,-0.3101561665534973,0.28504958748817444,0.11202422529459,0.006777271628379822,0.30507898330688477,-0.05092129111289978,0.2981426417827606,-0.1195429116487503,0.7251962423324585,0.5974364876747131,0.7330924272537231,-0.971015453338623,-0.687519907951355,-0.056757498532533646,-0.1550435572862625,-0.8389160633087158,-0.40579792857170105,-0.10686337202787399,0.45422884821891785,-0.19392459094524384,-0.5831592082977295,0.6640998721122742,-0.4153828024864197,-0.3397639989852905,0.53731769323349,0.9216668605804443,-0.5715430378913879,0.235781729221344,0.8470095992088318,-0.9734865427017212,-0.10481873154640198,-0.33616918325424194,0.7206189632415771,0.3427143692970276,-0.5852152109146118,0.20452813804149628,-0.29659202694892883,0.22761866450309753,-0.6299191117286682,0.10012108832597733,-0.10350465029478073,-0.06592818349599838,0.4827158451080322,1.093775987625122,0.11699807643890381,-0.2267330437898636,0.1496579349040985,-0.4636980891227722
b'\xe9\x89\xb4\xe5\xae\x9a',0.41792726516723633,0.9403008222579956,0.9545369744300842,0.20103786885738373,-0.16251875460147858,0.9719902873039246,-0.20534208416938782,-1.2302534580230713,1.9802017211914062,-1.6203678846359253,-0.36151623725891113,-1.5552747249603271,-0.41980433464050293,0.47392985224723816,0.3672797977924347,0.08451288193464279,0.9501567482948303,0.021304907277226448,0.1180262416601181,0.6606435179710388,-0.3636852502822876,-0.28589338064193726,0.44133153557777405,0.34865787625312805,-0.972201943397522,1.3025403022766113,0.42311620712280273,-0.8955808281898499,0.6483491063117981,-1.778409481048584,-0.10800791531801224,0.44621387124061584,0.05100715160369873,-1.0017662048339844,-0.14030404388904572,0.002768435748293996,1.425959825515747,0.3278162479400635,1.1431748867034912,0.10529354214668274,1.0666332244873047,0.8119663596153259,-0.4708946645259857,0.352937251329422,2.087512731552124,-0.5226991176605225,-0.768950343132019,0.9927298426628113,0.2557922899723053,-0.5650098323822021,0.3724147379398346,0.8379675149917603,1.1391693353652954,0.4205298125743866,-1.0443665981292725,0.2821938395500183,0.7908685207366943,-2.9873335361480713,-0.2655077278614044,1.2950799465179443,0.7525281310081482,0.46962547302246094,-0.6684533357620239,-0.6807736754417419,1.9606493711471558,-0.7330707907676697,0.622697651386261,-0.0024909540079534054,1.3423058986663818,1.9542709589004517,-0.6733408570289612,-1.6340651512145996,-1.282697319984436,-0.2282777577638626,0.4631154537200928,-0.4104830026626587,-0.3209652006626129,0.7067989706993103,0.17329813539981842,-0.19027580320835114,-0.9852830171585083,2.0159010887145996,2.0913023948669434,-0.2939724624156952,-0.24809174239635468,-0.453311026096344,-0.6300297975540161,0.25470221042633057,-0.1522456556558609,-0.7598620653152466,0.10383842885494232,-0.34493139386177063,-1.009163737297058,1.2080931663513184,-0.9315488934516907,0.16996857523918152,-0.9057807922363281,-1.766997218132019,0.26978036761283875,0.2634775936603546,-0.6619929671287537,0.32989755272865295,0.4499799609184265,-0.7364409565925598,-1.9173494577407837,0.3617691397666931,-0.2782095968723297,2.53855037689209,-0.6791867017745972,0.01123180240392685,0.39431044459342957,-0.17058172821998596,0.8308777213096619,-0.755344569683075,0.9698587656021118,-0.4285312294960022,1.5329509973526,1.1514934301376343,0.7392433881759644,-1.0557194948196411,0.9376844763755798,0.4181647300720215,0.6869624257087708,-0.02585240826010704,-0.6882651448249817,0.530592679977417,1.213868498802185,-0.19746091961860657,0.5919982194900513,0.45968014001846313,-0.8846823573112488,0.3702943027019501,-0.5487584471702576,-0.5573626160621643,0.09330591559410095,1.6825615167617798,0.9045632481575012,-1.344862461090088,-0.8798968195915222,0.2546451985836029,-0.4985363483428955,-1.321973443031311,1.945313572883606,1.890743374824524,-1.5730358362197876,-0.302156925201416,-0.13166481256484985,0.21996517479419708,0.28514400124549866,-0.8807706236839294,0.23698899149894714,0.3041096031665802,-0.21305550634860992,0.644452691078186,0.8335729837417603,1.647618293762207,1.8081262111663818,-1.3608039617538452,-0.5574315786361694,-1.1924622058868408,0.580018162727356,1.7871965169906616,0.6243791580200195,1.847862958908081,1.2965813875198364,0.37666165828704834,-0.6948230266571045,0.6060365438461304,-0.6766815781593323,0.007676741108298302,-0.21272806823253632,-1.021958827972412,-0.6248419284820557,-0.9137966632843018,1.5166230201721191,0.8921712636947632,1.1570639610290527,0.6932827830314636,0.3330659568309784,1.9491050243377686,-0.7014746069908142,-0.04078143835067749,1.508894443511963,0.32140153646469116,-0.6268542408943176,-0.9281947016716003,0.9436547756195068,0.4993552267551422,-0.9691162109375,-0.012781115248799324,-2.5480542182922363,-1.515342354774475,-0.5653187036514282,-0.7435888648033142,1.7033847570419312,0.14724259078502655,-0.06695998460054398,-0.05540372431278229,0.7051592469215393,-0.2464469075202942,1.6978856325149536,-0.23139512538909912,0.2008790224790573,-0.24899542331695557,-0.7026930451393127,-0.2292785346508026,1.266441822052002,-2.013263702392578,-0.9332987070083618,-1.1090209484100342,0.2781478464603424,0.14465148746967316,-0.9155817031860352,0.8980787396430969,0.028879165649414062,1.4476622343063354,0.9278708100318909,-0.4590628445148468,-0.6527678966522217,-0.812791645526886,-0.9844470024108887,0.6374220252037048,1.1493091583251953,0.2295757532119751,-0.5726704001426697,0.2198249250650406,0.7909917831420898,0.0966143012046814,-0.855319082736969,1.228615164756775,1.1236894130706787,0.671503484249115,-0.1748957484960556,1.15016508102417,1.0168704986572266,-0.851751446723938,-1.9839540719985962,0.43966981768608093,-0.8861868977546692,-0.7512649297714233,0.5020902752876282,-0.5703160166740417,0.41035619378089905,-1.021620750427246,0.27498602867126465,1.9226157665252686,-0.6060807108879089,1.2272919416427612,0.5499510765075684,1.3203858137130737,-1.2256903648376465,-0.4503065049648285,0.5108726620674133,-1.2176491022109985,-0.04898452386260033,-0.3766936957836151,0.9606923460960388,0.5161615610122681,0.789548397064209,1.0758899450302124,-1.5854600667953491,-0.5816441178321838,-3.050370693206787,2.500279664993286,-0.29144084453582764,-0.11270759254693985,1.4440674781799316,-1.1245566606521606,-0.5013011693954468,-0.16680169105529785,0.6523276567459106,-0.02678203582763672,1.7418527603149414,-1.0308750867843628,1.3566814661026,-1.4661709070205688,-0.6947051286697388,-0.29788118600845337,-0.06722487509250641,0.6894702315330505,0.41938671469688416,0.4847656786441803,0.7311749458312988,1.1061954498291016,-0.06324398517608643,0.6220356225967407,1.0450953245162964,0.3971545696258545,0.3507077395915985,0.035110536962747574,-0.961304247379303,0.47894880175590515,-0.2472330778837204,0.4726620316505432,0.6408888101577759,0.9570029377937317,-0.02279435656964779,0.5016230344772339,-1.3727314472198486,-0.953628420829773,-0.04077595844864845,-1.2696751356124878,0.8071516156196594,-2.6098928451538086,1.057844877243042,-0.8034915328025818,-1.5512953996658325,2.2606804370880127,0.5772218704223633,0.747873842716217,-0.31917834281921387,-0.9033365249633789,0.3960874378681183,-0.6166274547576904,-0.007356708869338036,-0.6261414885520935,-0.5213661789894104,0.21066436171531677,-1.6623972654342651,0.6364742517471313,0.10603763163089752,-1.8278919458389282,1.7206522226333618,-1.3326365947723389,0.8433482050895691,0.01320080179721117,1.8447917699813843,0.3820632994174957,-2.5191516876220703,-0.009738034568727016,2.366673469543457,-1.2092849016189575,-0.14771109819412231,-0.8553722500801086,0.13794463872909546,1.5150667428970337,-2.0589630603790283,-1.6650846004486084,-0.288813978433609,-1.388379454612732,-1.5970041751861572,-0.702328085899353,-0.6165894269943237,-1.2726813554763794,-0.19534927606582642,-0.8793890476226807,-0.5120856761932373,0.7845696806907654,0.04586934670805931,0.24375510215759277,0.9877397418022156,-1.5013686418533325,-1.1690752506256104,0.7909848093986511,1.0704834461212158,-1.6586878299713135,0.8159270286560059,-0.48120614886283875,-1.395362377166748,-1.355536699295044,-0.29296597838401794,2.189509630203247,-0.4412100911140442,-0.16843339800834656,-1.4568034410476685,-0.8417448401451111,-0.7440872192382812,-0.36516448855400085,-0.7211509943008423,-1.7329261302947998,0.31980422139167786,-0.33519697189331055,-1.3115315437316895,0.12603019177913666,0.6133729815483093,-0.6603448987007141,-1.342969536781311,-2.051981210708618,0.9626649618148804,0.6767385005950928,0.5732700228691101,-0.2662058472633362,-0.2273039072751999,-1.8300737142562866,0.6789771914482117,0.17932462692260742,-0.6489654183387756,-3.905637264251709,0.8641548752784729,-0.05757647380232811,-0.3301130533218384,1.0682239532470703,-1.6703391075134277,0.5773527026176453,-0.6673960089683533,-0.9503223299980164,0.42197808623313904,-1.5957286357879639,0.03796921670436859,-0.7073459625244141
b'\xe6\x99\xb6',0.3804827034473419,-0.6042088270187378,0.46017882227897644,-0.049476537853479385,0.9692428112030029,-0.2922729253768921,0.3280335068702698,0.19537821412086487,0.8258558511734009,0.7895039916038513,-0.016730897128582,-0.5796762108802795,0.26359090209007263,0.8867002129554749,0.12683767080307007,1.4473015069961548,-0.015476142056286335,0.9683793783187866,0.3717556893825531,-0.05208641663193703,-0.0629938617348671,-0.7805822491645813,0.7975792288780212,1.0467076301574707,0.983354389667511,0.31543922424316406,0.35267990827560425,-0.027351966127753258,-0.9083101153373718,0.9395010471343994,-0.07839730381965637,0.06079629808664322,0.5593096613883972,-0.0699315294623375,0.1585986167192459,0.4508971571922302,0.011529390700161457,0.2582789361476898,-0.854830265045166,0.8520723581314087,0.1560383439064026,-0.16481736302375793,1.220553994178772,-0.048585161566734314,-1.3305261135101318,-0.9666458964347839,-2.1859214305877686,-0.38138487935066223,0.718579113483429,0.18917100131511688,-0.25634804368019104,0.3367374539375305,0.3964557349681854,0.4934979975223541,1.340562343597412,0.6077942848205566,-0.7686870098114014,-0.0027198316529393196,1.4377285242080688,-0.8860080242156982,0.017720067873597145,-0.3497745990753174,-0.3267711400985718,-0.37170514464378357,0.6891041994094849,0.02332305535674095,-0.6209893822669983,-0.8452156186103821,0.32648777961730957,-0.2511981129646301,1.0594956874847412,0.4530840516090393,-0.2030973881483078,-0.11735513806343079,-0.2582266628742218,-0.2840990126132965,0.9375576972961426,-0.5382521152496338,-0.2507752776145935,0.17689652740955353,-1.4656716585159302,-0.2457408457994461,-0.3834161162376404,-0.36903828382492065,0.866188108921051,1.128530740737915,-0.3593662977218628,0.6143321394920349,0.5830560922622681,-0.4059861898422241,0.9926127791404724,0.7725234031677246,-0.5280096530914307,-0.3399745523929596,0.13962186872959137,-0.3779759705066681,0.33908340334892273,0.08899714052677155,0.4235313832759857,0.6064073443412781,-0.3608621060848236,0.5634345412254333,0.154254749417305,-0.04274298623204231,0.13610316812992096,-0.2975426912307739,-1.22847580909729,-0.4344330132007599,1.1972824335098267,-1.333011507987976,0.3825436234474182,-1.2264915704727173,0.1757669299840927,0.4412948489189148,-1.3595765829086304,-0.5297929048538208,0.8717164993286133,-0.1822260618209839,0.6167119145393372,0.2615368366241455,0.5120348334312439,0.7328508496284485,0.6091987490653992,0.3137888014316559,0.5271422266960144,0.4280416667461395,1.3454700708389282,-0.4704325795173645,-0.89519202709198,-0.934504508972168,1.0196834802627563,-1.4561800956726074,0.6539943218231201,-0.7359004616737366,-0.6510190367698669,1.5431581735610962,-0.7829469442367554,0.20461703836917877,-0.5160351991653442,0.8392593860626221,0.7179224491119385,0.4448172152042389,0.5580957531929016,0.21573802828788757,0.1832217276096344,0.5035523176193237,-0.571300745010376,-0.48815488815307617,0.11086354404687881,1.0329153537750244,-0.2873063385486603,0.41610825061798096,-0.21595856547355652,0.3795948326587677,0.2105754017829895,-0.9524677991867065,-0.2414478361606598,0.6001149415969849,0.23866453766822815,-1.2266227006912231,0.11892189830541611,-0.36716321110725403,0.07267161458730698,0.36200183629989624,0.8389629125595093,1.3191187381744385,0.05525219812989235,0.14344492554664612,-0.32491248846054077,-0.048582348972558975,0.8964683413505554,-0.14972275495529175,-0.1633448749780655,0.45504990220069885,-1.0240989923477173,0.22970271110534668,-0.1146153137087822,-1.0834144353866577,-0.2553107440471649,-0.4524541199207306,-1.0269907712936401,0.6422655582427979,0.1458788812160492,-0.34979403018951416,-0.2105618566274643,-0.87259441614151,0.5143517851829529,-1.0633913278579712,-0.39317086338996887,-0.8209455609321594,0.5454992651939392,-0.5775102972984314,0.25110265612602234,-1.1950910091400146,1.7572699785232544,-0.9248799681663513,0.34097936749458313,-0.08608625829219818,-0.025336500257253647,-0.20007778704166412,-0.38911595940589905,-0.34959515929222107,-0.7654253840446472,-0.16128644347190857,-0.6050055623054504,0.0610395185649395,0.08157119899988174,-0.4160897731781006,1.0565447807312012,-0.633686363697052,0.9560014605522156,-0.43369925022125244,-0.4478464126586914,0.09219423681497574,0.6214244961738586,0.7575867176055908,-0.003910790663212538,0.5316473841667175,0.38862958550453186,-0.6787424683570862,0.6654496788978577,-0.6021897196769714,-0.1437775194644928,-1.1955502033233643,-0.8028544187545776,-0.5602597594261169,-0.18888020515441895,1.0431581735610962,0.965783953666687,-0.594876766204834,-0.6073550581932068,0.7091707587242126,0.10036669671535492,-1.0160950422286987,-0.8887320756912231,1.1249433755874634,0.22620557248592377,-0.4596095085144043,-0.1673901230096817,-0.6970674991607666,-0.2662237584590912,0.07727467268705368,-1.3357343673706055,-1.0771980285644531,-1.5007212162017822,0.2354806810617447,-0.33949699997901917,-0.4857814908027649,-0.537686288356781,-0.8265464901924133,0.6661481261253357,0.20091666281223297,0.916684627532959,-0.41532737016677856,1.1465851068496704,0.023310326039791107,-0.07284750789403915,0.35201165080070496,-0.9800800681114197,-0.8937440514564514,-0.5840084552764893,0.3748254179954529,0.6985540390014648,0.017022311687469482,-0.45650121569633484,0.06546486169099808,-0.4031113088130951,0.41248831152915955,0.7011127471923828,-0.5270228981971741,0.939841628074646,0.25166696310043335,0.38415074348449707,0.12131553143262863,-0.7994553446769714,-0.5612406730651855,1.254738211631775,-0.621222198009491,-1.339153528213501,-0.18798765540122986,0.523902416229248,-1.1220440864562988,-0.38214606046676636,0.21806664764881134,0.03789515420794487,0.9324402213096619,-0.7478329539299011,-0.6858794093132019,-0.8848987221717834,0.5969200134277344,1.095949411392212,-1.1704413890838623,-0.8019909262657166,0.5164405107498169,-0.11448363959789276,0.07137639075517654,0.3911251425743103,-0.12164071202278137,-1.2880685329437256,-0.8318978548049927,0.9525898694992065,-0.5564962029457092,0.9189575910568237,-0.7306923866271973,-0.1372210830450058,-0.9245766997337341,-1.0626188516616821,-1.2115211486816406,-0.4610940217971802,0.14323949813842773,-0.20086774230003357,1.4159048795700073,-0.37583035230636597,-0.2370924949645996,1.1396021842956543,0.05134290084242821,-0.3884035646915436,-0.9288588166236877,-0.34236955642700195,-0.5645759701728821,-0.044974636286497116,-0.08324714004993439,0.05884533375501633,-0.5951678156852722,-0.36602678894996643,0.30208471417427063,-0.617645263671875,0.2614136040210724,0.41101503372192383,0.020094208419322968,1.0737888813018799,0.8556491136550903,-0.13328322768211365,0.35723716020584106,-0.20633654296398163,-1.485954761505127,-1.0927481651306152,-0.9819959402084351,0.47043946385383606,0.1259608119726181,0.18561869859695435,-0.32906073331832886,0.23699180781841278,1.1291767358779907,0.19533556699752808,0.713388979434967,-0.4824329912662506,-0.8974359035491943,-0.3327077329158783,0.4223373830318451,-0.188889741897583,-0.09517133980989456,-1.5979671478271484,-0.49000445008277893,0.6105322241783142,2.116621732711792,-0.12657366693019867,-0.19730718433856964,-1.532738208770752,0.25803613662719727,0.26796671748161316,1.3454722166061401,-0.4699680805206299,0.1571212112903595,-0.39948558807373047,-0.7063368558883667,-0.6218061447143555,-0.14398455619812012,-0.07054128497838974,-0.896921694278717,0.49974000453948975,0.21756485104560852,-0.9757121205329895,0.5073803663253784,0.44278642535209656,0.22851893305778503,2.05556321144104,-0.14418479800224304,0.2601691484451294,-0.33459314703941345,-0.29306045174598694,0.6273606419563293,0.13702870905399323,-0.28972354531288147,0.5619705319404602,0.3919338881969452,0.8255307078361511,-0.3303702175617218,-1.800309419631958,0.12012466788291931,0.08027610927820206,-0.3774769604206085,-0.5015758275985718,0.21629402041435242,-1.1286401748657227,0.008581987582147121,1.0555832386016846,-0.35958126187324524,-0.8359447121620178,0.2750416398048401
b'\xe5\xbb\xba\xe7\xab\x8b',0.5869702100753784,1.6041394472122192,-0.5026757121086121,-0.36696019768714905,0.044386107474565506,-1.124920129776001,-1.2110295295715332,-1.1726024150848389,0.6820903420448303,-0.21779601275920868,-1.6255452632904053,-0.8369972109794617,-3.626617670059204,-0.10523233562707901,0.33417218923568726,0.1749633401632309,0.43673115968704224,0.35083866119384766,-1.8911627531051636,0.7257192134857178,0.5924941301345825,2.0370919704437256,0.28677913546562195,-1.4289740324020386,0.8123433589935303,0.4845536947250366,0.7861924767494202,-1.9637930393218994,-1.8222370147705078,0.8457982540130615,1.836307406425476,0.49213093519210815,1.016105055809021,1.15925931930542,-0.31386905908584595,-1.4673479795455933,-1.3847960233688354,-0.12780754268169403,0.2545965909957886,-1.6738615036010742,-0.17416930198669434,1.3022511005401611,-0.754351019859314,-1.1284027099609375,1.3309478759765625,-0.44145190715789795,0.6198039650917053,-0.336060494184494,-2.17254900932312,-1.321534276008606,2.1515297889709473,-0.6269719004631042,2.5654356479644775,-0.7942924499511719,-0.25038471817970276,0.7367689609527588,1.412625789642334,-0.1831555813550949,0.1482369750738144,0.9913253784179688,-1.1081887483596802,0.25024303793907166,-0.8938514590263367,1.8983944654464722,-1.1243934631347656,-0.041666675359010696,2.116284132003784,0.4847338795661926,0.056904058903455734,1.7853784561157227,-0.17402870953083038,-1.1258361339569092,-0.17426851391792297,0.9456965327262878,-0.5744311213493347,2.4429681301116943,0.3451646864414215,-0.7775364518165588,1.2386292219161987,-0.8564596176147461,-0.8955519199371338,1.7540291547775269,-1.8381574153900146,-1.0879194736480713,1.9496647119522095,0.9482406377792358,0.6914270520210266,-2.097487449645996,0.678220272064209,-1.0319370031356812,-1.3985203504562378,1.5587306022644043,-1.3679038286209106,0.2481662929058075,-0.25981271266937256,1.5139082670211792,-0.6623430848121643,-0.7908912301063538,0.4112442135810852,0.5932583212852478,0.6175865530967712,0.8747476935386658,1.1673287153244019,-0.9442853331565857,0.5178080797195435,-2.9454524517059326,-0.5946358442306519,0.876408040523529,-0.37832412123680115,-1.0976403951644897,-0.7202869057655334,-0.9412708282470703,0.7261390686035156,-0.7969189286231995,-0.7848224639892578,-1.424161434173584,2.4384288787841797,0.8688666224479675,-1.2650631666183472,2.0484628677368164,1.1305714845657349,-1.0814218521118164,0.7217921614646912,2.617661714553833,0.4790274500846863,-0.4357239902019501,-2.204991102218628,-1.146180272102356,-0.5189332962036133,-1.5206658840179443,-0.31341713666915894,0.04546036571264267,0.6804986000061035,-0.9550365805625916,0.761013925075531,-0.3271360695362091,1.2504342794418335,0.5705477595329285,0.6965429782867432,-0.506200909614563,0.03110998496413231,1.0288326740264893,-0.07720975577831268,-0.51026850938797,1.3979313373565674,-0.716453492641449,1.9775571823120117,-0.5553257465362549,-0.6753581166267395,-1.7680319547653198,-0.879120409488678,0.37542393803596497,1.3694974184036255,-0.03634995222091675,0.3868917226791382,0.32012397050857544,1.4731636047363281,0.6407543420791626,1.79485023021698,1.2643566131591797,1.7946947813034058,-0.7810819745063782,2.6056313514709473,0.06366978585720062,-2.1519582271575928,1.576258659362793,0.1669923961162567,0.22561168670654297,-1.8074486255645752,-0.6365921497344971,0.27187758684158325,0.14177271723747253,0.7214680314064026,-0.10279562324285507,1.51420259475708,-1.5594069957733154,-0.08872197568416595,1.6983529329299927,0.7702991366386414,0.9897270798683167,1.8403171300888062,0.8843775987625122,2.37646484375,0.11998843401670456,-0.03372945263981819,-0.31743595004081726,-0.4839112162590027,0.898353099822998,0.9147956967353821,-1.9847332239151,-1.8520587682724,1.1636090278625488,-1.0581669807434082,1.5545742511749268,1.0713485479354858,2.5772197246551514,0.005483613815158606,0.6397829055786133,-0.5255851149559021,-2.305128335952759,0.1630902737379074,-0.656775176525116,1.3453929424285889,-1.8075565099716187,-0.3468640148639679,-0.5515301823616028,1.2060168981552124,0.6186375617980957,-0.5326215028762817,-0.7679402828216553,0.20372901856899261,2.1858325004577637,-1.3191428184509277,1.5890324115753174,-0.8786434531211853,0.6709364652633667,-0.814655601978302,-0.46693795919418335,1.2291227579116821,1.419784426689148,-0.33143600821495056,1.4831523895263672,-0.9237859845161438,0.3480924665927887,1.5703063011169434,-0.3842165470123291,0.770743727684021,-0.8691268563270569,0.6033029556274414,-0.3948189318180084,-0.3572824001312256,1.1493384838104248,1.3775434494018555,1.2582417726516724,-1.014504313468933,0.01610442064702511,-0.0021548750810325146,0.412531316280365,1.6151021718978882,-1.0707826614379883,-0.394300639629364,-0.6918215751647949,-0.5128770470619202,0.9033263325691223,1.0886480808258057,-1.499550461769104,-0.029302671551704407,0.5149742960929871,0.7485716938972473,0.6485800743103027,-0.12216752767562866,0.14261774718761444,-2.377002239227295,0.07388462126255035,-1.230554461479187,0.030769549310207367,0.7387398481369019,1.9435523748397827,3.0786821842193604,0.4646475911140442,-0.7457691431045532,-0.06404025107622147,0.4216379225254059,-1.5428471565246582,-1.8320411443710327,-0.7514782547950745,2.3533008098602295,0.25521212816238403,1.1643011569976807,2.87953782081604,0.2929493188858032,0.2029457688331604,0.7495816946029663,-0.9299689531326294,-0.35485684871673584,-0.5928931832313538,0.13951389491558075,-0.5594618320465088,3.0525295734405518,0.5703635811805725,-0.9631319046020508,0.13641439378261566,-0.44919028878211975,-0.9828107953071594,1.7734718322753906,-1.5840409994125366,1.3631435632705688,1.7014710903167725,2.3703906536102295,0.2297416776418686,-2.107412338256836,0.8784183263778687,1.177523136138916,-0.07741669565439224,0.11898814886808395,-1.4523727893829346,0.1720336377620697,1.1302460432052612,-0.7635855674743652,0.5091663599014282,-2.6389145851135254,-0.07828933745622635,0.09408595412969589,0.6317143440246582,-0.7638307809829712,-1.1888701915740967,-0.6567608714103699,1.4954897165298462,1.7254133224487305,-2.2041640281677246,0.03765331208705902,0.31942662596702576,-0.553300678730011,0.2832072079181671,-0.052137620747089386,-1.192907691001892,-0.5199123620986938,0.3208468556404114,1.676231861114502,-1.1150976419448853,-0.7312867045402527,-2.7848618030548096,1.7010875940322876,-0.9193012714385986,0.23623929917812347,-0.2054106891155243,0.809126079082489,0.1864805370569229,0.6028401255607605,-1.0559664964675903,1.323908805847168,2.1710615158081055,0.46622025966644287,-0.0644470676779747,-1.8919401168823242,0.4085713028907776,-0.35136982798576355,0.3633844554424286,-0.23939715325832367,0.6282707452774048,0.23438076674938202,-0.08756431937217712,2.1660842895507812,-1.5210107564926147,0.7416917681694031,-1.6801894903182983,-1.2178696393966675,0.1826617419719696,-0.24471789598464966,0.1528875082731247,-0.0888553261756897,-0.7357759475708008,-0.1677115112543106,0.22307686507701874,-0.45820510387420654,-2.734360933303833,0.3957462012767792,1.8929800987243652,1.4886505603790283,-1.77566659450531,-0.14407601952552795,-0.20001137256622314,-1.4447693824768066,2.1796393394470215,-1.5885249376296997,0.24863238632678986,-0.47435399889945984,-0.6830427050590515,-1.9877430200576782,-0.019965093582868576,0.43980342149734497,0.874077558517456,-1.100454568862915,3.3557217121124268,-0.8247430324554443,1.3288445472717285,-3.263734817504883,1.321378469467163,0.6750888824462891,2.2139437198638916,1.1274818181991577,0.42913147807121277,-0.8882417678833008,-1.4747358560562134,-0.38351356983184814,0.07411821186542511,-1.5185635089874268,-1.204300880432129,1.0921636819839478,0.3817160129547119,1.1126049757003784,2.0289294719696045,0.0024780631065368652,0.6734066605567932,1.4696378707885742,2.2955541610717773,0.7473069429397583,-1.0584955215454102,0.01053409930318594,0.10958690941333771
b'\xe6\x98\xbe\xe5\xbe\xae',0.27951592206954956,0.10357324779033661,-0.09517208486795425,-0.34800562262535095,0.08199562877416611,0.2312193661928177,-0.4953717887401581,-0.13866384327411652,0.08900130540132523,0.16837948560714722,-0.3237852454185486,0.30868658423423767,0.561281144618988,0.2992796003818512,-0.21960119903087616,0.0900161936879158,0.6217381954193115,-0.407118022441864,-0.5810014009475708,-0.23659391701221466,0.24885603785514832,-0.3488427996635437,0.16128316521644592,-0.5734263062477112,0.28348493576049805,-0.002161715878173709,0.16388766467571259,-0.7886542081832886,0.5529322028160095,-0.46341705322265625,0.2522997260093689,0.06397918611764908,0.054374292492866516,0.21140353381633759,0.25604555010795593,-0.5783287882804871,0.2094072848558426,0.16711652278900146,0.8026348352432251,-0.29495492577552795,0.1835460066795349,0.30616405606269836,-0.07374299317598343,-0.00431275088340044,0.0989394560456276,-0.65419602394104,-0.19987085461616516,-0.17529644072055817,0.39824333786964417,0.030303072184324265,0.21937349438667297,0.27535319328308105,-0.05380916967988014,0.03920065239071846,0.20397436618804932,-0.11374329030513763,-0.020409170538187027,-0.5476042628288269,-0.142706960439682,-0.06975129246711731,-0.41440722346305847,0.3439384400844574,0.31689271330833435,-0.22581203281879425,0.7016327977180481,-0.2394905537366867,-0.2470087707042694,-0.39057689905166626,-0.22274915874004364,0.34011179208755493,0.10457906126976013,-0.33255720138549805,-0.3677841126918793,0.04075630009174347,-0.53245609998703,0.362702339887619,-0.22778910398483276,0.2947600781917572,0.7761498093605042,0.3628249168395996,-0.27924537658691406,0.32715511322021484,0.34213656187057495,-0.9515101909637451,-0.04415370523929596,-0.5071885585784912,0.06439607590436935,0.33494991064071655,-0.15419802069664001,0.38711613416671753,0.02790052816271782,-0.006261778064072132,-0.4826483726501465,-0.18875256180763245,-0.2532179653644562,-0.09369027614593506,0.0604666993021965,-0.279814213514328,0.00353759853169322,0.20614312589168549,-0.3017769157886505,-0.13820083439350128,-0.49627429246902466,-0.6263270974159241,0.12173733115196228,-0.42373985052108765,-0.27548614144325256,0.7403683066368103,0.10424149036407471,-0.17932634055614471,-0.13762669265270233,0.2471068650484085,0.25649869441986084,0.24879349768161774,-0.4982704818248749,0.11620820313692093,-0.2008046656847,-0.013023685663938522,-0.08700362592935562,0.18209481239318848,0.27911177277565,0.041852474212646484,-0.1902778446674347,0.35293257236480713,-0.19223462045192719,0.004043475724756718,0.4930743873119354,-0.4024019241333008,-0.52950119972229,-0.13697315752506256,0.2758849561214447,0.07800985127687454,-0.507036566734314,0.07381270825862885,-0.00717877596616745,0.35701149702072144,-0.12211786210536957,-0.24514813721179962,-0.16049069166183472,-0.20248457789421082,0.6166169047355652,-0.18535436689853668,0.2507375478744507,0.804148256778717,-0.23074232041835785,-0.3903074860572815,0.24066096544265747,-0.3670364320278168,0.09961986541748047,0.15666840970516205,0.49255451560020447,0.34520408511161804,-0.08093774318695068,-0.11103224754333496,0.563819944858551,-0.09998811036348343,0.4615156948566437,-0.417426735162735,-0.024469928815960884,-0.4466382563114166,-0.26299378275871277,0.806814432144165,0.17486415803432465,0.7194331884384155,0.11528591066598892,-0.22406773269176483,0.41219326853752136,-0.7026476263999939,0.1491766721010208,0.10620684176683426,-0.41380318999290466,-0.03297882527112961,0.5257939100265503,0.010694663971662521,-0.6282047629356384,-0.06613092869520187,0.6276055574417114,-0.43482184410095215,0.606745183467865,0.6335116624832153,-0.7757288813591003,0.197386234998703,0.3136296272277832,-0.25389987230300903,-0.2245379090309143,0.48849061131477356,-0.22003087401390076,-0.01485743373632431,-0.3181135952472687,-0.6786656379699707,-0.05359882861375809,-0.29434388875961304,0.017742585390806198,0.15811772644519806,-0.06110524386167526,-0.15896277129650116,-0.23066845536231995,-0.011286212131381035,-0.2213054895401001,-0.6309185028076172,0.3062531352043152,-0.3920764923095703,-0.27667495608329773,-0.7447649240493774,-0.10028733313083649,0.2647557258605957,-0.11483980715274811,-0.27828675508499146,0.5773899555206299,-0.47674131393432617,0.4263536036014557,0.4322439730167389,-0.06006063148379326,0.24961017072200775,-0.5540193319320679,-0.28225433826446533,0.08710840344429016,-0.5022069215774536,0.3199268579483032,-0.42625123262405396,-0.20646317303180695,-0.37964871525764465,0.07257083058357239,0.6783446073532104,-0.7122668623924255,-0.06088969483971596,-0.19241705536842346,-0.2092539370059967,0.3880906105041504,-0.17759940028190613,0.7638677954673767,-0.265328973531723,0.11043789237737656,-0.4024186432361603,0.5150834918022156,-0.015718961134552956,-0.5992342233657837,-0.1658782660961151,-0.039423830807209015,-0.16629470884799957,-0.37596553564071655,-0.2943163514137268,-0.31394529342651367,-0.17952470481395721,-0.12926433980464935,0.48708993196487427,-0.10738532990217209,0.05585284158587456,0.39352574944496155,0.5585334300994873,-0.38054126501083374,-0.2602841258049011,-0.3685210347175598,0.14831511676311493,0.3142935037612915,-0.4191886782646179,0.6289077997207642,0.007598991971462965,0.5917710065841675,0.6710239052772522,-0.7347210049629211,0.04027566686272621,-0.7041980028152466,0.20899006724357605,-0.1491720825433731,0.12191500514745712,0.4740901589393616,0.5335923433303833,0.0933760330080986,-0.17260923981666565,-0.03467727452516556,0.4056445360183716,0.5175877809524536,-0.05747222900390625,0.26040056347846985,-0.05829713121056557,-0.5071455836296082,0.29939085245132446,-0.032999638468027115,0.36169129610061646,-0.3254214823246002,-0.11917652934789658,0.5961668491363525,0.03570583090186119,-1.1757856607437134,-0.37939292192459106,-0.2791000008583069,0.24394477903842926,-0.00013535094331018627,-0.11349016427993774,-0.27452510595321655,0.17784743010997772,-0.028008176013827324,-0.027287887409329414,0.050745926797389984,0.637363076210022,-1.1031908988952637,0.5414794683456421,-0.15924504399299622,-0.29646992683410645,0.719676673412323,-0.518201470375061,-0.19248312711715698,-0.5989389419555664,0.15287882089614868,-0.1775824874639511,-0.6032623648643494,-0.00568724051117897,0.030960913747549057,0.30267030000686646,0.3474191725254059,-0.031406059861183167,0.3152075707912445,-0.5388779044151306,0.36712464690208435,-0.19005727767944336,-0.3862192630767822,-0.010583666153252125,-0.03631512075662613,0.140511617064476,0.11269233375787735,-0.7624075412750244,0.25964564085006714,-0.01717042177915573,-0.7138358354568481,0.1050829142332077,-0.7047280669212341,-0.239076167345047,0.28193262219429016,-0.13356062769889832,0.11974213272333145,0.25467222929000854,0.4495840072631836,-0.17425833642482758,-0.03324532136321068,-0.8246037364006042,-0.39168915152549744,-0.0025701129343360662,-0.7466554641723633,-0.5997450351715088,0.47009992599487305,-0.43035727739334106,-0.7379871010780334,-0.910248875617981,0.18581806123256683,-0.45201581716537476,0.4792289733886719,0.017872808501124382,-0.3417254686355591,0.8798378109931946,-0.06118740886449814,-0.309650182723999,-0.06697168946266174,0.07450414448976517,0.012163153849542141,-0.1275651901960373,0.15978017449378967,-0.10802705585956573,-0.6453543901443481,-0.2899496257305145,0.040468525141477585,0.27242255210876465,-0.3263133466243744,-0.4445369243621826,-1.0010191202163696,-0.28620409965515137,-0.6018889546394348,0.33676841855049133,0.5277640223503113,-0.4221847355365753,0.2357451617717743,-0.017986631020903587,0.12493868172168732,0.5775293707847595,0.2911309599876404,-0.28084897994995117,-0.24598269164562225,-0.40310513973236084,0.1804158240556717,0.13029927015304565,0.5790781378746033,-0.04821893572807312,-0.19746796786785126,-0.2617068886756897,-0.8730265498161316,0.05071867257356644,0.1674133688211441,0.23235899209976196,-0.1779812127351761,-0.6309878826141357,0.002613411284983158,0.2476099282503128,-0.35793420672416687,0.2201322466135025,-0.22503970563411713,0.3850952088832855,0.3845745325088501,-0.24346879124641418,0.4904291033744812,0.09242831915616989
b'\xe7\x94\x9f\xe8\x8d\xaf\xe5\xad\xa6',0.1804368644952774,-0.012410498224198818,0.12747390568256378,0.2112513929605484,0.01187936868518591,0.31749826669692993,-0.15738195180892944,-0.04959508404135704,-0.0031086320523172617,-0.10111541301012039,-0.013507267460227013,0.07000430673360825,0.1767658293247223,0.022896572947502136,-0.26973336935043335,-0.21564877033233643,0.04007842391729355,-0.04455885291099548,-0.24374818801879883,-0.03708912804722786,0.14180323481559753,-0.14893586933612823,-0.035438667982816696,0.05483074486255646,0.04158060625195503,0.08067655563354492,-0.026713786646723747,-0.05573122948408127,0.34820884466171265,-0.28141361474990845,0.025791212916374207,0.13663622736930847,-0.10404827445745468,-0.06993253529071808,-0.006890731398016214,-0.11477187275886536,0.19801115989685059,-0.17649272084236145,0.07222358882427216,-0.18592239916324615,-0.1681060642004013,-0.04959684982895851,0.038524605333805084,0.03184488043189049,0.06820304691791534,-0.2306276559829712,-0.1780398190021515,0.024564769119024277,0.0335259810090065,-0.1568920612335205,0.16875405609607697,0.07385692745447159,0.16366010904312134,-0.10551054030656815,0.17806456983089447,-0.10510362684726715,-0.14138947427272797,-0.1929652988910675,-0.022738292813301086,0.13584165275096893,-0.2489725798368454,0.1484694629907608,0.08256679773330688,-0.1323331892490387,0.1338106095790863,-0.21569515764713287,-0.11651242524385452,-0.20232774317264557,-0.05734546110033989,-0.054385896772146225,-0.16584412753582,-0.039307188242673874,-0.3218570947647095,-0.03974742442369461,-0.012671684846282005,0.2411641925573349,-0.0021081040613353252,0.022966884076595306,0.18470971286296844,0.17880448698997498,-0.1199541911482811,0.048056114464998245,0.12404903769493103,-0.12033804506063461,-0.044054482132196426,-0.07282494008541107,-0.02659507654607296,0.064998097717762,0.002469642786309123,-0.023300761356949806,-0.12571962177753448,0.234233558177948,0.11189716309309006,-0.3444979786872864,-0.060966964811086655,-0.005308795254677534,0.1519012600183487,-0.1452636420726776,0.1246674656867981,-0.010353009216487408,-0.14183534681797028,0.17479149997234344,0.07837574928998947,-0.18536795675754547,-0.02409280836582184,0.11453431844711304,-0.2086942046880722,0.014897354878485203,0.20229004323482513,-0.1515837460756302,0.0269475094974041,-0.0389929935336113,0.0029478250071406364,0.27619460225105286,-0.013664956204593182,0.0038181983400136232,0.0833868607878685,-0.24460066854953766,0.0862005278468132,-0.06051380932331085,-0.2129436433315277,-0.14260946214199066,-0.12494061142206192,-0.02565494365990162,-0.25579485297203064,0.08298838883638382,-0.0724463239312172,0.031151963397860527,-0.10240503400564194,-0.2309718281030655,0.1701427847146988,-0.04169485718011856,-0.21641503274440765,0.12767815589904785,-0.05573146790266037,0.18715575337409973,0.2954409420490265,0.09387408941984177,-0.010283751413226128,-0.11367297917604446,0.16871877014636993,-0.18542757630348206,-0.1301833540201187,-0.13329339027404785,-0.11487641930580139,-0.33256468176841736,0.09960492700338364,-0.15969640016555786,-0.1239725649356842,0.39199161529541016,0.08260603249073029,0.1077648401260376,-0.04515976831316948,-0.15187513828277588,0.055936966091394424,-0.08058638870716095,0.24326562881469727,-0.18540480732917786,0.10652719438076019,0.08426259458065033,0.03192954882979393,0.19523121416568756,-0.04725882411003113,-0.04305689409375191,0.05868714302778244,0.0849587693810463,-0.10104334354400635,-0.39866408705711365,0.03817126527428627,-0.21773017942905426,-0.045746367424726486,-0.04779196158051491,0.2105441391468048,0.25486090779304504,-0.07519165426492691,0.1285630613565445,0.21618036925792694,-0.2629334330558777,0.004985440522432327,0.367455393075943,-0.22183649241924286,0.22214101254940033,0.06456685066223145,0.022597268223762512,0.01314959954470396,-0.11437809467315674,0.01445408072322607,0.12715324759483337,-0.24516113102436066,-0.1770378053188324,-0.11462042480707169,-0.1367887258529663,-0.2101501226425171,-0.04907967150211334,0.08069027960300446,-0.13921186327934265,-0.045639023184776306,-0.1685132384300232,-0.23686489462852478,-0.0015207701362669468,0.05573834106326103,-0.006101282779127359,-0.03258894383907318,-0.20471860468387604,0.019390754401683807,0.23574599623680115,-0.0741068497300148,-0.30736520886421204,0.14374148845672607,-0.13392047584056854,0.24216213822364807,0.22531263530254364,0.16108423471450806,-0.11395015567541122,-0.10505551099777222,-0.041596896946430206,-0.11537357419729233,-0.2708423435688019,-0.06638196855783463,-0.22615019977092743,0.06390734761953354,-0.15516002476215363,0.21185094118118286,0.14083653688430786,0.010515290312469006,0.010089369490742683,-0.13518863916397095,-0.10978666692972183,0.0831829160451889,0.24858331680297852,0.017940200865268707,-0.2010153979063034,0.05194076523184776,-0.24604915082454681,0.24553775787353516,0.05707934871315956,-0.15748195350170135,0.07470594346523285,-0.12720045447349548,-0.08469244837760925,-0.24123334884643555,0.03935432434082031,-0.2871060073375702,-0.1260078251361847,0.2713545262813568,0.08751720190048218,0.3369409143924713,-0.03834336996078491,-0.07386668771505356,0.1310518980026245,-0.18509264290332794,-0.11550802737474442,-0.27225327491760254,0.11972162127494812,0.18782532215118408,-0.008723963983356953,0.26552116870880127,0.04164142161607742,0.3063824474811554,0.22293002903461456,-0.16239969432353973,-0.3067043721675873,-0.5283226370811462,0.19787748157978058,-0.05800069868564606,-0.0903245285153389,0.2394169718027115,0.06805551052093506,0.09335789829492569,0.2943274676799774,-0.09337066859006882,0.09460358321666718,0.17922116816043854,0.11530761420726776,-0.24735280871391296,-0.07208529114723206,0.21485497057437897,-0.006403086706995964,-0.01604907587170601,0.2651374638080597,-0.043807294219732285,-0.11630401760339737,0.10776746273040771,0.31397342681884766,-0.24568523466587067,0.1231577917933464,0.08588681370019913,0.39365577697753906,-0.02154809609055519,0.027239594608545303,0.16403990983963013,-0.06452371925115585,0.3763234615325928,-0.08929313719272614,0.02498389407992363,0.511365532875061,-0.2934936583042145,0.18139061331748962,-0.18349839746952057,-0.06018362566828728,0.13453052937984467,-0.30491721630096436,0.07737451046705246,-0.19868433475494385,-0.2866153419017792,0.09696778655052185,-0.2718491852283478,-0.012140701524913311,0.09067028760910034,0.0989597737789154,-0.03827395662665367,0.06457104533910751,0.08050805330276489,0.06468845158815384,0.2247057855129242,0.08001735806465149,-0.1876240223646164,-0.01831040345132351,-0.14666499197483063,0.007171616889536381,0.1324991136789322,-0.015613404102623463,0.19649738073349,-0.009796591475605965,-0.049284420907497406,0.2176945060491562,-0.07916552573442459,-0.30250510573387146,-0.14087961614131927,-0.07609876990318298,0.1341806948184967,0.32914185523986816,-0.10514313727617264,-0.021532874554395676,0.1822948008775711,-0.13418048620224,-0.2500584125518799,-0.10075100511312485,-0.024689074605703354,-0.36927473545074463,-0.06030884385108948,-0.07224316895008087,-0.3983469605445862,0.13777703046798706,-0.21205271780490875,-0.03189148008823395,0.0917029157280922,0.05809026211500168,0.018897734582424164,0.2519674003124237,-0.07561898231506348,-0.0003987927339039743,-0.40972113609313965,-0.03731612488627434,0.16855980455875397,-0.07978890836238861,0.22770093381404877,-0.032052721828222275,-0.10080224275588989,-0.3374537527561188,-0.05232424661517143,0.20578613877296448,-0.04651131108403206,0.05375225469470024,-0.39460888504981995,-0.1452680379152298,-0.20091165602207184,-0.1166265606880188,0.05085470527410507,-0.38453665375709534,0.0007778891013003886,0.1956573724746704,0.025037596002221107,-0.06308487802743912,-0.022646650671958923,0.18573270738124847,0.1951911896467209,-0.2657945156097412,0.0037479291204363108,0.20405220985412598,0.14561370015144348,-0.09791596233844757,0.21941357851028442,-0.07531000673770905,-0.16345766186714172,-0.02461337298154831,0.11583652347326279,-0.07364672422409058,0.0768219530582428,-0.01522954273968935,-0.03694132715463638,0.0020278082229197025,0.004388018976897001,0.28755509853363037,-0.21105308830738068,-0.006722115445882082,0.11538931727409363,0.05629883334040642,0.03616669401526451,0.28142619132995605
