word,0,1,2,3,4,5,6,7,8,9,10,11,12,13,14,15,16,17,18,19,20,21,22,23,24,25,26,27,28,29,30,31,32,33,34,35,36,37,38,39,40,41,42,43,44,45,46,47,48,49,50,51,52,53,54,55,56,57,58,59,60,61,62,63,64,65,66,67,68,69,70,71,72,73,74,75,76,77,78,79,80,81,82,83,84,85,86,87,88,89,90,91,92,93,94,95,96,97,98,99,100,101,102,103,104,105,106,107,108,109,110,111,112,113,114,115,116,117,118,119,120,121,122,123,124,125,126,127,128,129,130,131,132,133,134,135,136,137,138,139,140,141,142,143,144,145,146,147,148,149,150,151,152,153,154,155,156,157,158,159,160,161,162,163,164,165,166,167,168,169,170,171,172,173,174,175,176,177,178,179,180,181,182,183,184,185,186,187,188,189,190,191,192,193,194,195,196,197,198,199,200,201,202,203,204,205,206,207,208,209,210,211,212,213,214,215,216,217,218,219,220,221,222,223,224,225,226,227,228,229,230,231,232,233,234,235,236,237,238,239,240,241,242,243,244,245,246,247,248,249,250,251,252,253,254,255,256,257,258,259,260,261,262,263,264,265,266,267,268,269,270,271,272,273,274,275,276,277,278,279,280,281,282,283,284,285,286,287,288,289,290,291,292,293,294,295,296,297,298,299,300,301,302,303,304,305,306,307,308,309,310,311,312,313,314,315,316,317,318,319,320,321,322,323,324,325,326,327,328,329,330,331,332,333,334,335,336,337,338,339,340,341,342,343,344,345,346,347,348,349,350,351,352,353,354,355,356,357,358,359,360,361,362,363,364,365,366,367,368,369,370,371,372,373,374,375,376,377,378,379,380,381,382,383,384,385,386,387,388,389,390,391,392,393,394,395,396,397,398,399
b'\xe5\x90\x8c\xe8\xbd\xb4',0.14677703380584717,-0.14935658872127533,-0.40462976694107056,-0.43372657895088196,0.05387071892619133,0.3483748733997345,0.2066459059715271,0.3970215916633606,-0.0625634491443634,0.6018764972686768,-0.3789476156234741,-0.10652408748865128,0.31595149636268616,0.5134910345077515,-0.2508256435394287,-0.026709789410233498,0.15813355147838593,-0.544090747833252,-0.0823303833603859,-0.09885720163583755,0.5831987261772156,-0.00033238070318475366,-0.07837612181901932,0.17708450555801392,0.8820983171463013,0.09859485924243927,0.3456197679042816,0.019406674429774284,-0.3021264970302582,0.1322396993637085,0.522389829158783,0.2992629110813141,-0.19750884175300598,0.7594073414802551,0.4903613030910492,0.3689766824245453,0.4502853751182556,-0.4949631690979004,-0.06471425294876099,-0.38166433572769165,-0.431528240442276,0.2046959102153778,-0.22371463477611542,-0.10448985546827316,-0.19158370792865753,-0.3874055743217468,-0.11959754675626755,0.16474805772304535,-0.38748636841773987,-0.4670102596282959,-0.23562948405742645,0.06763038039207458,-0.17343679070472717,0.39790675044059753,0.029635092243552208,0.29104897379875183,-0.0034707135055214167,-0.2470853477716446,0.03426273167133331,0.20450055599212646,-0.25902122259140015,1.0060231685638428,0.3758056163787842,-0.240367129445076,0.06768588721752167,0.23713485896587372,-0.0945897325873375,0.08155045658349991,0.34118151664733887,0.20799383521080017,-0.12181112915277481,0.010992455296218395,0.5376935601234436,-0.5551756620407104,-0.13525696098804474,0.6987459659576416,0.23456329107284546,-0.398116797208786,0.30840960144996643,0.40433183312416077,0.17853128910064697,-0.07449869066476822,0.09361369907855988,-0.23898044228553772,0.4847090542316437,-0.20147112011909485,0.763845682144165,-0.06483502686023712,0.3308582603931427,-0.06486579775810242,-0.11372487246990204,0.41215816140174866,0.3712129592895508,-0.03387494385242462,0.3733729124069214,0.09329059720039368,0.22770905494689941,0.6930498480796814,0.4694124460220337,-0.2711227238178253,-0.773382306098938,-0.39628535509109497,-0.6142429113388062,-0.1553400605916977,0.6402311325073242,-0.13836000859737396,0.491061270236969,0.06013033539056778,-0.41906315088272095,0.14683744311332703,-0.4019089937210083,0.278953492641449,0.3060145974159241,-0.45934319496154785,-0.04812879115343094,0.2349579632282257,0.22499732673168182,0.04110400006175041,0.20637625455856323,0.5500730872154236,-0.09644370526075363,-0.030860263854265213,0.3968546986579895,0.12692630290985107,0.008980725891888142,0.2982863187789917,0.31212282180786133,-0.4905760586261749,-0.32632744312286377,0.7413023710250854,-0.11965204030275345,0.5703203082084656,-0.6588228344917297,0.7459328174591064,-0.6044511198997498,-0.33558693528175354,0.2668757140636444,0.14168739318847656,0.17718148231506348,-0.7979005575180054,1.2950600385665894,-0.3341134488582611,0.7246180772781372,0.5679199695587158,0.6918302178382874,0.8344558477401733,-0.26945286989212036,-0.022239236161112785,0.09653965383768082,0.42275041341781616,1.0112940073013306,0.6692129373550415,0.022875767201185226,-0.5207357406616211,-0.15525242686271667,-0.4255141019821167,-0.5418563485145569,-0.027118606492877007,-0.07030976563692093,0.07953404635190964,-0.7221426963806152,0.06438084691762924,0.009619198739528656,-0.23319631814956665,-0.2345563918352127,0.7790729999542236,0.15837843716144562,-0.08782204985618591,1.2568762302398682,0.001830413588322699,-0.05680891498923302,-0.4520307183265686,0.7006716728210449,0.0991148129105568,-0.633040726184845,-0.05923701450228691,0.8503903150558472,0.08043376356363297,-0.4143618941307068,0.23893915116786957,-0.5494816899299622,0.1781085580587387,0.5710957050323486,0.22738304734230042,-0.662147045135498,0.396455854177475,0.5616886615753174,-0.029517238959670067,-0.19990506768226624,-0.500314474105835,-0.0543937049806118,-0.15908506512641907,-0.01345330011099577,0.5373165011405945,-0.6197453141212463,-0.4676859676837921,-0.3943144977092743,0.07321564108133316,-0.4973341226577759,-0.32166576385498047,-0.23640629649162292,-0.5394800305366516,0.14290949702262878,-0.9115099310874939,-0.12684714794158936,0.49195608496665955,0.09768645465373993,0.6935543417930603,0.6032616496086121,0.0077109141275286674,0.5548444390296936,-0.027028607204556465,-0.7051868438720703,-0.3801935911178589,-0.44888073205947876,0.4863194227218628,0.5609821081161499,0.026369545608758926,0.3256731629371643,0.12293875217437744,0.15442360937595367,0.005416564177721739,0.1577475219964981,0.20414720475673676,-0.5870029926300049,0.15487299859523773,-0.7241409420967102,-0.17029695212841034,0.19870616495609283,-0.5887563824653625,0.506496012210846,0.675552248954773,0.4198431372642517,-0.08801356703042984,0.1898595541715622,-0.0012412980431690812,-0.02340535819530487,0.4130620062351227,-0.5377711057662964,-0.8857255578041077,-0.09377891570329666,-0.4933384954929352,-0.2872621417045593,0.06326978653669357,-0.5888840556144714,0.06960050016641617,0.11249175667762756,-0.409674733877182,0.05540639907121658,0.28061187267303467,-0.5227248668670654,-0.1946844756603241,-0.2129630297422409,0.7502822279930115,0.11854004859924316,0.23834025859832764,0.8322198987007141,-0.531572699546814,0.2854754328727722,0.259664922952652,-0.13972315192222595,-0.008559771813452244,-0.2423100471496582,-1.186275839805603,0.20155462622642517,-0.3375016152858734,0.24901466071605682,0.5198123455047607,0.6996689438819885,0.1404201239347458,-0.44548216462135315,0.46582552790641785,0.827880859375,-0.7399372458457947,0.6315037608146667,-0.22962886095046997,0.06243228167295456,0.519191324710846,-0.01486778724938631,0.11388739943504333,0.1940229833126068,-0.35028502345085144,0.9819597005844116,0.206162229180336,-0.08014260977506638,0.566617488861084,-0.5392181277275085,0.03503336384892464,-0.6539064049720764,-0.22368285059928894,0.5572425723075867,0.40471404790878296,0.14358848333358765,-0.32393190264701843,0.3882565200328827,0.5073193907737732,-0.5419732332229614,1.329704999923706,0.4104900658130646,-0.10546623170375824,-0.11787783354520798,-0.4793863296508789,-0.45397496223449707,-0.7085755467414856,-0.007794436998665333,-0.0675496757030487,-0.07890142500400543,0.35710397362709045,-0.5495910048484802,0.35325857996940613,0.00498274527490139,0.02892896719276905,0.03220663219690323,-0.2309689223766327,0.30596983432769775,-0.1170807033777237,-0.16385193169116974,0.31786587834358215,0.8854965567588806,1.5240380764007568,0.2335943877696991,-0.3256557583808899,-0.8250477910041809,0.011313104070723057,-0.9472030401229858,0.08463098853826523,-0.2228734791278839,0.08084990084171295,-0.0010841710027307272,0.08165401965379715,0.0985214114189148,-0.18999695777893066,0.24552671611309052,-0.0732051432132721,-0.13307838141918182,-0.599818766117096,0.7579350471496582,0.3301225006580353,0.15753260254859924,0.24502937495708466,0.389674574136734,0.061671480536460876,-0.5868647694587708,0.3170110881328583,-0.2469812035560608,-0.022447487339377403,0.5142719149589539,-0.6755488514900208,-0.36566874384880066,0.7444356083869934,-0.07605341821908951,-0.14080810546875,-0.5034781694412231,0.13396288454532623,-0.11582989245653152,-0.6998528838157654,0.055903784930706024,-0.4287898540496826,0.24076709151268005,0.5070527791976929,-0.10433317720890045,0.2053186446428299,0.3620673418045044,0.4090768098831177,-0.7136626243591309,-0.5316789150238037,-0.26404833793640137,-0.42590218782424927,-0.0033580418676137924,0.10152126103639603,0.0796908289194107,-0.11722005158662796,0.5677986145019531,-0.04629906266927719,0.633274495601654,0.1634201556444168,-0.7047406435012817,0.15589049458503723,0.4471878707408905,-0.47403213381767273,0.10140246897935867,0.06734620034694672,-0.14874674379825592,-0.9668331742286682,-1.067456603050232,0.4999866783618927,0.1441861093044281,-0.6108327507972717,0.07420909404754639,-0.13645178079605103,0.35129112005233765,-0.01095675677061081,0.4370306134223938,-0.11408011615276337,-0.20471027493476868,0.13435396552085876,-0.7142484784126282,0.7485755681991577,0.5816863179206848,-0.16187582910060883
b'\xe8\x8b\xb1\xe6\x96\x87',0.3282526433467865,1.9190852642059326,-0.6791841983795166,-0.9621866941452026,-0.4319874048233032,1.1115003824234009,-0.4759773313999176,0.9593193531036377,0.7723877429962158,0.7901877760887146,0.3342382311820984,0.2857964336872101,-0.2275807112455368,-0.5809687972068787,-2.1248128414154053,-1.200524926185608,0.6424479484558105,-0.7474957704544067,0.6364263296127319,-0.314663290977478,-0.5457987785339355,-0.5610408782958984,-0.3290214538574219,-1.250441551208496,0.1448291689157486,-0.2196064442396164,-1.2459453344345093,0.7770882248878479,0.3760679364204407,-1.7578297853469849,-0.6171028017997742,1.4956415891647339,-0.057157617062330246,-0.31542348861694336,-0.5837675929069519,-0.5108307600021362,0.3805024027824402,-1.0249789953231812,-0.5765610337257385,0.5095210671424866,-0.19570450484752655,2.450977087020874,0.8805021047592163,0.7354112863540649,-0.6729122400283813,0.06303925067186356,-0.9979146718978882,0.3565075695514679,0.269832044839859,-1.763433575630188,-0.29219040274620056,-1.382094144821167,-0.2257288545370102,0.6465246677398682,-1.812144160270691,0.359704852104187,-1.0977979898452759,2.1219711303710938,-1.0371652841567993,-0.6502838730812073,0.14089694619178772,-0.822592556476593,0.21815542876720428,0.2950305640697479,0.7143349647521973,-1.5133014917373657,0.6753817796707153,-0.019312867894768715,-0.9664896130561829,-0.6194046139717102,1.6769212484359741,-0.7243577241897583,-0.4965589642524719,1.2107696533203125,-0.641181468963623,0.871257483959198,1.7564234733581543,0.461582213640213,-0.2766299545764923,1.345123529434204,0.8660003542900085,-0.8972146511077881,-0.244664266705513,-0.46105796098709106,-0.698236882686615,2.1221017837524414,-1.4486464262008667,-0.5418199896812439,0.11620829254388809,1.6408132314682007,0.2659197449684143,0.6528060436248779,0.46527233719825745,-1.0616755485534668,0.9767462015151978,0.7910887002944946,0.8260331153869629,0.3387860655784607,-2.1468029022216797,0.18707837164402008,-0.6872597336769104,-2.9183640480041504,-0.33653587102890015,0.9297770857810974,2.082270622253418,-0.5193049311637878,0.9797917604446411,-0.6504160761833191,-0.43490883708000183,0.2161974012851715,-0.11722443997859955,-0.5030136108398438,0.7126450538635254,0.13257752358913422,-2.0979535579681396,1.6318544149398804,-1.0466562509536743,-0.9757311344146729,0.8920464515686035,-0.852553129196167,-1.0890628099441528,-0.7673407793045044,-0.31691986322402954,0.25610625743865967,0.6092816591262817,0.5955249667167664,-0.8711237907409668,0.3889288604259491,1.1910244226455688,0.5789302587509155,0.5468248724937439,0.12215828150510788,0.8821213841438293,1.2616667747497559,-0.8402338624000549,0.17985843122005463,-0.3467315435409546,0.14011476933956146,0.6882325410842896,0.30223920941352844,0.8150535821914673,0.8847048282623291,0.5992773771286011,1.263361930847168,-0.8621984124183655,-1.3531486988067627,0.8424915671348572,0.3935139775276184,2.0288305282592773,0.995456337928772,-1.2181142568588257,-0.82123863697052,0.3707263171672821,-1.3549283742904663,1.4936707019805908,0.5206625461578369,0.9439035058021545,0.31161201000213623,0.4362548887729645,1.6650400161743164,-0.9110899567604065,2.1190719604492188,-0.09243249893188477,-0.03488345816731453,-0.22282695770263672,0.5168622732162476,-0.009131048806011677,-0.7859426736831665,-0.6145090460777283,1.134192705154419,-0.3637508451938629,-0.21958154439926147,0.6137385964393616,0.4031839668750763,-0.444536417722702,-0.3617823123931885,-1.1517447233200073,0.16161911189556122,-0.19939851760864258,1.385064959526062,1.4575532674789429,1.2041388750076294,1.2905536890029907,-0.8250726461410522,-0.07050447165966034,0.23299261927604675,-0.8474991321563721,1.3292927742004395,-0.5901644825935364,-0.8647515177726746,-0.6137610077857971,0.1538773775100708,-1.759047508239746,0.8340830206871033,-0.28541100025177,-0.6758537292480469,-1.6079363822937012,0.4486096203327179,1.2488209009170532,-0.09424746036529541,0.40060120820999146,0.6048457622528076,0.5264407396316528,-0.7889389395713806,2.4644851684570312,0.14746081829071045,-1.5279523134231567,0.3047376275062561,1.9256292581558228,0.08776216953992844,0.5961803793907166,-0.8852486610412598,0.11260492354631424,0.13529740273952484,-0.6909226179122925,0.5087399482727051,-0.3586015999317169,-1.2467713356018066,-0.8295236825942993,0.47945839166641235,-0.07071075588464737,1.3341646194458008,0.8922568559646606,-0.5247204899787903,0.5942108631134033,1.130422830581665,-1.3780792951583862,-1.089860200881958,-1.1733471155166626,0.013436101377010345,0.4078204929828644,-1.8268687725067139,0.8439145684242249,0.780338704586029,2.0964062213897705,-0.3203195333480835,-0.9559136033058167,-0.6892127990722656,-1.2688261270523071,-0.25195345282554626,2.0529978275299072,0.7506858706474304,-2.502462387084961,2.123417377471924,-0.5649193525314331,1.7970343828201294,0.36801403760910034,-0.4031141698360443,-0.7056359648704529,-0.06765048205852509,0.7073894739151001,-1.2633191347122192,0.6534541249275208,-1.2276999950408936,0.11077188700437546,-1.507204532623291,1.4255462884902954,-0.5665534138679504,0.6604090929031372,2.2878799438476562,0.7671629190444946,0.9004071950912476,0.260200172662735,0.41061002016067505,-0.9575401544570923,-0.6170187592506409,0.8385547995567322,1.1429957151412964,2.132240056991577,-1.5537766218185425,0.29275229573249817,-1.0929944515228271,-0.302339106798172,1.8611373901367188,1.2456837892532349,0.4593317210674286,-1.010893702507019,0.2344273328781128,-1.7930548191070557,1.2661060094833374,1.1967689990997314,-1.0592634677886963,0.44486257433891296,-1.4316449165344238,-1.789559245109558,0.7010550498962402,0.053664278239011765,0.7094141840934753,0.7029000520706177,0.6041949987411499,-1.7189332246780396,-0.01778051070868969,1.3816182613372803,-0.13099712133407593,0.47027912735939026,0.5912917852401733,-0.18024861812591553,1.2382135391235352,0.725490391254425,-0.22577059268951416,-0.9927442073822021,0.33079180121421814,0.29276007413864136,1.0470004081726074,0.9802694320678711,-2.0547780990600586,-0.4270893335342407,1.302562952041626,0.4300175607204437,1.3320481777191162,-0.11995347589254379,-0.23831099271774292,1.0543879270553589,-1.86820387840271,-0.10734114795923233,0.15977612137794495,0.9337230920791626,-0.038546230643987656,0.2523169219493866,1.6243417263031006,-0.007646381855010986,0.1887480914592743,-0.031073303893208504,1.2160269021987915,-0.3225458264350891,-0.845706045627594,1.615490198135376,-0.3906072676181793,-0.045576900243759155,0.12169630080461502,-0.8746985793113708,-0.1455879658460617,-0.8984898328781128,-0.35670238733291626,0.4379419982433319,-0.4141596257686615,0.46914181113243103,0.05124586820602417,-1.3072938919067383,1.4171849489212036,-0.691394567489624,-0.13715244829654694,-0.5072406530380249,-0.637144923210144,-0.9820502400398254,-3.211416482925415,0.510686993598938,1.3232120275497437,-0.8682065010070801,1.1885138750076294,-1.4552440643310547,-0.47146451473236084,-0.756321132183075,0.2439671903848648,1.1860591173171997,0.12959161400794983,1.1744500398635864,-0.37364161014556885,0.17430385947227478,-1.6070587635040283,-0.9884131550788879,-0.23529303073883057,0.8585882782936096,-0.030615946277976036,-0.34722718596458435,-1.4197620153427124,0.44629260897636414,1.3650870323181152,0.42303892970085144,-2.613154888153076,-1.3356252908706665,-0.37209653854370117,0.44188618659973145,-0.40642789006233215,-1.7246218919754028,-0.527281641960144,0.4126531183719635,0.6314286589622498,1.3273557424545288,-0.023494737222790718,1.0862504243850708,-0.5163204669952393,-0.0979064404964447,0.4844706952571869,1.103746771812439,1.5410184860229492,-0.14900845289230347,0.08534607291221619,2.5935444831848145,-2.558903694152832,-1.1895173788070679,0.5327315330505371,0.9858508706092834,1.0793582201004028,-0.32974401116371155,0.7293051481246948,-1.2107564210891724,-1.4495304822921753,0.6350134015083313,0.5274443030357361
b'\xe7\x94\xb5\xe5\xad\x90\xe6\x98\xbe\xe5\xbe\xae\xe9\x95\x9c',-0.5508750677108765,-0.034298110753297806,0.2030072808265686,-0.6214614510536194,0.2471161037683487,0.4969141185283661,0.3160354495048523,-0.4721861183643341,0.4245047867298126,-0.08004675805568695,-0.6726135015487671,-0.14493094384670258,0.7266563773155212,-0.22457945346832275,-0.26390978693962097,-0.09770084172487259,-0.04706602916121483,-1.2814303636550903,-0.570644736289978,0.06367294490337372,-0.12925459444522858,-0.7568559050559998,0.14525267481803894,-0.10905253142118454,0.5336325764656067,-0.06728370487689972,0.40338850021362305,-0.9236507415771484,-0.02338399365544319,-0.3278762698173523,0.40086081624031067,0.03950412943959236,-0.02200539968907833,0.3343280851840973,0.12117082625627518,-0.7589899897575378,0.743705689907074,0.22860540449619293,0.5386255979537964,-0.5560958981513977,0.15923458337783813,0.9879212379455566,-0.6741371154785156,0.04762621596455574,0.07543795555830002,-0.5254754424095154,-0.06959294527769089,-0.22799746692180634,0.24007943272590637,0.08520577102899551,-0.7378911972045898,0.6372426152229309,-0.14679719507694244,0.0985882356762886,-0.04709821939468384,-0.7325337529182434,-0.4666019678115845,-0.06563685834407806,-0.2728181779384613,-0.3397887945175171,-1.1249123811721802,-0.34708842635154724,0.636536180973053,-0.16606348752975464,0.6712726950645447,-0.3710929751396179,-1.0523231029510498,-0.8580023050308228,-0.3034873902797699,0.3432929217815399,-0.06460848450660706,0.013387189246714115,-0.1502259522676468,0.9100629687309265,-0.312185674905777,0.1380879133939743,-0.08562969416379929,0.415144681930542,1.3921231031417847,0.4146057069301605,-0.13404954969882965,0.5339199304580688,1.0401623249053955,-1.3740986585617065,-0.31409990787506104,-0.17072038352489471,0.5294849872589111,1.0918203592300415,0.3748490512371063,-0.18316352367401123,0.22273609042167664,0.6807169318199158,-0.037315573543310165,0.20979006588459015,0.13748210668563843,0.12251077592372894,-0.30375951528549194,-0.082007497549057,0.32007545232772827,0.4344867169857025,0.012445599772036076,-0.31220072507858276,-0.49471741914749146,-0.114686019718647,0.12872938811779022,0.244255930185318,-0.2684674859046936,1.2734928131103516,0.5671581029891968,-0.055706433951854706,-0.23215113580226898,0.3516608476638794,0.36044853925704956,-0.21449927985668182,-0.413579523563385,0.7969843149185181,-0.9377274513244629,-0.2823110520839691,-0.367685467004776,0.39373379945755005,0.1307022124528885,0.15144792199134827,-0.24716560542583466,0.3781954348087311,-0.2741738259792328,-0.0678701177239418,0.9015294909477234,-0.6779947280883789,-0.23342560231685638,0.8587620854377747,0.0621151365339756,0.6480761766433716,-1.2952098846435547,-0.007112440653145313,-0.22115091979503632,0.7027849555015564,-0.290735125541687,-0.48521506786346436,0.2050676792860031,-0.1679057627916336,0.588216245174408,-0.37388476729393005,-0.02029469981789589,1.094620943069458,-0.01435091532766819,-0.031581804156303406,0.6203920245170593,-0.45115962624549866,0.41456207633018494,0.17363081872463226,0.4461418688297272,0.9168601036071777,-0.5860297679901123,0.3104627728462219,0.19382286071777344,-0.35972195863723755,0.13036948442459106,-0.17990335822105408,-0.18831974267959595,0.0763673260807991,0.020345402881503105,0.6079099774360657,-0.029453715309500694,0.3302886188030243,-0.23924829065799713,-0.006447103340178728,0.8832452297210693,-0.555448591709137,0.27913182973861694,-0.3142271935939789,-0.4966259002685547,-0.015253691002726555,1.3305766582489014,0.902807891368866,-0.5614515542984009,0.38642314076423645,0.8020144701004028,-0.28080594539642334,0.43729859590530396,1.3787277936935425,-1.2281241416931152,0.1346297711133957,0.18834127485752106,-0.4342963397502899,-0.2962667644023895,0.09744539856910706,0.26763996481895447,0.07382092624902725,-0.571312427520752,-0.23671506345272064,-0.03211513161659241,0.5740112662315369,0.3404267728328705,0.08983837813138962,-0.28856053948402405,-0.2602805197238922,0.045649513602256775,-0.20295175909996033,-0.9705847501754761,-0.3659913241863251,0.7868250608444214,-0.32339590787887573,-0.35043561458587646,-0.8981919884681702,0.06435337662696838,0.3014650046825409,0.34716278314590454,0.10653163492679596,0.6481736302375793,-0.14441238343715668,-0.4255092442035675,-0.4804282784461975,-0.18383671343326569,0.8458746075630188,0.01636221818625927,-0.002422991441562772,-0.21217229962348938,-0.26716750860214233,0.41285741329193115,-0.8012068867683411,-0.44901230931282043,-0.7697036862373352,0.1878460794687271,1.2979276180267334,-0.9542540907859802,0.16892555356025696,-0.19583076238632202,-0.5960374474525452,1.0310496091842651,-0.7373780608177185,0.94486004114151,0.3829025626182556,-0.2789763808250427,0.5605230331420898,0.7270338535308838,0.37439554929733276,-0.6305813193321228,0.5271840691566467,-0.3898952305316925,-0.5690423250198364,-0.3829827308654785,-0.6683083176612854,-0.7796676158905029,-0.516430139541626,-0.3652365207672119,0.8446226119995117,0.25168830156326294,-0.7482694983482361,-0.29484015703201294,0.6504468321800232,-0.3849143087863922,-0.043389156460762024,-0.14834249019622803,0.3401873707771301,0.5143161416053772,-0.16730788350105286,0.5379288196563721,-0.1418898105621338,0.6147658824920654,0.41828563809394836,-0.7956152558326721,0.13739702105522156,-0.8382931351661682,-0.15081141889095306,0.13988932967185974,0.4358959496021271,0.8418791890144348,0.2228526622056961,0.5101351141929626,-0.5826098918914795,-0.20966961979866028,0.10996414721012115,0.8957074880599976,0.302144855260849,0.06672941148281097,-0.18590830266475677,-0.6583593487739563,0.026252267882227898,-0.4939122200012207,0.4482322633266449,-0.4849819839000702,-0.4038604199886322,1.2059931755065918,-0.25755178928375244,-0.9626373648643494,0.24288254976272583,-0.3048021197319031,0.2748318910598755,-0.48626723885536194,-0.008399171754717827,-0.36055174469947815,0.15067733824253082,0.23309426009655,0.15915079414844513,-0.2947697043418884,0.8207919001579285,-1.0701477527618408,0.5470695495605469,-0.2779679298400879,-0.700262188911438,1.121938943862915,-0.45834699273109436,-0.2539549767971039,-0.4181651771068573,0.32393577694892883,-0.2473626285791397,-0.5229758620262146,-0.7570700645446777,-0.8258070945739746,0.22089602053165436,-0.008068155497312546,0.3410508632659912,0.6308236122131348,-0.47185173630714417,0.28939321637153625,-0.7975915670394897,-0.4444599747657776,-0.3849312365055084,-0.10384973883628845,-0.3218318819999695,0.14386509358882904,-1.1730271577835083,0.2716027498245239,0.32490649819374084,-0.7324785590171814,-0.13602887094020844,-0.6707617044448853,-0.5267132520675659,0.4991692304611206,0.12135392427444458,-0.4080708920955658,0.4044528901576996,0.0006490289233624935,-0.8521756529808044,0.4171631336212158,-1.088828682899475,-0.4469555914402008,-0.4133894145488739,-0.9824787378311157,-0.9660637974739075,0.05771064758300781,-0.40208739042282104,-0.2513865828514099,-0.9614706039428711,-0.6594127416610718,-1.1008278131484985,0.2667939066886902,0.3911559283733368,0.2618410587310791,0.6735947132110596,-0.2163940668106079,-0.4893879294395447,0.041750624775886536,-0.28795358538627625,-0.08076877892017365,-0.9659717679023743,0.37813591957092285,-0.5493411421775818,-0.21130235493183136,0.10473166406154633,-0.05842433124780655,0.3736180365085602,0.2375851422548294,-0.4979774057865143,-1.3942278623580933,-0.8228786587715149,-0.29471585154533386,0.7061211466789246,0.6159425973892212,-0.8741695880889893,0.2580367922782898,-0.3983041048049927,1.1453406810760498,0.8243237137794495,0.22913290560245514,-0.3307640552520752,-0.3677000403404236,-0.7330841422080994,0.5989917516708374,0.0933593213558197,0.19941619038581848,-0.04534585401415825,0.39374205470085144,-0.33386948704719543,-0.96656334400177,-0.01881679706275463,0.8063017129898071,-0.41216346621513367,-0.2656992971897125,-0.6175490021705627,0.2361738681793213,0.5635981559753418,-0.5969139933586121,-0.05341743305325508,0.7054628133773804,0.5122811198234558,0.5808339715003967,0.2511870563030243,0.7973132133483887,-0.5600771903991699
b'\xe7\x8e\xaf\xe5\xbd\xa2',-0.6556867361068726,0.5261310935020447,0.5149907469749451,-0.16996271908283234,0.05841091275215149,-0.0004212885978631675,-0.8687449097633362,-0.06827526539564133,0.0843462347984314,0.48646655678749084,0.2371595799922943,0.3368091285228729,-0.1675463318824768,0.26026061177253723,-0.8958719968795776,-0.16852691769599915,0.2541360557079315,0.1817728579044342,-0.7108771800994873,-0.004253219347447157,1.0844457149505615,-0.8323401212692261,-0.5636040568351746,-0.2956860661506653,-0.6043248176574707,-0.7420451045036316,0.2319120615720749,-0.8458636999130249,-1.444471836090088,-0.4536212384700775,0.5536706447601318,-0.1914452314376831,0.10594205558300018,1.149847388267517,0.8127338886260986,0.19230712950229645,0.6213255524635315,-0.8186293840408325,0.4212023615837097,-0.6608628034591675,-0.8023269176483154,0.8579793572425842,-0.45451945066452026,-1.0527019500732422,0.8500303626060486,1.316545844078064,-0.2134542167186737,-0.48146316409111023,0.11810339987277985,-0.4440789222717285,0.1934862583875656,-0.16435576975345612,0.16365385055541992,-0.5992918014526367,0.5356916785240173,-0.1308130919933319,-0.22671377658843994,-0.9724698066711426,0.3554348647594452,0.5262334942817688,-0.4569627046585083,0.03490341454744339,0.9233986735343933,0.0037603452801704407,-0.1687777191400528,-1.3564246892929077,0.25424492359161377,0.39429375529289246,0.11072563380002975,1.0272877216339111,-0.453074187040329,-0.5568341016769409,-0.4883093237876892,1.6229057312011719,-0.23140588402748108,1.0110682249069214,1.1752179861068726,0.05445239320397377,0.595403254032135,-0.2151298075914383,0.05795741826295853,-0.1352653205394745,0.5842809081077576,-1.036388635635376,0.06945356726646423,0.2313559204339981,0.5918508768081665,-0.6340044140815735,0.8405071496963501,0.5965133905410767,-0.19040903449058533,-0.07966207712888718,0.8876829743385315,0.14610770344734192,1.0882872343063354,-0.014241497963666916,0.10950338840484619,0.13802257180213928,-0.2539372146129608,0.5066808462142944,-0.28305351734161377,-0.3761071562767029,0.06430172920227051,-0.21648076176643372,0.7313799262046814,-1.6708471775054932,0.45592200756073,0.08086680620908737,-0.047591011971235275,-0.47728466987609863,-0.960625410079956,0.1665429174900055,0.6888589262962341,0.36711597442626953,-0.0773124247789383,0.7424948811531067,0.044307857751846313,0.7884597778320312,-0.40670251846313477,0.3786846101284027,0.4733549952507019,0.7441911697387695,0.571436882019043,1.141646385192871,-1.1458115577697754,-0.4831310212612152,0.9547207951545715,-1.2519413232803345,-0.45483118295669556,0.44269850850105286,-2.334606170654297,0.4436347484588623,-0.3876785337924957,1.6180251836776733,-1.69573974609375,-0.8075231313705444,-1.8492043018341064,-0.22102360427379608,1.0478206872940063,-0.16465003788471222,0.7338617444038391,0.3321208655834198,0.6903706789016724,0.04099103435873985,-0.20671099424362183,0.03929729014635086,0.26059091091156006,-1.0641084909439087,1.215500831604004,-0.24486617743968964,0.26257744431495667,-0.07086634635925293,-0.1532234251499176,-0.4954278767108917,-0.3959156572818756,-1.2871596813201904,-0.3204803466796875,-0.18827921152114868,-1.7127857208251953,-0.2966163456439972,-0.42920324206352234,0.01620556227862835,-0.5423746109008789,0.28012222051620483,-0.24984458088874817,-0.5088236927986145,-0.22936545312404633,0.528618335723877,-0.39089256525039673,0.585119903087616,-0.2894513010978699,-0.30952492356300354,0.3704632520675659,0.2867428660392761,-0.0219257865101099,-0.0461350753903389,0.7435522675514221,0.04785846546292305,1.2123788595199585,0.1666848361492157,-0.6123911142349243,0.10065488517284393,0.5212309956550598,-1.1556483507156372,-0.4437112808227539,-0.3207121789455414,-0.7673658132553101,0.60820072889328,0.41337093710899353,-0.8309726119041443,-0.05512048304080963,0.3176930546760559,0.34303027391433716,1.1567946672439575,-0.25841954350471497,1.8991284370422363,0.8824566602706909,-0.35920923948287964,-1.1326935291290283,-0.28765565156936646,1.082299828529358,-0.38232508301734924,-0.4676712453365326,-0.7953608632087708,-0.02272948808968067,-1.2356595993041992,-0.25175970792770386,1.0334128141403198,-0.329671710729599,0.27910786867141724,-0.8238956928253174,0.6485410332679749,0.7120727896690369,-0.15432241559028625,-0.8585045337677002,0.18254196643829346,1.001347303390503,-1.3839519023895264,0.5253387093544006,0.11638201773166656,0.34998801350593567,-0.8859047889709473,-0.48744747042655945,0.3738153278827667,-1.0779563188552856,0.39884746074676514,-1.2153613567352295,-0.2078680545091629,0.6157707571983337,-0.35637614130973816,0.8057311773300171,0.5695896744728088,-0.07718633860349655,-0.09062715619802475,-0.766503095626831,-0.2074587494134903,0.6302230954170227,0.1610393077135086,1.1377580165863037,-0.6356450319290161,0.6293479800224304,0.666586697101593,0.06221090629696846,-0.5311020016670227,0.15915118157863617,0.3396621346473694,-0.25532400608062744,0.39566701650619507,-0.36635279655456543,1.1475049257278442,-0.15570981800556183,-0.6316288709640503,-0.5586573481559753,-0.24002191424369812,-0.13734476268291473,-0.47716331481933594,0.08913850784301758,-0.14708663523197174,-0.4475858807563782,1.410761833190918,0.09477365016937256,-1.3913203477859497,0.4521560072898865,-0.2234094887971878,0.6172581315040588,-0.8192973136901855,-0.25092026591300964,0.6588433384895325,0.30126526951789856,-0.9804476499557495,-1.0228453874588013,0.10666749626398087,0.0031805604230612516,-0.549804151058197,0.12063612788915634,0.025957737118005753,-0.5646980404853821,-0.32015159726142883,-0.7745978236198425,-1.078382134437561,-0.39731475710868835,-1.3230974674224854,1.8034273386001587,-1.4624079465866089,-0.20416532456874847,-0.6807032227516174,-0.9442490339279175,-0.3963228166103363,-1.4924819469451904,0.05933196097612381,0.3892439603805542,1.0361385345458984,-0.8221425414085388,-0.41396746039390564,1.3670090436935425,0.2818858325481415,-0.38643479347229004,1.0698720216751099,1.039053201675415,0.5206828713417053,-0.13758611679077148,-1.3992764949798584,0.3588775396347046,-0.4756622314453125,0.49591198563575745,0.7480134963989258,-0.03172147646546364,0.35267072916030884,0.14898891746997833,0.8294917345046997,1.161847472190857,0.4417780935764313,0.747780978679657,-0.6684753894805908,0.49469029903411865,0.08064351230859756,0.03910418599843979,2.2141189575195312,0.5871601104736328,-0.17529955506324768,-1.0005054473876953,-0.29612571001052856,-0.1400158405303955,0.09834019094705582,-0.9401649236679077,0.264769971370697,-0.47574248909950256,0.16071055829524994,-0.34555700421333313,-0.8731387853622437,0.4316136837005615,-0.4354519248008728,1.5321089029312134,-0.5501095652580261,-0.5995248556137085,-1.170421838760376,1.2046207189559937,-0.02080971747636795,0.17621268332004547,-0.2805060148239136,1.3660701513290405,-0.4963443875312805,-0.586391806602478,0.06995192915201187,-1.8398288488388062,0.03334842622280121,1.179174780845642,-0.8992911577224731,-0.7920153141021729,1.8654437065124512,0.14914578199386597,-0.5395389199256897,-0.3037879765033722,0.3568861484527588,-1.7475346326828003,-0.9452641010284424,0.3135892152786255,0.2033679485321045,-0.4305031895637512,0.553418755531311,-0.5108564496040344,0.6772533655166626,-0.5630331635475159,-0.4498536288738251,-1.4260518550872803,-0.5908321142196655,-1.0553799867630005,1.0189698934555054,0.25362125039100647,-0.3181680142879486,0.8625234365463257,-0.38918256759643555,-0.21555623412132263,0.8765104413032532,1.0280773639678955,-0.7399570345878601,-0.6482643485069275,0.4705413281917572,-0.017117129638791084,-1.1025547981262207,-0.32599517703056335,-0.3790164291858673,-0.14647620916366577,-1.6821249723434448,-0.42229199409484863,0.16816143691539764,-0.32796263694763184,-0.08334394544363022,-0.006362989544868469,-1.3959941864013672,-0.8660142421722412,1.012525200843811,-1.2291146516799927,0.030741775408387184,-0.009217716753482819,0.7661858201026917,-0.3940207362174988,1.0141161680221558,-0.09654735773801804,-0.7774352431297302
b'\xe5\x8f\x91\xe5\xb1\x95\xe8\xb6\x8b\xe5\x8a\xbf',0.2526634931564331,-0.21808552742004395,0.027048654854297638,0.09641969949007034,0.29286670684814453,0.15703479945659637,0.10134811699390411,0.10274527966976166,0.06480716913938522,0.1373772770166397,-0.28818294405937195,0.11186783760786057,-0.22309693694114685,-0.5487992763519287,-0.4686325192451477,-0.4084188938140869,-0.3337363600730896,-0.2067198008298874,-0.19543808698654175,-0.05299239605665207,0.20736290514469147,-0.27797845005989075,0.2899956703186035,-0.1867348551750183,0.5425707101821899,-0.08407022804021835,0.13541319966316223,-0.6007941365242004,0.05767049267888069,0.01864171214401722,0.5329978466033936,0.023285185918211937,0.10541588068008423,0.16533207893371582,0.011001816019415855,-0.30329635739326477,0.002444017678499222,-0.6493204832077026,-0.0932566374540329,0.1326357126235962,-0.008021730929613113,0.5309872627258301,0.4289577901363373,0.164176806807518,-0.1391468048095703,0.2881685793399811,0.23948390781879425,-0.1621890515089035,-0.016807161271572113,-0.33869293332099915,0.29398098587989807,0.028620591387152672,-0.10476240515708923,0.006880962289869785,-0.09868510812520981,0.06335294246673584,0.5363863706588745,0.04182170331478119,-0.04895785450935364,0.09954693168401718,-0.15880918502807617,0.2697642147541046,-0.4265882074832916,-0.47329285740852356,0.38817986845970154,0.06386798620223999,0.02547253482043743,0.19372142851352692,-0.08850140869617462,0.4588508903980255,-0.1054609939455986,-0.2344570904970169,0.005858755670487881,0.3954370617866516,-0.6218875050544739,0.08417129516601562,0.05322685465216637,-0.29456040263175964,-0.01219627633690834,0.3635398745536804,0.217819944024086,-0.08252310007810593,0.07763185352087021,-0.49415460228919983,0.031137090176343918,0.012174206785857677,0.5067927241325378,0.17785316705703735,0.588257372379303,0.20193584263324738,-0.15514421463012695,-0.23936791718006134,0.03993886709213257,0.5881567597389221,-0.09190777689218521,0.21439078450202942,0.24447175860404968,0.2820643186569214,-0.11391528695821762,0.09582026302814484,0.4968395233154297,-0.08503265678882599,0.599255383014679,0.09676717221736908,0.19466619193553925,0.0667586550116539,-0.20910952985286713,0.23034599423408508,0.2968444228172302,0.3260525166988373,-0.21122291684150696,0.49686023592948914,0.21771177649497986,-0.20340898633003235,0.15321913361549377,-0.03612443059682846,-0.7247392535209656,-0.259013831615448,-0.20618461072444916,0.24651946127414703,-0.02643275447189808,0.2952921390533447,-0.2897547781467438,0.3384620249271393,-0.1385030895471573,-0.10035652667284012,-0.1780107170343399,-0.04972335323691368,-0.05084191635251045,0.794456958770752,-0.3021937310695648,-0.012547185644507408,0.09872212260961533,-0.049535930156707764,0.2422831505537033,-0.10196515172719955,0.20040760934352875,-0.11338990926742554,-0.04717632010579109,0.055669158697128296,0.10582900792360306,-0.34357789158821106,0.15246516466140747,0.15275336802005768,0.6458564400672913,0.11069364845752716,0.42912840843200684,-0.24260060489177704,0.2907674014568329,0.030281951650977135,0.08927246928215027,-0.03858567029237747,-0.21941527724266052,-0.405458927154541,0.13603757321834564,0.13550050556659698,0.5095910429954529,0.22488616406917572,-0.18933410942554474,0.0734286904335022,0.028766058385372162,0.16339629888534546,-0.039907295256853104,0.31878137588500977,0.02111095003783703,0.11548996716737747,0.20762155950069427,-0.0012321819085627794,-0.18136534094810486,0.3824961483478546,0.590851366519928,0.2774062156677246,0.011288130655884743,0.02648218907415867,0.18062981963157654,-0.2118213027715683,0.24665895104408264,-0.15070702135562897,0.027933763340115547,0.24621732532978058,-0.2934052348136902,-0.28800269961357117,0.4674151539802551,0.21092014014720917,-0.312310129404068,0.31139737367630005,0.039616867899894714,0.6322017908096313,0.2727828621864319,-0.21036730706691742,-0.04018530622124672,-0.11701667308807373,-0.34391769766807556,0.08465509116649628,-0.36311236023902893,-0.04018673673272133,0.08526690304279327,0.370840847492218,-0.4309179186820984,-0.20648279786109924,0.5768659710884094,-0.08678979426622391,0.05548407509922981,-0.4533079266548157,-0.3214014768600464,0.22421325743198395,0.03941170498728752,-0.4314846396446228,0.40711724758148193,0.24906222522258759,-0.13346520066261292,0.15960906445980072,-0.7177405953407288,0.03308809921145439,0.3142603933811188,-0.3328864574432373,0.07181748002767563,-0.7348509430885315,-0.042954470962285995,0.1262415498495102,-0.0803065076470375,-0.11265501379966736,-0.09748684614896774,0.02534300833940506,-0.38005149364471436,0.13028974831104279,0.15478357672691345,-0.12193373590707779,-0.0799991562962532,0.34953540563583374,0.31950876116752625,0.09052814543247223,0.2477933168411255,0.07330887764692307,0.5272093415260315,0.24949730932712555,-0.03485484421253204,-0.015384913422167301,-0.08032858371734619,0.43968281149864197,-0.20341899991035461,-0.15210843086242676,-0.5421401858329773,0.04806020110845566,0.5278627872467041,0.5039641261100769,0.04718577489256859,0.0663490816950798,-0.48039352893829346,0.2743535041809082,-0.21343418955802917,-0.18805436789989471,-0.4287620186805725,0.06627970188856125,0.28511834144592285,-0.19138896465301514,-0.03264179453253746,0.22447754442691803,0.6767728328704834,0.19715215265750885,-0.19824935495853424,-0.3939509987831116,0.04126704856753349,-0.3066713511943817,-0.41284313797950745,0.2002837359905243,-0.21971924602985382,-0.1504499465227127,0.34119898080825806,0.10811274498701096,-0.20481307804584503,-0.13494478166103363,-0.11906924843788147,-0.20408043265342712,-0.3292657136917114,0.2534404397010803,0.11991046369075775,-0.6340970993041992,0.47472333908081055,-0.17655044794082642,0.7667434215545654,0.21028435230255127,0.13784754276275635,-0.5618664622306824,0.5081663131713867,-0.3434373438358307,-0.41654831171035767,0.1851656585931778,0.6383351683616638,-0.12350068241357803,-0.4679107069969177,0.1359546035528183,0.22999674081802368,-0.23733173310756683,-0.19734449684619904,0.2549923360347748,-0.05124017223715782,0.6974607706069946,-0.5279132127761841,0.31611669063568115,-0.40105560421943665,-0.3379822075366974,0.35936465859413147,0.28628814220428467,-0.12157182395458221,0.10645321011543274,0.06555593758821487,0.054744135588407516,0.5725980997085571,-0.36071884632110596,0.1804046481847763,0.4024214446544647,-0.28411591053009033,0.4437233507633209,-0.044320523738861084,0.16406384110450745,-0.6063362956047058,0.16128374636173248,-0.1945212036371231,0.1503678858280182,-0.19580096006393433,-0.10049815475940704,-0.03720943257212639,-0.05631183087825775,0.05246739089488983,-0.09047228842973709,0.160026416182518,-0.10774365812540054,0.16774626076221466,-0.28887689113616943,0.055803265422582626,0.3074607849121094,0.1834152191877365,0.018953122198581696,0.45638394355773926,0.1380874365568161,-0.23233124613761902,0.07901280373334885,0.04665011912584305,-0.24478816986083984,-0.15210789442062378,-0.29221072793006897,0.09258422255516052,0.20620381832122803,-0.07264737039804459,0.17400847375392914,-0.38174569606781006,-0.015236197039484978,-0.41976067423820496,0.4960419535636902,-0.4995202124118805,-0.025441279634833336,0.13093072175979614,0.03450099006295204,0.5367727279663086,-0.5164152383804321,-0.05548655614256859,0.17634201049804688,0.2779453992843628,0.09220070391893387,-0.4335134029388428,0.4523281455039978,-0.33173730969429016,-0.13902388513088226,-0.482430636882782,-0.07607989758253098,-0.47365236282348633,0.23717732727527618,0.14344961941242218,-0.22971312701702118,0.33452221751213074,-0.07107499241828918,-0.2782612442970276,0.14591747522354126,-0.037072695791721344,0.3557189106941223,-0.3887523412704468,0.1765635460615158,0.3672373592853546,-0.13296101987361908,0.8825017809867859,-0.20188182592391968,0.3018341660499573,-0.007802886888384819,-0.08354905992746353,0.38416147232055664,0.27303147315979004,0.28428441286087036,0.3052121102809906,0.5274589657783508,0.30180805921554565,-0.19553916156291962,-0.13452468812465668,0.4255610406398773,0.13684260845184326,0.01710199937224388,-0.10810735076665878,-0.07144252210855484,0.28319719433784485,-0.1729101836681366
b'\xe5\x85\x88\xe8\xbf\x9b',0.5645003318786621,-0.7710034847259521,1.0652680397033691,0.0058913324028253555,0.32974812388420105,-0.6284335851669312,-0.1688382774591446,0.7834628820419312,0.8545501232147217,0.6682310104370117,-0.6287267208099365,-1.512901782989502,1.3891136646270752,0.29902034997940063,0.11722780019044876,-2.4193975925445557,0.4655032455921173,-0.08564814180135727,-0.6557257175445557,-0.690308690071106,0.6668276190757751,1.1840332746505737,0.24838560819625854,0.26530030369758606,-0.1837177574634552,-0.36701515316963196,0.5627780556678772,-3.1278703212738037,-0.14215046167373657,0.739783763885498,0.6351174712181091,1.4826630353927612,-0.3217456042766571,0.5893259644508362,1.2956005334854126,0.42329686880111694,0.5132427215576172,-1.7887983322143555,0.5736485719680786,0.08355142921209335,0.2956729233264923,-0.3463737964630127,-0.26963841915130615,0.5438481569290161,0.9372214078903198,-2.003343105316162,-1.5513650178909302,-1.645380973815918,-0.16183237731456757,-1.594058632850647,0.7412639260292053,1.0788371562957764,-0.37563857436180115,0.7506452798843384,-1.229202151298523,1.0803970098495483,1.5221503973007202,-2.0660572052001953,-2.4996609687805176,0.017970256507396698,-0.407840371131897,-0.45299646258354187,-0.7395987510681152,0.31662076711654663,-0.534603476524353,0.023525159806013107,0.534165620803833,-0.055182550102472305,-0.5822309851646423,1.7135939598083496,0.33942317962646484,-1.4059875011444092,-0.9661303162574768,-2.0605573654174805,-2.216301679611206,0.1802128702402115,0.25707587599754333,-0.8831045031547546,0.9609360694885254,0.371143639087677,1.333039402961731,2.7439212799072266,1.6120483875274658,-2.6389997005462646,1.832727074623108,-0.8060897588729858,-0.5091606378555298,-0.13710911571979523,-1.0533630847930908,0.22483180463314056,-1.3745183944702148,-0.40109023451805115,-0.3682080805301666,1.6356984376907349,1.3192404508590698,1.2177060842514038,0.701184868812561,0.01991542987525463,0.9962267875671387,-2.1875336170196533,0.03892382234334946,0.8003580570220947,-0.17155016958713531,-0.4727488160133362,1.0552828311920166,-1.6032094955444336,-0.9875638484954834,0.3705677092075348,1.6668113470077515,1.2417608499526978,-1.7215383052825928,-0.382461816072464,-0.010682027786970139,1.251433253288269,-0.5922015309333801,1.6782965660095215,-0.08841434866189957,-0.4886080026626587,0.7340505719184875,2.8276865482330322,3.453066110610962,-1.0508836507797241,-0.9033958315849304,-0.27766555547714233,-1.0861701965332031,1.7017617225646973,0.5906120538711548,-0.6451438665390015,-0.4346865713596344,0.2091864049434662,-1.0002703666687012,3.189176082611084,-0.9778301119804382,-0.8487698435783386,0.32561126351356506,0.18277451395988464,-1.0026392936706543,0.4117194414138794,-0.9476313591003418,0.08805850893259048,0.1615866720676422,0.5948885083198547,-1.2959668636322021,2.197913646697998,-0.048302408307790756,1.3902798891067505,-0.17356397211551666,0.18326444923877716,0.0035199462436139584,-0.18020910024642944,0.2833978831768036,-0.05317818000912666,0.3893283009529114,0.03179502114653587,-0.03784526139497757,0.6932005882263184,-2.054381847381592,-0.5072349905967712,-2.107060670852661,1.9716954231262207,0.19453799724578857,2.3735921382904053,1.6641371250152588,1.0247113704681396,0.971594512462616,-0.5553306937217712,1.9987820386886597,-0.413853257894516,-0.10531918704509735,0.46605101227760315,-1.3679053783416748,-0.9788061380386353,-0.7449821829795837,-1.162034511566162,-1.619929313659668,-0.6849409341812134,-0.8351876139640808,0.8938709497451782,0.9264810085296631,1.02900230884552,-0.4360598921775818,1.2426865100860596,1.3746899366378784,-0.06552049517631531,-0.943128764629364,0.1729859709739685,-0.5760050415992737,0.9435634613037109,-0.5565629601478577,0.48920300602912903,0.17014575004577637,-0.8815895318984985,-2.1969900131225586,1.9831621646881104,-0.8158076405525208,-0.45320919156074524,0.7114708423614502,1.2537007331848145,-1.650656819343567,-0.07862139493227005,-0.5128421783447266,-0.6613738536834717,-1.1026220321655273,-1.2445424795150757,-0.27413979172706604,0.49248984456062317,-0.4125587046146393,-3.354388952255249,0.7360049486160278,1.576291799545288,0.35058191418647766,-0.20602509379386902,-1.6100971698760986,-0.517950713634491,-0.19679862260818481,0.6878080368041992,-1.0529335737228394,-1.6371577978134155,0.9105645418167114,-0.23213084042072296,0.7188502550125122,0.5245339274406433,-1.7007299661636353,1.7482722997665405,-0.347095787525177,-0.29660171270370483,-1.6684603691101074,0.2927573323249817,1.0980390310287476,-0.4922543168067932,1.2416508197784424,-0.12135247141122818,-0.012287558056414127,0.0999477431178093,2.172849655151367,-0.8032839298248291,0.2962113320827484,-1.8951643705368042,-1.7500430345535278,1.3608733415603638,-0.39539796113967896,-0.527043879032135,-1.098414421081543,1.0576591491699219,0.8512341380119324,-1.8100124597549438,-0.9659470319747925,2.5855960845947266,-1.0145796537399292,-0.8315157294273376,-0.38649582862854004,-0.06515845656394958,0.15874850749969482,-0.07760575413703918,-1.1237794160842896,-0.6776953935623169,-0.12058629840612411,-0.9299733638763428,1.795048713684082,0.39131543040275574,-0.7709835171699524,1.0482271909713745,-0.496570885181427,1.0767590999603271,-1.8540163040161133,-0.39732858538627625,-0.32764309644699097,1.2842254638671875,-0.20717142522335052,0.8132869601249695,0.1035359725356102,0.8820843696594238,0.9379251003265381,0.43912971019744873,1.1831119060516357,-0.03737806901335716,0.8069451451301575,0.42869117856025696,1.2209068536758423,-0.18124404549598694,1.5408955812454224,-0.08075540512800217,-0.15984442830085754,-0.9515928030014038,0.5501947999000549,-1.8708815574645996,-1.2813318967819214,1.8656060695648193,1.1690189838409424,0.3070969879627228,-0.5655914545059204,-1.0456902980804443,-0.5651247501373291,-1.201145052909851,-0.7509251832962036,2.3045997619628906,-1.2936789989471436,1.0122084617614746,-0.897351861000061,0.2814277708530426,-0.4414815902709961,-1.0303314924240112,-0.8486879467964172,0.8878566026687622,-0.13944756984710693,-1.2478117942810059,0.43740013241767883,-0.9373217225074768,1.2729259729385376,-1.2592885494232178,-0.7854303121566772,-0.678314208984375,-0.2849343419075012,0.6802443861961365,-0.9533591270446777,-1.3675756454467773,1.149190068244934,-0.9757040143013,0.33059483766555786,-0.10514659434556961,-1.8291562795639038,-0.711703360080719,0.5289693474769592,0.10066018253564835,0.9419254660606384,-1.0782257318496704,-0.7145128846168518,1.517537236213684,1.1590080261230469,-2.353703498840332,1.7666178941726685,1.129195213317871,1.8141634464263916,1.4731067419052124,0.043058980256319046,-0.8470869660377502,-0.9125604629516602,0.02598550356924534,-1.0665351152420044,-0.6023236513137817,-1.2496788501739502,0.6784899830818176,-0.2755870819091797,0.2851680815219879,1.1773508787155151,-0.4022563695907593,-0.22712810337543488,-0.436228483915329,-1.3855165243148804,1.5912975072860718,0.091937355697155,2.0680201053619385,0.993916392326355,0.9449519515037537,0.5483952164649963,-0.9582728743553162,0.598155677318573,-0.01650276780128479,-1.0236626863479614,-0.24987541139125824,-2.3153984546661377,0.4193277955055237,-1.0240485668182373,0.20706933736801147,-1.145329475402832,0.6065980792045593,-1.7952690124511719,-0.26227784156799316,-0.12474092841148376,-0.24780480563640594,-0.07904081046581268,0.9637358784675598,-0.19849924743175507,0.7009206414222717,2.235365152359009,-0.10281487554311752,-1.5028905868530273,2.3323051929473877,1.4310046434402466,-0.48019102215766907,2.199431896209717,-0.16320694983005524,-0.4203532934188843,-3.24564528465271,-2.591886281967163,0.1406269371509552,-0.17081844806671143,0.9409542083740234,0.5848660469055176,0.1851731538772583,1.8476221561431885,0.8579846024513245,-0.5163485407829285,0.4981825351715088,3.0271658897399902,0.04979899153113365,-1.161168098449707,-0.9353182315826416,1.027047872543335,1.3998700380325317
b'\xe6\x9d\x90\xe6\x96\x99\xe7\xa7\x91\xe5\xad\xa6',0.6912331581115723,-0.8235520720481873,-0.08958491683006287,0.06389578431844711,1.1319646835327148,1.0674562454223633,-0.5266557335853577,-0.9302993416786194,-0.060649577528238297,-0.01576763018965721,-0.1371111422777176,0.3734549582004547,0.20606490969657898,-0.1703563630580902,-0.5792754888534546,-0.6634606719017029,-0.22642862796783447,-0.7770361304283142,-0.31280043721199036,-1.1778329610824585,1.0505249500274658,-1.245144009590149,-0.43874382972717285,-0.6230236887931824,0.5247020125389099,-0.20145125687122345,-0.3046893775463104,-1.084026575088501,0.7213853001594543,-0.5375434160232544,0.9438521862030029,1.4123530387878418,1.0000606775283813,0.0753747820854187,0.1454877406358719,-0.9254557490348816,0.6854870319366455,-0.8974065184593201,-0.0162916611880064,-0.2762048542499542,-0.5213550925254822,-0.41467466950416565,-0.2303217202425003,0.3280089795589447,-0.5563758611679077,-0.9300184845924377,-0.36973923444747925,-0.4534643590450287,-0.2093648612499237,-0.5903607606887817,0.7048630118370056,0.6367281079292297,0.36510875821113586,-0.7410157918930054,-0.7261052131652832,-0.2428065687417984,-0.49675342440605164,-0.5532251000404358,0.4083251655101776,1.3897353410720825,-0.9942227602005005,0.4855586588382721,0.0809520035982132,-0.548657238483429,-0.12017904222011566,-0.24649371206760406,-0.34807753562927246,-0.7886948585510254,0.42672768235206604,0.8697056174278259,-0.11151695996522903,0.033453091979026794,-0.9015893340110779,0.08135135471820831,-0.11436629295349121,0.287680059671402,0.6676825284957886,-0.10830222070217133,0.8175857663154602,0.1840869039297104,-0.7122264504432678,0.7030983567237854,0.3390006422996521,-0.4973497688770294,0.037291187793016434,-0.6222695112228394,0.28231197595596313,0.17367605865001678,0.537400484085083,-0.5351583957672119,-0.3925968110561371,0.5541254281997681,0.21700306236743927,-0.738767683506012,0.4741274118423462,-0.1756339967250824,1.3162940740585327,-0.3568858802318573,-0.20621566474437714,0.25048232078552246,-0.9075435996055603,0.16404607892036438,0.1762934923171997,-0.707931637763977,0.35499823093414307,-0.32429075241088867,-0.6758918166160583,0.4574662446975708,1.2683024406433105,0.4253116250038147,-0.600579023361206,0.24465981125831604,0.20524092018604279,0.8290964365005493,-0.15400320291519165,-0.23993916809558868,0.5210596919059753,-1.3140405416488647,0.42062216997146606,0.0812445804476738,0.16255435347557068,0.25335660576820374,-1.402587652206421,0.9950177669525146,-0.5781154036521912,0.39483004808425903,0.9481250047683716,0.7756502628326416,-0.7693837881088257,0.6291808485984802,0.8912497162818909,-0.5473766326904297,-0.6492271423339844,0.9127429723739624,0.6426843404769897,0.3449585437774658,0.41258227825164795,0.47959837317466736,0.250139057636261,0.4173026978969574,1.5248546600341797,-0.1708231121301651,-0.18853895366191864,0.5538476705551147,-0.017577053979039192,-0.5010592341423035,0.5846721529960632,-1.2364706993103027,-0.36261025071144104,0.11488468199968338,0.36131373047828674,0.1612524837255478,-0.41841524839401245,-0.8695712089538574,0.8418717384338379,-0.5725712776184082,0.43355873227119446,-0.21259385347366333,-0.5635521411895752,0.30100175738334656,-0.46059003472328186,1.044753074645996,0.8206496834754944,1.1643736362457275,-0.30631059408187866,0.31498032808303833,0.11449864506721497,-0.7322108149528503,-0.6846612095832825,0.12976473569869995,-0.5921789407730103,-0.15958808362483978,0.7717830538749695,-0.5613710284233093,-0.2432834804058075,0.1983298510313034,0.6484000086784363,-0.8558361530303955,-0.17033107578754425,1.2744827270507812,-1.2287636995315552,-0.3050784766674042,-0.504521906375885,0.507668673992157,-0.38652098178863525,-0.5190482139587402,0.7768737077713013,-0.03504280373454094,-1.4596774578094482,-0.7786901593208313,-1.1015647649765015,-0.19646383821964264,-0.4207885265350342,-0.07902946323156357,0.056628692895174026,-0.7484663128852844,0.32682663202285767,-0.19790701568126678,-1.2300552129745483,-0.9190565347671509,0.43026071786880493,-0.2244093418121338,0.55507892370224,-1.5121994018554688,-0.6275461316108704,0.2992354929447174,-0.760247528553009,-1.6649948358535767,1.7402275800704956,0.30026140809059143,0.622620165348053,1.0637720823287964,-0.7759701013565063,-0.9976862072944641,0.10506986826658249,-0.1985330581665039,0.10201283544301987,-0.03951029106974602,0.06267545372247696,0.7752169370651245,0.257233589887619,-0.3422507047653198,-0.3074372708797455,0.5947667360305786,-0.40383484959602356,0.4239177107810974,-1.6067664623260498,-1.0413272380828857,0.6026758551597595,0.3556838631629944,1.2846994400024414,-0.4293422996997833,0.411759614944458,0.43414655327796936,1.696240782737732,0.5077903270721436,-0.4905563294887543,1.2975748777389526,-1.300221562385559,-0.7808178663253784,-0.2735678255558014,-0.43663451075553894,-1.1334409713745117,-0.13561153411865234,0.8069683909416199,0.13667824864387512,1.0140535831451416,0.52485591173172,0.8130675554275513,1.282162070274353,-0.7557156682014465,-0.02501561865210533,0.015821155160665512,0.3709922730922699,-0.3000102937221527,0.6295027732849121,0.47104570269584656,-0.6859678626060486,1.9862273931503296,0.31283050775527954,-1.142541527748108,-0.4994305670261383,-0.8849189281463623,0.31610560417175293,-0.5001419186592102,0.3841022849082947,0.003529807785525918,0.24425792694091797,-0.04008011892437935,0.6793597340583801,0.1552801877260208,0.2091333121061325,1.5137546062469482,-0.2195810228586197,-0.39969679713249207,0.3449835181236267,0.7478840351104736,0.3133702874183655,0.04689021781086922,0.56351238489151,0.24323821067810059,-0.822655200958252,0.555371105670929,0.4086071252822876,-0.912251889705658,-1.5931037664413452,0.014191452413797379,0.6787312030792236,-0.8720483779907227,0.29468807578086853,0.6524675488471985,0.1571294665336609,0.3525107800960541,0.2672315537929535,-0.8792750239372253,0.7963107228279114,-0.9012912511825562,1.0824389457702637,-0.1383218616247177,0.06492085009813309,-0.12309000641107559,-1.5204137563705444,0.9803184270858765,-0.9542906880378723,-0.10164910554885864,-0.03507425636053085,-0.616136372089386,0.6029621958732605,-0.43303486704826355,-0.6305462718009949,-0.6258599758148193,-0.6142536997795105,-0.16130946576595306,0.5172047019004822,-0.009859823621809483,-0.2664943337440491,-0.40016940236091614,0.27877193689346313,-0.4963214695453644,0.07489018887281418,-0.7272215485572815,-1.360477089881897,-0.2993007302284241,-0.2256021797657013,-0.14176426827907562,0.33206748962402344,-0.2882453501224518,-0.5882265567779541,-0.6948253512382507,-0.39759108424186707,0.8652247786521912,2.0861165523529053,0.6832047700881958,0.9095006585121155,0.4173964560031891,-0.32362979650497437,-0.6549876928329468,-1.2330031394958496,0.8130478262901306,-0.12976138293743134,-0.10994617640972137,-0.6266558766365051,-1.2255115509033203,0.6842256188392639,-0.7719307541847229,-0.391714870929718,-0.0234711654484272,0.3667037785053253,0.5191308259963989,0.37179437279701233,0.3582327663898468,-1.0231839418411255,-0.8514644503593445,0.8365973830223083,0.7799853682518005,-0.7478857040405273,1.3519147634506226,0.14945408701896667,-0.4336911141872406,-1.2242377996444702,0.16034774482250214,0.8033427000045776,-0.13692106306552887,0.5205569863319397,-2.3682870864868164,-1.508452296257019,-0.8002772331237793,0.33593642711639404,0.32387664914131165,-1.0199635028839111,0.5178966522216797,0.620516836643219,-0.05972345173358917,0.10693325102329254,-0.17972148954868317,0.6388723254203796,-0.8187494874000549,0.32062599062919617,0.5201108455657959,1.2050279378890991,1.2757519483566284,-0.9187147617340088,0.7245129346847534,-1.0359493494033813,-0.9361900091171265,0.3387293815612793,0.8029249310493469,-0.5945116877555847,0.9376496076583862,-0.24809251725673676,0.32320570945739746,-0.5006787180900574,-0.5569963455200195,1.0492525100708008,0.12577581405639648,0.5790891647338867,0.14697487652301788,0.13835535943508148,0.8574290871620178,0.5924826860427856
b'\xe9\x80\x8f\xe5\xb0\x84',-0.2140534222126007,-0.04646199196577072,0.6051321625709534,0.1281290203332901,0.08179447054862976,-0.04641496762633324,0.04712071269750595,-0.576077401638031,0.02428499050438404,0.14189116656780243,-0.3489653170108795,0.3145115375518799,0.41721946001052856,-0.08175879716873169,-0.573702871799469,-0.24120256304740906,-0.1876312792301178,-0.7313823699951172,0.39011675119400024,-0.41666847467422485,0.4321189522743225,-0.167811781167984,0.5268741846084595,-0.05212314426898956,0.1874430924654007,-0.35119307041168213,-0.031424589455127716,-0.7653064131736755,0.17689558863639832,-0.2824299931526184,0.46414849162101746,-0.3103925585746765,-0.004373408854007721,-0.06765816360712051,0.2845199704170227,-0.677695631980896,0.585716724395752,0.06439393013715744,-0.16544218361377716,0.20531682670116425,-0.2845393121242523,0.37016913294792175,-0.2651347219944,-0.4469014108181,0.4078713655471802,-0.20756138861179352,-0.45264309644699097,0.05719316378235817,0.43213456869125366,0.11240541934967041,-0.6250427961349487,0.2179226279258728,-0.0008302321657538414,0.7151928544044495,-0.008751004934310913,0.04988395422697067,-0.1201435849070549,-0.303787499666214,0.11633986234664917,-0.13322210311889648,-0.6720467805862427,0.21490763127803802,0.01763343997299671,-0.24874766170978546,0.2908377945423126,-0.381594181060791,-0.45793280005455017,-0.16445915400981903,-0.1280195266008377,0.08931834250688553,0.4866195619106293,-0.5452436804771423,-0.2115449458360672,0.4689551293849945,-0.2795601785182953,-0.0389520600438118,-0.23038344085216522,-0.11324022710323334,0.3335270583629608,0.23094649612903595,-0.07133011519908905,0.9594016075134277,-0.23692701756954193,-0.6797900795936584,0.047801047563552856,-0.05749891325831413,0.5027675628662109,-0.2789665162563324,0.68366539478302,0.7322239279747009,0.20294469594955444,0.1263568252325058,-0.09693407267332077,0.4654861390590668,0.23360952734947205,-0.14354680478572845,-0.5377722382545471,0.09372719377279282,0.3159492313861847,0.3871453106403351,0.18661156296730042,-0.1340952068567276,-0.7368516325950623,-0.2654249668121338,-0.35408341884613037,-0.0506107397377491,-0.039459049701690674,0.49872592091560364,0.39026913046836853,-0.03173273056745529,-0.4543783366680145,-0.19539977610111237,0.7786585092544556,-0.46682024002075195,0.14154042303562164,0.7726566791534424,-0.7083330750465393,-0.027068747207522392,-0.34987592697143555,0.6873438358306885,0.5985506772994995,-0.07080735266208649,-0.18794162571430206,0.22803795337677002,-0.1559918075799942,0.2553940713405609,0.684890627861023,-0.4635891020298004,-0.3518297076225281,0.6267959475517273,-0.2484268844127655,0.19791793823242188,-0.7258225083351135,-0.3730275332927704,0.1611221432685852,-0.011783151887357235,-0.09260384738445282,-0.43984630703926086,0.16594813764095306,0.07301643490791321,0.9433910250663757,-0.37169551849365234,0.3266041576862335,0.8789713978767395,0.27995195984840393,-0.37067535519599915,-0.018694603815674782,0.04548138380050659,0.7558703422546387,0.09436370432376862,0.0775149017572403,0.7442115545272827,0.03132172301411629,-0.1516432762145996,-0.39960357546806335,-0.5229513645172119,-0.2633832097053528,-0.13997294008731842,-0.41367533802986145,-0.035268209874629974,-0.39069664478302,0.2410643994808197,-0.28225648403167725,0.10841481387615204,-0.37326088547706604,-0.26965367794036865,0.26857393980026245,0.20350052416324615,-0.1037653386592865,-0.27631086111068726,-0.30910491943359375,-0.6613495945930481,1.3975014686584473,0.23154714703559875,0.07655322551727295,-0.2690415680408478,0.7643219232559204,-0.2196815013885498,0.36813804507255554,0.430685430765152,-0.6494930386543274,-0.00958175491541624,-0.20682983100414276,-0.15596872568130493,0.35348889231681824,-0.34281712770462036,-0.1278703212738037,-0.3648916482925415,0.0515107735991478,-0.257571280002594,0.7961108088493347,-0.14638441801071167,0.3771750032901764,0.17310576140880585,-0.3169868588447571,-0.34853309392929077,-0.28109797835350037,-0.6005545258522034,-0.40660762786865234,-0.6440995931625366,-0.2843152582645416,-0.15577957034111023,-0.5460875630378723,-1.244045615196228,-0.5704654455184937,-0.24988603591918945,-0.2695177495479584,-0.1814708709716797,0.9936183094978333,0.014985623769462109,-0.029636763036251068,0.049762625247240067,0.1724712997674942,-0.05784216150641441,0.01779126562178135,-0.2656438648700714,0.07112358510494232,-0.04573681950569153,0.40391039848327637,-0.6202076077461243,-0.2622150778770447,-0.5463619828224182,-0.09156765043735504,0.4621061682701111,-0.32331570982933044,0.034069862216711044,0.11282644420862198,-0.579944372177124,1.2596369981765747,-0.5642058253288269,0.7171441316604614,0.15847577154636383,-0.6984144449234009,0.797119140625,-0.07760460674762726,0.3215485215187073,-0.3658321797847748,-0.07518623769283295,0.2010732740163803,-0.23967523872852325,0.09877999126911163,0.08765432983636856,-0.7367208003997803,0.18422292172908783,-0.405800998210907,0.09823280572891235,-0.02281251922249794,-0.42360207438468933,0.1706230193376541,1.1148208379745483,0.16226491332054138,-0.31788578629493713,0.7240347862243652,0.1106807142496109,0.6039755344390869,-0.3184863328933716,0.6174015402793884,-0.31542637944221497,0.377178430557251,0.40862739086151123,-0.7992878556251526,0.19894038140773773,-0.11590134352445602,-0.0039870887994766235,-0.30416202545166016,-0.2063046246767044,0.46587127447128296,-0.18759824335575104,0.8298829197883606,-0.11033151298761368,-0.3419400453567505,0.4202871024608612,0.7118302583694458,-0.08501046150922775,0.4317445456981659,-0.7087521553039551,-0.16727283596992493,-0.03983713686466217,0.11728505790233612,0.23133331537246704,-0.29396116733551025,-0.1192329078912735,0.49186617136001587,-0.2320205122232437,-0.852547287940979,0.1384642869234085,0.06810986250638962,0.06824710220098495,-0.8837226033210754,0.046676866710186005,-0.43845534324645996,-0.33192721009254456,-0.015265152789652348,-0.09965075552463531,0.4348391592502594,0.7100569605827332,0.19866062700748444,0.44885778427124023,-0.2101571410894394,0.4596066474914551,0.44316360354423523,-0.6248223185539246,-0.02820773236453533,-0.14643236994743347,0.008512389846146107,0.17832550406455994,-0.11950303614139557,-0.8606910109519958,-0.14793755114078522,0.00900015328079462,-0.14147235453128815,0.5188232064247131,-0.07416640967130661,-0.05169268324971199,0.4159271717071533,-0.07356014847755432,-0.4297090768814087,0.2797951400279999,0.2790903151035309,-0.13125891983509064,0.05726630613207817,-0.4242098331451416,0.3043917715549469,-0.12138697504997253,-0.7019501328468323,0.11786412447690964,-0.7553441524505615,-0.3824599087238312,0.3950735926628113,-0.3091595768928528,0.209635928273201,0.12792301177978516,0.4522251784801483,-0.4145558774471283,0.5146112442016602,-0.5301235318183899,0.22133579850196838,-0.29678261280059814,0.02921031229197979,-0.568520188331604,0.46326082944869995,-0.5128899812698364,0.03688868507742882,-0.3421560823917389,-0.5527000427246094,-0.5200570225715637,0.15695881843566895,0.3153921365737915,-0.49030908942222595,0.6539157032966614,-0.25143346190452576,-0.4477768838405609,0.13971169292926788,-0.3766153156757355,-0.49343442916870117,-0.4448454976081848,0.03521008789539337,-0.35378068685531616,-0.27425244450569153,-0.013160433620214462,-0.33132416009902954,0.036462850868701935,-0.17637258768081665,-0.5732665061950684,-1.1920722723007202,-0.10429718345403671,-0.49044591188430786,0.14519022405147552,0.15728095173835754,0.04668724164366722,0.027889976277947426,0.060170430690050125,0.48966020345687866,0.6718270182609558,0.5763651132583618,-0.12926103174686432,-0.020599402487277985,0.015150925144553185,-0.11766725033521652,-0.6271257400512695,-0.2712903916835785,-0.6186710596084595,0.06976310908794403,-0.47916266322135925,-0.9421747922897339,0.18721066415309906,-0.009262893348932266,-0.04383232071995735,0.19549500942230225,-0.7690784335136414,-0.0444941408932209,0.6092837452888489,0.11541086435317993,0.0071105388924479485,-0.0618298165500164,0.37848547101020813,1.0653815269470215,0.131477490067482,0.13757964968681335,-0.7721458077430725
b'\xe7\x94\xb5\xe5\xad\x90',1.3565360307693481,-0.9446932673454285,-0.37628138065338135,-0.5048023462295532,0.9192603230476379,-0.5347627401351929,1.610837697982788,-1.4555057287216187,0.5594450831413269,1.7083945274353027,-2.546099901199341,0.5947340726852417,-1.7395986318588257,-2.2354512214660645,0.34847861528396606,-0.37603676319122314,-0.9209123849868774,-1.788809895515442,0.9111872911453247,1.1516364812850952,1.5927562713623047,-1.818780779838562,-1.5847721099853516,-1.2386149168014526,1.8387067317962646,-0.1290852427482605,-0.43394431471824646,-2.677769660949707,0.11919296532869339,0.7998550534248352,2.7672343254089355,1.0584003925323486,0.17077530920505524,0.06508459895849228,1.502873420715332,-0.41149941086769104,0.3957168161869049,-0.8952791690826416,-0.26605549454689026,0.8488977551460266,-1.582916498184204,-0.4677690863609314,-1.3495051860809326,0.5477752685546875,-0.38879328966140747,0.6593741178512573,0.20137985050678253,0.9739363193511963,0.1649787575006485,-0.1683168262243271,0.06649136543273926,1.0852888822555542,-0.4816257953643799,-0.9853362441062927,1.3869048357009888,1.8019537925720215,-1.1525039672851562,-1.54275643825531,-0.2660633623600006,0.6663818955421448,-0.9414674639701843,-0.2630571722984314,-0.07625670731067657,-0.15161766111850739,0.06383346766233444,0.2594752907752991,-0.7997021079063416,-2.591937780380249,-0.7273337244987488,-0.4403188228607178,0.7794314026832581,0.0021033864468336105,-0.2482704073190689,1.1828399896621704,-0.5022705793380737,1.2703546285629272,1.0956872701644897,0.10903466492891312,-1.2503540515899658,0.6011859774589539,0.8201574683189392,2.338121175765991,0.03806409239768982,-1.0203564167022705,2.340611696243286,-0.9540489912033081,-0.05625265836715698,-0.5122576355934143,0.7781515717506409,-1.3749080896377563,2.1109061241149902,0.6359263062477112,-1.2793729305267334,-0.26299718022346497,-1.2043371200561523,0.029023580253124237,0.6545435786247253,-1.1797674894332886,-0.4359770119190216,0.006048308219760656,-1.180481195449829,1.0354796648025513,-0.5049750208854675,-0.479340136051178,0.14655663073062897,-0.06851764768362045,2.2155447006225586,0.05801773816347122,-0.6899809241294861,0.2121105194091797,0.14861468970775604,0.7803485989570618,0.135850727558136,0.47238802909851074,-1.3131613731384277,-0.4253535270690918,1.213565468788147,0.12259005755186081,1.760461688041687,1.9681159257888794,0.6668655872344971,2.1408426761627197,-0.9092976450920105,0.8821226954460144,-0.553249180316925,2.0173981189727783,2.449103593826294,-0.12705042958259583,0.06465987116098404,-0.5847111344337463,-2.2876503467559814,0.48502302169799805,-0.8574711084365845,-0.4017218351364136,0.610758364200592,-0.1200626790523529,-1.490545392036438,-1.9049590826034546,-0.8184956908226013,2.2074615955352783,0.5946159362792969,0.7217252850532532,-0.11489555984735489,0.17627008259296417,-0.1875469982624054,0.2549799382686615,-0.2567064166069031,-0.9038591980934143,1.6669549942016602,-0.06349523365497589,-0.17631210386753082,1.1419124603271484,-0.8527591824531555,-1.2726523876190186,-0.7737506628036499,0.8787283301353455,0.3903444707393646,-0.006101717706769705,-2.2062337398529053,1.8188505172729492,-0.1274033784866333,0.20720994472503662,0.23259194195270538,-0.7097415328025818,0.3427559733390808,0.12289047986268997,1.0266252756118774,-1.1927134990692139,1.6742985248565674,0.6761028170585632,-0.23972265422344208,-0.010484982281923294,0.5508536100387573,-1.5044153928756714,1.0160331726074219,-0.09553195536136627,1.8820867538452148,0.5350112915039062,0.45441728830337524,2.2933425903320312,-1.1733207702636719,0.5754022002220154,0.45808151364326477,2.418160915374756,-2.728665351867676,-0.6097322106361389,-1.754914402961731,0.10092223435640335,-0.2697596549987793,-0.3052733242511749,-0.6411510109901428,-0.06618700921535492,-0.23599068820476532,-1.182718276977539,0.48430103063583374,-3.150862693786621,-0.10196369141340256,-0.34603995084762573,-0.9532476663589478,0.667561411857605,-1.8528019189834595,-1.946118712425232,-1.1364728212356567,-1.2510744333267212,0.8368698954582214,-1.0546813011169434,-0.8026132583618164,-1.5640366077423096,2.973386287689209,1.559714913368225,0.5289790034294128,-0.976936399936676,0.9832335710525513,0.5721780061721802,-0.02769681066274643,-1.82183837890625,-0.34669652581214905,-0.26244503259658813,-0.9612147212028503,-0.01458667777478695,-0.5397505164146423,1.0520449876785278,-0.3731829822063446,1.0593440532684326,0.1232159212231636,1.120713710784912,-2.6179287433624268,-2.0272254943847656,0.9121437668800354,0.278500497341156,0.6024757027626038,-0.5447320342063904,0.05444318428635597,1.4263957738876343,0.39378660917282104,0.055518414825201035,0.8270097970962524,1.0043158531188965,0.03712823614478111,1.4296554327011108,-0.7171112895011902,-0.20642651617527008,-0.624563455581665,1.6101772785186768,0.37630441784858704,0.5183327198028564,-1.771553635597229,-1.6497044563293457,-0.35119879245758057,1.4303003549575806,-1.450979471206665,1.087388515472412,-0.8818288445472717,-0.6411135196685791,-0.6951892375946045,0.6669763922691345,0.46465998888015747,-0.8848796486854553,-0.3464859127998352,1.0632826089859009,0.4753296673297882,0.2458101511001587,1.3433197736740112,-0.2380058914422989,0.3994452953338623,0.49770328402519226,-1.276167869567871,2.1394526958465576,0.28834068775177,1.1423872709274292,0.6484858393669128,-0.6338715553283691,2.0344185829162598,0.2912394106388092,0.0010489255655556917,0.7917839884757996,-0.08284298330545425,0.5473600625991821,-1.3606340885162354,-1.5006953477859497,1.2236558198928833,-1.2040009498596191,1.351609468460083,-1.4724215269088745,-1.2242375612258911,-1.3808828592300415,0.7165287137031555,-0.2612735629081726,-1.5488595962524414,1.1748687028884888,-1.168632984161377,0.6841697096824646,0.33277544379234314,0.4108835756778717,-0.4743395745754242,0.19621263444423676,-0.5712514519691467,1.0760414600372314,0.13976021111011505,0.17303135991096497,-0.5283269882202148,-1.0671162605285645,1.1609718799591064,-0.5892961621284485,1.4839245080947876,-0.9192997217178345,1.1672481298446655,-0.6128082871437073,-0.8918382525444031,1.4602172374725342,0.279133677482605,-0.23350057005882263,1.4818061590194702,-0.2666134834289551,-0.9872280359268188,-0.2653588056564331,0.8796199560165405,1.8583168983459473,0.7880315184593201,0.5247564315795898,-1.863885760307312,-1.2962160110473633,0.8038463592529297,-0.1353711038827896,1.2996734380722046,-0.5087867975234985,-1.060519814491272,-0.20243386924266815,-1.5359479188919067,-1.5253100395202637,0.8368104100227356,2.1950724124908447,0.7024699449539185,-0.6411022543907166,0.16914565861225128,-0.25285404920578003,0.5476179718971252,-0.4418828785419464,-0.7839168310165405,0.8564744591712952,-0.05339512228965759,-1.8425787687301636,-1.0354011058807373,-0.2830219268798828,-0.014398257248103619,-1.9464964866638184,-1.3296226263046265,0.13162241876125336,-0.6012787818908691,1.6626198291778564,-0.25741294026374817,0.14757350087165833,-0.8319957256317139,-0.5981161594390869,0.6420465707778931,-0.34163010120391846,1.2470492124557495,-0.50623619556427,-0.10920768231153488,-0.11678285151720047,-2.238532781600952,0.901816725730896,-0.07726867496967316,1.2286423444747925,-3.006971836090088,-0.695271909236908,-1.1007578372955322,0.8506944179534912,0.8951744437217712,-0.8667844533920288,1.1644712686538696,1.4418370723724365,0.8290882110595703,-0.42565879225730896,0.2072124034166336,-1.1728086471557617,-1.370925784111023,-1.1135655641555786,-0.22556178271770477,-0.7303403615951538,0.07336579263210297,-2.897512197494507,-0.5944091081619263,-1.2950782775878906,-0.6090603470802307,0.763123631477356,0.35323089361190796,0.7247564196586609,2.4523277282714844,0.7495216727256775,-0.1932101547718048,-0.8993293046951294,0.8833789825439453,1.723401427268982,1.0988081693649292,-0.2682938277721405,0.299716055393219,-0.8129389882087708,1.2164435386657715,0.27081525325775146
b'\xe7\xae\x97\xe6\xb3\x95',1.747604489326477,-0.017212698236107826,2.5346486568450928,1.0268104076385498,1.0092520713806152,1.0169308185577393,0.18987420201301575,-0.7216448187828064,0.3836188316345215,0.8849503397941589,0.09085926413536072,0.6255254149436951,1.0822207927703857,-2.861845016479492,-1.264553189277649,0.7585411667823792,1.1616783142089844,-1.5506259202957153,-2.10160756111145,0.6253638863563538,0.44830775260925293,-1.1512782573699951,2.7938406467437744,1.5442562103271484,0.09028290957212448,-1.5141600370407104,1.2400376796722412,-0.09272877126932144,0.7931592464447021,-1.7510102987289429,-0.08670471608638763,0.4369855225086212,0.5308157205581665,1.2933310270309448,0.64546799659729,-0.5290502309799194,0.05421992763876915,-0.36855295300483704,-0.8819524645805359,1.8419748544692993,-0.809635579586029,0.08501589298248291,-0.33390018343925476,-0.8769649863243103,-0.47816699743270874,0.11188791692256927,-1.7535089254379272,1.0069135427474976,-0.30009889602661133,-0.6273308992385864,-0.111557237803936,-0.27015480399131775,-0.9170669317245483,-0.9122349619865417,-0.16549521684646606,1.175674319267273,-0.1415344774723053,-2.915925979614258,2.1994662284851074,0.7333846688270569,-1.9631996154785156,0.6792169809341431,-2.9836554527282715,-1.343294620513916,-2.320866584777832,-1.560576319694519,-0.6716800928115845,0.14437741041183472,1.039858102798462,1.9401764869689941,0.9599727988243103,1.531476616859436,-0.25629597902297974,1.4310455322265625,-0.2502828538417816,-1.6919472217559814,0.6985844969749451,-0.7947912216186523,-0.10353045165538788,0.3456009030342102,0.20912829041481018,2.2213134765625,0.15400245785713196,-0.5815208554267883,-0.5465804934501648,-2.075636863708496,0.7883675694465637,1.6023015975952148,0.7842495441436768,1.9811468124389648,-0.20489069819450378,-0.5450380444526672,-0.30916550755500793,0.17269204556941986,-1.0030903816223145,2.059713840484619,-0.9605790376663208,0.12793953716754913,-0.14608930051326752,2.9747138023376465,-0.9188365936279297,-2.4485790729522705,0.3483775854110718,-0.033624257892370224,1.914659023284912,-1.3671140670776367,1.0110440254211426,0.14740054309368134,2.703190565109253,0.6483899354934692,-1.5013000965118408,-0.1681123971939087,1.224757194519043,-0.6637049317359924,-0.5456639528274536,0.8455816507339478,0.30386602878570557,0.8973203897476196,-0.5408586263656616,0.9237918257713318,-0.5141217708587646,-0.16055817902088165,-1.4711835384368896,0.235234797000885,1.1435580253601074,0.3471721112728119,-0.763616681098938,-1.5607956647872925,0.5373508930206299,1.2129361629486084,-1.4932020902633667,0.40469080209732056,-0.48501765727996826,0.4649505317211151,0.16951051354408264,-0.41712987422943115,0.5032811164855957,-0.3745310604572296,1.084875226020813,2.0634677410125732,0.6395964622497559,-1.950269341468811,2.0774171352386475,1.8266674280166626,-0.46989113092422485,-1.7362103462219238,1.1427475214004517,0.18318137526512146,-1.7680189609527588,0.7459564208984375,2.5096592903137207,2.3283166885375977,-0.6129913330078125,-0.234826922416687,-0.18029376864433289,-1.155832290649414,0.7707597613334656,0.5156879425048828,0.6404744386672974,2.340883493423462,-1.381731629371643,0.34233489632606506,-0.7316003441810608,0.24722371995449066,-2.3878281116485596,-3.2579939365386963,-1.5694012641906738,0.47749796509742737,-0.15641207993030548,-1.2929041385650635,-0.0026151754427701235,-0.5074821710586548,2.975943088531494,1.2360690832138062,-0.1379527747631073,-0.8341000080108643,0.698675274848938,-0.9437643885612488,0.8505295515060425,1.491047739982605,-1.7897871732711792,0.9793317914009094,0.4981845021247864,-0.061646584421396255,0.42007365822792053,0.9900014996528625,-0.4371333420276642,1.1572747230529785,-0.46571168303489685,-1.1123627424240112,-0.9840083718299866,0.14612174034118652,0.44235795736312866,-0.19546125829219818,-1.0667569637298584,-1.582918405532837,-1.5497850179672241,1.3566405773162842,-1.8261713981628418,-0.5729419589042664,0.5592895746231079,-0.27231594920158386,0.25151073932647705,0.21301396191120148,0.6349294781684875,-0.32680684328079224,1.6956630945205688,-1.0551846027374268,-1.2440731525421143,-0.9689280390739441,1.6377187967300415,1.9713366031646729,0.06305845081806183,2.5508310794830322,-0.5639874935150146,1.6808875799179077,2.5208582878112793,-0.626825749874115,-1.032664179801941,-0.5459010004997253,-0.1196516752243042,-0.2715987265110016,-0.6235678791999817,0.6943641304969788,0.8494259119033813,-0.6841678619384766,-1.0379213094711304,0.942020833492279,1.3945536613464355,-0.8203184008598328,0.8294448852539062,-1.20371675491333,-1.074583888053894,-0.20689722895622253,-0.42373591661453247,1.5300664901733398,-0.4238746464252472,0.509181559085846,0.40224820375442505,-1.125209093093872,-1.2475229501724243,-0.7854992151260376,-1.2514806985855103,-0.2114505022764206,-1.4188880920410156,0.6156590580940247,1.4860663414001465,-0.724245011806488,-0.521619439125061,0.6915124654769897,0.5855161547660828,-0.35457417368888855,-0.6016705632209778,-1.174372911453247,0.5492008328437805,-0.06981018930673599,1.4011462926864624,1.2782140970230103,0.5778509378433228,1.1399898529052734,-0.5553824305534363,-0.04254654049873352,-1.4570715427398682,-2.263124704360962,0.6557283997535706,0.17467203736305237,-0.04654780030250549,-1.3590494394302368,2.1725869178771973,-0.09751605987548828,-0.7452842593193054,0.18926209211349487,1.299699306488037,0.23317304253578186,-0.8780461549758911,0.047266025096178055,-0.43973663449287415,0.9825878143310547,-0.013322816230356693,-1.4703595638275146,-1.2158398628234863,-0.6791072487831116,1.501301646232605,-1.9665578603744507,0.0769641250371933,1.6467868089675903,0.6499560475349426,-0.17519454658031464,1.2516307830810547,-0.33239609003067017,-1.9219766855239868,1.0912067890167236,0.8460086584091187,0.12555307149887085,0.8148953914642334,2.165273904800415,-1.8191323280334473,0.9281525611877441,0.8188125491142273,-0.9524109959602356,1.1575171947479248,-2.217461109161377,-0.6029353141784668,-0.7303228974342346,-0.809630274772644,-1.3896008729934692,-0.7838658690452576,-1.671055793762207,0.445548415184021,-0.5256051421165466,0.1362905353307724,0.005079562775790691,1.6759319305419922,0.017970232293009758,-0.5054461359977722,-1.5312247276306152,-0.7581901550292969,-0.8225972056388855,-0.35766270756721497,-1.2383689880371094,1.1182136535644531,-1.1164445877075195,0.281493604183197,-0.06439252197742462,-1.3314687013626099,0.12749163806438446,1.5184458494186401,-0.2554102838039398,-0.34854793548583984,-0.6389658451080322,0.592287540435791,-0.014051368460059166,-0.41392168402671814,-3.211655855178833,1.7876160144805908,0.042287107557058334,0.592283308506012,0.5488132238388062,2.0675854682922363,-1.6700003147125244,-1.8867971897125244,-1.2873152494430542,-1.4297219514846802,-1.8224626779556274,-1.3463914394378662,0.5552294254302979,-0.5295013189315796,0.8531822562217712,-1.7281516790390015,-1.3175252676010132,0.47808215022087097,-0.7980902791023254,1.0919771194458008,0.23549950122833252,-0.34059011936187744,-0.2872784733772278,0.02785254269838333,1.3062981367111206,0.29158249497413635,-2.4873993396759033,-0.8828604817390442,-0.8310437202453613,-0.2769031226634979,0.3790081739425659,-4.085967540740967,1.0239479541778564,-0.14183104038238525,0.5878825783729553,0.7626221776008606,1.1057884693145752,0.6264716982841492,-0.21222330629825592,-1.5261415243148804,-0.5793045163154602,1.495139479637146,0.4987037479877472,-1.5938748121261597,0.6015956997871399,0.6468661427497864,-1.1768542528152466,1.006765365600586,0.9437882304191589,0.9032375812530518,0.07323601096868515,-1.1060131788253784,1.2501702308654785,-0.7094213366508484,-0.23636992275714874,2.372025728225708,-0.677482545375824,-0.16533048450946808,0.09935678541660309,-2.768263339996338,-1.738811731338501,1.306066632270813,-0.23440416157245636,-1.013950228691101,0.5260707139968872,1.2700526714324951,-1.224694848060608
b'\xe9\xa2\x86\xe5\x9f\x9f',0.15402469038963318,-0.20038151741027832,1.6356033086776733,0.4998321831226349,0.9775172472000122,0.31849807500839233,0.931016743183136,-1.4813817739486694,-0.019346432760357857,0.9708178639411926,-1.5296058654785156,0.6221106648445129,-0.31784167885780334,-0.716095507144928,0.9693805575370789,-0.49398916959762573,-0.6936059594154358,-1.117903232574463,-1.0817841291427612,-0.28694143891334534,0.8140004873275757,-1.035144567489624,0.3383069634437561,-0.606266438961029,1.7815492153167725,2.426537036895752,-0.8141762614250183,-1.8430941104888916,0.9649258852005005,1.307303786277771,-1.0858122110366821,1.5964808464050293,0.8953935503959656,0.23190467059612274,-0.43025243282318115,-0.5246855616569519,1.5440332889556885,-0.8380154371261597,-0.4755968451499939,0.5759714245796204,0.9032838940620422,-0.03375323489308357,-0.01516581978648901,1.5120612382888794,-1.4336446523666382,-1.1584079265594482,-1.076959490776062,0.32608890533447266,0.5571689009666443,-0.6804478764533997,0.370736300945282,1.9324606657028198,2.7834346294403076,-0.5813568830490112,0.3807802200317383,-0.22312290966510773,-1.2047760486602783,-0.7720116376876831,0.1413746327161789,0.27958229184150696,-1.4141196012496948,1.1062935590744019,-2.8752758502960205,-0.6655715107917786,-1.2082910537719727,-1.3287278413772583,0.29700836539268494,1.1138356924057007,0.832348644733429,0.3710082471370697,0.688711404800415,-0.35506772994995117,-0.28350767493247986,0.20062029361724854,-0.8850506544113159,-0.11258041858673096,1.0859431028366089,0.1673756092786789,-2.3933560848236084,-1.3045645952224731,1.9969016313552856,-0.3128192126750946,0.46330922842025757,-0.8074926137924194,-2.4163172245025635,-1.1991455554962158,-0.6943851113319397,-0.823466420173645,1.5155593156814575,-1.0798388719558716,0.7130253314971924,-0.1038559079170227,1.0395524501800537,1.0136268138885498,-0.8240199685096741,0.5140124559402466,0.4647100865840912,-0.4318285584449768,0.15695862472057343,1.2179348468780518,0.27970758080482483,2.5527496337890625,0.42863431572914124,0.9061377048492432,1.466810941696167,0.24212521314620972,-0.26781007647514343,1.1097468137741089,2.0380914211273193,1.2429449558258057,-0.08226002752780914,2.268855094909668,-0.6124516129493713,0.9494361281394958,-1.1974389553070068,0.29577726125717163,-1.3458101749420166,-0.28636351227760315,1.258178949356079,0.32174965739250183,2.2016983032226562,0.204159215092659,-1.2388352155685425,2.77325701713562,0.277767151594162,1.302077054977417,-0.2702806890010834,-0.49421679973602295,0.812876284122467,-0.6565050482749939,0.614386796951294,0.5038571357727051,0.07164473086595535,-1.0812476873397827,-0.05092206224799156,-2.373713970184326,1.0738435983657837,0.2237556278705597,-0.051086317747831345,2.6140098571777344,0.602673351764679,-0.25274020433425903,1.0334069728851318,0.36077311635017395,-0.32658493518829346,0.6946520805358887,1.659008264541626,-1.9843661785125732,-0.2452286183834076,-0.7505964040756226,0.9669535756111145,1.4537808895111084,2.0640361309051514,0.044735804200172424,2.280421495437622,-0.2627355456352234,0.2991493046283722,-0.6147091388702393,-1.7391599416732788,1.2534408569335938,0.5462298393249512,0.23497408628463745,-2.204242467880249,0.8108118772506714,-1.8947343826293945,-1.0144083499908447,1.07246994972229,-0.9427449107170105,-1.8123135566711426,0.35206401348114014,-0.5726341605186462,-0.5667930245399475,1.331217885017395,-0.8568229079246521,1.475141167640686,0.7958868741989136,-0.1494782567024231,-0.4113677144050598,-0.5697097778320312,1.5855647325515747,-0.8117789030075073,0.40245047211647034,-0.5919157266616821,0.44500964879989624,-2.157942295074463,-1.185280203819275,0.10641683638095856,1.7254256010055542,-0.7961740493774414,-1.7926112413406372,0.8492264151573181,-0.1676216572523117,-1.6151683330535889,0.4735933840274811,0.7129053473472595,-1.245090126991272,-0.0034879823215305805,1.1394810676574707,-2.698549747467041,-0.24669815599918365,2.1209447383880615,-0.7868442535400391,0.15704523026943207,-1.84087073802948,1.0897027254104614,0.20634914934635162,-0.6647977232933044,-1.2951420545578003,3.769117832183838,0.5649869441986084,1.3772387504577637,1.1687828302383423,0.4869333803653717,0.4947790801525116,0.3356730341911316,0.899919867515564,1.6397861242294312,-1.2514456510543823,0.2740747034549713,-0.5231887102127075,-1.4282602071762085,-2.8280014991760254,-0.2524818778038025,1.105911135673523,-0.22599901258945465,2.6698555946350098,-0.10430020838975906,0.7180050015449524,-0.2431587278842926,0.5798397660255432,0.9118192791938782,-0.24983075261116028,0.7980742454528809,-0.3198251724243164,-0.1551699936389923,-0.9306719899177551,-1.3942420482635498,0.8211463093757629,-0.6774176955223083,1.0258482694625854,-0.6869469881057739,1.0789663791656494,-1.4946259260177612,-0.5316362380981445,-0.036614008247852325,1.5756665468215942,2.486082077026367,1.0997053384780884,1.13979971408844,1.8311353921890259,-0.9024426341056824,2.741265296936035,-1.4450879096984863,0.3107776641845703,-0.15567906200885773,0.3587464690208435,-0.10346050560474396,0.7316325902938843,1.9838541746139526,-0.1915009468793869,-1.6791558265686035,-1.409050464630127,-0.6795088648796082,-0.42153623700141907,-1.034571886062622,-0.12073425948619843,-1.0521634817123413,-0.6409940123558044,0.3450585901737213,0.8386610150337219,-1.4287052154541016,0.23541861772537231,0.7388819456100464,-0.02813791297376156,-0.7321155667304993,1.2014700174331665,0.07548420876264572,-2.0052428245544434,0.37193694710731506,-0.7422247529029846,0.9570637345314026,0.5721003413200378,0.1955266147851944,-2.5523135662078857,0.04162824526429176,-2.206880569458008,1.026871919631958,2.6026487350463867,-0.053093455731868744,0.25759848952293396,0.43970733880996704,-0.9611752033233643,1.30767023563385,1.2215142250061035,0.25814303755760193,1.8083701133728027,-1.212050437927246,0.8219408988952637,-0.745585560798645,0.9546449184417725,-1.4333282709121704,-0.9124188423156738,0.7108035683631897,0.9909856915473938,-1.792938470840454,1.1482853889465332,0.6377043128013611,-0.15117619931697845,1.6800532341003418,0.3500877916812897,0.5664368271827698,-0.1820496767759323,0.4316127896308899,2.4272282123565674,0.4320138692855835,-0.5098057985305786,-1.7039313316345215,-1.1438883543014526,0.3126622438430786,2.2960422039031982,-1.0881257057189941,-1.160391092300415,2.206984043121338,0.8310520648956299,-0.27561521530151367,-0.09525061398744583,0.07726849615573883,-2.009324789047241,-0.8603958487510681,0.002256985055282712,1.0734730958938599,0.607304573059082,0.7421383261680603,0.07576872408390045,0.3724612295627594,-1.3555588722229004,0.40936556458473206,-1.474540114402771,0.12223921716213226,-0.5447666645050049,-0.29951173067092896,-0.4134123623371124,-0.4278605878353119,-0.19638128578662872,-0.9048585891723633,0.3648175597190857,-3.0362930297851562,0.15232597291469574,-0.9977819919586182,2.3080785274505615,1.603632926940918,-2.7094104290008545,-1.055461049079895,0.528163731098175,0.2806571125984192,0.38404783606529236,0.9039124846458435,1.060317039489746,0.3804139196872711,0.6538463830947876,-1.1427843570709229,1.1033601760864258,-1.7499380111694336,1.2534763813018799,-2.2502894401550293,-1.670110821723938,-0.7813513875007629,-0.0359327532351017,-0.09868889302015305,-0.07787555456161499,-0.8993828296661377,2.23416805267334,-2.417344331741333,-0.48508453369140625,0.4493142366409302,0.5485401749610901,-0.663870096206665,0.14883454144001007,-0.7145804762840271,0.0277621541172266,1.1032911539077759,0.4036552608013153,1.8785215616226196,0.6140435934066772,-2.0322508811950684,0.7211264967918396,-0.42858174443244934,1.7523406744003296,0.9745898246765137,0.2172577828168869,-0.7779797315597534,-0.45030927658081055,-0.987514317035675,1.2757209539413452,-0.4301013648509979,-1.2793837785720825,0.65372234582901,-1.1127705574035645,1.0041251182556152,0.915511965751648
b'\xe4\xbb\x8b\xe7\xbb\x8d',0.6825903654098511,-0.4323148727416992,-1.2049044370651245,-1.0653879642486572,-0.6991416811943054,-1.7170672416687012,0.7607041001319885,2.1110241413116455,2.10898494720459,-0.2940232455730438,-1.3728691339492798,-0.8285930752754211,-0.27655765414237976,-1.2729905843734741,-0.558434784412384,-0.666790246963501,1.7695202827453613,-1.5713443756103516,0.5256803035736084,-1.700739860534668,-1.2524175643920898,-0.1118641197681427,-1.835191011428833,0.0977744534611702,0.3064943253993988,-0.7497572302818298,-1.5413421392440796,-0.10440327972173691,-0.028919434174895287,0.021630490198731422,0.8260563611984253,0.08375189453363419,0.7890006899833679,-1.8430836200714111,-0.4251948893070221,0.7915035486221313,-0.14952616393566132,-1.2128403186798096,-1.114717960357666,2.086179256439209,1.2794369459152222,0.4540952146053314,0.8409542441368103,-0.5247573256492615,0.9254134893417358,1.301612138748169,-0.9884345531463623,-1.4052677154541016,1.2194552421569824,0.18917235732078552,0.6254376173019409,-0.19093067944049835,0.722344160079956,-0.6652666926383972,-1.4389325380325317,0.5465144515037537,-0.46504849195480347,2.364990472793579,-1.1364432573318481,-0.4815649688243866,-0.22100748121738434,0.6745200157165527,-0.10245732218027115,-1.5565180778503418,-0.8807255029678345,0.26138144731521606,1.5641759634017944,-0.17093561589717865,-0.7520176768302917,-0.12689949572086334,1.023315191268921,0.6764926314353943,-1.2233060598373413,0.6891677379608154,-0.2250446081161499,-2.61164927482605,0.3109801709651947,-0.4682117998600006,0.3094542920589447,-0.9467890858650208,-2.188295364379883,0.9014694094657898,-0.22096283733844757,-0.5765155553817749,0.6482789516448975,0.9202458262443542,0.8607309460639954,0.7953283190727234,1.2408325672149658,-1.0258225202560425,-0.1411149650812149,-0.7700033187866211,-1.4128073453903198,0.5126923322677612,-0.26690900325775146,-1.120303750038147,0.3807204067707062,-1.1878124475479126,-0.26152119040489197,-0.6747465133666992,1.843521237373352,-1.4376887083053589,1.9252442121505737,-1.2886829376220703,-0.05201496183872223,-0.7640399932861328,-0.9890569448471069,-0.22458234429359436,-0.8434693813323975,-1.155638337135315,-0.42445650696754456,1.4512879848480225,-0.1384945511817932,-0.37232375144958496,-0.055526673793792725,0.029162177816033363,0.6786611080169678,-0.12178292870521545,1.7774666547775269,-1.4119118452072144,0.13547785580158234,-0.07813867181539536,-2.112687110900879,0.5915869474411011,-0.6114769577980042,0.003444662317633629,-0.12988990545272827,-1.2244571447372437,0.9720370769500732,0.9346258044242859,-0.21401622891426086,0.6269992589950562,0.42573854327201843,-1.6175987720489502,-1.3456882238388062,-0.020283829420804977,0.2501077651977539,-0.5110195875167847,-0.22524486482143402,-0.1786046177148819,-0.49640944600105286,-0.1698659211397171,-1.1571071147918701,0.31530189514160156,-0.3793100118637085,-0.16624808311462402,2.2939517498016357,-2.358496904373169,-0.057714369148015976,-0.5047965049743652,1.0355288982391357,0.3987075984477997,1.1186846494674683,-0.6660792827606201,0.2339160144329071,2.9196057319641113,1.5195329189300537,-0.43600910902023315,2.0634474754333496,0.9236823320388794,-0.666610062122345,2.448817491531372,-0.12001535296440125,1.3041011095046997,1.3202911615371704,0.008997960947453976,-0.09423922002315521,-1.122073769569397,-0.5110734701156616,0.41523438692092896,1.021472692489624,0.1720505654811859,0.1269100159406662,-0.6740818619728088,-1.0430713891983032,0.5660989284515381,0.24292480945587158,-0.6203394532203674,0.40771153569221497,2.284348726272583,0.7024713158607483,-1.7485376596450806,1.4020037651062012,0.3093979060649872,1.0079774856567383,-0.7887362837791443,0.7957765460014343,-2.0783329010009766,3.186464309692383,-2.0818028450012207,0.1062348484992981,0.9701017141342163,0.5662850737571716,0.7209262251853943,0.5337721705436707,0.37875571846961975,0.24805572628974915,-0.22853077948093414,0.2524504065513611,0.9149118661880493,1.164509654045105,-0.5956701636314392,-1.2806675434112549,-1.5156903266906738,-0.19933584332466125,0.9927141666412354,0.39182913303375244,0.44587084650993347,0.1543530821800232,-0.7863263487815857,-1.732608437538147,-0.19661690294742584,0.7802261114120483,-0.45671796798706055,0.022488262504339218,-0.18113373219966888,-0.9400121569633484,-1.399351716041565,0.3608279526233673,-0.5545040965080261,-1.1503385305404663,0.8105806112289429,-0.05556855723261833,-0.5314167141914368,0.4854013919830322,0.6924737095832825,-0.7806628346443176,-0.8916777968406677,0.22410134971141815,0.8395816683769226,1.5420711040496826,-0.7935482263565063,0.956834614276886,0.01015318464487791,0.694029688835144,-0.8275365829467773,-1.1189707517623901,2.4179670810699463,-0.6362224221229553,-1.4268220663070679,1.292924404144287,0.4212510287761688,0.725445568561554,-0.43298226594924927,-1.6040970087051392,0.22240613400936127,-0.5407525300979614,1.7160217761993408,-0.01571320742368698,-1.4803954362869263,-0.49069294333457947,0.8682180047035217,-1.104514479637146,-1.7109383344650269,1.7013142108917236,1.9449788331985474,0.8401178121566772,0.8929073214530945,0.03881240636110306,0.5598562955856323,-0.7780685424804688,-1.4586607217788696,0.7328622341156006,-0.1491977721452713,0.8484702706336975,-1.0791316032409668,0.8132815361022949,2.1099050045013428,0.40651577711105347,-1.0292714834213257,2.09635066986084,-0.8960714340209961,-0.4091763198375702,0.8265698552131653,-0.08208296447992325,-0.07775350660085678,-0.27213773131370544,-1.9870350360870361,-1.7091200351715088,0.19810903072357178,1.6996670961380005,-1.0350019931793213,-0.9965922832489014,-2.723954439163208,1.1665855646133423,0.8286389112472534,-0.2895735204219818,0.2809707224369049,1.2245844602584839,0.7743410468101501,-1.441258430480957,-0.6508622765541077,-0.41732582449913025,-0.11015763133764267,-0.03310491144657135,0.8193575143814087,-0.672076404094696,0.975719153881073,-1.6644357442855835,1.2972171306610107,1.3010424375534058,-0.22386297583580017,0.5510672926902771,-0.19087231159210205,-0.4477556049823761,-0.24152886867523193,-0.9769415259361267,-1.3202035427093506,1.5654964447021484,0.061532799154520035,1.8836102485656738,-2.0641181468963623,0.2737308144569397,-1.3070785999298096,-1.1200568675994873,-1.1560248136520386,0.6702635884284973,0.4622504711151123,1.21468186378479,1.3769962787628174,-1.2289025783538818,-0.94072425365448,1.1683954000473022,-1.6490477323532104,-1.223954200744629,0.6424879431724548,0.74681156873703,0.24823890626430511,0.03749334439635277,-0.205704927444458,-0.5709908604621887,0.45125988125801086,1.2671244144439697,0.06707394868135452,1.8264330625534058,-0.18461628258228302,-0.3968632221221924,-0.9419658780097961,-0.48177167773246765,0.936322808265686,0.6389164924621582,1.0184905529022217,-0.9532461166381836,0.9838149547576904,0.32606828212738037,-1.544400930404663,0.31837451457977295,-0.44053661823272705,0.8028630018234253,-0.5627766847610474,-0.6653035283088684,-2.8212597370147705,0.8246034979820251,1.2986655235290527,-0.07641404867172241,-0.9554892778396606,-1.2832118272781372,0.7518031597137451,0.19956019520759583,-0.6446226835250854,0.8048369288444519,0.8137675523757935,1.5946776866912842,-0.6956606507301331,-1.2795746326446533,-0.8801811933517456,0.5398553609848022,-1.54294753074646,-0.24215619266033173,-1.9555176496505737,-0.26931315660476685,-1.2335073947906494,0.54185950756073,-0.6014142632484436,-1.3452075719833374,-0.7563357353210449,-1.1749401092529297,0.7691632509231567,1.7451763153076172,-0.37353867292404175,0.5421304106712341,-0.27663907408714294,1.6796566247940063,-0.8040131330490112,1.5268173217773438,-0.15711559355258942,0.5379132628440857,-2.175532341003418,0.0715358704328537,-1.8105889558792114,0.8006726503372192,-0.3815658688545227,-0.09216232597827911,2.7898714542388916,-0.3883802592754364,1.6885316371917725,0.36214664578437805,-2.2228665351867676,-1.769115686416626,1.4364957809448242
