word,0,1,2,3,4,5,6,7,8,9,10,11,12,13,14,15,16,17,18,19,20,21,22,23,24,25,26,27,28,29,30,31,32,33,34,35,36,37,38,39,40,41,42,43,44,45,46,47,48,49,50,51,52,53,54,55,56,57,58,59,60,61,62,63,64,65,66,67,68,69,70,71,72,73,74,75,76,77,78,79,80,81,82,83,84,85,86,87,88,89,90,91,92,93,94,95,96,97,98,99,100,101,102,103,104,105,106,107,108,109,110,111,112,113,114,115,116,117,118,119,120,121,122,123,124,125,126,127,128,129,130,131,132,133,134,135,136,137,138,139,140,141,142,143,144,145,146,147,148,149,150,151,152,153,154,155,156,157,158,159,160,161,162,163,164,165,166,167,168,169,170,171,172,173,174,175,176,177,178,179,180,181,182,183,184,185,186,187,188,189,190,191,192,193,194,195,196,197,198,199,200,201,202,203,204,205,206,207,208,209,210,211,212,213,214,215,216,217,218,219,220,221,222,223,224,225,226,227,228,229,230,231,232,233,234,235,236,237,238,239,240,241,242,243,244,245,246,247,248,249,250,251,252,253,254,255,256,257,258,259,260,261,262,263,264,265,266,267,268,269,270,271,272,273,274,275,276,277,278,279,280,281,282,283,284,285,286,287,288,289,290,291,292,293,294,295,296,297,298,299,300,301,302,303,304,305,306,307,308,309,310,311,312,313,314,315,316,317,318,319,320,321,322,323,324,325,326,327,328,329,330,331,332,333,334,335,336,337,338,339,340,341,342,343,344,345,346,347,348,349,350,351,352,353,354,355,356,357,358,359,360,361,362,363,364,365,366,367,368,369,370,371,372,373,374,375,376,377,378,379,380,381,382,383,384,385,386,387,388,389,390,391,392,393,394,395,396,397,398,399
b'\xe8\x87\xb4\xe5\x8a\x9b\xe4\xba\x8e',0.6656982898712158,1.0851539373397827,0.10318247973918915,1.1569181680679321,-0.6542888879776001,-0.46817144751548767,0.6980500221252441,-0.30287471413612366,-0.8221524953842163,1.313543677330017,0.3914516866207123,-0.8435172438621521,-1.6257853507995605,-1.0018622875213623,1.2472633123397827,-0.6430201530456543,1.0570344924926758,-0.22605042159557343,-1.3231701850891113,1.2185826301574707,0.598125696182251,-1.0513509511947632,0.1455618143081665,0.8367346525192261,1.5032811164855957,-0.017802242189645767,-1.7582815885543823,0.5816938281059265,0.5048885345458984,1.4984036684036255,0.047020409256219864,1.6617121696472168,-1.2981469631195068,-1.544459581375122,-0.0023662846069782972,-2.3791561126708984,-0.3592495322227478,-0.6280325651168823,-0.39204657077789307,-0.2066284567117691,0.7346358299255371,-0.504749059677124,-1.6065068244934082,0.6321130990982056,0.5028043985366821,-0.3875153660774231,0.7649616599082947,0.727340817451477,0.32292142510414124,1.2794057130813599,0.47613856196403503,0.9601303339004517,1.0301616191864014,1.1768280267715454,0.3959299325942993,-0.3153786361217499,-0.0011784035013988614,0.31583335995674133,-1.0979533195495605,-1.5545064210891724,-0.8565242290496826,0.14228664338588715,-0.44288942217826843,-1.0688698291778564,-0.14715036749839783,0.042051881551742554,0.2691139578819275,-0.06979715079069138,-0.24347789585590363,1.7037194967269897,0.4058314859867096,0.2334991991519928,0.06853505969047546,0.9337573051452637,-1.6467770338058472,0.15353037416934967,-0.030826399102807045,0.5379289984703064,1.1514896154403687,-0.2629374563694,-0.16710244119167328,-0.8436764478683472,0.38688233494758606,-2.3707058429718018,0.2096935510635376,-1.1933379173278809,-0.2814422845840454,-0.6375940442085266,0.8565478920936584,-0.9553912281990051,0.4331301152706146,-0.3921673893928528,0.9636881351470947,0.3686230182647705,-0.5608780980110168,0.7458815574645996,1.6658397912979126,-0.5068423748016357,0.3515201807022095,0.7039389610290527,1.5744341611862183,1.7660059928894043,0.5049750208854675,-0.08616221696138382,0.8297605514526367,-1.3247209787368774,-1.3798518180847168,0.1753414273262024,1.4534122943878174,0.5230392217636108,0.93781578540802,1.414894700050354,1.0465439558029175,0.5324601531028748,-0.019204575568437576,-1.3673694133758545,-0.3822527527809143,0.9948861002922058,0.22435757517814636,1.2068026065826416,2.5489420890808105,-0.02418486773967743,-0.9539888501167297,1.0756890773773193,0.8131702542304993,0.6740223169326782,-1.103212833404541,0.636745274066925,-1.272756576538086,-0.7894400954246521,1.525856375694275,-0.29300233721733093,0.49275243282318115,-0.1566726416349411,0.7937729358673096,0.08834901452064514,1.8957984447479248,-0.88418048620224,-0.8615037798881531,-1.0922428369522095,-0.05969299376010895,-0.6409063339233398,1.2580431699752808,-0.031139716506004333,0.16978001594543457,-0.8766587972640991,1.6959744691848755,-0.25395911931991577,0.6384568810462952,1.5376025438308716,0.8602342009544373,0.6007262468338013,-0.3103983998298645,0.46625715494155884,1.781477689743042,1.320214033126831,-0.2971264123916626,0.6340872049331665,0.8613855838775635,-1.3023887872695923,-1.109541893005371,0.168767049908638,-0.5185338854789734,1.4014054536819458,-1.3757600784301758,0.10025716572999954,1.4956918954849243,-0.9305827617645264,0.14837385714054108,0.5432623624801636,-0.8069186806678772,-0.20164480805397034,-1.5886892080307007,0.43077337741851807,1.194348931312561,-1.032070279121399,-1.1208038330078125,0.02132837288081646,2.1624066829681396,0.24777080118656158,-1.0548357963562012,0.1663161963224411,1.6455624103546143,-1.0319639444351196,-0.37109366059303284,0.1897353082895279,-0.2125290185213089,0.3865744173526764,-0.32031652331352234,-0.7497572302818298,-0.03901471942663193,0.10531828552484512,-1.6113195419311523,0.6286703944206238,0.08586253225803375,0.37461942434310913,0.24791809916496277,1.7380845546722412,-1.2870805263519287,-0.9415509700775146,1.1429013013839722,-0.13365216553211212,1.7580279111862183,-0.8713769912719727,-0.4249695837497711,0.9757306575775146,0.02264438569545746,0.5115571022033691,1.5036900043487549,-0.504404604434967,-0.08646762371063232,-0.7136061191558838,-0.40406250953674316,0.3743455708026886,0.3616950511932373,-1.0022687911987305,-0.6541032791137695,0.2228327840566635,0.307571142911911,0.034211404621601105,2.1738150119781494,-1.0614310503005981,-0.4290427565574646,1.4107465744018555,-1.6104661226272583,0.5688081979751587,0.019907323643565178,-1.2969313859939575,-1.0673428773880005,1.4547721147537231,0.26798194646835327,-0.6529982089996338,0.33234724402427673,-0.2576830983161926,0.13377220928668976,0.4202691316604614,1.1449007987976074,0.31589075922966003,-0.060633864253759384,0.25871893763542175,-1.0722533464431763,0.30003800988197327,-0.3312731087207794,0.2808897793292999,1.0686190128326416,1.1818078756332397,0.5209554433822632,3.402218818664551,-0.5020459890365601,-0.8485052585601807,-0.12940804660320282,-0.3507687747478485,-1.7855464220046997,0.8951781988143921,-1.7003511190414429,-0.5964696407318115,0.867859959602356,1.4749562740325928,0.9704440832138062,1.1260634660720825,-1.5080320835113525,-1.1439446210861206,0.25418445467948914,0.5182637572288513,-1.420041799545288,-0.23863910138607025,-1.0503416061401367,0.017189521342515945,-0.6821709871292114,-0.07017502933740616,-1.4082324504852295,0.053239475935697556,-0.21592596173286438,-0.14500510692596436,-0.20900043845176697,0.5388805270195007,0.5565643310546875,0.7073729038238525,-0.5363183617591858,-1.2491635084152222,0.4801371097564697,0.6882938742637634,-0.016216279938817024,0.3035586476325989,0.6014571785926819,-0.8805896639823914,-0.17574264109134674,2.4919097423553467,2.408515214920044,0.006553489249199629,-2.041792392730713,-1.7833374738693237,-0.10488671064376831,0.7953928112983704,-1.4122759103775024,-1.0649133920669556,-1.5664695501327515,1.4672375917434692,0.232802152633667,-0.682451069355011,-0.5512431263923645,0.16692303121089935,-0.14306388795375824,0.7324939966201782,-0.9821040630340576,0.7440524101257324,-1.2451969385147095,1.5033878087997437,3.0233712196350098,-1.839180827140808,-0.0834726095199585,0.06596419960260391,-1.1545145511627197,2.6498312950134277,1.0034435987472534,-0.5054028630256653,-1.4599204063415527,-1.1808944940567017,0.4360179007053375,1.550187110900879,-1.4107664823532104,-0.6797881722450256,-0.7988930344581604,0.7164077758789062,0.2517555356025696,0.2333916276693344,0.31526264548301697,-0.4855828583240509,0.5169646143913269,-1.143365740776062,0.11770182847976685,0.5642593502998352,1.5165108442306519,1.0335299968719482,0.18849672377109528,0.11479700356721878,-0.9581526517868042,2.274216890335083,0.3038821816444397,-1.4667136669158936,-0.20476561784744263,-0.05690224841237068,0.2063017338514328,-0.9927026629447937,0.07005283236503601,-0.002088558627292514,-2.2275688648223877,-1.4113489389419556,0.4119970202445984,0.9751632213592529,-0.5974239110946655,-0.9184471368789673,1.02657949924469,0.05599895492196083,0.43360957503318787,0.246507927775383,-1.112627387046814,0.6394166946411133,0.14560435712337494,-0.473519504070282,-1.0128729343414307,-0.09771774709224701,-0.13788767158985138,0.6696001887321472,-1.3391225337982178,-0.36625033617019653,0.016550082713365555,0.29554662108421326,0.13147205114364624,0.12737399339675903,-1.4193391799926758,0.11078718304634094,-0.9157107472419739,0.24074304103851318,-0.25475242733955383,0.9129845499992371,-0.3627377152442932,0.06095409765839577,-1.4664345979690552,2.4626376628875732,1.711159348487854,-0.24731199443340302,1.4042021036148071,2.2040281295776367,-2.2141356468200684,-0.4104119539260864,1.2048838138580322,0.31281599402427673,0.7846894264221191,1.884698510169983,-0.14157186448574066,0.2799301743507385,-0.4082115888595581,0.8063263297080994,1.3003360033035278,1.0714948177337646,0.6804471015930176,-0.041174523532390594,-0.8428438901901245,0.6989132761955261
b'\xe6\xbf\x80\xe5\x85\x89',-0.08933518826961517,0.026388071477413177,0.32435283064842224,-1.1878719329833984,0.48223066329956055,-0.27005231380462646,-0.13744008541107178,-0.7219083309173584,-0.5733803510665894,0.3056403696537018,-1.9750386476516724,-0.025015203282237053,0.29484426975250244,-0.07979076355695724,-0.12226340174674988,0.1354888677597046,0.881907045841217,-2.093918561935425,0.5451755523681641,-0.6926543712615967,0.15180546045303345,-0.09335808455944061,0.6982555389404297,0.492044061422348,0.8919116854667664,-0.4017636179924011,1.1978039741516113,-0.9131038188934326,1.3864052295684814,-0.41582491993904114,1.0406394004821777,-0.1599598228931427,-0.4668024480342865,2.043222665786743,0.39468199014663696,-0.13543441891670227,1.7257136106491089,-0.5909010171890259,0.6381182670593262,-0.20645131170749664,-0.8690059781074524,0.8056110143661499,-0.07246871292591095,-0.24832184612751007,-0.48363450169563293,-1.2148512601852417,-0.5010467171669006,0.09814828634262085,0.25485703349113464,0.30296507477760315,-1.5945374965667725,-0.8687061667442322,-0.7863336205482483,1.0801382064819336,0.6639367341995239,-0.669293999671936,-0.5289589166641235,0.04090036824345589,-0.9789511561393738,0.42248761653900146,0.2720743417739868,0.38337504863739014,0.7954755425453186,0.5702682137489319,-0.16923220455646515,-0.2504781186580658,-0.8021547198295593,-0.32382288575172424,1.1303904056549072,0.29730281233787537,0.23893994092941284,-0.6251392364501953,-0.6061665415763855,-0.23224256932735443,-0.6465567350387573,1.16746187210083,-0.9121707677841187,0.1542375534772873,-0.04833938926458359,0.7885566353797913,0.26418858766555786,0.6210126876831055,1.2695485353469849,-2.372110605239868,0.8391409516334534,-0.9765370488166809,1.1499325037002563,-0.13401366770267487,0.09561558812856674,0.008610107004642487,0.19983743131160736,-0.3529295027256012,-0.31112778186798096,-0.2089034467935562,-1.1616337299346924,-0.4606519937515259,-0.17331311106681824,-0.017603576183319092,1.3623604774475098,0.9969798922538757,-0.7907449007034302,0.8993537425994873,-1.3839811086654663,-0.5808496475219727,0.21697737276554108,-0.23631469905376434,-0.0029331587720662355,1.3719253540039062,-0.12104940414428711,0.4773293137550354,-0.7329066395759583,0.4355459213256836,1.0276850461959839,-0.5627496838569641,0.6962408423423767,1.9251512289047241,-0.2684778571128845,-0.46690061688423157,-0.19660009443759918,0.8448790907859802,1.2914624214172363,-0.18157528340816498,-1.2251968383789062,1.1583925485610962,-0.05336043983697891,0.42146438360214233,2.3335840702056885,-0.5168898701667786,0.38005080819129944,0.9515507221221924,-1.1779522895812988,1.000351071357727,-0.8634318709373474,-1.2261370420455933,0.5610941648483276,0.22205747663974762,-0.7850667834281921,-0.6761470437049866,0.18552741408348083,-0.1777120977640152,1.490025281906128,-0.6848030090332031,-0.09580682963132858,1.4943608045578003,-0.27952128648757935,-0.002476960187777877,-0.45796412229537964,-0.3468494713306427,0.8775679469108582,0.0646931454539299,-0.36647969484329224,0.8385111093521118,0.8875096440315247,-0.30825233459472656,-0.03315339982509613,-0.8279396295547485,-0.7033509612083435,-0.7334836721420288,-0.7054234147071838,0.14492368698120117,-2.4906113147735596,0.49975764751434326,-0.8387206792831421,0.051564570516347885,-0.4847457706928253,-1.5341802835464478,0.9675173163414001,-0.08276405185461044,1.5249892473220825,-0.34032300114631653,-0.06935543566942215,-0.6733528971672058,1.6556403636932373,-0.6872016787528992,-0.9420240521430969,0.8045476675033569,1.5043929815292358,-0.21548694372177124,0.4349173307418823,0.14803235232830048,-0.6492637395858765,0.9958871006965637,-0.6288345456123352,0.0987703874707222,-0.48061931133270264,0.43894803524017334,-0.8569912910461426,-0.4834659993648529,-0.4986296594142914,-1.3835655450820923,0.8690552711486816,0.6924682259559631,0.8103432059288025,0.4567839801311493,-0.2719579339027405,-0.583628237247467,-0.015114955604076385,-0.9414453506469727,-0.6841473579406738,-0.9737390279769897,-0.5757033824920654,-0.8067798018455505,0.34092316031455994,-2.622713565826416,-0.0418483130633831,-1.6332186460494995,-0.8801836967468262,-1.035464882850647,2.1467669010162354,0.036095429211854935,-0.6566077470779419,-0.13993601500988007,-0.4958617687225342,0.23712584376335144,-1.1830896139144897,0.3958224654197693,0.5001953840255737,0.14785954356193542,0.1838827282190323,-0.742883026599884,-0.024200208485126495,-0.9647436738014221,-1.2312554121017456,2.1142590045928955,-0.8509656190872192,0.8841896057128906,-0.900179386138916,-1.3169251680374146,1.5900498628616333,-1.8351699113845825,2.2826108932495117,0.5446717143058777,0.855351984500885,0.11480162292718887,1.0259689092636108,-1.084551453590393,-0.23623350262641907,0.089308001101017,-0.17208994925022125,0.4475679397583008,0.42402198910713196,-0.9069763422012329,-1.612115740776062,0.14144763350486755,-1.4826457500457764,-0.09681308269500732,-0.6331095695495605,0.6278896927833557,0.20545463263988495,2.258901834487915,-0.38689813017845154,-0.2692464292049408,0.5040088295936584,-0.7391317486763,-0.03748320788145065,-0.4114181697368622,0.6115038394927979,-0.4471075236797333,0.7721152901649475,0.3271426856517792,-0.8085864782333374,0.8430610299110413,-0.41387060284614563,0.4305556118488312,-0.17014190554618835,0.8024472594261169,1.0491242408752441,0.2284856140613556,0.5972104072570801,-0.8742640614509583,-0.14279581606388092,0.6900647878646851,0.8167540431022644,0.36599695682525635,0.20435255765914917,-0.2517419159412384,0.27071326971054077,1.4899518489837646,-0.2553815543651581,1.2257519960403442,-0.7180730104446411,-0.9031311869621277,0.18353527784347534,0.06647170335054398,-1.2933481931686401,-0.47851741313934326,-0.30520936846733093,0.9136980772018433,-0.12257908284664154,-0.6906063556671143,-0.11158861964941025,-0.2900916337966919,-1.3205528259277344,0.1829364150762558,0.14981572329998016,0.4112018644809723,-1.204560399055481,3.0161008834838867,0.21549338102340698,-0.37969112396240234,-0.21750952303409576,-0.6528050303459167,-0.6900252103805542,0.41399598121643066,-0.8148918151855469,0.8335337042808533,-0.6729448437690735,-0.009612656198441982,-0.13840509951114655,-0.14524368941783905,0.7395504117012024,0.1590385138988495,1.0810576677322388,-0.7651540040969849,0.364937961101532,0.5076088309288025,0.09825138002634048,-0.3719688057899475,-0.05871642753481865,-0.7369656562805176,-0.7640323638916016,-0.6126556992530823,0.24197092652320862,-0.38078752160072327,0.5978990793228149,-0.22304345667362213,-1.3281923532485962,-0.07858388870954514,0.22823645174503326,-0.8718997240066528,0.1294747292995453,0.17954601347446442,0.7597315311431885,-0.4917599558830261,1.5457210540771484,-1.0850600004196167,-0.2018207311630249,-0.5020992755889893,-0.11809807270765305,-0.4633062183856964,0.9064070582389832,-0.1803620159626007,-0.12420359998941422,-0.7690938115119934,-0.8319036364555359,-0.5274808406829834,-0.7061749696731567,-0.19283853471279144,-1.5733689069747925,1.9432034492492676,-0.3505997359752655,-1.0015926361083984,0.17419956624507904,0.6415308713912964,0.3685401678085327,0.06345105916261673,1.0326035022735596,-0.968681275844574,-0.03193465992808342,1.0216526985168457,-0.997013509273529,1.0939981937408447,0.33179542422294617,-0.555656373500824,-1.8240755796432495,-0.255452424287796,-0.9521316289901733,0.7709270715713501,-0.6810397505760193,-1.830736517906189,0.41169315576553345,0.6303636431694031,0.9126463532447815,1.6820875406265259,0.8195580840110779,-0.9813525676727295,-0.07522338628768921,-0.6100006103515625,0.8452799916267395,-0.244780495762825,-1.1390268802642822,-0.21367429196834564,0.5611381530761719,-0.8803941607475281,-1.2663086652755737,1.7238404750823975,0.9918276071548462,0.9559041857719421,1.10470712184906,-1.6074305772781372,0.2420452982187271,-0.3493196666240692,-0.5216341018676758,2.461941719055176,1.402335286140442,0.34799978137016296,0.19026611745357513,-0.5541945695877075,1.5560567378997803,-0.13797825574874878
b'\xe7\x94\xb5\xe5\xad\x90\xe6\x98\xbe\xe5\xbe\xae\xe9\x95\x9c',-0.5508750677108765,-0.034298110753297806,0.2030072808265686,-0.6214614510536194,0.2471161037683487,0.4969141185283661,0.3160354495048523,-0.4721861183643341,0.4245047867298126,-0.08004675805568695,-0.6726135015487671,-0.14493094384670258,0.7266563773155212,-0.22457945346832275,-0.26390978693962097,-0.09770084172487259,-0.04706602916121483,-1.2814303636550903,-0.570644736289978,0.06367294490337372,-0.12925459444522858,-0.7568559050559998,0.14525267481803894,-0.10905253142118454,0.5336325764656067,-0.06728370487689972,0.40338850021362305,-0.9236507415771484,-0.02338399365544319,-0.3278762698173523,0.40086081624031067,0.03950412943959236,-0.02200539968907833,0.3343280851840973,0.12117082625627518,-0.7589899897575378,0.743705689907074,0.22860540449619293,0.5386255979537964,-0.5560958981513977,0.15923458337783813,0.9879212379455566,-0.6741371154785156,0.04762621596455574,0.07543795555830002,-0.5254754424095154,-0.06959294527769089,-0.22799746692180634,0.24007943272590637,0.08520577102899551,-0.7378911972045898,0.6372426152229309,-0.14679719507694244,0.0985882356762886,-0.04709821939468384,-0.7325337529182434,-0.4666019678115845,-0.06563685834407806,-0.2728181779384613,-0.3397887945175171,-1.1249123811721802,-0.34708842635154724,0.636536180973053,-0.16606348752975464,0.6712726950645447,-0.3710929751396179,-1.0523231029510498,-0.8580023050308228,-0.3034873902797699,0.3432929217815399,-0.06460848450660706,0.013387189246714115,-0.1502259522676468,0.9100629687309265,-0.312185674905777,0.1380879133939743,-0.08562969416379929,0.415144681930542,1.3921231031417847,0.4146057069301605,-0.13404954969882965,0.5339199304580688,1.0401623249053955,-1.3740986585617065,-0.31409990787506104,-0.17072038352489471,0.5294849872589111,1.0918203592300415,0.3748490512371063,-0.18316352367401123,0.22273609042167664,0.6807169318199158,-0.037315573543310165,0.20979006588459015,0.13748210668563843,0.12251077592372894,-0.30375951528549194,-0.082007497549057,0.32007545232772827,0.4344867169857025,0.012445599772036076,-0.31220072507858276,-0.49471741914749146,-0.114686019718647,0.12872938811779022,0.244255930185318,-0.2684674859046936,1.2734928131103516,0.5671581029891968,-0.055706433951854706,-0.23215113580226898,0.3516608476638794,0.36044853925704956,-0.21449927985668182,-0.413579523563385,0.7969843149185181,-0.9377274513244629,-0.2823110520839691,-0.367685467004776,0.39373379945755005,0.1307022124528885,0.15144792199134827,-0.24716560542583466,0.3781954348087311,-0.2741738259792328,-0.0678701177239418,0.9015294909477234,-0.6779947280883789,-0.23342560231685638,0.8587620854377747,0.0621151365339756,0.6480761766433716,-1.2952098846435547,-0.007112440653145313,-0.22115091979503632,0.7027849555015564,-0.290735125541687,-0.48521506786346436,0.2050676792860031,-0.1679057627916336,0.588216245174408,-0.37388476729393005,-0.02029469981789589,1.094620943069458,-0.01435091532766819,-0.031581804156303406,0.6203920245170593,-0.45115962624549866,0.41456207633018494,0.17363081872463226,0.4461418688297272,0.9168601036071777,-0.5860297679901123,0.3104627728462219,0.19382286071777344,-0.35972195863723755,0.13036948442459106,-0.17990335822105408,-0.18831974267959595,0.0763673260807991,0.020345402881503105,0.6079099774360657,-0.029453715309500694,0.3302886188030243,-0.23924829065799713,-0.006447103340178728,0.8832452297210693,-0.555448591709137,0.27913182973861694,-0.3142271935939789,-0.4966259002685547,-0.015253691002726555,1.3305766582489014,0.902807891368866,-0.5614515542984009,0.38642314076423645,0.8020144701004028,-0.28080594539642334,0.43729859590530396,1.3787277936935425,-1.2281241416931152,0.1346297711133957,0.18834127485752106,-0.4342963397502899,-0.2962667644023895,0.09744539856910706,0.26763996481895447,0.07382092624902725,-0.571312427520752,-0.23671506345272064,-0.03211513161659241,0.5740112662315369,0.3404267728328705,0.08983837813138962,-0.28856053948402405,-0.2602805197238922,0.045649513602256775,-0.20295175909996033,-0.9705847501754761,-0.3659913241863251,0.7868250608444214,-0.32339590787887573,-0.35043561458587646,-0.8981919884681702,0.06435337662696838,0.3014650046825409,0.34716278314590454,0.10653163492679596,0.6481736302375793,-0.14441238343715668,-0.4255092442035675,-0.4804282784461975,-0.18383671343326569,0.8458746075630188,0.01636221818625927,-0.002422991441562772,-0.21217229962348938,-0.26716750860214233,0.41285741329193115,-0.8012068867683411,-0.44901230931282043,-0.7697036862373352,0.1878460794687271,1.2979276180267334,-0.9542540907859802,0.16892555356025696,-0.19583076238632202,-0.5960374474525452,1.0310496091842651,-0.7373780608177185,0.94486004114151,0.3829025626182556,-0.2789763808250427,0.5605230331420898,0.7270338535308838,0.37439554929733276,-0.6305813193321228,0.5271840691566467,-0.3898952305316925,-0.5690423250198364,-0.3829827308654785,-0.6683083176612854,-0.7796676158905029,-0.516430139541626,-0.3652365207672119,0.8446226119995117,0.25168830156326294,-0.7482694983482361,-0.29484015703201294,0.6504468321800232,-0.3849143087863922,-0.043389156460762024,-0.14834249019622803,0.3401873707771301,0.5143161416053772,-0.16730788350105286,0.5379288196563721,-0.1418898105621338,0.6147658824920654,0.41828563809394836,-0.7956152558326721,0.13739702105522156,-0.8382931351661682,-0.15081141889095306,0.13988932967185974,0.4358959496021271,0.8418791890144348,0.2228526622056961,0.5101351141929626,-0.5826098918914795,-0.20966961979866028,0.10996414721012115,0.8957074880599976,0.302144855260849,0.06672941148281097,-0.18590830266475677,-0.6583593487739563,0.026252267882227898,-0.4939122200012207,0.4482322633266449,-0.4849819839000702,-0.4038604199886322,1.2059931755065918,-0.25755178928375244,-0.9626373648643494,0.24288254976272583,-0.3048021197319031,0.2748318910598755,-0.48626723885536194,-0.008399171754717827,-0.36055174469947815,0.15067733824253082,0.23309426009655,0.15915079414844513,-0.2947697043418884,0.8207919001579285,-1.0701477527618408,0.5470695495605469,-0.2779679298400879,-0.700262188911438,1.121938943862915,-0.45834699273109436,-0.2539549767971039,-0.4181651771068573,0.32393577694892883,-0.2473626285791397,-0.5229758620262146,-0.7570700645446777,-0.8258070945739746,0.22089602053165436,-0.008068155497312546,0.3410508632659912,0.6308236122131348,-0.47185173630714417,0.28939321637153625,-0.7975915670394897,-0.4444599747657776,-0.3849312365055084,-0.10384973883628845,-0.3218318819999695,0.14386509358882904,-1.1730271577835083,0.2716027498245239,0.32490649819374084,-0.7324785590171814,-0.13602887094020844,-0.6707617044448853,-0.5267132520675659,0.4991692304611206,0.12135392427444458,-0.4080708920955658,0.4044528901576996,0.0006490289233624935,-0.8521756529808044,0.4171631336212158,-1.088828682899475,-0.4469555914402008,-0.4133894145488739,-0.9824787378311157,-0.9660637974739075,0.05771064758300781,-0.40208739042282104,-0.2513865828514099,-0.9614706039428711,-0.6594127416610718,-1.1008278131484985,0.2667939066886902,0.3911559283733368,0.2618410587310791,0.6735947132110596,-0.2163940668106079,-0.4893879294395447,0.041750624775886536,-0.28795358538627625,-0.08076877892017365,-0.9659717679023743,0.37813591957092285,-0.5493411421775818,-0.21130235493183136,0.10473166406154633,-0.05842433124780655,0.3736180365085602,0.2375851422548294,-0.4979774057865143,-1.3942278623580933,-0.8228786587715149,-0.29471585154533386,0.7061211466789246,0.6159425973892212,-0.8741695880889893,0.2580367922782898,-0.3983041048049927,1.1453406810760498,0.8243237137794495,0.22913290560245514,-0.3307640552520752,-0.3677000403404236,-0.7330841422080994,0.5989917516708374,0.0933593213558197,0.19941619038581848,-0.04534585401415825,0.39374205470085144,-0.33386948704719543,-0.96656334400177,-0.01881679706275463,0.8063017129898071,-0.41216346621513367,-0.2656992971897125,-0.6175490021705627,0.2361738681793213,0.5635981559753418,-0.5969139933586121,-0.05341743305325508,0.7054628133773804,0.5122811198234558,0.5808339715003967,0.2511870563030243,0.7973132133483887,-0.5600771903991699
b'\xe4\xba\xba\xe5\x91\x98',0.2572300136089325,2.418057680130005,-0.07724732905626297,1.1113125085830688,2.004445791244507,1.3488943576812744,0.5445791482925415,-0.06861680746078491,-0.9098164439201355,-0.10206912457942963,-0.037656426429748535,-0.11089510470628738,-0.43222081661224365,0.11982131004333496,-0.041190654039382935,-1.7968952655792236,0.6327608823776245,-0.6922783851623535,-0.20641174912452698,1.2618072032928467,1.1571476459503174,-0.9447938799858093,-1.247503638267517,1.012306571006775,-0.21430763602256775,1.6663763523101807,-0.9216262102127075,-0.9615029096603394,1.7486250400543213,-0.8009206652641296,1.112529993057251,2.052525281906128,-0.6994174122810364,-0.10020902752876282,-0.8262403011322021,-0.3893235921859741,0.3666580617427826,1.1308887004852295,-1.5456551313400269,-0.1239653155207634,-0.19626034796237946,-1.028363585472107,-0.5916988253593445,0.20506568253040314,0.06714234501123428,-0.23122195899486542,-0.1305725872516632,0.37096112966537476,0.714467465877533,0.5395402312278748,-1.2558367252349854,0.7630336284637451,0.6909775733947754,-1.128527045249939,0.7721811532974243,-1.597948431968689,-0.7134097814559937,-0.40910518169403076,-0.8507963418960571,-0.515002429485321,1.0263080596923828,0.2241096794605255,-0.9631379842758179,0.7196156978607178,0.08728252351284027,-1.3866409063339233,-1.4173314571380615,-0.9882540106773376,0.7959771752357483,4.138261318206787,-2.24605393409729,-0.5156510472297668,1.4963515996932983,0.2984737753868103,-0.10799627751111984,0.6720947623252869,1.2598406076431274,-0.4632020592689514,-0.9108835458755493,0.9705712199211121,-1.2915829420089722,1.3319003582000732,2.726060628890991,0.7510254383087158,-0.8552990555763245,0.22642666101455688,-2.304615020751953,-0.20673204958438873,-0.023602381348609924,-2.7860653400421143,1.5484246015548706,-0.6870462894439697,0.36315053701400757,0.1926998794078827,1.714889407157898,0.09096892178058624,-0.06859304755926132,0.1586643010377884,-1.5071383714675903,-0.708371639251709,-0.644058108329773,-0.19802582263946533,2.503716468811035,-0.5015621781349182,0.16129091382026672,1.6420141458511353,-0.22612762451171875,1.544273018836975,0.9204106330871582,1.03104567527771,2.564396858215332,1.3577797412872314,-1.6493384838104248,-0.7872340083122253,-1.1530894041061401,-0.717894434928894,2.064378499984741,0.5585691928863525,0.34986141324043274,1.3903533220291138,2.575432538986206,1.5925183296203613,-1.176596760749817,-0.043560829013586044,-0.20225468277931213,-1.0311498641967773,1.051230549812317,-0.9941965341567993,1.5587586164474487,0.3840499818325043,1.959755778312683,1.5076212882995605,0.019057374447584152,-0.22785545885562897,-1.164791226387024,-1.34394371509552,-0.33213794231414795,0.30934348702430725,-1.0087194442749023,-0.09540972858667374,1.1525946855545044,-1.068949580192566,0.8813849091529846,0.1037006601691246,-0.9125343561172485,1.5691161155700684,0.479282945394516,1.0100269317626953,2.0718984603881836,-2.646970272064209,-0.5642857551574707,0.48437440395355225,0.575796365737915,0.6640962958335876,-0.5839632153511047,1.2159123420715332,0.5686055421829224,-0.21574527025222778,-1.2968368530273438,2.6369683742523193,0.5204401612281799,-0.015534450300037861,-1.007213830947876,0.44317179918289185,-0.8956708312034607,-2.024639844894409,1.8252032995224,-1.291512370109558,-1.3520644903182983,1.9322915077209473,-0.6224470138549805,0.5040415525436401,-0.558015763759613,-0.9599050283432007,1.524046778678894,-0.5433605313301086,0.8172244429588318,0.3788318932056427,0.9020724296569824,0.983505129814148,-0.23850563168525696,-0.35163813829421997,1.2493356466293335,1.1560488939285278,-0.9692349433898926,0.9732869863510132,-0.41909632086753845,2.2921817302703857,-0.9637331366539001,-0.11533894389867783,-0.968507707118988,1.618618369102478,-1.8480491638183594,0.2416982501745224,1.2676016092300415,-0.9249072074890137,-1.5418705940246582,2.17267107963562,-2.374316453933716,2.0994961261749268,-0.6400858163833618,0.048275306820869446,-0.7378968596458435,0.7063822150230408,2.8491318225860596,-0.048256587237119675,0.7494896650314331,-1.190502643585205,1.9007855653762817,0.02030949294567108,0.6472674608230591,1.5835788249969482,2.9436609745025635,-0.574943482875824,0.07547716051340103,1.3452767133712769,0.7380983829498291,0.5550656318664551,-0.27850642800331116,-1.353032112121582,1.0682427883148193,1.194575548171997,-0.590547502040863,-0.23169806599617004,-1.9174776077270508,1.1476832628250122,-0.5172621607780457,-0.756923496723175,0.7206763625144958,0.0022171831224113703,0.9065810441970825,0.028393222019076347,0.44258707761764526,0.009590400382876396,2.2137765884399414,-1.9480546712875366,-0.21461857855319977,2.7794816493988037,-2.006265163421631,1.0469757318496704,-0.7609856724739075,0.6175267100334167,-0.2727983593940735,0.895778238773346,-0.07418709993362427,-1.190937876701355,1.3240554332733154,0.26707950234413147,-1.396468162536621,0.851231575012207,0.47743865847587585,2.3351595401763916,1.1816418170928955,1.53414785861969,-0.07986001670360565,-0.946213960647583,-0.28733134269714355,1.0363556146621704,-0.375836044549942,2.048919916152954,-2.728893995285034,1.4077805280685425,-2.4900686740875244,2.147688627243042,0.16022180020809174,-0.5120757818222046,0.5375213027000427,1.6893506050109863,1.6122134923934937,1.4110796451568604,-0.4845154881477356,0.0745549127459526,-0.1748598963022232,-1.3848761320114136,-0.3695875406265259,-0.7696409225463867,-0.2883903384208679,0.8759363293647766,0.3568956255912781,1.2755887508392334,0.9958006143569946,1.1950734853744507,-0.023514442145824432,-0.19098174571990967,-0.7028095722198486,-2.162383556365967,-1.3039380311965942,-0.34587717056274414,-0.8582229018211365,0.3309718370437622,0.05823708698153496,-0.36994606256484985,0.5323472619056702,-2.5481786727905273,0.6744105219841003,-0.4465806186199188,-2.1754350662231445,-0.5082603693008423,-2.170207977294922,1.5745218992233276,-2.3920249938964844,-0.4566504657268524,1.638146996498108,1.552592396736145,0.4649326801300049,0.783959686756134,0.36145928502082825,-0.7394689917564392,0.014267697930335999,0.4243941903114319,0.41709280014038086,-0.9060285687446594,0.5458643436431885,0.42122000455856323,-0.10372604429721832,1.1406428813934326,1.8997036218643188,-1.1009800434112549,1.2140363454818726,0.588222324848175,-0.497597336769104,-0.25259286165237427,1.2878468036651611,0.5155085921287537,0.7897111177444458,-1.2636114358901978,-0.4990028142929077,-0.7250167727470398,-1.9703989028930664,-1.933220386505127,0.9490163326263428,-1.4268898963928223,0.04995004087686539,0.4185850918292999,-0.4469560384750366,0.03957720100879669,-1.9686803817749023,0.5289298892021179,-0.9015563726425171,0.12266718596220016,-1.6709729433059692,0.8177511096000671,-0.5707865953445435,-0.06681100279092789,-0.4798226058483124,0.5723429322242737,-0.925832986831665,0.3601006865501404,-0.10524319112300873,-0.03581465035676956,1.0760223865509033,-0.6085854172706604,1.624964714050293,0.7883960008621216,1.5135669708251953,-2.9172937870025635,-0.08467317372560501,1.4056140184402466,-0.44026073813438416,-0.9066003561019897,0.9278632998466492,-0.45324158668518066,0.20552244782447815,0.8416935801506042,1.319726586341858,-2.9849631786346436,0.33448705077171326,0.4155549705028534,-0.9705630540847778,-0.11203927546739578,-1.0531949996948242,-1.276078701019287,-1.6840612888336182,-1.3824784755706787,3.028745651245117,-0.030558694154024124,-0.36761966347694397,-1.5878770351409912,0.49707627296447754,0.436420738697052,-0.13349837064743042,-1.2450363636016846,-2.2297685146331787,-1.0465829372406006,-0.289577841758728,-1.5648069381713867,0.47889086604118347,-0.5272610187530518,0.8779462575912476,0.5223880410194397,-0.528577983379364,1.522829532623291,1.3274942636489868,-1.6825928688049316,0.31258928775787354,0.8541579246520996,0.3435005843639374,-0.7344797253608704,0.43276211619377136,-1.3907102346420288
b'\xe5\x89\x8d\xe6\x8f\x90',0.9934086203575134,-0.4623832106590271,-0.20710958540439606,1.2272872924804688,-0.6052353978157043,-0.5037540197372437,0.9134416580200195,-1.6645756959915161,0.3966837525367737,1.968679428100586,-0.7851294279098511,-1.934570550918579,-0.5572125315666199,-0.4019553065299988,-0.2886897623538971,0.6883496642112732,0.07349379360675812,-0.7914736270904541,0.9705780744552612,0.09266102313995361,0.20801669359207153,-0.7758780121803284,-0.33934879302978516,-0.054711729288101196,-0.16148747503757477,0.43633630871772766,-0.685939610004425,0.28393036127090454,-1.0116944313049316,1.2078895568847656,0.32484352588653564,0.2682822346687317,-0.03850872442126274,1.726567029953003,1.1156928539276123,-0.0103720398619771,0.34007030725479126,-0.6724693775177002,-1.8015650510787964,1.31145179271698,0.1705327332019806,1.0457524061203003,-0.0446537621319294,0.9721701145172119,-0.3507620692253113,0.5276718735694885,-0.3588899075984955,-0.04134536534547806,0.5660685300827026,-1.2641773223876953,0.26368770003318787,0.755687415599823,2.0979957580566406,-0.24398502707481384,0.4982655346393585,-0.07504193484783173,-0.6298214793205261,0.19992026686668396,-0.5026399493217468,-2.3049607276916504,0.8879241943359375,-0.5700029730796814,-0.714701235294342,-0.9922757744789124,-0.5628278255462646,-0.6556481719017029,-0.5939317345619202,0.8899174332618713,0.8153973817825317,1.7147876024246216,0.9585579633712769,0.17806567251682281,0.28253254294395447,4.165979862213135,1.0419509410858154,-0.19768239557743073,0.30268141627311707,2.3368968963623047,0.656180739402771,-0.13880351185798645,-0.04808802530169487,1.0611920356750488,0.09672331064939499,0.6085281372070312,0.115818552672863,-0.16848476231098175,1.1771396398544312,-0.2567872703075409,1.3769128322601318,-0.045292001217603683,0.7184590101242065,-2.3495662212371826,-0.03847004845738411,0.5374960899353027,1.0587273836135864,1.248845100402832,0.902914822101593,0.6902037262916565,-0.12970298528671265,0.042525794357061386,1.4744857549667358,-1.8125509023666382,0.13076019287109375,2.2977945804595947,0.3253530263900757,1.7141753435134888,-0.9986596703529358,0.7197413444519043,1.514689564704895,-0.10347655415534973,0.7616351246833801,0.041075095534324646,0.1590079367160797,-0.7909108400344849,0.5176792740821838,0.4475666880607605,0.48854169249534607,-0.14764289557933807,0.44489410519599915,0.6223623752593994,0.5216615200042725,1.2133796215057373,-0.3192915916442871,0.5176767110824585,-0.3853483498096466,-0.6956045627593994,-0.3010843098163605,-2.302074432373047,1.3442329168319702,1.7489745616912842,0.023793598636984825,2.095273017883301,1.3720577955245972,-1.1681081056594849,-0.5390123724937439,0.4532827138900757,-0.04976463317871094,0.3547481894493103,-0.3561241328716278,0.7921295762062073,0.6577519178390503,-0.9007580876350403,0.18715576827526093,0.7372771501541138,0.6456108093261719,0.21272362768650055,2.186343193054199,0.745477020740509,-0.6878410577774048,-0.24489624798297882,0.9538312554359436,-0.1933988332748413,0.6015499234199524,1.513885736465454,-0.025616461411118507,-0.8737307786941528,-1.859202265739441,-1.8012093305587769,-0.6433030366897583,1.1642619371414185,1.3151626586914062,0.8793902397155762,-1.578126311302185,-0.3237469494342804,-1.5591329336166382,-0.5759788155555725,0.5680563449859619,-0.7426906228065491,-0.7708573937416077,-0.30011123418807983,-0.7000086903572083,-0.3269699215888977,1.2800174951553345,-1.5965442657470703,0.4045086205005646,0.38734450936317444,-0.7019022703170776,-0.09880821406841278,1.3965355157852173,0.8064394593238831,-0.25146645307540894,0.21191774308681488,0.005548827350139618,0.7662951350212097,-0.8950176239013672,2.075058937072754,0.8278065323829651,1.508998155593872,-0.18029600381851196,-0.9469581842422485,0.04121457412838936,-0.8206177949905396,0.3644157946109772,-0.09030459821224213,-0.1638428270816803,-0.7877108454704285,-0.6457340717315674,0.47576335072517395,-1.358657956123352,-1.0465319156646729,0.9124704003334045,-0.21645377576351166,0.10807915776968002,0.5890761017799377,-0.7902316451072693,0.9443559646606445,1.4759069681167603,-1.322845697402954,0.3219660520553589,-0.3105177581310272,-0.2372020184993744,2.6705660820007324,-0.14435145258903503,1.2813870906829834,0.8201314806938171,1.037846565246582,-0.5315207242965698,-0.9485149383544922,1.47389817237854,-0.6873369812965393,-0.18486297130584717,-1.8665560483932495,0.33139991760253906,-0.2325206696987152,-0.10443224012851715,-0.9492682218551636,0.9421358108520508,-0.9151870608329773,-0.13094574213027954,0.311511367559433,-0.7857062816619873,-0.04695796221494675,0.9227455258369446,0.6403858661651611,1.0815120935440063,0.531851053237915,-1.1869866847991943,-0.5746774673461914,-1.7745956182479858,0.2331359088420868,-0.3496303856372833,0.5128005743026733,-0.7340409755706787,1.6419349908828735,-0.14681486785411835,1.8162566423416138,0.0721864104270935,-1.001290202140808,-0.919562578201294,0.06687245517969131,-1.2033072710037231,-1.301018476486206,0.6073421239852905,0.49798059463500977,0.1607682704925537,-0.5984330177307129,-0.24925100803375244,2.1785449981689453,-1.4590963125228882,-0.027631310746073723,-0.26613178849220276,-0.17001451551914215,-1.214651346206665,-1.0811238288879395,-0.9643709659576416,-0.03239106014370918,1.3655531406402588,0.4549369215965271,0.4845059812068939,0.43067726492881775,-0.2910692095756531,0.05188921093940735,1.3668010234832764,-0.22284746170043945,-0.10195419192314148,0.637347400188446,-2.3616549968719482,-1.9670675992965698,0.25432947278022766,0.44360068440437317,0.08729443699121475,1.1169556379318237,0.8576648831367493,-1.26189124584198,0.8048511743545532,-0.11794311553239822,0.71848464012146,0.20741449296474457,1.272756814956665,-1.0533980131149292,-2.460603713989258,0.05080220475792885,-0.2042040228843689,0.6023430824279785,0.07056314498186111,-0.0014231702079996467,-0.259563148021698,0.7686477303504944,-0.423778235912323,-0.05538534000515938,-0.7557821869850159,-1.1068236827850342,-0.2124788910150528,-0.6143113970756531,-1.0403412580490112,-2.295464277267456,1.7412760257720947,0.48796984553337097,2.1360719203948975,1.6401842832565308,-0.3345732092857361,1.4513273239135742,0.6116105914115906,-0.8576021790504456,-0.25971588492393494,-1.0400972366333008,0.4120601713657379,0.6084842681884766,0.051287297159433365,2.5676074028015137,0.7175644040107727,0.2271202802658081,1.936458706855774,-1.1836695671081543,0.8091672658920288,-1.4022767543792725,1.233925461769104,-1.0233278274536133,0.6902641654014587,0.7571195363998413,-0.18801172077655792,0.6233767867088318,-0.2859351634979248,-0.7763117551803589,-0.32100144028663635,-0.1083398163318634,0.8191434144973755,-0.26915469765663147,0.1202181950211525,0.35949933528900146,-1.2292407751083374,-1.2272961139678955,0.09743921458721161,0.37966617941856384,-0.8450590968132019,-1.5979996919631958,-0.23445633053779602,0.5049412250518799,0.09970203042030334,1.0574679374694824,-0.3700353801250458,-0.3978606164455414,-0.4928533732891083,-0.6737654805183411,0.48670923709869385,-0.2758508324623108,0.19057203829288483,-0.7817615270614624,-0.45372486114501953,-1.3748809099197388,0.03040643222630024,2.0974957942962646,-0.41234543919563293,0.24280253052711487,-1.558985710144043,-0.4193151593208313,0.3494163453578949,0.9944958686828613,0.4062594771385193,0.4640513062477112,1.9458719491958618,-0.8992407321929932,0.1495729684829712,-0.11537731438875198,1.1602108478546143,-1.3877894878387451,-0.7216295003890991,-0.3365245759487152,0.15438807010650635,0.6555982828140259,1.7403106689453125,1.0382968187332153,0.09483449161052704,-0.11084285378456116,-0.7832019329071045,-0.013405046425759792,-0.5654171705245972,1.462462067604065,1.110949993133545,1.1515504121780396,0.881056010723114,1.0458661317825317,0.2530110776424408,-1.4617973566055298,1.5433379411697388,1.5351251363754272,0.4634395241737366,0.8866162300109863,0.6501821875572205,-1.140379548072815
b'\xe5\x88\x86\xe5\x88\xab',-0.03120376728475094,-0.1960308700799942,-1.444841742515564,0.2897123098373413,0.7401314973831177,0.7466068267822266,1.0478792190551758,-0.1754082292318344,0.5860075354576111,-0.1582859754562378,-0.8403638005256653,1.1642805337905884,-1.5318443775177002,0.35494264960289,-2.6330690383911133,-0.4499782919883728,0.20614424347877502,-0.5220181345939636,1.65890371799469,-1.3537476062774658,1.3768994808197021,0.014789742417633533,0.3645953834056854,-0.4644397795200348,-0.6254752278327942,0.3344134986400604,0.31629931926727295,-1.7228871583938599,-1.189406394958496,0.006418239325284958,-0.24463117122650146,1.811775803565979,-0.1376979947090149,1.9645522832870483,0.4494935870170593,1.5023186206817627,0.5830649137496948,0.5457513928413391,-2.2016968727111816,-1.480544924736023,0.29924970865249634,0.24978739023208618,1.6641206741333008,0.21119624376296997,-1.208150863647461,-0.24191153049468994,0.039616674184799194,0.02221100404858589,-0.8254342079162598,-0.4908386468887329,-0.1397845298051834,-0.7223739624023438,1.028040885925293,0.10248696804046631,-1.5605953931808472,0.10879924893379211,0.2885529100894928,-0.9275273680686951,-0.14973582327365875,2.418548822402954,1.2052019834518433,0.35791218280792236,1.4725080728530884,-0.14370161294937134,-0.8140888810157776,-1.4730252027511597,1.5729173421859741,-0.39805179834365845,-1.3419241905212402,1.869667887687683,1.5513285398483276,-1.5596157312393188,-0.4148540794849396,1.4993141889572144,0.7990487813949585,1.194658637046814,-0.0006156269810162485,0.9004870653152466,2.1614603996276855,-1.7205076217651367,-0.8841118812561035,1.1227138042449951,-0.7911260724067688,0.5216639637947083,1.2192070484161377,-0.3069237172603607,-0.8517394661903381,-2.2401390075683594,0.6201419234275818,-1.7052587270736694,-0.12877953052520752,-0.5769389271736145,-2.3776493072509766,-0.41510820388793945,1.4736449718475342,-0.11041688919067383,-1.8276865482330322,-1.3050605058670044,-0.6931512951850891,0.4533546566963196,-0.74131840467453,-3.4182047843933105,-0.7060369253158569,0.8088570237159729,1.5966627597808838,0.5247065424919128,0.7237805128097534,1.5537470579147339,1.500967264175415,-0.11659325659275055,0.34675222635269165,0.6343972086906433,0.5925045609474182,-0.9322358965873718,-0.3980805575847626,-1.0365073680877686,-0.2454843521118164,-0.07877761125564575,1.7957878112792969,0.021416768431663513,0.38272368907928467,0.8190852403640747,-0.03447761386632919,0.6380789875984192,-2.269717216491699,-0.06338461488485336,-0.11360148340463638,-1.22311532497406,0.7357428669929504,1.3450621366500854,0.008074629120528698,-0.46173158288002014,1.5991445779800415,0.4639976918697357,-0.09574982523918152,-0.8178279399871826,1.4153634309768677,-0.2796679735183716,0.13222604990005493,-0.7223809361457825,1.331874966621399,-0.6129156947135925,0.5333729386329651,-0.9499511122703552,0.3293156325817108,-0.4505102336406708,-1.2330573797225952,-1.8108749389648438,0.25037911534309387,-0.7287878394126892,1.2095659971237183,0.4729900360107422,-0.6820765733718872,1.041938066482544,-0.5888227820396423,-0.33770856261253357,-0.007625045254826546,-0.04542296752333641,-1.6738499402999878,0.8130772709846497,-0.09761036187410355,-0.24552097916603088,-2.177760124206543,2.030461311340332,0.6430771350860596,-1.7714564800262451,0.1959964483976364,0.5102135539054871,-1.8934783935546875,-0.01021331176161766,-0.10139257460832596,-1.7662887573242188,-1.04926335811615,0.31857195496559143,0.7176515460014343,-0.8551605343818665,0.922914981842041,-0.7746895551681519,0.12621261179447174,1.704917073249817,-0.03574000671505928,0.5764427185058594,0.5874338150024414,2.576772689819336,-0.7694142460823059,-0.6309565901756287,-0.7702805995941162,0.6088602542877197,-2.2715160846710205,0.2536992132663727,-1.4995105266571045,-0.2503640651702881,2.183943271636963,-0.9165130257606506,-2.7276721000671387,2.3680851459503174,0.23830825090408325,-0.6790654063224792,-0.45370814204216003,0.2726992666721344,-0.40364134311676025,-2.043736457824707,0.45934364199638367,-0.6425373554229736,1.7332158088684082,0.6213809847831726,-0.7695137858390808,-0.3162977993488312,0.9161795973777771,0.5741011500358582,0.7590776085853577,0.24193504452705383,-0.6187939047813416,2.01678204536438,1.0489006042480469,-0.6506190299987793,-1.5811082124710083,0.3586483299732208,0.3088814914226532,1.7643426656723022,-0.6345873475074768,1.2890154123306274,-1.5166043043136597,-0.6086810231208801,1.2416913509368896,0.04085173457860947,-1.1594070196151733,-0.3185170590877533,0.025557639077305794,0.703574538230896,0.27570414543151855,0.8425238132476807,1.553109884262085,0.10171908140182495,3.122159242630005,-0.17318637669086456,-0.08176000416278839,1.3079891204833984,0.07200723886489868,0.5945238471031189,-0.4635813236236572,-0.22644250094890594,-0.5491741299629211,1.6002634763717651,0.1175830289721489,1.6536372900009155,0.8704532980918884,-1.4995120763778687,0.3454451262950897,1.4632811546325684,0.5785753726959229,-0.4821861982345581,0.594866931438446,0.13215424120426178,-2.1560590267181396,1.925560474395752,-0.15959420800209045,-1.1658508777618408,-0.11412795633077621,0.5889912247657776,-0.7091272473335266,0.6536855101585388,3.1209068298339844,-0.996220052242279,-0.0869683101773262,0.018106788396835327,0.5681692361831665,0.07851511240005493,-0.3769453763961792,-1.1833301782608032,-0.148204505443573,1.7750706672668457,1.2747703790664673,0.026122258976101875,1.5527992248535156,-0.27574291825294495,-0.8667952418327332,-2.245584487915039,0.7706502079963684,2.2649338245391846,1.0550291538238525,1.3153865337371826,-0.1649058759212494,-1.0090398788452148,-0.11851169168949127,0.13653798401355743,-0.9772135615348816,-0.8546693325042725,-0.689519464969635,0.24749132990837097,-0.3445526361465454,1.5306748151779175,-1.7262452840805054,-1.229573130607605,1.1228631734848022,-0.2502693831920624,-1.9091544151306152,1.8167802095413208,0.011656209826469421,0.7048581838607788,-0.4787937104701996,-0.5918300747871399,-0.35545048117637634,0.5016975402832031,-0.36278289556503296,0.48979833722114563,0.749993085861206,0.8045756816864014,2.2168385982513428,-0.6085299849510193,-1.481698989868164,0.1628500372171402,1.3352233171463013,-0.6880767941474915,-1.1284606456756592,0.3741820454597473,0.562272310256958,3.7519726753234863,0.24747727811336517,1.7593095302581787,-0.9183828830718994,-0.7635003924369812,0.9798871278762817,-0.009677251800894737,0.8414660692214966,0.839691162109375,1.3105968236923218,0.18592415750026703,0.020992282778024673,-1.9345006942749023,-0.22584468126296997,-1.3306498527526855,1.0603306293487549,-0.14491936564445496,0.909134566783905,0.910487711429596,1.7579145431518555,0.4946805238723755,1.0317672491073608,-1.1087297201156616,-0.3103679120540619,-0.7602155804634094,-0.2778031826019287,-0.38787418603897095,-0.8484506607055664,-2.4766082763671875,-0.493053674697876,-0.6838093996047974,-0.6006671786308289,1.9980427026748657,-0.24957270920276642,-1.540374755859375,-2.146526336669922,0.6386675238609314,-1.8364299535751343,0.9374935030937195,0.2733759582042694,0.4756605327129364,-0.041991204023361206,1.258925199508667,-0.6906101107597351,0.8374266624450684,0.9183158278465271,0.7054348587989807,0.9402270913124084,-1.5794605016708374,1.4967596530914307,-0.3700314164161682,-0.26226142048835754,-1.3230642080307007,1.3076366186141968,0.5639392733573914,-0.20924998819828033,-1.7707719802856445,-0.9840894341468811,-1.7147986888885498,-0.18709628283977509,-0.7653771042823792,-1.1173529624938965,-0.5100113153457642,-0.8559761643409729,0.1516495794057846,-0.9869588613510132,-1.802984356880188,-0.2387642115354538,0.3132718801498413,-0.9607602953910828,0.8920069932937622,0.657799243927002,-0.9839053750038147,-0.28278934955596924,0.16708502173423767,0.7092911005020142,-2.6472251415252686,0.3480225205421448,0.2808072865009308,-0.34329020977020264,0.429560124874115,0.525155246257782,-1.8245396614074707
b'\xe5\xb9\xbf\xe5\xa4\xa7',0.0722636803984642,-0.3168708384037018,0.578544557094574,-1.4004806280136108,-0.2536289691925049,-1.3007079362869263,-0.028560101985931396,-0.20534327626228333,1.3198844194412231,1.103378415107727,-0.03348055109381676,-3.057007312774658,-1.288629174232483,0.6619629859924316,-0.9754570126533508,0.0924559086561203,-2.1544082164764404,0.5567987561225891,0.40674543380737305,-0.8159951567649841,-1.0070595741271973,0.308409184217453,0.3693470060825348,0.8551055788993835,0.0015054340474307537,0.22099970281124115,-1.7268521785736084,-1.362586498260498,-1.2555537223815918,0.9226924180984497,1.1735643148422241,0.5516282916069031,-0.4969733655452728,-0.6381776332855225,-0.036212608218193054,0.3945409655570984,0.5919443964958191,1.2263848781585693,1.0629258155822754,-0.8319821357727051,0.04512343183159828,1.213052749633789,0.19923460483551025,0.34578800201416016,0.3935573697090149,-0.7012141942977905,-0.16438767313957214,-0.3293873071670532,0.4075956642627716,-0.17512200772762299,0.8954783082008362,0.3116169273853302,-0.7544839978218079,-1.0826489925384521,-0.619381844997406,1.7076218128204346,0.5686788558959961,0.38378745317459106,-3.8744430541992188,1.0658477544784546,-0.651435136795044,1.3009557723999023,-0.7875498533248901,-1.4619147777557373,0.1983012855052948,-1.0344332456588745,0.14388816058635712,0.8104762434959412,-0.11799869686365128,-1.206407070159912,-0.8283265829086304,-0.8119125366210938,-0.385081946849823,1.7112650871276855,-1.5893245935440063,0.3474234640598297,-1.0556368827819824,-0.6144190430641174,-1.0072391033172607,-1.254011631011963,0.722614586353302,-0.09997674822807312,-0.05767901614308357,-1.1749399900436401,-0.1870209276676178,2.158676862716675,1.3613284826278687,-1.698495864868164,0.2785152792930603,0.007828359492123127,1.280019760131836,0.28281065821647644,-0.8346068859100342,1.6852688789367676,0.12027144432067871,1.5174912214279175,1.530600905418396,-0.3331718444824219,1.414611577987671,1.4010000228881836,1.210358738899231,0.06495677679777145,0.9333414435386658,0.6353551745414734,-1.015702724456787,0.5257210731506348,0.2851995825767517,-1.103306531906128,0.227433979511261,0.4590432345867157,-0.6759864091873169,-0.3843933939933777,1.210849642753601,1.2438262701034546,0.2359810173511505,0.27918559312820435,-0.19410614669322968,0.9535176157951355,0.2866189181804657,0.5885621309280396,1.4485936164855957,0.5071661472320557,0.4891045093536377,-0.16221947968006134,0.01064828410744667,0.7704641222953796,0.7898218035697937,-1.7545348405838013,-1.8420079946517944,-0.038580797612667084,0.6786702871322632,1.5525619983673096,0.7543935179710388,-0.6183785796165466,-0.1651315689086914,-1.2486580610275269,0.6514694094657898,0.252522736787796,0.8036782145500183,1.1649796962738037,-0.195667564868927,-0.35701248049736023,1.190310001373291,-0.9938815236091614,2.1044821739196777,1.0023552179336548,0.4636808931827545,0.8063932657241821,0.9486444592475891,0.996718168258667,1.2821625471115112,-1.0118993520736694,0.7905387282371521,0.25617003440856934,-1.4226783514022827,-0.20600862801074982,1.5559523105621338,0.6740151047706604,0.8519063591957092,0.9165187478065491,1.942487120628357,-1.0430963039398193,0.4068075120449066,-0.6208231449127197,0.7901983261108398,-1.746923565864563,0.28278613090515137,1.0534099340438843,-2.3191683292388916,-0.7860512137413025,-0.9553412199020386,-0.19748230278491974,-0.6989630460739136,-0.17375363409519196,1.1535577774047852,-1.8980000019073486,-0.3046109676361084,0.02615469880402088,0.2906476855278015,-0.06976447254419327,-0.9094567894935608,1.6738706827163696,0.5156832933425903,0.5600588321685791,-0.053319767117500305,-0.8274104595184326,-0.12455485016107559,0.22466377913951874,1.1954917907714844,-0.7408340573310852,2.396827459335327,0.05102391541004181,-0.5202794671058655,0.38251712918281555,0.02149035967886448,0.27599087357521057,1.066193699836731,-1.264862298965454,0.5610564351081848,-0.9734275937080383,-0.9152927398681641,0.19326052069664001,0.4720916450023651,-2.0719733238220215,0.380595326423645,-0.9686914682388306,-0.9394006729125977,-0.4479345381259918,0.24792927503585815,1.0538179874420166,1.0905593633651733,-0.4790845513343811,0.6206562519073486,0.17828570306301117,2.4793448448181152,1.0340532064437866,-0.9062604904174805,-1.4752025604248047,-0.5731480717658997,1.036516547203064,1.470588207244873,-1.681801438331604,-2.1236705780029297,0.4468453526496887,0.6979151368141174,1.6585657596588135,0.5533295273780823,0.07977313548326492,0.8551819920539856,0.331797331571579,-0.9499476552009583,-0.28278958797454834,-0.9890593886375427,-0.0751398503780365,0.009525294415652752,1.2500317096710205,-0.72157883644104,-0.37605541944503784,-0.38604098558425903,-0.06247687712311745,1.1519314050674438,0.32169800996780396,-0.12395468354225159,0.3139048218727112,0.44316813349723816,1.571618914604187,-0.532008945941925,0.9904451966285706,-0.9589912295341492,0.1580299735069275,-0.5824316143989563,0.7193024158477783,0.44176185131073,0.8330081701278687,0.05098646506667137,-1.6587194204330444,1.2301284074783325,-1.4469248056411743,-0.6987999677658081,0.6561928987503052,0.5936893820762634,-0.7950142025947571,1.8220150470733643,-1.4053595066070557,-1.3270504474639893,-0.13215020298957825,0.21449649333953857,-1.0718772411346436,-0.7155935764312744,1.7770684957504272,-0.1901465803384781,0.25061124563217163,-0.5968714952468872,-0.3269834518432617,0.6759880185127258,1.5780833959579468,-0.620638906955719,-0.45835787057876587,0.8747591376304626,0.34741297364234924,0.13561078906059265,0.6924265027046204,-0.9139732718467712,-0.7876561880111694,0.31429818272590637,-1.8445502519607544,-0.6486335396766663,0.5340370535850525,0.8554630875587463,0.3912312984466553,0.19013240933418274,-0.39812105894088745,1.0025838613510132,-2.1700103282928467,1.00223970413208,-0.578950047492981,-0.3924734890460968,-0.8094098567962646,-2.014744281768799,-1.3505864143371582,-1.1776280403137207,0.7472220659255981,0.7357938885688782,0.41370058059692383,-0.42378610372543335,1.1259119510650635,0.41054198145866394,-1.618898868560791,1.6055290699005127,-0.22064368426799774,0.8434343934059143,1.235498070716858,-0.8287031650543213,0.6800916790962219,0.25748375058174133,0.9045348167419434,0.4575252830982208,0.2580265402793884,-1.22576904296875,1.044385313987732,-0.3714311420917511,-0.7767528295516968,0.02720426768064499,0.0018649422563612461,2.4706993103027344,-1.0747634172439575,-1.1792486906051636,-0.05817146226763725,0.26747989654541016,-1.025371789932251,-0.4152509868144989,0.12592656910419464,-0.3616136610507965,0.900793194770813,0.24328181147575378,0.39794981479644775,-1.0170223712921143,0.3465585708618164,0.005687716882675886,-1.5851387977600098,-0.9684162735939026,0.313616007566452,-0.24859726428985596,-0.38214001059532166,0.7070577144622803,-0.08897088468074799,-0.5114604830741882,-0.5621591210365295,-0.0661148801445961,-0.3339974582195282,0.0237442497164011,0.032679520547389984,-0.15783819556236267,-0.2358022928237915,1.5752768516540527,-0.7258796095848083,-0.6255624294281006,-1.9439421892166138,-0.6909078359603882,-0.5081683397293091,-1.334470510482788,-0.5459951758384705,-1.3949849605560303,-0.6275068521499634,-0.5661565065383911,0.28396913409233093,-0.8219064474105835,-0.26026713848114014,0.6431331038475037,1.0315972566604614,0.7972951531410217,0.5588249564170837,-0.8373714089393616,-1.5113672018051147,-0.49059945344924927,0.6619786024093628,0.20154550671577454,0.455597460269928,0.07224080711603165,-1.0943458080291748,-0.6813390851020813,-0.6932961344718933,-0.8293415904045105,-0.5263433456420898,-0.53487628698349,0.3874129354953766,-0.7675673961639404,-0.443931519985199,0.7293294072151184,0.13894735276699066,-0.3577479124069214,0.7990111708641052,-0.22982186079025269,0.5257657766342163,-0.752856433391571,1.2038428783416748,-0.23588073253631592,-0.8688612580299377,-0.7582137584686279,0.17016126215457916
b'\xe5\xb7\xa5\xe7\xa8\x8b\xe5\xad\xa6',0.5842599272727966,0.5597597360610962,0.057914163917303085,0.6050084829330444,0.33271029591560364,-0.20089904963970184,0.20223428308963776,-1.0027363300323486,0.09337718784809113,0.4442592263221741,-0.3574250340461731,0.9954266548156738,0.5080595016479492,-0.4868963956832886,0.3998582363128662,0.07796251773834229,-1.0115656852722168,-1.0798816680908203,-1.9418398141860962,-0.9063445925712585,0.6361993551254272,-1.2183198928833008,-0.38749849796295166,-0.59042888879776,1.3184893131256104,0.4128514230251312,-0.7448735237121582,-1.4406158924102783,0.21730604767799377,0.3824489712715149,0.8145748376846313,1.3359256982803345,0.422577440738678,0.5629771947860718,0.3261176645755768,-0.7509085536003113,0.8221184015274048,-1.762131929397583,0.8118743896484375,0.2921682596206665,0.3371773958206177,-0.18957212567329407,-0.4132922291755676,-0.5271265506744385,0.1511910855770111,-0.908249020576477,0.5938302278518677,-0.5020142793655396,0.2883516550064087,-0.15539498627185822,1.3782259225845337,0.10482364892959595,0.48441973328590393,-0.6852401494979858,-0.7153240442276001,-0.9375151991844177,0.11246141046285629,-1.5112552642822266,0.05117135867476463,1.0834131240844727,-0.45951783657073975,1.5021594762802124,0.3523453176021576,-0.3194692134857178,0.058915697038173676,0.7557172179222107,0.04319711774587631,-0.6563799977302551,0.5994464159011841,-0.5604769587516785,0.2634449303150177,1.2867262363433838,-0.4339946508407593,-0.5271447896957397,-0.6155471801757812,0.44227099418640137,1.154707670211792,0.6552031636238098,-0.3263821303844452,-0.3102893531322479,-0.16740821301937103,0.886261522769928,-0.4829948842525482,-0.49707821011543274,-0.7692701816558838,-0.40236881375312805,-0.552053689956665,-0.1278241127729416,0.5393224954605103,-0.5459825992584229,0.056249652057886124,0.24864980578422546,-0.23645809292793274,-1.0133813619613647,0.33875271677970886,0.03966118395328522,1.5601681470870972,-0.12724018096923828,-0.16797970235347748,0.2048216462135315,0.10631583631038666,0.2607128620147705,-0.7285251021385193,-0.8892070651054382,0.9759056568145752,-0.9332067370414734,0.1225561648607254,0.6025346517562866,0.43068087100982666,-0.4050728976726532,-0.3392082154750824,-0.38593554496765137,0.7011433243751526,0.8003311157226562,-0.7863537669181824,0.3411780595779419,0.22821541130542755,-0.8290141820907593,0.34962210059165955,0.17761391401290894,0.08103363960981369,0.9165357947349548,-1.165385127067566,0.4828649163246155,-0.7665340900421143,0.8925207853317261,0.7560328245162964,-0.40834712982177734,-0.08775074034929276,0.6979583501815796,0.14885737001895905,-0.8770204186439514,-0.377918541431427,-0.1398242563009262,-0.6273086071014404,-1.4875952005386353,0.8809820413589478,-0.00996663048863411,-0.7109208106994629,0.9641109108924866,1.4759057760238647,-0.22886288166046143,-0.34834742546081543,-0.2637266218662262,0.4504448175430298,0.14410685002803802,0.2458503097295761,-1.6046738624572754,-0.1331949681043625,0.22833433747291565,0.5448729395866394,1.3183214664459229,0.6719875335693359,-0.3961920142173767,0.7191383838653564,0.41231414675712585,-0.16620559990406036,0.5704237222671509,-1.9524117708206177,0.7838163375854492,-0.19231511652469635,1.8539137840270996,0.3887893855571747,0.9506195187568665,-0.15350870788097382,0.4483887851238251,0.03933119401335716,-0.6086294651031494,-1.0398777723312378,0.9759543538093567,-1.109183669090271,-0.9293119311332703,0.10295338928699493,-0.702934980392456,-0.3625521659851074,0.4695643186569214,-0.03651607781648636,-0.5377885103225708,-0.7527540922164917,1.2459750175476074,-1.0793665647506714,-0.6020256876945496,-0.25206324458122253,0.8612704873085022,-1.0318779945373535,0.08679057657718658,-0.13661600649356842,-0.379123330116272,-0.6224541664123535,-1.0760517120361328,-0.9419878721237183,-1.3190922737121582,-0.41775786876678467,-0.5152409076690674,0.23581327497959137,-0.3469541072845459,-0.2839599549770355,0.1725938767194748,-1.6063655614852905,-0.9079462885856628,0.7212451696395874,-0.10292381048202515,0.4316989779472351,-2.0465986728668213,-1.296736717224121,0.6419349312782288,-0.5963099598884583,-1.9163305759429932,1.769626259803772,-0.06698236614465714,0.8943837285041809,1.6665412187576294,0.3442683815956116,-0.7382246255874634,-0.07947512716054916,-0.558566689491272,0.40020713210105896,0.1270250380039215,0.8305918574333191,-0.8043015599250793,0.3242363929748535,-0.6254431009292603,0.605301558971405,0.8863387107849121,-0.01600087806582451,0.22015944123268127,-1.6620737314224243,-0.5304736495018005,0.7789378762245178,0.7474393844604492,1.8690382242202759,-0.6087594032287598,-0.07639454305171967,0.4058176577091217,1.7360719442367554,0.6547400951385498,-0.9849210977554321,0.48683157563209534,-0.048442937433719635,0.019788222387433052,-1.3570109605789185,1.529294490814209,-1.324081301689148,-1.130749225616455,0.8516438007354736,-0.14303414523601532,1.5127025842666626,0.6544962525367737,0.267690509557724,1.0951801538467407,-1.5810316801071167,0.14165732264518738,-0.6801691651344299,0.9250890612602234,-0.41811898350715637,0.1255185306072235,0.3057310879230499,-0.926879346370697,1.6143670082092285,0.22964522242546082,-0.04374309256672859,-0.36977118253707886,0.1584610491991043,0.45399320125579834,-0.3848053812980652,-0.6029873490333557,-0.3027220070362091,-0.2773737907409668,0.6036786437034607,0.3800245225429535,-0.6133887767791748,-0.017102714627981186,1.012670636177063,0.9726095795631409,0.023382825776934624,0.037520311772823334,0.7692372798919678,0.4175805151462555,-0.36036014556884766,0.14857876300811768,0.6631184220314026,-0.627342939376831,0.8949324488639832,-0.46590718626976013,-0.7276081442832947,-2.522725820541382,-0.5196788907051086,0.9819115400314331,0.8423974514007568,0.4468284845352173,1.0028010606765747,0.7523809671401978,1.3232003450393677,1.0530345439910889,-0.8922045230865479,2.3372271060943604,-0.3943398594856262,0.9174672365188599,-0.20839758217334747,0.553769588470459,-0.734380304813385,-1.166144847869873,0.3443446457386017,-0.8940269947052002,-1.059154748916626,0.15628431737422943,-0.19813434779644012,0.469600647687912,-0.9553826451301575,-0.3961690366268158,0.4683671295642853,-0.6776743531227112,0.20410971343517303,1.4011082649230957,-0.3914944529533386,0.18230223655700684,0.11119920015335083,0.5506302714347839,0.31658175587654114,0.5256524682044983,-0.6071217060089111,-0.90840744972229,-1.0141701698303223,0.1681029200553894,-0.14893649518489838,0.7385444045066833,-0.7575069069862366,-0.3626112937927246,-1.0322067737579346,-0.15308570861816406,0.8558222055435181,1.096711277961731,0.37869584560394287,0.2030935287475586,0.22627773880958557,-1.0737465620040894,-0.4062700569629669,-0.7653527855873108,0.30296123027801514,-0.9296047687530518,-0.7600765228271484,0.07808957248926163,-0.5454580783843994,0.17416580021381378,-0.5857154130935669,-0.5323089361190796,-0.8445478081703186,0.3552050292491913,0.6885942816734314,1.6625471115112305,0.3155687153339386,-0.668796956539154,-0.5995405316352844,0.8748674988746643,0.5126515030860901,-0.11838919669389725,0.3715076148509979,-0.21252575516700745,-1.261191725730896,-1.1709532737731934,-0.6611043214797974,-0.9196450114250183,-0.7337687015533447,-0.1647491753101349,-2.456941843032837,-0.9749858379364014,-1.4717330932617188,1.3382354974746704,-0.4201619327068329,0.25821933150291443,-0.4280186593532562,0.5928597450256348,-0.08504940569400787,0.4423530399799347,0.15457233786582947,0.9054470658302307,-0.6149956583976746,0.2633209824562073,0.8548281192779541,0.41652095317840576,1.6721222400665283,-0.05766834691166878,1.1325734853744507,-0.4126112759113312,-0.8210234045982361,0.7933343052864075,-0.23939356207847595,0.8262988328933716,1.2369937896728516,0.2200888991355896,0.021220868453383446,0.696298360824585,0.2133236527442932,1.2172024250030518,0.017487293109297752,0.5608800649642944,0.6475779414176941,-0.6785160303115845,0.952389657497406,0.8078770637512207
b'\xe6\x9c\x80\xe5\xb8\xb8',-0.6426304578781128,0.8272984027862549,-0.1567065417766571,-0.2977661192417145,-0.40319758653640747,0.44896936416625977,0.46979355812072754,-0.48996323347091675,0.937758207321167,-0.30725136399269104,0.14489305019378662,-0.415330171585083,0.8082043528556824,0.4005817174911499,-1.0078270435333252,0.1937691867351532,-0.9974085688591003,-0.021759159862995148,-0.5133051872253418,-0.012421457096934319,-0.518480658531189,0.1491723507642746,0.007876276969909668,-0.6230182647705078,0.05780436843633652,0.7700223922729492,0.09403319656848907,0.12611006200313568,-0.3110993504524231,0.6999274492263794,-0.17500004172325134,-0.029227714985609055,-0.5528509616851807,0.6757478713989258,0.48490726947784424,1.7441576719284058,0.7415303587913513,-0.44517648220062256,-0.4390244781970978,-0.15301740169525146,0.7014669179916382,0.02173571102321148,-0.6086665987968445,0.08579148352146149,-0.4930277466773987,0.0033344775438308716,-0.681411623954773,0.6936141848564148,-0.09485724568367004,-0.7864589691162109,0.31706342101097107,0.04216183349490166,0.18346025049686432,0.14359401166439056,-0.7802795767784119,-0.32234928011894226,-0.39676526188850403,-0.19881471991539001,-0.7601990103721619,0.41755977272987366,0.3990653455257416,0.22794562578201294,-0.9832339286804199,-0.12247949838638306,-0.7748730778694153,-0.89458167552948,0.12254652380943298,-1.087274193763733,0.8240144848823547,-0.9044448137283325,0.48782363533973694,-0.18617092072963715,-1.3073346614837646,1.1909784078598022,0.07938271760940552,-0.38823843002319336,1.1179742813110352,-0.4569803476333618,0.7842544317245483,-0.9620670676231384,0.25578662753105164,-0.14958050847053528,1.1958684921264648,-0.3236938714981079,-0.024432707577943802,0.22456015646457672,-1.271571159362793,-0.030121207237243652,0.1160481870174408,-0.6739754676818848,0.7085121273994446,-0.5965266823768616,-0.7173966765403748,0.5556776523590088,-0.393920361995697,0.7070732116699219,-0.21133922040462494,-1.046324372291565,-0.08016549795866013,0.7183592915534973,0.3451131284236908,-1.0009944438934326,0.8644024729728699,0.5624455809593201,-0.7817091941833496,0.7408366799354553,0.9223009347915649,-0.017317458987236023,0.7359188795089722,0.47702330350875854,0.04298185929656029,0.513681948184967,0.76258784532547,-0.9445333480834961,-0.25508618354797363,0.8366187214851379,-0.0755305141210556,1.4427764415740967,0.6111820936203003,-1.0318589210510254,-0.07942034304141998,1.0840115547180176,-0.7683050632476807,0.173000305891037,1.1605889797210693,0.006793235428631306,-0.05015626922249794,-0.5076829195022583,0.5042649507522583,0.2900633215904236,-0.36353275179862976,-0.03679855912923813,0.09393800050020218,0.07323647290468216,0.05400862172245979,0.18696631491184235,0.7735279202461243,0.006535539869219065,-0.6995633244514465,-0.12284555286169052,0.24973341822624207,-0.7368228435516357,0.37090104818344116,0.4336049556732178,-0.7085734009742737,-0.6132925748825073,-0.8845475912094116,-0.37394416332244873,1.3516281843185425,-0.2635614275932312,1.216132640838623,0.3699140250682831,-0.5967615246772766,-0.4797336459159851,-0.037460725754499435,-0.720811128616333,-0.35540828108787537,-1.2770966291427612,0.3716748356819153,0.470733106136322,-0.32353395223617554,0.11002480238676071,-0.5507107973098755,0.1404428482055664,0.13887891173362732,-0.9996751546859741,-0.216769739985466,-0.5436645150184631,0.6071821451187134,0.14967215061187744,-0.23614490032196045,-0.0012493038084357977,-0.05777974799275398,0.6865563988685608,-0.685183584690094,0.3419855833053589,1.2629714012145996,-1.3661384582519531,0.19633978605270386,0.2792202830314636,-0.1777888685464859,0.648144543170929,-0.563834547996521,0.5931475758552551,0.38631802797317505,0.07156255841255188,0.1656903773546219,0.9396880269050598,-0.33166083693504333,-1.4718619585037231,1.0155715942382812,-0.31482377648353577,0.07442610710859299,-0.7513734102249146,0.026811471208930016,-0.511482298374176,0.8413125872612,0.10453930497169495,0.3978983461856842,-0.9918180704116821,-0.01595095917582512,-0.4281770884990692,-0.6721238493919373,-0.18528543412685394,-0.6360570788383484,-0.5316248536109924,-0.10269097238779068,-0.6925337910652161,-0.19161860644817352,0.11247000098228455,0.47822922468185425,0.4549039900302887,0.09766758978366852,-0.4751899242401123,0.20150910317897797,0.02802639827132225,0.5978260040283203,-0.43414461612701416,-0.2370651811361313,0.132790207862854,-0.26339656114578247,-0.3124196529388428,0.07957348972558975,0.1292518973350525,0.17910215258598328,0.015057551674544811,0.0014344474766403437,0.20118477940559387,0.6376867890357971,0.3482245206832886,-0.6914228200912476,-1.3328287601470947,-0.38474422693252563,-0.37464645504951477,0.300078809261322,-0.18676869571208954,-1.1065633296966553,-0.26406916975975037,-1.0427088737487793,-0.022262150421738625,-0.24702070653438568,0.6818253993988037,-0.8782681822776794,0.5290526747703552,-1.0541926622390747,-0.10509636998176575,-0.25462356209754944,-0.6478481292724609,-0.4608016908168793,-0.6680310964584351,0.7487376928329468,0.04503227397799492,0.6842833757400513,1.0854978561401367,0.4510309100151062,0.24389515817165375,0.25613537430763245,-0.11699564754962921,-0.6291901469230652,0.8718181848526001,0.2517179846763611,-0.14247539639472961,-0.4593171179294586,1.149876356124878,0.22514720261096954,0.0910157561302185,1.5796561241149902,0.16686630249023438,-0.8418043851852417,-0.623731791973114,0.15675325691699982,-0.2241768091917038,-0.4972579777240753,-0.011977631598711014,0.2002319097518921,-0.401321679353714,-0.8150489330291748,0.3252449333667755,-0.32894548773765564,0.45160529017448425,0.7679356932640076,-0.24291810393333435,0.35617485642433167,-0.2728518843650818,-0.11178988963365555,-0.035062551498413086,-0.4025954306125641,0.9122638702392578,0.4466508626937866,0.11662149429321289,0.9077959656715393,-0.5607470273971558,0.013851757161319256,0.0743493065237999,0.46953776478767395,0.6530787944793701,-0.1815086305141449,0.04243358224630356,-0.20229469239711761,0.2636222243309021,0.2704440653324127,0.24207250773906708,-1.1752262115478516,-0.5903480648994446,-0.6244099736213684,-0.48127663135528564,0.20293155312538147,-0.09650512039661407,0.7208453416824341,0.8148967027664185,-0.14760293066501617,0.08777232468128204,0.5097435116767883,0.3086335062980652,-0.23541630804538727,0.05285290628671646,-0.19542817771434784,0.07544296234846115,0.5413199067115784,-0.7002899646759033,-0.3649154603481293,-0.8609145879745483,-0.16472266614437103,0.2292667031288147,-0.4881393611431122,0.8193328976631165,-0.42633843421936035,-0.8406466841697693,-0.2475910484790802,-0.6053745150566101,0.36212158203125,0.749011754989624,0.04078405350446701,0.07834172248840332,0.726626992225647,-0.07964973151683807,0.43233489990234375,0.6554104089736938,0.5362103581428528,-0.829724907875061,-0.08038171380758286,-0.6213690042495728,-0.34567293524742126,0.2963126301765442,-1.1236040592193604,-0.2845901548862457,0.6049805879592896,0.7252193689346313,-0.013036818243563175,-0.2930026054382324,-0.13363568484783173,-0.5078084468841553,-0.28463080525398254,-0.29347506165504456,0.3448972702026367,0.10166905075311661,0.7134734988212585,-0.597815215587616,-1.4419225454330444,0.620232105255127,-0.7767680287361145,0.35072532296180725,-0.6318046450614929,-0.5473223328590393,-0.4807148873806,-0.44471657276153564,0.3618849515914917,-0.11480621248483658,-0.030593646690249443,-0.5788545608520508,0.037131570279598236,-0.4528731405735016,0.46434539556503296,0.013309381902217865,-0.8151956796646118,-0.8369039297103882,0.8643226027488708,0.4518754482269287,0.2525307834148407,-1.626204252243042,0.7780211567878723,0.6887227892875671,0.6269503831863403,0.8376253843307495,0.5056203603744507,0.39410027861595154,0.08213234692811966,0.5784391760826111,0.6741268038749695,-1.78999662399292,0.6242417097091675,0.22059638798236847,0.399093896150589,0.1798402965068817,-0.5665178894996643,0.19835485517978668,-0.6831366419792175,-0.6993445158004761,0.5969686508178711,-0.4754311442375183
b'\xe8\xbf\x9b\xe8\xa1\x8c',-0.12541310489177704,1.2144713401794434,0.3646625280380249,1.077519178390503,1.3416962623596191,-0.9505166411399841,0.7375255823135376,-0.10113830864429474,-0.8327333927154541,0.6603783369064331,-1.0240312814712524,-0.8833484053611755,-3.032299280166626,-0.20691987872123718,-0.09273850172758102,-1.5388470888137817,0.7151500582695007,-1.2627180814743042,0.1486375778913498,0.8831223845481873,-0.5228465795516968,-1.1395058631896973,-0.3609323501586914,-0.025770816951990128,-0.8861600756645203,2.6047186851501465,-1.010585069656372,-2.012615203857422,1.249590277671814,-0.4432646334171295,1.9727264642715454,1.9056642055511475,0.7572718858718872,0.8179210424423218,-0.4068727195262909,-0.12764641642570496,1.2014130353927612,-1.1314888000488281,0.10325736552476883,1.0474250316619873,0.42248043417930603,1.6921517848968506,1.3465571403503418,-0.3085953891277313,-0.5806035399436951,-2.6657967567443848,0.6387057900428772,2.1308774948120117,-1.6448214054107666,-0.4646305441856384,-1.3596649169921875,1.8876200914382935,-0.11173419654369354,-2.5702247619628906,-1.0229581594467163,-1.324897289276123,1.5758336782455444,1.6225279569625854,1.4388692378997803,-1.3269248008728027,-1.4817427396774292,-0.5853990912437439,0.9318647384643555,0.3064756691455841,-1.3422096967697144,-1.061186671257019,-1.056157112121582,1.6922262907028198,-1.692158818244934,2.9430036544799805,-1.395359992980957,-1.076370358467102,-0.5161029100418091,0.6929659843444824,-0.09050062298774719,0.5975379943847656,0.6591421961784363,1.7651478052139282,0.739270031452179,0.26657605171203613,-0.23018187284469604,0.18398644030094147,-0.4209589660167694,-0.9282113909721375,0.058033134788274765,1.4347467422485352,-0.7767258882522583,-0.7462362051010132,-0.39102602005004883,-0.23696337640285492,-1.5054492950439453,-3.8800346851348877,0.6393049359321594,0.012308765202760696,-1.2321192026138306,-0.10176672041416168,-1.9684274196624756,-0.18576852977275848,-1.6055588722229004,0.2126368135213852,-1.4740934371948242,-0.7355313897132874,-0.15984085202217102,0.9446620941162109,0.3574743866920471,-0.7614614367485046,0.0669270008802414,2.3381130695343018,0.264129638671875,0.2035464644432068,-1.4980919361114502,0.9821128249168396,-0.9780861139297485,-0.9829531311988831,0.024481112137436867,-1.7079826593399048,2.3299245834350586,-0.6920138001441956,0.11513230949640274,2.7751293182373047,0.5299018621444702,-0.403994083404541,0.6600265502929688,-0.8014829754829407,-0.2985273599624634,-0.8827131986618042,0.5349097847938538,-1.5135747194290161,-0.4439244866371155,-0.3508729040622711,0.6722705364227295,1.9333871603012085,0.7286100387573242,-2.26585054397583,1.2950644493103027,-0.20670226216316223,0.3702225387096405,-0.8529716730117798,-2.4827964305877686,-1.4811424016952515,-0.15911632776260376,1.9925639629364014,0.8898224234580994,-0.2587932348251343,-0.576400876045227,0.4716548025608063,0.058299534022808075,0.3925168216228485,1.398621916770935,-1.2941763401031494,2.721472978591919,1.7925559282302856,2.4406747817993164,0.20207153260707855,0.36220142245292664,-0.38681459426879883,-1.039017677307129,0.6364323496818542,1.0469342470169067,1.877882957458496,-0.3660719096660614,-0.062139760702848434,-0.23931889235973358,0.6943188309669495,-1.3531407117843628,-1.1289052963256836,1.1714459657669067,-0.9074352383613586,-0.8932939767837524,1.4265706539154053,1.5258255004882812,0.9460325837135315,-0.8943459391593933,-0.11990801990032196,1.6789238452911377,-0.4832376539707184,1.4896589517593384,1.2629072666168213,2.4408340454101562,-0.10076050460338593,-0.2921709716320038,-1.0631603002548218,1.028259515762329,-0.436866819858551,-0.11378601938486099,0.5281270742416382,0.39084652066230774,1.68203866481781,0.13117781281471252,-0.7394170761108398,-0.7347736954689026,1.4481151103973389,1.2853304147720337,2.1504597663879395,-0.8047091364860535,1.1088945865631104,-1.0005565881729126,1.4312106370925903,-3.4683265686035156,-0.4662124216556549,1.4644532203674316,-0.9982628226280212,0.41375574469566345,-1.6605193614959717,1.0667318105697632,-0.6491708755493164,2.17411208152771,1.8657715320587158,1.4312541484832764,-0.1346495896577835,0.4576922059059143,-0.8229557871818542,-0.4443807303905487,1.2988159656524658,-0.15904833376407623,0.21755145490169525,1.6449878215789795,-0.2850266098976135,0.7909883856773376,1.4246362447738647,1.9534482955932617,0.4568991959095001,-3.2375388145446777,1.51939857006073,-1.5637563467025757,-0.3988765478134155,-0.513496994972229,-2.0309643745422363,2.717928886413574,-1.0922222137451172,1.0363922119140625,1.547091007232666,-0.15847539901733398,-0.4106491208076477,0.833511233329773,-1.141861081123352,1.158477783203125,1.4809530973434448,1.575175404548645,-1.098355770111084,0.9347546696662903,0.144646555185318,0.21210142970085144,0.49739915132522583,-0.0355118103325367,1.4012048244476318,-1.105689287185669,0.040289256721735,0.6602059602737427,1.1371065378189087,-0.08036265522241592,1.2279276847839355,0.4826575219631195,-0.33101245760917664,-0.017807167023420334,0.11874233931303024,1.8741445541381836,1.4014191627502441,-0.5562083721160889,1.0282104015350342,-3.005230188369751,-0.06495989859104156,-0.7333331108093262,0.8142133355140686,-0.3565523624420166,0.10762722790241241,-0.7949635982513428,1.7164057493209839,0.9838303327560425,-0.3099523186683655,-0.7459079027175903,-0.29592591524124146,1.7122195959091187,-1.3210909366607666,1.0357351303100586,-0.12531712651252747,-0.3050725758075714,-0.6212031245231628,-0.0815877839922905,1.2327663898468018,-2.6162595748901367,2.2139804363250732,-0.20463716983795166,-0.9992524981498718,-0.7053674459457397,-1.3066327571868896,-1.2543442249298096,0.8659682869911194,-0.14623279869556427,-1.1495662927627563,-2.7423222064971924,0.7558971047401428,0.7695867419242859,-0.26895737648010254,-0.014769702218472958,0.9998643398284912,-1.5838931798934937,1.3855178356170654,0.22246353328227997,0.9561640620231628,-1.579763412475586,-1.0188411474227905,0.12245995551347733,2.090210199356079,-1.3850953578948975,-1.3656176328659058,0.4192203879356384,1.9175636768341064,0.708867073059082,0.6537777781486511,-0.09065496176481247,-0.3993697762489319,-0.0434446819126606,2.3685452938079834,-0.5507426857948303,-1.5515708923339844,0.4452534317970276,-0.4682961106300354,-0.015444032847881317,1.3205007314682007,-0.977931559085846,-0.6045265197753906,1.0769245624542236,-0.8640226125717163,1.1550562381744385,-1.5586845874786377,1.123835802078247,0.5104793906211853,0.04708266258239746,0.02065853215754032,2.767775774002075,-0.29413077235221863,0.9209462404251099,-1.5518794059753418,0.519035816192627,2.015212059020996,-1.5156981945037842,-0.8684244751930237,-0.8704357743263245,-1.997462511062622,-1.2913979291915894,-1.139424204826355,1.2253305912017822,-1.99442720413208,0.08232217282056808,0.00818542204797268,-0.030901681631803513,-1.5947449207305908,-0.3008437156677246,0.6353116631507874,0.9028146266937256,-1.1827505826950073,1.2524349689483643,-0.3742748200893402,-0.4950810670852661,-2.305792808532715,-0.638790488243103,-0.2874397933483124,1.1155961751937866,-0.5041748881340027,0.9893396496772766,0.014841052703559399,-1.1742902994155884,-0.02353561297059059,-2.0092437267303467,-0.547995924949646,0.08574763685464859,-0.9193913340568542,-0.5685495138168335,-0.8822216987609863,1.025886058807373,-1.4166558980941772,-0.4887448847293854,0.4480467438697815,1.4066369533538818,0.4942929744720459,-2.1660656929016113,-1.6897772550582886,-1.6629080772399902,-0.6832737922668457,0.8245753645896912,-1.0004980564117432,-1.4203548431396484,0.48083746433258057,-0.9133886098861694,-0.44932934641838074,-1.7702001333236694,2.586458444595337,-0.29413560032844543,-0.3837623596191406,-1.7029026746749878,2.2672533988952637,-1.590492844581604,-0.17181186378002167,0.15636959671974182,2.2689390182495117,-1.4956287145614624,-1.9981456995010376,2.325573444366455,-0.7819132804870605
b'\xe9\xa2\x86\xe5\x9f\x9f',0.15402469038963318,-0.20038151741027832,1.6356033086776733,0.4998321831226349,0.9775172472000122,0.31849807500839233,0.931016743183136,-1.4813817739486694,-0.019346432760357857,0.9708178639411926,-1.5296058654785156,0.6221106648445129,-0.31784167885780334,-0.716095507144928,0.9693805575370789,-0.49398916959762573,-0.6936059594154358,-1.117903232574463,-1.0817841291427612,-0.28694143891334534,0.8140004873275757,-1.035144567489624,0.3383069634437561,-0.606266438961029,1.7815492153167725,2.426537036895752,-0.8141762614250183,-1.8430941104888916,0.9649258852005005,1.307303786277771,-1.0858122110366821,1.5964808464050293,0.8953935503959656,0.23190467059612274,-0.43025243282318115,-0.5246855616569519,1.5440332889556885,-0.8380154371261597,-0.4755968451499939,0.5759714245796204,0.9032838940620422,-0.03375323489308357,-0.01516581978648901,1.5120612382888794,-1.4336446523666382,-1.1584079265594482,-1.076959490776062,0.32608890533447266,0.5571689009666443,-0.6804478764533997,0.370736300945282,1.9324606657028198,2.7834346294403076,-0.5813568830490112,0.3807802200317383,-0.22312290966510773,-1.2047760486602783,-0.7720116376876831,0.1413746327161789,0.27958229184150696,-1.4141196012496948,1.1062935590744019,-2.8752758502960205,-0.6655715107917786,-1.2082910537719727,-1.3287278413772583,0.29700836539268494,1.1138356924057007,0.832348644733429,0.3710082471370697,0.688711404800415,-0.35506772994995117,-0.28350767493247986,0.20062029361724854,-0.8850506544113159,-0.11258041858673096,1.0859431028366089,0.1673756092786789,-2.3933560848236084,-1.3045645952224731,1.9969016313552856,-0.3128192126750946,0.46330922842025757,-0.8074926137924194,-2.4163172245025635,-1.1991455554962158,-0.6943851113319397,-0.823466420173645,1.5155593156814575,-1.0798388719558716,0.7130253314971924,-0.1038559079170227,1.0395524501800537,1.0136268138885498,-0.8240199685096741,0.5140124559402466,0.4647100865840912,-0.4318285584449768,0.15695862472057343,1.2179348468780518,0.27970758080482483,2.5527496337890625,0.42863431572914124,0.9061377048492432,1.466810941696167,0.24212521314620972,-0.26781007647514343,1.1097468137741089,2.0380914211273193,1.2429449558258057,-0.08226002752780914,2.268855094909668,-0.6124516129493713,0.9494361281394958,-1.1974389553070068,0.29577726125717163,-1.3458101749420166,-0.28636351227760315,1.258178949356079,0.32174965739250183,2.2016983032226562,0.204159215092659,-1.2388352155685425,2.77325701713562,0.277767151594162,1.302077054977417,-0.2702806890010834,-0.49421679973602295,0.812876284122467,-0.6565050482749939,0.614386796951294,0.5038571357727051,0.07164473086595535,-1.0812476873397827,-0.05092206224799156,-2.373713970184326,1.0738435983657837,0.2237556278705597,-0.051086317747831345,2.6140098571777344,0.602673351764679,-0.25274020433425903,1.0334069728851318,0.36077311635017395,-0.32658493518829346,0.6946520805358887,1.659008264541626,-1.9843661785125732,-0.2452286183834076,-0.7505964040756226,0.9669535756111145,1.4537808895111084,2.0640361309051514,0.044735804200172424,2.280421495437622,-0.2627355456352234,0.2991493046283722,-0.6147091388702393,-1.7391599416732788,1.2534408569335938,0.5462298393249512,0.23497408628463745,-2.204242467880249,0.8108118772506714,-1.8947343826293945,-1.0144083499908447,1.07246994972229,-0.9427449107170105,-1.8123135566711426,0.35206401348114014,-0.5726341605186462,-0.5667930245399475,1.331217885017395,-0.8568229079246521,1.475141167640686,0.7958868741989136,-0.1494782567024231,-0.4113677144050598,-0.5697097778320312,1.5855647325515747,-0.8117789030075073,0.40245047211647034,-0.5919157266616821,0.44500964879989624,-2.157942295074463,-1.185280203819275,0.10641683638095856,1.7254256010055542,-0.7961740493774414,-1.7926112413406372,0.8492264151573181,-0.1676216572523117,-1.6151683330535889,0.4735933840274811,0.7129053473472595,-1.245090126991272,-0.0034879823215305805,1.1394810676574707,-2.698549747467041,-0.24669815599918365,2.1209447383880615,-0.7868442535400391,0.15704523026943207,-1.84087073802948,1.0897027254104614,0.20634914934635162,-0.6647977232933044,-1.2951420545578003,3.769117832183838,0.5649869441986084,1.3772387504577637,1.1687828302383423,0.4869333803653717,0.4947790801525116,0.3356730341911316,0.899919867515564,1.6397861242294312,-1.2514456510543823,0.2740747034549713,-0.5231887102127075,-1.4282602071762085,-2.8280014991760254,-0.2524818778038025,1.105911135673523,-0.22599901258945465,2.6698555946350098,-0.10430020838975906,0.7180050015449524,-0.2431587278842926,0.5798397660255432,0.9118192791938782,-0.24983075261116028,0.7980742454528809,-0.3198251724243164,-0.1551699936389923,-0.9306719899177551,-1.3942420482635498,0.8211463093757629,-0.6774176955223083,1.0258482694625854,-0.6869469881057739,1.0789663791656494,-1.4946259260177612,-0.5316362380981445,-0.036614008247852325,1.5756665468215942,2.486082077026367,1.0997053384780884,1.13979971408844,1.8311353921890259,-0.9024426341056824,2.741265296936035,-1.4450879096984863,0.3107776641845703,-0.15567906200885773,0.3587464690208435,-0.10346050560474396,0.7316325902938843,1.9838541746139526,-0.1915009468793869,-1.6791558265686035,-1.409050464630127,-0.6795088648796082,-0.42153623700141907,-1.034571886062622,-0.12073425948619843,-1.0521634817123413,-0.6409940123558044,0.3450585901737213,0.8386610150337219,-1.4287052154541016,0.23541861772537231,0.7388819456100464,-0.02813791297376156,-0.7321155667304993,1.2014700174331665,0.07548420876264572,-2.0052428245544434,0.37193694710731506,-0.7422247529029846,0.9570637345314026,0.5721003413200378,0.1955266147851944,-2.5523135662078857,0.04162824526429176,-2.206880569458008,1.026871919631958,2.6026487350463867,-0.053093455731868744,0.25759848952293396,0.43970733880996704,-0.9611752033233643,1.30767023563385,1.2215142250061035,0.25814303755760193,1.8083701133728027,-1.212050437927246,0.8219408988952637,-0.745585560798645,0.9546449184417725,-1.4333282709121704,-0.9124188423156738,0.7108035683631897,0.9909856915473938,-1.792938470840454,1.1482853889465332,0.6377043128013611,-0.15117619931697845,1.6800532341003418,0.3500877916812897,0.5664368271827698,-0.1820496767759323,0.4316127896308899,2.4272282123565674,0.4320138692855835,-0.5098057985305786,-1.7039313316345215,-1.1438883543014526,0.3126622438430786,2.2960422039031982,-1.0881257057189941,-1.160391092300415,2.206984043121338,0.8310520648956299,-0.27561521530151367,-0.09525061398744583,0.07726849615573883,-2.009324789047241,-0.8603958487510681,0.002256985055282712,1.0734730958938599,0.607304573059082,0.7421383261680603,0.07576872408390045,0.3724612295627594,-1.3555588722229004,0.40936556458473206,-1.474540114402771,0.12223921716213226,-0.5447666645050049,-0.29951173067092896,-0.4134123623371124,-0.4278605878353119,-0.19638128578662872,-0.9048585891723633,0.3648175597190857,-3.0362930297851562,0.15232597291469574,-0.9977819919586182,2.3080785274505615,1.603632926940918,-2.7094104290008545,-1.055461049079895,0.528163731098175,0.2806571125984192,0.38404783606529236,0.9039124846458435,1.060317039489746,0.3804139196872711,0.6538463830947876,-1.1427843570709229,1.1033601760864258,-1.7499380111694336,1.2534763813018799,-2.2502894401550293,-1.670110821723938,-0.7813513875007629,-0.0359327532351017,-0.09868889302015305,-0.07787555456161499,-0.8993828296661377,2.23416805267334,-2.417344331741333,-0.48508453369140625,0.4493142366409302,0.5485401749610901,-0.663870096206665,0.14883454144001007,-0.7145804762840271,0.0277621541172266,1.1032911539077759,0.4036552608013153,1.8785215616226196,0.6140435934066772,-2.0322508811950684,0.7211264967918396,-0.42858174443244934,1.7523406744003296,0.9745898246765137,0.2172577828168869,-0.7779797315597534,-0.45030927658081055,-0.987514317035675,1.2757209539413452,-0.4301013648509979,-1.2793837785720825,0.65372234582901,-1.1127705574035645,1.0041251182556152,0.915511965751648
b'\xe4\xbd\xbf\xe7\x94\xa8',-0.7305231690406799,1.0647838115692139,1.0048604011535645,1.2629188299179077,0.19076481461524963,-0.7968442440032959,-0.5767483711242676,0.4676944315433502,0.10639916360378265,-1.2369569540023804,-0.9760187268257141,-1.0768516063690186,-1.3226544857025146,-0.406961053609848,0.06879079341888428,-1.753950595855713,0.47066423296928406,-1.1960018873214722,-0.0918835774064064,0.16591913998126984,-0.867294430732727,-0.8267353177070618,0.7077605724334717,-0.8546199798583984,-1.2366143465042114,2.510715961456299,0.06273165345191956,-1.4169135093688965,0.8650104999542236,0.12432517856359482,1.5918633937835693,-0.5597939491271973,1.8052372932434082,-0.26389890909194946,0.004263086244463921,-0.3111717998981476,0.6106592416763306,-0.9510182738304138,-2.232959508895874,1.4239329099655151,1.453951120376587,0.5240013599395752,-0.3141351044178009,0.5359180569648743,-1.8490761518478394,0.09043412655591965,-1.3896657228469849,0.6307207345962524,1.2810263633728027,-0.5707716941833496,0.23279061913490295,-0.14628924429416656,0.91837477684021,-0.18971015512943268,-0.9179145693778992,-1.0043096542358398,-0.7209604978561401,-0.059944406151771545,-0.6528942584991455,0.014053084887564182,2.418973922729492,1.4779465198516846,1.1244261264801025,0.22760988771915436,0.5799565315246582,-0.4178760051727295,0.016530154272913933,0.9123284816741943,-0.545587956905365,0.0998510867357254,1.6374454498291016,-2.1873421669006348,0.6258034110069275,-0.5891298055648804,-0.32984158396720886,1.38493013381958,1.9769011735916138,-0.1326953023672104,1.395283818244934,-0.49156612157821655,0.1619543880224228,-0.5680504441261292,0.017593884840607643,-1.056838870048523,-0.17553889751434326,1.0420037508010864,1.226495623588562,0.1152888685464859,-0.2736705541610718,2.169241189956665,-0.20378006994724274,-0.6115529537200928,-0.023173870518803596,-0.0242917463183403,-2.280113935470581,1.4314062595367432,0.4718659818172455,0.6844878792762756,-0.6005499362945557,1.9063752889633179,-0.038683418184518814,0.4790179431438446,-0.210636168718338,1.2725584506988525,-1.7245116233825684,-1.3458600044250488,1.8275984525680542,1.890988826751709,0.9844037890434265,1.0603656768798828,-2.976473569869995,-1.3074495792388916,-2.3586835861206055,-0.7424458861351013,-0.9554843902587891,0.03948741406202316,0.6759865880012512,1.7671401500701904,1.6878212690353394,0.811256468296051,0.2358180731534958,1.4519520998001099,-0.16521355509757996,1.2158235311508179,0.17958146333694458,-0.6036878228187561,-0.04686261713504791,-0.40897583961486816,-1.1003994941711426,0.1332344114780426,-2.945004463195801,3.3356356620788574,-0.8184430003166199,-0.65535968542099,-0.49826130270957947,0.013185560703277588,1.2782938480377197,-1.1048427820205688,0.2862530052661896,-1.3181946277618408,-0.4794936776161194,-0.9863289594650269,1.7359981536865234,1.3865503072738647,1.1300785541534424,-0.9534963369369507,-0.546017587184906,-0.8861937522888184,1.2257850170135498,-3.299508571624756,1.2567806243896484,3.1261441707611084,1.7446686029434204,0.15602657198905945,1.6332578659057617,-0.5136405229568481,-1.3295564651489258,-0.13577863574028015,-0.504797101020813,-1.1054697036743164,-0.5788323879241943,1.4299488067626953,-1.310067892074585,-0.304162859916687,-0.39485523104667664,0.4510315954685211,1.0811333656311035,-1.3933324813842773,1.3502981662750244,0.7251517176628113,-1.067897081375122,-1.9990452527999878,0.7862205505371094,-1.6923280954360962,-0.929598867893219,-0.35319072008132935,0.6608385443687439,1.9658854007720947,-0.3208670914173126,2.255156993865967,0.08187221735715866,1.0605578422546387,-0.3114916980266571,0.3421156704425812,-0.5013493895530701,1.029862403869629,0.3922543227672577,1.1895241737365723,0.5495482683181763,-0.02852282114326954,0.8043777942657471,-0.18374940752983093,-1.746350884437561,-0.5918339490890503,-1.2395100593566895,-1.487075924873352,-1.8700981140136719,-2.063066244125366,-1.588128924369812,-2.1424739360809326,0.7113572955131531,0.8669860363006592,0.7285096645355225,-1.262493371963501,1.4442460536956787,-2.399676561355591,0.97244793176651,0.036224521696567535,3.0691092014312744,-0.6456460356712341,1.0467052459716797,-0.45316365361213684,-1.1101648807525635,1.262674331665039,0.330836683511734,0.8153901100158691,1.751844882965088,-0.43658390641212463,-1.1894972324371338,1.2566593885421753,0.36149561405181885,0.3421275317668915,-1.2715791463851929,0.63334721326828,0.5690224170684814,-1.805930495262146,1.2349313497543335,0.04981467127799988,2.4879250526428223,-1.5075695514678955,0.4738568067550659,0.1610613465309143,-0.7995057106018066,0.39750146865844727,1.0245181322097778,-1.8611692190170288,-0.6115018725395203,0.5920125246047974,0.5963766574859619,-0.6691271662712097,0.2082572728395462,-0.44972607493400574,-1.4755865335464478,0.16134044528007507,-0.2472190111875534,-0.478800505399704,-1.0713744163513184,0.8534420132637024,-2.9082460403442383,1.1798039674758911,0.26314473152160645,-0.3987683951854706,-0.6180298924446106,-2.30421781539917,0.22980232536792755,-0.03708314150571823,2.1840758323669434,2.0935168266296387,-0.7526804208755493,-0.7789078950881958,-1.8520371913909912,1.4039433002471924,-0.9621322154998779,-0.9518707394599915,-0.8558510541915894,1.8093518018722534,0.040160976350307465,0.3231557011604309,-0.1214710921049118,1.3570588827133179,-0.9973181486129761,0.6411929726600647,1.262864351272583,-1.5384811162948608,2.8234267234802246,-1.1097081899642944,0.13612934947013855,-0.5136020183563232,-2.0286099910736084,-0.37137386202812195,0.7994450926780701,0.3939599096775055,0.5925700664520264,-1.6876685619354248,-1.0227242708206177,-0.35367444157600403,-1.6013214588165283,0.8266708850860596,0.215335413813591,0.04814492538571358,-2.2217137813568115,0.21650923788547516,-1.0539546012878418,-0.18234699964523315,0.6754571795463562,1.4745705127716064,0.014886081218719482,1.9495066404342651,0.14973144233226776,1.7864166498184204,-1.7291122674942017,-0.5451681017875671,-1.2861080169677734,0.8190069794654846,-0.21304108202457428,-0.28664925694465637,0.6585425138473511,-0.6649733185768127,1.186053991317749,1.3915787935256958,0.7826496362686157,-0.33523666858673096,0.3825233280658722,-0.09401481598615646,0.13850940763950348,-0.9819112420082092,0.7471701502799988,0.7160067558288574,0.5737891793251038,0.382436603307724,-0.48428967595100403,0.565876841545105,1.2307000160217285,1.4149951934814453,-0.41192278265953064,0.8575654029846191,0.635259211063385,0.8616211414337158,0.04455411434173584,1.095548152923584,0.26196014881134033,-0.7049757838249207,1.8944311141967773,-1.4566677808761597,-0.8225621581077576,-0.6403719782829285,-0.14473004639148712,0.21826621890068054,-0.1809668093919754,0.3943340480327606,-0.9824420213699341,-1.2068169116973877,0.22499768435955048,-0.23601406812667847,-1.106323003768921,0.41428032517433167,-0.9980667233467102,-0.2617613971233368,-1.378616452217102,3.616041421890259,-1.6219570636749268,-0.3137619197368622,-0.7129124999046326,2.538165330886841,1.4852906465530396,-3.073570728302002,-0.8679357171058655,0.27616989612579346,-0.0705052837729454,-0.19662201404571533,-0.8579362034797668,-1.1272321939468384,-1.217060923576355,-1.145411729812622,-2.0277762413024902,0.6991000771522522,-0.2763064503669739,0.1816195249557495,0.5877116322517395,-0.9296122789382935,-0.4054322838783264,-0.8958314657211304,1.1901084184646606,1.266789197921753,0.9482752680778503,-0.0015702267410233617,-2.0084989070892334,-0.5360057353973389,-0.03317279368638992,-0.415127694606781,0.34798818826675415,-1.2302736043930054,-0.024379516020417213,-1.6424856185913086,-0.18121032416820526,-0.5844778418540955,-1.0871598720550537,0.13913963735103607,2.1166954040527344,1.0131936073303223,-1.3837273120880127,2.5568201541900635,-0.9778918623924255,1.8799084424972534,1.746459722518921,3.37713885307312,-1.9301743507385254,-1.0284018516540527,2.8471150398254395,0.1439691185951233
