word,0,1,2,3,4,5,6,7,8,9,10,11,12,13,14,15,16,17,18,19,20,21,22,23,24,25,26,27,28,29,30,31,32,33,34,35,36,37,38,39,40,41,42,43,44,45,46,47,48,49,50,51,52,53,54,55,56,57,58,59,60,61,62,63,64,65,66,67,68,69,70,71,72,73,74,75,76,77,78,79,80,81,82,83,84,85,86,87,88,89,90,91,92,93,94,95,96,97,98,99,100,101,102,103,104,105,106,107,108,109,110,111,112,113,114,115,116,117,118,119,120,121,122,123,124,125,126,127,128,129,130,131,132,133,134,135,136,137,138,139,140,141,142,143,144,145,146,147,148,149,150,151,152,153,154,155,156,157,158,159,160,161,162,163,164,165,166,167,168,169,170,171,172,173,174,175,176,177,178,179,180,181,182,183,184,185,186,187,188,189,190,191,192,193,194,195,196,197,198,199,200,201,202,203,204,205,206,207,208,209,210,211,212,213,214,215,216,217,218,219,220,221,222,223,224,225,226,227,228,229,230,231,232,233,234,235,236,237,238,239,240,241,242,243,244,245,246,247,248,249,250,251,252,253,254,255,256,257,258,259,260,261,262,263,264,265,266,267,268,269,270,271,272,273,274,275,276,277,278,279,280,281,282,283,284,285,286,287,288,289,290,291,292,293,294,295,296,297,298,299,300,301,302,303,304,305,306,307,308,309,310,311,312,313,314,315,316,317,318,319,320,321,322,323,324,325,326,327,328,329,330,331,332,333,334,335,336,337,338,339,340,341,342,343,344,345,346,347,348,349,350,351,352,353,354,355,356,357,358,359,360,361,362,363,364,365,366,367,368,369,370,371,372,373,374,375,376,377,378,379,380,381,382,383,384,385,386,387,388,389,390,391,392,393,394,395,396,397,398,399
b'\xe4\xbd\x9c',0.8432096838951111,0.21317432820796967,-0.9753637909889221,1.6215112209320068,-0.8280030488967896,-0.47833651304244995,1.7101514339447021,0.6409590244293213,0.8837634921073914,-0.1700827032327652,0.44070547819137573,-0.9450927376747131,-1.952049970626831,1.3527799844741821,-1.0097471475601196,0.3922913372516632,0.7022829055786133,-0.49315345287323,-0.4316045045852661,0.31259024143218994,0.6747044324874878,-0.005041175521910191,-1.1294567584991455,0.9959556460380554,-0.6036389470100403,0.7900314331054688,-0.6980981230735779,1.723467469215393,0.7806450128555298,-0.13384245336055756,0.7949541807174683,0.6106797456741333,0.38899171352386475,-0.8180128931999207,-0.1405000537633896,-0.8769336342811584,0.6535732746124268,0.30981290340423584,0.22785308957099915,0.3265399634838104,0.7789232134819031,0.5145202279090881,0.30823278427124023,-0.4147004187107086,-0.44453972578048706,-0.6670477390289307,-1.9921480417251587,0.9767928123474121,-1.7311604022979736,-1.3463844060897827,1.1075499057769775,0.9825531244277954,-0.19999533891677856,-0.003965705167502165,-1.27133047580719,0.9950379729270935,0.8583669662475586,1.5378754138946533,-0.5026443004608154,-0.7142452597618103,1.433388352394104,-0.12647859752178192,-0.6667702198028564,-0.651054859161377,-0.8365675806999207,-0.3396274447441101,-2.1157186031341553,1.1562176942825317,-0.5549116134643555,-0.05129236355423927,1.0986626148223877,0.09794213622808456,-1.0168735980987549,-0.6873394846916199,0.8043030500411987,-0.4314277768135071,0.4589537978172302,0.3060615062713623,0.14843304455280304,0.0018297325586900115,0.5696917772293091,-0.5988039970397949,-0.8735724091529846,0.8840108513832092,0.4792405664920807,1.0256545543670654,-2.635612964630127,-0.2029149830341339,-0.24383290112018585,0.1409551054239273,-0.39561623334884644,-0.04224470257759094,1.3551294803619385,-1.8854036331176758,-0.6248146295547485,0.8513798713684082,-1.766296625137329,0.35060515999794006,-1.8473113775253296,0.6181825995445251,-0.6532078385353088,-0.6543180346488953,-0.32166120409965515,0.16472473740577698,0.39842769503593445,-0.14544306695461273,2.3714821338653564,-0.5393587946891785,-1.1460366249084473,0.3340899646282196,-2.198186159133911,2.7092761993408203,-0.34075450897216797,1.4130607843399048,-0.10187224298715591,-0.6489141583442688,1.1463346481323242,-1.6837270259857178,-0.8021714091300964,0.13573558628559113,1.129935622215271,-0.02064933255314827,-0.3814047873020172,-0.2645205855369568,1.101145625114441,-1.0056313276290894,0.11774948239326477,-2.4610695838928223,-1.3311059474945068,0.1825883388519287,0.5619242787361145,1.1778569221496582,-0.4723767638206482,0.2540523111820221,-0.5848995447158813,-0.21261809766292572,0.4502207338809967,-0.4753469228744507,-1.1341180801391602,-0.185407355427742,-0.1267857402563095,0.17335984110832214,-0.053493354469537735,0.8360026478767395,3.1675572395324707,0.25640034675598145,0.2128945142030716,0.5164281129837036,0.5303436517715454,-1.4342119693756104,1.7697612047195435,-0.07015039771795273,1.580037236213684,0.5365685224533081,-0.8792773485183716,-2.0176174640655518,1.633461356163025,0.2657321095466614,0.7850785255432129,-0.7426242828369141,-0.7887261509895325,-0.2789197862148285,-0.6404135823249817,-0.9190095663070679,0.6940659284591675,-0.1883128434419632,0.13862395286560059,-1.5626319646835327,-0.8373342752456665,0.3402246832847595,0.02136174403131008,-0.2254818230867386,-0.4346931576728821,-0.28627654910087585,1.3938207626342773,0.37962883710861206,1.5528266429901123,0.0011412494350224733,0.7565504908561707,0.11804582178592682,-0.1143050268292427,0.027377964928746223,0.23637507855892181,0.07912667095661163,-0.1378748118877411,-0.9552743434906006,0.14066308736801147,2.434324264526367,0.252984881401062,-0.7524860501289368,0.38001811504364014,-0.39345479011535645,-0.21229425072669983,2.106839179992676,-0.4421689510345459,0.5096607804298401,0.24101613461971283,0.5328624844551086,-0.9634768962860107,0.2124246060848236,0.68630051612854,0.7239136695861816,-0.4612514078617096,-1.6581887006759644,-0.041795406490564346,0.043198682367801666,-0.24594920873641968,-0.5359766483306885,0.946439802646637,-0.12780261039733887,-1.8151687383651733,1.7202762365341187,0.3249890208244324,-0.6640174984931946,0.44050854444503784,-1.0859529972076416,0.5840944051742554,0.49614381790161133,-1.1219078302383423,0.021661553531885147,-0.5805048942565918,2.073641538619995,-0.45326370000839233,1.9639654159545898,-1.0869046449661255,-0.6462720632553101,0.9291599988937378,-1.5663753747940063,0.7944003939628601,-2.319849967956543,0.6804166436195374,-0.20928816497325897,-0.583186149597168,-1.0283960103988647,-0.7315758466720581,-2.3052818775177,1.3050646781921387,1.718382477760315,0.5617132186889648,-0.4502066671848297,-0.6467396020889282,0.09532812982797623,-1.5222704410552979,-0.9391264915466309,0.13798503577709198,2.402650833129883,0.12481188029050827,-0.8664122223854065,-1.5718016624450684,0.024606239050626755,-0.6996026039123535,0.6376792192459106,-0.003900628536939621,-0.99458247423172,-1.4261689186096191,-0.4180038869380951,-0.24504226446151733,-1.8044445514678955,0.42034634947776794,1.7923903465270996,1.181113600730896,0.27088889479637146,-0.42959064245224,-1.1586589813232422,1.2296797037124634,0.06358829885721207,-0.07711248099803925,1.1234068870544434,-0.8376151919364929,-0.7303307056427002,1.073878526687622,2.255506992340088,0.5337700843811035,-1.077871322631836,1.1434131860733032,-1.3062618970870972,-0.35400378704071045,0.43389564752578735,-2.5604095458984375,1.6979495286941528,0.18902936577796936,0.21701675653457642,0.7131329774856567,1.0110187530517578,0.12339355796575546,0.3247743844985962,0.15981362760066986,0.7592849731445312,0.6264610886573792,1.213566780090332,-2.530491828918457,-0.7244446277618408,1.5796475410461426,-0.33903825283050537,-0.16162043809890747,-1.446578025817871,-0.1269916594028473,-1.55787193775177,-0.5596024394035339,1.7099276781082153,-1.2771873474121094,-0.2279404252767563,-1.2005311250686646,1.656598448753357,-2.0480968952178955,-3.301867961883545,-0.48589271306991577,1.3707140684127808,3.4257941246032715,-0.4605872631072998,-0.7298354506492615,0.5018545389175415,-2.0652072429656982,-0.8967222571372986,1.0325806140899658,0.30053314566612244,-1.5597535371780396,0.15804094076156616,0.9741585850715637,0.7132775783538818,2.0576772689819336,-0.39683642983436584,1.096847414970398,-0.2102518528699875,-0.2237367182970047,0.7674917578697205,2.390897035598755,0.6269491314888,0.11971704661846161,0.3744814991950989,2.276892900466919,0.20140711963176727,-0.9870726466178894,-3.2029032707214355,1.1892412900924683,0.5916199684143066,-0.155416339635849,0.252895325422287,-1.352795958518982,-2.614767074584961,-0.31312867999076843,-1.2075036764144897,1.2250480651855469,-0.013651439920067787,-0.43395254015922546,-0.2737080454826355,0.7018308043479919,-2.3012375831604004,0.13515791296958923,1.160014033317566,1.9671101570129395,-2.2218387126922607,2.698455572128296,-0.11804062128067017,0.4402109682559967,-0.3778895139694214,-0.9778133630752563,-0.7464368939399719,-0.2774568498134613,-0.9604735970497131,0.10309403389692307,0.9958913326263428,0.149187371134758,-0.31089305877685547,0.32051292061805725,1.8329657316207886,-0.21219179034233093,0.5680107474327087,-0.15623587369918823,-1.8413026332855225,1.8118383884429932,-0.5486193895339966,-1.3502953052520752,-0.17201809585094452,0.01549815945327282,-1.072792410850525,-0.5533608198165894,-2.026742935180664,-0.9196462035179138,-0.8809661865234375,0.5155065059661865,0.2911980450153351,-1.1826826333999634,0.8000177145004272,0.512078583240509,0.6521799564361572,-4.111011028289795,3.521970748901367,-0.21364186704158783,-0.9117715358734131,-1.0153741836547852,2.533385992050171,-1.3294901847839355,2.0022034645080566,0.4236561357975006,0.7826508283615112,-0.6980130076408386,0.5306415557861328,1.0194977521896362,-1.3154956102371216
b'\xe9\xab\x98\xe5\x88\x86\xe8\xbe\xa8\xe7\x8e\x87',0.03180502727627754,0.4019824266433716,0.2561957836151123,-0.44628873467445374,0.4731903672218323,0.2513919472694397,0.03448550030589104,0.3072296380996704,0.0597129687666893,0.08415903896093369,-0.4879205822944641,-0.1317918449640274,0.43605509400367737,-0.438069224357605,0.37399065494537354,-0.1684783399105072,0.09983398765325546,0.018455462530255318,-0.08287850767374039,-0.10275203734636307,-0.006711898371577263,-0.2801760137081146,0.2223849892616272,0.046824462711811066,0.2535437345504761,-0.1339697241783142,0.5267508029937744,-0.9565706849098206,0.022355815395712852,-0.02282899059355259,0.26335570216178894,0.2424689382314682,0.23667503893375397,0.027198269963264465,-0.25403037667274475,-0.4836738109588623,0.38502487540245056,-0.030009083449840546,0.016271406784653664,0.15395480394363403,0.10647262632846832,0.11441031843423843,-0.1712544709444046,-0.4500046372413635,0.2139083743095398,-0.37169891595840454,0.018912510946393013,-0.31725549697875977,0.2444809228181839,0.12766586244106293,-0.7000129818916321,-0.16137182712554932,-0.3762753903865814,0.41408491134643555,-0.4495581388473511,0.08471017330884933,-0.01060221716761589,-0.6532310843467712,-0.09980228543281555,0.5056617259979248,-0.9971707463264465,-0.12670715153217316,0.00012259773211553693,-0.4074264466762543,0.5528576374053955,-0.33938050270080566,-0.309490442276001,0.08039642870426178,-0.1507704257965088,0.15510514378547668,0.020063644275069237,-0.1382519006729126,-0.33052390813827515,-0.05248958617448807,0.17736709117889404,-0.14228862524032593,-0.13060681521892548,-0.12083521485328674,0.3419412672519684,0.35854867100715637,0.047156427055597305,0.0175937432795763,0.5637167692184448,-1.1284198760986328,0.44442760944366455,-0.715674102306366,0.47409844398498535,0.6369481086730957,-0.06344630569219589,0.41367489099502563,0.40705910325050354,-0.123296357691288,-0.05090082809329033,0.29473140835762024,0.4504697918891907,-0.08413011580705643,-0.08491396903991699,0.12019602209329605,0.3775665760040283,0.681564450263977,-0.2697570323944092,-0.06422659754753113,-0.30558502674102783,-0.09979100525379181,0.42686957120895386,-0.5954381227493286,0.3159666359424591,0.6208551526069641,-0.16053171455860138,0.1118658185005188,-0.35264095664024353,0.010956556536257267,0.4753883183002472,0.11860007792711258,-0.5705408453941345,0.4360663592815399,-0.4275054335594177,-0.3878307044506073,-0.30818286538124084,0.8789095282554626,0.7345187067985535,-0.11198244243860245,-0.5516735911369324,0.809843122959137,0.18983356654644012,0.21063849329948425,0.3005973696708679,-0.030961494892835617,-0.1399945318698883,0.03776269033551216,-0.22454671561717987,0.7179193496704102,-0.40867307782173157,-0.05050130933523178,-0.14109963178634644,0.42729026079177856,0.06037359684705734,-0.03923887759447098,0.04792379215359688,0.21153081953525543,0.14403504133224487,-0.24642272293567657,0.2171557992696762,0.9534799456596375,-0.35202983021736145,0.2131163775920868,0.7542195916175842,-0.12623511254787445,0.22889982163906097,0.2523672878742218,0.07604271173477173,0.46739545464515686,-0.09788399934768677,-0.12517817318439484,0.35789987444877625,-0.5710678696632385,0.3135095238685608,-0.1617644876241684,-0.06559786945581436,0.2979448139667511,-0.05503630265593529,-0.13109588623046875,0.30154934525489807,0.13946093618869781,-0.05170249938964844,-0.2078835517168045,0.31880536675453186,0.013051578775048256,0.5155971050262451,0.11455909162759781,-0.10603515058755875,-0.07683541625738144,1.1558823585510254,0.21175184845924377,-0.20422431826591492,0.09303925186395645,0.15533843636512756,-0.2878698706626892,0.5229986310005188,0.7886152267456055,-0.6649724245071411,0.29299426078796387,-0.20692740380764008,0.6487310528755188,-0.3677712082862854,-0.10338170826435089,-0.2996688485145569,0.2587831914424896,-0.2601039707660675,-0.4442903995513916,-0.2065655142068863,0.07229656726121902,0.24382612109184265,0.3837472200393677,-0.3111409842967987,-0.0033847875893115997,0.1851917803287506,0.046715375036001205,-0.6759246587753296,-0.1055699959397316,0.2534429132938385,-0.03174374997615814,-0.20356309413909912,-0.7559252977371216,-0.26465803384780884,0.04822502285242081,0.08931814879179001,-0.10951866209506989,0.497104674577713,-0.03476361930370331,-0.010030659846961498,0.19970162212848663,-0.07610771059989929,0.35879403352737427,-0.1717260479927063,0.3634597361087799,-0.22939856350421906,-0.5237438678741455,-0.3197280466556549,-0.39256367087364197,-0.22636264562606812,-0.24662967026233673,-0.3489395081996918,0.14670874178409576,0.18698416650295258,0.46096470952033997,0.1977042406797409,-0.029199615120887756,0.5868479013442993,-0.3345266878604889,0.9944818615913391,-0.046602535992860794,-0.21679802238941193,0.3205535113811493,0.45181089639663696,0.482662171125412,-0.44522133469581604,0.11676082760095596,0.019458375871181488,-0.2624826729297638,0.06655464321374893,-0.2336185872554779,-0.21830476820468903,-0.3001493513584137,-0.943108081817627,-0.14435701072216034,-0.17375482618808746,0.23729272186756134,-0.12093731015920639,0.5366371273994446,-0.37402403354644775,-0.03877747803926468,-0.19206538796424866,0.18843863904476166,0.05590599775314331,-0.26245784759521484,0.5784770250320435,-0.36763086915016174,0.06626561284065247,0.4321316182613373,-0.7107197046279907,0.6462509632110596,-0.1877080500125885,-0.6921711564064026,-0.11282733082771301,0.2972944974899292,0.3637006878852844,-0.28696614503860474,0.10664483904838562,-0.32386514544487,0.25635212659835815,0.10404796153306961,0.5246572494506836,0.6479451656341553,0.23436219990253448,0.5151031017303467,-0.5308558344841003,0.5632882714271545,0.03854658454656601,-0.6012044548988342,-0.06523598730564117,-0.2986873686313629,0.8006123900413513,0.23740023374557495,-0.6178061962127686,0.0016797705320641398,-0.11161742359399796,0.28090277314186096,-0.06198393553495407,-0.4400384724140167,0.30031663179397583,0.11371421813964844,-0.2941550314426422,-0.06507785618305206,-0.08076562732458115,0.4820830225944519,-0.5539645552635193,0.15924674272537231,-0.04655415937304497,-0.6530722379684448,0.3854735195636749,-0.39037197828292847,0.182302787899971,-0.20237691700458527,0.619505763053894,0.122891865670681,-0.7496194839477539,-0.5799838304519653,-0.7044227719306946,-0.17245985567569733,0.33100810647010803,0.13032732903957367,0.2507402002811432,-0.40144285559654236,0.1559036374092102,-0.47452762722969055,0.04993974417448044,-0.13220834732055664,0.13538728654384613,-0.2674987316131592,-0.1310485303401947,-0.45771223306655884,0.18563224375247955,-0.386320561170578,-0.06318908929824829,-0.2219887226819992,-0.11948084086179733,0.12211514264345169,0.33122220635414124,-0.4455986022949219,0.22622720897197723,0.30516505241394043,0.47392019629478455,-0.431417316198349,0.4354647994041443,-1.109413743019104,0.17294247448444366,-0.3501409888267517,-0.13258948922157288,-0.5832580327987671,-0.2278827279806137,0.2705591022968292,0.22698882222175598,-0.6410436630249023,-0.12132742255926132,-0.1319962590932846,-0.18699650466442108,-0.10691129416227341,-0.3205914795398712,0.21872852742671967,0.40989387035369873,-0.13556724786758423,0.7624751329421997,-0.2937435507774353,0.07187119871377945,-0.31775087118148804,-0.18825098872184753,-0.271446168422699,-0.3135490417480469,-0.021098880097270012,0.08672666549682617,0.10896588116884232,-0.04102145880460739,-0.34061381220817566,-0.5776190757751465,0.08372242748737335,-0.33458900451660156,0.09767024964094162,0.46336305141448975,-0.16075193881988525,0.36354807019233704,0.1806214451789856,0.4448351562023163,0.35639140009880066,0.22371436655521393,-0.10567525774240494,-0.4657997786998749,-0.21167831122875214,0.18373040854930878,-0.511886715888977,0.07863124459981918,-0.2086399495601654,0.07379850745201111,-0.03612367808818817,-0.9100018739700317,0.40699538588523865,0.16831979155540466,-0.2907435894012451,0.22925713658332825,0.23804345726966858,0.07225823402404785,0.299391508102417,-0.3373264968395233,0.2829258143901825,0.8590968251228333,0.11797571927309036,0.7374602556228638,-0.40259408950805664,0.37778982520103455,0.21828357875347137
b'\xe7\x94\xb5\xe5\xad\x90\xe6\x98\xbe\xe5\xbe\xae\xe9\x95\x9c',-0.5508750677108765,-0.034298110753297806,0.2030072808265686,-0.6214614510536194,0.2471161037683487,0.4969141185283661,0.3160354495048523,-0.4721861183643341,0.4245047867298126,-0.08004675805568695,-0.6726135015487671,-0.14493094384670258,0.7266563773155212,-0.22457945346832275,-0.26390978693962097,-0.09770084172487259,-0.04706602916121483,-1.2814303636550903,-0.570644736289978,0.06367294490337372,-0.12925459444522858,-0.7568559050559998,0.14525267481803894,-0.10905253142118454,0.5336325764656067,-0.06728370487689972,0.40338850021362305,-0.9236507415771484,-0.02338399365544319,-0.3278762698173523,0.40086081624031067,0.03950412943959236,-0.02200539968907833,0.3343280851840973,0.12117082625627518,-0.7589899897575378,0.743705689907074,0.22860540449619293,0.5386255979537964,-0.5560958981513977,0.15923458337783813,0.9879212379455566,-0.6741371154785156,0.04762621596455574,0.07543795555830002,-0.5254754424095154,-0.06959294527769089,-0.22799746692180634,0.24007943272590637,0.08520577102899551,-0.7378911972045898,0.6372426152229309,-0.14679719507694244,0.0985882356762886,-0.04709821939468384,-0.7325337529182434,-0.4666019678115845,-0.06563685834407806,-0.2728181779384613,-0.3397887945175171,-1.1249123811721802,-0.34708842635154724,0.636536180973053,-0.16606348752975464,0.6712726950645447,-0.3710929751396179,-1.0523231029510498,-0.8580023050308228,-0.3034873902797699,0.3432929217815399,-0.06460848450660706,0.013387189246714115,-0.1502259522676468,0.9100629687309265,-0.312185674905777,0.1380879133939743,-0.08562969416379929,0.415144681930542,1.3921231031417847,0.4146057069301605,-0.13404954969882965,0.5339199304580688,1.0401623249053955,-1.3740986585617065,-0.31409990787506104,-0.17072038352489471,0.5294849872589111,1.0918203592300415,0.3748490512371063,-0.18316352367401123,0.22273609042167664,0.6807169318199158,-0.037315573543310165,0.20979006588459015,0.13748210668563843,0.12251077592372894,-0.30375951528549194,-0.082007497549057,0.32007545232772827,0.4344867169857025,0.012445599772036076,-0.31220072507858276,-0.49471741914749146,-0.114686019718647,0.12872938811779022,0.244255930185318,-0.2684674859046936,1.2734928131103516,0.5671581029891968,-0.055706433951854706,-0.23215113580226898,0.3516608476638794,0.36044853925704956,-0.21449927985668182,-0.413579523563385,0.7969843149185181,-0.9377274513244629,-0.2823110520839691,-0.367685467004776,0.39373379945755005,0.1307022124528885,0.15144792199134827,-0.24716560542583466,0.3781954348087311,-0.2741738259792328,-0.0678701177239418,0.9015294909477234,-0.6779947280883789,-0.23342560231685638,0.8587620854377747,0.0621151365339756,0.6480761766433716,-1.2952098846435547,-0.007112440653145313,-0.22115091979503632,0.7027849555015564,-0.290735125541687,-0.48521506786346436,0.2050676792860031,-0.1679057627916336,0.588216245174408,-0.37388476729393005,-0.02029469981789589,1.094620943069458,-0.01435091532766819,-0.031581804156303406,0.6203920245170593,-0.45115962624549866,0.41456207633018494,0.17363081872463226,0.4461418688297272,0.9168601036071777,-0.5860297679901123,0.3104627728462219,0.19382286071777344,-0.35972195863723755,0.13036948442459106,-0.17990335822105408,-0.18831974267959595,0.0763673260807991,0.020345402881503105,0.6079099774360657,-0.029453715309500694,0.3302886188030243,-0.23924829065799713,-0.006447103340178728,0.8832452297210693,-0.555448591709137,0.27913182973861694,-0.3142271935939789,-0.4966259002685547,-0.015253691002726555,1.3305766582489014,0.902807891368866,-0.5614515542984009,0.38642314076423645,0.8020144701004028,-0.28080594539642334,0.43729859590530396,1.3787277936935425,-1.2281241416931152,0.1346297711133957,0.18834127485752106,-0.4342963397502899,-0.2962667644023895,0.09744539856910706,0.26763996481895447,0.07382092624902725,-0.571312427520752,-0.23671506345272064,-0.03211513161659241,0.5740112662315369,0.3404267728328705,0.08983837813138962,-0.28856053948402405,-0.2602805197238922,0.045649513602256775,-0.20295175909996033,-0.9705847501754761,-0.3659913241863251,0.7868250608444214,-0.32339590787887573,-0.35043561458587646,-0.8981919884681702,0.06435337662696838,0.3014650046825409,0.34716278314590454,0.10653163492679596,0.6481736302375793,-0.14441238343715668,-0.4255092442035675,-0.4804282784461975,-0.18383671343326569,0.8458746075630188,0.01636221818625927,-0.002422991441562772,-0.21217229962348938,-0.26716750860214233,0.41285741329193115,-0.8012068867683411,-0.44901230931282043,-0.7697036862373352,0.1878460794687271,1.2979276180267334,-0.9542540907859802,0.16892555356025696,-0.19583076238632202,-0.5960374474525452,1.0310496091842651,-0.7373780608177185,0.94486004114151,0.3829025626182556,-0.2789763808250427,0.5605230331420898,0.7270338535308838,0.37439554929733276,-0.6305813193321228,0.5271840691566467,-0.3898952305316925,-0.5690423250198364,-0.3829827308654785,-0.6683083176612854,-0.7796676158905029,-0.516430139541626,-0.3652365207672119,0.8446226119995117,0.25168830156326294,-0.7482694983482361,-0.29484015703201294,0.6504468321800232,-0.3849143087863922,-0.043389156460762024,-0.14834249019622803,0.3401873707771301,0.5143161416053772,-0.16730788350105286,0.5379288196563721,-0.1418898105621338,0.6147658824920654,0.41828563809394836,-0.7956152558326721,0.13739702105522156,-0.8382931351661682,-0.15081141889095306,0.13988932967185974,0.4358959496021271,0.8418791890144348,0.2228526622056961,0.5101351141929626,-0.5826098918914795,-0.20966961979866028,0.10996414721012115,0.8957074880599976,0.302144855260849,0.06672941148281097,-0.18590830266475677,-0.6583593487739563,0.026252267882227898,-0.4939122200012207,0.4482322633266449,-0.4849819839000702,-0.4038604199886322,1.2059931755065918,-0.25755178928375244,-0.9626373648643494,0.24288254976272583,-0.3048021197319031,0.2748318910598755,-0.48626723885536194,-0.008399171754717827,-0.36055174469947815,0.15067733824253082,0.23309426009655,0.15915079414844513,-0.2947697043418884,0.8207919001579285,-1.0701477527618408,0.5470695495605469,-0.2779679298400879,-0.700262188911438,1.121938943862915,-0.45834699273109436,-0.2539549767971039,-0.4181651771068573,0.32393577694892883,-0.2473626285791397,-0.5229758620262146,-0.7570700645446777,-0.8258070945739746,0.22089602053165436,-0.008068155497312546,0.3410508632659912,0.6308236122131348,-0.47185173630714417,0.28939321637153625,-0.7975915670394897,-0.4444599747657776,-0.3849312365055084,-0.10384973883628845,-0.3218318819999695,0.14386509358882904,-1.1730271577835083,0.2716027498245239,0.32490649819374084,-0.7324785590171814,-0.13602887094020844,-0.6707617044448853,-0.5267132520675659,0.4991692304611206,0.12135392427444458,-0.4080708920955658,0.4044528901576996,0.0006490289233624935,-0.8521756529808044,0.4171631336212158,-1.088828682899475,-0.4469555914402008,-0.4133894145488739,-0.9824787378311157,-0.9660637974739075,0.05771064758300781,-0.40208739042282104,-0.2513865828514099,-0.9614706039428711,-0.6594127416610718,-1.1008278131484985,0.2667939066886902,0.3911559283733368,0.2618410587310791,0.6735947132110596,-0.2163940668106079,-0.4893879294395447,0.041750624775886536,-0.28795358538627625,-0.08076877892017365,-0.9659717679023743,0.37813591957092285,-0.5493411421775818,-0.21130235493183136,0.10473166406154633,-0.05842433124780655,0.3736180365085602,0.2375851422548294,-0.4979774057865143,-1.3942278623580933,-0.8228786587715149,-0.29471585154533386,0.7061211466789246,0.6159425973892212,-0.8741695880889893,0.2580367922782898,-0.3983041048049927,1.1453406810760498,0.8243237137794495,0.22913290560245514,-0.3307640552520752,-0.3677000403404236,-0.7330841422080994,0.5989917516708374,0.0933593213558197,0.19941619038581848,-0.04534585401415825,0.39374205470085144,-0.33386948704719543,-0.96656334400177,-0.01881679706275463,0.8063017129898071,-0.41216346621513367,-0.2656992971897125,-0.6175490021705627,0.2361738681793213,0.5635981559753418,-0.5969139933586121,-0.05341743305325508,0.7054628133773804,0.5122811198234558,0.5808339715003967,0.2511870563030243,0.7973132133483887,-0.5600771903991699
b'\xe7\xa7\x91\xe5\xad\xa6\xe6\x8a\x80\xe6\x9c\xaf',1.0636284351348877,-0.2977154552936554,-1.4372365474700928,-0.3326707184314728,1.3027490377426147,0.10910414904356003,-1.015706181526184,0.9493139982223511,-1.9560015201568604,0.22674532234668732,-0.6566311717033386,-1.0592775344848633,0.6701611876487732,-0.10131779313087463,0.10798461735248566,-0.9582599401473999,1.9020737409591675,-0.210262730717659,-0.7118604779243469,-2.7734735012054443,0.48830732703208923,-0.9953507781028748,-0.8639034032821655,-0.36447417736053467,0.24703773856163025,-0.8517757654190063,0.08505342155694962,-0.978801429271698,-0.3949624300003052,-0.5169553160667419,1.7279163599014282,1.1146771907806396,1.257690191268921,-0.12260648608207703,0.26051124930381775,-0.6385526061058044,0.37833714485168457,-0.13152265548706055,0.43077489733695984,-0.49534112215042114,-0.5265215039253235,-0.148354634642601,-0.08875709027051926,-0.41087043285369873,0.0597648099064827,-1.0375239849090576,-0.8152663111686707,-0.43567025661468506,0.15635143220424652,-0.457778662443161,-0.20320135354995728,1.4799240827560425,0.836847186088562,-0.8484702110290527,-0.9610193967819214,-1.3597763776779175,0.237995907664299,0.19156058132648468,-0.45478230714797974,1.4202170372009277,0.3283451497554779,0.4332962930202484,-1.0001091957092285,0.02352844923734665,0.3381897807121277,0.6856884360313416,-0.6187406182289124,-0.5776692032814026,0.88196861743927,1.1719515323638916,0.5791943073272705,-1.0589368343353271,-1.4132713079452515,-0.2761143743991852,-0.6648696064949036,-0.5422521233558655,-0.8287840485572815,0.7656699419021606,-0.35008594393730164,0.013323945924639702,0.4937545359134674,1.6269079446792603,0.2982359230518341,-0.531801164150238,-0.2261464148759842,-1.3816626071929932,-0.615868866443634,-0.2914835512638092,-0.3162830173969269,-0.2894676923751831,-1.03954017162323,-0.41272544860839844,1.4327754974365234,1.8175667524337769,-0.0839753970503807,-0.4355730414390564,2.040390729904175,-0.7350467443466187,-0.1277058720588684,0.10471359640359879,0.20895585417747498,1.659471869468689,0.617824137210846,-1.3201781511306763,-0.14989890158176422,0.23157891631126404,-2.2395544052124023,-0.8999733328819275,1.5111807584762573,0.40159204602241516,-0.9643944501876831,0.04920215532183647,-0.471096932888031,1.0342847108840942,2.3581383228302,-0.9085845351219177,-0.15283310413360596,0.27433106303215027,-0.2636328935623169,0.17991657555103302,1.6442073583602905,-1.1430796384811401,-2.3892784118652344,1.527174711227417,-1.0504909753799438,1.554151177406311,0.886986494064331,-1.0619267225265503,-0.10494120419025421,1.02181077003479,-0.7007221579551697,-0.2010822594165802,0.9260597825050354,-0.06992092728614807,1.2833495140075684,2.092766284942627,1.2122336626052856,-0.15077394247055054,0.9097676873207092,-0.2949545979499817,1.190445899963379,-0.33090469241142273,-0.3507956266403198,-0.0882885754108429,-0.26987335085868835,0.38633742928504944,-0.37645870447158813,-0.32936006784439087,-0.7311149835586548,1.0287208557128906,-1.1017634868621826,0.13563336431980133,-1.1004042625427246,-1.8808594942092896,-1.2586095333099365,-0.2713589370250702,0.12998148798942566,-0.9246487617492676,-0.5253515839576721,-0.28214603662490845,-0.24050313234329224,1.1460785865783691,0.0628153532743454,0.9391502141952515,-1.099021077156067,-0.7047214508056641,0.6258701682090759,0.561806857585907,0.008501234464347363,2.5491604804992676,-0.5489113330841064,-0.3020954430103302,0.09863235056400299,0.7631850242614746,-0.06617997586727142,0.8866645097732544,1.2165048122406006,0.3436664640903473,0.22264084219932556,1.357726812362671,-0.8240405917167664,-0.40120720863342285,0.35110190510749817,0.6306406259536743,0.5451838374137878,-1.9912950992584229,-0.6877955198287964,0.35310277342796326,-1.2901540994644165,-1.2004616260528564,-1.1935598850250244,-0.7140787839889526,-0.4941162168979645,1.0794392824172974,-1.7135255336761475,-0.3970767557621002,0.009668047539889812,0.7264186143875122,-0.914204478263855,-0.5611135363578796,0.32862338423728943,-0.3308930993080139,0.6623993515968323,-0.27949652075767517,-0.6210730075836182,0.4037294089794159,-0.23181763291358948,-1.1644798517227173,0.22503797709941864,0.26160192489624023,0.6681765913963318,0.7235336899757385,-0.24288176000118256,1.3113484382629395,-0.9785548448562622,-2.0499205589294434,-1.305356502532959,-0.12105308473110199,0.44615742564201355,-0.40084466338157654,0.7800819277763367,-0.6445558071136475,0.059896115213632584,1.3991913795471191,-0.09049522876739502,0.5450053811073303,-2.700693368911743,-1.0132066011428833,0.9240811467170715,0.19645148515701294,0.607915461063385,-0.9843549728393555,1.0889015197753906,-1.106746792793274,0.8870236277580261,0.7500137686729431,-1.4937264919281006,0.7252385020256042,0.255744606256485,-0.8240581154823303,-1.2873979806900024,-0.6605311632156372,0.3874424695968628,-0.2242123782634735,0.7825626730918884,-0.5482990145683289,0.4111168384552002,0.833395779132843,-0.7536576390266418,1.0943351984024048,-1.2529963254928589,0.6785971522331238,-0.3504958748817444,-1.0749940872192383,-0.8548722267150879,-1.1215460300445557,1.0202313661575317,1.1478458642959595,1.4315236806869507,1.3931535482406616,-0.05348576232790947,0.23304663598537445,-0.05556666478514671,-0.9550184011459351,-0.027258923277258873,0.3478018045425415,-0.5267269015312195,0.05640207976102829,-0.6396880149841309,0.70400470495224,-0.2399144023656845,0.9096794128417969,0.4388021230697632,0.08902629464864731,-1.3371754884719849,0.4336792826652527,-0.016095252707600594,-0.029617566615343094,-1.508084774017334,0.6530620455741882,0.9322446584701538,-1.1444835662841797,-0.803995668888092,0.05227725952863693,-0.7888669371604919,-2.5742623805999756,0.22756589949131012,1.4748948812484741,-0.2137085199356079,-0.07004933059215546,1.0924843549728394,-0.581741452217102,1.2600288391113281,0.5448483824729919,-0.09143703430891037,2.499499559402466,-0.7659434676170349,0.32292962074279785,-0.3737565279006958,-1.8624986410140991,-1.3093916177749634,-1.7092831134796143,2.0489304065704346,-0.04794960841536522,1.0821632146835327,-1.0760926008224487,-1.4193127155303955,0.05093293637037277,0.593370795249939,0.008085587061941624,0.35705673694610596,-1.3474204540252686,-0.5491750836372375,-1.3341964483261108,1.2181724309921265,-1.7683440446853638,-1.4718115329742432,-1.033659815788269,0.5975103378295898,-1.1723374128341675,-0.14645084738731384,-0.9203012585639954,0.24223047494888306,-1.4631956815719604,0.7796431183815002,-1.44297194480896,-1.485620379447937,-0.580948531627655,-0.9560850858688354,-0.8547139763832092,-0.07128125429153442,1.8947449922561646,-1.4083492755889893,0.8433393239974976,0.5441322326660156,0.2763306498527527,-2.30131459236145,-1.4792261123657227,0.12894611060619354,-0.4892786741256714,-0.006385998334735632,-0.5583665370941162,-0.6897056102752686,0.14428874850273132,0.07626159489154816,-0.016303863376379013,-2.578758955001831,0.8054384589195251,-0.1845426708459854,-0.06286140531301498,-1.3867007493972778,1.9748039245605469,0.7375997304916382,-1.1885545253753662,0.09230262041091919,0.08988802134990692,1.874329686164856,0.4402349293231964,-0.18685215711593628,-1.5535916090011597,0.5244372487068176,0.4123276174068451,1.121073842048645,0.16535811126232147,-1.6272186040878296,0.14457501471042633,-1.6949931383132935,0.14946794509887695,0.572096049785614,-0.5085983276367188,0.9629067778587341,1.0500942468643188,-0.5633651614189148,1.025059461593628,0.3522249758243561,1.5070559978485107,-1.142531156539917,0.701904296875,-0.4755144417285919,0.879196047782898,2.3345420360565186,-0.18817783892154694,-0.1278456300497055,-1.4814834594726562,0.05974423885345459,-0.20301441848278046,0.41395848989486694,-1.0384931564331055,1.1730091571807861,1.8222274780273438,1.2723881006240845,-0.9638286232948303,-0.745567262172699,1.2189528942108154,0.7878368496894836,-0.8071548342704773,-0.7359312176704407,0.1303355097770691,-0.4746619462966919,1.3084477186203003
b'\xe7\xb9\x81\xe5\xa4\x9a',1.195569634437561,0.12940450012683868,0.906613826751709,0.44619348645210266,0.44030818343162537,-0.8484335541725159,0.003012486267834902,0.05487043783068657,1.4257580041885376,-0.9475805163383484,0.8655898571014404,-1.4350590705871582,1.5128272771835327,-0.48254549503326416,-1.4133622646331787,-0.589480996131897,-0.44199028611183167,1.1472499370574951,-0.5078184008598328,-0.3486599326133728,-1.4253886938095093,0.1792813390493393,0.2035660296678543,0.052109211683273315,-0.47000616788864136,-0.1255986988544464,-1.2625840902328491,-0.4680498540401459,-1.1580394506454468,0.5425443649291992,0.6714236736297607,-0.2275327742099762,0.22229774296283722,-0.12771767377853394,-0.8086215853691101,-0.9972639083862305,0.3600578010082245,-1.6239914894104004,0.8672972321510315,-0.456564724445343,1.173021674156189,-0.4081897735595703,0.1286248117685318,0.51722651720047,1.1586273908615112,-0.45584017038345337,-1.0135163068771362,0.25266173481941223,0.6308732032775879,-0.8754515051841736,0.6788278222084045,0.45799413323402405,0.21109843254089355,-0.6847866773605347,-0.9076321125030518,0.48854193091392517,-0.9113907814025879,-1.181701421737671,-0.6851067543029785,0.2901199758052826,0.0046106306836009026,1.0351489782333374,-0.789207935333252,-0.6557023525238037,1.8009059429168701,2.0459115505218506,-0.855475902557373,-0.08096890896558762,-1.2491095066070557,-0.5272706747055054,0.2545184791088104,-0.550563395023346,-0.2840490937232971,1.226710319519043,-0.8621528744697571,-0.6574973464012146,0.24777401983737946,-0.7001841068267822,-0.1289186179637909,-1.5064988136291504,0.8670876622200012,-0.5382882356643677,-0.3835349678993225,-0.43134260177612305,0.35182395577430725,-0.1627415269613266,0.5592944025993347,0.0066497549414634705,-0.1549530327320099,0.6902759671211243,-0.5520713329315186,-0.13210950791835785,-0.7374842762947083,-0.12913380563259125,-1.1705156564712524,0.8258645534515381,-0.8393039107322693,0.7656146287918091,-0.07522810995578766,-0.9060525894165039,-0.13764353096485138,0.4168867766857147,0.6267038583755493,-0.9386822581291199,-1.2103294134140015,0.02989853173494339,0.7394004464149475,0.41528066992759705,0.2060704082250595,1.9976438283920288,-0.33525609970092773,0.4946843981742859,0.013236618600785732,0.4461137354373932,-0.6798080205917358,-0.6612818837165833,0.07001551985740662,0.9021540880203247,-0.1351110190153122,0.6899709105491638,1.3727302551269531,0.7026331424713135,-0.461489737033844,-0.7240963578224182,0.6341524720191956,-0.25961336493492126,0.6249248385429382,-0.8621976971626282,-0.39258554577827454,1.363001823425293,-0.5113778114318848,1.451427936553955,-0.5282217264175415,-0.8208617568016052,-0.7930163145065308,-0.5174918174743652,-1.191573977470398,0.09344664961099625,-0.8172364830970764,-0.2507753372192383,1.088541865348816,0.3533318340778351,0.7130343914031982,0.45784980058670044,0.5827426910400391,0.8799739480018616,1.6390749216079712,-0.3189661502838135,-0.6157077550888062,0.767711341381073,1.526297688484192,0.18343673646450043,-0.13003437221050262,0.3074375092983246,-0.1649058759212494,0.6021486520767212,0.923571765422821,-0.3242805600166321,1.7980459928512573,-0.505307137966156,0.06731279194355011,0.8284159302711487,-0.3135600686073303,-0.04332160949707031,1.2767493724822998,-0.48757416009902954,-0.6346538066864014,0.3328254520893097,-0.35444584488868713,0.2072734832763672,-0.25270751118659973,1.016554355621338,0.05234333127737045,-0.20694343745708466,0.16575908660888672,-1.3548866510391235,0.26949459314346313,0.22064127027988434,0.7320609092712402,0.04692455381155014,0.14993062615394592,0.5924739837646484,0.10920384526252747,0.513759970664978,1.3876069784164429,0.09007555991411209,1.4127370119094849,0.19043667614459991,0.4602401554584503,-0.6580888032913208,0.31389740109443665,-0.46338438987731934,-0.5225232243537903,1.2886695861816406,0.6591766476631165,-0.2391054779291153,-0.27105453610420227,-0.9156017303466797,0.5865179896354675,0.14421702921390533,0.3484557271003723,-0.38339492678642273,0.2937738001346588,-0.6959885358810425,0.5888651609420776,-0.5633795261383057,-0.575301468372345,-1.2465912103652954,0.4910803735256195,0.258400559425354,1.2850488424301147,-0.2131510227918625,-0.2615378499031067,0.7097195982933044,1.0240851640701294,0.34023216366767883,-1.0483590364456177,-1.5929300785064697,-0.2190774828195572,0.42668142914772034,0.9084925055503845,0.04256436228752136,-0.6660090088844299,-0.5266733169555664,0.13350717723369598,0.020808180794119835,-0.9123192429542542,0.16584526002407074,-0.04504008591175079,1.3223799467086792,-0.5106200575828552,-1.0692085027694702,-0.5709770321846008,-0.5056570768356323,0.43805932998657227,-0.42033377289772034,-0.8231766819953918,0.34615713357925415,-0.14835107326507568,-1.0873771905899048,-0.1306450515985489,-0.3528698980808258,0.05959085375070572,-0.25225818157196045,-0.7252827882766724,0.801742672920227,0.02619337849318981,-0.7314482927322388,-1.618831753730774,1.6032330989837646,-0.029162747785449028,1.3015596866607666,-1.3918235301971436,1.1168006658554077,1.074544072151184,0.38579466938972473,1.0775983333587646,0.39093881845474243,-0.07759173959493637,0.42447996139526367,-0.7539915442466736,-0.19123075902462006,0.4244215786457062,0.8414973616600037,-0.198701873421669,-0.6229255199432373,-0.342456191778183,-0.5189610719680786,-1.296372890472412,0.6439615488052368,-0.3211906850337982,1.0217225551605225,1.5017374753952026,-0.3366909325122833,0.7722961902618408,1.145666241645813,-0.035737045109272,-0.964387059211731,0.34447428584098816,0.8844384551048279,0.4432750642299652,0.018374696373939514,-0.7829477190971375,-1.1650265455245972,0.6807721257209778,-0.23869429528713226,-0.8929747343063354,-0.9676944017410278,1.7139424085617065,0.6255744695663452,0.2989431917667389,-1.1756221055984497,0.1662503033876419,-1.1817697286605835,-1.068376064300537,0.31247764825820923,-0.8698877692222595,0.10050638020038605,-0.3031690716743469,-0.006669323425740004,-0.3163365423679352,0.3285801410675049,-1.2535123825073242,0.2899196147918701,0.04419698193669319,-0.18631237745285034,0.9456485509872437,0.8181723952293396,0.6510552763938904,0.06459030508995056,-0.8201800584793091,0.36141282320022583,-0.5279126763343811,0.1411035656929016,-0.3127802908420563,0.02905130945146084,0.839310884475708,-0.11573248356580734,-1.0029619932174683,-0.6263473629951477,0.4801393747329712,0.2139240801334381,0.4076324701309204,1.5085370540618896,-0.5675100088119507,0.195426806807518,-0.22384361922740936,-0.6088539361953735,-0.9701006412506104,-0.6360418200492859,0.11639569699764252,0.8212280869483948,-0.36847081780433655,-0.9314164519309998,-0.3689292371273041,0.6852781772613525,-0.45022743940353394,0.6041715145111084,-0.9468437433242798,-0.7856135368347168,-1.480770468711853,-0.15550683438777924,0.5124809145927429,0.589475154876709,0.1702052652835846,0.4650042951107025,-0.3019726574420929,-0.49319934844970703,-0.648534893989563,0.8778361082077026,-0.529106855392456,0.26997679471969604,-0.7395226359367371,0.5246515274047852,1.2112550735473633,-1.5860556364059448,-0.15762165188789368,0.5442211627960205,0.1087762713432312,0.9926311373710632,-1.6672471761703491,0.44213351607322693,-2.0072038173675537,-0.20853634178638458,1.1820820569992065,-0.8161762952804565,-1.1525523662567139,0.1265902817249298,0.06601586192846298,-0.3086005747318268,0.577646791934967,0.8617056012153625,0.5500935912132263,-0.340205579996109,0.17437560856342316,0.3159109354019165,1.4372678995132446,-1.1739734411239624,0.24972470104694366,-0.9375206232070923,-1.1381233930587769,0.013317384757101536,-0.04886467382311821,0.014960273168981075,-0.024097710847854614,-0.5494039058685303,-0.9265007972717285,0.10664321482181549,1.0915489196777344,0.8503255844116211,-0.2110508382320404,1.5718157291412354,-0.24915269017219543,1.0270349979400635,-0.9139379262924194,0.6797634959220886,0.18816673755645752,-0.47458985447883606,0.04667564854025841,-0.39456504583358765
b'\xe9\x80\x8f\xe5\xb0\x84',-0.2140534222126007,-0.04646199196577072,0.6051321625709534,0.1281290203332901,0.08179447054862976,-0.04641496762633324,0.04712071269750595,-0.576077401638031,0.02428499050438404,0.14189116656780243,-0.3489653170108795,0.3145115375518799,0.41721946001052856,-0.08175879716873169,-0.573702871799469,-0.24120256304740906,-0.1876312792301178,-0.7313823699951172,0.39011675119400024,-0.41666847467422485,0.4321189522743225,-0.167811781167984,0.5268741846084595,-0.05212314426898956,0.1874430924654007,-0.35119307041168213,-0.031424589455127716,-0.7653064131736755,0.17689558863639832,-0.2824299931526184,0.46414849162101746,-0.3103925585746765,-0.004373408854007721,-0.06765816360712051,0.2845199704170227,-0.677695631980896,0.585716724395752,0.06439393013715744,-0.16544218361377716,0.20531682670116425,-0.2845393121242523,0.37016913294792175,-0.2651347219944,-0.4469014108181,0.4078713655471802,-0.20756138861179352,-0.45264309644699097,0.05719316378235817,0.43213456869125366,0.11240541934967041,-0.6250427961349487,0.2179226279258728,-0.0008302321657538414,0.7151928544044495,-0.008751004934310913,0.04988395422697067,-0.1201435849070549,-0.303787499666214,0.11633986234664917,-0.13322210311889648,-0.6720467805862427,0.21490763127803802,0.01763343997299671,-0.24874766170978546,0.2908377945423126,-0.381594181060791,-0.45793280005455017,-0.16445915400981903,-0.1280195266008377,0.08931834250688553,0.4866195619106293,-0.5452436804771423,-0.2115449458360672,0.4689551293849945,-0.2795601785182953,-0.0389520600438118,-0.23038344085216522,-0.11324022710323334,0.3335270583629608,0.23094649612903595,-0.07133011519908905,0.9594016075134277,-0.23692701756954193,-0.6797900795936584,0.047801047563552856,-0.05749891325831413,0.5027675628662109,-0.2789665162563324,0.68366539478302,0.7322239279747009,0.20294469594955444,0.1263568252325058,-0.09693407267332077,0.4654861390590668,0.23360952734947205,-0.14354680478572845,-0.5377722382545471,0.09372719377279282,0.3159492313861847,0.3871453106403351,0.18661156296730042,-0.1340952068567276,-0.7368516325950623,-0.2654249668121338,-0.35408341884613037,-0.0506107397377491,-0.039459049701690674,0.49872592091560364,0.39026913046836853,-0.03173273056745529,-0.4543783366680145,-0.19539977610111237,0.7786585092544556,-0.46682024002075195,0.14154042303562164,0.7726566791534424,-0.7083330750465393,-0.027068747207522392,-0.34987592697143555,0.6873438358306885,0.5985506772994995,-0.07080735266208649,-0.18794162571430206,0.22803795337677002,-0.1559918075799942,0.2553940713405609,0.684890627861023,-0.4635891020298004,-0.3518297076225281,0.6267959475517273,-0.2484268844127655,0.19791793823242188,-0.7258225083351135,-0.3730275332927704,0.1611221432685852,-0.011783151887357235,-0.09260384738445282,-0.43984630703926086,0.16594813764095306,0.07301643490791321,0.9433910250663757,-0.37169551849365234,0.3266041576862335,0.8789713978767395,0.27995195984840393,-0.37067535519599915,-0.018694603815674782,0.04548138380050659,0.7558703422546387,0.09436370432376862,0.0775149017572403,0.7442115545272827,0.03132172301411629,-0.1516432762145996,-0.39960357546806335,-0.5229513645172119,-0.2633832097053528,-0.13997294008731842,-0.41367533802986145,-0.035268209874629974,-0.39069664478302,0.2410643994808197,-0.28225648403167725,0.10841481387615204,-0.37326088547706604,-0.26965367794036865,0.26857393980026245,0.20350052416324615,-0.1037653386592865,-0.27631086111068726,-0.30910491943359375,-0.6613495945930481,1.3975014686584473,0.23154714703559875,0.07655322551727295,-0.2690415680408478,0.7643219232559204,-0.2196815013885498,0.36813804507255554,0.430685430765152,-0.6494930386543274,-0.00958175491541624,-0.20682983100414276,-0.15596872568130493,0.35348889231681824,-0.34281712770462036,-0.1278703212738037,-0.3648916482925415,0.0515107735991478,-0.257571280002594,0.7961108088493347,-0.14638441801071167,0.3771750032901764,0.17310576140880585,-0.3169868588447571,-0.34853309392929077,-0.28109797835350037,-0.6005545258522034,-0.40660762786865234,-0.6440995931625366,-0.2843152582645416,-0.15577957034111023,-0.5460875630378723,-1.244045615196228,-0.5704654455184937,-0.24988603591918945,-0.2695177495479584,-0.1814708709716797,0.9936183094978333,0.014985623769462109,-0.029636763036251068,0.049762625247240067,0.1724712997674942,-0.05784216150641441,0.01779126562178135,-0.2656438648700714,0.07112358510494232,-0.04573681950569153,0.40391039848327637,-0.6202076077461243,-0.2622150778770447,-0.5463619828224182,-0.09156765043735504,0.4621061682701111,-0.32331570982933044,0.034069862216711044,0.11282644420862198,-0.579944372177124,1.2596369981765747,-0.5642058253288269,0.7171441316604614,0.15847577154636383,-0.6984144449234009,0.797119140625,-0.07760460674762726,0.3215485215187073,-0.3658321797847748,-0.07518623769283295,0.2010732740163803,-0.23967523872852325,0.09877999126911163,0.08765432983636856,-0.7367208003997803,0.18422292172908783,-0.405800998210907,0.09823280572891235,-0.02281251922249794,-0.42360207438468933,0.1706230193376541,1.1148208379745483,0.16226491332054138,-0.31788578629493713,0.7240347862243652,0.1106807142496109,0.6039755344390869,-0.3184863328933716,0.6174015402793884,-0.31542637944221497,0.377178430557251,0.40862739086151123,-0.7992878556251526,0.19894038140773773,-0.11590134352445602,-0.0039870887994766235,-0.30416202545166016,-0.2063046246767044,0.46587127447128296,-0.18759824335575104,0.8298829197883606,-0.11033151298761368,-0.3419400453567505,0.4202871024608612,0.7118302583694458,-0.08501046150922775,0.4317445456981659,-0.7087521553039551,-0.16727283596992493,-0.03983713686466217,0.11728505790233612,0.23133331537246704,-0.29396116733551025,-0.1192329078912735,0.49186617136001587,-0.2320205122232437,-0.852547287940979,0.1384642869234085,0.06810986250638962,0.06824710220098495,-0.8837226033210754,0.046676866710186005,-0.43845534324645996,-0.33192721009254456,-0.015265152789652348,-0.09965075552463531,0.4348391592502594,0.7100569605827332,0.19866062700748444,0.44885778427124023,-0.2101571410894394,0.4596066474914551,0.44316360354423523,-0.6248223185539246,-0.02820773236453533,-0.14643236994743347,0.008512389846146107,0.17832550406455994,-0.11950303614139557,-0.8606910109519958,-0.14793755114078522,0.00900015328079462,-0.14147235453128815,0.5188232064247131,-0.07416640967130661,-0.05169268324971199,0.4159271717071533,-0.07356014847755432,-0.4297090768814087,0.2797951400279999,0.2790903151035309,-0.13125891983509064,0.05726630613207817,-0.4242098331451416,0.3043917715549469,-0.12138697504997253,-0.7019501328468323,0.11786412447690964,-0.7553441524505615,-0.3824599087238312,0.3950735926628113,-0.3091595768928528,0.209635928273201,0.12792301177978516,0.4522251784801483,-0.4145558774471283,0.5146112442016602,-0.5301235318183899,0.22133579850196838,-0.29678261280059814,0.02921031229197979,-0.568520188331604,0.46326082944869995,-0.5128899812698364,0.03688868507742882,-0.3421560823917389,-0.5527000427246094,-0.5200570225715637,0.15695881843566895,0.3153921365737915,-0.49030908942222595,0.6539157032966614,-0.25143346190452576,-0.4477768838405609,0.13971169292926788,-0.3766153156757355,-0.49343442916870117,-0.4448454976081848,0.03521008789539337,-0.35378068685531616,-0.27425244450569153,-0.013160433620214462,-0.33132416009902954,0.036462850868701935,-0.17637258768081665,-0.5732665061950684,-1.1920722723007202,-0.10429718345403671,-0.49044591188430786,0.14519022405147552,0.15728095173835754,0.04668724164366722,0.027889976277947426,0.060170430690050125,0.48966020345687866,0.6718270182609558,0.5763651132583618,-0.12926103174686432,-0.020599402487277985,0.015150925144553185,-0.11766725033521652,-0.6271257400512695,-0.2712903916835785,-0.6186710596084595,0.06976310908794403,-0.47916266322135925,-0.9421747922897339,0.18721066415309906,-0.009262893348932266,-0.04383232071995735,0.19549500942230225,-0.7690784335136414,-0.0444941408932209,0.6092837452888489,0.11541086435317993,0.0071105388924479485,-0.0618298165500164,0.37848547101020813,1.0653815269470215,0.131477490067482,0.13757964968681335,-0.7721458077430725
b'\xe5\x9e\x8b\xe5\x8f\xb7',0.25177058577537537,-0.030500076711177826,0.031072886660695076,1.2875909805297852,0.409652978181839,1.4498569965362549,-0.7710051536560059,0.536712646484375,1.452046513557434,-0.5081482529640198,-0.41190412640571594,-1.291552186012268,-0.099694162607193,-0.44030168652534485,0.9041950702667236,1.7411797046661377,0.5147274136543274,-0.11011407524347305,0.11803402751684189,-0.012640858069062233,-0.23643448948860168,0.49021345376968384,0.41283801198005676,2.2353079319000244,2.6761362552642822,-1.2203569412231445,1.6900420188903809,-1.878248929977417,0.8148086667060852,0.5903875827789307,-1.0311203002929688,0.9104982018470764,0.8678032159805298,0.498750239610672,0.8228593468666077,0.5737420320510864,0.4727526009082794,-2.252476215362549,-2.8162195682525635,-0.15311218798160553,-0.22226454317569733,-0.35654112696647644,0.3921307325363159,1.4801504611968994,-1.105492115020752,-0.20391781628131866,-1.081303358078003,-1.0803817510604858,1.041805624961853,-1.7075738906860352,-2.154001474380493,1.0145140886306763,0.37567436695098877,0.34189337491989136,-1.671507477760315,0.490874707698822,1.4982715845108032,0.1579234004020691,0.531074047088623,0.9701210856437683,-1.0294219255447388,1.0456175804138184,-1.192434310913086,-0.31565675139427185,0.5258849263191223,-0.2832552194595337,-1.6878012418746948,1.5353015661239624,1.8062500953674316,0.6586219072341919,2.1886885166168213,-0.5337724685668945,1.1015658378601074,-0.8915737271308899,-1.0370936393737793,1.1067900657653809,0.08452888578176498,-0.8011586666107178,0.03111983835697174,-1.810162901878357,1.8202803134918213,0.8827394247055054,1.8387340307235718,-1.3166006803512573,-2.1500813961029053,-0.9975318908691406,-0.41798830032348633,-0.7340852618217468,-0.21761617064476013,-0.4903683662414551,-0.48181384801864624,0.6021232008934021,-0.5366948246955872,0.9750784635543823,0.1597999632358551,0.7875521779060364,-1.9949103593826294,-0.47804346680641174,1.8408948183059692,1.3154358863830566,-0.43311429023742676,-2.2228927612304688,-1.3121556043624878,1.3746159076690674,0.7725412249565125,-0.7290151119232178,1.1042912006378174,-0.8244353532791138,0.7765235304832458,1.5439077615737915,0.46324360370635986,1.070027232170105,-0.9207004904747009,-0.9556176662445068,-1.4547944068908691,-1.0229345560073853,-1.1523529291152954,0.9349163770675659,1.1214168071746826,1.4487043619155884,0.35122647881507874,0.6006789207458496,-0.1348193883895874,1.1059761047363281,-0.6386551260948181,1.3737797737121582,2.0859429836273193,-1.822461724281311,-0.5069818496704102,0.6593893766403198,-0.7889953255653381,3.1214420795440674,-1.2296717166900635,0.9517451524734497,-1.6262415647506714,-0.7198786735534668,0.07655403017997742,0.34278514981269836,0.6992402076721191,2.3370087146759033,2.380870819091797,0.6946662664413452,0.4752110242843628,0.6267722249031067,-2.115483283996582,1.3677079677581787,0.171935573220253,-0.4530293047428131,0.9210250377655029,-1.8683371543884277,-0.6631344556808472,1.2676106691360474,0.8981757164001465,1.296007752418518,1.3644814491271973,-0.4491559863090515,-1.1391677856445312,-1.093178629875183,-1.1814838647842407,1.000312328338623,-1.3702903985977173,-0.1627795249223709,-2.34242844581604,0.5755981802940369,-0.03458986431360245,-2.517035722732544,-0.7688930034637451,-0.8151013851165771,1.9101450443267822,-0.33705857396125793,-0.06962278485298157,-1.0584478378295898,1.9880257844924927,0.385061651468277,0.2946164906024933,0.08912645280361176,0.4646115005016327,1.8692723512649536,0.2195844054222107,2.3781449794769287,-2.1245243549346924,1.1204047203063965,-1.413844108581543,3.229802370071411,-1.942792296409607,1.4246571063995361,0.2269301861524582,2.3242151737213135,-0.5922478437423706,-2.2249062061309814,0.9837063550949097,-0.023451650515198708,-0.7507123351097107,1.8948005437850952,-1.551297903060913,-0.8015661835670471,-0.5840044617652893,-1.817085862159729,-1.370458722114563,-1.1114468574523926,-0.8518018126487732,1.1964038610458374,1.2817349433898926,-0.4082636833190918,1.636031150817871,-1.164819359779358,1.9710662364959717,0.45001325011253357,-0.6714656949043274,0.773938775062561,-0.7078447937965393,0.7727276682853699,-0.9964709877967834,1.0260452032089233,2.1921119689941406,2.7133660316467285,2.6539483070373535,2.297365665435791,-2.136659622192383,0.40710675716400146,-2.047576904296875,3.213982343673706,-0.32135212421417236,0.7320871949195862,-0.7460110783576965,-1.0143959522247314,0.3864697515964508,-0.09762854129076004,0.15437179803848267,0.43327346444129944,0.30161044001579285,1.0205600261688232,0.7709401845932007,0.05734891816973686,0.7732468247413635,-0.2106400579214096,0.9557709097862244,0.032045017927885056,-0.605719268321991,0.33587393164634705,0.3768632411956787,-1.7977999448776245,-1.22335684299469,0.31430503726005554,-0.28148865699768066,-0.42284223437309265,1.8888919353485107,-1.4951488971710205,-1.014978289604187,1.9890414476394653,0.19614385068416595,-0.4534611105918884,0.5482300519943237,-0.6453943848609924,-0.14819292724132538,-1.3992890119552612,-0.13020813465118408,-0.4996865391731262,-0.2035774290561676,-0.7069895267486572,-1.6187463998794556,0.8734083771705627,-1.7730083465576172,-3.363676071166992,-2.677863359451294,1.5232173204421997,0.22312763333320618,-2.0489349365234375,0.24706803262233734,-0.4436880350112915,-1.3139742612838745,1.9424943923950195,0.6999697089195251,-2.713165760040283,1.120120644569397,1.0188767910003662,1.579391360282898,-1.425325632095337,0.10291732102632523,-0.5318249464035034,2.3666446208953857,0.8611851930618286,1.6816262006759644,-0.71700519323349,-0.5793255567550659,1.5183393955230713,-2.810106039047241,-0.35842716693878174,1.714493989944458,-0.376374751329422,-0.4522789716720581,-1.5483510494232178,-1.5085262060165405,-0.3490368127822876,0.7508513927459717,-0.14569786190986633,-2.0156683921813965,3.8988547325134277,1.9788020849227905,0.5945783257484436,-1.0317885875701904,0.7634366750717163,-3.6012637615203857,1.9863173961639404,-0.277018666267395,0.08729947358369827,-1.0846965312957764,1.6908307075500488,0.17933467030525208,-1.040999412536621,0.820799708366394,0.8703898787498474,2.063338279724121,-1.5457570552825928,-1.6879583597183228,-0.643125593662262,1.4560860395431519,1.21244478225708,1.672576904296875,2.865647315979004,-0.6906212568283081,-1.893157958984375,1.948790192604065,1.5911262035369873,-0.658341646194458,0.44022536277770996,-0.9553872346878052,1.9236434698104858,-1.9058228731155396,-0.09793268144130707,1.772255778312683,-0.8376883864402771,-1.1793770790100098,-1.4644792079925537,-0.6108424663543701,-3.0544753074645996,-0.07922516763210297,-0.09727441519498825,-0.3391816020011902,0.6287854313850403,-1.175881266593933,-0.08661750704050064,-0.11770530790090561,0.4525698125362396,0.004187596961855888,-1.4193956851959229,0.7039926648139954,-0.9936832785606384,-0.9742103815078735,0.2542080581188202,-0.057853031903505325,-1.3618278503417969,0.23647677898406982,-0.25831982493400574,-0.25675252079963684,-2.273054361343384,1.7597113847732544,0.9458128213882446,1.1239830255508423,2.702272653579712,-0.96745765209198,1.451893925666809,0.2613789141178131,-0.9773080945014954,0.6475549340248108,0.6993253827095032,0.04527352377772331,-1.1201751232147217,-0.8398790955543518,-1.686315655708313,1.5920106172561646,0.38858407735824585,-0.2800259292125702,0.5592656135559082,0.623878538608551,0.3829304575920105,-2.675429582595825,-0.5156897902488708,2.01371169090271,-2.4516193866729736,-0.4368862211704254,0.5877269506454468,0.1666131615638733,-1.5305485725402832,-0.7526950240135193,0.5989357829093933,-1.5379852056503296,-0.6068813800811768,2.7234816551208496,0.47744080424308777,-1.414387583732605,-1.3155481815338135,0.09330669790506363,1.7445789575576782,-0.2754872441291809,1.4225993156433105,-1.7176159620285034,-0.8919225931167603,0.20568332076072693,0.4832465648651123
b'\xe5\x87\xba\xe7\x8e\xb0',-0.8608208298683167,1.9767680168151855,1.42831289768219,1.3039966821670532,1.366171956062317,-0.660017192363739,0.2077447772026062,2.2738122940063477,1.6780420541763306,-0.5638378858566284,-0.4067305624485016,-0.3304234445095062,-0.4712024927139282,-0.3111024498939514,0.021515272557735443,-2.56657338142395,0.7002946138381958,-1.551506519317627,1.3535734415054321,1.0932472944259644,-2.289109468460083,0.48334988951683044,0.7286533117294312,0.36151790618896484,-1.873824954032898,1.1535241603851318,1.9757457971572876,-2.38604474067688,0.6798235177993774,-1.5391145944595337,-0.43498778343200684,1.035544991493225,0.35593995451927185,0.2591716945171356,-0.9638041257858276,0.8514866232872009,1.0657466650009155,0.8364084959030151,-1.5131596326828003,0.11815071851015091,0.7185336351394653,0.7037081122398376,0.29227757453918457,-0.46038615703582764,-1.3290461301803589,-0.032342828810214996,-1.5040349960327148,-0.9811954498291016,-0.5375262498855591,-2.6581056118011475,-1.0432820320129395,0.5625664591789246,1.7123745679855347,-0.26772135496139526,0.14573119580745697,-0.14170193672180176,-1.0073438882827759,-1.0172491073608398,-0.43119144439697266,-0.28225231170654297,-0.23878560960292816,-0.6596192717552185,1.0540728569030762,0.6881276369094849,-2.0385732650756836,-0.5191773176193237,0.11372429132461548,1.329677700996399,-1.1506294012069702,0.510173499584198,-0.47907882928848267,-2.28714919090271,2.0629098415374756,0.9242201447486877,1.6525442600250244,-0.5148464441299438,2.3717100620269775,-0.6509786248207092,-0.06949187815189362,-1.031667947769165,0.07037357985973358,0.978448212146759,-2.4195196628570557,-0.42045795917510986,-0.01364040095359087,-1.1420137882232666,-0.23311452567577362,0.33218926191329956,0.7934525609016418,0.8639132380485535,-1.2777221202850342,-0.9713568091392517,-0.3318728804588318,0.11860638111829758,-2.1636452674865723,-0.2313036322593689,-2.3661515712738037,0.2443176954984665,-0.18611052632331848,-0.7997737526893616,1.3175312280654907,-0.14708076417446136,-0.23656809329986572,-0.25879746675491333,-1.9439095258712769,-1.5966142416000366,1.1493000984191895,1.8601094484329224,-0.5619511604309082,-0.732478141784668,-0.6032482385635376,1.5543307065963745,-1.5768613815307617,0.5721896290779114,0.18334834277629852,-1.1858898401260376,-0.0042504919692873955,-0.3773237466812134,0.9529466032981873,1.3169625997543335,-0.6934153437614441,1.104676604270935,-0.018785756081342697,0.07091815024614334,0.03718048706650734,1.8119498491287231,-0.9038527011871338,-1.0164285898208618,0.10495256632566452,-0.9798811674118042,-0.2995431125164032,1.610655665397644,0.7563421726226807,-1.427699089050293,0.13467401266098022,0.28952136635780334,0.6585401296615601,-1.16812002658844,0.787640392780304,-1.2331541776657104,-0.33682751655578613,-0.799025297164917,0.3087431788444519,0.3967571258544922,0.3071795701980591,-0.14698459208011627,-0.8554137349128723,-2.6891536712646484,2.547431230545044,-1.437941312789917,0.996270477771759,0.9386795163154602,3.324125289916992,1.067097544670105,1.3987126350402832,-0.004408867098391056,-0.28301435708999634,-0.6485955715179443,0.9228318929672241,0.18056853115558624,-0.056380074471235275,2.752258777618408,-0.08402879536151886,-0.4961910545825958,0.8705675601959229,0.8994113206863403,-0.5407480597496033,0.6992510557174683,-0.7714543342590332,1.7399544715881348,-1.4276000261306763,-0.3506011366844177,0.7345748543739319,-1.1029143333435059,0.29868221282958984,-0.31490498781204224,-1.340255856513977,0.8818439841270447,0.3868493437767029,1.5886529684066772,2.2330482006073,-0.1086660772562027,-1.1145719289779663,-0.6960679292678833,-0.31135091185569763,0.8562857508659363,-0.9758816361427307,1.812219500541687,1.6223130226135254,-2.0475993156433105,1.449585199356079,0.9552485346794128,0.313659131526947,-0.1801905483007431,-0.28792107105255127,0.9720401167869568,-2.3147149085998535,0.33328384160995483,0.6157387495040894,0.2918175160884857,0.2822387218475342,-0.6764860153198242,0.8028070330619812,-1.7397617101669312,-1.2321159839630127,-0.142778679728508,-0.32299163937568665,-0.1997709721326828,1.7524539232254028,2.086387872695923,1.4524050951004028,-1.1534289121627808,-1.1908050775527954,0.9888255000114441,0.18560174107551575,-0.20780746638774872,2.8870346546173096,-0.9369612336158752,-0.15064994990825653,1.7605319023132324,-0.7926577925682068,0.07500921189785004,-0.1301722675561905,-0.054109420627355576,0.2053157091140747,0.31779664754867554,0.04642733559012413,1.3723894357681274,2.212271213531494,0.20818494260311127,0.0746217668056488,-0.13390640914440155,-0.6102487444877625,1.7190536260604858,0.07963903993368149,-0.5858474373817444,1.6139962673187256,1.4099422693252563,1.8828307390213013,1.7290692329406738,0.800487756729126,-0.5623989701271057,-3.5950865745544434,-0.9631356000900269,-1.3885998725891113,-0.037331171333789825,-0.3616583049297333,0.08627745509147644,-1.9998167753219604,1.3927401304244995,-0.35446301102638245,0.3148490786552429,-1.3378359079360962,-2.3034095764160156,2.447803258895874,-0.937941312789917,-0.4440653324127197,1.3842633962631226,-1.2390841245651245,0.6931475400924683,0.6642463803291321,0.9838158488273621,-0.42418569326400757,-0.791578471660614,-0.9019595384597778,-1.351454734802246,0.052186623215675354,-0.6976609230041504,1.4381059408187866,0.4505597949028015,0.26366257667541504,0.828972578048706,0.9369955062866211,1.0726474523544312,1.9981672763824463,-0.35543277859687805,1.1625473499298096,-1.701936960220337,0.32312095165252686,0.23422075808048248,-0.4374842047691345,0.6341556310653687,-0.045478444546461105,-1.6386789083480835,-0.9894644021987915,-1.7967404127120972,0.30822741985321045,-0.4568817615509033,-0.025501707568764687,-0.7529216408729553,-3.3991541862487793,0.35475993156433105,0.9742659330368042,0.5602395534515381,0.11961252242326736,1.5172151327133179,1.9853031635284424,2.2266385555267334,1.3103902339935303,1.8416441679000854,-1.1553270816802979,-0.9580357074737549,-1.4863351583480835,-0.139786958694458,-0.9948217868804932,-0.44830062985420227,1.4547754526138306,0.8597060441970825,1.2204856872558594,0.6312626600265503,-0.6753991842269897,-0.4603798985481262,0.06881862133741379,-0.7288169264793396,-0.039567846804857254,1.052550196647644,-1.9492491483688354,0.8918810486793518,0.7291817665100098,-0.6776971817016602,-0.9447891712188721,-1.76002836227417,1.0654805898666382,1.776445746421814,-0.7609795928001404,0.871568500995636,-0.310901403427124,0.9574152827262878,0.5948524475097656,0.18058250844478607,-1.6863200664520264,1.3883591890335083,0.2689046561717987,-2.113471508026123,0.048377860337495804,-0.02814505062997341,-0.8447147607803345,-0.6574980616569519,-0.6009131073951721,0.4844382107257843,-1.402224063873291,-0.03004208579659462,1.9187520742416382,-1.1865475177764893,0.27858036756515503,0.6041932106018066,-1.933448314666748,0.2135552614927292,-0.9948521256446838,1.7375370264053345,-1.187961459159851,-0.33810776472091675,0.4675394892692566,0.15493828058242798,-1.0413841009140015,-5.41163969039917,-1.329050064086914,-0.9731202721595764,2.975458860397339,0.9011215567588806,-0.9793527126312256,-0.19177255034446716,-0.216045543551445,-2.192368268966675,0.7563502788543701,-0.08782609552145004,-0.3894152045249939,0.7484124898910522,-2.9333457946777344,0.5229813456535339,-0.16466307640075684,0.944396436214447,2.4944612979888916,1.4353406429290771,0.18168514966964722,0.724075973033905,0.19231699407100677,-0.7974675893783569,-1.8863704204559326,-0.8410440683364868,-0.21558119356632233,-1.8207961320877075,0.36397603154182434,0.6410389542579651,4.101597785949707,0.34394749999046326,-0.5266574025154114,-1.8425688743591309,0.18132461607456207,0.4758816659450531,0.1476263552904129,1.60795259475708,0.3786553144454956,2.1464085578918457,0.5889899134635925,2.762213706970215,0.957974374294281,-1.3919907808303833,2.432800054550171,-2.0132761001586914
b'\xe5\xa4\x9a\xe7\x94\xa8\xe9\x80\x94',0.26124337315559387,-0.0808057188987732,-0.5715145468711853,0.2085835188627243,0.2228022664785385,-0.2515033185482025,0.3027999997138977,1.2750835418701172,0.45870092511177063,0.6722471714019775,-0.8722331523895264,-0.9849147200584412,-0.316651850938797,0.3641389310359955,0.22976695001125336,-0.8184255361557007,0.17055059969425201,-0.10770223289728165,0.33093002438545227,0.1400567591190338,0.43022656440734863,0.8913275003433228,-0.9874369502067566,-1.2509537935256958,1.203497290611267,-0.4374994933605194,0.7946704626083374,-1.6686617136001587,-0.7332168221473694,-0.908037543296814,-0.44964730739593506,0.7349938154220581,0.47074979543685913,0.23589743673801422,-0.17644035816192627,-0.4670766592025757,1.1291041374206543,-1.2879927158355713,0.6459386348724365,-1.2656903266906738,1.1674367189407349,1.5492949485778809,-0.5162577629089355,0.21714361011981964,-0.17231282591819763,-0.7177492380142212,1.8802012205123901,-0.5609044432640076,0.09326719492673874,-1.138099193572998,-0.378489226102829,-0.44339078664779663,-0.8659789562225342,0.1629185825586319,-1.2804689407348633,-0.5446732640266418,-0.565370500087738,0.8045730590820312,-1.3383375406265259,1.4822137355804443,-0.2061782032251358,0.3928014039993286,1.3183414936065674,-0.25182878971099854,0.40354952216148376,-0.07252649962902069,-0.6764516234397888,-0.7309587001800537,1.1632211208343506,0.17876729369163513,-0.2928331196308136,0.1241842657327652,0.36867228150367737,-0.15615098178386688,-0.5470092296600342,0.6325512528419495,-0.47478264570236206,-1.110978364944458,0.43965286016464233,-1.1271016597747803,1.532309651374817,-1.0313520431518555,1.1641141176223755,-1.3196192979812622,0.4136076271533966,-0.470720112323761,-0.20518065989017487,-0.17547567188739777,0.360443115234375,0.24311967194080353,-0.05205358564853668,0.5419207215309143,1.3993957042694092,0.039044659584760666,1.1317458152770996,-0.08596037328243256,1.2869006395339966,0.8573476672172546,0.5397757887840271,1.4957350492477417,-1.1385389566421509,-0.756363570690155,-0.11288444697856903,-1.2317993640899658,1.1180323362350464,0.0148334801197052,1.1673343181610107,0.42361992597579956,1.1041547060012817,0.6219373345375061,-1.8492748737335205,0.5312536358833313,-0.860815167427063,0.3668805956840515,-1.4108045101165771,0.10515116155147552,0.4364166855812073,0.7095156908035278,0.319553017616272,-0.0944637581706047,0.6873083710670471,0.2647080421447754,-0.5092256665229797,0.42246365547180176,0.01509995199739933,-0.25522056221961975,-0.1972605586051941,-0.7597745656967163,-1.9291505813598633,-0.6573808789253235,0.1098831444978714,2.1510305404663086,-0.45911189913749695,0.794653058052063,-0.0752476155757904,-0.32443317770957947,0.7492260336875916,0.8556629419326782,-0.4104902744293213,-0.10792598128318787,1.061646580696106,0.585563600063324,1.0069972276687622,-0.37890198826789856,0.5424553155899048,1.5961488485336304,0.3887852132320404,-0.11235052347183228,1.2736876010894775,-0.9471368193626404,0.9413899183273315,1.454343557357788,2.5015571117401123,-1.0968568325042725,0.47538048028945923,-0.1374349296092987,-0.29257655143737793,0.6682484149932861,-1.740446925163269,-0.43231093883514404,-0.9350581765174866,0.3297637104988098,-1.037233591079712,-0.6910695433616638,0.4615970551967621,-1.1494050025939941,0.3775974214076996,-0.7101777791976929,1.2542040348052979,-0.588119626045227,0.8766897916793823,-0.6124436259269714,-0.25108572840690613,-0.12099520117044449,-0.3258361220359802,-0.49605292081832886,0.15759220719337463,0.6790856719017029,0.4804820716381073,0.8049429059028625,-0.15561246871948242,1.0455923080444336,1.4179054498672485,0.7718689441680908,-0.7590149641036987,0.6194433569908142,0.46040257811546326,0.7100368142127991,0.42327219247817993,-0.19378109276294708,-0.6575905680656433,0.7651374340057373,-1.6861974000930786,1.233150839805603,0.06895899027585983,-1.7342767715454102,0.027405178174376488,-0.10980767756700516,0.00918954610824585,-0.044867269694805145,-0.4361936151981354,0.13093112409114838,0.3641436994075775,-1.0036674737930298,-0.7176362872123718,-0.3365861475467682,0.1854194551706314,-0.9783766865730286,0.29534921050071716,-0.21190540492534637,0.35325151681900024,1.022392988204956,-1.5872275829315186,-0.6810926795005798,-1.6046959161758423,1.212905764579773,0.7118962407112122,-0.23371605575084686,-0.46642762422561646,1.1163630485534668,0.6640368103981018,0.44739875197410583,-1.1539747714996338,0.8112906217575073,-1.0516330003738403,-1.1427421569824219,-0.13202562928199768,-1.9051682949066162,0.4549610912799835,-1.800774335861206,0.477739155292511,0.09203261882066727,-0.5238376259803772,-1.5136178731918335,1.2852391004562378,-1.6553679704666138,-0.35327452421188354,-0.6802768707275391,0.3042835295200348,0.5660429000854492,0.4586484432220459,0.8365716934204102,0.7529762387275696,0.09148386120796204,0.3193792402744293,0.20539423823356628,0.7066923975944519,0.18469257652759552,0.052137985825538635,-0.2648199498653412,0.13211402297019958,-1.603703260421753,0.06141085922718048,1.1154080629348755,-0.5520985126495361,0.7499353885650635,0.19271574914455414,0.6114451289176941,0.8059259057044983,-0.5208443999290466,0.07018885016441345,0.27218639850616455,0.504683256149292,-1.1309441328048706,-1.443304419517517,-1.6182092428207397,-0.835595428943634,0.09387600421905518,-1.1842588186264038,-0.5003735423088074,0.7599236965179443,-0.391421914100647,-0.1203119233250618,-0.7145099639892578,0.7493875622749329,0.09655212610960007,-0.6466996669769287,0.08060399442911148,-0.6203616857528687,1.3677297830581665,1.1055716276168823,0.8981038331985474,0.7180384993553162,0.9043025970458984,-0.03749597445130348,0.4955477714538574,-1.6043916940689087,0.39996954798698425,-0.04721519723534584,-0.1706765741109848,0.5887645483016968,0.8981638550758362,-0.45447397232055664,0.14276018738746643,-0.10673461109399796,0.7648678421974182,-0.21435393393039703,0.6310891509056091,0.6369491219520569,0.7256871461868286,-0.4289903938770294,-0.15402010083198547,-0.30347904562950134,-0.30263417959213257,-0.8897632956504822,0.6580473184585571,-0.4727873206138611,1.2414283752441406,-0.7831943035125732,0.667387068271637,1.0485947132110596,0.4016150236129761,1.8124767541885376,-0.39600563049316406,-0.5967247486114502,-1.1260267496109009,1.2399804592132568,0.3756539821624756,1.2478493452072144,1.8407944440841675,-0.4721723794937134,0.3284117877483368,-1.0045855045318604,-0.31829211115837097,0.833910346031189,-1.20740807056427,-0.2806750535964966,0.8139688372612,-0.5337864756584167,-0.35482537746429443,0.6309815049171448,0.6765468716621399,0.7175644636154175,-0.36069023609161377,-0.8935500383377075,-1.1697200536727905,0.673384964466095,1.4641282558441162,0.18401077389717102,1.1843390464782715,0.13150624930858612,-0.013451733626425266,-1.5513629913330078,0.23477457463741302,-0.445165753364563,-1.0582958459854126,0.3479934632778168,-1.0455282926559448,-0.4532768428325653,2.3368911743164062,-0.24424012005329132,1.0593886375427246,-0.8925366997718811,1.6262259483337402,0.4267752766609192,-1.9688700437545776,0.08010358363389969,0.05422499403357506,0.4192638099193573,0.8272762894630432,-0.105970598757267,-0.6539974212646484,0.008999892510473728,0.4786304533481598,-0.1281348615884781,-1.012701153755188,-0.37978583574295044,0.5733427405357361,-0.7428405284881592,-1.191720962524414,1.0556578636169434,-0.5271666646003723,-0.6689614653587341,0.7270938158035278,0.44403234124183655,-0.8946020007133484,-2.5139801502227783,-0.24348467588424683,0.21882005035877228,-0.4419238865375519,-0.11851008981466293,-0.35285571217536926,-0.2936265170574188,-1.8862148523330688,-0.3507319986820221,1.2044423818588257,-0.883680522441864,1.3361984491348267,0.30964264273643494,-0.028172675520181656,-0.4151991009712219,-0.8182961344718933,0.03600587695837021,0.8232822418212891,0.5588556528091431,-0.1477673053741455,-0.9889874458312988,-0.288653165102005,1.5231094360351562,0.8259108066558838
b'\xe7\x94\xb5\xe5\xad\x90\xe6\x9d\x9f',-0.025762390345335007,0.07641799002885818,0.5237624049186707,-0.2068561464548111,0.2891322076320648,-0.0638543963432312,-0.3588981628417969,-0.22358547151088715,-0.021546386182308197,0.20287111401557922,-0.4074373245239258,0.2668907642364502,0.37002837657928467,-0.47625482082366943,-0.3270396590232849,0.1702941358089447,-0.2574969530105591,-1.0118767023086548,-0.10084157437086105,-0.3881775140762329,0.5787317752838135,-0.10057507455348969,0.33815544843673706,-0.2839956283569336,0.1184379905462265,-0.187478169798851,0.19703547656536102,-0.924214243888855,0.20350301265716553,-0.11138570308685303,0.7284418344497681,0.17789660394191742,0.29235324263572693,0.39698442816734314,0.3587912321090698,-0.2583571970462799,0.6357596516609192,0.010880531743168831,0.6018924117088318,-0.15676835179328918,-0.3654728829860687,0.47421130537986755,-0.22229138016700745,-0.062406379729509354,-0.1446133404970169,-0.5558889508247375,-0.2475191354751587,0.09197414666414261,0.16444893181324005,0.26026439666748047,-0.40672898292541504,0.330018550157547,-0.3825967013835907,0.03114224784076214,0.29268497228622437,0.21575717628002167,-0.22619029879570007,0.1384602040052414,0.005681774113327265,0.031082388013601303,-0.4918200373649597,-0.055239785462617874,0.21151134371757507,-0.14018316566944122,0.4217742383480072,-0.4084683656692505,-0.4957627058029175,-0.9119380712509155,-0.009823216125369072,0.16816890239715576,0.12553457915782928,-0.3710824251174927,0.03772740811109543,0.550749659538269,-0.4000736474990845,0.2144738882780075,-0.17357325553894043,-0.12313995510339737,0.3389596939086914,0.25861862301826477,-0.2156917303800583,0.4827744960784912,0.6006950736045837,-0.6490795016288757,0.5267981290817261,-0.6156536936759949,0.3342171609401703,-0.21317891776561737,0.1468808650970459,0.136079341173172,0.2230382114648819,0.25482505559921265,-0.1542501449584961,-0.1485881507396698,0.003361633513122797,0.09079393744468689,-0.07225840538740158,0.047825299203395844,0.09158167243003845,0.02919047139585018,-0.33041003346443176,-0.1050615981221199,-0.7754741907119751,-0.28100863099098206,0.08629590272903442,-0.27103424072265625,0.028598589822649956,0.4760441184043884,0.20964665710926056,0.13419926166534424,-0.24441185593605042,0.22496174275875092,0.36559435725212097,-0.024224456399679184,0.026302795857191086,0.6147807240486145,-0.1610495150089264,0.00483876233920455,0.2010030895471573,0.8937659859657288,0.34160783886909485,0.37534838914871216,-0.4944067895412445,0.7188645601272583,-0.3452000916004181,0.206059530377388,1.022102952003479,-0.0965363085269928,-0.5166696310043335,0.30456578731536865,-0.17943356931209564,0.17856869101524353,-0.4637134373188019,-0.3579058051109314,-0.040058549493551254,-0.06217896193265915,-0.29484277963638306,-0.6339689493179321,-0.13731449842453003,0.11465279757976532,0.8278882503509521,-0.5076408386230469,0.23809371888637543,0.5431195497512817,0.2822284698486328,-0.24128149449825287,-0.22091640532016754,-0.02083301916718483,0.2027587741613388,-0.03925695642828941,0.21237021684646606,0.6958450078964233,-0.027946550399065018,0.004789572674781084,-0.3797711431980133,-0.3845933675765991,-0.20437560975551605,0.28569138050079346,-0.22386032342910767,0.17604629695415497,-0.4459751844406128,0.10539033263921738,-0.18207919597625732,-0.1642143428325653,-0.04215610399842262,-0.2407485842704773,0.5597237348556519,-0.40798357129096985,0.40126219391822815,-0.13906407356262207,-0.1980346441268921,0.13163653016090393,0.7576665282249451,0.23011094331741333,-0.12808841466903687,-0.1750909388065338,1.1449936628341675,-0.3078002631664276,0.20546162128448486,0.9082787036895752,-0.6442262530326843,-0.045593030750751495,-0.2666695713996887,-0.38531458377838135,-0.14631213247776031,-0.5891964435577393,-0.2286086529493332,-0.06686978042125702,-0.583150327205658,-0.428667277097702,0.6022248268127441,0.19081172347068787,0.007265142165124416,-0.10898328572511673,-0.2085331380367279,-0.19271285831928253,0.02829745039343834,-0.4112097918987274,-0.26406073570251465,-1.038129210472107,-0.3024992346763611,0.0062590911984443665,-0.261068731546402,-1.1338649988174438,-0.19127102196216583,-0.6926136016845703,-0.350483238697052,-0.06254007667303085,0.6851080060005188,-0.12820351123809814,-0.053111303597688675,-0.028648564592003822,0.03414195030927658,0.3868941068649292,-0.10277917236089706,-0.25624117255210876,0.22483614087104797,-0.5951761603355408,0.2626359462738037,-0.45511749386787415,-0.22506020963191986,-0.5379761457443237,-0.023869991302490234,0.805098831653595,-0.1575058549642563,-0.013861884362995625,-0.15674905478954315,-0.1324193924665451,1.228440284729004,-0.6099321842193604,0.9950365424156189,0.273468017578125,-0.3126112222671509,0.28342920541763306,0.08060501515865326,0.3183837831020355,-0.10867567360401154,0.5122977495193481,0.3122374415397644,-0.23756597936153412,-0.1990310549736023,0.0871940553188324,-0.6665390133857727,-0.07008563727140427,-0.42924144864082336,-0.10179126262664795,0.09243179112672806,-0.37588295340538025,0.4363979995250702,0.9946305155754089,-0.12024862319231033,-0.06145176663994789,0.23527753353118896,-0.036332692950963974,0.1037626713514328,-0.4157019853591919,0.5101453065872192,-0.2610342502593994,0.18602962791919708,0.667069673538208,-0.24726812541484833,-0.15705949068069458,-0.430724561214447,0.11437349021434784,0.14986704289913177,-0.3335457742214203,0.27741363644599915,0.35211631655693054,0.3345026671886444,0.030445048585534096,-0.37491777539253235,0.21631266176700592,0.3751481771469116,-0.25675249099731445,-0.15675605833530426,-0.4477193355560303,-0.1357397735118866,0.04666101187467575,-0.033818237483501434,0.35233303904533386,-0.2769022285938263,-0.511576235294342,0.8757603764533997,-0.41010981798171997,-0.6418663263320923,0.12789325416088104,-0.27524861693382263,0.17840704321861267,-1.177436351776123,-0.13700176775455475,0.1446058452129364,-0.05621656775474548,0.29888054728507996,-0.027902208268642426,0.4903777837753296,0.7575795650482178,-0.6439898014068604,0.7218743562698364,0.44883906841278076,-0.03445480391383171,0.4720938503742218,-0.37995976209640503,-0.01841840334236622,-0.4383561909198761,-0.259906530380249,0.38666245341300964,-0.2861458659172058,-0.2070399820804596,-0.14917655289173126,0.3366111218929291,0.22578687965869904,0.0740523710846901,0.2575984597206116,-0.37211042642593384,0.5604237914085388,-0.01302492804825306,-0.30309149622917175,0.14424817264080048,0.30517521500587463,-0.17727816104888916,0.03944992646574974,-0.8638932108879089,0.2965748906135559,0.28473180532455444,-0.18865005671977997,-0.3537493646144867,-0.4015805125236511,-0.41432493925094604,-0.0879846140742302,-0.2654033899307251,0.12933048605918884,0.18791237473487854,0.4482114017009735,-0.16189594566822052,0.2748313248157501,-0.8173321485519409,0.012447326444089413,-0.2580975890159607,0.16426809132099152,-0.41637590527534485,0.4693947732448578,-0.15500646829605103,-0.3751174211502075,-0.08017134666442871,-0.31541478633880615,-0.1675553023815155,0.15958571434020996,0.06857389956712723,-0.5636191964149475,0.8131904602050781,-0.0352434441447258,-0.30810967087745667,-0.14527633786201477,-0.42915013432502747,0.0769890695810318,-0.41847553849220276,0.28736957907676697,-0.24658100306987762,-0.42864754796028137,-0.01938159577548504,-0.0029285685159265995,0.41119319200515747,-0.02728940360248089,-0.09608149528503418,-1.2276276350021362,-0.1767234057188034,-0.5087623596191406,0.7406584620475769,0.29764270782470703,-0.4327893555164337,0.5808629989624023,-0.10991542786359787,0.3801460862159729,0.2667910158634186,0.5731064081192017,-0.26241305470466614,-0.19446997344493866,-0.29990649223327637,0.14985837042331696,0.08155857771635056,0.2045571357011795,-0.6845563650131226,0.09761302918195724,-0.5863934755325317,-0.8988500833511353,0.31896257400512695,0.2645435035228729,0.16999965906143188,-0.02030089683830738,-0.47399917244911194,0.13398119807243347,0.15172377228736877,-0.2787975072860718,0.1527014672756195,0.1941913664340973,0.5179526805877686,0.38642406463623047,-0.00064154650317505,0.7451544404029846,-0.46190518140792847
b'\xe9\x80\x8f\xe5\xb0\x84\xe7\x94\xb5\xe9\x95\x9c',-0.05568314343690872,-0.017968416213989258,-0.015633411705493927,0.017445586621761322,0.015825264155864716,-0.0027554321568459272,0.009179810993373394,-0.018226085230708122,0.021994518116116524,0.05355462431907654,0.027074888348579407,0.0036020830739289522,0.0016854122513905168,0.017169402912259102,-0.07150048017501831,0.0005628823419101536,0.009827152825891972,0.026954809203743935,0.029195265844464302,0.01971595175564289,-0.024643026292324066,0.0420021191239357,-0.018579307943582535,0.04904278367757797,0.040737561881542206,-0.03307563066482544,-0.020240839570760727,-0.023324694484472275,-0.04781379923224449,0.0175362229347229,0.019810546189546585,-0.02797771990299225,0.026722833514213562,-0.032874055206775665,-0.021295534446835518,-0.047456394881010056,0.014758710749447346,0.0682196319103241,-0.017249425873160362,-0.04585210978984833,0.020518194884061813,0.008629259653389454,-0.0021009251940995455,0.03132743015885353,0.04893915727734566,0.02954796701669693,-0.01181164663285017,-0.025191742926836014,0.004442399833351374,-0.013166656717658043,0.024813702329993248,0.04886384308338165,-0.0008474618662148714,-0.004329378716647625,0.007287990767508745,-0.021069027483463287,-0.009572576731443405,-0.004024723079055548,-0.012355352751910686,0.025410456582903862,-0.0891580730676651,-0.001618425128981471,0.029629359021782875,-0.05205579474568367,0.07260710746049881,-0.03565465286374092,-0.03214536979794502,-0.00369260529987514,0.031318385154008865,0.011158032342791557,0.031913965940475464,-0.007938191294670105,-0.045449092984199524,-0.01690390147268772,-0.0009866275358945131,0.0266555305570364,0.033263273537158966,0.02028573676943779,0.06468109041452408,0.05816534906625748,-0.01818263530731201,0.005331610795110464,0.08635714650154114,-0.04335398972034454,-0.040920473635196686,0.01479100901633501,0.041767869144678116,0.06231636181473732,-0.005530450493097305,0.021133894100785255,0.025219561532139778,0.002889570314437151,-0.01773081161081791,-0.011106868274509907,0.05480564013123512,0.040726371109485626,0.02156730368733406,-0.003437637584283948,0.0795903205871582,-0.020346753299236298,0.01998155005276203,-0.041190311312675476,0.009741316549479961,0.008741269819438457,0.020022207871079445,0.0007815317949280143,-0.0848677009344101,0.04551662877202034,0.013890054076910019,0.0037997353356331587,0.017302721738815308,-0.021511763334274292,0.007509214803576469,0.011263720691204071,-0.07556793093681335,-0.0063645499758422375,-0.017712436616420746,-0.029433945193886757,0.006292564328759909,0.060788124799728394,-0.02069379761815071,0.016284171491861343,-0.024794509634375572,-0.013615907169878483,-0.04583951458334923,0.019628049805760384,0.04109261929988861,-0.03277177736163139,-0.06905192881822586,-0.003674677573144436,0.01240247767418623,0.032722052186727524,0.01441700104624033,-0.008514117449522018,-0.013215335085988045,0.05471251532435417,-0.02027393877506256,0.01798490807414055,0.01738659478724003,-0.013456722721457481,0.05812118947505951,0.003888679202646017,0.010685000568628311,0.00905879307538271,-0.015568096190690994,-0.006659113802015781,0.11555187404155731,-0.019469518214464188,-0.02650594152510166,0.06297197937965393,-0.020522011443972588,-0.004735596012324095,0.000986608793027699,0.003299134550616145,0.015495347790420055,-0.007983127608895302,0.020195703953504562,-0.012018492445349693,0.024593884125351906,0.06044992431998253,0.008929204195737839,0.04520434886217117,-0.011454548686742783,-0.006006014067679644,-0.04133211821317673,0.017071152105927467,0.04653958976268768,-0.024243684485554695,0.046177156269550323,0.013383856974542141,0.0010458782780915499,-0.006798699963837862,0.04749782755970955,0.03196820616722107,0.03086782433092594,0.015049784444272518,0.0005841655656695366,0.025713443756103516,0.06280254572629929,0.054693419486284256,0.00246420013718307,0.00022050652478355914,0.010040937922894955,0.032307181507349014,-0.009377903304994106,-0.03255998715758324,0.033191416412591934,0.011623531579971313,-0.0628405436873436,-0.053572993725538254,-0.022926287725567818,-0.010671858675777912,-0.030646326020359993,-0.030416004359722137,-0.021137660369277,0.012923726812005043,-0.013533967547118664,0.006027999334037304,-0.014674028381705284,-0.025541754439473152,-0.008361900225281715,-0.016438966616988182,0.008834251202642918,-0.058183006942272186,0.008360063657164574,0.038022231310606,-0.013156338594853878,-0.036164168268442154,0.03541482239961624,0.0705839991569519,-0.05104359611868858,0.014025460928678513,-0.04149152711033821,0.003939169459044933,0.010357789695262909,0.0550369955599308,-0.0371243990957737,-0.019050301983952522,0.0012807626044377685,-0.004831223748624325,-0.02382892556488514,-0.02141381800174713,0.02536885067820549,0.018968921154737473,-0.01719476841390133,-0.022643255069851875,0.0047883703373372555,-0.04953542724251747,0.07013820856809616,-0.024377327412366867,0.043886225670576096,-0.00918767973780632,0.012800831347703934,5.6576089264126495e-05,-0.001826985040679574,0.06826939433813095,-0.03989154100418091,0.03130669891834259,-0.03769102692604065,0.004107745364308357,-0.050045762211084366,-0.01901467889547348,-0.027809755876660347,0.028134522959589958,-0.024346083402633667,0.01571851223707199,0.052586879581213,-0.06569060683250427,0.026890944689512253,0.00901002436876297,-0.06654520332813263,-0.026947878301143646,0.010512479580938816,0.04068112373352051,0.03202368691563606,0.03003384731709957,0.0157999899238348,-0.017836114391684532,0.017505891621112823,0.03640460968017578,-0.03539884090423584,-0.04150811582803726,-0.07370932400226593,-0.029804199934005737,-0.045241471379995346,-0.009656986221671104,0.03269920125603676,0.04282829537987709,0.019567640498280525,-0.0393289178609848,0.027044260874390602,0.033759359270334244,0.05421176925301552,-0.012058396823704243,0.018894702196121216,0.014213216491043568,0.0017132431967183948,0.01278874184936285,-0.01782849058508873,-0.006275972351431847,0.03932996839284897,-0.013378164730966091,0.05208095535635948,0.020621392875909805,-0.05320147052407265,0.0119234723970294,-0.020694604143500328,-0.002541969297453761,-0.09131848812103271,0.012263664975762367,-0.02917102538049221,-0.05715075507760048,-0.06229529157280922,-0.04342230409383774,0.03417017683386803,-0.02541293390095234,0.0029984270222485065,0.024251597002148628,-0.015209154225885868,-0.017919477075338364,0.0438491553068161,-0.0042382352985441685,-0.0015109102241694927,-0.02549547329545021,0.04076267406344414,0.043290041387081146,-0.031895991414785385,-0.06079476326704025,-0.09544505923986435,-0.030550209805369377,0.06120065599679947,0.021196650341153145,0.10731799900531769,-0.0255693718791008,0.011841997504234314,-0.01769425719976425,0.01966419257223606,0.005504286848008633,-0.015475774183869362,-0.015480182133615017,-0.002912909723818302,-0.02181990258395672,0.03346472233533859,-0.03624766319990158,-0.02849581092596054,-0.02730221301317215,0.0021939098369330168,-0.01623825542628765,-0.023896535858511925,-0.018195847049355507,-0.044855885207653046,0.022931775078177452,0.011744951829314232,-0.060394760221242905,0.03277583792805672,-0.01864662766456604,0.020221855491399765,-0.013995271176099777,0.026995938271284103,-0.05492233484983444,0.06634685397148132,-0.021064743399620056,-0.012825177982449532,-0.0188314039260149,-0.011708331294357777,-0.02321622706949711,0.05495169386267662,-0.007216315250843763,0.058321621268987656,0.0621940903365612,-0.008083850145339966,-0.03963112458586693,-0.0025075552985072136,0.005734102334827185,0.003565319813787937,-0.04405319690704346,-0.009059106931090355,-0.022418761625885963,0.011181884445250034,0.007892264984548092,0.006798258051276207,0.057079605758190155,-0.011480394750833511,-0.02547837235033512,-0.03445088863372803,-0.05478585883975029,-0.027307946234941483,-0.0299958698451519,0.0029742259066551924,-0.028685923665761948,0.056147195398807526,-0.026532839983701706,0.03718786686658859,-0.024928394705057144,-0.0020563926082104445,-0.018518095836043358,0.0024829069152474403,-0.07654813677072525,0.006040982436388731,0.03258707746863365,-0.013172084465622902,0.020685186609625816,-0.034618545323610306,-0.05697264149785042,-0.0788654163479805,-0.004903012420982122,-0.009415382519364357,-0.059094518423080444,-0.009060814045369625,0.005611041095107794,0.0152864009141922,-0.01562250405550003,-0.006181820295751095,-0.04832892119884491,0.002741752192378044,-0.019986743107438087,0.004562731366604567,0.00930924154818058,0.026233790442347527,0.0006301878020167351
b'\xe6\x9e\x81\xe7\x9f\xad',-0.2735600769519806,0.04295573756098747,0.5534928441047668,-0.38269761204719543,-0.053992848843336105,-0.1429491639137268,-0.06130489706993103,-0.08159573376178741,0.050912342965602875,0.12269248068332672,0.3279358446598053,-0.3560912013053894,0.4540323317050934,-0.20986522734165192,-0.2556639015674591,-0.3830868899822235,-0.2188330888748169,-0.06864842772483826,-0.09061983227729797,-0.006848644465208054,0.07523909956216812,-0.1112329363822937,0.40785881876945496,0.24971750378608704,0.44168877601623535,0.2871699333190918,-0.28470733761787415,-0.5747966766357422,-0.55144202709198,-0.5198599100112915,0.14521744847297668,-0.14805971086025238,0.011945868842303753,0.25913408398628235,0.018382450565695763,-0.7703648805618286,0.796531081199646,-0.49525901675224304,-0.20244239270687103,-0.3146406412124634,0.8116341829299927,0.36840394139289856,0.2731986343860626,0.24880200624465942,-0.1451408416032791,0.22600170969963074,-0.41242334246635437,-0.05822407454252243,0.1167437806725502,-0.25083252787590027,-0.05224868282675743,0.29037541151046753,0.23099231719970703,-0.17766302824020386,0.038909126073122025,-0.39405494928359985,-0.2112809121608734,0.13362139463424683,-0.13545849919319153,-0.03572641313076019,-0.7175755500793457,-0.028966384008526802,0.06516261398792267,-0.336750328540802,0.23407194018363953,0.20699623227119446,-0.2902444899082184,0.03918647766113281,-0.08585191518068314,0.4238419830799103,0.18293055891990662,-0.4809592068195343,-0.23198963701725006,0.8501723408699036,0.42188936471939087,-0.29696446657180786,0.0210307277739048,0.10039057582616806,-0.5721344351768494,-0.5921251773834229,-0.39929264783859253,0.06730527430772781,0.006289912853389978,0.24669010937213898,0.07941761612892151,-0.877431333065033,0.0724945142865181,-0.4199780225753784,-0.35040128231048584,0.16030752658843994,-0.39445942640304565,-0.15527284145355225,-0.16596423089504242,0.15620242059230804,-0.27288147807121277,0.31776323914527893,-0.503207802772522,-0.05099114403128624,0.3351348042488098,-0.018350904807448387,-0.6780959963798523,0.1626155525445938,-0.7199193835258484,0.14817629754543304,-0.40749111771583557,-0.08321981877088547,-0.15836885571479797,0.5870005488395691,0.17760400474071503,0.4080818295478821,0.35864174365997314,-0.3218095302581787,0.5360519289970398,-0.31205737590789795,-0.3994193971157074,0.4705701172351837,0.2727438807487488,0.6638402938842773,-0.05974409356713295,0.3188391923904419,0.35350728034973145,-0.1099906712770462,0.4772493839263916,0.628796398639679,0.32495221495628357,-0.2132178097963333,0.4646505117416382,-0.3542221486568451,0.09676039218902588,0.40841278433799744,0.4326813519001007,0.3738016188144684,0.1768486648797989,-0.06879214942455292,-0.14796896278858185,-0.13895320892333984,0.021004926413297653,-0.4847595989704132,0.252290278673172,0.17189650237560272,0.22222588956356049,-0.6606927514076233,0.2533717751502991,0.5197974443435669,-0.3543144762516022,-0.026949143037199974,0.53190678358078,-0.09492648392915726,-0.16670268774032593,-0.18661396205425262,-0.06104060262441635,0.1960357427597046,0.09952477365732193,0.3277209401130676,-0.25819388031959534,-0.16445165872573853,0.0008309134864248335,-0.8346752524375916,0.7136066555976868,0.3599065840244293,-0.21744650602340698,-0.2096506953239441,0.10041799396276474,-0.3841296434402466,0.09693136066198349,-0.795560359954834,0.2754221260547638,0.4419015944004059,0.531733512878418,-1.2000224590301514,-0.10178747028112411,0.0014195711119100451,0.2005646973848343,-0.08502137660980225,0.48620837926864624,0.0753592848777771,-0.21620143949985504,0.17184215784072876,0.9478138089179993,-0.37470072507858276,0.34180182218551636,0.35807204246520996,-0.5796665549278259,0.07874076813459396,1.0009558200836182,0.366112619638443,0.7679446935653687,-0.06583278626203537,0.691521406173706,-0.4109126031398773,0.8613271117210388,-0.8999621272087097,0.2766893804073334,0.37803420424461365,-0.7464890480041504,0.03519134223461151,-0.03219304978847504,-0.29763898253440857,-0.42899248003959656,-0.3750341534614563,0.3179972469806671,-0.08901873230934143,-0.40199515223503113,-0.7215908765792847,0.2442518174648285,-0.9171556234359741,-0.2777656018733978,0.0813681110739708,-0.12918725609779358,0.6884040236473083,-0.4042304456233978,-0.33568069338798523,0.27055829763412476,0.6265957951545715,-0.42124706506729126,0.4543401002883911,-0.0958876684308052,-0.5368558168411255,0.27750876545906067,-0.22591249644756317,0.3020342290401459,-0.7730783820152283,0.07149242609739304,-0.13251447677612305,-0.39670681953430176,0.021683115512132645,-0.45126837491989136,0.48553794622421265,0.5820807814598083,-0.07954765856266022,0.31528887152671814,0.17927497625350952,0.09294723719358444,0.31618547439575195,-0.6805729269981384,0.21901264786720276,-0.12020394206047058,0.31149205565452576,-0.374556303024292,0.05276208743453026,0.09337648749351501,0.632280170917511,-0.29125019907951355,0.8023825287818909,-0.4778580367565155,0.22786608338356018,0.4200727641582489,-0.7272447347640991,-0.15062886476516724,0.7247847318649292,-0.6188278794288635,0.08446533977985382,-0.02736676298081875,-0.3050543963909149,0.9314634799957275,-0.3908718228340149,-0.33988311886787415,-0.6791551113128662,-0.11335546523332596,-0.18766383826732635,-0.6029879450798035,0.564630389213562,-0.11914437264204025,0.2585793435573578,-0.160451740026474,0.04580117017030716,-0.45746666193008423,-0.13895849883556366,0.4251016080379486,0.34628742933273315,-0.23479659855365753,1.0187578201293945,0.4762212932109833,-0.17600183188915253,0.4740738868713379,-0.0392645001411438,0.05795896425843239,-0.45329418778419495,-0.07610819488763809,0.3186649978160858,-0.6948423385620117,-0.23521406948566437,0.7200857996940613,-0.0633212998509407,-0.1937265545129776,0.32147207856178284,-0.053160637617111206,0.21391263604164124,-0.08674924820661545,0.13084839284420013,0.17364251613616943,-0.3302140235900879,0.38086172938346863,0.0024690604768693447,0.04631805419921875,-0.34802404046058655,0.17118526995182037,0.9240775108337402,0.6388537287712097,0.5544679760932922,-0.46629804372787476,0.3072435259819031,-0.5030180215835571,-0.6344131827354431,-0.3432002365589142,0.1432337462902069,0.00432109460234642,-0.27384018898010254,0.28313279151916504,-0.13727520406246185,-0.22776497900485992,0.8164771199226379,-0.16860176622867584,-0.2697317600250244,0.18465173244476318,0.369316965341568,0.39348092675209045,0.5555964708328247,0.5439724922180176,-0.5100244283676147,0.11117149889469147,-0.07468748837709427,-0.10269145667552948,-0.14120051264762878,-0.4693273603916168,-0.2259817123413086,-0.3678918182849884,-0.05061163380742073,0.09124917536973953,0.2054312825202942,-0.22137394547462463,0.41140812635421753,0.18395088613033295,-0.5169646143913269,-0.23349083960056305,0.23658457398414612,-0.003276458941400051,0.34789589047431946,0.49059560894966125,0.1508055180311203,0.002015279605984688,0.005746555048972368,0.09958329796791077,0.1292133927345276,-0.3906295597553253,0.13584014773368835,0.18373717367649078,0.3207324743270874,0.13917985558509827,-0.34710338711738586,-0.3830499053001404,-0.27812060713768005,-0.043286941945552826,0.10291041433811188,-0.1616247147321701,-0.22321118414402008,-0.8863669037818909,0.21650706231594086,0.1842680722475052,0.05374198779463768,0.259835422039032,0.4742196500301361,-0.04768407717347145,0.24920740723609924,-0.08518088608980179,0.2987377643585205,-0.8049503564834595,0.11316248774528503,0.4092770218849182,0.13016577064990997,0.9916458129882812,0.45994773507118225,0.2605239152908325,-0.2534690201282501,0.44587257504463196,0.326702356338501,0.2961583435535431,-0.5730573534965515,0.49721577763557434,-0.8386808037757874,-0.3956654667854309,-0.6959265470504761,-0.46412503719329834,-0.1831119805574417,-0.2521144449710846,0.2788000702857971,-0.10441035032272339,-0.34280824661254883,-0.12342365086078644,0.56947261095047,-0.0009373449138365686,0.4779738783836365,-0.8418400287628174,0.24377873539924622,-0.5895991921424866,0.7815675735473633,0.283720999956131,0.6186932921409607,-0.13650773465633392,-0.0309172123670578
