word,0,1,2,3,4,5,6,7,8,9,10,11,12,13,14,15,16,17,18,19,20,21,22,23,24,25,26,27,28,29,30,31,32,33,34,35,36,37,38,39,40,41,42,43,44,45,46,47,48,49,50,51,52,53,54,55,56,57,58,59,60,61,62,63,64,65,66,67,68,69,70,71,72,73,74,75,76,77,78,79,80,81,82,83,84,85,86,87,88,89,90,91,92,93,94,95,96,97,98,99,100,101,102,103,104,105,106,107,108,109,110,111,112,113,114,115,116,117,118,119,120,121,122,123,124,125,126,127,128,129,130,131,132,133,134,135,136,137,138,139,140,141,142,143,144,145,146,147,148,149,150,151,152,153,154,155,156,157,158,159,160,161,162,163,164,165,166,167,168,169,170,171,172,173,174,175,176,177,178,179,180,181,182,183,184,185,186,187,188,189,190,191,192,193,194,195,196,197,198,199,200,201,202,203,204,205,206,207,208,209,210,211,212,213,214,215,216,217,218,219,220,221,222,223,224,225,226,227,228,229,230,231,232,233,234,235,236,237,238,239,240,241,242,243,244,245,246,247,248,249,250,251,252,253,254,255,256,257,258,259,260,261,262,263,264,265,266,267,268,269,270,271,272,273,274,275,276,277,278,279,280,281,282,283,284,285,286,287,288,289,290,291,292,293,294,295,296,297,298,299,300,301,302,303,304,305,306,307,308,309,310,311,312,313,314,315,316,317,318,319,320,321,322,323,324,325,326,327,328,329,330,331,332,333,334,335,336,337,338,339,340,341,342,343,344,345,346,347,348,349,350,351,352,353,354,355,356,357,358,359,360,361,362,363,364,365,366,367,368,369,370,371,372,373,374,375,376,377,378,379,380,381,382,383,384,385,386,387,388,389,390,391,392,393,394,395,396,397,398,399
b'\xe9\x92\x9b\xe5\x90\x88\xe9\x87\x91',0.025891268625855446,-0.2204950600862503,0.10726980865001678,-0.21329644322395325,0.28414270281791687,-0.30632147192955017,0.024971190840005875,0.020294146612286568,0.5219647288322449,-0.014643970876932144,-0.09634968638420105,-0.042700108140707016,0.4235522747039795,0.03494610637426376,-0.336386501789093,0.5794496536254883,0.0024942075833678246,-0.18732121586799622,-0.06409299373626709,-0.3115442097187042,-0.06372260302305222,-0.5241298675537109,0.32692816853523254,0.13158106803894043,0.37163689732551575,0.07137588411569595,0.6834174394607544,-0.6119957566261292,-0.14416174590587616,0.14002293348312378,0.27989673614501953,0.19902090728282928,-0.030917895957827568,-0.1086110845208168,0.0463595949113369,0.012808737345039845,0.6739784479141235,-0.37053361535072327,0.24499571323394775,-0.4477885365486145,-0.15192537009716034,0.0785093829035759,-0.4636242389678955,-0.24076561629772186,-0.3838108479976654,-0.2548618018627167,-0.1781262457370758,0.10141824185848236,-0.16522197425365448,-0.23234941065311432,-0.0967240184545517,-0.0567668117582798,-0.288047194480896,0.014839782379567623,0.0825117900967598,-0.0721302330493927,-0.056300293654203415,-0.1712106615304947,0.10610061883926392,0.18947160243988037,-0.19573508203029633,0.40465545654296875,0.48027125000953674,0.35289251804351807,0.45426636934280396,0.13811172544956207,-0.5648162961006165,0.21917301416397095,0.18551714718341827,0.24986736476421356,0.08739421516656876,-0.2972099483013153,0.02146485261619091,-0.17957650125026703,0.6073787808418274,0.5932497382164001,0.28785064816474915,-0.3358480632305145,0.3747943639755249,-0.024998806416988373,0.12526260316371918,0.4815400242805481,0.9134164452552795,-0.20009168982505798,0.37092241644859314,-0.5000773072242737,0.4475683271884918,-0.523360550403595,0.13287830352783203,0.03759000822901726,0.14728732407093048,0.1875571459531784,0.17797428369522095,-0.3020407259464264,0.15379299223423004,0.03286171704530716,-0.11618631333112717,0.6735342741012573,0.7102188467979431,-0.22493374347686768,-0.3765200674533844,-0.2542806565761566,-0.4602222740650177,-0.2552827000617981,0.3898358643054962,-0.05816299468278885,-0.24830837547779083,0.43263834714889526,-0.21164622902870178,0.14684469997882843,-0.08755933493375778,0.44518327713012695,0.29659080505371094,-0.08249492198228836,-0.06240284442901611,-0.006837649270892143,-0.15134377777576447,0.05128658562898636,0.24186621606349945,0.013838309794664383,0.04148576781153679,0.5124770998954773,-0.4819864332675934,0.5999150276184082,-0.03795051947236061,-0.17344717681407928,0.6669266819953918,-0.47737786173820496,-0.37226614356040955,0.5820441842079163,-0.12252175062894821,0.11285063624382019,-0.3058142066001892,0.03305822238326073,-0.8352349400520325,-0.08842188119888306,-0.2978546619415283,-0.04307117685675621,0.15136083960533142,-0.04159162566065788,0.4165220558643341,-0.22393468022346497,0.11389794200658798,0.3407294750213623,-0.052210912108421326,0.5187482237815857,-0.47575709223747253,-0.256054162979126,0.028102735057473183,-0.26454958319664,-0.19665677845478058,0.31687459349632263,-0.22713343799114227,-0.13767403364181519,0.49402791261672974,-0.45815637707710266,-0.2158265858888626,-0.14763113856315613,-0.21978521347045898,-0.06357833743095398,-0.20079125463962555,0.4135419726371765,0.09580929577350616,0.2150963395833969,-0.15061843395233154,-0.17294563353061676,-0.003889797953888774,-0.37193986773490906,0.36876893043518066,-0.5566141605377197,-0.1701570302248001,0.36329078674316406,0.43542543053627014,-0.3368227183818817,-0.26777881383895874,0.44410762190818787,0.6814438700675964,-0.037099599838256836,-0.01187132392078638,0.5166861414909363,-1.1531869173049927,-0.12522946298122406,0.03472330793738365,0.24064157903194427,-0.343784362077713,0.20055487751960754,0.41018596291542053,0.09260348230600357,-0.44690918922424316,-0.4043428897857666,0.03985360637307167,-0.05446963012218475,-0.08343330770730972,0.036852266639471054,0.13313370943069458,-0.020488157868385315,-0.4118921160697937,-0.18439564108848572,0.04526514559984207,-0.2829805612564087,0.16576959192752838,0.002660911064594984,-0.16911880671977997,-1.2183032035827637,-0.24018871784210205,-0.03796077147126198,-0.23812468349933624,0.06883877515792847,0.8010217547416687,-0.15244518220424652,0.07126989215612411,0.31665900349617004,-0.3043747842311859,0.08165662735700607,-0.549746036529541,-0.0470278300344944,0.3337043821811676,-0.38306233286857605,-0.23261700570583344,0.09588995575904846,0.10916384309530258,-0.0047112819738686085,0.2925735414028168,0.23489829897880554,-0.35189494490623474,-0.023697905242443085,-0.6513265371322632,0.20306968688964844,0.481792688369751,0.17027363181114197,0.3357484042644501,0.5237877368927002,-0.02152528055012226,0.30123069882392883,0.10235081613063812,-0.17966726422309875,-0.008254439570009708,0.4759947955608368,0.21746599674224854,-0.6133264303207397,0.07062362134456635,-0.5570059418678284,-0.09830354154109955,0.06580113619565964,-0.2847496271133423,-0.10673695057630539,0.26394933462142944,-0.36993151903152466,-0.03913168981671333,0.7169618606567383,-0.6723698377609253,0.3391234278678894,-0.019379397854208946,-0.022205745801329613,-0.038550328463315964,-0.2672618627548218,0.1945025771856308,-0.490516722202301,0.44314298033714294,0.10333789139986038,-0.5709264278411865,0.3185604512691498,-0.6676304936408997,-0.49265995621681213,-0.1965138465166092,-0.17014281451702118,0.5745721459388733,-0.10603395849466324,-0.15403088927268982,0.09386834502220154,0.10112220048904419,0.1896272748708725,0.3745364248752594,-0.6697626709938049,0.29448968172073364,0.09617747366428375,0.5423940420150757,0.34225356578826904,-0.34395068883895874,0.5837303400039673,0.856880247592926,0.1823321431875229,0.8655215501785278,-0.10655989497900009,-0.5506836175918579,-0.020247846841812134,-0.43738576769828796,0.03227884694933891,-0.31446099281311035,0.018785201013088226,0.24034379422664642,-0.04881777986884117,0.7390457987785339,-0.11614814400672913,-0.12941810488700867,0.5187238454818726,-0.5245844721794128,1.0384814739227295,0.5826818346977234,-0.03996533900499344,0.044151004403829575,-0.4645324647426605,-0.44624119997024536,-0.2723454535007477,-0.15381301939487457,0.013712347485125065,-0.5286720395088196,0.24987594783306122,-0.03880729153752327,0.23978497087955475,0.224080890417099,0.10002101957798004,0.5688745975494385,-0.7251365184783936,-0.3074638247489929,0.0018180332845076919,0.1839613914489746,0.13123425841331482,0.7737415432929993,0.13688699901103973,-0.3157878518104553,-0.5333841443061829,-0.4747076630592346,0.023429855704307556,-0.1606818586587906,-0.4085608124732971,-0.6113624572753906,0.26192665100097656,-0.19916580617427826,-0.2662210464477539,0.5233530402183533,0.34917426109313965,0.30217328667640686,0.3495185673236847,-0.0007009659893810749,-0.8082492351531982,0.11451556533575058,-0.03588395565748215,0.22423970699310303,-0.1473848968744278,-0.14571745693683624,0.3361232876777649,-0.12147602438926697,0.48063626885414124,-0.16143858432769775,-0.020828664302825928,0.030344026163220406,-0.3251427114009857,-0.34689220786094666,0.5982944965362549,0.3423618674278259,-0.019099140539765358,-0.4130760431289673,0.6669744253158569,0.20296737551689148,-1.0644370317459106,0.3078666031360626,-0.33683037757873535,-0.4319077730178833,0.13214753568172455,-0.14266090095043182,0.14231771230697632,-0.14570318162441254,-0.10047199577093124,-0.7644451856613159,0.3388618528842926,-0.3050042688846588,0.25971055030822754,0.48829537630081177,-0.6450260281562805,0.6074894070625305,0.09576406329870224,0.3885696232318878,0.27402955293655396,0.059301286935806274,0.089922696352005,-0.6609970331192017,-0.47598010301589966,-0.10336471349000931,0.0714854747056961,0.23139075934886932,-0.28621792793273926,0.2554001808166504,-0.7877315282821655,-0.8977010846138,0.008623122237622738,-0.038944147527217865,-0.13826501369476318,-0.05134384334087372,0.08499544113874435,-0.2558045983314514,-0.004397871438413858,-0.26839128136634827,0.09651175141334534,0.14396028220653534,0.41462305188179016,-0.24339799582958221,0.5519919991493225,-0.04443405568599701,0.02848283015191555
b'\xe8\x96\x84\xe8\x86\x9c',-0.7333107590675354,-0.3270169496536255,0.5787664651870728,-0.5047509670257568,1.4652585983276367,-0.012862330302596092,-0.011847695335745811,-0.23366135358810425,0.5332300066947937,-0.25000429153442383,0.01772819459438324,0.44968074560165405,0.768376350402832,-1.1075403690338135,-0.5867897868156433,0.21542830765247345,-0.5066070556640625,-1.0451433658599854,-0.25690534710884094,-0.45973461866378784,0.06772089749574661,-0.6927765607833862,0.9355829358100891,-0.5259343385696411,0.20913182199001312,0.3959313929080963,-0.25414106249809265,-0.597322404384613,0.409939706325531,0.4276571571826935,0.9126227498054504,0.9915480017662048,0.17740671336650848,0.03658870980143547,0.14642570912837982,-0.8141946196556091,0.7585023045539856,-0.5940917134284973,1.0165576934814453,-0.9168810248374939,-0.56134432554245,0.3183535933494568,-0.7402647137641907,0.13502587378025055,-0.5847437381744385,-0.3723185658454895,-0.8770895600318909,1.2545222043991089,-0.15975762903690338,-0.05791598930954933,-0.4189886450767517,0.7958019971847534,0.04549209401011467,0.3377894461154938,0.896648645401001,-0.14429624378681183,-0.6877033114433289,0.06756790727376938,-0.1038704439997673,-0.12501662969589233,-0.39786577224731445,1.406274437904358,0.6163047552108765,-0.6006733179092407,0.7292371392250061,-0.2808667719364166,-0.4736115038394928,-0.6550207734107971,-0.07754816114902496,0.43132537603378296,0.3906647562980652,-1.0744116306304932,-0.7847034931182861,0.8276723623275757,-0.648392915725708,0.7166914939880371,0.33512282371520996,-0.2492365837097168,0.5803226828575134,-0.20187383890151978,-0.3257492482662201,0.48325467109680176,0.9749880433082581,-1.082914113998413,0.6089746952056885,-0.7494387030601501,0.40020251274108887,-0.07170961797237396,1.2079559564590454,0.5857842564582825,0.7593873143196106,0.26279693841934204,0.43421483039855957,-0.021517910063266754,-0.22920358180999756,-0.32090771198272705,0.5187458992004395,0.5613542199134827,0.6291922926902771,0.10424524545669556,-0.9113290905952454,-0.10567634552717209,-0.3189433813095093,-0.6107719540596008,-0.344955712556839,-0.32505002617836,-0.45065444707870483,1.3212890625,0.6721485257148743,0.6712388396263123,-0.24318303167819977,1.2112430334091187,0.7680716514587402,0.44786012172698975,0.044993624091148376,0.05489066615700722,-0.1766904592514038,-0.4061611592769623,-0.0395481251180172,0.7518984079360962,0.4913038909435272,0.9428755640983582,-1.2022135257720947,1.0018106698989868,0.09715434163808823,0.7313767671585083,1.4642969369888306,-0.7698693871498108,-0.7773903608322144,0.7872310876846313,-0.22153927385807037,0.5444008708000183,-0.7300358414649963,-0.5176026225090027,-0.4874853789806366,-0.5251498222351074,-0.7762181758880615,-0.904567539691925,0.717172384262085,-0.2024381011724472,0.4436166286468506,-0.17439109086990356,0.16800564527511597,0.7836480140686035,0.6129294037818909,-0.5472627282142639,-0.2789500951766968,-0.6111857295036316,1.1504175662994385,0.13385532796382904,-0.1580105721950531,1.4840432405471802,-0.7278497219085693,-0.38940224051475525,0.7894623875617981,-1.611019253730774,-0.3736717402935028,0.10853686928749084,-0.5988078117370605,0.16082365810871124,-0.06613947451114655,0.5552400350570679,-0.29342225193977356,0.39980125427246094,-0.5648180246353149,0.050827957689762115,0.14067836105823517,-0.5110531449317932,0.6403217911720276,-0.677402913570404,-0.4165944755077362,-0.1949220895767212,1.4813528060913086,-0.6614514589309692,0.1632228046655655,-0.1573314219713211,1.4566956758499146,-0.5049123764038086,0.6632927656173706,1.5941033363342285,-1.2556272745132446,0.3867434561252594,-0.691322386264801,-1.2993184328079224,-0.2073022574186325,0.16768553853034973,0.048247288912534714,-0.11641481518745422,-0.4739706218242645,-1.3221808671951294,0.42219123244285583,-0.16674546897411346,-0.39956173300743103,-0.0035530722234398127,-0.5691512823104858,0.35535332560539246,0.15309149026870728,-0.10827279090881348,-0.5805813670158386,-1.2606594562530518,0.25179219245910645,-1.175484538078308,-0.28776636719703674,-1.9658921957015991,-0.12760986387729645,-0.3187747001647949,-0.8783077001571655,-0.575219452381134,1.6914517879486084,-0.1753786951303482,0.05528101697564125,-0.16753660142421722,0.07789300382137299,-0.15350820124149323,-0.26314297318458557,-0.29909566044807434,0.4724991023540497,-0.915736734867096,0.576802670955658,-0.0576905757188797,0.0964675098657608,-0.15896138548851013,-0.0528997965157032,0.018674299120903015,-0.5802651643753052,-0.04332411289215088,-0.5964687466621399,0.15503382682800293,0.9859287738800049,0.36408665776252747,0.7031964659690857,0.6337348222732544,-0.8699544072151184,1.2021222114562988,-0.21269157528877258,0.1321873664855957,-0.7206608057022095,0.005663597956299782,-0.08154615759849548,-1.114928126335144,-0.6119264364242554,-0.2740839719772339,-1.2421319484710693,-0.3084060847759247,-0.2852654755115509,0.36924946308135986,-0.2486722469329834,-1.4815994501113892,-0.1803310364484787,1.362628698348999,-1.5070419311523438,0.7688434720039368,-0.02498222328722477,0.20758084952831268,0.4919622838497162,-0.7888414263725281,0.4478001296520233,-0.3126297891139984,0.5303182005882263,0.692265510559082,-1.6573313474655151,0.04104935750365257,-0.6676554679870605,0.16592638194561005,-0.350135862827301,-0.36661088466644287,0.6290901303291321,0.15756651759147644,0.8814736604690552,0.3303557336330414,-0.5564797520637512,0.9438555836677551,0.3365615904331207,-1.330448031425476,0.46251755952835083,0.9076694250106812,-0.030125338584184647,-0.3532542586326599,-0.2746720016002655,0.9868367910385132,0.1051085963845253,-1.4143602848052979,1.0964716672897339,-0.3974909484386444,-0.9405825138092041,-0.5228046774864197,-0.7945932745933533,0.15889951586723328,-1.4898208379745483,0.3452453315258026,-0.2903708815574646,0.3542204201221466,1.3557088375091553,-0.09410521388053894,0.792199432849884,1.5267025232315063,-0.9852308630943298,1.6194469928741455,0.5433379411697388,0.24574638903141022,0.18354086577892303,0.04280904307961464,-0.4509437382221222,-0.3797985315322876,-0.31704363226890564,0.5853129625320435,-0.5251657962799072,0.015205595642328262,0.48155272006988525,-0.07311002165079117,0.5643832683563232,0.8337090015411377,0.2944125831127167,-0.7601765990257263,0.8336793780326843,-0.4195908010005951,-0.180175319314003,0.621947705745697,0.45885714888572693,0.2694873511791229,0.006000713910907507,-1.928952693939209,-0.28695181012153625,1.1602482795715332,-0.9366468787193298,-0.7109095454216003,-0.9479954242706299,-0.17027468979358673,-0.42567726969718933,-0.7147505283355713,0.28692713379859924,0.8139018416404724,0.7710077166557312,-0.45435959100723267,0.5182534456253052,-1.1273404359817505,-0.5938125848770142,-0.6538479328155518,0.09690040349960327,-0.5342811346054077,0.5527061223983765,-0.3810542821884155,-0.5172588229179382,-0.6854779720306396,-0.9661995768547058,-0.9829997420310974,-0.4723123610019684,-0.2915731966495514,-0.4116276502609253,1.8064550161361694,0.07087145745754242,-0.26708704233169556,-0.594038724899292,0.3357161283493042,0.33526307344436646,-1.8311723470687866,0.5283671617507935,-0.22030536830425262,-0.2089625895023346,0.5449602007865906,-0.7284913659095764,0.621728777885437,-0.3747284412384033,-0.706226646900177,-1.4987190961837769,0.20665957033634186,-0.4658527374267578,0.7540134787559509,0.6605879068374634,-0.6267789602279663,0.7202083468437195,-0.2658984065055847,0.10719643533229828,0.6201541423797607,0.5739468336105347,-0.24496805667877197,-0.2935499846935272,-0.7178282141685486,-0.031694378703832626,0.2134835124015808,0.9829630851745605,-0.2817540466785431,0.5187863111495972,-1.204921007156372,-1.6122751235961914,0.4735226631164551,0.2459777593612671,0.13113129138946533,-0.3743123710155487,-0.8992875814437866,-0.0655377134680748,0.7248249053955078,-0.6103594303131104,0.5874956846237183,0.4393317997455597,0.9764084219932556,0.6159489750862122,0.8801952004432678,1.1256152391433716,-0.573429524898529
b'\xe7\x94\xb5\xe5\xad\x90\xe6\x98\xbe\xe5\xbe\xae\xe9\x95\x9c',-0.5508750677108765,-0.034298110753297806,0.2030072808265686,-0.6214614510536194,0.2471161037683487,0.4969141185283661,0.3160354495048523,-0.4721861183643341,0.4245047867298126,-0.08004675805568695,-0.6726135015487671,-0.14493094384670258,0.7266563773155212,-0.22457945346832275,-0.26390978693962097,-0.09770084172487259,-0.04706602916121483,-1.2814303636550903,-0.570644736289978,0.06367294490337372,-0.12925459444522858,-0.7568559050559998,0.14525267481803894,-0.10905253142118454,0.5336325764656067,-0.06728370487689972,0.40338850021362305,-0.9236507415771484,-0.02338399365544319,-0.3278762698173523,0.40086081624031067,0.03950412943959236,-0.02200539968907833,0.3343280851840973,0.12117082625627518,-0.7589899897575378,0.743705689907074,0.22860540449619293,0.5386255979537964,-0.5560958981513977,0.15923458337783813,0.9879212379455566,-0.6741371154785156,0.04762621596455574,0.07543795555830002,-0.5254754424095154,-0.06959294527769089,-0.22799746692180634,0.24007943272590637,0.08520577102899551,-0.7378911972045898,0.6372426152229309,-0.14679719507694244,0.0985882356762886,-0.04709821939468384,-0.7325337529182434,-0.4666019678115845,-0.06563685834407806,-0.2728181779384613,-0.3397887945175171,-1.1249123811721802,-0.34708842635154724,0.636536180973053,-0.16606348752975464,0.6712726950645447,-0.3710929751396179,-1.0523231029510498,-0.8580023050308228,-0.3034873902797699,0.3432929217815399,-0.06460848450660706,0.013387189246714115,-0.1502259522676468,0.9100629687309265,-0.312185674905777,0.1380879133939743,-0.08562969416379929,0.415144681930542,1.3921231031417847,0.4146057069301605,-0.13404954969882965,0.5339199304580688,1.0401623249053955,-1.3740986585617065,-0.31409990787506104,-0.17072038352489471,0.5294849872589111,1.0918203592300415,0.3748490512371063,-0.18316352367401123,0.22273609042167664,0.6807169318199158,-0.037315573543310165,0.20979006588459015,0.13748210668563843,0.12251077592372894,-0.30375951528549194,-0.082007497549057,0.32007545232772827,0.4344867169857025,0.012445599772036076,-0.31220072507858276,-0.49471741914749146,-0.114686019718647,0.12872938811779022,0.244255930185318,-0.2684674859046936,1.2734928131103516,0.5671581029891968,-0.055706433951854706,-0.23215113580226898,0.3516608476638794,0.36044853925704956,-0.21449927985668182,-0.413579523563385,0.7969843149185181,-0.9377274513244629,-0.2823110520839691,-0.367685467004776,0.39373379945755005,0.1307022124528885,0.15144792199134827,-0.24716560542583466,0.3781954348087311,-0.2741738259792328,-0.0678701177239418,0.9015294909477234,-0.6779947280883789,-0.23342560231685638,0.8587620854377747,0.0621151365339756,0.6480761766433716,-1.2952098846435547,-0.007112440653145313,-0.22115091979503632,0.7027849555015564,-0.290735125541687,-0.48521506786346436,0.2050676792860031,-0.1679057627916336,0.588216245174408,-0.37388476729393005,-0.02029469981789589,1.094620943069458,-0.01435091532766819,-0.031581804156303406,0.6203920245170593,-0.45115962624549866,0.41456207633018494,0.17363081872463226,0.4461418688297272,0.9168601036071777,-0.5860297679901123,0.3104627728462219,0.19382286071777344,-0.35972195863723755,0.13036948442459106,-0.17990335822105408,-0.18831974267959595,0.0763673260807991,0.020345402881503105,0.6079099774360657,-0.029453715309500694,0.3302886188030243,-0.23924829065799713,-0.006447103340178728,0.8832452297210693,-0.555448591709137,0.27913182973861694,-0.3142271935939789,-0.4966259002685547,-0.015253691002726555,1.3305766582489014,0.902807891368866,-0.5614515542984009,0.38642314076423645,0.8020144701004028,-0.28080594539642334,0.43729859590530396,1.3787277936935425,-1.2281241416931152,0.1346297711133957,0.18834127485752106,-0.4342963397502899,-0.2962667644023895,0.09744539856910706,0.26763996481895447,0.07382092624902725,-0.571312427520752,-0.23671506345272064,-0.03211513161659241,0.5740112662315369,0.3404267728328705,0.08983837813138962,-0.28856053948402405,-0.2602805197238922,0.045649513602256775,-0.20295175909996033,-0.9705847501754761,-0.3659913241863251,0.7868250608444214,-0.32339590787887573,-0.35043561458587646,-0.8981919884681702,0.06435337662696838,0.3014650046825409,0.34716278314590454,0.10653163492679596,0.6481736302375793,-0.14441238343715668,-0.4255092442035675,-0.4804282784461975,-0.18383671343326569,0.8458746075630188,0.01636221818625927,-0.002422991441562772,-0.21217229962348938,-0.26716750860214233,0.41285741329193115,-0.8012068867683411,-0.44901230931282043,-0.7697036862373352,0.1878460794687271,1.2979276180267334,-0.9542540907859802,0.16892555356025696,-0.19583076238632202,-0.5960374474525452,1.0310496091842651,-0.7373780608177185,0.94486004114151,0.3829025626182556,-0.2789763808250427,0.5605230331420898,0.7270338535308838,0.37439554929733276,-0.6305813193321228,0.5271840691566467,-0.3898952305316925,-0.5690423250198364,-0.3829827308654785,-0.6683083176612854,-0.7796676158905029,-0.516430139541626,-0.3652365207672119,0.8446226119995117,0.25168830156326294,-0.7482694983482361,-0.29484015703201294,0.6504468321800232,-0.3849143087863922,-0.043389156460762024,-0.14834249019622803,0.3401873707771301,0.5143161416053772,-0.16730788350105286,0.5379288196563721,-0.1418898105621338,0.6147658824920654,0.41828563809394836,-0.7956152558326721,0.13739702105522156,-0.8382931351661682,-0.15081141889095306,0.13988932967185974,0.4358959496021271,0.8418791890144348,0.2228526622056961,0.5101351141929626,-0.5826098918914795,-0.20966961979866028,0.10996414721012115,0.8957074880599976,0.302144855260849,0.06672941148281097,-0.18590830266475677,-0.6583593487739563,0.026252267882227898,-0.4939122200012207,0.4482322633266449,-0.4849819839000702,-0.4038604199886322,1.2059931755065918,-0.25755178928375244,-0.9626373648643494,0.24288254976272583,-0.3048021197319031,0.2748318910598755,-0.48626723885536194,-0.008399171754717827,-0.36055174469947815,0.15067733824253082,0.23309426009655,0.15915079414844513,-0.2947697043418884,0.8207919001579285,-1.0701477527618408,0.5470695495605469,-0.2779679298400879,-0.700262188911438,1.121938943862915,-0.45834699273109436,-0.2539549767971039,-0.4181651771068573,0.32393577694892883,-0.2473626285791397,-0.5229758620262146,-0.7570700645446777,-0.8258070945739746,0.22089602053165436,-0.008068155497312546,0.3410508632659912,0.6308236122131348,-0.47185173630714417,0.28939321637153625,-0.7975915670394897,-0.4444599747657776,-0.3849312365055084,-0.10384973883628845,-0.3218318819999695,0.14386509358882904,-1.1730271577835083,0.2716027498245239,0.32490649819374084,-0.7324785590171814,-0.13602887094020844,-0.6707617044448853,-0.5267132520675659,0.4991692304611206,0.12135392427444458,-0.4080708920955658,0.4044528901576996,0.0006490289233624935,-0.8521756529808044,0.4171631336212158,-1.088828682899475,-0.4469555914402008,-0.4133894145488739,-0.9824787378311157,-0.9660637974739075,0.05771064758300781,-0.40208739042282104,-0.2513865828514099,-0.9614706039428711,-0.6594127416610718,-1.1008278131484985,0.2667939066886902,0.3911559283733368,0.2618410587310791,0.6735947132110596,-0.2163940668106079,-0.4893879294395447,0.041750624775886536,-0.28795358538627625,-0.08076877892017365,-0.9659717679023743,0.37813591957092285,-0.5493411421775818,-0.21130235493183136,0.10473166406154633,-0.05842433124780655,0.3736180365085602,0.2375851422548294,-0.4979774057865143,-1.3942278623580933,-0.8228786587715149,-0.29471585154533386,0.7061211466789246,0.6159425973892212,-0.8741695880889893,0.2580367922782898,-0.3983041048049927,1.1453406810760498,0.8243237137794495,0.22913290560245514,-0.3307640552520752,-0.3677000403404236,-0.7330841422080994,0.5989917516708374,0.0933593213558197,0.19941619038581848,-0.04534585401415825,0.39374205470085144,-0.33386948704719543,-0.96656334400177,-0.01881679706275463,0.8063017129898071,-0.41216346621513367,-0.2656992971897125,-0.6175490021705627,0.2361738681793213,0.5635981559753418,-0.5969139933586121,-0.05341743305325508,0.7054628133773804,0.5122811198234558,0.5808339715003967,0.2511870563030243,0.7973132133483887,-0.5600771903991699
b'\xe5\x88\xb6\xe5\xa4\x87',0.5564718842506409,0.5762926936149597,1.1359279155731201,-0.32096800208091736,-1.1949163675308228,0.12746413052082062,-0.5350369811058044,-1.2011322975158691,2.2308480739593506,0.413806289434433,-0.30102038383483887,0.7027900815010071,-0.23777668178081512,-2.275749921798706,-0.962520182132721,0.7448076605796814,-0.29540690779685974,-1.4121991395950317,-0.19030487537384033,0.12896372377872467,-0.2933313250541687,-0.9458574652671814,1.5329736471176147,-1.0907927751541138,-1.2619383335113525,0.6214448809623718,0.41438522934913635,-2.1532671451568604,0.6567473411560059,-0.5138346552848816,1.4828064441680908,-0.20673947036266327,1.4867167472839355,1.3086503744125366,-0.12502039968967438,-0.20937427878379822,0.8060730695724487,0.907454252243042,-0.2395438402891159,0.6965647339820862,-0.48709163069725037,-0.5904147028923035,-1.1028193235397339,-0.04072295129299164,-0.48069003224372864,-0.7915751338005066,-1.9224638938903809,1.03782057762146,-0.1809478998184204,-2.542095899581909,-0.9660013318061829,1.8711698055267334,-1.6533677577972412,1.5470950603485107,0.2927752733230591,1.4873753786087036,0.3919367492198944,-1.122546911239624,1.7449560165405273,-0.07350925356149673,-2.4276819229125977,1.286647081375122,0.029827827587723732,-1.2701925039291382,1.050452709197998,-0.973121166229248,-0.5888188481330872,-1.5242491960525513,1.1013097763061523,1.9062570333480835,-0.026761500164866447,-0.9977596998214722,-0.1490320861339569,-0.004033813718706369,-0.3446832597255707,0.6550928354263306,0.03834354504942894,-0.5574459433555603,1.394199252128601,-1.7457048892974854,-1.5484260320663452,0.3708725869655609,1.9404714107513428,-0.8187300562858582,0.3335345983505249,0.3045163154602051,0.21001069247722626,-0.2748187184333801,0.5876849889755249,0.4161757230758667,-0.2476387470960617,1.1291178464889526,-0.31258299946784973,-1.1947232484817505,0.37768828868865967,-0.3983721137046814,-2.447774887084961,0.20935241878032684,0.7364637851715088,-1.0139179229736328,0.21333059668540955,-0.09521155059337616,0.440961092710495,0.9886391162872314,-0.14156650006771088,0.1389222890138626,-1.2540831565856934,2.178968906402588,0.76034015417099,1.3375251293182373,-1.8975276947021484,-0.07112280279397964,0.7560171484947205,-0.8109702467918396,-1.1430318355560303,1.1477186679840088,1.384737253189087,0.01828872784972191,0.11710350960493088,-0.13379967212677002,-0.6635773777961731,0.7561184167861938,-1.4492220878601074,0.6903004050254822,0.5634292960166931,0.8183692693710327,1.4281699657440186,-0.42303574085235596,-0.14902274310588837,1.095099687576294,-1.267254114151001,2.960367441177368,-1.6296499967575073,0.372061550617218,-0.2895438075065613,1.6478922367095947,1.489019751548767,-2.399162769317627,-1.0826642513275146,0.47784024477005005,0.6450143456459045,-1.1562178134918213,0.21132679283618927,-0.5594293475151062,1.163872241973877,0.1139010339975357,-0.3681885302066803,0.4781762659549713,0.3050728738307953,-0.0030588828958570957,-0.14168372750282288,1.32608962059021,-0.6561455726623535,0.505064070224762,0.09105689078569412,-0.18597039580345154,-0.7237327694892883,0.23319916427135468,0.4381032884120941,-0.410749226808548,-0.6487480401992798,1.1473673582077026,-0.5107565522193909,1.4587275981903076,-0.9477295279502869,-0.37001538276672363,-0.28969085216522217,-0.5298754572868347,0.4553128182888031,-1.0548120737075806,-0.15106220543384552,0.573562741279602,1.3800294399261475,-0.2979201674461365,0.8388025760650635,0.5543604493141174,1.2061258554458618,-0.3250218629837036,0.3529810309410095,2.00476336479187,-1.5942320823669434,0.14253564178943634,-1.2156500816345215,0.55373615026474,0.4776779115200043,-1.475684404373169,0.8244961500167847,1.056447148323059,-1.43905508518219,-1.655563473701477,-0.8426868915557861,-0.4959016442298889,0.3648410141468048,-1.1199010610580444,-1.189189076423645,0.5237022638320923,-0.687092661857605,-1.0969313383102417,-0.49865034222602844,-2.6901917457580566,0.25760018825531006,-1.322916030883789,-1.1418348550796509,-2.1233723163604736,-0.4762818217277527,0.5031298398971558,0.028293980285525322,-1.880244493484497,1.3098622560501099,-0.340569406747818,0.4894743859767914,-0.07839860767126083,-0.5006161332130432,0.5968327522277832,-0.16137388348579407,1.204280138015747,1.341018795967102,-0.5771998763084412,0.34996047616004944,-0.7887063026428223,0.2071373015642166,-0.7808452844619751,1.069287657737732,0.0593823567032814,-0.2009156048297882,-1.98273503780365,-0.48561957478523254,-0.9412990212440491,2.2960429191589355,0.6929829716682434,0.5170446634292603,1.253878116607666,-1.1095227003097534,1.2842998504638672,0.39870673418045044,0.4577491879463196,-1.5492583513259888,1.1812909841537476,1.7001969814300537,-2.130923271179199,-1.1194254159927368,-0.9056490063667297,-2.1422553062438965,-1.0164262056350708,0.586715042591095,0.09150084853172302,0.17211303114891052,0.3313642144203186,1.219667673110962,1.1839543581008911,0.5534913539886475,-0.8973872661590576,1.351768136024475,-1.4763864278793335,0.7393854856491089,-0.15099947154521942,0.3435727059841156,0.6271092891693115,0.8466472625732422,-0.6159408092498779,-0.13740915060043335,-0.4267764985561371,-1.6358983516693115,0.77029949426651,0.8653107285499573,-0.32746389508247375,1.4243052005767822,1.425422191619873,2.0483882427215576,0.452043741941452,0.31939688324928284,1.3563209772109985,0.6887261867523193,-1.7653169631958008,0.5905967354774475,-2.012988328933716,-0.2043270766735077,-1.3173706531524658,-0.9147866368293762,0.4910854399204254,-1.1580548286437988,0.28055301308631897,0.9539981484413147,0.27591004967689514,0.6571749448776245,0.6750997304916382,-0.12334774434566498,1.3857735395431519,-0.088226817548275,0.42787620425224304,-0.6903759837150574,0.11597558856010437,1.2730753421783447,-0.1824934184551239,-0.3552848994731903,1.1773494482040405,-0.7645330429077148,2.2031285762786865,0.24084539711475372,0.45050129294395447,0.8647290468215942,-1.0078665018081665,0.9224934577941895,-1.8285905122756958,-0.09318356215953827,-1.170092225074768,1.150518536567688,-0.5532565712928772,0.5965078473091125,1.1334648132324219,-0.7985139489173889,-0.12657058238983154,-0.6107412576675415,-0.3541535437107086,0.7959499955177307,-1.3648751974105835,0.4173598289489746,0.8548732399940491,-0.4258120059967041,-1.5035245418548584,-0.7245851755142212,-1.1398265361785889,-0.15150295197963715,-0.05546144023537636,-1.725307822227478,-0.8104150891304016,-0.2967894375324249,0.22882208228111267,0.16536477208137512,-0.5567952990531921,0.836903989315033,1.486570119857788,0.5733786225318909,-2.242265224456787,0.5837607979774475,-0.7646551728248596,-1.7210979461669922,0.7643532156944275,-0.5922545194625854,0.10715215653181076,-0.3670535385608673,0.30382034182548523,-0.31996870040893555,-0.2687077522277832,-2.105985403060913,0.13459554314613342,-1.21853506565094,-0.296468585729599,0.044196151196956635,0.7157893180847168,0.8969805836677551,-2.5810744762420654,-1.7257131338119507,-0.1318129003047943,0.13212162256240845,-1.9327692985534668,1.5790175199508667,0.31437966227531433,-0.7178562879562378,0.30565395951271057,0.023994993418455124,0.9758673906326294,-0.47323474287986755,0.5879656672477722,-2.9317970275878906,0.5081847906112671,0.21490821242332458,0.7742630839347839,-0.22522129118442535,-0.21116840839385986,1.5429084300994873,0.34134939312934875,0.5691375732421875,1.7578892707824707,-0.1515820175409317,0.056753043085336685,-2.337451219558716,-0.5119922757148743,0.8309452533721924,1.763035774230957,0.9190726280212402,-0.48960474133491516,-0.18789106607437134,-1.7563499212265015,-0.46556469798088074,-0.7091302275657654,-1.0192294120788574,-0.6623512506484985,0.37995386123657227,-1.723645567893982,-0.8440122604370117,0.882841944694519,-0.5062816143035889,-0.6249930262565613,2.0863752365112305,1.7026721239089966,-1.123727560043335,1.2247705459594727,0.716280460357666,1.8671008348464966
b'\xe5\xb9\xbf\xe6\xb3\x9b',2.0819075107574463,1.0752493143081665,2.099050521850586,-1.4077763557434082,-1.0128060579299927,0.7490139007568359,-0.1682104617357254,-1.1380890607833862,3.2938928604125977,2.1402266025543213,-1.8871618509292603,-1.1703317165374756,0.28387579321861267,-0.26175934076309204,-1.7677677869796753,-1.9630348682403564,-1.122959017753601,-0.09062518179416656,-2.3985817432403564,-0.6375364661216736,-1.2029998302459717,0.7850009202957153,0.31461071968078613,-0.19911238551139832,0.8564788699150085,0.8614166378974915,0.10321389138698578,-1.8502572774887085,0.7840913534164429,1.6492106914520264,1.8944170475006104,1.7985557317733765,-1.1141959428787231,1.1875543594360352,-0.5438059568405151,-0.7298334240913391,0.2185974419116974,-1.9609860181808472,0.995338499546051,1.424068570137024,0.06032582372426987,-0.03511669486761093,-0.9608352780342102,-0.3962022662162781,0.5983151197433472,-1.4273086786270142,-1.1112959384918213,1.173557162284851,-1.2563741207122803,-2.168961524963379,0.29053640365600586,0.4545891284942627,-0.3673310875892639,0.18031491339206696,-0.9491097927093506,2.7684555053710938,-0.011146042495965958,-0.4708397090435028,-4.621216773986816,1.3817697763442993,-1.092240333557129,2.0684309005737305,-1.032886028289795,-1.7674810886383057,-1.881429672241211,-1.223374605178833,-0.6333409547805786,-0.8606656193733215,-0.35468587279319763,0.7663543820381165,0.7179693579673767,-1.1834243535995483,-1.6061030626296997,0.9313136339187622,-1.2312053442001343,0.01332771498709917,1.1009633541107178,-1.1941901445388794,1.4368882179260254,-2.0325918197631836,1.7871278524398804,-0.284185528755188,1.3022767305374146,-2.6808810234069824,-1.660161018371582,0.5367982983589172,0.36905437707901,-0.9665234088897705,0.9640121459960938,0.13335447013378143,1.8474153280258179,0.12724235653877258,-1.4480863809585571,0.7634330987930298,-1.1986202001571655,2.611828327178955,-0.2719108760356903,-1.563781499862671,1.4732639789581299,0.264562726020813,0.09720035642385483,1.6017905473709106,1.5993555784225464,1.4189343452453613,-0.25400781631469727,0.20390361547470093,1.1599348783493042,0.8548747301101685,0.6498489379882812,2.0292115211486816,-0.016622144728899002,1.1601543426513672,1.6214604377746582,-0.24525333940982819,2.0152339935302734,0.2762397825717926,0.3163767457008362,0.8791550397872925,0.4048602283000946,-0.227722629904747,1.9215459823608398,-0.2112409919500351,-2.0289249420166016,2.483107566833496,0.035597220063209534,1.8237731456756592,0.03524942323565483,-0.9812272191047668,-0.08212738484144211,0.0556768923997879,-0.7756832838058472,1.994832992553711,-0.6612977981567383,0.4403214752674103,-1.2590092420578003,-0.7056424617767334,0.9409132599830627,-1.0724372863769531,-1.5857704877853394,0.3585280478000641,-0.7632505297660828,-1.2873914241790771,2.9355311393737793,-0.29824307560920715,-1.1245338916778564,0.2538401782512665,0.7056217789649963,0.3904876410961151,2.814232587814331,0.3792715072631836,2.7381045818328857,0.15306904911994934,0.4995441138744354,0.24539272487163544,-0.29788729548454285,-0.5761022567749023,1.084018349647522,-0.772686779499054,0.4603743553161621,1.071302890777588,0.18192805349826813,0.6654791831970215,-0.4436030387878418,-0.469890832901001,1.826171636581421,-1.7405123710632324,-0.31049561500549316,0.4469500184059143,0.41826266050338745,0.16835495829582214,-0.3381938934326172,-0.30768832564353943,-0.2653062641620636,0.24830348789691925,0.5183174014091492,-0.7424531579017639,0.332017183303833,-0.4346599876880646,1.1293952465057373,-0.8589151501655579,-0.5478249788284302,1.9314852952957153,-0.5077643394470215,1.2222684621810913,0.7262406945228577,-0.17311139404773712,0.7983085513114929,1.174700379371643,-0.7031022310256958,-1.5426011085510254,1.5117449760437012,0.34637126326560974,-0.3832082152366638,0.8402672410011292,-0.867965579032898,0.271047979593277,0.8572255373001099,-0.74886155128479,-0.9811715483665466,-0.6829814314842224,0.9503389000892639,-1.5333006381988525,0.2506779730319977,-2.1666955947875977,0.05678948760032654,0.8700389862060547,-0.3669247031211853,-1.1310416460037231,0.6513055562973022,0.7241241335868835,1.0748357772827148,2.140345335006714,0.29226765036582947,0.29412341117858887,2.1639556884765625,1.8798564672470093,-0.021165359765291214,-1.6567353010177612,0.23661257326602936,1.487709641456604,0.6867607831954956,-0.7214608192443848,-0.8491101861000061,-0.305950790643692,0.196258544921875,1.364071011543274,0.849416971206665,-0.9882272481918335,0.9023512005805969,0.7685946822166443,0.16626949608325958,0.03625841066241264,-0.4632066786289215,-0.8282551765441895,0.18232369422912598,0.6764333248138428,-0.7158878445625305,-0.5816861391067505,-0.5958952307701111,-0.01959897018969059,0.4216761291027069,0.781831681728363,-3.6512627601623535,0.5276077389717102,0.05144593119621277,-0.2551738917827606,-0.4272298216819763,0.843599796295166,-0.5094306468963623,-0.3588232398033142,1.173316240310669,2.3094422817230225,-1.2825725078582764,1.4058492183685303,0.25279152393341064,-2.9419009685516357,0.17705129086971283,-0.97165846824646,-2.27154541015625,0.48239535093307495,0.09252391010522842,-1.3952349424362183,-0.5742917060852051,-0.39842119812965393,-1.7681885957717896,-0.026528924703598022,1.1984307765960693,0.39948004484176636,-1.1962658166885376,0.11897817254066467,-0.4946273863315582,1.179919958114624,-1.539975881576538,-0.23951122164726257,0.40350303053855896,1.0756561756134033,-0.6677824854850769,0.38459259271621704,0.040130287408828735,0.5332322120666504,-0.19076885282993317,0.706603467464447,-1.0244060754776,-1.1413969993591309,0.7956042289733887,-2.3820972442626953,0.7458143830299377,1.4788368940353394,1.7865158319473267,1.3201909065246582,0.817869246006012,-1.1745961904525757,1.6309099197387695,-1.4528324604034424,-1.3975794315338135,1.8901567459106445,-1.3959141969680786,1.4790915250778198,-1.12549889087677,0.7162522673606873,-0.4111795127391815,-0.2232862114906311,-0.3513079881668091,0.48085737228393555,0.5618492960929871,0.509774386882782,-0.1422189176082611,-1.8436545133590698,0.922407329082489,0.6460040211677551,1.155185580253601,0.029188042506575584,-0.6131936311721802,1.1700701713562012,-1.0966662168502808,-0.8118470311164856,0.1705840826034546,-0.7763663530349731,-0.18797409534454346,-1.0886462926864624,-1.4718451499938965,-0.4106106460094452,0.9842796921730042,1.0721948146820068,-0.7668615579605103,-0.28647491335868835,-1.3857216835021973,-0.8373669981956482,0.3537527620792389,-0.6990983486175537,-0.025932978838682175,1.1320880651474,0.21972113847732544,-0.6714268326759338,1.7121171951293945,0.7088309526443481,-0.5743897557258606,0.48315343260765076,0.14842915534973145,-2.9314045906066895,-1.8118329048156738,0.1773780733346939,0.48169687390327454,-0.9699259400367737,-0.615873396396637,-0.7870197296142578,0.0840298980474472,0.25618284940719604,-0.6307042837142944,0.13257257640361786,-0.11464077234268188,0.19643738865852356,-1.6415507793426514,0.4448608160018921,1.9721710681915283,-2.257215738296509,1.3045258522033691,-0.11312784254550934,-0.27783507108688354,-0.7098550200462341,-1.8881789445877075,0.3402530252933502,-2.0221078395843506,1.244659185409546,-1.0786625146865845,0.5874086618423462,-1.399274468421936,0.6243294477462769,0.6300583481788635,-0.8990901708602905,0.2260025441646576,1.0283161401748657,0.7192071080207825,-0.48498502373695374,0.23420768976211548,-0.5056378841400146,0.3671918213367462,0.28920799493789673,0.9730900526046753,-1.3628783226013184,0.9628154039382935,0.6900293231010437,0.10817501693964005,0.22246430814266205,-0.17464633285999298,0.5275619029998779,-0.7856103181838989,1.6106404066085815,-0.09507988393306732,0.5254374742507935,1.825903296470642,0.8373550772666931,1.1424006223678589,2.000760078430176,0.11316899955272675,1.5955383777618408,-2.5816147327423096,-1.0318845510482788,0.05146586522459984,-0.5621156096458435
b'\xe5\x8c\x96\xe5\xb7\xa5',-0.1871209740638733,-0.9530918598175049,-0.8949582576751709,-1.0000901222229004,1.3349823951721191,0.6015384197235107,0.5278922319412231,-0.4486047029495239,0.7189972996711731,-0.5881455540657043,0.6278361678123474,1.2492468357086182,-1.324272871017456,-0.046115875244140625,0.11391420662403107,-0.1267046332359314,-0.3208264112472534,-0.22688312828540802,0.09604158997535706,-0.009221132844686508,1.0361294746398926,-1.3493684530258179,-0.607470691204071,-1.3490805625915527,-0.5324776768684387,0.3214191496372223,-0.12303759902715683,-0.09609384834766388,1.2956488132476807,0.192917600274086,0.549724280834198,0.7113490104675293,0.39813223481178284,0.06132091209292412,0.569040060043335,-2.2768630981445312,0.1012338250875473,-1.1249890327453613,0.2406730055809021,-0.49986138939857483,-0.2346736341714859,-1.50919508934021,-0.6353973150253296,1.0685521364212036,-0.5064787268638611,0.0691991075873375,-0.3414117395877838,-0.003331415355205536,-0.42158243060112,-0.22708165645599365,0.3509601354598999,-0.07010414451360703,0.7273232936859131,-0.3836475908756256,0.24850866198539734,0.25213855504989624,1.106412649154663,1.0751861333847046,1.4556535482406616,0.8368044495582581,-1.4445126056671143,0.6536281108856201,0.7357467412948608,-0.49030977487564087,1.2503938674926758,1.0628981590270996,0.1222430020570755,0.1132206842303276,0.9676418900489807,-0.129669651389122,-0.41409018635749817,-1.092958688735962,-0.4049549102783203,-0.9644759297370911,-1.9256937503814697,1.0254242420196533,-0.7027806639671326,1.4096548557281494,1.0685875415802002,0.7200155854225159,-0.3468294143676758,1.5237469673156738,1.3980966806411743,-1.4897946119308472,0.22088542580604553,-0.3142825961112976,-0.26173853874206543,-0.31802040338516235,0.8047818541526794,-0.3734029531478882,-0.13113859295845032,0.39050865173339844,0.03319893032312393,-0.25301963090896606,0.31338149309158325,-1.565779447555542,0.8971839547157288,-0.09137438982725143,-0.0801563411951065,-1.929984211921692,-0.6638946533203125,-0.0012268644059076905,0.6247819066047668,-1.0606532096862793,0.45890313386917114,0.8944755792617798,-0.9386545419692993,0.32207953929901123,-0.002300732536241412,1.0044852495193481,0.023533886298537254,1.7156392335891724,0.2835548520088196,0.7241013646125793,0.7046853303909302,-0.4338274300098419,2.2509312629699707,-0.2393287569284439,1.6316152811050415,-0.8495294451713562,-0.3380969166755676,1.2756433486938477,-0.9119680523872375,0.38410133123397827,-0.5051355957984924,1.2062554359436035,0.47177770733833313,-0.05172940343618393,-1.5412133932113647,1.4728940725326538,0.9517835974693298,0.21046118438243866,-0.4363050162792206,-0.9878650307655334,-0.3738265931606293,-0.8865350484848022,-0.8929368853569031,-0.8941736817359924,-0.4313476085662842,0.002887293929234147,-0.7829218506813049,-0.13174313306808472,-1.4637056589126587,-0.9443973302841187,1.447189450263977,0.26014310121536255,0.09604287147521973,-1.290635108947754,0.005877548363059759,-0.21286888420581818,-0.6447681784629822,-0.03185730427503586,-0.8409345149993896,-0.5651893019676208,1.1904592514038086,0.2009136974811554,-0.39018934965133667,0.42261892557144165,-1.108540415763855,0.1693689525127411,0.10024759918451309,1.2198935747146606,-0.04146948456764221,0.9639852643013,-0.2616291046142578,0.9169092178344727,0.02924591489136219,0.0288944561034441,-1.4344149827957153,0.31473955512046814,-0.18606235086917877,-0.6786009669303894,-0.06299569457769394,-1.425518274307251,0.9761129021644592,-0.7983782291412354,0.5930396318435669,-1.5724492073059082,-0.4657103419303894,1.8672813177108765,-1.1265661716461182,-0.3934241235256195,0.7797314524650574,0.6502431035041809,-0.21120011806488037,-0.9044206142425537,0.6388069987297058,-0.9013896584510803,-1.723872184753418,-1.9096657037734985,-1.6823115348815918,0.3521798551082611,0.8383410573005676,0.02379092574119568,1.2878140211105347,-0.241814523935318,0.30702391266822815,0.1994631588459015,0.5209642648696899,-1.1729092597961426,-1.1174732446670532,0.34789177775382996,0.44986477494239807,-1.8614935874938965,-1.3481433391571045,-0.2720753252506256,-1.329663872718811,-2.5616204738616943,1.689733862876892,-0.09987645596265793,-0.6225496530532837,1.5838603973388672,-1.1950273513793945,-0.7610811591148376,0.3111575245857239,-0.32612231373786926,0.9245150685310364,0.945273220539093,-0.5509741902351379,0.2963523268699646,0.7394362092018127,0.007880636490881443,-0.3155216574668884,-0.3210168480873108,-0.4824843406677246,-1.0172277688980103,-1.1809022426605225,-0.20536547899246216,1.872318148612976,0.7161575555801392,0.7843953371047974,-0.18189722299575806,1.0844942331314087,1.3186317682266235,0.5514218211174011,0.30288147926330566,0.4506932199001312,0.6434357762336731,0.097746841609478,0.879284679889679,-1.401750087738037,-0.8256786465644836,0.3149223327636719,-0.3899114727973938,1.6824591159820557,-1.177544355392456,0.9964770674705505,0.04975983127951622,0.8261403441429138,1.2216546535491943,-1.1417644023895264,0.16666357219219208,-0.5083655118942261,-0.5591488480567932,-1.2967939376831055,1.4610432386398315,0.03350906819105148,0.052517931908369064,1.6607046127319336,0.8006567358970642,0.0006243690731935203,-0.3406662344932556,-0.7937105894088745,-0.17616276443004608,-0.3812655806541443,-0.1770201027393341,-0.022500060498714447,0.552725076675415,0.5022116303443909,0.8659037351608276,-0.7020745873451233,0.570936918258667,-0.30604931712150574,-1.8671618700027466,-1.0076024532318115,1.2618478536605835,1.2009400129318237,0.057919640094041824,0.49910885095596313,0.2259959578514099,1.1456457376480103,0.05867142230272293,-0.13468125462532043,0.8638446927070618,-0.3720828592777252,-1.5279009342193604,0.9324954748153687,0.11873041093349457,0.25700902938842773,1.0951449871063232,-0.30195245146751404,-0.20978115499019623,0.8643712997436523,0.6240094900131226,-1.1809983253479004,0.3498889207839966,-1.2754740715026855,0.7651739716529846,0.7414557337760925,0.1556684672832489,0.3063281178474426,0.20931071043014526,1.6559422016143799,-0.9515233635902405,-0.085983045399189,0.36909183859825134,-1.1683201789855957,0.5745728611946106,-0.5275934338569641,0.45683252811431885,0.4367993175983429,-1.3176177740097046,-1.1410795450210571,0.31157341599464417,-0.35091719031333923,0.3404639661312103,-0.26742246747016907,-0.4342411756515503,0.07604076713323593,-0.10959193855524063,-1.212011456489563,-2.055539608001709,0.335549533367157,0.6499443054199219,0.33821040391921997,-0.19220228493213654,-0.5202513337135315,0.3271045982837677,-1.5522021055221558,-1.782971739768982,1.3530746698379517,1.6703519821166992,0.5111076831817627,0.9915573000907898,1.976121187210083,-1.2755422592163086,-0.866496205329895,-0.995615541934967,0.8591703176498413,-0.1559586077928543,-0.12083148211240768,0.7603079080581665,-1.0671738386154175,0.9939291477203369,-0.24070049822330475,0.7532697319984436,-1.3370096683502197,-0.5830591320991516,0.26233726739883423,0.45489925146102905,-0.0638151466846466,0.4222221374511719,-2.1043460369110107,0.25425997376441956,1.6066620349884033,-0.11653811484575272,0.7482646703720093,-0.05926959961652756,0.21448521316051483,-1.3502618074417114,-0.7491448521614075,-0.02066049724817276,-0.9974659085273743,1.9162375926971436,-2.4540722370147705,-0.8953830003738403,-1.476199984550476,1.5278197526931763,1.5310498476028442,-0.6496528387069702,1.540956735610962,1.627130389213562,0.5127900838851929,0.008158023469150066,-0.33876919746398926,0.2754961848258972,-1.190512776374817,-0.5650452375411987,0.5123087167739868,2.0347378253936768,0.206712007522583,-1.1541378498077393,0.35839101672172546,-1.6841706037521362,-1.3383194208145142,-0.1451294720172882,0.10681669414043427,-1.004726529121399,0.6029326915740967,-0.36349377036094666,0.9999117255210876,-0.4357739984989166,0.11544328182935715,0.27604496479034424,1.8901432752609253,-0.25596633553504944,-0.704369068145752,1.1313915252685547,1.5736370086669922,1.6364340782165527
b'\xe9\xab\x98',-0.405183345079422,-0.3157658874988556,0.37767019867897034,2.4775562286376953,0.6063095927238464,0.21226583421230316,0.6518306732177734,0.382538765668869,0.2502407729625702,-1.3031349182128906,-0.6818544268608093,0.158294215798378,1.6486176252365112,-0.36982405185699463,-1.0304067134857178,-0.7530524134635925,-1.1438194513320923,-1.382665753364563,-0.9186827540397644,0.2227342575788498,0.5484417676925659,0.5651599168777466,1.1534546613693237,-1.948140025138855,1.241887092590332,0.5286328792572021,-0.4857173264026642,-1.6021835803985596,-1.9357666969299316,-1.7237180471420288,2.258791208267212,1.108290433883667,-1.072136640548706,-2.033738136291504,-1.7521402835845947,-1.9260817766189575,-0.1985076516866684,-0.3562566637992859,1.3558685779571533,0.04822535440325737,0.176639586687088,-0.8467301726341248,-2.4174468517303467,-0.7529085874557495,-1.0803515911102295,-1.643776297569275,-2.4397997856140137,2.8566792011260986,2.333383560180664,-0.05743255838751793,0.48894399404525757,2.292910099029541,-0.6924344301223755,1.0178617238998413,-0.5423389077186584,-1.1735038757324219,-1.0504471063613892,0.6698824763298035,0.2497282326221466,-0.6531182527542114,-0.9475483894348145,3.0053961277008057,-1.1841100454330444,0.10957536846399307,0.4432470202445984,-0.2534511089324951,-0.08466274291276932,0.4367563724517822,-0.10494545847177505,-0.4100114107131958,-0.9556161761283875,-0.08975616842508316,-2.0181939601898193,-1.9534454345703125,0.8999572992324829,0.7184880375862122,0.6095736622810364,-1.7905012369155884,-0.6174694895744324,0.020987676456570625,-0.27893418073654175,0.03266266733407974,1.4130401611328125,0.5795328617095947,2.679919719696045,2.230815887451172,0.42994487285614014,-2.3121273517608643,0.21576637029647827,-0.3128843903541565,0.6485961079597473,0.07156296074390411,-1.824541687965393,1.379187822341919,1.6100528240203857,0.8192861080169678,1.4676777124404907,-0.15540963411331177,-2.461686849594116,-1.7175135612487793,-1.1086503267288208,1.451644778251648,0.2788528501987457,1.3408035039901733,2.189777135848999,0.401957631111145,-0.43437257409095764,1.509515404701233,0.24901200830936432,-1.7951173782348633,-0.6394309997558594,-1.4871262311935425,1.8141182661056519,-1.5142754316329956,1.0461540222167969,0.8084293007850647,-0.4912286102771759,0.4688734710216522,-1.286353588104248,-1.2985092401504517,-1.528006911277771,-0.7507144808769226,-0.7307844161987305,-1.6236759424209595,1.5874851942062378,0.5386533141136169,0.686547040939331,-2.5682668685913086,0.28718605637550354,1.6148213148117065,-1.4161901473999023,3.493776798248291,-1.326810598373413,-1.762647271156311,2.17655348777771,0.786900520324707,-1.2052956819534302,0.48179420828819275,1.8265447616577148,-0.8922671675682068,0.16047367453575134,-2.533315420150757,1.7466821670532227,0.29977938532829285,0.1285262256860733,2.821528434753418,0.5443306565284729,1.370725393295288,0.6814166903495789,-1.014925479888916,1.122759222984314,0.9879684448242188,1.4133907556533813,0.08858441561460495,1.0984175205230713,-0.734799861907959,0.7628609538078308,-0.8437100648880005,-2.160773754119873,-0.18957722187042236,3.019449234008789,0.5704174637794495,0.03362618759274483,-1.2058600187301636,0.2581087350845337,1.1731178760528564,0.0482204295694828,1.4365143775939941,0.24144425988197327,-1.2076342105865479,1.078770637512207,1.5349040031433105,1.4716644287109375,-0.6049437522888184,-0.7343525886535645,-1.0817753076553345,-1.3637707233428955,1.1384663581848145,1.5484528541564941,-0.39314281940460205,-0.9740940928459167,0.8577978014945984,-1.1074912548065186,-0.8074547648429871,1.663331151008606,0.03082142397761345,-0.03934173285961151,2.5531673431396484,-1.2371045351028442,0.8935122489929199,-0.23841062188148499,-1.2369962930679321,1.239930510520935,2.8742029666900635,0.04092017188668251,1.5757380723953247,-2.475956916809082,1.2114073038101196,-1.4404795169830322,-0.9107649326324463,-0.7081063389778137,-0.4125334918498993,-0.6129768490791321,-0.3021089732646942,-0.20550264418125153,0.3759172856807709,-1.5146870613098145,-0.9166456460952759,1.5634596347808838,1.1715198755264282,-0.8969221711158752,0.639456570148468,-0.5522214770317078,-2.105905294418335,-0.06826489418745041,-0.7437400817871094,-0.19814032316207886,0.0029914304614067078,1.9376639127731323,-0.32963043451309204,-0.5755242705345154,-0.8478879928588867,-2.019911766052246,-1.084313988685608,-0.5233031511306763,1.9501714706420898,1.3025872707366943,-1.27879798412323,0.9541875720024109,0.11462942510843277,1.143957257270813,-2.0594828128814697,-1.5930787324905396,-0.5385512709617615,-1.4724411964416504,1.7151899337768555,-0.06494828313589096,-1.318011999130249,0.2373252511024475,0.40580615401268005,2.088878631591797,0.8883111476898193,0.053461115807294846,0.4150097072124481,-0.47389817237854004,0.1588372439146042,0.8976074457168579,0.16530919075012207,1.5484473705291748,3.6796786785125732,0.43499940633773804,-0.02503771334886551,0.9327850937843323,0.09121359884738922,-1.6267287731170654,0.7662315964698792,-0.9408439993858337,-2.5305838584899902,-2.2227821350097656,1.2661548852920532,-0.22045259177684784,1.6676698923110962,-0.28648632764816284,-0.7178751826286316,-0.22550325095653534,-3.3833065032958984,0.3915970027446747,0.0364106260240078,-1.434164047241211,0.8405647277832031,1.1699459552764893,0.8771436214447021,-0.6282050609588623,2.662736654281616,-0.1695554405450821,1.7803120613098145,0.39027076959609985,-1.7585293054580688,0.854028046131134,-2.043560266494751,2.7196855545043945,0.3896087408065796,0.7223800420761108,-0.9692476391792297,-0.4176543056964874,-0.48019149899482727,-1.515280842781067,-0.9625405073165894,1.0242962837219238,2.514998435974121,-0.8778290748596191,1.3228836059570312,1.0061426162719727,-1.7828503847122192,0.7806065678596497,-0.5129210352897644,-0.47221848368644714,0.5801481008529663,-1.838730812072754,0.2888399660587311,3.0289113521575928,-0.2571612596511841,-2.340045690536499,1.606310486793518,1.5827692747116089,0.06968583166599274,0.7764244079589844,1.0174999237060547,1.6231175661087036,0.202991783618927,-0.6867912411689758,-0.09108734875917435,-0.5433658361434937,-2.083350896835327,0.29810091853141785,0.15263167023658752,1.8355096578598022,0.8038118481636047,-0.870815098285675,2.6450512409210205,-2.1657187938690186,-0.8836203217506409,2.7306196689605713,-1.7092022895812988,1.7671847343444824,-0.8337454199790955,0.7238741517066956,1.0458205938339233,0.8473671078681946,-1.0494006872177124,-1.3341771364212036,-0.2920128107070923,1.2647029161453247,1.4703125953674316,2.7744839191436768,-0.16740329563617706,-0.5967912077903748,0.1822991669178009,0.973476231098175,-0.8888370990753174,0.37337765097618103,-0.04551582410931587,0.9950836300849915,-1.188351035118103,0.9043779373168945,-0.04496219381690025,-0.8606667518615723,0.4469200074672699,-2.645214080810547,1.2769155502319336,0.17567580938339233,-2.094489812850952,-1.0830836296081543,1.1889082193374634,0.3863471746444702,-0.8647576570510864,0.7194914221763611,0.3006754517555237,-1.3613009452819824,1.2324310541152954,0.31563204526901245,-1.0354374647140503,-1.3827060461044312,-0.39133116602897644,-0.4945859909057617,2.9485349655151367,-1.177024483680725,1.286496639251709,0.015425430610775948,-0.38366401195526123,1.8146086931228638,0.9172900319099426,0.3065832555294037,-0.08305523544549942,1.7551802396774292,2.1218249797821045,-0.5532152056694031,0.2651780843734741,0.08735986053943634,-1.8688734769821167,-0.3686433732509613,-1.6034889221191406,0.2009703814983368,-0.6637417078018188,-1.2150272130966187,1.4741984605789185,-1.0429710149765015,-1.5832717418670654,0.8992392420768738,1.4402683973312378,1.119017481803894,1.4134067296981812,1.2719345092773438,-2.0122604370117188,0.9432037472724915,-0.13087932765483856,0.7489517331123352,0.3797723948955536,0.6611611247062683,0.006161792669445276
b'\xe7\x90\x86\xe8\xae\xba',1.1349360942840576,1.4975001811981201,1.489198088645935,1.2304611206054688,2.6515936851501465,0.7006266117095947,-1.2839912176132202,-1.6860098838806152,1.6920758485794067,1.4127923250198364,-0.8044031858444214,-0.3754211962223053,-0.35229775309562683,-0.7438503503799438,0.546881914138794,-2.040513038635254,-0.08735306560993195,-2.459099292755127,-3.4674952030181885,0.4553774297237396,1.4201152324676514,-1.2072244882583618,1.0799869298934937,-0.6058634519577026,1.028802752494812,-0.9822763204574585,-0.8238086104393005,-0.20803631842136383,0.1455516666173935,-1.7994780540466309,2.828774929046631,1.8103950023651123,0.17035117745399475,0.11518467217683792,1.8915494680404663,-0.4028201997280121,-0.6705967783927917,-0.9130709767341614,-0.16707834601402283,0.8151099681854248,0.5451646447181702,1.1683427095413208,0.8365843296051025,-0.5138339996337891,-0.7063411474227905,-0.29856768250465393,-2.0422897338867188,1.4687399864196777,-0.22981220483779907,-0.5414144992828369,0.6505706310272217,1.4836028814315796,1.4289902448654175,-0.018278509378433228,-0.9335261583328247,1.4469380378723145,-0.24667729437351227,-1.081141710281372,-0.412289559841156,-1.3544886112213135,-0.6324408650398254,1.0312007665634155,-1.3920376300811768,-1.1006999015808105,-0.9760107398033142,-1.1560932397842407,0.35167554020881653,-0.07748199999332428,0.904830813407898,2.876129388809204,0.8105849623680115,0.39703330397605896,-0.5842804312705994,1.0096237659454346,-0.15084007382392883,-0.9964733719825745,-0.4521278440952301,-0.8637576699256897,-0.59632408618927,1.0818891525268555,1.6524540185928345,0.6618979573249817,0.627731204032898,-1.8199052810668945,-0.7765486240386963,-0.8863081336021423,-0.14658679068088531,-1.0785892009735107,0.7558426260948181,0.9669378995895386,-1.3584442138671875,-1.3180558681488037,0.40324968099594116,2.3982276916503906,-1.5789679288864136,1.0292192697525024,1.5337921380996704,-1.1894643306732178,-0.5181583762168884,1.2535836696624756,-0.7066439986228943,0.053483977913856506,-0.23822569847106934,0.08116142451763153,-0.2523531913757324,-0.15459488332271576,0.084733746945858,0.037605881690979004,1.5889296531677246,-0.7458154559135437,-0.39818695187568665,0.9053661227226257,0.7504886984825134,0.9268512725830078,1.0695886611938477,1.438125729560852,-0.5037960410118103,-1.1203980445861816,-0.31001242995262146,1.070311188697815,0.17947275936603546,0.6432539820671082,-1.294492244720459,1.1309031248092651,-0.8867402672767639,1.0055330991744995,-1.1163963079452515,-1.2039072513580322,-0.2136935591697693,2.2347447872161865,-0.2256620228290558,0.3424775004386902,-1.0117018222808838,-0.3951469957828522,0.3399774730205536,-1.5870544910430908,1.606898307800293,-0.6483258605003357,0.5408473610877991,1.0600987672805786,0.5503723621368408,-1.8975650072097778,1.744627594947815,0.6970828175544739,-0.15147440135478973,-0.36586669087409973,0.6837249994277954,-1.1928271055221558,-1.1764243841171265,2.0243747234344482,1.121315598487854,0.2797933518886566,0.4049510657787323,-1.3312437534332275,0.18673637509346008,-1.6396812200546265,1.4540890455245972,-0.016943683847784996,-0.41526857018470764,0.5377607345581055,0.6003636121749878,0.8580673336982727,0.5690695643424988,0.6928143501281738,-0.7088311910629272,-1.411708116531372,-2.218745470046997,-2.0707993507385254,-1.5497198104858398,0.1958528608083725,0.7619343400001526,-1.666900396347046,0.07234197109937668,-0.907006025314331,0.2650614380836487,1.067533016204834,0.1152479499578476,1.224990963935852,1.0308517217636108,0.5813319087028503,-0.3560805320739746,1.558077335357666,0.7171245217323303,0.9898796677589417,-2.67467999458313,1.9953981637954712,-1.6985994577407837,1.664306879043579,-0.227549210190773,-1.16480553150177,-0.608478307723999,-1.363195538520813,0.07729734480381012,-0.6299018263816833,-1.45950186252594,-0.506203293800354,-0.9357486367225647,-0.5148331522941589,-1.985090732574463,-3.051236629486084,0.25647544860839844,-2.3645713329315186,-0.018142882734537125,-0.6253723502159119,-1.398807168006897,0.6798685193061829,1.6001999378204346,-1.6455296277999878,1.119770884513855,-1.2900550365447998,1.0185840129852295,1.9822325706481934,-0.2767854630947113,1.534417986869812,0.05211501568555832,1.028807520866394,0.8650349974632263,-1.2899446487426758,0.8717576861381531,-1.8500492572784424,-0.794297456741333,-0.8560936450958252,0.4411403238773346,0.466487854719162,-0.3306916058063507,1.105865716934204,-1.4628639221191406,0.09720920026302338,0.7156383395195007,0.30006420612335205,0.6660743951797485,-0.1409035474061966,-0.4596797227859497,0.02051538974046707,0.7748351693153381,1.1509673595428467,-0.9151976704597473,0.7467556595802307,0.2707782983779907,0.36881023645401,-1.7330200672149658,-0.5704054236412048,-3.0106937885284424,0.41814208030700684,0.17635542154312134,-0.15736977756023407,1.4968900680541992,1.5500202178955078,-2.220355272293091,0.6837169528007507,-1.1024408340454102,-1.0843546390533447,0.38750898838043213,-0.48215001821517944,1.3344477415084839,-1.665138602256775,1.7293809652328491,-0.5460168719291687,1.583054542541504,0.12421370297670364,-0.3229157030582428,-0.49724823236465454,-1.273087978363037,0.3814488351345062,-0.24900591373443604,-0.9920243620872498,1.5391446352005005,-0.1947459578514099,2.408951997756958,1.333454966545105,-2.015443801879883,1.056281566619873,1.545939326286316,-0.773013710975647,-2.381657838821411,0.6929181814193726,0.7211670279502869,-1.4827591180801392,2.0889649391174316,-0.17547717690467834,-1.5896517038345337,-0.09548528492450714,0.45142820477485657,-2.159803867340088,-0.9126893877983093,-0.27896955609321594,0.4777977168560028,1.2651879787445068,0.6520556807518005,0.31905511021614075,-0.43151792883872986,0.11187931895256042,0.3449854850769043,1.4860172271728516,0.4494149088859558,2.221730947494507,-2.182840585708618,1.3393635749816895,-0.06088700145483017,-0.8053081631660461,-0.494344562292099,-0.8253347873687744,1.5090211629867554,0.3189941346645355,-1.4612092971801758,-0.4281001389026642,0.23500335216522217,-0.4611147940158844,1.6817831993103027,-1.0967029333114624,0.30270126461982727,0.04728686437010765,0.7468647360801697,1.2265924215316772,-0.6890668869018555,-0.1602143794298172,-1.8530519008636475,1.180073618888855,0.8832215666770935,1.395996332168579,0.3331737518310547,-1.3953168392181396,2.06807017326355,-0.7886555790901184,-1.6697888374328613,-0.20320448279380798,0.7106370329856873,-1.392146110534668,-0.32883837819099426,-1.1838150024414062,0.35709577798843384,0.9591957330703735,-0.28077268600463867,-1.267615795135498,-0.2342001497745514,0.03059246949851513,0.4580366313457489,-0.7995337843894958,0.28620943427085876,-1.3417863845825195,-0.3709094226360321,-1.3110909461975098,-2.201598882675171,0.2957877814769745,-2.155083179473877,-1.605911135673523,-0.8826665282249451,0.9015336036682129,-0.21679280698299408,1.3038170337677002,0.410030335187912,-0.5719297528266907,-0.713919997215271,-1.4348368644714355,0.3308994472026825,-0.8682565689086914,-0.7061238884925842,0.8522579073905945,1.1408053636550903,0.08368675410747528,-0.8250486254692078,0.04336369037628174,-0.7297046184539795,-0.07018203288316727,-2.9302315711975098,1.7351202964782715,-0.2788127660751343,1.9885026216506958,-1.258586049079895,-0.6435896754264832,-0.5121096968650818,-0.7410018444061279,-1.365388035774231,0.5602269768714905,1.1915857791900635,-1.8930799961090088,-0.7142415642738342,-0.45620980858802795,0.8752541542053223,0.6289415955543518,1.0660345554351807,-0.04875511676073074,0.5858162641525269,1.1332533359527588,-1.2936848402023315,1.1668757200241089,-0.15387921035289764,-1.3086802959442139,1.1191375255584717,1.6488481760025024,1.1182912588119507,1.7905679941177368,0.5195363163948059,-0.20689937472343445,1.3829751014709473,1.0655314922332764,0.7952849864959717,1.027497410774231,0.5747739672660828,0.43895217776298523
b'\xe5\x85\xb7\xe6\x9c\x89',-0.14166471362113953,-0.17042776942253113,1.5690336227416992,0.7098445296287537,0.5366498231887817,2.6300621032714844,-0.5268665552139282,-0.17805282771587372,1.9379230737686157,-0.0559077225625515,0.5859853029251099,-1.7242472171783447,0.8372341990470886,0.20022724568843842,0.17055469751358032,-0.9957427978515625,0.9636978507041931,-0.8582163453102112,-0.7738800644874573,0.20717407763004303,-0.25047457218170166,0.21557731926441193,2.425781011581421,-0.5273716449737549,-0.22693021595478058,-0.2075347751379013,0.8769726753234863,-1.5659350156784058,-0.5238025188446045,-0.16752956807613373,0.657006561756134,2.943263292312622,0.4087921380996704,-0.2566392123699188,0.4140579104423523,-2.221916913986206,1.90158212184906,-3.011569023132324,-0.2429853230714798,0.451336145401001,2.141184091567993,2.5884180068969727,-0.15691497921943665,0.49851715564727783,-0.3915659189224243,-1.330313801765442,0.11140075325965881,0.4569065272808075,0.7635083198547363,-0.38134709000587463,-0.46970802545547485,1.2421287298202515,1.609623908996582,0.4962575137615204,-1.5598781108856201,-0.16075359284877777,-2.5877737998962402,-0.6636797189712524,0.9746708273887634,-0.6681985259056091,0.7071579694747925,2.5553975105285645,-0.6169613003730774,-2.4703621864318848,-0.32364028692245483,2.5205225944519043,0.9417639970779419,-1.2491886615753174,0.06557254493236542,1.029440999031067,-0.24253429472446442,0.06911812722682953,0.06621208041906357,0.1324896514415741,-1.700920581817627,0.041104357689619064,-0.3398057520389557,-0.4383969008922577,0.5123942494392395,-3.129725456237793,1.478562593460083,2.1099636554718018,0.42261987924575806,-1.9032843112945557,-1.0660277605056763,-1.8164734840393066,1.2722209692001343,-0.9407562613487244,1.1528016328811646,1.1653027534484863,0.7270798683166504,0.4244893193244934,-1.1525827646255493,-1.2070177793502808,-1.559390902519226,1.1409752368927002,-0.003805786371231079,0.7298575639724731,0.3260810673236847,-0.30029457807540894,-1.0042511224746704,0.773726761341095,1.0350581407546997,0.33590900897979736,-0.5585342645645142,-0.17481978237628937,2.427225112915039,1.052454948425293,2.6622955799102783,1.4075294733047485,0.495814710855484,1.3023183345794678,0.36178040504455566,-0.06224338337779045,-0.8529604077339172,0.7645095586776733,0.04567638784646988,-0.2550278306007385,-1.3251627683639526,2.1942150592803955,2.1902921199798584,2.1611568927764893,-1.8163949251174927,-0.16112655401229858,-0.6374906301498413,2.1404902935028076,1.26297128200531,-0.3906458616256714,-1.8706287145614624,1.0126416683197021,-1.9886982440948486,1.9030674695968628,-0.10362043231725693,-2.4059548377990723,-0.9457855224609375,0.05247972533106804,0.5600585341453552,-0.8223364353179932,0.14750488102436066,0.0036971785593777895,0.6835607290267944,-2.2752161026000977,0.36608976125717163,0.935049831867218,-0.6860625147819519,-0.34137409925460815,0.7287002205848694,-1.4985634088516235,-0.6701455116271973,-0.3325243294239044,0.987018346786499,1.49821937084198,-0.9179412722587585,1.0687062740325928,1.657027006149292,-0.6972717046737671,0.8403117060661316,-2.0729575157165527,-0.6803587675094604,-1.9619989395141602,-0.09634091705083847,-1.775943636894226,-0.9725727438926697,0.4391789734363556,-1.605766773223877,1.630694031715393,0.5353344082832336,0.6888209581375122,0.2796855568885803,-1.5074020624160767,-1.2435790300369263,0.6823635101318359,0.4288650453090668,-1.1617741584777832,0.2435518354177475,-0.8567809462547302,-1.369678020477295,0.4614802598953247,0.1266452521085739,0.17806929349899292,-0.22854404151439667,0.062116608023643494,0.38978222012519836,-0.39287588000297546,-2.891998291015625,1.155065894126892,0.6086620688438416,2.3129422664642334,1.6838237047195435,-0.4584248960018158,-0.8475390076637268,-1.704123616218567,-1.3511567115783691,1.7730456590652466,0.5567895770072937,-1.5603772401809692,-1.329624891281128,0.40015020966529846,-3.365159034729004,-1.1382633447647095,1.4207055568695068,-0.461669921875,-0.012208494357764721,-2.1652352809906006,-0.5834851264953613,0.4923250377178192,1.0721547603607178,-1.9491500854492188,1.2525227069854736,-1.7867532968521118,1.0811277627944946,-0.37309956550598145,-0.27979373931884766,1.3968276977539062,-0.4559752345085144,-1.0775350332260132,2.055567979812622,-2.463759660720825,3.218947410583496,-1.2308180332183838,-0.12054136395454407,0.13525009155273438,1.0593472719192505,-1.1445388793945312,-1.5415914058685303,-0.270004004240036,-0.3985913097858429,-0.8451725244522095,0.2962697744369507,0.033068250864744186,1.2015018463134766,0.18519656360149384,0.34218597412109375,0.4753877520561218,-0.7602253556251526,-1.1435073614120483,-0.7182496190071106,-0.18686369061470032,1.017776608467102,-1.645586609840393,2.1543054580688477,2.0062310695648193,-1.2662843465805054,-0.42270952463150024,-0.2359427660703659,0.8822640180587769,1.2655359506607056,0.4475978910923004,-2.4964723587036133,2.242932081222534,-1.0013099908828735,-0.15861953794956207,-0.5588550567626953,1.7600334882736206,0.30915409326553345,-0.9864882230758667,1.6413832902908325,1.0676637887954712,1.2122193574905396,1.1045225858688354,-1.3853299617767334,1.6614758968353271,0.19497472047805786,0.09271194785833359,-0.9565240144729614,0.1959080696105957,-0.2518949806690216,-1.901417851448059,1.1514019966125488,1.9439332485198975,-0.3922273814678192,-0.1816541850566864,-0.715523898601532,0.3879919946193695,1.1212950944900513,-0.41616344451904297,-2.5653748512268066,-0.5853661894798279,0.2906905710697174,0.2579309940338135,0.09985388070344925,0.3080560266971588,-0.15080039203166962,-1.0521396398544312,0.49487102031707764,0.4733859598636627,0.3870996832847595,-0.39839234948158264,0.4944228529930115,-1.1952682733535767,0.1204557940363884,1.5414656400680542,1.3913309574127197,0.4992365837097168,0.5535099506378174,0.23009726405143738,1.0865496397018433,1.5224453210830688,-0.16084885597229004,0.05803649127483368,-2.4282617568969727,2.0140485763549805,-0.2774248421192169,-0.8172282576560974,-0.7019441723823547,-1.2244393825531006,1.0736459493637085,-0.002647500019520521,1.4408515691757202,1.1158416271209717,-1.3738791942596436,0.9658777713775635,-1.0906362533569336,-0.6410329937934875,0.8121819496154785,-0.9955868721008301,0.1580485850572586,0.06528034806251526,1.0111714601516724,1.4707056283950806,-1.3445194959640503,-1.0955449342727661,0.042392831295728683,-1.0539745092391968,-0.020246757194399834,-2.248732089996338,-0.4290306270122528,0.2922845482826233,-0.3867841958999634,-1.3102569580078125,-0.4348822236061096,0.209194153547287,0.8290913701057434,-0.10938862711191177,-2.2307960987091064,0.08356259763240814,-0.2869510352611542,0.6069591045379639,-1.5437794923782349,-1.5248891115188599,0.7822154760360718,-1.9560387134552002,-0.6386455297470093,0.453768253326416,-0.6221477389335632,-0.8232526779174805,-0.22977229952812195,-0.4819170832633972,-1.342530608177185,3.083070993423462,-1.6668263673782349,-0.8789650201797485,0.16134804487228394,0.41787266731262207,1.950748324394226,-0.9620646238327026,-2.3143417835235596,-0.04053238779306412,-0.6135982871055603,0.4732600450515747,-1.119803786277771,0.5022088885307312,-1.2327661514282227,0.3472617566585541,-0.887000322341919,1.7795394659042358,-1.749833345413208,0.08028614521026611,1.0137852430343628,-0.21448954939842224,1.8220901489257812,0.6396644711494446,-0.03608761355280876,-0.3671289086341858,0.4789244532585144,2.6980173587799072,-1.3982939720153809,0.05540558323264122,0.16562342643737793,0.2888139486312866,-0.18675455451011658,-2.7487430572509766,-0.5717784762382507,-0.9927624464035034,0.05036455765366554,-0.1574382185935974,-0.8383973240852356,0.3123682141304016,-0.5529071688652039,1.6599605083465576,1.0441778898239136,2.68803071975708,-0.1425851285457611,1.9681307077407837,-0.1941332072019577,0.5136374235153198,1.7177668809890747,-0.9734867811203003,-1.2135814428329468,-2.4365758895874023
b'\xe6\x9d\x90\xe6\x96\x99',1.4904162883758545,-0.08686216920614243,0.7503660917282104,-1.3354825973510742,0.9529551863670349,-0.9541044235229492,-1.2958093881607056,-1.0291873216629028,0.912881076335907,1.2821391820907593,-1.495740532875061,-0.07124517858028412,0.41067492961883545,-0.8899658918380737,-0.8237841129302979,0.16314685344696045,0.5408812165260315,-1.8575152158737183,-0.8793133497238159,-0.5524094104766846,-0.4082657992839813,-2.363009452819824,0.7487758994102478,-1.152254581451416,0.2929506003856659,-0.8229424357414246,-0.11906477063894272,0.0904170423746109,-0.6808056831359863,0.03777196258306503,1.428774356842041,1.3256291151046753,0.8152889609336853,0.5861531496047974,-0.8575946092605591,-0.30939847230911255,1.336944341659546,0.3378356695175171,-0.4122094213962555,1.103517770767212,-0.6043747663497925,-0.24764443933963776,-0.3745250999927521,0.021766874939203262,-0.4849373400211334,-1.8192944526672363,-1.2632077932357788,1.7294342517852783,1.5729280710220337,0.09781145304441452,0.05073048919439316,1.552667260169983,0.5880759358406067,0.20850752294063568,0.10534219443798065,0.5062891840934753,0.18307405710220337,-0.8122616410255432,0.6240476369857788,0.6200945377349854,0.11952174454927444,1.2607851028442383,0.0789760947227478,0.34136298298835754,1.437200903892517,-0.41891610622406006,-0.6519678235054016,-0.22485442459583282,0.5015165209770203,0.3535400629043579,0.4005838632583618,-1.494449257850647,-1.2653260231018066,0.8695359230041504,0.6915760636329651,-0.02832302451133728,-0.23770131170749664,0.06117592006921768,0.3879176378250122,-0.3998047411441803,0.01974320411682129,1.9230114221572876,2.912355899810791,-1.400851845741272,-0.09509356319904327,-0.9693163633346558,-0.1276768147945404,0.1651100367307663,0.3932955265045166,0.26263588666915894,-0.8759140968322754,-0.5508990287780762,1.3047654628753662,-0.8624799251556396,0.24162821471691132,0.49809613823890686,0.5361870527267456,0.7641185522079468,-0.21166196465492249,0.42792585492134094,-1.467659831047058,-0.9983373284339905,0.37565428018569946,-0.12468012422323227,-0.47424158453941345,-0.5172115564346313,-0.06406346708536148,1.9193795919418335,0.7443851828575134,0.8428459167480469,0.4800508916378021,2.429109811782837,1.5110808610916138,-0.5982042551040649,-1.0334116220474243,0.5374919772148132,1.1364308595657349,1.0008745193481445,0.9591328501701355,1.0554410219192505,0.49845531582832336,1.1980009078979492,-2.973700761795044,1.90519380569458,-0.9127764701843262,-0.31890371441841125,2.34441876411438,-0.47323769330978394,-1.6327903270721436,0.24761322140693665,-0.8938544988632202,1.289574384689331,0.13015547394752502,-0.9208440184593201,-0.5608334541320801,-0.3569852411746979,-1.7514863014221191,0.26211047172546387,-0.2192137986421585,-0.18647073209285736,0.2516724169254303,-0.6660963892936707,-0.16535989940166473,1.522576093673706,-0.4722493588924408,0.12341953068971634,0.5049430727958679,-0.975408673286438,0.7200340628623962,-0.05803612619638443,-0.23651686310768127,-0.36157530546188354,-0.6146180033683777,-0.4858143627643585,1.5135759115219116,-0.8154875040054321,0.5254833698272705,-0.834784209728241,-0.6106113195419312,0.03044573776423931,0.9142464995384216,1.355703592300415,-0.9982959628105164,1.159898042678833,-1.1746776103973389,-0.6751207709312439,-0.28158503770828247,-0.2151138037443161,0.7812570929527283,0.39554986357688904,-0.8230917453765869,-0.9628884792327881,1.2559829950332642,-0.6663169264793396,1.1244616508483887,0.16021977365016937,2.3336074352264404,-0.2688254714012146,0.46010926365852356,1.5916340351104736,-1.632681131362915,-0.6756522059440613,-0.4419693052768707,0.4716758728027344,0.12574008107185364,-0.4378620684146881,0.9650681018829346,-0.2185976505279541,-0.231557235121727,-0.31108784675598145,-1.3112181425094604,-1.5921438932418823,-1.180071234703064,-0.5082225799560547,0.5350454449653625,-0.9327619671821594,-0.03038117289543152,1.106349229812622,-1.6230270862579346,-0.4116273522377014,0.048006199300289154,-0.8454551696777344,0.577293336391449,-1.2543516159057617,-0.756571888923645,-0.7106813788414001,0.9100233912467957,-0.7771086096763611,1.9427459239959717,-0.3458920121192932,-0.4316171109676361,0.9878443479537964,-0.0998498946428299,-1.3842672109603882,-1.0948176383972168,-1.4904817342758179,1.0755308866500854,-0.3155492842197418,-0.12589558959007263,-0.5950002670288086,1.0317323207855225,0.4963313937187195,0.9242859482765198,-0.4146028161048889,0.13141030073165894,-0.747083842754364,-0.3876957297325134,-0.30973896384239197,1.527955174446106,1.2057937383651733,2.002197265625,0.6959806084632874,-1.3603204488754272,1.254726767539978,-0.1447674185037613,-0.593360960483551,-1.5983179807662964,2.0331459045410156,-1.5453110933303833,-1.1141623258590698,-0.24143320322036743,-0.5168655514717102,-1.5605181455612183,0.11102168262004852,-0.2077064961194992,-0.2593134939670563,0.172532856464386,-0.6613327860832214,-1.0082921981811523,1.5412938594818115,-0.6832515001296997,1.1101073026657104,0.4504780173301697,-0.41140854358673096,-0.33905187249183655,-0.315286785364151,2.6266329288482666,-0.18990765511989594,2.247978687286377,-0.02788395993411541,-2.2037339210510254,0.5307682156562805,-2.5858325958251953,0.188119038939476,-0.7480605244636536,-1.7170089483261108,2.2522590160369873,0.478663831949234,0.6127483248710632,1.0643547773361206,-2.050253391265869,1.2577252388000488,0.3662044107913971,-2.1393487453460693,0.1418527364730835,1.624244213104248,1.044177532196045,-1.228093147277832,-1.4167301654815674,1.2662031650543213,0.27673760056495667,0.08222560584545135,0.6891151666641235,-0.1948162317276001,-1.1041555404663086,-1.679420828819275,-0.8465867042541504,-0.6555874943733215,0.5999714136123657,-0.6792690753936768,0.3698008954524994,-0.24938353896141052,2.2548983097076416,-0.1957627832889557,-0.20403338968753815,1.0989766120910645,-2.2891509532928467,1.6417992115020752,-1.0779123306274414,1.1105308532714844,-0.07080240547657013,-0.3090708255767822,0.2521265745162964,-1.0675071477890015,-0.86708664894104,-0.38540157675743103,-0.09222833067178726,0.4041745960712433,1.5459704399108887,0.24421784281730652,-1.3842167854309082,0.08983764052391052,0.32835227251052856,-1.8639695644378662,-0.15859299898147583,-1.5753675699234009,0.9304362535476685,-0.7132874131202698,1.8167892694473267,0.4473921060562134,0.614420473575592,0.5151559114456177,0.8840377330780029,0.9553854465484619,-0.17149412631988525,-0.7938320636749268,-0.08170787245035172,-1.0618492364883423,-1.4826455116271973,-0.6172369718551636,1.5487343072891235,1.8597155809402466,0.4349452555179596,-0.4117538034915924,-0.19446510076522827,-1.0366625785827637,-2.208470106124878,-1.490911841392517,1.153117060661316,-0.6238765120506287,-0.5661680698394775,-0.3407379686832428,0.3147265613079071,0.5323793292045593,-0.5351852774620056,-0.3103538453578949,-0.8957760334014893,-0.3972117602825165,-0.016419347375631332,0.9623873829841614,0.24198544025421143,-0.6780678629875183,0.06890163570642471,0.7606722712516785,1.1343082189559937,-1.9292802810668945,1.6230716705322266,0.3586891293525696,-1.4835655689239502,0.08365434408187866,-0.8955724835395813,0.6649796962738037,-0.5870328545570374,0.04235624521970749,-2.530632734298706,0.17901960015296936,-1.0920894145965576,1.9818530082702637,1.213786244392395,-1.3245211839675903,1.2775832414627075,-0.5966854691505432,-0.29768767952919006,-0.2770874500274658,1.58382248878479,-0.5811235308647156,0.01897953264415264,-1.0059436559677124,0.06021757796406746,1.8739635944366455,0.5034059882164001,-0.9909803867340088,1.3670637607574463,-0.4700440466403961,-1.5609588623046875,0.11372945457696915,-0.2182631939649582,0.5198525786399841,0.9112725853919983,-0.7016511559486389,-0.1869812160730362,1.3094602823257446,-0.3204707205295563,0.9331849217414856,0.7343024015426636,0.7248682379722595,-0.30318671464920044,0.9305521845817566,-0.28603532910346985,0.7883372902870178
b'\xe5\xbc\xba\xe5\xba\xa6',2.5060768127441406,1.3413211107254028,1.938561201095581,-0.30522117018699646,0.45126426219940186,0.9288106560707092,-0.756470263004303,-1.2771966457366943,0.5782143473625183,0.376299113035202,-0.258759081363678,-0.1363344043493271,1.9658055305480957,-0.0037167444825172424,-2.359816789627075,-0.6818398237228394,-0.3086546063423157,1.036186695098877,-0.09265759587287903,1.3266665935516357,0.03642602264881134,-1.0218664407730103,-0.9397681355476379,0.7451532483100891,0.7053856253623962,1.5138648748397827,0.07295960932970047,-1.2377091646194458,-0.29936495423316956,0.6419613361358643,-0.9009982943534851,-0.003461004700511694,-0.8143710494041443,0.2266237884759903,1.178741693496704,-1.4499269723892212,2.5160748958587646,-0.15221966803073883,0.06247785687446594,0.10160272568464279,1.0444024801254272,2.2089076042175293,1.9842816591262817,-0.6592095494270325,0.2052086591720581,-1.2096023559570312,-1.7952463626861572,2.1974425315856934,-0.7930966019630432,0.2491840422153473,-1.0663986206054688,0.598271369934082,1.5814687013626099,-0.23051051795482635,-1.2338056564331055,-0.5237078070640564,-0.29090794920921326,-0.32640111446380615,0.02907436713576317,-0.943928599357605,-0.15059621632099152,-0.2315843254327774,0.3024247884750366,0.34787535667419434,-1.9298830032348633,2.0696539878845215,-1.5627938508987427,0.14048714935779572,-0.015506727620959282,0.5347015857696533,1.5550023317337036,-1.502708911895752,0.6448942422866821,0.4066178798675537,0.038077980279922485,0.017920665442943573,-1.4315574169158936,-0.36089208722114563,-1.252089023590088,0.510924756526947,-0.3103853762149811,0.5937849879264832,2.977051258087158,0.52296382188797,-0.11378233879804611,-1.7575454711914062,1.6492540836334229,-0.019701320677995682,0.04991857707500458,0.9411157369613647,-0.28058406710624695,-0.2157638520002365,-0.009405598975718021,-0.5924107432365417,0.09282718598842621,-0.6783154606819153,-1.8885149955749512,1.3262414932250977,-0.3321766257286072,-0.13103683292865753,0.6003514528274536,-2.02359676361084,-0.7507902383804321,1.7491979598999023,-1.585701584815979,-1.2348703145980835,-0.9447229504585266,3.3243727684020996,-0.30631396174430847,-0.14273478090763092,-0.2356039136648178,0.7060561776161194,1.407920241355896,0.8356961607933044,0.5508922934532166,2.0557963848114014,-0.20841412246227264,-0.7041783332824707,0.8151542544364929,2.0789742469787598,-0.08728371560573578,1.2566341161727905,0.7674553394317627,2.1915435791015625,-1.9307807683944702,2.282243013381958,0.954038143157959,-1.217290997505188,-0.1678340882062912,1.6674118041992188,-0.7322657108306885,0.3071120083332062,0.7715443968772888,0.21541835367679596,0.047203272581100464,-0.18580780923366547,-1.0042657852172852,-0.015511411242187023,-0.486740380525589,0.7005594372749329,-0.09323901683092117,-1.0450750589370728,1.0237687826156616,1.063860297203064,-0.11312452703714371,-0.5253676176071167,-1.0715121030807495,-0.7184977531433105,0.9110112190246582,-2.2136123180389404,1.1128543615341187,1.1737210750579834,-0.02775903418660164,0.702335774898529,-0.91385817527771,-1.0055782794952393,-0.19848425686359406,-0.9392764568328857,-0.2509479224681854,0.7868809700012207,-0.5114971399307251,0.5763875246047974,-1.918235182762146,0.13259680569171906,-0.21110326051712036,0.3019222915172577,-0.6961548924446106,1.3328931331634521,0.09625227749347687,0.7664366364479065,-0.8975957036018372,0.3830146789550781,2.165287971496582,-0.565550684928894,2.168933868408203,-1.0994247198104858,1.9550325870513916,2.1566507816314697,0.884545087814331,-0.1869616061449051,-1.301215410232544,-0.7177534103393555,-0.15810208022594452,-0.6962685585021973,0.539850652217865,-0.05356064811348915,-0.006952996365725994,1.7280397415161133,0.604098916053772,-1.4771705865859985,0.7677024602890015,-0.7231504917144775,-0.25215718150138855,1.4425249099731445,-2.220252513885498,-1.1007803678512573,-0.07780928909778595,-0.44830381870269775,-2.4109528064727783,-0.6216802597045898,-0.7373749017715454,0.6855718493461609,-0.930482029914856,-1.4435104131698608,-3.540001630783081,0.3207862675189972,-0.20839299261569977,-0.7509125471115112,0.5095400810241699,0.5826694965362549,-0.09069519490003586,0.3208521604537964,-1.0926733016967773,-1.3711119890213013,1.0474058389663696,-0.1260330229997635,0.3211098611354828,0.2865457534790039,2.090447425842285,-0.3812211751937866,0.1132311150431633,-0.8540565371513367,1.1497611999511719,1.6758941411972046,0.03382151573896408,-0.36820316314697266,0.18581710755825043,-2.88569974899292,2.65694522857666,-0.05620652809739113,2.637747049331665,-0.001157898223027587,-0.8242786526679993,0.2086377739906311,-1.0570323467254639,0.9424009919166565,-0.02868751622736454,0.4711205065250397,1.2426234483718872,-0.3566558063030243,0.6478246450424194,0.28067129850387573,-1.0763955116271973,0.6571314334869385,-0.6769565939903259,-1.3199883699417114,0.7264764904975891,-0.6021652221679688,0.8914173245429993,3.111706495285034,0.033543698489665985,-0.31206032633781433,-0.8589539527893066,-0.06188283488154411,1.356368899345398,-0.6997498869895935,0.7644330859184265,-0.03343081474304199,1.0405855178833008,0.12103454768657684,-2.373566150665283,-0.18455460667610168,-0.6047520041465759,-0.16090993583202362,-2.085601568222046,0.26547563076019287,2.195096731185913,-1.3274122476577759,2.6484971046447754,0.32308679819107056,0.6034300923347473,0.8810921311378479,2.702906608581543,0.33841896057128906,0.8448618650436401,-0.18654216825962067,1.0352457761764526,-2.0937061309814453,-0.2878004014492035,0.4917169213294983,-1.3781397342681885,-0.6272012591362,1.8454813957214355,-0.9999706149101257,-0.508906900882721,0.16843807697296143,-1.1158314943313599,0.3265990614891052,-1.289684534072876,-1.404915452003479,-1.0279232263565063,0.27778562903404236,1.5986292362213135,-1.7559350728988647,0.02469479665160179,0.2692701816558838,-1.7662956714630127,2.7090611457824707,0.6620485782623291,2.5226011276245117,0.5812517404556274,-1.5594840049743652,1.1054247617721558,0.8125661611557007,0.26551029086112976,-1.2273114919662476,-1.7805782556533813,-0.9765194058418274,-0.9295591711997986,-0.4058559238910675,-0.713961660861969,2.55389404296875,-0.7997143268585205,1.990304708480835,-0.26442742347717285,0.17796474695205688,-0.5121440291404724,1.8621548414230347,3.1871609687805176,0.10207323729991913,-1.9552851915359497,-1.4997483491897583,1.0729676485061646,-0.8848401308059692,-0.8738062977790833,-1.0584901571273804,0.11605598032474518,2.5507168769836426,0.784991979598999,-0.6066626310348511,-0.8946343064308167,1.4290083646774292,1.1674487590789795,-1.3437045812606812,0.3850136399269104,-1.6841144561767578,-0.001914613414555788,-1.8807461261749268,0.6240323185920715,-0.6303465962409973,0.0033874637447297573,1.6594810485839844,0.6291496157646179,0.7727628946304321,0.013118656352162361,-0.0022127453703433275,1.2966129779815674,-0.43493974208831787,-2.183547258377075,2.6780662536621094,-0.222138911485672,-0.4081089496612549,-1.4154537916183472,-0.4512299597263336,-1.4148188829421997,-2.975282907485962,-1.7287532091140747,2.0886170864105225,0.4299042522907257,-0.05835423618555069,-0.21229404211044312,0.698883056640625,-0.6441492438316345,-0.47834262251853943,-0.4356590211391449,1.205092430114746,1.0418329238891602,1.4741970300674438,0.7116027474403381,1.7191901206970215,1.3927314281463623,0.8983802795410156,1.839218258857727,1.887020230293274,1.1226974725723267,-1.5814568996429443,0.4245586395263672,-0.06626878678798676,-1.0378087759017944,2.2257843017578125,0.7261250615119934,-1.336569905281067,0.18457290530204773,-1.2761536836624146,-2.599402666091919,-0.3839729130268097,3.2019131183624268,1.9702823162078857,2.081078290939331,0.2670794427394867,0.9547432661056519,0.9828370213508606,0.5459697246551514,-1.250274419784546,-0.08196147531270981,1.7412248849868774,1.5141716003417969,1.5616010427474976,1.6038609743118286,-0.9029318690299988
b'\xe8\x88\xaa\xe7\xa9\xba',0.4490854740142822,-0.7821317911148071,-1.7989532947540283,0.16597135365009308,0.4257631301879883,0.1496048867702484,0.2881329357624054,-0.20395201444625854,1.585113286972046,-1.3754972219467163,0.8500972986221313,-0.05643283575773239,-1.2061322927474976,-0.29084882140159607,0.03306025266647339,-1.2106529474258423,-1.4002128839492798,-0.211381733417511,-0.40667498111724854,-0.003235158044844866,1.2914901971817017,-0.9655284285545349,-1.9555892944335938,1.5164668560028076,0.39081940054893494,-0.5470303893089294,2.6320266723632812,-0.02847524732351303,-0.3917194902896881,-0.4936501979827881,2.4700493812561035,3.084151268005371,-2.940936803817749,-0.8890594840049744,-0.4768240451812744,0.38076692819595337,-0.463461309671402,-2.9543583393096924,-0.5519219636917114,-1.1528147459030151,-0.6673684120178223,0.40068525075912476,-1.1487064361572266,-0.5968607664108276,-1.12056565284729,0.4490702152252197,-1.2514142990112305,-1.509618878364563,-0.0670892670750618,-0.35573989152908325,1.0779788494110107,-0.4894881248474121,1.4444669485092163,-3.532883644104004,-0.6384742856025696,1.2051821947097778,-1.9926278591156006,-0.2661034166812897,-1.5164480209350586,1.3775421380996704,-2.1236836910247803,-0.4429202377796173,0.9443050622940063,1.9054023027420044,-2.4314181804656982,0.2425312101840973,-2.391531229019165,0.9897932410240173,2.1965713500976562,-1.229472041130066,0.8382373452186584,0.8869823217391968,-0.5132952928543091,-0.06712901592254639,0.5721677541732788,1.9949610233306885,-0.08482685685157776,1.0061182975769043,1.4811406135559082,0.6677812337875366,2.1334073543548584,2.8565025329589844,0.8328219056129456,-1.657653570175171,0.8035646080970764,-0.3004768192768097,0.32494983077049255,-1.2173471450805664,1.0121853351593018,-0.2304026335477829,1.896063208580017,0.7265266180038452,1.0935648679733276,-1.6435673236846924,-1.6080257892608643,0.8319882750511169,1.7049953937530518,0.9441671967506409,-3.317687511444092,0.051913123577833176,-0.6867659091949463,0.32606691122055054,-1.1288505792617798,1.5183566808700562,0.8841753602027893,-0.2594101130962372,-0.8127938508987427,-0.4295451045036316,-1.4752579927444458,3.0251829624176025,-2.5741028785705566,-2.045973777770996,-1.376320481300354,-1.7251404523849487,-1.7293787002563477,-1.3448220491409302,-0.09966307878494263,0.2069491744041443,2.353447675704956,-1.5007370710372925,-1.1123839616775513,-1.2787832021713257,1.5378307104110718,0.725180447101593,-1.6440809965133667,-0.7822319865226746,-0.036782484501600266,-1.4214977025985718,-0.7564394474029541,2.1164793968200684,-0.3587803542613983,2.6355934143066406,0.8665351867675781,0.9968600869178772,-0.800203800201416,0.3784806430339813,-0.4226047396659851,0.5803662538528442,0.8471765518188477,0.554604709148407,0.20360788702964783,-0.535957396030426,-0.0503091961145401,-1.064523458480835,-0.17817412316799164,1.2686079740524292,-0.04969776049256325,1.288116455078125,0.6384643316268921,-2.151026487350464,0.32222360372543335,1.6445904970169067,-0.9272850155830383,-1.2204163074493408,-1.3490118980407715,2.2627241611480713,-0.3840509057044983,1.044484257698059,-0.8760742545127869,0.8004961609840393,-1.0428053140640259,0.6323264241218567,-1.4200509786605835,-0.3449840545654297,-1.0872085094451904,-1.0864337682724,1.3331009149551392,0.30068787932395935,-1.4755064249038696,-0.48630818724632263,-0.9003458023071289,1.5447227954864502,1.4518071413040161,-0.18541210889816284,1.4987256526947021,-0.043554775416851044,-0.23411649465560913,0.6547572016716003,1.560870885848999,1.3891693353652954,0.12955693900585175,-1.2729732990264893,-2.400089979171753,0.8494449853897095,-2.2788569927215576,1.459917426109314,-0.234666645526886,1.392932653427124,-1.9298990964889526,-3.05031156539917,-0.9730690717697144,0.9294633269309998,-2.60098934173584,1.7755624055862427,-2.5659220218658447,-0.011989390477538109,-2.0098674297332764,2.726471424102783,-0.15650443732738495,1.0852195024490356,-1.1791926622390747,-0.7726893424987793,1.3976775407791138,-0.5934106707572937,-0.26693907380104065,-0.6172409653663635,1.3566653728485107,-0.39993777871131897,-1.4059641361236572,0.16024746000766754,0.7890921831130981,0.2138500213623047,-0.7390381693840027,-0.556576669216156,-0.3171917200088501,0.8606869578361511,-0.35865557193756104,1.247105598449707,0.721423327922821,-2.2934672832489014,2.2651476860046387,-0.695397138595581,-1.0074553489685059,0.36815640330314636,0.4997742772102356,0.4690210819244385,-0.9447561502456665,0.7705089449882507,0.8498814702033997,-1.963273525238037,1.402653455734253,-0.2974025309085846,3.0826416015625,1.5361491441726685,2.5072762966156006,1.1489765644073486,-0.24844998121261597,-0.027337048202753067,-0.48649361729621887,-0.03690503537654877,0.002490908605977893,-1.0695228576660156,-1.073209524154663,0.6046969890594482,1.0155235528945923,1.2168818712234497,-1.1936919689178467,-2.8347818851470947,-0.6930021047592163,-0.3951393961906433,-0.3184671401977539,-2.0998833179473877,1.0428303480148315,-0.30189746618270874,1.7390837669372559,2.0276176929473877,-1.3313863277435303,-0.7152552008628845,0.5508307218551636,1.201475739479065,-2.1544740200042725,-1.1241623163223267,-0.959416389465332,-1.451042890548706,0.252250075340271,1.3203390836715698,-0.20414766669273376,0.1024688109755516,-0.6571524143218994,-0.29338759183883667,2.07472562789917,0.635965883731842,-0.09060639888048172,-1.2821682691574097,-0.47479668259620667,-1.352828025817871,1.2818152904510498,-0.21242345869541168,-0.9642985463142395,0.15450747311115265,4.498753070831299,1.0435328483581543,-1.5480196475982666,0.5820772647857666,0.8192387223243713,-2.604306697845459,-0.5022855997085571,0.21207357943058014,-1.9183181524276733,-1.0719521045684814,0.7997030019760132,-0.21375980973243713,-0.7959471940994263,0.014201615937054157,-0.06106957048177719,-0.8459914326667786,-2.604844331741333,0.5478639006614685,-0.723711371421814,0.3647346794605255,-0.048005711287260056,-1.9146052598953247,1.0534487962722778,1.1382555961608887,1.021309733390808,-0.5919739603996277,0.6688296794891357,0.2129460871219635,-0.5875109434127808,1.8796426057815552,0.1848612278699875,0.5914590358734131,-0.0871070846915245,-0.4070681929588318,-1.3026673793792725,-0.5268835425376892,0.5129309892654419,-0.48802366852760315,0.5754063725471497,2.5290112495422363,-2.8950250148773193,-2.1733806133270264,0.5236232876777649,0.9953848719596863,-0.1837230771780014,1.2493276596069336,0.8584210872650146,0.0910179391503334,-1.6121882200241089,-1.4153223037719727,2.030911684036255,-1.6195893287658691,-0.8869801759719849,-0.0902581587433815,-1.1530154943466187,-0.09743332862854004,-0.28445756435394287,-3.020723819732666,1.2949519157409668,-0.8548784255981445,0.23350508511066437,0.962038516998291,0.6699150800704956,1.28630530834198,1.3183069229125977,2.0387277603149414,-1.1848713159561157,-1.1105530261993408,-1.475862979888916,-1.0254559516906738,1.0203309059143066,-0.1597364991903305,1.1515356302261353,1.6534011363983154,-0.8260897397994995,-2.377342462539673,-0.5594664216041565,1.709458351135254,-0.9856759309768677,-0.23553815484046936,-0.6802669167518616,-2.8159828186035156,1.020751953125,1.5114378929138184,-0.8892642259597778,0.1223287582397461,-2.147679328918457,-0.8798239231109619,1.0176573991775513,-2.2313365936279297,-1.0986336469650269,2.785477876663208,-1.174647569656372,0.9392935037612915,-2.0789430141448975,1.0440974235534668,-0.9359966516494751,1.677496314048767,1.7002861499786377,1.19257390499115,3.041226625442505,-0.13357402384281158,-1.3732707500457764,0.45420950651168823,-1.9795056581497192,-1.1215040683746338,-1.2908371686935425,-0.4938594102859497,0.04646005108952522,1.070412516593933,-0.8823807835578918,0.6295510530471802,-0.8069530725479126,0.9952009916305542,0.332549512386322,0.33603042364120483,-2.6647682189941406,2.3324873447418213,0.42582371830940247,2.1859302520751953
