word,0,1,2,3,4,5,6,7,8,9,10,11,12,13,14,15,16,17,18,19,20,21,22,23,24,25,26,27,28,29,30,31,32,33,34,35,36,37,38,39,40,41,42,43,44,45,46,47,48,49,50,51,52,53,54,55,56,57,58,59,60,61,62,63,64,65,66,67,68,69,70,71,72,73,74,75,76,77,78,79,80,81,82,83,84,85,86,87,88,89,90,91,92,93,94,95,96,97,98,99,100,101,102,103,104,105,106,107,108,109,110,111,112,113,114,115,116,117,118,119,120,121,122,123,124,125,126,127,128,129,130,131,132,133,134,135,136,137,138,139,140,141,142,143,144,145,146,147,148,149,150,151,152,153,154,155,156,157,158,159,160,161,162,163,164,165,166,167,168,169,170,171,172,173,174,175,176,177,178,179,180,181,182,183,184,185,186,187,188,189,190,191,192,193,194,195,196,197,198,199,200,201,202,203,204,205,206,207,208,209,210,211,212,213,214,215,216,217,218,219,220,221,222,223,224,225,226,227,228,229,230,231,232,233,234,235,236,237,238,239,240,241,242,243,244,245,246,247,248,249,250,251,252,253,254,255,256,257,258,259,260,261,262,263,264,265,266,267,268,269,270,271,272,273,274,275,276,277,278,279,280,281,282,283,284,285,286,287,288,289,290,291,292,293,294,295,296,297,298,299,300,301,302,303,304,305,306,307,308,309,310,311,312,313,314,315,316,317,318,319,320,321,322,323,324,325,326,327,328,329,330,331,332,333,334,335,336,337,338,339,340,341,342,343,344,345,346,347,348,349,350,351,352,353,354,355,356,357,358,359,360,361,362,363,364,365,366,367,368,369,370,371,372,373,374,375,376,377,378,379,380,381,382,383,384,385,386,387,388,389,390,391,392,393,394,395,396,397,398,399
b'\xe6\x95\xb0\xe7\x9b\xae',-0.3809022009372711,0.5130806565284729,1.090224266052246,0.021970143541693687,0.00788959488272667,0.7095715999603271,-0.311026006937027,0.23230326175689697,0.42049434781074524,-0.09503432363271713,-0.2549333870410919,-1.2180559635162354,0.48278799653053284,-1.2805805206298828,-2.086648941040039,-1.523177146911621,-0.08181300759315491,1.6805200576782227,1.5212340354919434,-0.49223145842552185,1.115882396697998,-0.7038640379905701,-0.3214135766029358,0.6395140290260315,-0.2177482545375824,-0.48839858174324036,-0.18073831498622894,-1.0570862293243408,-1.422563910484314,0.5311833024024963,-0.31780391931533813,-0.3444851040840149,0.20059239864349365,1.2259831428527832,-0.008928246796131134,-0.5687493085861206,1.0850986242294312,-0.6095166206359863,-1.2136855125427246,-1.68318510055542,-0.502037763595581,1.4944334030151367,1.4855114221572876,1.7320199012756348,1.2470945119857788,1.0832935571670532,-1.4084055423736572,1.2501102685928345,0.2599399983882904,-1.3216304779052734,-1.6797294616699219,-0.5938921570777893,-0.3062950670719147,-2.33231782913208,0.08264180272817612,-0.36454424262046814,0.7050403356552124,-0.46139490604400635,1.3624402284622192,-0.18746668100357056,1.3168166875839233,0.7466334104537964,0.40830814838409424,-0.2196461409330368,-0.43074867129325867,1.1490589380264282,-0.8211816549301147,1.0498448610305786,0.8382803201675415,0.9325076341629028,0.3333315849304199,-1.4661064147949219,0.9569371938705444,2.365403175354004,-2.235325574874878,-0.5905910730361938,0.5601475238800049,-2.065762519836426,-1.8283034563064575,-1.4704910516738892,1.9863176345825195,1.3666895627975464,1.0332585573196411,0.3561252951622009,0.789901077747345,0.10587724298238754,1.9022279977798462,0.21469290554523468,-0.9526332020759583,-0.7323201298713684,-1.1782256364822388,-1.8121012449264526,-0.21120406687259674,1.224652886390686,-2.1534199714660645,1.1843384504318237,-1.3847085237503052,0.9765914082527161,0.46239998936653137,-0.7105744481086731,-0.09400822967290878,-0.9333856105804443,-0.9205985069274902,0.19218608736991882,-0.3933257758617401,-0.978617787361145,1.638062834739685,2.1276535987854004,1.6483737230300903,2.6264631748199463,-0.678604245185852,-0.9591526985168457,0.18688172101974487,-0.3501538336277008,-0.5923128724098206,0.11724483966827393,-0.5710211992263794,1.724226713180542,0.9521209001541138,0.8487655520439148,1.8330130577087402,0.9904763102531433,-0.5452789664268494,-1.3740098476409912,0.36146828532218933,-1.6379293203353882,1.8414735794067383,-0.006850975099951029,1.0163824558258057,1.2303926944732666,-1.0307116508483887,2.294135808944702,-1.236985206604004,-0.4106197655200958,-0.24674618244171143,-0.36377137899398804,-0.39308151602745056,-0.3845958709716797,-0.8030257821083069,0.5313355326652527,0.812049925327301,-0.33532676100730896,2.966783046722412,1.8485807180404663,0.15610720217227936,0.32474714517593384,1.1809016466140747,0.3531350791454315,-0.7271668910980225,-0.48391303420066833,-0.11636945605278015,1.4698922634124756,-0.9644922018051147,0.34310463070869446,0.9325165748596191,-0.5335313677787781,0.2663693428039551,-0.10238255560398102,-0.16156448423862457,0.6660666465759277,1.7560960054397583,0.00986966211348772,-0.150776669383049,0.8611304759979248,0.6430552005767822,-0.09932678192853928,-0.12979154288768768,-0.6553748250007629,-0.47370943427085876,1.0498374700546265,0.7081936597824097,0.167401984333992,1.0678203105926514,-0.5328231453895569,0.3263531029224396,0.3893083333969116,1.424330234527588,1.1425305604934692,0.877504289150238,-0.09738311171531677,-0.15262632071971893,-0.3555508852005005,1.4485065937042236,-0.2355901449918747,0.7513614296913147,1.1990233659744263,-0.7104493379592896,0.9722937941551208,-0.36438775062561035,-0.4197356700897217,-0.2833019196987152,0.8715960383415222,-2.294135093688965,1.0539374351501465,-1.1815481185913086,0.35681819915771484,0.24583350121974945,0.8283120393753052,-0.5640166401863098,1.753359079360962,1.2194994688034058,0.3992933928966522,0.4157736301422119,-1.2309226989746094,1.218919038772583,-1.3799721002578735,-0.2224271595478058,-0.5787860751152039,0.9835060238838196,0.21853573620319366,0.9292445182800293,2.401041269302368,-1.862432599067688,-0.597653865814209,0.9524547457695007,-0.3334597945213318,0.3458252549171448,-0.7594584226608276,1.094457983970642,1.0624140501022339,0.06100688874721527,1.567757487297058,0.8203132152557373,0.5007036328315735,1.8733716011047363,-1.9546412229537964,-1.7188087701797485,-1.3138271570205688,-1.6808416843414307,-0.28483060002326965,0.33080729842185974,-1.4017592668533325,0.11945360153913498,1.6698065996170044,0.07981375604867935,-1.1073225736618042,-1.0293183326721191,2.567096471786499,2.1045782566070557,0.5895984172821045,-0.9439899325370789,0.2393389195203781,0.2232481986284256,-1.0091413259506226,0.3553648889064789,-0.053582124412059784,0.04063403606414795,-1.7491430044174194,-0.44251805543899536,3.9817211627960205,0.5878493785858154,0.589546263217926,0.0743328258395195,0.5764111280441284,1.1385340690612793,-0.7208514213562012,-0.5317335724830627,1.238623857498169,-1.3516514301300049,0.6195024847984314,0.19335758686065674,1.39545738697052,1.3852782249450684,0.15307146310806274,-0.9719831347465515,-0.92903071641922,1.1406807899475098,-0.4435153901576996,-0.4910733103752136,0.6901284456253052,1.5063341856002808,1.282795786857605,2.81180739402771,-0.630507230758667,0.010845682583749294,0.004778615664690733,0.3233432471752167,-1.5267456769943237,-0.6816446185112,0.10797709971666336,1.5585166215896606,0.8506655097007751,0.018887130543589592,-1.8058806657791138,0.010266631841659546,-0.22322098910808563,-0.08546344190835953,-0.695631206035614,-0.2901770770549774,-0.23823916912078857,-0.15151920914649963,0.773003339767456,-0.05793052911758423,-1.2184841632843018,-0.46577250957489014,0.17397719621658325,-1.1729940176010132,-1.1503324508666992,-0.6605674624443054,1.6364527940750122,-1.340793251991272,-1.403290867805481,0.8845219612121582,1.6355557441711426,1.0124549865722656,-0.4296231269836426,0.5630792379379272,-0.7972989678382874,0.5673902034759521,0.25720229744911194,-1.591992735862732,1.7237125635147095,-0.2639524042606354,-0.608733057975769,-0.8830271363258362,-0.5370311141014099,0.4354248642921448,1.9633036851882935,-0.9412292838096619,-0.4398385286331177,0.3839130699634552,-1.1828980445861816,1.5583112239837646,0.1627301275730133,-1.6384702920913696,-0.8706384301185608,0.2725484073162079,2.0076358318328857,1.5308350324630737,0.45824456214904785,-1.3123195171356201,-0.15419241786003113,-1.3221632242202759,-1.0652811527252197,0.19289200007915497,1.6671698093414307,1.1216545104980469,1.6008989810943604,-0.5816444754600525,-0.04059917852282524,-0.907199501991272,-1.6180936098098755,-1.5394790172576904,-1.505488395690918,0.32303959131240845,0.9952217936515808,-2.1830215454101562,-0.5465243458747864,0.7517473101615906,1.5594960451126099,-0.4394376575946808,-0.18714042007923126,-1.6621806621551514,1.3596580028533936,0.8857163786888123,-2.5545473098754883,-0.1880371868610382,1.4939453601837158,0.2969518005847931,0.16060267388820648,0.7320335507392883,-0.2396227866411209,-0.3115207552909851,-0.07495687156915665,0.574100136756897,-0.8321939706802368,1.2014925479888916,-0.3420376181602478,-0.5170812010765076,1.4655265808105469,-1.0922815799713135,0.4363883435726166,0.6228048801422119,-0.667654812335968,1.546459674835205,-0.8811565041542053,1.1356298923492432,-0.8976292014122009,-0.4643838703632355,-0.3006105422973633,0.4782106578350067,0.038300104439258575,-1.976369023323059,0.25746139883995056,-0.28816142678260803,-1.0350264310836792,-0.6477340459823608,0.49827855825424194,1.6741570234298706,0.5385844111442566,-1.8625527620315552,0.9231707453727722,-0.05088138207793236,-1.4851117134094238,0.4145886301994324,1.3105340003967285,-0.4339864253997803,-1.3144736289978027,-0.06608132272958755,-1.2148655652999878
b'\xe5\xae\x9e\xe9\xaa\x8c',-0.7112338542938232,1.2534005641937256,1.821866750717163,1.3672584295272827,-0.4904545545578003,1.0411410331726074,-2.1871564388275146,-1.6992764472961426,0.11848673224449158,-0.9556429982185364,-0.3360768258571625,-3.087858200073242,-0.6477476358413696,-0.6893336176872253,0.3084578514099121,-0.6038799285888672,-1.6115148067474365,-1.44129478931427,-0.9409293532371521,1.5327353477478027,-0.9693721532821655,-0.6508915424346924,0.6051942706108093,-1.2577935457229614,0.7333811521530151,0.864909291267395,0.5515125393867493,-1.5804072618484497,1.0320039987564087,-0.4041973948478699,2.5022754669189453,-0.3091294765472412,-0.10271061211824417,-1.293082594871521,0.36741501092910767,0.26673638820648193,1.1946686506271362,0.14397120475769043,-0.04452912136912346,0.23077969253063202,-0.2674337923526764,1.7403736114501953,0.7433539032936096,0.7497673034667969,-1.287569284439087,-0.09907717257738113,0.7843498587608337,-0.30804577469825745,-0.29893767833709717,-0.5518066883087158,1.438106894493103,0.9667171239852905,-1.8531239032745361,0.9731184840202332,0.08935029059648514,-0.03619614988565445,1.6802548170089722,-0.396267294883728,-0.17858591675758362,-0.12522420287132263,-0.5078068375587463,0.5574713349342346,-0.9724677205085754,-0.16765190660953522,0.10077512264251709,0.24935156106948853,0.7428856492042542,-2.4410595893859863,1.9157150983810425,2.0920603275299072,-0.8246581554412842,-1.0210115909576416,-0.4499387741088867,-0.1718500703573227,-0.07059039175510406,-0.8400733470916748,-1.567710041999817,1.077372670173645,-0.19419443607330322,1.9856574535369873,0.17191322147846222,2.158055543899536,1.9502313137054443,-3.352576732635498,-0.6367239952087402,0.4705357551574707,-0.6851164102554321,-0.654985785484314,-0.8312696218490601,-1.1288012266159058,-0.3131978511810303,-1.5318782329559326,-0.18570105731487274,1.434518814086914,-1.26593816280365,-0.22431473433971405,-0.6760138273239136,-0.11738723516464233,0.21017934381961823,1.149343729019165,-1.8649306297302246,0.2319103181362152,1.1419997215270996,1.1460130214691162,-0.04024951159954071,-0.6435483694076538,-1.2342352867126465,2.4120278358459473,0.48483920097351074,-0.5241942405700684,-1.794020652770996,0.7109989523887634,0.03008757159113884,-1.0619158744812012,1.0370502471923828,2.666517734527588,-0.12976457178592682,-0.3483322858810425,-0.4644016623497009,0.1765589565038681,1.8900165557861328,-1.1339662075042725,-0.35997265577316284,0.1967248022556305,-0.6673356294631958,0.4896344840526581,1.4141979217529297,-0.7165931463241577,-1.0177831649780273,-0.039292629808187485,1.556886911392212,0.8666014671325684,-0.8414791226387024,-0.39815953373908997,1.1488970518112183,2.144103765487671,0.10174059122800827,-0.9464370012283325,-1.6716147661209106,0.46344324946403503,0.13364219665527344,-2.2968931198120117,1.3623334169387817,-0.4884500503540039,0.7535253167152405,-0.6652613282203674,0.43927282094955444,-0.9849895238876343,1.9967882633209229,-1.027841567993164,-0.32188716530799866,0.7981846928596497,1.7166510820388794,0.8547348976135254,-0.24989941716194153,0.045692507177591324,0.05548940971493721,0.11582008749246597,-0.5678139925003052,-0.30805695056915283,-0.70949786901474,1.1535778045654297,-0.6485639810562134,1.7080010175704956,-0.856224000453949,-0.5706564784049988,-1.3225644826889038,-1.9029459953308105,-0.9028302431106567,1.0421003103256226,-1.1293036937713623,-1.4667823314666748,1.4036628007888794,0.2037089318037033,-0.23493696749210358,2.634011745452881,0.8430622816085815,0.6076705455780029,1.9356917142868042,1.9594314098358154,-1.3678520917892456,0.13615477085113525,-0.9726272821426392,1.3143922090530396,-1.4610106945037842,0.29729583859443665,-0.47380539774894714,-0.8027071356773376,-0.6624592542648315,-0.4473332166671753,-0.48636487126350403,0.31134599447250366,0.9648726582527161,0.34390789270401,-0.3671647012233734,0.3508712947368622,0.6929860711097717,0.9800395369529724,-0.32136040925979614,-1.2034385204315186,0.30596283078193665,0.6823588013648987,-0.4927646815776825,-2.360974073410034,-0.8105813264846802,-0.878735363483429,-0.2880483865737915,-1.8609365224838257,1.1167362928390503,-0.3946932256221771,0.5952866077423096,0.5047900080680847,1.9956446886062622,1.7697495222091675,-1.1013766527175903,0.5244467258453369,0.0032765052746981382,-1.5589343309402466,1.6822831630706787,0.18154564499855042,0.09756217896938324,0.7835278511047363,0.8967611193656921,1.1654585599899292,-0.02945336513221264,-0.6784310936927795,-0.4655868411064148,0.027522986754775047,1.8116096258163452,-2.4730799198150635,1.897010326385498,0.3893583416938782,-0.4607275426387787,1.9988455772399902,0.9041570425033569,0.09417899698019028,-2.3067710399627686,-0.12199904769659042,0.8083751797676086,1.147864818572998,-0.689301073551178,-0.8348615765571594,-1.119289517402649,-0.15026892721652985,1.3804879188537598,0.6000562906265259,0.7327909469604492,0.29431888461112976,-0.9090160727500916,0.4665180444717407,-0.3471836447715759,-0.5172427892684937,-0.5253429412841797,-0.45148470997810364,-0.4013804495334625,-0.8470527529716492,1.3283088207244873,1.135268211364746,0.4123614728450775,0.5614731311798096,0.36205580830574036,0.33471739292144775,-1.2581247091293335,0.5506227612495422,0.23179662227630615,-1.2970974445343018,0.9454969167709351,-0.2816440463066101,1.4186736345291138,-0.01991255395114422,-2.2086572647094727,0.5617626309394836,2.260498285293579,-1.8477953672409058,0.8362695574760437,-0.6851205825805664,-0.3513357639312744,-0.8187018036842346,0.3196755051612854,1.5341517925262451,-0.5476950407028198,-0.6263216733932495,2.2486331462860107,-0.37470677495002747,-0.6233594417572021,0.44607013463974,2.168931484222412,0.21146954596042633,1.325127363204956,-1.267179250717163,0.07386405020952225,-0.11895419657230377,1.338159203529358,2.314051866531372,-0.3531152009963989,0.7546140551567078,-1.2684259414672852,0.8116888403892517,-0.31325697898864746,-1.5072588920593262,-0.02815375290811062,-2.8425421714782715,0.036430634558200836,-1.410050630569458,0.5728294849395752,1.0609147548675537,-0.8329685926437378,-1.9730894565582275,0.0801885798573494,0.04826078191399574,-1.47111177444458,0.10222875326871872,1.7453010082244873,0.018478214740753174,0.9379932284355164,-1.0251295566558838,-2.5187020301818848,-0.5613549947738647,0.22552074491977692,0.3994982838630676,-2.0855913162231445,-1.0380452871322632,-0.5687548518180847,0.4849441349506378,1.1079593896865845,-0.8479259610176086,1.879320740699768,-0.21619349718093872,-0.9493787884712219,-1.2434134483337402,1.2953695058822632,0.9032995104789734,0.8462409973144531,-1.615155816078186,0.28358304500579834,0.09238289296627045,-0.5323270559310913,0.5852060317993164,-0.22296525537967682,1.1083827018737793,-0.17922279238700867,-1.013510823249817,0.036501407623291016,0.0905204638838768,-0.10760491341352463,-0.27562493085861206,-0.44007226824760437,-0.4683215618133545,0.7077184915542603,1.8108247518539429,0.011459761299192905,0.9565445184707642,-1.4713493585586548,-1.9237788915634155,-1.7253859043121338,0.6758959293365479,2.0167384147644043,0.039570827037096024,-0.5620015859603882,-1.3055477142333984,-0.4596240818500519,0.219669908285141,-0.19968855381011963,-0.966475248336792,-1.4157743453979492,0.05139622464776039,-2.3061413764953613,2.209656238555908,-0.298806369304657,-1.7744299173355103,-0.7884836792945862,1.0357346534729004,-0.46760180592536926,1.8792310953140259,0.7105656862258911,-0.7467010617256165,-0.0004360310558695346,0.0367770679295063,1.3842251300811768,0.03182884305715561,1.8609576225280762,-1.2548415660858154,1.4603633880615234,-1.3832181692123413,-1.0078924894332886,2.3041017055511475,-1.3976260423660278,-1.4314993619918823,1.415305495262146,0.820555567741394,-1.2782132625579834,0.5299748778343201,-0.04068992659449577,0.3868410289287567,1.7666916847229004,0.654100775718689,0.6747419238090515,-0.35739073157310486,-0.6662165522575378,-0.4157108962535858
b'\xe7\x94\xb5\xe5\xad\x90\xe6\x98\xbe\xe5\xbe\xae\xe9\x95\x9c',-0.5508750677108765,-0.034298110753297806,0.2030072808265686,-0.6214614510536194,0.2471161037683487,0.4969141185283661,0.3160354495048523,-0.4721861183643341,0.4245047867298126,-0.08004675805568695,-0.6726135015487671,-0.14493094384670258,0.7266563773155212,-0.22457945346832275,-0.26390978693962097,-0.09770084172487259,-0.04706602916121483,-1.2814303636550903,-0.570644736289978,0.06367294490337372,-0.12925459444522858,-0.7568559050559998,0.14525267481803894,-0.10905253142118454,0.5336325764656067,-0.06728370487689972,0.40338850021362305,-0.9236507415771484,-0.02338399365544319,-0.3278762698173523,0.40086081624031067,0.03950412943959236,-0.02200539968907833,0.3343280851840973,0.12117082625627518,-0.7589899897575378,0.743705689907074,0.22860540449619293,0.5386255979537964,-0.5560958981513977,0.15923458337783813,0.9879212379455566,-0.6741371154785156,0.04762621596455574,0.07543795555830002,-0.5254754424095154,-0.06959294527769089,-0.22799746692180634,0.24007943272590637,0.08520577102899551,-0.7378911972045898,0.6372426152229309,-0.14679719507694244,0.0985882356762886,-0.04709821939468384,-0.7325337529182434,-0.4666019678115845,-0.06563685834407806,-0.2728181779384613,-0.3397887945175171,-1.1249123811721802,-0.34708842635154724,0.636536180973053,-0.16606348752975464,0.6712726950645447,-0.3710929751396179,-1.0523231029510498,-0.8580023050308228,-0.3034873902797699,0.3432929217815399,-0.06460848450660706,0.013387189246714115,-0.1502259522676468,0.9100629687309265,-0.312185674905777,0.1380879133939743,-0.08562969416379929,0.415144681930542,1.3921231031417847,0.4146057069301605,-0.13404954969882965,0.5339199304580688,1.0401623249053955,-1.3740986585617065,-0.31409990787506104,-0.17072038352489471,0.5294849872589111,1.0918203592300415,0.3748490512371063,-0.18316352367401123,0.22273609042167664,0.6807169318199158,-0.037315573543310165,0.20979006588459015,0.13748210668563843,0.12251077592372894,-0.30375951528549194,-0.082007497549057,0.32007545232772827,0.4344867169857025,0.012445599772036076,-0.31220072507858276,-0.49471741914749146,-0.114686019718647,0.12872938811779022,0.244255930185318,-0.2684674859046936,1.2734928131103516,0.5671581029891968,-0.055706433951854706,-0.23215113580226898,0.3516608476638794,0.36044853925704956,-0.21449927985668182,-0.413579523563385,0.7969843149185181,-0.9377274513244629,-0.2823110520839691,-0.367685467004776,0.39373379945755005,0.1307022124528885,0.15144792199134827,-0.24716560542583466,0.3781954348087311,-0.2741738259792328,-0.0678701177239418,0.9015294909477234,-0.6779947280883789,-0.23342560231685638,0.8587620854377747,0.0621151365339756,0.6480761766433716,-1.2952098846435547,-0.007112440653145313,-0.22115091979503632,0.7027849555015564,-0.290735125541687,-0.48521506786346436,0.2050676792860031,-0.1679057627916336,0.588216245174408,-0.37388476729393005,-0.02029469981789589,1.094620943069458,-0.01435091532766819,-0.031581804156303406,0.6203920245170593,-0.45115962624549866,0.41456207633018494,0.17363081872463226,0.4461418688297272,0.9168601036071777,-0.5860297679901123,0.3104627728462219,0.19382286071777344,-0.35972195863723755,0.13036948442459106,-0.17990335822105408,-0.18831974267959595,0.0763673260807991,0.020345402881503105,0.6079099774360657,-0.029453715309500694,0.3302886188030243,-0.23924829065799713,-0.006447103340178728,0.8832452297210693,-0.555448591709137,0.27913182973861694,-0.3142271935939789,-0.4966259002685547,-0.015253691002726555,1.3305766582489014,0.902807891368866,-0.5614515542984009,0.38642314076423645,0.8020144701004028,-0.28080594539642334,0.43729859590530396,1.3787277936935425,-1.2281241416931152,0.1346297711133957,0.18834127485752106,-0.4342963397502899,-0.2962667644023895,0.09744539856910706,0.26763996481895447,0.07382092624902725,-0.571312427520752,-0.23671506345272064,-0.03211513161659241,0.5740112662315369,0.3404267728328705,0.08983837813138962,-0.28856053948402405,-0.2602805197238922,0.045649513602256775,-0.20295175909996033,-0.9705847501754761,-0.3659913241863251,0.7868250608444214,-0.32339590787887573,-0.35043561458587646,-0.8981919884681702,0.06435337662696838,0.3014650046825409,0.34716278314590454,0.10653163492679596,0.6481736302375793,-0.14441238343715668,-0.4255092442035675,-0.4804282784461975,-0.18383671343326569,0.8458746075630188,0.01636221818625927,-0.002422991441562772,-0.21217229962348938,-0.26716750860214233,0.41285741329193115,-0.8012068867683411,-0.44901230931282043,-0.7697036862373352,0.1878460794687271,1.2979276180267334,-0.9542540907859802,0.16892555356025696,-0.19583076238632202,-0.5960374474525452,1.0310496091842651,-0.7373780608177185,0.94486004114151,0.3829025626182556,-0.2789763808250427,0.5605230331420898,0.7270338535308838,0.37439554929733276,-0.6305813193321228,0.5271840691566467,-0.3898952305316925,-0.5690423250198364,-0.3829827308654785,-0.6683083176612854,-0.7796676158905029,-0.516430139541626,-0.3652365207672119,0.8446226119995117,0.25168830156326294,-0.7482694983482361,-0.29484015703201294,0.6504468321800232,-0.3849143087863922,-0.043389156460762024,-0.14834249019622803,0.3401873707771301,0.5143161416053772,-0.16730788350105286,0.5379288196563721,-0.1418898105621338,0.6147658824920654,0.41828563809394836,-0.7956152558326721,0.13739702105522156,-0.8382931351661682,-0.15081141889095306,0.13988932967185974,0.4358959496021271,0.8418791890144348,0.2228526622056961,0.5101351141929626,-0.5826098918914795,-0.20966961979866028,0.10996414721012115,0.8957074880599976,0.302144855260849,0.06672941148281097,-0.18590830266475677,-0.6583593487739563,0.026252267882227898,-0.4939122200012207,0.4482322633266449,-0.4849819839000702,-0.4038604199886322,1.2059931755065918,-0.25755178928375244,-0.9626373648643494,0.24288254976272583,-0.3048021197319031,0.2748318910598755,-0.48626723885536194,-0.008399171754717827,-0.36055174469947815,0.15067733824253082,0.23309426009655,0.15915079414844513,-0.2947697043418884,0.8207919001579285,-1.0701477527618408,0.5470695495605469,-0.2779679298400879,-0.700262188911438,1.121938943862915,-0.45834699273109436,-0.2539549767971039,-0.4181651771068573,0.32393577694892883,-0.2473626285791397,-0.5229758620262146,-0.7570700645446777,-0.8258070945739746,0.22089602053165436,-0.008068155497312546,0.3410508632659912,0.6308236122131348,-0.47185173630714417,0.28939321637153625,-0.7975915670394897,-0.4444599747657776,-0.3849312365055084,-0.10384973883628845,-0.3218318819999695,0.14386509358882904,-1.1730271577835083,0.2716027498245239,0.32490649819374084,-0.7324785590171814,-0.13602887094020844,-0.6707617044448853,-0.5267132520675659,0.4991692304611206,0.12135392427444458,-0.4080708920955658,0.4044528901576996,0.0006490289233624935,-0.8521756529808044,0.4171631336212158,-1.088828682899475,-0.4469555914402008,-0.4133894145488739,-0.9824787378311157,-0.9660637974739075,0.05771064758300781,-0.40208739042282104,-0.2513865828514099,-0.9614706039428711,-0.6594127416610718,-1.1008278131484985,0.2667939066886902,0.3911559283733368,0.2618410587310791,0.6735947132110596,-0.2163940668106079,-0.4893879294395447,0.041750624775886536,-0.28795358538627625,-0.08076877892017365,-0.9659717679023743,0.37813591957092285,-0.5493411421775818,-0.21130235493183136,0.10473166406154633,-0.05842433124780655,0.3736180365085602,0.2375851422548294,-0.4979774057865143,-1.3942278623580933,-0.8228786587715149,-0.29471585154533386,0.7061211466789246,0.6159425973892212,-0.8741695880889893,0.2580367922782898,-0.3983041048049927,1.1453406810760498,0.8243237137794495,0.22913290560245514,-0.3307640552520752,-0.3677000403404236,-0.7330841422080994,0.5989917516708374,0.0933593213558197,0.19941619038581848,-0.04534585401415825,0.39374205470085144,-0.33386948704719543,-0.96656334400177,-0.01881679706275463,0.8063017129898071,-0.41216346621513367,-0.2656992971897125,-0.6175490021705627,0.2361738681793213,0.5635981559753418,-0.5969139933586121,-0.05341743305325508,0.7054628133773804,0.5122811198234558,0.5808339715003967,0.2511870563030243,0.7973132133483887,-0.5600771903991699
b'\xe9\xaa\xa8',1.2199903726577759,1.3598945140838623,0.19380506873130798,-1.3671374320983887,0.9733687043190002,-0.4892018139362335,0.10207556933164597,-0.6687509417533875,0.9793710708618164,-1.535933256149292,0.3691585063934326,-0.3525925874710083,1.1620510816574097,2.3560619354248047,-0.8421791195869446,2.206376791000366,0.4789319336414337,-0.6602738499641418,-0.7971976399421692,0.6615105867385864,-0.14148147404193878,-0.21864402294158936,1.6992828845977783,0.045735299587249756,-0.0006659534410573542,0.955176055431366,0.690494954586029,0.3022215962409973,-0.9625015258789062,0.3680177927017212,-0.8856987953186035,1.4901756048202515,-1.2089381217956543,0.9781508445739746,1.8517013788223267,1.0205693244934082,1.2232657670974731,2.257702589035034,2.0801219940185547,-2.818943738937378,-0.1656482070684433,-0.7079758644104004,-1.4264414310455322,0.8394395709037781,-1.6112360954284668,0.5077124834060669,-1.9159631729125977,0.8833745121955872,0.4518122673034668,-0.7976818680763245,1.4169795513153076,-0.5557015538215637,-0.7372185587882996,0.3974325954914093,2.0584497451782227,0.046012748032808304,-0.8658602833747864,-1.4249216318130493,-0.9254615902900696,-0.23809772729873657,0.8478222489356995,0.9831123352050781,0.40755584836006165,0.10852466523647308,1.0932049751281738,0.33137285709381104,0.121980220079422,0.12291638553142548,-1.803719401359558,1.2435225248336792,-1.0214407444000244,-1.3263853788375854,-1.2129212617874146,1.07119619846344,1.3495272397994995,-1.0788516998291016,1.859634280204773,-0.4278775453567505,0.012447779066860676,-0.5562891960144043,-0.4577905237674713,0.2178249955177307,0.7680830955505371,-0.08009648323059082,0.19948619604110718,-0.6010082364082336,0.25286275148391724,-0.9382525086402893,-0.4152390956878662,-0.5530163049697876,-0.27516257762908936,0.06936708837747574,-1.3311898708343506,-1.2976173162460327,-0.5415553450584412,1.0025064945220947,0.5754470825195312,0.32428085803985596,-0.435697078704834,1.0318949222564697,-0.7195695042610168,-1.8752110004425049,0.4172094464302063,-0.6015716791152954,-0.793167233467102,0.3610836863517761,-0.1215430423617363,0.6438648700714111,-0.2984950840473175,-0.5718668103218079,-0.1563916802406311,-0.6932960152626038,0.34799984097480774,-1.8991293907165527,0.4964306950569153,-0.30181893706321716,0.8773049116134644,0.12007705867290497,0.6884350776672363,0.6018117666244507,1.5474627017974854,0.12837249040603638,-0.2682596445083618,-1.2793594598770142,-1.0146543979644775,0.12005463987588882,0.9487942457199097,0.826540470123291,-1.6545023918151855,-0.45682042837142944,-0.18108287453651428,-2.1411795616149902,-1.1719086170196533,1.143951654434204,-2.250231981277466,0.5922118425369263,-0.38727322220802307,-0.3002708852291107,1.1066653728485107,-1.0273054838180542,1.8933112621307373,-1.4968981742858887,-0.9113399982452393,-0.6682194471359253,0.598048210144043,-1.2106660604476929,0.31200167536735535,-0.9280500411987305,-2.4317750930786133,0.14068004488945007,0.43956539034843445,1.8775984048843384,0.7849066257476807,-1.6512634754180908,1.2168701887130737,0.2910236418247223,0.5647570490837097,-1.4797875881195068,-0.8642345070838928,-1.8829963207244873,0.30994677543640137,-0.9044470191001892,-0.49434375762939453,0.7954726219177246,0.12067785859107971,0.32550427317619324,-0.018823854625225067,-0.6783041954040527,0.47290661931037903,-0.5868625640869141,0.10615227371454239,-1.6388168334960938,0.7178754210472107,0.8275171518325806,-1.7871646881103516,0.6206388473510742,-0.20208269357681274,-0.509316623210907,1.7480117082595825,-0.4255123436450958,-0.37367182970046997,0.4715554714202881,-0.9697534441947937,-1.5227166414260864,0.15524761378765106,-0.9064159989356995,-0.727741003036499,0.21489067375659943,0.343517005443573,0.05825841426849365,-0.052328046411275864,-0.031077038496732712,-0.7471454739570618,-0.37667667865753174,-1.9604519605636597,0.759143054485321,0.8243697881698608,0.4521206021308899,0.28109556436538696,0.38569557666778564,-0.33400657773017883,-1.4881943464279175,-0.6222103834152222,-0.8660380840301514,-0.2488974928855896,-0.37895792722702026,0.28596779704093933,0.8874836564064026,-0.5368670225143433,-1.118820071220398,-0.5480168461799622,0.786114513874054,0.2718728482723236,-1.419518232345581,-1.6022961139678955,-0.7956506013870239,-0.4350283443927765,-1.0644539594650269,0.05149902030825615,-0.5816531181335449,-0.680869460105896,0.026436764746904373,0.15544921159744263,0.5947187542915344,-1.129629135131836,0.540134072303772,0.8579782843589783,1.2888855934143066,0.4799371063709259,0.8429008722305298,-0.15982262790203094,0.6760987639427185,0.8183785676956177,-0.2106875777244568,-0.9795960783958435,0.8786351084709167,0.00011709813406923786,0.4517481327056885,-1.5916860103607178,0.024232883006334305,-1.0769236087799072,-0.9376537799835205,-0.4478117525577545,0.07453394681215286,-0.8955231308937073,0.07182592898607254,-0.8611994981765747,-3.2563483715057373,0.3468087315559387,1.6544231176376343,-1.7082149982452393,0.8171764016151428,-0.7287439107894897,0.41060733795166016,2.0926525592803955,0.17217592895030975,1.929114580154419,-0.8716006875038147,-0.5592902302742004,1.000388741493225,-1.1538878679275513,-0.3944990932941437,-2.6422581672668457,0.36365652084350586,-2.246758460998535,0.2962847650051117,-0.5475077033042908,-0.6907102465629578,-0.014726482331752777,0.918506920337677,0.8042474985122681,2.5619146823883057,0.43555158376693726,0.9021081328392029,1.297541618347168,-0.2652461528778076,0.8225628733634949,0.567664384841919,-0.17255841195583344,1.6875596046447754,-0.09153526276350021,-2.0839016437530518,0.5174713730812073,0.08902103453874588,-0.7178560495376587,0.6769654154777527,-0.728317141532898,0.9416067600250244,-0.6707953810691833,-0.7575244903564453,-0.3132217824459076,1.00676691532135,0.4693736732006073,1.2061471939086914,0.38533300161361694,0.24783438444137573,-0.7137343287467957,1.0763580799102783,-0.4404126703739166,0.7980821132659912,0.06059206277132034,-0.4703553020954132,-0.9744901061058044,-0.8043186664581299,-0.5675866007804871,-0.3920353055000305,-0.33457106351852417,1.604515552520752,-0.15085072815418243,0.6478121876716614,-0.2510703206062317,1.8079981803894043,-0.5268879532814026,-0.9715104699134827,0.319126158952713,0.6312938928604126,-0.8470191359519958,2.1198086738586426,-1.6426563262939453,0.9593527317047119,-0.38846516609191895,-0.2305225282907486,0.6657477617263794,0.6026976704597473,-0.498410165309906,1.1876945495605469,-0.2103395313024521,1.4093940258026123,0.27425581216812134,0.9500672221183777,0.8618524670600891,0.24821928143501282,-0.11859812587499619,-0.3865469992160797,0.168380469083786,-0.5486498475074768,-1.5303653478622437,0.9286971688270569,-0.9086654782295227,-0.7253557443618774,-0.34757739305496216,-2.9371209144592285,-0.17058615386486053,0.3606812357902527,-0.3192829489707947,0.47101065516471863,0.4758787155151367,-0.40153297781944275,-0.6912019848823547,0.6573491096496582,1.5742756128311157,-0.9414101839065552,0.004237142391502857,-0.25750938057899475,-0.34638068079948425,-0.8135841488838196,0.6381746530532837,0.7472801804542542,-0.8109456896781921,0.41446399688720703,1.1981953382492065,0.8534783124923706,0.31071165204048157,-0.5169513821601868,-0.18048912286758423,0.3473457098007202,-0.20305174589157104,1.227251410484314,-0.7422738671302795,-0.9593223333358765,0.6027137637138367,-1.1615570783615112,0.46042999625205994,-1.1542601585388184,-0.44133490324020386,-0.23231185972690582,1.9662449359893799,-1.4551715850830078,-0.89956134557724,0.4861488938331604,0.2931687533855438,0.32747164368629456,-0.18604905903339386,-0.6959163546562195,-0.2576806843280792,-1.0876957178115845,0.42202305793762207,-0.1614895612001419,-1.7819113731384277,-0.07934962958097458,-0.2013390213251114,0.775882363319397,-0.3942318260669708,0.8775040507316589,-0.7789723873138428,0.5742469429969788,0.3407609760761261,1.1471726894378662,-0.9171902537345886,-2.044434070587158
b'\xe7\xa3\xa8\xe6\x8d\x9f',0.41047996282577515,-0.6415495276451111,1.8238322734832764,-0.10321203619241714,1.5830082893371582,-0.7531459331512451,-0.667133629322052,0.2447526901960373,2.1138317584991455,0.43075132369995117,-0.15284579992294312,-0.5481927394866943,0.983165442943573,1.3464016914367676,-0.26575759053230286,0.041238926351070404,-0.956554651260376,-0.4615665674209595,0.9841936230659485,-0.09974145144224167,-1.345572590827942,-0.6893697381019592,0.9349361062049866,0.5850376486778259,-0.7627807855606079,0.8168815970420837,1.3322144746780396,-0.7505251169204712,-0.3742941617965698,0.08178948611021042,0.9808498620986938,1.742714285850525,0.29865017533302307,0.005983928218483925,0.1386079043149948,-0.09010378271341324,-0.2534271776676178,-1.019089698791504,0.7175149917602539,-0.45639941096305847,0.71220862865448,0.0913437157869339,-0.6851113438606262,0.637235701084137,-1.4985917806625366,0.2617321014404297,-0.468738317489624,-0.18151775002479553,-0.4123423993587494,-0.3094261586666107,0.7254433035850525,-0.8141542673110962,-0.27900245785713196,0.531641960144043,-0.020736807957291603,-0.1807509809732437,-0.023839177563786507,-1.3063619136810303,0.6681060194969177,0.3836556375026703,-0.002980239223688841,0.9836721420288086,0.7833008170127869,0.719516932964325,0.8389465808868408,0.6589443683624268,-0.5479743480682373,0.4579141139984131,-0.13168153166770935,0.48136404156684875,-0.38961127400398254,-1.0010173320770264,0.294746458530426,-0.3750964105129242,0.24312731623649597,0.40900877118110657,1.0057317018508911,-0.3032490611076355,-0.45815882086753845,0.016939816996455193,-1.1320217847824097,-0.22375644743442535,0.9954366087913513,0.2951570451259613,-0.8564839959144592,-0.6508039236068726,1.7609285116195679,0.0742453932762146,0.4778074026107788,0.768486738204956,-0.08036287873983383,-0.6578607559204102,0.7954420447349548,-0.2520623207092285,-0.0027240717317909002,0.30898168683052063,-0.2602675259113312,1.2042747735977173,0.7163747549057007,-0.45911410450935364,-1.3259234428405762,-0.2412874549627304,-1.1209192276000977,-0.10867493599653244,-1.0960266590118408,-0.36555784940719604,1.1392499208450317,2.229260206222534,-1.3796807527542114,1.4271551370620728,0.19437764585018158,0.3984340727329254,1.0907313823699951,-1.233712911605835,0.479754239320755,-0.4497779607772827,0.32629019021987915,0.5121797919273376,-0.5489112138748169,1.278579831123352,0.5559139847755432,1.8079729080200195,0.04764168709516525,2.030513048171997,-0.004896479193121195,-0.8550263047218323,0.235812708735466,-0.009697200730443,-1.1791343688964844,2.862717866897583,-0.5388619899749756,0.5791930556297302,-0.7487098574638367,-0.20961645245552063,-1.3682880401611328,-0.2261882722377777,-0.7473117113113403,-1.2720422744750977,0.27193474769592285,-0.8670167922973633,1.0214606523513794,-0.8904745578765869,0.2567760944366455,0.6067700982093811,0.8840337991714478,0.09926216304302216,-0.4324537217617035,-0.33323827385902405,1.0709723234176636,-0.16877318918704987,0.06859004497528076,0.4761817157268524,-0.8018673658370972,-0.19231119751930237,0.33060166239738464,-0.377510130405426,-0.27919477224349976,-0.22953009605407715,-0.5237622857093811,-0.4889492392539978,-0.3010053038597107,1.8557813167572021,-0.8588368892669678,0.03656511753797531,0.5953959822654724,1.4045708179473877,0.10015486180782318,0.6247485280036926,-0.3341386616230011,-1.1594700813293457,-1.217686414718628,-0.4542636275291443,0.09206903725862503,-0.303544282913208,-0.5362514853477478,-0.005787697620689869,0.3575904369354248,0.19083385169506073,0.5603599548339844,-0.27071717381477356,-0.5831872820854187,-0.4847719669342041,0.30527785420417786,0.29837796092033386,1.359542965888977,0.25096067786216736,-0.5607373714447021,0.5183911323547363,0.40239670872688293,-1.493515968322754,1.8840293884277344,-0.03844067454338074,-0.5827637314796448,-1.0779600143432617,-1.8744949102401733,-0.6529172658920288,-0.456534743309021,0.001885313424281776,-0.39208054542541504,-1.2329224348068237,-0.4615701138973236,-0.4390801191329956,-0.0839974656701088,-1.7978092432022095,-1.7412495613098145,-0.3419043719768524,0.05596981570124626,-0.11221645772457123,0.4290218949317932,1.6847680807113647,0.103647381067276,0.8967030644416809,-0.1527964323759079,0.10908903181552887,-1.0160939693450928,-0.5689870715141296,0.836298406124115,-1.6069116592407227,0.8538324236869812,-0.10411570221185684,0.4342174232006073,0.24013569951057434,-0.043472521007061005,0.23978395760059357,-0.9529266357421875,0.49481114745140076,-0.9616355299949646,-0.22588706016540527,0.45502158999443054,1.3784548044204712,1.4763641357421875,1.4201730489730835,-1.3199666738510132,1.1488813161849976,0.29525139927864075,-0.0951293483376503,-0.18514037132263184,0.7391670346260071,0.901750922203064,-0.546321451663971,1.25838041305542,0.5724825263023376,-0.06923441588878632,0.9579436182975769,-1.0188658237457275,-0.33102524280548096,1.4146630764007568,-0.06729131937026978,0.6764413118362427,2.215501308441162,-0.5278408527374268,0.6481884717941284,0.40879133343696594,-0.03286793455481529,0.2200881540775299,-1.971296787261963,1.0631624460220337,-0.20010611414909363,1.5236281156539917,1.6251689195632935,-1.4951388835906982,-0.47586768865585327,-0.6682761311531067,-1.5573328733444214,-1.1218171119689941,0.1275845766067505,-0.3818623721599579,-0.23253200948238373,0.02287093549966812,0.6518316268920898,-2.0120179653167725,1.7918578386306763,0.2911105155944824,-0.3480166494846344,1.5361543893814087,0.05293390527367592,0.5771865844726562,-0.6442074179649353,0.6727319955825806,1.052519679069519,0.04649750888347626,-0.39539825916290283,1.9940755367279053,-1.2576526403427124,-0.9755005836486816,-0.5934825539588928,-0.97807377576828,-0.5080953240394592,-1.8406553268432617,-0.9148239493370056,-1.2392793893814087,-0.3949219286441803,0.10811333358287811,-0.8879241347312927,0.27972352504730225,0.9630548357963562,-0.2783660590648651,1.063398003578186,0.18588705360889435,0.1118275374174118,0.4426833987236023,-0.204254612326622,0.9645107388496399,0.03342539817094803,0.8674114942550659,0.6912145018577576,0.7825296521186829,-0.5989125370979309,0.278078556060791,-0.059646423906087875,0.5754013657569885,1.4995942115783691,0.9919216632843018,-0.27200061082839966,-0.06571952253580093,1.531952977180481,0.05299079045653343,1.3936463594436646,-0.4158809185028076,-0.21340234577655792,0.5535250306129456,-0.7515625953674316,-0.5215314030647278,0.23145587742328644,-1.0956881046295166,0.6956613063812256,-0.7179474234580994,0.8471077084541321,0.6044074296951294,0.08353623747825623,0.9123843312263489,-1.2134885787963867,0.4684634208679199,-0.9444319009780884,-0.07302547991275787,-0.20937703549861908,-2.0086042881011963,-0.688651978969574,0.44917547702789307,-0.4308888614177704,-1.2595078945159912,-0.38101091980934143,-0.21840578317642212,0.20122292637825012,0.05403856933116913,0.9150530695915222,0.4186205267906189,-0.808083713054657,-0.364440381526947,0.7858085036277771,-0.44391384720802307,0.7719206809997559,-0.5556642413139343,0.8915041089057922,0.0008561269496567547,-2.619471549987793,0.36926430463790894,0.15553772449493408,0.9010465741157532,0.4816056191921234,-1.6827740669250488,-0.9135117530822754,-1.3204325437545776,-0.264087975025177,-1.3809428215026855,0.48310786485671997,-0.43122807145118713,1.2046864032745361,0.1928778886795044,-0.5075432062149048,0.12191718071699142,-0.37926995754241943,0.8091008067131042,0.47606873512268066,0.9074910283088684,-0.2637217342853546,1.0744655132293701,-0.25465935468673706,0.3099614083766937,-0.39043840765953064,-0.18105265498161316,-0.8974296450614929,-0.5259847044944763,-0.5625341534614563,-1.0336841344833374,-0.2833300530910492,0.1213347539305687,0.23777437210083008,0.27182537317276,-0.5219078660011292,0.2466534674167633,0.43145620822906494,-0.10669845342636108,0.6554593443870544,-1.0135016441345215,1.1275043487548828,-0.18203863501548767,-0.590792715549469,0.7386232018470764,-3.036142349243164
b'\xe9\x9a\x8f\xe6\x9c\xba',-0.009612346068024635,-0.8171855211257935,1.8887591361999512,-0.22635534405708313,0.6433393955230713,0.5310486555099487,0.4142448306083679,-0.8976488709449768,1.2606706619262695,-0.8632808327674866,-0.7908520698547363,0.6744159460067749,0.9172925353050232,-1.2144166231155396,-0.6637782454490662,0.22825303673744202,-0.20001772046089172,-0.678081750869751,0.9176041483879089,-0.4056232273578644,-0.7107360363006592,0.145333394408226,0.6987158060073853,0.48818477988243103,-1.6987478733062744,-0.46171239018440247,-0.7212948799133301,-0.9791351556777954,1.0949649810791016,-0.9532732367515564,1.4074960947036743,0.7959563136100769,-0.48673245310783386,-0.13832339644432068,0.5579365491867065,0.39992907643318176,2.3942158222198486,-0.21274013817310333,-0.9700210690498352,-0.43496018648147583,-0.08959536999464035,0.22826451063156128,-0.3078407049179077,1.2498445510864258,-1.6871312856674194,0.15861563384532928,-1.2540165185928345,1.306805968284607,0.918549120426178,-1.4863853454589844,-0.42485687136650085,-1.7351908683776855,-1.8630009889602661,-1.7161601781845093,-0.8595976829528809,0.419920951128006,-2.0124008655548096,0.8793472051620483,0.12292423099279404,-1.6063787937164307,-1.0776479244232178,0.8170749545097351,0.15122613310813904,-0.3268616199493408,0.5585854053497314,-2.3565480709075928,-1.517484188079834,-0.32065078616142273,-1.1616014242172241,-0.1154332235455513,1.7133592367172241,0.41156941652297974,1.5684560537338257,1.950359582901001,-0.18715183436870575,-0.6742894649505615,0.04481162130832672,0.014236812479794025,-0.2621487081050873,-2.296638250350952,0.716793417930603,2.705700397491455,0.7644524574279785,-2.0182089805603027,-0.6415272355079651,-1.8004534244537354,-1.6411433219909668,0.37939804792404175,0.24146300554275513,-0.15025876462459564,1.306840419769287,-1.1790574789047241,-0.8710170984268188,1.6061108112335205,1.3678581714630127,-0.017676642164587975,-0.9258111119270325,1.2131924629211426,-1.7978571653366089,2.1893398761749268,-0.8271583318710327,-0.7928107380867004,-0.7966768145561218,0.14357434213161469,-0.9252966642379761,0.6176512837409973,0.9194992184638977,1.4234378337860107,0.1709505021572113,0.07108990103006363,-2.2748472690582275,-0.20405490696430206,-0.9193776249885559,-0.24915796518325806,-1.0498007535934448,1.1087301969528198,-0.07147051393985748,-0.6940861940383911,2.1350276470184326,2.1636481285095215,0.3701938986778259,0.5901146531105042,-0.7674054503440857,-1.0531728267669678,1.079846739768982,0.031232181936502457,0.3456549644470215,-1.489870548248291,0.8202671408653259,1.270806908607483,-1.1041454076766968,0.6320687532424927,-0.7783766984939575,-0.9766629934310913,0.8224292397499084,-0.5520234107971191,0.9427143335342407,-0.13305388391017914,0.3323059678077698,-0.5932371616363525,0.19054117798805237,-0.04227128624916077,2.131610631942749,0.3604455590248108,0.5060612559318542,-1.041164755821228,0.3573666512966156,0.020753230899572372,-0.504028856754303,-0.6959754824638367,2.0431952476501465,3.383359909057617,0.5786219835281372,1.4536772966384888,-1.980661153793335,-0.5660926103591919,1.903691291809082,-0.5221657752990723,-0.38696300983428955,1.342192530632019,-0.5059125423431396,-0.9092592597007751,-0.7919523119926453,-0.26187795400619507,-0.09077898412942886,-2.8994340896606445,0.8016452193260193,-1.1251530647277832,1.2687710523605347,-0.16854636371135712,0.9576730132102966,-0.5732218027114868,1.1032475233078003,-0.3518204391002655,-1.1457592248916626,0.25932106375694275,2.224278688430786,-0.19167564809322357,1.7090801000595093,0.002285204827785492,0.20915056765079498,-0.940357506275177,0.05830032750964165,0.9769672751426697,-0.6645658612251282,-0.25047528743743896,0.20573413372039795,0.6853688955307007,-0.32873132824897766,-0.9888734817504883,-0.06856236606836319,-1.1122016906738281,2.014577627182007,-0.804344654083252,-0.36153644323349,0.23155272006988525,0.7180988192558289,1.1107672452926636,-1.344857096672058,0.7556591629981995,1.2125896215438843,-1.2800986766815186,-0.1782960295677185,-0.06875351816415787,0.49603644013404846,-1.5185730457305908,0.7347809076309204,-0.24619413912296295,0.9983285069465637,-0.5109437704086304,1.092198371887207,1.0532724857330322,0.3597111403942108,1.7049369812011719,0.6090574264526367,-0.17727962136268616,0.222065731883049,-0.9395180940628052,-0.448757141828537,-0.689074695110321,-0.9111993908882141,0.48127874732017517,-0.5420119762420654,0.12387869507074356,-0.16167598962783813,-1.685562252998352,0.5450654625892639,-0.9865085482597351,0.6457732319831848,-0.6369276642799377,0.33792445063591003,-1.9436496496200562,-1.809482455253601,0.4496102035045624,0.9551296830177307,0.5064654350280762,-0.7567479610443115,0.6591999530792236,-0.8762372136116028,-0.6762597560882568,-0.3772229850292206,-0.6277623772621155,0.17496362328529358,0.7117108106613159,-1.6198049783706665,1.4205377101898193,0.06366879492998123,-0.746985137462616,-2.084031581878662,0.7592358589172363,0.15676717460155487,0.12042079865932465,0.2729174494743347,-0.32259052991867065,-1.481428623199463,-0.6222922205924988,1.8037000894546509,0.9802448749542236,-0.006544852163642645,0.9931527972221375,0.7020188570022583,0.808059811592102,1.0505908727645874,-0.21277345716953278,1.6337411403656006,-1.8547779321670532,-0.3401632010936737,-1.7591809034347534,-0.4853081703186035,0.18677496910095215,-0.6055507063865662,-1.1918789148330688,1.47970712184906,0.03411373123526573,-0.2506093978881836,-0.5895333290100098,-1.9298239946365356,-0.7059013843536377,0.8845983147621155,-1.2401424646377563,-1.478832721710205,-0.17161472141742706,2.1914987564086914,-1.0001217126846313,-1.0798540115356445,0.18884988129138947,0.14352533221244812,-1.269646406173706,-0.5659691095352173,-0.5206407904624939,-0.26940542459487915,2.2427785396575928,-0.906559407711029,0.7270933985710144,0.3258231580257416,0.3586059808731079,0.09542104601860046,-0.1515306979417801,1.1037535667419434,1.0813158750534058,-0.1342323273420334,-1.3266881704330444,0.028555385768413544,0.35352498292922974,-1.1693074703216553,0.1914246827363968,0.782862663269043,-0.7065585255622864,0.8619607090950012,-0.7695642709732056,-0.5651826858520508,0.4678899943828583,-0.6472569704055786,-0.3411270081996918,-1.0859715938568115,0.09913710504770279,0.12319976091384888,1.0558310747146606,0.7300794124603271,1.1660974025726318,-0.11065880954265594,-1.3369415998458862,1.5653672218322754,-1.0147464275360107,-1.1309224367141724,-0.8755818605422974,0.4000971019268036,-1.559051752090454,-0.441079705953598,-1.4724611043930054,1.6961404085159302,-0.4445156455039978,-0.3346428871154785,-0.25193408131599426,1.0815680027008057,1.6512229442596436,1.0440948009490967,0.9918461441993713,1.6354387998580933,-0.27227944135665894,-2.7238411903381348,0.5269849896430969,-0.3600344955921173,-1.5964072942733765,-1.3592424392700195,0.062004536390304565,-0.20969948172569275,1.7296104431152344,-1.0464357137680054,1.0039042234420776,-0.17295052111148834,0.35593360662460327,0.5943903923034668,-0.6607096791267395,-0.0556194968521595,-0.990612804889679,0.6721600890159607,-1.6772435903549194,1.0787467956542969,-0.38578420877456665,-1.0176535844802856,1.1578935384750366,-0.12626810371875763,-0.06132493540644646,-2.0952653884887695,-1.5679506063461304,-0.05368361249566078,-1.2754329442977905,0.1587143838405609,0.8126313090324402,0.6558962464332581,-1.4849334955215454,0.13536471128463745,0.8495274782180786,1.5027222633361816,-0.8171783685684204,-0.43023571372032166,-1.3384981155395508,-0.5849357843399048,-2.042649030685425,0.46368280053138733,1.4217233657836914,-1.7361115217208862,-0.15291298925876617,1.3230048418045044,1.5319209098815918,-1.3571423292160034,-0.41670525074005127,0.9190909266471863,-1.5599919557571411,-0.9628850221633911,1.249939203262329,0.5290173888206482,-0.11009440571069717,-1.220736026763916,0.7036443948745728,-0.03477318584918976,-1.92012357711792,2.045280694961548,-1.4382504224777222
b'\xe5\x88\xba\xe6\xbf\x80',0.2716536521911621,0.13549739122390747,1.1833715438842773,-0.11403253674507141,0.5316658020019531,-0.11573633551597595,0.2679964303970337,-0.4791499376296997,1.7081385850906372,-0.46003425121307373,-2.943324089050293,-0.7778106927871704,1.0811164379119873,1.1178624629974365,-0.04093793034553528,0.8339987397193909,-0.574385941028595,-0.7888920903205872,0.5526067614555359,0.4871056079864502,-1.466222882270813,-0.6533779501914978,0.4059917628765106,0.30114543437957764,1.5687785148620605,2.5453338623046875,0.47705650329589844,-0.5916686058044434,-0.14387866854667664,-0.1458813101053238,-0.11373414844274521,1.0582207441329956,0.021314578130841255,1.1766114234924316,0.30956175923347473,1.3535908460617065,1.9502108097076416,-2.04128360748291,1.047498106956482,0.5550152063369751,1.3038556575775146,-0.10362400114536285,-0.6741632223129272,0.3472791314125061,-0.7590163946151733,-1.4135218858718872,0.44385194778442383,0.49994614720344543,0.021095607429742813,0.06616920232772827,-0.8317237496376038,0.8839688301086426,-0.2461579144001007,1.1309908628463745,1.2981351613998413,-0.46401363611221313,-0.17605549097061157,1.2471896409988403,-1.6150529384613037,-3.277588367462158,-0.20550411939620972,1.1601464748382568,0.4170685410499573,0.12417946755886078,-0.08203824609518051,-0.4398343563079834,-0.739578902721405,-0.6103934645652771,0.765795111656189,0.8356935977935791,-0.9607507586479187,0.7207177877426147,-0.07615812122821808,0.7846304774284363,0.24789761006832123,0.651227593421936,-0.8499935269355774,-1.2449846267700195,-1.7745165824890137,-0.11240062862634659,0.38353270292282104,0.9175580739974976,0.3219490051269531,-1.3357722759246826,0.3027920424938202,-0.14975401759147644,0.05741652846336365,-0.8055338859558105,-0.6687604784965515,0.6952820420265198,0.2096867859363556,-1.5028594732284546,2.126455545425415,-2.279519557952881,-0.13791730999946594,0.6911742091178894,0.6829573512077332,0.7954404354095459,0.3100416958332062,-0.5525007843971252,1.687851905822754,-0.33539047837257385,0.20791573822498322,0.4084552824497223,-2.444018840789795,0.8829546570777893,-0.609025776386261,1.7118030786514282,-0.5950465798377991,1.1116399765014648,1.519217848777771,-1.6124082803726196,1.6201788187026978,1.5562758445739746,1.074102520942688,1.4989197254180908,0.8172895312309265,-0.0015753882471472025,-0.5875293612480164,1.583727478981018,0.6210681796073914,0.6577449440956116,-0.10471276193857193,0.24160119891166687,0.46418145298957825,1.4729547500610352,-0.12308325618505478,-0.5681973099708557,-1.0670571327209473,-0.12263955920934677,-1.4295517206192017,2.384605884552002,0.5912034511566162,-2.514455795288086,0.9285776615142822,-0.2028992921113968,-1.2797142267227173,-2.677095413208008,0.24751216173171997,-1.2745401859283447,1.5049062967300415,-0.8436448574066162,0.4422282874584198,-1.1701935529708862,1.7890466451644897,-1.3377825021743774,0.7761462926864624,0.604516327381134,1.0072298049926758,0.8294737339019775,0.8499288558959961,0.8954510688781738,0.9644378423690796,1.3722975254058838,0.1858416199684143,0.6395537853240967,-0.3904922306537628,-0.05836622416973114,0.20628491044044495,0.4900949001312256,-0.12645860016345978,0.5888357758522034,-0.9984592795372009,0.34745439887046814,0.21674056351184845,-0.2306734323501587,-0.5584083199501038,-0.7837981581687927,-0.4325640797615051,-0.3234638571739197,1.823918342590332,0.5417945384979248,0.10916248708963394,0.012631422840058804,1.0046343803405762,0.5568971633911133,-0.4547593891620636,-0.5488258004188538,0.06695789098739624,0.39685431122779846,0.22473575174808502,-1.0664639472961426,-0.09474043548107147,0.9409792423248291,-1.4195923805236816,1.0279585123062134,0.17960003018379211,0.6300498247146606,-0.1076449453830719,-1.1301919221878052,1.21491277217865,0.6891365051269531,-0.32215559482574463,-0.13511130213737488,-1.2611397504806519,-0.06302642822265625,0.2427789866924286,-1.0307810306549072,-0.14564305543899536,0.4243355989456177,-0.32669031620025635,-1.1459550857543945,-0.7085624933242798,-1.8991590738296509,-0.20501387119293213,-0.594078004360199,1.765169382095337,0.8975695967674255,2.4653329849243164,-0.14135879278182983,1.7339729070663452,0.9235485196113586,0.49675697088241577,0.27205178141593933,0.27858057618141174,-1.7056533098220825,-0.15627144277095795,-0.7166265845298767,2.2554526329040527,-1.7824805974960327,-0.5420187711715698,0.13955995440483093,0.47371309995651245,-0.5334133505821228,-0.860973060131073,0.4880363643169403,0.6464151740074158,-0.01635008677840233,-0.8104564547538757,-0.016927558928728104,0.3912900984287262,0.07372213155031204,-1.908385992050171,0.341130793094635,-1.3202048540115356,0.8072674870491028,-0.5102459788322449,0.9498158693313599,0.5908722281455994,-0.7455914616584778,-0.6016450524330139,1.058224081993103,-1.0159692764282227,-0.4635470509529114,-0.6901916265487671,1.7835055589675903,-0.3169621229171753,-0.7809919714927673,1.0045634508132935,0.9206138253211975,-0.3913412392139435,0.7633198499679565,-0.9210278987884521,-0.6896800994873047,0.6051532030105591,0.3860042989253998,-0.1368085891008377,0.2738790214061737,0.22925925254821777,1.7720690965652466,-1.1911684274673462,-1.0808299779891968,0.379223495721817,-0.18953506648540497,-0.8571788668632507,1.1661361455917358,-0.15305794775485992,-0.10620911419391632,0.9459447264671326,-1.3106261491775513,-0.6490875482559204,0.08583112806081772,0.8641448020935059,0.05157049372792244,0.10818040370941162,-0.022402971982955933,-0.3067878484725952,-0.3563896417617798,1.970557451248169,1.5020431280136108,-0.5406240820884705,0.48474183678627014,-0.13842327892780304,-2.96577525138855,0.6331080198287964,-1.2010703086853027,0.44544076919555664,0.9584307670593262,0.5672915577888489,-0.6360782980918884,-1.4133265018463135,0.5629050731658936,1.4340063333511353,-0.07740107923746109,1.0688159465789795,1.0261366367340088,-0.26767176389694214,1.1116763353347778,0.06994915008544922,1.0173094272613525,0.2395348846912384,-0.5515406131744385,0.1806047409772873,-0.29134294390678406,-1.3583260774612427,-0.7664669156074524,-0.18978115916252136,-2.286820411682129,0.9542776942253113,-0.41331377625465393,0.020155353471636772,0.9851081967353821,-0.5605468153953552,0.03803606703877449,0.01423665601760149,0.2895931899547577,-1.4430170059204102,0.30103495717048645,-0.20672516524791718,0.6190729737281799,0.3110206723213196,0.21567583084106445,0.5046800971031189,-0.9057098627090454,1.2989649772644043,0.6633754968643188,-0.7811880707740784,0.4595859944820404,0.945015013217926,0.8668177127838135,-0.49229109287261963,1.0624381303787231,-2.063842535018921,-1.1077409982681274,0.5592284202575684,0.24650053679943085,-1.6025090217590332,-0.779597282409668,0.5098921060562134,-0.7592815160751343,-0.28569495677948,-0.7617135643959045,1.8359723091125488,-0.46583181619644165,0.1159655898809433,0.18031547963619232,-0.057232268154621124,1.375952124595642,0.03914507478475571,1.1869237422943115,-0.029275767505168915,-0.3821061849594116,1.2685811519622803,-0.8086077570915222,-0.1998281478881836,0.1984049677848816,-0.21368224918842316,-1.5023020505905151,0.36340799927711487,-0.4103250205516815,-0.6615162491798401,0.5878981947898865,0.1374126523733139,-0.06570537388324738,-0.13521672785282135,0.7034034132957458,-0.9902360439300537,0.02838265337049961,0.7325876951217651,0.3979140520095825,0.7501875758171082,-0.40329572558403015,-0.580157458782196,0.7062926292419434,0.33867934346199036,-2.188544511795044,-0.3907536566257477,-0.6933068633079529,1.8042123317718506,-0.31768059730529785,0.8087336421012878,-1.5406670570373535,-1.4700740575790405,-0.9733535051345825,-1.4840528964996338,1.6047008037567139,-0.4397010803222656,0.13559646904468536,0.2799938917160034,-0.966407299041748,-0.6313658952713013,0.8789689540863037,1.4798362255096436,0.036811552941799164,1.0847138166427612,0.6060646176338196,-0.2201777994632721,-1.1996198892593384,3.078284978866577,-1.1346091032028198
b'\xe5\xbb\xba\xe7\xab\x8b',0.5869702100753784,1.6041394472122192,-0.5026757121086121,-0.36696019768714905,0.044386107474565506,-1.124920129776001,-1.2110295295715332,-1.1726024150848389,0.6820903420448303,-0.21779601275920868,-1.6255452632904053,-0.8369972109794617,-3.626617670059204,-0.10523233562707901,0.33417218923568726,0.1749633401632309,0.43673115968704224,0.35083866119384766,-1.8911627531051636,0.7257192134857178,0.5924941301345825,2.0370919704437256,0.28677913546562195,-1.4289740324020386,0.8123433589935303,0.4845536947250366,0.7861924767494202,-1.9637930393218994,-1.8222370147705078,0.8457982540130615,1.836307406425476,0.49213093519210815,1.016105055809021,1.15925931930542,-0.31386905908584595,-1.4673479795455933,-1.3847960233688354,-0.12780754268169403,0.2545965909957886,-1.6738615036010742,-0.17416930198669434,1.3022511005401611,-0.754351019859314,-1.1284027099609375,1.3309478759765625,-0.44145190715789795,0.6198039650917053,-0.336060494184494,-2.17254900932312,-1.321534276008606,2.1515297889709473,-0.6269719004631042,2.5654356479644775,-0.7942924499511719,-0.25038471817970276,0.7367689609527588,1.412625789642334,-0.1831555813550949,0.1482369750738144,0.9913253784179688,-1.1081887483596802,0.25024303793907166,-0.8938514590263367,1.8983944654464722,-1.1243934631347656,-0.041666675359010696,2.116284132003784,0.4847338795661926,0.056904058903455734,1.7853784561157227,-0.17402870953083038,-1.1258361339569092,-0.17426851391792297,0.9456965327262878,-0.5744311213493347,2.4429681301116943,0.3451646864414215,-0.7775364518165588,1.2386292219161987,-0.8564596176147461,-0.8955519199371338,1.7540291547775269,-1.8381574153900146,-1.0879194736480713,1.9496647119522095,0.9482406377792358,0.6914270520210266,-2.097487449645996,0.678220272064209,-1.0319370031356812,-1.3985203504562378,1.5587306022644043,-1.3679038286209106,0.2481662929058075,-0.25981271266937256,1.5139082670211792,-0.6623430848121643,-0.7908912301063538,0.4112442135810852,0.5932583212852478,0.6175865530967712,0.8747476935386658,1.1673287153244019,-0.9442853331565857,0.5178080797195435,-2.9454524517059326,-0.5946358442306519,0.876408040523529,-0.37832412123680115,-1.0976403951644897,-0.7202869057655334,-0.9412708282470703,0.7261390686035156,-0.7969189286231995,-0.7848224639892578,-1.424161434173584,2.4384288787841797,0.8688666224479675,-1.2650631666183472,2.0484628677368164,1.1305714845657349,-1.0814218521118164,0.7217921614646912,2.617661714553833,0.4790274500846863,-0.4357239902019501,-2.204991102218628,-1.146180272102356,-0.5189332962036133,-1.5206658840179443,-0.31341713666915894,0.04546036571264267,0.6804986000061035,-0.9550365805625916,0.761013925075531,-0.3271360695362091,1.2504342794418335,0.5705477595329285,0.6965429782867432,-0.506200909614563,0.03110998496413231,1.0288326740264893,-0.07720975577831268,-0.51026850938797,1.3979313373565674,-0.716453492641449,1.9775571823120117,-0.5553257465362549,-0.6753581166267395,-1.7680319547653198,-0.879120409488678,0.37542393803596497,1.3694974184036255,-0.03634995222091675,0.3868917226791382,0.32012397050857544,1.4731636047363281,0.6407543420791626,1.79485023021698,1.2643566131591797,1.7946947813034058,-0.7810819745063782,2.6056313514709473,0.06366978585720062,-2.1519582271575928,1.576258659362793,0.1669923961162567,0.22561168670654297,-1.8074486255645752,-0.6365921497344971,0.27187758684158325,0.14177271723747253,0.7214680314064026,-0.10279562324285507,1.51420259475708,-1.5594069957733154,-0.08872197568416595,1.6983529329299927,0.7702991366386414,0.9897270798683167,1.8403171300888062,0.8843775987625122,2.37646484375,0.11998843401670456,-0.03372945263981819,-0.31743595004081726,-0.4839112162590027,0.898353099822998,0.9147956967353821,-1.9847332239151,-1.8520587682724,1.1636090278625488,-1.0581669807434082,1.5545742511749268,1.0713485479354858,2.5772197246551514,0.005483613815158606,0.6397829055786133,-0.5255851149559021,-2.305128335952759,0.1630902737379074,-0.656775176525116,1.3453929424285889,-1.8075565099716187,-0.3468640148639679,-0.5515301823616028,1.2060168981552124,0.6186375617980957,-0.5326215028762817,-0.7679402828216553,0.20372901856899261,2.1858325004577637,-1.3191428184509277,1.5890324115753174,-0.8786434531211853,0.6709364652633667,-0.814655601978302,-0.46693795919418335,1.2291227579116821,1.419784426689148,-0.33143600821495056,1.4831523895263672,-0.9237859845161438,0.3480924665927887,1.5703063011169434,-0.3842165470123291,0.770743727684021,-0.8691268563270569,0.6033029556274414,-0.3948189318180084,-0.3572824001312256,1.1493384838104248,1.3775434494018555,1.2582417726516724,-1.014504313468933,0.01610442064702511,-0.0021548750810325146,0.412531316280365,1.6151021718978882,-1.0707826614379883,-0.394300639629364,-0.6918215751647949,-0.5128770470619202,0.9033263325691223,1.0886480808258057,-1.499550461769104,-0.029302671551704407,0.5149742960929871,0.7485716938972473,0.6485800743103027,-0.12216752767562866,0.14261774718761444,-2.377002239227295,0.07388462126255035,-1.230554461479187,0.030769549310207367,0.7387398481369019,1.9435523748397827,3.0786821842193604,0.4646475911140442,-0.7457691431045532,-0.06404025107622147,0.4216379225254059,-1.5428471565246582,-1.8320411443710327,-0.7514782547950745,2.3533008098602295,0.25521212816238403,1.1643011569976807,2.87953782081604,0.2929493188858032,0.2029457688331604,0.7495816946029663,-0.9299689531326294,-0.35485684871673584,-0.5928931832313538,0.13951389491558075,-0.5594618320465088,3.0525295734405518,0.5703635811805725,-0.9631319046020508,0.13641439378261566,-0.44919028878211975,-0.9828107953071594,1.7734718322753906,-1.5840409994125366,1.3631435632705688,1.7014710903167725,2.3703906536102295,0.2297416776418686,-2.107412338256836,0.8784183263778687,1.177523136138916,-0.07741669565439224,0.11898814886808395,-1.4523727893829346,0.1720336377620697,1.1302460432052612,-0.7635855674743652,0.5091663599014282,-2.6389145851135254,-0.07828933745622635,0.09408595412969589,0.6317143440246582,-0.7638307809829712,-1.1888701915740967,-0.6567608714103699,1.4954897165298462,1.7254133224487305,-2.2041640281677246,0.03765331208705902,0.31942662596702576,-0.553300678730011,0.2832072079181671,-0.052137620747089386,-1.192907691001892,-0.5199123620986938,0.3208468556404114,1.676231861114502,-1.1150976419448853,-0.7312867045402527,-2.7848618030548096,1.7010875940322876,-0.9193012714385986,0.23623929917812347,-0.2054106891155243,0.809126079082489,0.1864805370569229,0.6028401255607605,-1.0559664964675903,1.323908805847168,2.1710615158081055,0.46622025966644287,-0.0644470676779747,-1.8919401168823242,0.4085713028907776,-0.35136982798576355,0.3633844554424286,-0.23939715325832367,0.6282707452774048,0.23438076674938202,-0.08756431937217712,2.1660842895507812,-1.5210107564926147,0.7416917681694031,-1.6801894903182983,-1.2178696393966675,0.1826617419719696,-0.24471789598464966,0.1528875082731247,-0.0888553261756897,-0.7357759475708008,-0.1677115112543106,0.22307686507701874,-0.45820510387420654,-2.734360933303833,0.3957462012767792,1.8929800987243652,1.4886505603790283,-1.77566659450531,-0.14407601952552795,-0.20001137256622314,-1.4447693824768066,2.1796393394470215,-1.5885249376296997,0.24863238632678986,-0.47435399889945984,-0.6830427050590515,-1.9877430200576782,-0.019965093582868576,0.43980342149734497,0.874077558517456,-1.100454568862915,3.3557217121124268,-0.8247430324554443,1.3288445472717285,-3.263734817504883,1.321378469467163,0.6750888824462891,2.2139437198638916,1.1274818181991577,0.42913147807121277,-0.8882417678833008,-1.4747358560562134,-0.38351356983184814,0.07411821186542511,-1.5185635089874268,-1.204300880432129,1.0921636819839478,0.3817160129547119,1.1126049757003784,2.0289294719696045,0.0024780631065368652,0.6734066605567932,1.4696378707885742,2.2955541610717773,0.7473069429397583,-1.0584955215454102,0.01053409930318594,0.10958690941333771
b'\xe7\x97\x85\xe7\x90\x86',0.1970949023962021,0.31495195627212524,0.38483965396881104,0.41945573687553406,0.29916030168533325,1.0160911083221436,-1.2038099765777588,-0.7455177903175354,0.919358491897583,-0.7044239640235901,0.14115476608276367,0.29075464606285095,0.4116826057434082,0.1749393790960312,-0.7561413645744324,-0.881134569644928,-0.36785852909088135,-0.6997411847114563,-1.4265888929367065,-0.13533592224121094,0.339298278093338,-0.20277158915996552,0.5886250138282776,-0.24132442474365234,1.0309821367263794,0.4405190050601959,0.28597697615623474,-0.2582029402256012,0.8426214456558228,-0.8148693442344666,0.7584037184715271,1.4048296213150024,-0.336984783411026,0.1877298206090927,0.4408714473247528,-0.3959008455276489,1.239301085472107,0.17011378705501556,1.052014708518982,-1.151868462562561,0.7864534258842468,0.06408488005399704,0.009060175158083439,0.024864336475729942,-0.036206647753715515,-0.4098300039768219,-0.1852388232946396,0.5483889579772949,-0.16633202135562897,-0.40387794375419617,0.4434753358364105,0.6778093576431274,0.005215765442699194,-0.31455811858177185,-0.5100122690200806,-0.8210875391960144,-1.162877082824707,-0.1707320660352707,0.6793202757835388,-0.696289598941803,-0.9682232141494751,0.5085296630859375,0.46272948384284973,-0.3911413550376892,1.194870114326477,-0.21677912771701813,-0.539236843585968,-0.5923264026641846,0.4903557598590851,1.103524923324585,-0.31395313143730164,0.7578743100166321,-0.3847475051879883,0.458443284034729,-0.39651888608932495,-0.25046658515930176,0.5423183441162109,0.5409177541732788,0.15225106477737427,0.18453750014305115,-0.5543999075889587,0.5474469065666199,0.6509861350059509,-0.9849250316619873,-1.0669766664505005,-1.0568206310272217,0.3236978352069855,-0.01229902170598507,0.22771193087100983,-0.014171094633638859,-0.1905425488948822,0.03764895722270012,-0.017118874937295914,-0.6772172451019287,-0.8520970344543457,0.3633832037448883,0.8435541391372681,0.19528785347938538,-0.2898765206336975,-0.05479128658771515,-1.145127534866333,0.2829563617706299,0.608779788017273,-0.5616886019706726,-0.641886293888092,0.508800745010376,-0.7662818431854248,1.0698024034500122,-0.1527997851371765,0.47120270133018494,0.3708612322807312,0.34694796800613403,-0.19046153128147125,0.3821157217025757,-0.18956303596496582,-0.02366671897470951,0.8156439065933228,-0.7167711853981018,0.030566638335585594,0.0849153995513916,0.5138696432113647,0.10410445928573608,-1.3232643604278564,-0.3379581570625305,-0.8324241638183594,-0.08899933844804764,-0.23641295731067657,0.36323145031929016,-0.10860606282949448,0.5921303629875183,0.503414511680603,-0.2428639829158783,-0.325776070356369,0.6717292666435242,-0.3071456551551819,0.2795853614807129,-0.030575251206755638,0.07350389659404755,-0.3333970606327057,-0.9738225936889648,1.1755162477493286,-1.4092782735824585,-0.14487476646900177,-0.6318860054016113,-0.10490374267101288,-0.28485730290412903,0.29446420073509216,-0.6112223267555237,0.6646057963371277,0.38045841455459595,0.5451157689094543,0.8206959962844849,-0.04478207603096962,0.048277683556079865,0.5050129294395447,0.028795745223760605,0.5589708089828491,-0.9054203033447266,0.01955386810004711,-0.4013502597808838,0.5241120457649231,1.0599745512008667,-0.21872536838054657,1.1275686025619507,0.7855368256568909,0.0026783158537000418,1.010557770729065,-1.4280436038970947,0.5560207366943359,1.3234425783157349,-0.06584961712360382,-0.2747604548931122,0.4541139602661133,0.3661194145679474,0.12891079485416412,0.8286566138267517,0.24464716017246246,-1.0770821571350098,0.627347469329834,0.915639340877533,-0.684558093547821,0.7278192639350891,0.8181976675987244,-0.543305516242981,0.31269368529319763,-0.2773630917072296,-0.4784858822822571,0.6545990109443665,0.33411380648612976,0.05599180608987808,0.4184781610965729,-0.20534271001815796,-0.3799285590648651,-0.13113737106323242,-0.02740197815001011,-0.3610212802886963,-0.14736872911453247,-0.000993868918158114,-0.17663374543190002,-0.7492426037788391,1.7010945081710815,0.5152884721755981,0.19392795860767365,-0.9966407418251038,-0.45773816108703613,0.8530040979385376,0.7017410397529602,-1.7871003150939941,1.3528670072555542,0.22494415938854218,0.7390458583831787,0.34963205456733704,0.8352868556976318,0.4804355502128601,-0.5113272666931152,-0.7706981301307678,0.04519081115722656,-0.8487443923950195,0.2980124056339264,-0.9604626297950745,-0.040180955082178116,-0.3143957257270813,0.782619059085846,0.2966737449169159,-0.9860910773277283,0.19778627157211304,0.29290762543678284,-0.5987370014190674,0.11214177310466766,-0.24754303693771362,1.0988589525222778,-0.3389023244380951,-0.12955228984355927,1.0217399597167969,1.1894689798355103,0.09704804420471191,-1.406319499015808,0.639870822429657,-0.27317291498184204,0.21186064183712006,-1.543036699295044,0.21841223537921906,-1.1595007181167603,-1.4316997528076172,1.7689989805221558,0.7965977191925049,0.3934391140937805,-1.041049838066101,-0.2086554765701294,0.7942463159561157,-0.12204891443252563,0.3846164047718048,-0.0056516253389418125,0.4400264620780945,0.7991651892662048,-0.7667965888977051,0.9046860337257385,-0.18047699332237244,0.871680736541748,1.1963534355163574,-1.1357120275497437,-0.7539728879928589,-0.8095094561576843,0.7641202807426453,0.47187191247940063,-0.4769251048564911,0.2973015308380127,0.6409096717834473,0.01602298393845558,1.045454502105713,0.4692310094833374,0.7319233417510986,0.929079532623291,0.21091456711292267,0.16619139909744263,-0.6320744156837463,-0.1624896377325058,-0.7964838147163391,0.19800399243831635,1.2323170900344849,-0.01589851640164852,-0.6415815353393555,0.9320456981658936,0.041782982647418976,-0.33977407217025757,-0.00756285572424531,-0.988566517829895,0.19469203054904938,0.2822471261024475,0.10464083403348923,-0.27391955256462097,0.4008587598800659,0.8368626832962036,0.2905907928943634,-0.011314394883811474,0.47554031014442444,-0.8015161752700806,0.5141735672950745,-0.8184864521026611,-0.08737429976463318,0.8281683921813965,-1.0665299892425537,-0.2718201279640198,-1.3717676401138306,0.3001537024974823,0.18734398484230042,-0.8567391633987427,-0.15559902787208557,0.6361913084983826,0.4429053068161011,-0.4482235610485077,0.3176603317260742,0.30387425422668457,0.032052893191576004,-0.02059433050453663,-0.35097816586494446,-1.3041220903396606,0.6498239040374756,0.013127985410392284,0.7445899248123169,0.3699585795402527,-1.756142258644104,0.434548944234848,-0.019247541204094887,0.03469474986195564,0.43488579988479614,-0.15034142136573792,-0.6736855506896973,0.7861269116401672,-0.14771440625190735,-0.4959999620914459,-0.1999269723892212,-1.237380862236023,-1.1778717041015625,-0.12334419786930084,-0.018021110445261,-1.2657252550125122,0.01239228155463934,-0.14629152417182922,-0.9974226355552673,-0.2516885995864868,-0.5544024109840393,-0.7327651977539062,-1.2513370513916016,-0.3829241991043091,-0.36771413683891296,0.2841842472553253,1.0485174655914307,-0.0897231325507164,0.7253931760787964,-0.7029376029968262,-0.32645171880722046,-0.3179307281970978,-0.31211966276168823,0.2615310549736023,-1.4327675104141235,1.0054370164871216,-0.051248520612716675,-0.2508348524570465,-0.5351623296737671,0.3422780930995941,0.7628841400146484,-0.11699463427066803,-0.27460530400276184,-1.0078386068344116,-0.6916677951812744,-0.013422458432614803,0.4839698076248169,-0.00807071104645729,-1.2095085382461548,-0.10570812225341797,0.05855770781636238,0.2510474622249603,1.5666011571884155,0.2318490445613861,0.3640248775482178,0.34758347272872925,-0.753879725933075,1.5838121175765991,1.011660099029541,0.5676429867744446,-0.8643324971199036,-0.10594237595796585,0.0020465415436774492,-0.29221463203430176,-0.013563169166445732,0.524929940700531,-0.9598265886306763,0.3698206841945648,-0.6162471175193787,0.9305248260498047,1.2304030656814575,-0.4101034998893738,-0.08643637597560883,-0.3968876302242279,0.35177406668663025,0.4785611629486084,0.1097894012928009,0.7821176052093506,-0.6763116717338562
b'\xe4\xbe\x9b\xe4\xbd\x93',0.029993165284395218,0.21891024708747864,-0.012294085696339607,-0.2937764525413513,-0.03341561183333397,0.22704820334911346,-0.013718458823859692,-0.2857833206653595,0.22228313982486725,0.16317163407802582,0.054104048758745193,0.258390873670578,-0.2457955777645111,-0.36851510405540466,-0.342700719833374,-0.48619014024734497,-0.104152150452137,-0.44121095538139343,-0.35624778270721436,-0.04333249852061272,0.21650630235671997,0.14602001011371613,0.09592360258102417,-0.2631494998931885,0.5034366250038147,0.5503328442573547,-0.2374952733516693,-0.26922449469566345,0.19201476871967316,-0.15265190601348877,-0.10803472250699997,-0.04874316602945328,0.17360906302928925,0.41138920187950134,0.448652446269989,-0.02904702164232731,0.3328617215156555,-0.04981640726327896,0.03692960739135742,-0.15948224067687988,-0.09126412123441696,0.016533399000763893,-0.14383859932422638,0.17230050265789032,-0.3596712052822113,-0.02108975686132908,0.0398966409265995,0.3911465108394623,0.08907012641429901,-0.3172418773174286,-0.30381840467453003,0.2500138580799103,-0.34457919001579285,-0.11812654882669449,-0.016059577465057373,0.14233723282814026,-0.045541442930698395,-0.1083434447646141,0.13670222461223602,-0.07508034259080887,-0.580130934715271,0.045168437063694,-0.022716863080859184,-0.11845815181732178,0.4971848130226135,-0.08561919629573822,-0.5633490085601807,-0.4679025411605835,0.2297404259443283,0.13308580219745636,-0.17184790968894958,0.14232094585895538,0.03213625028729439,0.5613983869552612,0.19532041251659393,0.04469975829124451,-0.035291075706481934,0.1066485270857811,0.27576738595962524,-0.4499332308769226,0.09624286741018295,0.40433812141418457,0.4590385854244232,-0.2668910622596741,0.293201744556427,-0.06794861704111099,-0.00021107208158355206,0.15104062855243683,-0.02559596300125122,-0.2523432672023773,0.20389151573181152,0.4639769196510315,-0.412456750869751,-0.3525467813014984,-0.22930777072906494,-0.07714801281690598,0.3046376407146454,-0.3961247205734253,0.1541852056980133,-0.23020261526107788,-0.32997334003448486,-0.21508876979351044,-0.06006042659282684,-0.05455159395933151,-0.2931852340698242,0.27309852838516235,-0.40398356318473816,0.6756365895271301,-0.00611539464443922,-0.23581768572330475,0.06092032045125961,-0.2061707079410553,0.280033677816391,0.12260483205318451,-0.36596980690956116,0.05150850489735603,0.12100575864315033,0.29039788246154785,0.5888798832893372,-0.056957509368658066,0.04935509338974953,0.3303605616092682,0.10543698072433472,-0.28570160269737244,-0.10338650643825531,0.3417815566062927,0.6718807816505432,-0.17855539917945862,-0.15141332149505615,-0.4691275954246521,-0.14316211640834808,0.32219356298446655,-0.23228976130485535,0.4488101601600647,-0.16591717302799225,0.2096385508775711,0.1306188851594925,-0.24249576032161713,-0.3176000416278839,-0.08703212440013885,0.4283287823200226,-0.058735862374305725,0.04139130935072899,-0.28531160950660706,0.014158003032207489,-0.5079033970832825,-0.018075639382004738,-0.15873536467552185,-0.30697929859161377,0.33564814925193787,0.2797500789165497,0.589868426322937,-0.06466492265462875,-0.17967459559440613,0.11438902467489243,-0.11127974838018417,-0.05677873268723488,-0.1355709284543991,0.1356918066740036,-0.13902981579303741,-0.3789031207561493,-0.05909807235002518,0.04810601845383644,0.16650702059268951,0.30816715955734253,0.020760783925652504,0.14802998304367065,-0.8676005005836487,0.26478350162506104,0.3273298144340515,-0.09563221037387848,0.13040927052497864,0.20169509947299957,-0.281055748462677,0.3320770561695099,-0.027605172246694565,0.5027857422828674,-0.0999305248260498,0.5334483981132507,0.33284929394721985,-0.30797460675239563,0.3072811961174011,0.19847412407398224,0.27667608857154846,-0.25599372386932373,-0.0367322601377964,-0.16356699168682098,-0.0823175311088562,-0.11733835935592651,-0.046509407460689545,-0.1920386403799057,-0.46741169691085815,0.18736502528190613,-0.3442777395248413,-0.13564695417881012,-0.4805305600166321,-0.049276866018772125,0.05988002195954323,0.13406206667423248,-0.4856712818145752,0.2128746211528778,-0.2238139808177948,-0.1435452103614807,-0.4059614837169647,-0.2770870327949524,-0.11892524361610413,-0.06510887295007706,-0.48953554034233093,0.20078717172145844,0.029704663902521133,0.08072451502084732,0.22212189435958862,0.1048676148056984,-0.14662516117095947,-0.09487742185592651,-0.08664554357528687,-0.015496696345508099,-0.1342056542634964,0.32324671745300293,-0.4801046550273895,-0.34664231538772583,-0.28870123624801636,0.2660081386566162,0.38694947957992554,0.1494498997926712,-0.2684043347835541,0.1702282875776291,-0.1255909651517868,0.09642903506755829,-0.2200251817703247,0.03800571709871292,-0.22868585586547852,0.08503507822751999,0.25352591276168823,0.20844243466854095,0.07963098585605621,-0.3219109773635864,0.3167734146118164,0.4482272267341614,-0.27692732214927673,-0.5508742332458496,0.13276687264442444,-0.6274318099021912,-0.3178543448448181,0.2115192711353302,-0.028570322319865227,0.1998717337846756,-0.5608561635017395,0.20921552181243896,0.7781791687011719,0.016570813953876495,-0.22887057065963745,0.08473581075668335,-0.11065080761909485,0.07493282854557037,0.11812016367912292,0.17779427766799927,0.17766910791397095,-0.10162856429815292,0.5961732268333435,-0.08258544653654099,-0.01785256713628769,-0.2216014713048935,-0.03853190690279007,0.34755048155784607,-0.010542147792875767,0.2051943689584732,0.3197033107280731,0.153519406914711,-0.18372531235218048,0.36930087208747864,-0.10427756607532501,0.28709614276885986,-0.49334487318992615,0.1321636438369751,-0.43786463141441345,-0.16042937338352203,-0.2708720862865448,0.13038644194602966,0.463451087474823,0.022512374445796013,0.2967337369918823,0.14159010350704193,0.03333662450313568,-0.32154664397239685,0.37948909401893616,0.05878426879644394,0.2475651204586029,-0.05206189304590225,0.0861312597990036,0.2589840590953827,0.30837419629096985,0.24682173132896423,0.2858917713165283,0.33384793996810913,-0.2687876522541046,0.009621753357350826,0.474391371011734,-0.005319937132298946,-0.10919678211212158,-0.12335192412137985,-0.2400740683078766,0.13101117312908173,-1.0835754871368408,-0.1437455713748932,-0.3224676251411438,-0.31217846274375916,-0.4597019553184509,0.06933140009641647,0.5256950855255127,-0.389949768781662,0.15801195800304413,0.14460012316703796,-0.4473190903663635,0.24699139595031738,0.3088168501853943,-0.15977247059345245,0.19343812763690948,-0.09526978433132172,0.2331187129020691,0.11036842316389084,-0.463929682970047,-0.1730191558599472,0.41142958402633667,-0.14263735711574554,-0.5103206634521484,0.15630243718624115,0.08349885046482086,-0.2129262536764145,-0.2673042118549347,0.12485546618700027,0.19657929241657257,0.05130494758486748,0.15080109238624573,-0.08081771433353424,-0.3105586767196655,-0.4044288992881775,0.19420166313648224,-0.3879294693470001,-0.4988338351249695,0.011945640668272972,0.018309803679585457,-0.2833233177661896,-0.5924004316329956,-0.05390745401382446,-0.14278678596019745,-0.39756372570991516,-0.09071031212806702,-0.4549439549446106,0.4211009740829468,0.23916102945804596,-0.07641106098890305,-0.18576444685459137,-0.27478137612342834,0.17004820704460144,-0.45723429322242737,0.29153284430503845,-0.21380293369293213,-0.2406797856092453,0.19457711279392242,0.036246106028556824,0.22005097568035126,-0.29582861065864563,0.5919815897941589,-0.7756758332252502,-0.14163078367710114,-0.24550826847553253,-0.12443466484546661,-0.00869826041162014,0.028960498049855232,0.48849552869796753,0.20590831339359283,0.20801548659801483,0.27948659658432007,0.36383485794067383,-0.22882191836833954,-0.28575944900512695,0.10701985657215118,0.1033688560128212,0.15139862895011902,0.012235328555107117,-0.20815226435661316,-0.286927729845047,-0.0533449649810791,-0.38606977462768555,-0.0972168892621994,0.34855079650878906,-0.08256848901510239,-0.15300573408603668,-0.1275717169046402,-0.05367158353328705,0.20568953454494476,0.08024623990058899,0.02403869479894638,-0.027957983314990997,0.3764306306838989,-0.014367345720529556,0.16723811626434326,0.27172160148620605,-0.3033914566040039
b'\xe9\x87\x87\xe7\x94\xa8',-0.2425425797700882,-0.03479091450572014,1.8389806747436523,0.6783953905105591,-0.004810018930584192,-1.252992033958435,-0.45912379026412964,0.23297026753425598,0.2975207269191742,0.2817264497280121,-0.646381676197052,-0.6874256134033203,-0.9276627898216248,-1.1620588302612305,-1.4153844118118286,-0.630064845085144,1.7831981182098389,0.15559911727905273,-0.4360824525356293,-1.5017565488815308,-1.3778390884399414,-2.476911783218384,0.5945141315460205,-0.26356592774391174,-0.013484484516084194,0.3486265540122986,1.1997686624526978,-1.4980870485305786,0.3612133264541626,1.2885558605194092,-0.4868796765804291,0.508590579032898,1.8969767093658447,0.21170158684253693,-0.28753694891929626,-0.16972145438194275,-0.22769272327423096,-0.8054715394973755,-0.4525921046733856,2.141347885131836,-0.40791985392570496,0.6897038221359253,0.06606540083885193,1.152662992477417,-1.093157410621643,-0.6365216970443726,-0.7951639890670776,1.4547886848449707,0.6306273937225342,0.5738807916641235,1.1105009317398071,1.1014320850372314,0.74994295835495,-0.14071348309516907,-1.5691335201263428,-0.08929216861724854,0.3360942304134369,-1.8599624633789062,-0.08180177211761475,-0.16292321681976318,1.553600788116455,0.30222266912460327,1.352518081665039,-1.2008689641952515,0.13544870913028717,-0.6253659725189209,-0.6344289183616638,0.4584161639213562,-0.9917295575141907,-0.33821815252304077,1.1240485906600952,-0.9563021063804626,-0.14622366428375244,-1.0043030977249146,-0.00712165841832757,0.6264458298683167,2.3973023891448975,-1.1658505201339722,1.391890287399292,-0.898291289806366,0.4479628801345825,1.1504144668579102,0.42774197459220886,-1.7062287330627441,2.2700605392456055,0.3019927442073822,1.1325163841247559,-0.31460222601890564,-2.0008738040924072,1.183849573135376,-0.06709786504507065,0.8012388348579407,-0.3407876491546631,0.10967414081096649,-2.2048678398132324,0.15655829012393951,-0.1482955515384674,1.6720468997955322,0.025059740990400314,0.5311728119850159,-1.8878694772720337,0.9905014038085938,-0.6395111680030823,0.5119284391403198,0.0521203987300396,-2.8986637592315674,0.8647185564041138,0.8696860074996948,-0.42678529024124146,0.2273806482553482,-2.0721073150634766,0.26144224405288696,-1.5527673959732056,-0.8687580823898315,-1.4657025337219238,0.4034753143787384,-0.668170690536499,0.425974577665329,-0.8490354418754578,0.623121976852417,0.6935076117515564,1.2171915769577026,-0.35628873109817505,0.6174483299255371,-0.443487286567688,-0.7444049715995789,-0.39107391238212585,-1.4968613386154175,0.05849778652191162,1.747780203819275,-2.192565441131592,2.3335912227630615,-0.20598384737968445,0.3893546164035797,-1.0785712003707886,-0.7867235541343689,1.6100479364395142,0.14213766157627106,0.4263184368610382,-1.1158431768417358,-0.5704308152198792,-0.0859283059835434,1.4923228025436401,0.9320229887962341,1.6967636346817017,1.589990496635437,0.06446442753076553,-0.8486924171447754,0.8252334594726562,-3.178189277648926,1.421696662902832,1.3626574277877808,1.3791919946670532,0.287091463804245,0.9169851541519165,-1.3286510705947876,0.6540000438690186,-0.10503996908664703,-0.37359628081321716,0.31932613253593445,-0.6700546145439148,1.1709437370300293,0.6309913396835327,-0.3983286917209625,-1.3850867748260498,0.47214293479919434,0.2442256510257721,-1.4574389457702637,0.7308770418167114,0.44468316435813904,0.8273640275001526,-0.5943084359169006,-0.5225729942321777,-1.8311445713043213,-1.5203882455825806,-0.7496797442436218,0.8069921135902405,1.9815819263458252,0.4439326822757721,2.7526063919067383,1.3726589679718018,0.005632608197629452,-0.10778682678937912,1.0627861022949219,-0.8457106947898865,0.9719322919845581,0.02132723480463028,1.8466296195983887,0.6352859735488892,-1.1074384450912476,-0.28235581517219543,0.765159547328949,-2.0000898838043213,0.8904916048049927,-2.192713737487793,-0.10747657716274261,-2.76271390914917,-0.4827331006526947,-0.9245557188987732,-1.2136415243148804,0.7747581601142883,0.01573680341243744,0.34545326232910156,-2.0348689556121826,0.32905906438827515,-1.4705125093460083,2.117948055267334,-1.203540563583374,2.744046449661255,-0.816980242729187,-0.9334493279457092,-1.8375171422958374,-1.3621317148208618,1.4862140417099,0.781177282333374,0.5572169423103333,1.341048002243042,0.023436594754457474,-0.19668258726596832,2.7480876445770264,0.5738743543624878,1.9709311723709106,-0.32416608929634094,1.306900143623352,-0.6913926005363464,-1.656396508216858,-1.0503350496292114,-0.16302944719791412,1.2921463251113892,-0.351397305727005,2.073899745941162,2.0625691413879395,0.26341429352760315,0.10845811665058136,0.7649166584014893,-1.3622381687164307,-0.17082807421684265,0.7159267067909241,1.454666256904602,-0.32212257385253906,0.08156738430261612,-1.0872313976287842,-1.6010560989379883,1.480622410774231,-0.5608130693435669,0.3615429699420929,-1.2633233070373535,1.6728111505508423,-1.8373544216156006,-0.10147251188755035,2.04860782623291,0.514371931552887,0.3071191906929016,-1.486647129058838,0.09382309019565582,-1.3600329160690308,1.1103366613388062,1.4830820560455322,0.4254142940044403,0.8085237741470337,-1.9288250207901,1.3047713041305542,-0.39500075578689575,-0.9659457802772522,-0.04486599564552307,0.6862826943397522,0.5032416582107544,-0.8023777008056641,-0.3727927803993225,0.8299375176429749,-1.3685052394866943,0.012489627115428448,0.3976261019706726,-2.0585978031158447,1.7669609785079956,-1.04397714138031,-1.0824822187423706,-0.5618155598640442,-0.5758251547813416,-0.42323732376098633,0.39483174681663513,-1.0135324001312256,1.61710524559021,-2.02824330329895,-1.246815800666809,0.5642944574356079,0.2857278287410736,-0.687018632888794,0.18321146070957184,-0.20451588928699493,-1.7177786827087402,0.9518917798995972,0.28168579936027527,-2.3434815406799316,-0.8868565559387207,0.40415531396865845,0.11624252796173096,3.6689460277557373,0.3298351764678955,1.6376186609268188,-3.377695322036743,-0.4985337257385254,-2.2945499420166016,1.8053845167160034,0.7223659753799438,-2.1263480186462402,0.2256592959165573,0.06040037423372269,0.45050346851348877,-1.5593005418777466,1.1182830333709717,-0.6185759902000427,0.1749339997768402,-1.7310385704040527,0.05922192707657814,-0.5642468333244324,0.30925074219703674,-0.23389968276023865,1.109286904335022,-0.5341049432754517,0.7419217824935913,0.16278918087482452,-1.0918947458267212,0.48331061005592346,0.33121445775032043,1.279384732246399,-0.8185043931007385,1.5380991697311401,1.031765341758728,0.5931769609451294,1.8602567911148071,-1.2394825220108032,0.6036903262138367,-0.7651890516281128,-0.18327566981315613,-0.8542851209640503,-1.0140126943588257,-0.6363417506217957,0.8650761246681213,0.43414393067359924,-0.664751410484314,-1.0199379920959473,0.014933452941477299,0.738355815410614,-1.1414891481399536,-0.5222426056861877,0.19805128872394562,-1.3832217454910278,-0.4657081663608551,2.204923391342163,-1.491897463798523,0.6920885443687439,-0.8268829584121704,1.5941826105117798,1.3713340759277344,-3.2670321464538574,-2.4924960136413574,-0.23767924308776855,-0.16792558133602142,-0.21949954330921173,-0.8517755270004272,1.4489492177963257,-2.091510534286499,-0.2812846302986145,-1.8334556818008423,0.2858825922012329,-0.3161175847053528,0.6895237565040588,0.8049147725105286,-2.0152347087860107,1.0954996347427368,-0.276467502117157,0.7386623620986938,0.6360883116722107,-0.05411394685506821,0.404339075088501,-3.1329407691955566,-0.2459706962108612,-1.0954985618591309,0.20002183318138123,0.9905174374580383,-0.5882406830787659,0.6047441959381104,-1.2659587860107422,-0.6442155838012695,-0.8689173460006714,-1.0072520971298218,0.11407511681318283,0.4921415150165558,0.4411095976829529,0.7129420638084412,1.8811267614364624,0.22688762843608856,1.2333449125289917,1.164516568183899,3.7888917922973633,-1.5861598253250122,-0.6489952802658081,2.0767388343811035,0.6427022218704224
b'\xe6\xba\xb6\xe8\xa7\xa3',-0.074554942548275,0.3173021674156189,0.8337060809135437,-0.2952110469341278,0.33139896392822266,-0.84433513879776,0.08317112922668457,-0.016729481518268585,1.2032878398895264,-0.6404603719711304,1.121720552444458,0.06069694831967354,-0.46096527576446533,-0.43505096435546875,-0.13208875060081482,0.1972632259130478,-1.0361043214797974,-1.197859287261963,-0.14103268086910248,0.6556850075721741,-0.6243522763252258,0.338034987449646,0.8170837163925171,0.23822495341300964,-0.004008355084806681,0.9153953194618225,1.1279504299163818,-1.0682458877563477,0.17155078053474426,-0.28007689118385315,-0.10726817697286606,0.29702192544937134,0.6953478455543518,-0.40534716844558716,-0.0512925386428833,-1.1284470558166504,0.9168915748596191,0.6418505311012268,-0.4964751899242401,-1.0339735746383667,-1.0602660179138184,0.041613973677158356,-0.7397566437721252,0.3904228210449219,-0.9859243631362915,-0.3855020999908447,-1.5796338319778442,1.546869158744812,0.25671499967575073,-0.3895178437232971,-0.6729546189308167,-0.25327596068382263,-0.4782596230506897,1.053128957748413,-0.08005530387163162,-0.5921059250831604,-0.5326278805732727,1.0413421392440796,0.36770209670066833,-1.796696662902832,-1.3105403184890747,0.9532685279846191,0.4258413314819336,-0.248731330037117,1.179934024810791,-0.3138093948364258,-1.094027042388916,-0.6319540143013,-1.0595766305923462,0.016324937343597412,-0.36141395568847656,-1.0602470636367798,-0.3030245304107666,1.0550460815429688,0.5705870985984802,0.07622884958982468,0.5094122886657715,0.16595882177352905,-0.16674156486988068,-1.306843638420105,-1.220574140548706,0.3388722240924835,0.9680104851722717,0.5640714764595032,-0.27620160579681396,0.670445442199707,0.0701872929930687,-1.1435586214065552,0.5691201090812683,-0.10872463881969452,-0.8223139047622681,1.1272449493408203,-0.3431054949760437,-1.4134913682937622,-0.5981391668319702,-0.6727311611175537,-1.80122971534729,0.27546489238739014,0.20825648307800293,-0.9795677065849304,0.7914118766784668,-0.04725205898284912,-0.6335402727127075,0.02952161803841591,-1.9900542497634888,0.010434437543153763,-0.512843668460846,2.4156494140625,0.09827787429094315,0.5230780839920044,0.07030817121267319,0.09425096213817596,-0.5339134931564331,-0.8293554782867432,-0.09249542653560638,1.507003664970398,0.9788281321525574,0.8872911334037781,0.7356515526771545,0.6458296179771423,-0.8092204332351685,0.9547809362411499,-0.6211523413658142,0.40456217527389526,-0.5315428376197815,1.3426610231399536,1.5179753303527832,0.010781894437968731,-0.8750105500221252,-0.10291078686714172,0.11550828814506531,1.7979700565338135,-1.2006893157958984,-1.1804466247558594,-0.16093042492866516,0.9233063459396362,-0.9628369212150574,-1.655718445777893,-0.07067795842885971,-0.06999041885137558,-0.7594578266143799,-0.6990010738372803,0.7119696736335754,-0.28430280089378357,1.2846215963363647,-1.1018850803375244,-0.5538572072982788,-0.622221827507019,0.6541172862052917,-0.40297022461891174,-0.9508395195007324,1.7209337949752808,-0.5543159246444702,0.6025577187538147,-0.2328517884016037,-0.7967588305473328,-0.8614442348480225,-1.4834580421447754,0.289950966835022,0.14083723723888397,-0.5821487903594971,0.9283052086830139,0.5681909322738647,-0.019725000485777855,0.29094576835632324,0.7023626565933228,0.12003491818904877,-0.8548802137374878,-0.4461493194103241,-1.614138126373291,-0.42311838269233704,0.5867475271224976,0.9697307348251343,-1.609006643295288,0.6200249195098877,-0.1275160312652588,1.0198173522949219,-0.3598856031894684,-0.027343105524778366,0.5919100642204285,-1.6977266073226929,0.3717176020145416,-0.6839507222175598,-1.2970385551452637,0.976291298866272,-0.9629611372947693,0.9473764300346375,0.06366686522960663,-0.4714622497558594,-1.8807123899459839,0.4808959662914276,0.09268440306186676,0.0011334313312545419,-2.0593807697296143,-0.16369055211544037,0.384635329246521,-0.8115192651748657,-1.2183400392532349,-0.025887154042720795,-2.1489992141723633,0.04845810681581497,-0.8186632394790649,-0.23271405696868896,-2.11480712890625,-0.8249366283416748,-0.43898266553878784,-0.8586989641189575,-0.3030182719230652,0.8152973651885986,0.7110078930854797,0.296496719121933,-0.12302564829587936,0.9992027282714844,-0.21438321471214294,0.621673047542572,0.11540305614471436,0.46013951301574707,-1.4648667573928833,1.4120348691940308,-1.4830459356307983,-0.006342132110148668,-0.0276582483202219,0.8854745626449585,-0.27629756927490234,0.4852011203765869,0.04455225542187691,0.8199333548545837,-0.16362175345420837,1.6033852100372314,0.9677842259407043,-0.10876289755105972,-0.2202640175819397,-1.3741748332977295,1.4876714944839478,-0.61418217420578,1.5873430967330933,-1.9016908407211304,0.7471936941146851,0.787433385848999,-1.130663275718689,-0.3880378305912018,-0.6821662187576294,-3.161731719970703,-0.7843093872070312,-1.0314844846725464,-0.3852062225341797,-0.5042680501937866,-0.5841321349143982,0.470665842294693,2.1711320877075195,-0.32869914174079895,-0.5760366916656494,0.6396596431732178,-0.7363766431808472,1.2251836061477661,-1.391226053237915,0.4381113052368164,1.1005796194076538,0.6033532023429871,0.22533367574214935,-1.2984464168548584,-0.09109467267990112,-0.5679449439048767,-0.4171399176120758,-0.8968046307563782,-0.3351469039916992,0.9422080516815186,0.011673319153487682,1.2259013652801514,0.9490986466407776,-0.3297119736671448,1.109715461730957,0.7070911526679993,0.24100157618522644,1.4487801790237427,-1.4880019426345825,-0.6025406122207642,-2.2043473720550537,-0.34964197874069214,1.1078290939331055,-1.7986488342285156,0.4577254056930542,1.402025818824768,0.5176829099655151,-0.3500230014324188,0.769288182258606,-0.5527037978172302,-0.055438656359910965,-1.0886509418487549,-0.3079846501350403,-0.18746383488178253,-0.37796255946159363,1.006264090538025,0.5998982787132263,0.25652021169662476,1.4743040800094604,0.1770506054162979,1.6117064952850342,0.3056415021419525,0.3597107231616974,-0.06157547980546951,0.6003744602203369,-0.31767845153808594,-1.7908447980880737,-1.1901267766952515,-0.0833773985505104,0.0106118218973279,-0.7298341393470764,0.8891473412513733,0.9762932658195496,-0.7689858675003052,0.9791162610054016,0.10119334608316422,-0.553674042224884,1.4465030431747437,0.8724675178527832,-0.6479567885398865,0.6399760246276855,-1.118422508239746,-1.3652185201644897,-0.3058560788631439,-1.6314001083374023,0.5708487629890442,1.8754757642745972,-0.682380199432373,-0.2707420289516449,-0.18098090589046478,0.5316939949989319,-0.03190270811319351,-0.23109297454357147,0.6448437571525574,0.2718401253223419,1.5045456886291504,-1.2223840951919556,0.7106987237930298,-0.9843238592147827,-1.0179203748703003,-0.5009942650794983,-0.4140744209289551,-0.3266863226890564,-0.6818715333938599,-0.3508602976799011,0.41418617963790894,0.8265225291252136,-0.07182388752698898,0.9212990999221802,-0.774875819683075,0.36403870582580566,-0.1769302785396576,0.39232757687568665,0.017431991174817085,-0.3247847855091095,-2.0974910259246826,0.5508915781974792,0.2100028544664383,-2.726900815963745,0.739011824131012,-0.23048734664916992,-0.26624923944473267,0.1995057910680771,-0.2583197355270386,0.02482365071773529,-0.08770982176065445,0.9160040616989136,-1.5965454578399658,1.1041500568389893,-0.01164863258600235,-0.5445771217346191,1.2100352048873901,0.48105502128601074,0.7602885961532593,-0.8343690633773804,-0.8245229721069336,1.051994800567627,0.035873815417289734,-0.6321589350700378,-0.7981646060943604,-0.8050678968429565,-0.058184873312711716,0.5676479339599609,-0.20233158767223358,-1.161670446395874,0.04570114612579346,-0.4073086977005005,-0.17342282831668854,-0.06484955549240112,-0.056036967784166336,-0.2799510955810547,-0.9645879864692688,-0.6957705616950989,-0.729769766330719,0.30783018469810486,0.5132508277893066,-0.6169459223747253,1.0173887014389038,2.1653013229370117,-0.20928449928760529,0.025705872103571892,1.1319324970245361,-0.42957261204719543
