word,0,1,2,3,4,5,6,7,8,9,10,11,12,13,14,15,16,17,18,19,20,21,22,23,24,25,26,27,28,29,30,31,32,33,34,35,36,37,38,39,40,41,42,43,44,45,46,47,48,49,50,51,52,53,54,55,56,57,58,59,60,61,62,63,64,65,66,67,68,69,70,71,72,73,74,75,76,77,78,79,80,81,82,83,84,85,86,87,88,89,90,91,92,93,94,95,96,97,98,99,100,101,102,103,104,105,106,107,108,109,110,111,112,113,114,115,116,117,118,119,120,121,122,123,124,125,126,127,128,129,130,131,132,133,134,135,136,137,138,139,140,141,142,143,144,145,146,147,148,149,150,151,152,153,154,155,156,157,158,159,160,161,162,163,164,165,166,167,168,169,170,171,172,173,174,175,176,177,178,179,180,181,182,183,184,185,186,187,188,189,190,191,192,193,194,195,196,197,198,199,200,201,202,203,204,205,206,207,208,209,210,211,212,213,214,215,216,217,218,219,220,221,222,223,224,225,226,227,228,229,230,231,232,233,234,235,236,237,238,239,240,241,242,243,244,245,246,247,248,249,250,251,252,253,254,255,256,257,258,259,260,261,262,263,264,265,266,267,268,269,270,271,272,273,274,275,276,277,278,279,280,281,282,283,284,285,286,287,288,289,290,291,292,293,294,295,296,297,298,299,300,301,302,303,304,305,306,307,308,309,310,311,312,313,314,315,316,317,318,319,320,321,322,323,324,325,326,327,328,329,330,331,332,333,334,335,336,337,338,339,340,341,342,343,344,345,346,347,348,349,350,351,352,353,354,355,356,357,358,359,360,361,362,363,364,365,366,367,368,369,370,371,372,373,374,375,376,377,378,379,380,381,382,383,384,385,386,387,388,389,390,391,392,393,394,395,396,397,398,399
b'\xe9\x9b\x86\xe4\xbd\x93',0.7594016194343567,-0.4534882605075836,0.6720476150512695,1.0491108894348145,-0.19586396217346191,0.785709798336029,2.599215269088745,-0.7975102663040161,-0.32946351170539856,1.3479101657867432,-0.027514439076185226,0.8078108429908752,-1.6014007329940796,-0.5401350259780884,0.5269776582717896,-1.3783633708953857,-1.025916576385498,-0.6175960898399353,-0.11586228013038635,0.4481062889099121,0.2342786192893982,0.2255958914756775,1.1508309841156006,1.6778639554977417,-0.0886048972606659,1.426685094833374,-0.7065334320068359,-0.17891380190849304,-0.460763543844223,-0.9597058296203613,0.46992936730384827,3.4185543060302734,-0.4200402796268463,-0.47097763419151306,-1.088254451751709,-0.589979887008667,0.71905517578125,0.4638146460056305,-1.8659961223602295,-1.2844511270523071,-0.43880435824394226,-0.259594589471817,1.5284188985824585,0.18902111053466797,-0.7038021087646484,-0.844328761100769,0.8972717523574829,0.8141193389892578,-0.22684788703918457,0.09465871751308441,0.5087215900421143,2.7975192070007324,-0.16638286411762238,-2.5481677055358887,1.3872474431991577,0.5634366869926453,-0.3901613652706146,1.1465505361557007,-1.9843679666519165,-2.6156413555145264,0.697551965713501,-0.6333475708961487,-0.35680702328681946,0.6227571368217468,-1.4836169481277466,-0.494798481464386,-0.021859383210539818,0.9624927639961243,-0.13745561242103577,0.6385973691940308,-0.20844882726669312,-0.5343401432037354,-0.4817676544189453,1.5034343004226685,-0.694675624370575,-0.1693640798330307,2.059798002243042,-0.21590083837509155,1.0731205940246582,-0.21093103289604187,0.7387609481811523,0.7966140508651733,1.9521199464797974,-0.6336178779602051,1.0550410747528076,-0.038523394614458084,-1.8449474573135376,-1.9944671392440796,0.6782448291778564,-1.9692156314849854,0.3668046295642853,-0.8035677075386047,0.9827128052711487,-0.2699309289455414,0.4503539204597473,1.6589919328689575,0.4194042384624481,-0.6053086519241333,-0.324053555727005,-0.27426841855049133,0.1576823592185974,-1.6607089042663574,1.3871175050735474,-0.6891188621520996,-0.3478139340877533,1.8501710891723633,0.3826594054698944,-0.147159144282341,0.8524424433708191,0.7608692646026611,1.3811448812484741,0.5858014225959778,-0.8189820051193237,0.3274238705635071,-0.9365112781524658,0.3478755056858063,-0.3166967034339905,1.4522298574447632,0.4652537703514099,-0.44876590371131897,0.44668304920196533,1.2257158756256104,-0.16884754598140717,-0.8314957022666931,0.6067582964897156,0.3312634527683258,-0.08128467947244644,-1.4582310914993286,0.6252056360244751,1.340888261795044,-0.9601082801818848,1.2321807146072388,-0.6855649948120117,-1.9420294761657715,0.776080310344696,-0.13004551827907562,-1.7527000904083252,0.2361259013414383,-0.7081543803215027,0.8002839684486389,-1.4930082559585571,0.4323412775993347,0.4305346608161926,0.2463429570198059,0.9045333862304688,-0.8513720631599426,0.3248355984687805,0.21511583030223846,-0.18710686266422272,-1.2322783470153809,0.1376500278711319,0.11476457118988037,1.0482354164123535,-0.2711484134197235,0.0156636331230402,-0.700446605682373,0.4059525430202484,0.6083513498306274,-1.1477748155593872,0.11441019177436829,0.6423087120056152,1.280331015586853,0.7594234347343445,0.3215351998806,-0.619519829750061,-1.5646873712539673,0.6764707565307617,0.8792254328727722,-0.3406818211078644,0.9911664128303528,-0.42545390129089355,0.8591523170471191,0.033454060554504395,-0.5561059713363647,0.56689453125,-0.5198330879211426,-0.03208491951227188,0.6560245752334595,1.807298183441162,-0.47711777687072754,-0.0535346120595932,0.2996576130390167,2.050107002258301,-0.8030602931976318,-1.6494687795639038,0.33835306763648987,0.16435344517230988,1.3465157747268677,-0.42089954018592834,-0.8037923574447632,-0.7103351950645447,1.5413163900375366,-1.507779598236084,1.0019538402557373,-0.37786078453063965,-0.36926063895225525,-0.01940888725221157,1.3841217756271362,0.3757813572883606,0.5170189142227173,1.730800986289978,-0.8779090642929077,-0.7404031157493591,0.7915968894958496,0.7225070595741272,-0.9102055430412292,0.7969514727592468,-1.5832250118255615,-0.22473382949829102,-0.7020595073699951,1.3494406938552856,0.25469672679901123,1.5769199132919312,0.8880133032798767,-1.011565923690796,-1.0155937671661377,0.13575689494609833,-0.030956286936998367,0.44272592663764954,0.8241760730743408,0.18783725798130035,-0.12095101922750473,-0.874999463558197,-0.008521687239408493,0.22821760177612305,-0.9815106391906738,0.04292416200041771,0.5876443982124329,-0.49115756154060364,-0.13367216289043427,-1.0934923887252808,0.6418391466140747,-0.9021332263946533,0.721863865852356,1.0443977117538452,0.9696004986763,-0.19896197319030762,0.38315609097480774,-0.13343271613121033,0.25123152136802673,0.31686705350875854,0.03542584925889969,0.15127064287662506,0.22967314720153809,1.5806047916412354,-1.1350703239440918,0.8343775272369385,0.17033305764198303,-2.505082130432129,-0.4069709777832031,1.276387333869934,0.017496632412075996,-0.6865022778511047,0.5220710039138794,-0.5647635459899902,0.37585315108299255,0.15643565356731415,0.334886372089386,-0.3391472399234772,1.0325422286987305,0.1828749179840088,0.27768704295158386,-0.5817357897758484,0.8282474279403687,0.7461556196212769,-1.459855556488037,1.277004599571228,-0.7364587783813477,-0.3756774663925171,0.2656053602695465,-0.17820538580417633,-1.6798443794250488,-1.4525114297866821,-2.4819436073303223,-0.6315330862998962,-0.18936726450920105,-1.473168969154358,-0.38021525740623474,1.8128890991210938,0.8365821242332458,-1.919303297996521,0.31190380454063416,0.9964062571525574,-1.6493126153945923,0.6850168704986572,-0.34385567903518677,-0.33275339007377625,0.2591305077075958,0.7360066771507263,-0.539758026599884,-0.916106641292572,-0.42022475600242615,-0.18636144697666168,-0.5806578397750854,0.7265062928199768,0.1525624543428421,0.8038849830627441,0.74116051197052,-0.07681389898061752,-0.9895481467247009,0.27243155241012573,-1.1822618246078491,1.1218374967575073,0.20974098145961761,0.1724366545677185,0.6651784777641296,1.9908223152160645,0.7267318964004517,0.21363447606563568,-0.6727294325828552,-0.9726700782775879,-0.2987680733203888,1.122643232345581,0.8550081253051758,-0.8173877596855164,-0.8913785815238953,1.085788607597351,-1.3554750680923462,0.4485962390899658,0.795240581035614,-0.16124434769153595,0.7779576182365417,0.7586495280265808,-0.9501959085464478,1.1454519033432007,0.09814800322055817,-0.2706696391105652,1.7015471458435059,-0.22637946903705597,0.13018198311328888,0.42667317390441895,-0.1671951860189438,-0.16992121934890747,0.9957797527313232,-1.3877755403518677,1.112101435661316,0.5937483310699463,-0.4983822703361511,-0.530424952507019,-1.7959065437316895,0.5226419568061829,1.53179132938385,0.7009931206703186,-0.34495723247528076,-1.131527304649353,-0.11951087415218353,-1.5673877000808716,1.5650641918182373,0.731489896774292,1.7312977313995361,1.1036994457244873,-0.10294841974973679,-0.14159774780273438,-0.2710096836090088,-0.43663719296455383,-0.9777968525886536,0.8216288089752197,-0.6632260680198669,0.8564821481704712,-1.618985891342163,0.999207079410553,-0.716261625289917,-0.03245093300938606,-0.04594878852367401,1.284422755241394,-0.6079036593437195,-0.32962948083877563,1.2046247720718384,0.42557018995285034,-0.7846855521202087,-0.15205103158950806,-1.0437182188034058,-0.6456397175788879,-0.009008673951029778,1.2290738821029663,-1.639739751815796,-0.42197370529174805,0.6697657704353333,-0.12825527787208557,1.1412227153778076,0.8106401562690735,-0.44315457344055176,0.716215193271637,-0.40954965353012085,0.6558507084846497,-0.2547001838684082,-0.36076441407203674,0.8691798448562622,-0.7607563138008118,-0.19076508283615112,-0.057027436792850494,1.712636113166809,-1.4526841640472412,-0.03563106805086136,-1.1677231788635254,1.0994455814361572,-0.6284569501876831,0.2877180576324463,1.4483919143676758,-1.2140552997589111
b'\xe5\xa5\x96\xe5\x8a\xb1',1.0805482864379883,-1.0257664918899536,0.02884592115879059,1.470827341079712,-0.5195056200027466,-0.09919821470975876,1.0591849088668823,-0.2780168950557709,-0.697510838508606,0.45337560772895813,-0.3551827669143677,0.6485289931297302,0.16870903968811035,-0.856223464012146,0.9958822131156921,0.3078601062297821,1.2734436988830566,1.8013893365859985,0.7657086849212646,-0.6746196746826172,-0.5654658675193787,-1.0755808353424072,-0.1493874341249466,1.253998041152954,-0.7535509467124939,0.21770158410072327,-1.7838212251663208,-0.8372491002082825,-0.44304022192955017,0.648648738861084,1.2482364177703857,0.825745165348053,-0.2328370213508606,-1.4109872579574585,-1.1909643411636353,-0.25511634349823,-0.6081849932670593,-0.8024654984474182,-1.9800035953521729,0.21632714569568634,0.7178765535354614,0.9887062907218933,-1.2851418256759644,0.5982802510261536,-1.3084980249404907,-1.2737208604812622,-1.149021029472351,1.5289536714553833,0.1989651918411255,1.1616179943084717,0.2613447904586792,-0.22240857779979706,0.30063527822494507,-0.11624393612146378,1.1988400220870972,0.3855607509613037,-0.06731293350458145,-0.0378212071955204,-1.243813395500183,-0.3259328007698059,0.886650025844574,0.7039742469787598,-1.294560432434082,1.200507640838623,-0.1954890340566635,0.9546260833740234,-2.0592947006225586,-1.2387515306472778,-0.08062251657247543,0.7227977514266968,-0.44739392399787903,-1.4561384916305542,1.272806167602539,-0.616251528263092,0.7149924039840698,0.9502550363540649,0.9204821586608887,-0.3251022696495056,-1.655086636543274,-1.5396804809570312,1.1513352394104004,2.125852584838867,-0.8676877617835999,-0.8151867985725403,1.480136752128601,-0.8267106413841248,-1.1226242780685425,1.9359817504882812,-0.3252645432949066,0.6350724697113037,0.11076507717370987,-1.8150529861450195,0.19475147128105164,-0.22676847875118256,1.3077796697616577,1.3814266920089722,0.5884275436401367,-0.2108364999294281,-0.27472373843193054,0.13241976499557495,1.913653016090393,0.2525089681148529,0.865087628364563,0.6698613166809082,0.3262043595314026,0.12563593685626984,0.1625613123178482,1.669203281402588,0.7981529235839844,1.188883662223816,-0.06229095533490181,-0.172456294298172,-1.249611496925354,0.2901000380516052,1.0491845607757568,0.30202868580818176,2.230196952819824,1.6057428121566772,2.127429246902466,1.8503888845443726,2.597071647644043,0.2221672385931015,-0.3225235044956207,0.24011865258216858,-0.5580430626869202,0.20797960460186005,0.43319568037986755,-1.0573370456695557,0.6248345971107483,0.3122621178627014,-0.5314255952835083,0.8931131362915039,2.0474698543548584,-1.1252632141113281,1.894765853881836,-0.46181488037109375,0.8060747981071472,0.41770800948143005,0.08116413652896881,-0.11340232938528061,0.8213775157928467,0.8973410129547119,1.5210926532745361,0.6291670799255371,0.7272191047668457,1.3277958631515503,0.9709044694900513,-0.3576049208641052,-0.7993768453598022,0.02164018712937832,-0.06122291460633278,1.4516627788543701,0.7253944277763367,1.2590532302856445,-0.5094331502914429,0.3758123815059662,-0.5441765785217285,-1.4125895500183105,0.3290770351886749,0.0033426573500037193,-0.29333630204200745,1.2647877931594849,-1.7418385744094849,1.495251178741455,-0.08085902780294418,-2.328037977218628,0.05323469266295433,0.03279244527220726,0.44691160321235657,0.09325828403234482,0.44105085730552673,1.1940979957580566,0.7387051582336426,0.18901903927326202,2.0459773540496826,1.5306878089904785,-0.3103002905845642,-1.6652657985687256,1.3416410684585571,0.5492708683013916,0.3954492509365082,-1.812017798423767,-0.5325020551681519,1.021573781967163,-2.245968818664551,0.15068766474723816,-0.097366563975811,-0.9289395213127136,-0.8348411321640015,0.6702732443809509,0.8913488984107971,1.0723499059677124,-0.56881183385849,0.4843830168247223,-1.3220789432525635,-0.3862497806549072,-0.3416014313697815,1.1260813474655151,0.3253386616706848,-0.1887243092060089,0.6757196187973022,-0.849294900894165,-0.8420939445495605,-1.47268545627594,0.9016197323799133,-0.44300106167793274,0.09862016141414642,0.11822957545518875,0.6105753183364868,-0.5028501749038696,-0.7520931959152222,0.6606466770172119,0.2762833535671234,1.1937898397445679,-0.44199368357658386,-0.107096828520298,0.010403304360806942,-0.9191811680793762,1.8592514991760254,1.1311357021331787,0.6686415672302246,1.7195056676864624,0.4953741729259491,0.7046459317207336,-0.4138142764568329,1.8567404747009277,-0.5575669407844543,-1.7684237957000732,-0.13585704565048218,-1.0498627424240112,0.5597628355026245,-0.0665004551410675,-0.8204012513160706,0.21839910745620728,0.9796083569526672,-1.077756404876709,-0.4758671522140503,-0.27948856353759766,0.6630623936653137,-0.3071739077568054,-1.180980920791626,1.3507816791534424,0.44066449999809265,0.09186744689941406,0.01699032634496689,-0.018766682595014572,0.43340030312538147,1.162042260169983,-0.30335086584091187,0.8827453851699829,-0.4817993938922882,0.529302179813385,1.002282977104187,-1.7037650346755981,-1.8014378547668457,2.0110602378845215,1.6087719202041626,0.042898986488580704,-0.43393033742904663,1.0477312803268433,-0.8021181225776672,-0.10535929352045059,0.9848958849906921,0.3850520849227905,-0.9077659249305725,-0.49518153071403503,0.4382772147655487,-0.3887191414833069,-0.8912779092788696,0.2643889784812927,0.8185043931007385,-0.19164104759693146,0.8972991704940796,0.03337026387453079,0.8939715027809143,1.2499750852584839,-1.0224093198776245,-1.0887341499328613,0.877661943435669,0.7587034106254578,-0.6779904365539551,0.4784207046031952,0.21173784136772156,0.05630490556359291,0.508672833442688,-1.5820029973983765,-0.20091450214385986,-1.125403642654419,2.648350477218628,0.09484869986772537,-1.4007436037063599,-0.38137078285217285,0.835666298866272,0.05558648705482483,0.14805184304714203,1.083723545074463,-0.37184980511665344,0.2000989466905594,-0.5373966693878174,0.08367215842008591,-0.12991726398468018,1.0520282983779907,1.581130862236023,0.14176778495311737,-0.3087880313396454,-1.193403959274292,-0.8813907504081726,-0.4219795763492584,-0.2256781905889511,-0.6075024604797363,-0.15311072766780853,-0.4889395833015442,-0.24202704429626465,-0.23884662985801697,-0.4506690502166748,-1.0674527883529663,0.15897677838802338,-0.36843112111091614,1.2044345140457153,1.10642409324646,-0.3560035526752472,0.013417422771453857,1.192156434059143,-1.0412791967391968,-0.4314285218715668,-0.32832789421081543,0.6606268286705017,1.4942731857299805,-1.2528510093688965,-1.0311484336853027,-0.04422876611351967,-0.18909017741680145,-0.6769702434539795,0.9467349648475647,-0.6508870124816895,-0.14829254150390625,0.3460979461669922,0.1614529937505722,1.0097582340240479,1.2963026762008667,-0.9769275784492493,0.31086966395378113,-1.6217288970947266,-1.9117765426635742,-0.4910891056060791,1.9249687194824219,-2.0365214347839355,0.7532984614372253,-0.9992773532867432,1.866165280342102,-0.7795249819755554,0.9915117025375366,-0.2309051901102066,0.14561796188354492,0.3743530213832855,0.3156055510044098,0.44800475239753723,-1.0912724733352661,0.12741659581661224,-0.4897278845310211,0.12024492770433426,2.365600824356079,-0.08488453179597855,0.2925948202610016,-1.782183289527893,-1.4052079916000366,0.19606851041316986,0.5905252695083618,-1.5833169221878052,-1.0387632846832275,1.0540803670883179,-1.5455855131149292,-0.9185754656791687,-0.5215915441513062,-1.1631526947021484,-0.10077919811010361,-0.21518287062644958,0.5398420095443726,-0.5757506489753723,0.6485946774482727,0.5186871886253357,1.9244717359542847,-0.6333160996437073,-0.3093126118183136,0.39619019627571106,-1.5106253623962402,-0.653164803981781,1.2640929222106934,1.2787117958068848,0.24410422146320343,0.6875888705253601,0.5562004446983337,-0.899161696434021,0.13743312656879425,1.2255610227584839,0.15923206508159637,-1.8369964361190796,-2.450721025466919,1.6105577945709229,1.1670823097229004
b'\xe7\x94\xb5\xe5\xad\x90\xe6\x98\xbe\xe5\xbe\xae\xe9\x95\x9c',-0.5508750677108765,-0.034298110753297806,0.2030072808265686,-0.6214614510536194,0.2471161037683487,0.4969141185283661,0.3160354495048523,-0.4721861183643341,0.4245047867298126,-0.08004675805568695,-0.6726135015487671,-0.14493094384670258,0.7266563773155212,-0.22457945346832275,-0.26390978693962097,-0.09770084172487259,-0.04706602916121483,-1.2814303636550903,-0.570644736289978,0.06367294490337372,-0.12925459444522858,-0.7568559050559998,0.14525267481803894,-0.10905253142118454,0.5336325764656067,-0.06728370487689972,0.40338850021362305,-0.9236507415771484,-0.02338399365544319,-0.3278762698173523,0.40086081624031067,0.03950412943959236,-0.02200539968907833,0.3343280851840973,0.12117082625627518,-0.7589899897575378,0.743705689907074,0.22860540449619293,0.5386255979537964,-0.5560958981513977,0.15923458337783813,0.9879212379455566,-0.6741371154785156,0.04762621596455574,0.07543795555830002,-0.5254754424095154,-0.06959294527769089,-0.22799746692180634,0.24007943272590637,0.08520577102899551,-0.7378911972045898,0.6372426152229309,-0.14679719507694244,0.0985882356762886,-0.04709821939468384,-0.7325337529182434,-0.4666019678115845,-0.06563685834407806,-0.2728181779384613,-0.3397887945175171,-1.1249123811721802,-0.34708842635154724,0.636536180973053,-0.16606348752975464,0.6712726950645447,-0.3710929751396179,-1.0523231029510498,-0.8580023050308228,-0.3034873902797699,0.3432929217815399,-0.06460848450660706,0.013387189246714115,-0.1502259522676468,0.9100629687309265,-0.312185674905777,0.1380879133939743,-0.08562969416379929,0.415144681930542,1.3921231031417847,0.4146057069301605,-0.13404954969882965,0.5339199304580688,1.0401623249053955,-1.3740986585617065,-0.31409990787506104,-0.17072038352489471,0.5294849872589111,1.0918203592300415,0.3748490512371063,-0.18316352367401123,0.22273609042167664,0.6807169318199158,-0.037315573543310165,0.20979006588459015,0.13748210668563843,0.12251077592372894,-0.30375951528549194,-0.082007497549057,0.32007545232772827,0.4344867169857025,0.012445599772036076,-0.31220072507858276,-0.49471741914749146,-0.114686019718647,0.12872938811779022,0.244255930185318,-0.2684674859046936,1.2734928131103516,0.5671581029891968,-0.055706433951854706,-0.23215113580226898,0.3516608476638794,0.36044853925704956,-0.21449927985668182,-0.413579523563385,0.7969843149185181,-0.9377274513244629,-0.2823110520839691,-0.367685467004776,0.39373379945755005,0.1307022124528885,0.15144792199134827,-0.24716560542583466,0.3781954348087311,-0.2741738259792328,-0.0678701177239418,0.9015294909477234,-0.6779947280883789,-0.23342560231685638,0.8587620854377747,0.0621151365339756,0.6480761766433716,-1.2952098846435547,-0.007112440653145313,-0.22115091979503632,0.7027849555015564,-0.290735125541687,-0.48521506786346436,0.2050676792860031,-0.1679057627916336,0.588216245174408,-0.37388476729393005,-0.02029469981789589,1.094620943069458,-0.01435091532766819,-0.031581804156303406,0.6203920245170593,-0.45115962624549866,0.41456207633018494,0.17363081872463226,0.4461418688297272,0.9168601036071777,-0.5860297679901123,0.3104627728462219,0.19382286071777344,-0.35972195863723755,0.13036948442459106,-0.17990335822105408,-0.18831974267959595,0.0763673260807991,0.020345402881503105,0.6079099774360657,-0.029453715309500694,0.3302886188030243,-0.23924829065799713,-0.006447103340178728,0.8832452297210693,-0.555448591709137,0.27913182973861694,-0.3142271935939789,-0.4966259002685547,-0.015253691002726555,1.3305766582489014,0.902807891368866,-0.5614515542984009,0.38642314076423645,0.8020144701004028,-0.28080594539642334,0.43729859590530396,1.3787277936935425,-1.2281241416931152,0.1346297711133957,0.18834127485752106,-0.4342963397502899,-0.2962667644023895,0.09744539856910706,0.26763996481895447,0.07382092624902725,-0.571312427520752,-0.23671506345272064,-0.03211513161659241,0.5740112662315369,0.3404267728328705,0.08983837813138962,-0.28856053948402405,-0.2602805197238922,0.045649513602256775,-0.20295175909996033,-0.9705847501754761,-0.3659913241863251,0.7868250608444214,-0.32339590787887573,-0.35043561458587646,-0.8981919884681702,0.06435337662696838,0.3014650046825409,0.34716278314590454,0.10653163492679596,0.6481736302375793,-0.14441238343715668,-0.4255092442035675,-0.4804282784461975,-0.18383671343326569,0.8458746075630188,0.01636221818625927,-0.002422991441562772,-0.21217229962348938,-0.26716750860214233,0.41285741329193115,-0.8012068867683411,-0.44901230931282043,-0.7697036862373352,0.1878460794687271,1.2979276180267334,-0.9542540907859802,0.16892555356025696,-0.19583076238632202,-0.5960374474525452,1.0310496091842651,-0.7373780608177185,0.94486004114151,0.3829025626182556,-0.2789763808250427,0.5605230331420898,0.7270338535308838,0.37439554929733276,-0.6305813193321228,0.5271840691566467,-0.3898952305316925,-0.5690423250198364,-0.3829827308654785,-0.6683083176612854,-0.7796676158905029,-0.516430139541626,-0.3652365207672119,0.8446226119995117,0.25168830156326294,-0.7482694983482361,-0.29484015703201294,0.6504468321800232,-0.3849143087863922,-0.043389156460762024,-0.14834249019622803,0.3401873707771301,0.5143161416053772,-0.16730788350105286,0.5379288196563721,-0.1418898105621338,0.6147658824920654,0.41828563809394836,-0.7956152558326721,0.13739702105522156,-0.8382931351661682,-0.15081141889095306,0.13988932967185974,0.4358959496021271,0.8418791890144348,0.2228526622056961,0.5101351141929626,-0.5826098918914795,-0.20966961979866028,0.10996414721012115,0.8957074880599976,0.302144855260849,0.06672941148281097,-0.18590830266475677,-0.6583593487739563,0.026252267882227898,-0.4939122200012207,0.4482322633266449,-0.4849819839000702,-0.4038604199886322,1.2059931755065918,-0.25755178928375244,-0.9626373648643494,0.24288254976272583,-0.3048021197319031,0.2748318910598755,-0.48626723885536194,-0.008399171754717827,-0.36055174469947815,0.15067733824253082,0.23309426009655,0.15915079414844513,-0.2947697043418884,0.8207919001579285,-1.0701477527618408,0.5470695495605469,-0.2779679298400879,-0.700262188911438,1.121938943862915,-0.45834699273109436,-0.2539549767971039,-0.4181651771068573,0.32393577694892883,-0.2473626285791397,-0.5229758620262146,-0.7570700645446777,-0.8258070945739746,0.22089602053165436,-0.008068155497312546,0.3410508632659912,0.6308236122131348,-0.47185173630714417,0.28939321637153625,-0.7975915670394897,-0.4444599747657776,-0.3849312365055084,-0.10384973883628845,-0.3218318819999695,0.14386509358882904,-1.1730271577835083,0.2716027498245239,0.32490649819374084,-0.7324785590171814,-0.13602887094020844,-0.6707617044448853,-0.5267132520675659,0.4991692304611206,0.12135392427444458,-0.4080708920955658,0.4044528901576996,0.0006490289233624935,-0.8521756529808044,0.4171631336212158,-1.088828682899475,-0.4469555914402008,-0.4133894145488739,-0.9824787378311157,-0.9660637974739075,0.05771064758300781,-0.40208739042282104,-0.2513865828514099,-0.9614706039428711,-0.6594127416610718,-1.1008278131484985,0.2667939066886902,0.3911559283733368,0.2618410587310791,0.6735947132110596,-0.2163940668106079,-0.4893879294395447,0.041750624775886536,-0.28795358538627625,-0.08076877892017365,-0.9659717679023743,0.37813591957092285,-0.5493411421775818,-0.21130235493183136,0.10473166406154633,-0.05842433124780655,0.3736180365085602,0.2375851422548294,-0.4979774057865143,-1.3942278623580933,-0.8228786587715149,-0.29471585154533386,0.7061211466789246,0.6159425973892212,-0.8741695880889893,0.2580367922782898,-0.3983041048049927,1.1453406810760498,0.8243237137794495,0.22913290560245514,-0.3307640552520752,-0.3677000403404236,-0.7330841422080994,0.5989917516708374,0.0933593213558197,0.19941619038581848,-0.04534585401415825,0.39374205470085144,-0.33386948704719543,-0.96656334400177,-0.01881679706275463,0.8063017129898071,-0.41216346621513367,-0.2656992971897125,-0.6175490021705627,0.2361738681793213,0.5635981559753418,-0.5969139933586121,-0.05341743305325508,0.7054628133773804,0.5122811198234558,0.5808339715003967,0.2511870563030243,0.7973132133483887,-0.5600771903991699
b'\xe5\x8f\x91\xe8\xa1\xa8',1.0466415882110596,0.8027455806732178,0.6440710425376892,-0.04225512593984604,0.5036171078681946,1.0969537496566772,-1.1847724914550781,-0.48449191451072693,-1.6736282110214233,0.6840389370918274,-0.2888811230659485,-0.07762321084737778,-3.362125873565674,-0.275899738073349,0.09388598799705505,-3.9089877605438232,1.1622018814086914,-1.6047312021255493,0.16135606169700623,-0.6178670525550842,0.6225675344467163,-2.2007243633270264,0.2968943119049072,0.31697046756744385,-0.7967156767845154,-0.14662335813045502,0.7268587350845337,-1.077596664428711,-0.2069196105003357,0.1189337894320488,0.06761475652456284,0.2917401194572449,-0.9853075742721558,-1.1139203310012817,-1.9061485528945923,1.0178008079528809,0.40927577018737793,1.4573854207992554,0.30225062370300293,-0.35743284225463867,0.13278579711914062,3.172630786895752,1.5622484683990479,-0.15001237392425537,-1.0502911806106567,0.16158676147460938,0.8548921942710876,0.44010546803474426,-0.06549785286188126,0.17047648131847382,-0.8605021238327026,2.071528434753418,0.5185127854347229,-0.34503796696662903,-2.3867368698120117,0.21548357605934143,-1.6054054498672485,0.5774194598197937,-1.4282180070877075,-1.2394465208053589,0.9335180521011353,0.41268834471702576,-1.3465840816497803,-0.5788351893424988,-0.8944043517112732,-1.4160233736038208,-0.5247141122817993,-0.26654890179634094,-1.2176393270492554,1.3811157941818237,0.6361792683601379,-1.5782681703567505,-1.4534814357757568,1.0485516786575317,0.8619402050971985,-0.7107189893722534,-0.03760088235139847,1.9365050792694092,-0.8779086470603943,0.0184073094278574,0.5537581443786621,1.2829903364181519,-2.500720739364624,-2.3753042221069336,-0.4766009449958801,1.3530155420303345,-1.5409191846847534,0.5050110816955566,0.03914354741573334,0.8342437744140625,-0.7703369855880737,-2.19075870513916,0.7938903570175171,0.6570112109184265,-1.5728142261505127,-0.7069631814956665,-4.077208518981934,0.1930759698152542,-2.5590059757232666,1.8108755350112915,-0.5947948694229126,-0.19781874120235443,1.5367223024368286,1.3726831674575806,0.04536905139684677,-2.571690320968628,-1.7555276155471802,-2.0671193599700928,-2.4635167121887207,-1.544755220413208,-0.6335249543190002,0.8012254238128662,-0.736024022102356,0.9252763986587524,-0.3298816680908203,-0.26800987124443054,-0.05987349897623062,-1.223280429840088,-0.3454481363296509,-0.0534338541328907,-1.2575234174728394,-1.2264565229415894,-1.296462893486023,2.171130418777466,-1.1145174503326416,2.4653937816619873,-1.9260486364364624,-0.8540439605712891,-0.5586587190628052,-1.5873075723648071,1.1897718906402588,2.3502697944641113,0.8743606209754944,-1.139161229133606,-0.36124274134635925,1.1225932836532593,1.5716160535812378,-0.9652054905891418,-0.5825087428092957,0.0991133525967598,-2.2665865421295166,0.34928232431411743,0.08817587047815323,0.6590886116027832,0.9998417496681213,0.6362053155899048,0.1990049034357071,-0.4110550582408905,0.21665263175964355,-0.15858322381973267,-2.161163568496704,0.8111026883125305,1.3964256048202515,-1.4355411529541016,1.827492117881775,0.3683977425098419,1.7772753238677979,1.3441036939620972,1.2063132524490356,0.5287829041481018,1.9848723411560059,1.1895127296447754,0.3799698054790497,-0.8185177445411682,-0.947206437587738,-1.1918987035751343,0.7589902877807617,-0.651337742805481,-1.071199655532837,-0.6045656800270081,-0.12421692162752151,-1.0552462339401245,-1.9775137901306152,-0.02213292382657528,0.041398949921131134,2.5826730728149414,-0.12538813054561615,1.0008084774017334,-1.2292760610580444,1.6885172128677368,0.9150370955467224,0.4468301236629486,1.3375219106674194,0.30774086713790894,-1.0887929201126099,-0.5796604752540588,-0.2220907211303711,-0.28504064679145813,0.09637487679719925,-1.7242776155471802,-0.7686549425125122,0.5128297805786133,0.8534864783287048,0.8630664944648743,-0.7991164326667786,0.9533873796463013,-2.430952787399292,0.7033708095550537,0.593913197517395,-0.5571362376213074,0.6161489486694336,-0.041504502296447754,0.257660448551178,-2.1830880641937256,-0.32229992747306824,0.5070921182632446,-0.11806070804595947,-0.014822598546743393,0.7709676623344421,-0.4032083749771118,1.308967113494873,-1.7911778688430786,-1.6834864616394043,0.1763201504945755,0.3376132547855377,-0.33363428711891174,0.8259298205375671,-0.5844919681549072,-0.011898032389581203,0.0023856470361351967,-1.6285574436187744,0.8753293752670288,-0.05901365727186203,-0.18973030149936676,0.8343014121055603,1.2979600429534912,-0.9063729643821716,0.19383563101291656,0.6927805542945862,-0.7171559929847717,0.6264410018920898,0.05230479687452316,1.8985928297042847,2.662611484527588,-0.4099125862121582,-0.3884243667125702,1.3891773223876953,1.1984132528305054,-1.1886000633239746,-0.26949721574783325,-1.4698069095611572,-0.15942177176475525,-0.9215384721755981,0.5786237120628357,1.9930435419082642,-0.17080725729465485,0.9700427055358887,1.1740199327468872,0.4386681914329529,-0.9147028923034668,-1.7112367153167725,1.8960310220718384,-0.8756325840950012,-1.9546664953231812,1.2051013708114624,-0.4829680919647217,-0.278359055519104,0.6259194016456604,-0.6770548224449158,0.545659065246582,-1.143150806427002,2.0457839965820312,-0.625686526298523,-1.2611018419265747,-1.3204138278961182,1.355293869972229,0.43002811074256897,1.327744960784912,-0.8657142519950867,-1.5690313577651978,0.2677735984325409,0.4421084225177765,0.5243737101554871,-0.47392791509628296,1.32032310962677,0.614942729473114,1.0163260698318481,-1.3626126050949097,-0.8162044286727905,-1.2717067003250122,-0.6126892566680908,1.0663501024246216,-0.7957578301429749,-0.785036563873291,0.9487345218658447,-1.125364065170288,-0.23726879060268402,-1.0045057535171509,2.996040105819702,0.7342698574066162,-2.136368989944458,-0.3086839020252228,-0.11914601922035217,-1.1744354963302612,-0.9632574915885925,2.61729097366333,1.246002435684204,2.1945462226867676,-0.25315308570861816,1.2892698049545288,-1.2915868759155273,-2.3349995613098145,-0.045694559812545776,0.6932443380355835,1.2808458805084229,0.557161808013916,-0.9897969365119934,-2.1846537590026855,1.2604823112487793,-0.6384757161140442,-0.4706650376319885,-0.6361119747161865,0.4281260669231415,-0.753761351108551,0.6645474433898926,-0.2349647432565689,-1.7844332456588745,1.504439115524292,0.0770181193947792,0.7219131588935852,-0.6136486530303955,-1.0656092166900635,-0.6782838702201843,-0.9354029893875122,0.7225874066352844,-0.5245417952537537,-0.3270881474018097,-0.3595944344997406,-1.4916359186172485,3.5112757682800293,0.8156055808067322,1.6676301956176758,1.685689091682434,-1.3450192213058472,-0.5481732487678528,0.20620271563529968,-1.0246658325195312,-0.3578084409236908,-1.5916827917099,0.5380121469497681,0.05732792615890503,-0.024363752454519272,2.593585729598999,-1.9458175897598267,0.12445711344480515,-0.27419155836105347,-0.6907945871353149,0.6289204359054565,0.24241971969604492,-0.47697189450263977,0.037509486079216,-1.8740463256835938,-1.4094784259796143,-0.9864186644554138,-1.7539920806884766,-1.0237047672271729,0.8674634099006653,1.7986018657684326,1.8558003902435303,-1.5556093454360962,-1.0113897323608398,0.07755791395902634,0.510052502155304,1.6670751571655273,-0.7150804400444031,0.9686494469642639,-0.5013435482978821,0.7732762694358826,0.055957335978746414,-2.3532369136810303,0.6850301027297974,-1.1425693035125732,-1.6957988739013672,-0.884716272354126,-1.3125900030136108,0.11119557172060013,0.4362732172012329,-1.8150643110275269,-0.1772315949201584,-0.3799361288547516,1.6131426095962524,1.5049222707748413,0.33998072147369385,-0.34406790137290955,2.5572710037231445,0.9189849495887756,-1.9144868850708008,0.4308764934539795,1.2536301612854004,-0.05661208555102348,1.0322836637496948,1.479127049446106,0.6855403780937195,2.546382427215576,-0.7716995477676392,2.0088930130004883,0.8986257314682007,-1.3896658420562744,1.203549861907959,-1.4510256052017212
b'\xe4\xbf\x83\xe8\xbf\x9b',0.9914214015007019,0.4626998007297516,-0.9400042295455933,0.49675288796424866,0.1658017337322235,0.348349392414093,1.9670661687850952,-0.010257666930556297,-0.12266214191913605,-0.2586912214756012,-1.2010432481765747,-0.5218592286109924,-1.376339077949524,0.3334505259990692,1.0211291313171387,-0.6442011594772339,0.7299884557723999,1.3149335384368896,0.10524255037307739,0.25735634565353394,1.6233015060424805,-0.07759755104780197,1.387669324874878,0.2500254213809967,2.4066402912139893,0.3753088712692261,-1.6537401676177979,0.10511375218629837,-1.9316178560256958,0.8554351925849915,1.4202394485473633,1.44476318359375,-0.15197788178920746,0.035794101655483246,-0.5841102004051208,-0.3612978756427765,0.07560481876134872,-2.2704741954803467,-1.0028791427612305,-0.3677107095718384,0.6918981671333313,0.5509275197982788,-0.41520288586616516,0.07258912920951843,1.5919513702392578,-3.1894278526306152,1.2466957569122314,0.5447711944580078,-1.0492204427719116,-0.9019901156425476,-0.06141640618443489,0.92307049036026,3.250924587249756,-1.7273896932601929,0.922762930393219,1.142807960510254,0.6381669044494629,0.562722384929657,-0.3104766011238098,-1.0689704418182373,0.03154759854078293,-1.3374208211898804,-1.1023058891296387,-1.6160030364990234,-0.992321252822876,0.14341670274734497,-0.29518231749534607,-1.2028785943984985,0.49427229166030884,1.4894592761993408,-1.0762470960617065,0.5573067665100098,-0.11544719338417053,0.9107741713523865,-1.822027564048767,-1.0052626132965088,0.4128147065639496,-2.6308984756469727,1.1808223724365234,-0.5999789237976074,-0.24255309998989105,0.2779916226863861,-1.176595687866211,-1.7394747734069824,0.7242646217346191,0.5171193480491638,0.011755610816180706,-1.8480489253997803,0.41693010926246643,-0.12182950973510742,-0.9804773926734924,-1.988118290901184,2.4218173027038574,-1.1087323427200317,0.6361920237541199,0.9818812608718872,2.940924882888794,-1.6652181148529053,0.2253616452217102,0.09091819822788239,1.1567211151123047,0.9364678263664246,0.9441942572593689,-0.9186611771583557,-0.22268077731132507,0.07427912205457687,-2.2377073764801025,1.7872192859649658,0.5587136745452881,1.087476134300232,-0.02354431338608265,0.6175655126571655,2.3266868591308594,-0.5877867341041565,0.8595860600471497,-2.6817595958709717,1.7483519315719604,-0.3247632384300232,-0.8878169655799866,1.9743504524230957,2.1411423683166504,-0.12609030306339264,-0.7383332848548889,0.8372522592544556,0.4327505826950073,1.1278231143951416,0.39369475841522217,-2.0396080017089844,-0.11116346716880798,-0.46633195877075195,0.5822576284408569,1.939309000968933,0.055068761110305786,-1.4022345542907715,1.5188182592391968,-0.1045154258608818,1.068961501121521,0.03867432847619057,0.6790603995323181,0.5017955899238586,0.8442016243934631,0.8164106011390686,1.2221235036849976,-2.9592318534851074,1.8625249862670898,-1.474018931388855,1.7098416090011597,0.205710768699646,-0.08656902611255646,1.7575300931930542,-0.05707108974456787,0.3453611135482788,-1.0899115800857544,-1.0152844190597534,0.43912404775619507,0.22446209192276,1.347936749458313,-1.5924526453018188,1.1744730472564697,1.4634191989898682,0.22050166130065918,0.824336051940918,-0.9237200617790222,1.1965560913085938,-0.31319111585617065,-0.8677690625190735,-0.05290738865733147,0.10043098777532578,-0.22488577663898468,1.0596188306808472,0.015281167812645435,0.6730700135231018,-0.38595306873321533,-0.662419319152832,2.289177179336548,-1.871541976928711,-0.5555620193481445,-0.7807208895683289,1.1941558122634888,2.085120439529419,-0.4630674421787262,0.4271910786628723,2.020827531814575,-0.4150388836860657,-1.898313045501709,0.373083233833313,0.15171657502651215,0.9054980874061584,0.1276257187128067,-2.552225351333618,-0.9510679244995117,0.8115695714950562,0.06490707397460938,1.1891844272613525,-0.9702816009521484,0.3834415376186371,-0.7789483070373535,-0.03934807702898979,-0.8534568548202515,-0.41431865096092224,1.27823007106781,-0.8262089490890503,-0.3035111129283905,-1.830441951751709,-0.37891966104507446,-0.35174083709716797,1.6254054307937622,0.01826770417392254,3.3574278354644775,-0.204356387257576,0.5085779428482056,0.44578641653060913,-0.6506742238998413,0.5965927243232727,0.398981511592865,-1.812846064567566,-1.7151291370391846,-0.25421419739723206,1.6699309349060059,-0.8265958428382874,0.6068417429924011,0.5521068572998047,-1.5968735218048096,1.0822480916976929,0.5359732508659363,2.341672658920288,0.0727493092417717,-0.8102283477783203,0.30148354172706604,0.7282612323760986,0.6751502156257629,1.3914164304733276,-0.04870918393135071,0.6850187182426453,1.4818849563598633,1.430452585220337,-0.5160312056541443,0.18985840678215027,0.15784460306167603,-1.306318998336792,-1.2517224550247192,0.6069275736808777,0.039655737578868866,-0.06252939999103546,1.6252975463867188,-0.4102379083633423,-0.7721343636512756,-0.6604369282722473,0.3621118664741516,0.6840117573738098,-0.9030701518058777,0.7289174795150757,-1.5560657978057861,0.5970055460929871,-0.9813593626022339,-1.1125993728637695,0.13022392988204956,0.08209691196680069,0.9033753275871277,1.7241235971450806,-2.412712574005127,-0.6190763115882874,1.2457996606826782,-0.28944864869117737,-0.8128592371940613,0.2023593634366989,1.2778736352920532,0.941109836101532,1.2892152070999146,0.053406890481710434,0.3522905111312866,-0.9199954867362976,-0.4657185673713684,0.5038965940475464,-0.31855806708335876,1.6000667810440063,-1.8712553977966309,-1.0771276950836182,1.3029738664627075,0.7733479738235474,0.1380249261856079,0.33901312947273254,1.9694184064865112,-1.060076355934143,0.9831517934799194,-0.5201736688613892,0.7327814102172852,2.1409544944763184,0.9009877443313599,-0.2209702730178833,-1.250253438949585,0.5210890769958496,2.597297191619873,0.03385326266288757,-1.419296383857727,0.20085462927818298,-0.3827115297317505,1.4734981060028076,-0.9336732029914856,-1.0687986612319946,-3.60866379737854,0.23174864053726196,0.1768912523984909,-1.1969664096832275,-1.2550225257873535,-1.7375048398971558,-1.0269896984100342,0.18274305760860443,2.8041319847106934,-0.9295645952224731,0.40387555956840515,0.7182860970497131,-0.8831096887588501,0.8467483520507812,0.7945822477340698,-0.9680811762809753,-0.4336979389190674,1.7640466690063477,0.20336315035820007,1.7850277423858643,-2.0262269973754883,-0.6772453784942627,0.2671547830104828,-1.0605583190917969,1.493727207183838,0.12862537801265717,-0.23327341675758362,-0.6246289610862732,0.17444922029972076,-1.1279877424240112,-0.5597299337387085,-0.036856018006801605,-0.49939826130867004,0.06063714250922203,0.3412042558193207,1.2895115613937378,-2.3500616550445557,0.9819134473800659,-0.08982259780168533,-0.5349888205528259,-0.22561496496200562,1.0934637784957886,1.3860875368118286,-1.5631641149520874,0.6326594352722168,0.588171124458313,-2.058901071548462,0.47039198875427246,0.8121860027313232,1.6380877494812012,0.021112849935889244,-0.1445028930902481,1.1691508293151855,-1.7038406133651733,1.2227507829666138,-0.8256170749664307,-0.35574302077293396,-0.17560218274593353,0.6940165162086487,-0.6905893087387085,-0.5232130885124207,-1.0525577068328857,-1.0953642129898071,0.7359650135040283,-0.6513141989707947,0.43486323952674866,-1.1207135915756226,-0.8811911344528198,1.8516277074813843,0.16101892292499542,0.8269242644309998,-1.6137374639511108,-1.5945671796798706,1.0300403833389282,0.22632066905498505,-1.017535924911499,-1.4654368162155151,0.9075996279716492,0.2804427444934845,1.2180726528167725,2.497412919998169,-1.0100716352462769,-1.1645066738128662,0.5593917369842529,-0.5495379567146301,0.8420969843864441,-0.4527633786201477,0.8968687057495117,1.0992833375930786,-0.9041422605514526,1.0654819011688232,-0.05667484179139137,0.2108103483915329,-0.9803367853164673,1.9517872333526611,-0.07406290620565414,-1.2311640977859497,0.12339980900287628,1.9944536685943604,1.1982951164245605
b'\xe5\xbb\xba\xe7\xab\x8b',0.5869702100753784,1.6041394472122192,-0.5026757121086121,-0.36696019768714905,0.044386107474565506,-1.124920129776001,-1.2110295295715332,-1.1726024150848389,0.6820903420448303,-0.21779601275920868,-1.6255452632904053,-0.8369972109794617,-3.626617670059204,-0.10523233562707901,0.33417218923568726,0.1749633401632309,0.43673115968704224,0.35083866119384766,-1.8911627531051636,0.7257192134857178,0.5924941301345825,2.0370919704437256,0.28677913546562195,-1.4289740324020386,0.8123433589935303,0.4845536947250366,0.7861924767494202,-1.9637930393218994,-1.8222370147705078,0.8457982540130615,1.836307406425476,0.49213093519210815,1.016105055809021,1.15925931930542,-0.31386905908584595,-1.4673479795455933,-1.3847960233688354,-0.12780754268169403,0.2545965909957886,-1.6738615036010742,-0.17416930198669434,1.3022511005401611,-0.754351019859314,-1.1284027099609375,1.3309478759765625,-0.44145190715789795,0.6198039650917053,-0.336060494184494,-2.17254900932312,-1.321534276008606,2.1515297889709473,-0.6269719004631042,2.5654356479644775,-0.7942924499511719,-0.25038471817970276,0.7367689609527588,1.412625789642334,-0.1831555813550949,0.1482369750738144,0.9913253784179688,-1.1081887483596802,0.25024303793907166,-0.8938514590263367,1.8983944654464722,-1.1243934631347656,-0.041666675359010696,2.116284132003784,0.4847338795661926,0.056904058903455734,1.7853784561157227,-0.17402870953083038,-1.1258361339569092,-0.17426851391792297,0.9456965327262878,-0.5744311213493347,2.4429681301116943,0.3451646864414215,-0.7775364518165588,1.2386292219161987,-0.8564596176147461,-0.8955519199371338,1.7540291547775269,-1.8381574153900146,-1.0879194736480713,1.9496647119522095,0.9482406377792358,0.6914270520210266,-2.097487449645996,0.678220272064209,-1.0319370031356812,-1.3985203504562378,1.5587306022644043,-1.3679038286209106,0.2481662929058075,-0.25981271266937256,1.5139082670211792,-0.6623430848121643,-0.7908912301063538,0.4112442135810852,0.5932583212852478,0.6175865530967712,0.8747476935386658,1.1673287153244019,-0.9442853331565857,0.5178080797195435,-2.9454524517059326,-0.5946358442306519,0.876408040523529,-0.37832412123680115,-1.0976403951644897,-0.7202869057655334,-0.9412708282470703,0.7261390686035156,-0.7969189286231995,-0.7848224639892578,-1.424161434173584,2.4384288787841797,0.8688666224479675,-1.2650631666183472,2.0484628677368164,1.1305714845657349,-1.0814218521118164,0.7217921614646912,2.617661714553833,0.4790274500846863,-0.4357239902019501,-2.204991102218628,-1.146180272102356,-0.5189332962036133,-1.5206658840179443,-0.31341713666915894,0.04546036571264267,0.6804986000061035,-0.9550365805625916,0.761013925075531,-0.3271360695362091,1.2504342794418335,0.5705477595329285,0.6965429782867432,-0.506200909614563,0.03110998496413231,1.0288326740264893,-0.07720975577831268,-0.51026850938797,1.3979313373565674,-0.716453492641449,1.9775571823120117,-0.5553257465362549,-0.6753581166267395,-1.7680319547653198,-0.879120409488678,0.37542393803596497,1.3694974184036255,-0.03634995222091675,0.3868917226791382,0.32012397050857544,1.4731636047363281,0.6407543420791626,1.79485023021698,1.2643566131591797,1.7946947813034058,-0.7810819745063782,2.6056313514709473,0.06366978585720062,-2.1519582271575928,1.576258659362793,0.1669923961162567,0.22561168670654297,-1.8074486255645752,-0.6365921497344971,0.27187758684158325,0.14177271723747253,0.7214680314064026,-0.10279562324285507,1.51420259475708,-1.5594069957733154,-0.08872197568416595,1.6983529329299927,0.7702991366386414,0.9897270798683167,1.8403171300888062,0.8843775987625122,2.37646484375,0.11998843401670456,-0.03372945263981819,-0.31743595004081726,-0.4839112162590027,0.898353099822998,0.9147956967353821,-1.9847332239151,-1.8520587682724,1.1636090278625488,-1.0581669807434082,1.5545742511749268,1.0713485479354858,2.5772197246551514,0.005483613815158606,0.6397829055786133,-0.5255851149559021,-2.305128335952759,0.1630902737379074,-0.656775176525116,1.3453929424285889,-1.8075565099716187,-0.3468640148639679,-0.5515301823616028,1.2060168981552124,0.6186375617980957,-0.5326215028762817,-0.7679402828216553,0.20372901856899261,2.1858325004577637,-1.3191428184509277,1.5890324115753174,-0.8786434531211853,0.6709364652633667,-0.814655601978302,-0.46693795919418335,1.2291227579116821,1.419784426689148,-0.33143600821495056,1.4831523895263672,-0.9237859845161438,0.3480924665927887,1.5703063011169434,-0.3842165470123291,0.770743727684021,-0.8691268563270569,0.6033029556274414,-0.3948189318180084,-0.3572824001312256,1.1493384838104248,1.3775434494018555,1.2582417726516724,-1.014504313468933,0.01610442064702511,-0.0021548750810325146,0.412531316280365,1.6151021718978882,-1.0707826614379883,-0.394300639629364,-0.6918215751647949,-0.5128770470619202,0.9033263325691223,1.0886480808258057,-1.499550461769104,-0.029302671551704407,0.5149742960929871,0.7485716938972473,0.6485800743103027,-0.12216752767562866,0.14261774718761444,-2.377002239227295,0.07388462126255035,-1.230554461479187,0.030769549310207367,0.7387398481369019,1.9435523748397827,3.0786821842193604,0.4646475911140442,-0.7457691431045532,-0.06404025107622147,0.4216379225254059,-1.5428471565246582,-1.8320411443710327,-0.7514782547950745,2.3533008098602295,0.25521212816238403,1.1643011569976807,2.87953782081604,0.2929493188858032,0.2029457688331604,0.7495816946029663,-0.9299689531326294,-0.35485684871673584,-0.5928931832313538,0.13951389491558075,-0.5594618320465088,3.0525295734405518,0.5703635811805725,-0.9631319046020508,0.13641439378261566,-0.44919028878211975,-0.9828107953071594,1.7734718322753906,-1.5840409994125366,1.3631435632705688,1.7014710903167725,2.3703906536102295,0.2297416776418686,-2.107412338256836,0.8784183263778687,1.177523136138916,-0.07741669565439224,0.11898814886808395,-1.4523727893829346,0.1720336377620697,1.1302460432052612,-0.7635855674743652,0.5091663599014282,-2.6389145851135254,-0.07828933745622635,0.09408595412969589,0.6317143440246582,-0.7638307809829712,-1.1888701915740967,-0.6567608714103699,1.4954897165298462,1.7254133224487305,-2.2041640281677246,0.03765331208705902,0.31942662596702576,-0.553300678730011,0.2832072079181671,-0.052137620747089386,-1.192907691001892,-0.5199123620986938,0.3208468556404114,1.676231861114502,-1.1150976419448853,-0.7312867045402527,-2.7848618030548096,1.7010875940322876,-0.9193012714385986,0.23623929917812347,-0.2054106891155243,0.809126079082489,0.1864805370569229,0.6028401255607605,-1.0559664964675903,1.323908805847168,2.1710615158081055,0.46622025966644287,-0.0644470676779747,-1.8919401168823242,0.4085713028907776,-0.35136982798576355,0.3633844554424286,-0.23939715325832367,0.6282707452774048,0.23438076674938202,-0.08756431937217712,2.1660842895507812,-1.5210107564926147,0.7416917681694031,-1.6801894903182983,-1.2178696393966675,0.1826617419719696,-0.24471789598464966,0.1528875082731247,-0.0888553261756897,-0.7357759475708008,-0.1677115112543106,0.22307686507701874,-0.45820510387420654,-2.734360933303833,0.3957462012767792,1.8929800987243652,1.4886505603790283,-1.77566659450531,-0.14407601952552795,-0.20001137256622314,-1.4447693824768066,2.1796393394470215,-1.5885249376296997,0.24863238632678986,-0.47435399889945984,-0.6830427050590515,-1.9877430200576782,-0.019965093582868576,0.43980342149734497,0.874077558517456,-1.100454568862915,3.3557217121124268,-0.8247430324554443,1.3288445472717285,-3.263734817504883,1.321378469467163,0.6750888824462891,2.2139437198638916,1.1274818181991577,0.42913147807121277,-0.8882417678833008,-1.4747358560562134,-0.38351356983184814,0.07411821186542511,-1.5185635089874268,-1.204300880432129,1.0921636819839478,0.3817160129547119,1.1126049757003784,2.0289294719696045,0.0024780631065368652,0.6734066605567932,1.4696378707885742,2.2955541610717773,0.7473069429397583,-1.0584955215454102,0.01053409930318594,0.10958690941333771
b'\xe5\xb7\xa5\xe4\xbd\x9c\xe8\x80\x85',-1.2239643335342407,1.6697322130203247,-0.30673930048942566,0.4093892276287079,1.0725224018096924,0.6172436475753784,0.3619738221168518,0.7751168608665466,-1.6998683214187622,-1.128502607345581,-0.10281040519475937,-0.10613958537578583,-0.7681722044944763,1.0008642673492432,-0.04984778165817261,-0.3825591206550598,1.4374380111694336,-1.6974776983261108,-0.35992300510406494,-1.336921215057373,0.6183985471725464,0.30367276072502136,0.06528414785861969,1.1412757635116577,-1.163267970085144,0.5456042289733887,-1.0841000080108643,-1.1854603290557861,0.053649984300136566,0.8188584446907043,0.02866428531706333,0.8463528752326965,0.49051010608673096,0.30424392223358154,-0.14583860337734222,-1.7964235544204712,0.004469234962016344,0.2421228289604187,-1.7338383197784424,0.020009538158774376,0.5533713698387146,0.3175314962863922,0.17046281695365906,-0.4857912063598633,0.5827192664146423,-1.9543259143829346,0.9667414426803589,-0.14862297475337982,1.2144392728805542,1.5127089023590088,1.066176176071167,-0.2828074097633362,0.04442736506462097,-0.08633203059434891,0.7641725540161133,0.367399662733078,-1.2919753789901733,0.8391422629356384,-1.763085126876831,0.33841562271118164,0.7090550661087036,-0.9794319868087769,-0.4260142147541046,-1.45542573928833,0.26240041851997375,-1.3739985227584839,0.013230099342763424,-0.9572262167930603,-0.6125515103340149,1.759492039680481,-0.8223922848701477,-0.3254932761192322,-1.564598798751831,-0.6594176888465881,0.2305118292570114,-2.63143253326416,-0.23649577796459198,-0.9003767371177673,0.28811028599739075,-0.07163448631763458,1.1362608671188354,0.03798989951610565,0.5731896758079529,-0.4960869550704956,-0.6607694029808044,-0.9956667423248291,-0.8006296753883362,-0.9585034847259521,-1.902768850326538,-0.25296515226364136,-0.4796570837497711,-0.48310694098472595,0.9122183322906494,-0.8485031127929688,0.755823016166687,1.044416069984436,0.6896638870239258,-1.4736255407333374,0.4194900691509247,0.4855252504348755,0.13730177283287048,-0.42623668909072876,1.1253288984298706,-0.4570200741291046,1.6946815252304077,0.5891768336296082,-0.37735694646835327,0.88910973072052,-0.11260421574115753,-0.8788909912109375,1.7976051568984985,1.3256351947784424,-0.9885199666023254,-0.1233036071062088,0.3247600793838501,-0.9073774814605713,0.410111665725708,1.508334994316101,-0.18184152245521545,-0.45389536023139954,2.0904648303985596,1.3183296918869019,-2.3854517936706543,1.0389902591705322,0.21153132617473602,1.6010898351669312,-0.4200037121772766,1.0575417280197144,0.9727188944816589,-0.6220518946647644,-0.5398998260498047,0.9685999751091003,0.9824945330619812,-1.1110126972198486,0.15115559101104736,-1.3019590377807617,0.277035653591156,-1.654550552368164,-0.8001989722251892,-0.816547691822052,-1.4554479122161865,-0.39871659874916077,0.6754485964775085,-0.19259706139564514,0.022017905488610268,-0.7303022742271423,1.4649559259414673,-0.4356081485748291,0.4382653832435608,-0.3249545395374298,-1.355532169342041,-0.1358429491519928,-0.29401665925979614,0.06606422364711761,1.8357871770858765,0.8136681318283081,2.514883279800415,-1.251061201095581,-1.4771909713745117,-0.17096549272537231,0.4011002480983734,0.673029899597168,-1.0876168012619019,-0.06803431361913681,0.1723192185163498,0.2651236355304718,1.222249150276184,-0.6493011116981506,-0.8844908475875854,1.5370063781738281,-0.809878945350647,-0.6410365104675293,-0.2789226472377777,-0.8446803092956543,0.159830242395401,0.9466051459312439,-0.3915541470050812,-2.2812657356262207,1.307811975479126,-0.7021477222442627,0.7321029901504517,-2.1390933990478516,1.2561368942260742,-0.8930086493492126,-0.5858002305030823,0.05220064893364906,0.5376640558242798,1.0133570432662964,-0.6526026129722595,0.8027840256690979,0.1198241114616394,-0.30448928475379944,-3.0405664443969727,1.0791304111480713,1.2790563106536865,-1.6292449235916138,-1.059017539024353,0.037661418318748474,-1.0374146699905396,1.7507379055023193,-0.08991751074790955,-0.39773786067962646,-0.8091930150985718,-0.4820135235786438,-0.019508972764015198,0.22519631683826447,-0.25490623712539673,-2.784148931503296,1.9128763675689697,-0.5447049736976624,0.21599474549293518,0.3033790588378906,0.23185864090919495,0.8071939945220947,0.7815865874290466,-1.42759108543396,-0.3882283866405487,-0.5353320240974426,0.028075719252228737,1.0961600542068481,0.6022019386291504,-1.344828724861145,-0.49844446778297424,0.8914194703102112,-0.6629428267478943,0.7856688499450684,-0.5751737952232361,-1.6716538667678833,-0.5059236288070679,-0.6571287512779236,0.13648369908332825,-1.1342307329177856,0.24788451194763184,0.7008711099624634,0.8649156093597412,-1.5413248538970947,-0.6333045959472656,0.4618681073188782,-1.7465126514434814,1.2944705486297607,-1.6295981407165527,1.1556603908538818,-1.2674590349197388,-0.07702882587909698,1.9078545570373535,-0.7165617346763611,1.5154352188110352,-0.5550570487976074,-1.7684341669082642,-0.6410840749740601,0.16969755291938782,1.2208683490753174,-0.16953341662883759,1.514497995376587,-1.5459678173065186,-0.09254483133554459,0.5096970796585083,0.24895991384983063,-0.5296513438224792,0.7625600695610046,-1.2277143001556396,1.2155781984329224,-0.7651070356369019,0.7139946818351746,-1.4003454446792603,0.04984736070036888,0.4545944333076477,1.0461664199829102,0.8842871785163879,-0.01577189192175865,0.09477268904447556,-1.4226531982421875,0.16807208955287933,0.8412453532218933,-0.1766519546508789,-0.13253465294837952,0.5218347907066345,1.0146631002426147,0.0870923399925232,0.5697702765464783,0.7874902486801147,-0.9317986965179443,0.5925326347351074,0.825581967830658,0.04293973371386528,-1.7739083766937256,1.3801658153533936,-0.48962098360061646,1.0074747800827026,-0.5562766194343567,-1.048708200454712,-0.18585985898971558,-0.6403210759162903,0.04919121414422989,0.30613502860069275,-0.7808910012245178,-0.18050052225589752,-0.4134286046028137,-0.4338361918926239,1.552862286567688,-0.5806661248207092,1.386031150817871,0.4097314178943634,0.39587095379829407,0.7581684589385986,-0.6633140444755554,0.6453794836997986,-0.033470481634140015,-1.1845496892929077,0.07721761614084244,0.5414972305297852,-2.283327102661133,-0.0065277377143502235,2.4697072505950928,-0.3134538531303406,0.3793189823627472,-0.9991164803504944,-0.5267470479011536,0.04166504740715027,0.35961151123046875,-1.06617271900177,-0.04314306005835533,1.353078007698059,0.9684046506881714,1.5174963474273682,-0.5856304168701172,0.23559962213039398,-2.278125047683716,-1.0413306951522827,-1.1029289960861206,2.263451337814331,-0.37542545795440674,-0.3718971610069275,1.5751392841339111,1.19874107837677,-1.644072413444519,-1.2122063636779785,0.6643292307853699,-0.4226488769054413,0.2274772822856903,-0.014322674833238125,2.2168827056884766,-0.570777416229248,-0.6179341673851013,-0.07912958413362503,-0.6208697557449341,-1.190993309020996,0.33153584599494934,1.3312932252883911,0.7309460639953613,0.7153736352920532,-2.0206496715545654,-0.019928522408008575,-0.4358409345149994,1.4851922988891602,0.627467155456543,-0.2472032904624939,-0.6394360065460205,-0.5759716629981995,-0.9556784629821777,-0.9753340482711792,-0.3161330223083496,-0.5696394443511963,-0.49916529655456543,-0.48144179582595825,-2.0930593013763428,-0.6085988283157349,1.6327054500579834,-1.419142723083496,-0.15374884009361267,-2.7064743041992188,-0.26588886976242065,-2.1896514892578125,1.0723679065704346,1.3859813213348389,0.7009506225585938,1.1774595975875854,-0.11894374340772629,-0.9475070238113403,1.2740545272827148,0.3279058337211609,1.2861453294754028,0.38380223512649536,0.23445487022399902,-0.5404146909713745,-0.4025791585445404,-0.0787876769900322,0.5171696543693542,0.9859716296195984,1.027485728263855,0.40510067343711853,-0.18979880213737488,1.1037694215774536,0.27191871404647827,1.330194354057312,0.11790461093187332,2.2253899574279785,0.33895909786224365,-0.40783461928367615,-0.03978747874498367
b'\xe4\xbc\x98\xe7\xa7\x80\xe8\xae\xba\xe6\x96\x87',0.22478802502155304,-0.09860147535800934,-0.027039581909775734,0.19525247812271118,-0.10932228714227676,0.04484115168452263,-0.11527254432439804,0.08693516254425049,-0.3017998933792114,0.25724756717681885,0.03068225085735321,0.08806026726961136,-0.08335845917463303,-0.0859261229634285,-0.092946358025074,-0.10652027279138565,-0.09148599952459335,0.054780639708042145,-0.19500182569026947,-0.22948741912841797,-0.12522710859775543,-0.0430343896150589,0.12742047011852264,0.057714320719242096,-0.07672885060310364,-0.1335812509059906,-0.07899287343025208,-0.03436393290758133,0.03432423621416092,0.08577465265989304,0.2341584414243698,0.05776188150048256,0.19346752762794495,0.08842690289020538,0.07586798071861267,-0.13287274539470673,-0.12024252116680145,-0.18054142594337463,-0.13798289000988007,0.01290892157703638,-0.18460430204868317,-0.08098485320806503,-0.0609227679669857,-0.08327596634626389,-0.1438710242509842,-0.08002808690071106,0.01793130300939083,0.07991290092468262,-0.33321672677993774,0.03809706121683121,0.1563836634159088,0.1727873682975769,0.013285945169627666,0.1453154981136322,-0.09437835961580276,0.014969579875469208,0.03137475997209549,-0.3007628917694092,-0.05170963332056999,0.21565212309360504,-0.026523763313889503,0.015378755517303944,-0.07887911796569824,-0.09692203998565674,-0.04400728642940521,-0.04392939433455467,-0.08628116548061371,0.12695801258087158,0.09408662468194962,0.23243756592273712,-0.11310874670743942,-0.22190609574317932,-0.12519332766532898,-0.2873256206512451,0.015079829841852188,-0.317191481590271,-0.21998174488544464,0.1444665491580963,-0.1631196141242981,-0.035750024020671844,0.08085794746875763,0.3582928478717804,0.25156649947166443,-0.24595876038074493,-0.2634024918079376,-0.14163514971733093,-0.25034022331237793,-0.03642328456044197,0.005856652744114399,-0.03427249193191528,0.030146243050694466,-0.12544190883636475,0.17600147426128387,0.12201855331659317,0.14806820452213287,-0.004655343946069479,0.4057334065437317,-0.16644330322742462,0.20438647270202637,-0.011505434289574623,0.10355828702449799,-0.05353585630655289,0.05283201113343239,0.0438857339322567,0.03157814219594002,0.14798451960086823,-0.011210973374545574,0.3481905460357666,-0.01884903758764267,0.02153390645980835,-0.26299285888671875,0.0824395939707756,-0.12500537931919098,0.12830373644828796,-0.019037464633584023,0.05951695144176483,-0.044484056532382965,0.1436319649219513,0.01601412147283554,-0.13443952798843384,0.013521593995392323,-0.12951290607452393,-0.47964248061180115,0.02602214924991131,-0.00998101755976677,0.3243533968925476,-0.026664478704333305,0.08008894324302673,0.1356976181268692,0.0976862832903862,0.03981827199459076,-0.018610304221510887,0.1865026205778122,0.18018896877765656,0.07482565194368362,0.053527168929576874,0.07452874630689621,-0.015207669697701931,0.07631918787956238,-0.052548252046108246,0.12886150181293488,0.05288921669125557,-0.038159918040037155,-0.0005370685248635709,-0.017317134886980057,0.2726593315601349,0.14174753427505493,-0.11401957273483276,-0.04356412589550018,0.2705391049385071,-0.06798843294382095,-0.08268722891807556,-0.1034976914525032,-0.08779920637607574,0.08362679183483124,0.15041711926460266,-0.026327289640903473,-0.1728881597518921,0.11201535165309906,0.02354099415242672,0.09063010662794113,0.22699841856956482,0.04139184206724167,-0.060967642813920975,-0.15345533192157745,-0.21246522665023804,-0.10865809768438339,-0.16818712651729584,-0.05412813648581505,0.22105282545089722,-0.2092042863368988,-0.17150063812732697,-0.023590311408042908,0.06415784358978271,0.043807435780763626,0.2893768846988678,0.0715668648481369,-0.41231226921081543,-0.11368028819561005,0.03681400418281555,-0.0695483610033989,-0.04174423962831497,0.03513186424970627,-0.06464982032775879,-0.12296006083488464,-0.21717879176139832,-0.024194886907935143,-0.11906943470239639,-0.23053862154483795,0.16295486688613892,0.06707578897476196,-0.10358763486146927,-0.22566965222358704,-0.012545304372906685,-0.19988273084163666,-0.010392488911747932,-0.02426302805542946,0.10877096652984619,-0.06813038885593414,0.06881169229745865,-0.0778767392039299,-0.1498885303735733,-0.030801674351096153,-0.17377665638923645,0.05635940656065941,0.15309274196624756,0.07980411499738693,-0.29485228657722473,-0.0261533260345459,0.059109169989824295,0.017785824835300446,0.14946505427360535,-0.040623441338539124,-0.10579412430524826,-0.19013437628746033,0.08684665709733963,-0.19453875720500946,-0.020775021985173225,0.027733908966183662,-0.09465886652469635,0.11142273992300034,0.16596093773841858,-0.05195558816194534,-0.013967870734632015,-0.006359903607517481,0.21553587913513184,-0.24456588923931122,-0.02655128575861454,-0.07033172249794006,0.1033940464258194,0.36946922540664673,-0.37077072262763977,-0.11244606971740723,-0.17630062997341156,0.02259758859872818,0.08544052392244339,0.21712544560432434,-0.008876997046172619,-0.3275451064109802,-0.12045282125473022,-0.24105733633041382,0.26502394676208496,0.011940636672079563,-0.04888932779431343,0.2251225709915161,-0.2791799008846283,-0.03786897286772728,0.05634775385260582,-0.17922110855579376,0.20786255598068237,-0.14156492054462433,-0.010186071507632732,-0.09634122252464294,-0.009021456353366375,-0.08526423573493958,-0.048517100512981415,0.022629041224718094,-0.2752399742603302,-0.07851230353116989,0.31413498520851135,0.004769984167069197,0.13160263001918793,0.015681695193052292,-0.013929657638072968,0.041833680123090744,-0.032667577266693115,0.03861173242330551,-0.026578441262245178,-0.20111672580242157,0.16819654405117035,-0.05850467085838318,-0.029567163437604904,0.021081043407320976,0.11068260669708252,-0.07157823443412781,0.26380637288093567,-0.036540884524583817,0.07915646582841873,0.10142916440963745,0.21271631121635437,-0.22577229142189026,0.10994654148817062,0.13669581711292267,0.1593429148197174,-0.04632189869880676,-0.25977885723114014,-0.16186662018299103,0.08172263950109482,0.059390775859355927,0.027296114712953568,-0.01116157229989767,-0.07490746676921844,-0.13362613320350647,0.019682230427861214,0.022692721337080002,0.21788524091243744,-0.06020531430840492,-0.004200607072561979,-0.04716196283698082,-0.008235719986259937,-0.18057981133460999,-0.008812639862298965,0.3812338709831238,0.13800939917564392,0.12980008125305176,-0.10113291442394257,-0.30782178044319153,-0.101214699447155,0.06121423467993736,-0.062212273478507996,-0.23943877220153809,-0.11386080086231232,0.005831816699355841,0.09776835143566132,-0.07303440570831299,0.07923173159360886,-0.05148998275399208,0.01813705824315548,0.022013017907738686,0.014402911067008972,-0.09535901993513107,0.05668054148554802,-0.20879514515399933,0.038063906133174896,-0.020990192890167236,0.03865966945886612,0.08619789034128189,0.026022424921393394,-0.10025904327630997,-0.03413499891757965,-0.05966472625732422,0.13858339190483093,-0.3448960781097412,0.009854424744844437,-0.0676676407456398,0.10108761489391327,-0.04717728868126869,-0.18823294341564178,0.0765184760093689,-0.20501811802387238,-0.14401060342788696,-0.002466431586071849,-0.4931267201900482,-0.20282907783985138,-0.08885511755943298,-0.011523757129907608,-0.052148111164569855,-0.10488022863864899,-0.008793378248810768,-0.049263037741184235,-0.29583635926246643,0.12891481816768646,-0.12364187836647034,-0.026555946096777916,-0.06396832317113876,0.03117089718580246,0.23257116973400116,-0.02396969683468342,-0.0317167229950428,-0.05102502182126045,0.0841652974486351,0.4119454026222229,-0.03289927914738655,-0.007539938669651747,-0.13463421165943146,-0.22560442984104156,-0.02866029553115368,0.07216446101665497,-0.02239202708005905,-0.18115389347076416,0.04857388138771057,0.08740264177322388,-0.12613515555858612,-0.02622564323246479,0.1183510422706604,0.09187980741262436,0.2136022448539734,-0.05231948569417,0.032450366765260696,0.24452809989452362,0.14378534257411957,0.14941200613975525,0.10492181032896042,-0.06949237734079361,0.08422405272722244,-0.23355919122695923,0.0009974181884899735,-0.045134417712688446,0.06050020083785057,-0.004691964481025934,0.1815939098596573,0.0204976387321949,-0.2133268266916275,-0.16736753284931183,0.13263101875782013,-0.04113656282424927,0.04742646962404251,0.010986779816448689,0.21547210216522217,0.016379058361053467
b'\xe5\xad\xa6\xe4\xbc\x9a',2.598090887069702,2.2494266033172607,-1.409227967262268,2.4533798694610596,-1.2875421047210693,1.3278847932815552,-1.1620197296142578,-0.39101776480674744,-0.7530518174171448,-1.037260890007019,-1.4737190008163452,0.44792550802230835,-2.3607003688812256,-0.2618674337863922,-0.7194412350654602,-1.114478588104248,0.5686327815055847,1.2576334476470947,0.34017109870910645,1.147026538848877,2.3937273025512695,0.19910995662212372,-0.05927005037665367,0.0781358927488327,-0.3495398759841919,0.568721354007721,-1.1305710077285767,-0.0023559832479804754,1.120173692703247,-0.2261309027671814,0.08547848463058472,1.7819561958312988,0.6612704992294312,1.1959664821624756,-0.939400851726532,-1.3995893001556396,0.2077009230852127,-2.228534460067749,0.968196451663971,1.8384438753128052,0.15139879286289215,1.6250449419021606,0.984973132610321,-0.1834028959274292,-0.44850221276283264,-3.781198263168335,2.218477487564087,-1.2188555002212524,0.8905964493751526,0.7787597179412842,1.3144761323928833,-1.901268720626831,1.982908844947815,-0.7581417560577393,-0.7863478064537048,-0.12040402740240097,1.1198259592056274,0.02546902932226658,-0.7433622479438782,-0.06745661050081253,-1.6007962226867676,0.8177545070648193,0.753791332244873,0.26373666524887085,-1.029453158378601,-0.7770093083381653,1.1712504625320435,-0.06029073894023895,-1.212632179260254,0.07218612730503082,0.544906497001648,-0.8341637849807739,0.4759204685688019,0.01454174518585205,0.43407273292541504,-1.09508216381073,0.10470173507928848,0.6350266933441162,-0.6229408383369446,-0.3980642557144165,1.1672289371490479,1.4126545190811157,0.7545397281646729,-1.038648247718811,-0.7847781777381897,-0.47622987627983093,-2.1340982913970947,0.1476713865995407,-0.3904627859592438,0.9195156097412109,0.1483660191297531,0.6169878840446472,-0.0378732904791832,-0.11795363575220108,-0.37469854950904846,0.7245174050331116,1.1315031051635742,-2.2412779331207275,-2.1918411254882812,1.1737393140792847,1.254457950592041,2.327256202697754,-0.1515030413866043,0.9462417364120483,1.4005107879638672,-0.14631684124469757,-0.4063791334629059,1.8718847036361694,-0.7548864483833313,0.5645291209220886,-1.238061547279358,0.9063783288002014,-0.5848280787467957,-0.8257901668548584,1.0335097312927246,-0.2959018051624298,-0.8101652264595032,0.26392143964767456,0.04692118242383003,-0.4036369025707245,1.1618468761444092,0.27560216188430786,-0.6319408416748047,1.8583521842956543,-0.4492037296295166,-1.5275766849517822,1.4108353853225708,0.034834250807762146,0.3477262258529663,-0.08480803668498993,-1.0359760522842407,0.40170377492904663,0.3087244927883148,-0.401860773563385,-0.5298670530319214,-0.0807524248957634,2.4913330078125,-0.6842296123504639,0.15506026148796082,0.9856067895889282,-0.25612735748291016,1.7114638090133667,-1.0960006713867188,-0.8936147093772888,0.09292446076869965,-1.7722080945968628,0.28951847553253174,-1.0727522373199463,-0.5641566514968872,0.8741170763969421,-0.6719626784324646,1.5788239240646362,-0.6702523827552795,1.1622384786605835,-0.7058603167533875,-0.5145955681800842,0.8327556848526001,-0.8236092329025269,-0.06064119189977646,-1.3473114967346191,1.3954744338989258,3.567018985748291,-0.45463690161705017,-2.1482338905334473,-0.6166096329689026,0.34098896384239197,1.5893254280090332,-2.066108226776123,0.7503721117973328,-0.8197224736213684,-0.9142400622367859,-2.4094772338867188,-0.24505731463432312,0.3540056049823761,0.4057098627090454,1.0857648849487305,0.12340979278087616,-0.6235634684562683,0.5015919208526611,0.09339369833469391,0.3856547474861145,-1.1724299192428589,0.2742185592651367,-2.071606397628784,-0.46213799715042114,1.0332276821136475,-0.7532793283462524,-1.392913818359375,-1.1059455871582031,-0.7063617706298828,-0.330441951751709,-1.2485370635986328,-1.5318336486816406,-0.20344597101211548,1.2634203433990479,-0.07971332967281342,0.31218063831329346,-0.026281073689460754,-1.0368257761001587,-1.1008038520812988,1.13370943069458,-2.6539571285247803,-0.19530393183231354,-1.5906703472137451,0.26312196254730225,-0.3740345239639282,-0.268289178609848,-2.5252249240875244,3.119575023651123,-0.7124717831611633,0.7638160586357117,-0.0867074728012085,-0.7324920296669006,-1.198822259902954,0.3263916075229645,-2.201753854751587,0.4055424630641937,0.4189417362213135,1.504940152168274,1.501960277557373,0.6986011862754822,-0.18675754964351654,-1.5996804237365723,0.11707577109336853,0.3162694573402405,0.7874634861946106,-1.1408787965774536,-0.35320794582366943,-0.9533527493476868,-0.05660839006304741,3.2841339111328125,-0.5114187002182007,-0.6952254772186279,0.7026752829551697,-1.047040581703186,0.3737596273422241,-0.146006777882576,-0.952709972858429,-1.2587432861328125,-0.2947574555873871,-1.0971404314041138,0.2880963981151581,-2.289768934249878,-3.9819092750549316,1.0618921518325806,0.4148964583873749,0.9210367202758789,1.1426235437393188,0.46367716789245605,0.09179655462503433,0.6682969331741333,-0.576431155204773,-0.26094698905944824,-0.2815043032169342,1.429840087890625,-0.41221854090690613,0.8443801999092102,0.9750477075576782,1.601034164428711,1.575256586074829,-2.9977922439575195,0.13314422965049744,-0.6587200164794922,2.5509390830993652,-1.6148804426193237,-0.5117161870002747,-0.044949084520339966,-0.5605525970458984,-1.5699810981750488,-0.4673692584037781,0.6473462581634521,1.1888304948806763,1.865231990814209,1.7108405828475952,0.3076857924461365,-0.14627163112163544,-0.09476244449615479,0.478831946849823,-1.188535451889038,1.2414085865020752,0.14877156913280487,-0.6519278883934021,-0.21986865997314453,0.3508865237236023,-0.15779313445091248,-2.7515220642089844,-0.7340522408485413,0.4934697449207306,2.7454726696014404,0.06325460970401764,-1.4262808561325073,-0.013211206533014774,1.1646126508712769,0.35058918595314026,-1.842539668083191,-0.161837637424469,-2.563373565673828,-0.4117390811443329,0.05448329821228981,-2.786177396774292,-0.9252309203147888,-0.5017581582069397,0.5544378161430359,0.3180575370788574,0.6634160876274109,2.456434488296509,-0.7763944864273071,0.0886121615767479,-0.48089703917503357,-0.9532338380813599,-0.15838882327079773,-0.7718831300735474,-0.6645106077194214,2.064014196395874,-0.5555763840675354,-0.6387936472892761,1.4428521394729614,0.6193267107009888,0.0794096291065216,-0.8567754030227661,-2.199505090713501,0.055251672863960266,-0.43969735503196716,1.4525846242904663,0.23852340877056122,0.12537053227424622,-0.1165686771273613,0.6740077137947083,-1.0059301853179932,-0.5558573603630066,-0.34669142961502075,0.4709818363189697,-0.9126029014587402,0.4458402693271637,-0.21523283421993256,1.1405441761016846,-0.563477098941803,-2.473170280456543,2.4180235862731934,0.727317750453949,-0.3624284267425537,-1.9033219814300537,-0.5157727003097534,-1.6742093563079834,-1.203166127204895,-0.6456685066223145,1.3328399658203125,1.8151378631591797,1.8888514041900635,1.1619759798049927,-2.1454293727874756,0.6064808964729309,-0.532289445400238,-1.0124305486679077,0.5454037189483643,-1.2404193878173828,1.6552053689956665,-1.0064553022384644,-0.6042376756668091,-2.756065607070923,-0.14935222268104553,-1.245408058166504,-1.3757145404815674,1.2288920879364014,-0.4605485200881958,-1.1254031658172607,-1.7283546924591064,-0.5429695844650269,-1.8951032161712646,-2.2903308868408203,-0.8755384087562561,-1.000553846359253,-2.487741708755493,0.02068856731057167,-0.006763852667063475,1.0570892095565796,0.28581681847572327,-0.5303877592086792,-0.48084843158721924,1.6216847896575928,2.8079450130462646,1.7278300523757935,1.7499936819076538,0.6951680779457092,0.6443055272102356,-0.5616755485534668,0.31443965435028076,2.117410659790039,0.7499706149101257,-1.4598355293273926,1.1678155660629272,-1.696956753730774,0.8431786894798279,0.2737482786178589,0.7979580760002136,0.7216953039169312,0.43228089809417725,-0.8050154447555542,0.312516987323761,2.4077939987182617
b'\xe7\x94\xb5\xe5\xad\x90\xe6\x98\xbe\xe5\xbe\xae',0.0991063192486763,-0.0848948284983635,-0.0609370656311512,-0.008952569216489792,0.10754645615816116,0.035134054720401764,0.02715146541595459,0.05329259857535362,-0.07865259796380997,-0.16837213933467865,0.002352055162191391,0.03800271078944206,-0.013267582282423973,0.0675801932811737,0.006228884216398001,0.0821273922920227,0.12757204473018646,-0.02814626879990101,-0.010436550714075565,0.028526239097118378,0.034361306577920914,-0.114009328186512,-0.0033434522338211536,-0.12389149516820908,0.12159217149019241,0.03894900158047676,0.0301482193171978,-0.08709754794836044,-0.05396989360451698,-0.20629844069480896,0.03717939928174019,-0.03335421904921532,-0.05968191847205162,0.010954267345368862,-0.005831125658005476,-0.061281874775886536,0.09118541330099106,0.07977070659399033,0.053805865347385406,0.0030346116982400417,-0.11003786325454712,0.022082123905420303,0.08033563941717148,0.05752873793244362,0.07382568717002869,-0.14757975935935974,-0.1707219034433365,-0.0628182515501976,0.040736597031354904,-0.05281193554401398,0.058736950159072876,-0.04215895012021065,0.05298027768731117,-0.05551552027463913,0.0812683254480362,-0.02321423962712288,-0.012510192580521107,-0.0001321873569395393,0.09004829823970795,0.10664941370487213,-0.09097042679786682,0.019956855103373528,0.011323402635753155,-0.257678747177124,0.11951905488967896,0.044622212648391724,0.011059158481657505,-0.0836142972111702,0.007517468184232712,0.016514809802174568,-0.014929434284567833,0.05829554796218872,0.02662491984665394,-0.06769262999296188,-0.13232500851154327,-0.03333205729722977,-0.08886643499135971,-0.01317262277007103,0.04926095902919769,0.025869442149996758,-0.07960116118192673,0.0038457466289401054,-0.01679484359920025,-0.08278477936983109,-0.10504431277513504,-0.1657102108001709,-0.040707096457481384,-0.06057369336485863,-0.102569580078125,0.0691770389676094,0.0007033598958514631,0.06905470043420792,0.04415316507220268,-0.07150872051715851,0.02042204514145851,-0.04029398411512375,0.18468746542930603,0.0028714800719171762,-0.05292224884033203,0.032636918127536774,-0.0024116470012813807,-0.02640487439930439,0.01655515469610691,-0.13571715354919434,-0.0820554718375206,-0.01533258892595768,-0.11218108236789703,0.14024612307548523,-0.014888402074575424,-0.07965251803398132,-0.06667488068342209,0.1009560152888298,0.12972095608711243,0.0140537703409791,-0.028875529766082764,0.07433914393186569,-0.028487276285886765,0.020848296582698822,-0.08031587302684784,-0.007750020362436771,0.06505785882472992,-0.04453253373503685,0.031363245099782944,-0.035113461315631866,0.0317789688706398,0.0542360357940197,0.18433693051338196,0.06628573685884476,-0.04446931183338165,0.016165198758244514,0.0002656737342476845,-0.010728351771831512,-0.0780911073088646,0.00027031268109567463,0.031909551471471786,0.09788448363542557,0.059762801975011826,-0.0937991663813591,0.019017813727259636,0.0670381486415863,0.19005531072616577,-0.02947610802948475,-0.0201217383146286,0.0021085396874696016,0.020098457112908363,-0.08451707661151886,-0.025710448622703552,-0.17784975469112396,-0.0037754205986857414,0.16040104627609253,-0.034620411694049835,-0.1162295788526535,0.006121887359768152,-0.09684277325868607,0.1312258243560791,-0.05966588854789734,0.09681236743927002,-0.07066162675619125,0.03948264941573143,-0.07615379244089127,-0.18531760573387146,0.2122894525527954,0.022542070597410202,0.1596747785806656,-0.1343541145324707,-0.12434016913175583,-0.009162131696939468,-0.16289809346199036,-0.04497605189681053,0.0007086590630933642,-0.07675924897193909,0.06573092937469482,0.04896766319870949,-0.006307665258646011,-0.148274764418602,-0.02591782435774803,0.0419086292386055,-0.003810661844909191,0.06448531150817871,0.14265137910842896,-0.04422273114323616,0.02838224172592163,0.007316819857805967,-0.14106185734272003,0.11530491709709167,0.011383228935301304,-0.1652926504611969,-0.04022418335080147,-0.032109130173921585,-0.09683287888765335,-0.009647371247410774,-0.08255378156900406,0.025297144427895546,0.016921857371926308,-0.023555193096399307,0.01178126409649849,-0.02425476908683777,-0.10547873377799988,-0.0016269705956801772,-0.13057944178581238,-0.08811391144990921,-0.09283997118473053,-0.0818224623799324,-0.11246556788682938,-0.03704305738210678,0.0538739413022995,-0.009761788882315159,-0.23971472680568695,0.09558194875717163,-0.020183861255645752,0.02987086772918701,0.07820279151201248,-0.06281854957342148,0.04611381143331528,-0.05243038386106491,-0.02838354930281639,0.019963854923844337,-0.03929070383310318,0.006142646074295044,-0.0035920189693570137,-0.04628840461373329,-0.04603990167379379,-0.02736857160925865,0.16634300351142883,-0.030340032652020454,-0.04353192076086998,-0.11096315830945969,-0.0585126169025898,0.03626425936818123,-0.031243057921528816,0.12261508405208588,-0.07955265790224075,0.03897909075021744,-0.0433436781167984,0.0820523351430893,0.09579490125179291,-0.07324693351984024,-0.0198222566395998,-0.04083538055419922,-0.06531157344579697,-0.15322571992874146,0.06412037461996078,-0.14747464656829834,-0.11753654479980469,-0.03152034059166908,-0.04607457295060158,-0.061275895684957504,0.13994048535823822,0.0015730545856058598,0.10294629633426666,-0.016171609982848167,-0.027486469596624374,-0.007580033037811518,-0.04770082235336304,0.14467599987983704,0.0024243644438683987,0.04172766953706741,-0.056673597544431686,0.13629429042339325,0.11402664333581924,-0.16954320669174194,-0.022107265889644623,-0.171916201710701,0.17426836490631104,-0.05930812284350395,-0.0951983630657196,-0.05113614350557327,0.13839802145957947,0.007830574177205563,-0.02467237412929535,0.0015553476987406611,0.2648162841796875,0.13117529451847076,0.1935679167509079,-0.031868062913417816,0.023373359814286232,0.006202791351824999,0.08505702018737793,0.06608236581087112,0.14492449164390564,-0.09616939723491669,-0.1076100692152977,0.06340981274843216,0.00800570473074913,-0.12864838540554047,0.017823273316025734,0.060353200882673264,-0.06798627972602844,-0.007560139521956444,-0.04963782802224159,0.1513548642396927,0.12215785682201385,0.17892728745937347,0.015219174325466156,0.05035829171538353,0.19952189922332764,-0.06699584424495697,0.005189327988773584,-0.0361558236181736,-0.12856325507164001,0.10613095015287399,-0.11908390372991562,-0.047563586384058,-0.10389711707830429,-0.08524017781019211,0.012060976587235928,-0.06256773322820663,0.022290648892521858,0.08621717244386673,-0.03362491354346275,-0.0034366771578788757,0.03540930896997452,0.0841749981045723,0.053582534193992615,-0.022510962560772896,-0.12958672642707825,-0.12188193202018738,-0.02802443690598011,0.007151108235120773,0.010095559991896152,0.037236906588077545,-0.04962838813662529,0.02871026284992695,-0.024884914979338646,-0.06691069155931473,0.03159575164318085,-0.059817779809236526,-0.0807730183005333,0.03278888016939163,-0.13656434416770935,0.06788068264722824,0.15822693705558777,0.037840183824300766,0.021726343780755997,0.03860866650938988,-0.13114456832408905,-0.08572995662689209,-0.031575437635183334,-0.06485689431428909,-0.02246338129043579,0.1443127542734146,-0.017119020223617554,-0.2411482036113739,-0.2274049073457718,0.05177726224064827,0.09776785969734192,0.12584397196769714,0.13679789006710052,-0.05171119421720505,0.13536931574344635,0.010048400610685349,0.03441169857978821,-0.06019492447376251,0.005620122421532869,0.03515680879354477,0.027520999312400818,0.1518755555152893,-0.008901686407625675,-0.021381448954343796,-0.03259310498833656,0.048763878643512726,-0.024966057389974594,-0.0469609797000885,-0.0019191544270142913,-0.07392467558383942,-0.0732053592801094,-0.15188029408454895,-0.04147694259881973,0.04797589033842087,-0.057496458292007446,0.05131960287690163,0.01342044398188591,0.04164056107401848,0.10391592979431152,-0.07789068669080734,-0.05557168647646904,-0.014154021628201008,-0.11808235198259354,0.07219337671995163,0.1340292990207672,0.11737148463726044,-0.012232363224029541,0.024649756029248238,-0.13422170281410217,-0.11695437878370285,-0.02765723317861557,0.16062557697296143,0.016729092225432396,0.09192070364952087,-0.14366906881332397,-0.047287341207265854,-0.034037694334983826,-0.03652101010084152,0.14155307412147522,-0.08199305832386017,0.03721776232123375,-0.020943548530340195,0.05472767725586891,0.13197200000286102,-0.0092960549518466
b'\xe6\x97\xb6\xe9\x97\xb4',-1.1377958059310913,1.129772424697876,0.967725932598114,-0.7273690104484558,-0.10876905918121338,-2.120758533477783,2.4275717735290527,-0.7918276190757751,0.017610842362046242,-2.536322832107544,0.2565578818321228,0.09854773432016373,0.21104829013347626,-1.250518798828125,-1.7464152574539185,-0.8468332886695862,1.4401977062225342,-0.22047004103660583,3.3711600303649902,-0.31615516543388367,0.2644253373146057,-0.5484846830368042,-2.0891356468200684,-0.8361221551895142,0.32339075207710266,-1.1566177606582642,-0.4468301236629486,-0.5773390531539917,1.20855712890625,-0.001036125817336142,2.2207443714141846,0.7560808062553406,0.7524695992469788,0.5906750559806824,0.017178842797875404,-0.7382127642631531,1.2907267808914185,0.08704163134098053,-0.688992977142334,0.4601798355579376,2.3118300437927246,0.9557005167007446,0.09645257890224457,1.301077127456665,0.8749502897262573,0.9432997107505798,-0.3143807351589203,-0.26805543899536133,0.08030785620212555,-0.049424849450588226,-0.7579944729804993,1.0951621532440186,0.7528218626976013,-0.9914460182189941,0.38399654626846313,-0.8719071745872498,0.7585582137107849,1.1837108135223389,-0.893339216709137,-1.2010167837142944,0.11296407133340836,-1.99498450756073,-1.1785567998886108,-1.364079475402832,-1.8966041803359985,-0.6592163443565369,-3.075085163116455,2.2048587799072266,-1.3312238454818726,0.11887229233980179,-0.973568856716156,-2.319784164428711,-1.4851661920547485,3.5589487552642822,-1.08315908908844,-0.330864280462265,1.539346694946289,-0.5681089162826538,-1.6713001728057861,-0.9904409646987915,-1.296378254890442,-0.187538743019104,-0.6324574947357178,-0.3801538050174713,0.25323614478111267,-2.377641201019287,-0.4160601794719696,-2.039210319519043,-0.9267318248748779,0.5437613129615784,0.07541680335998535,-0.8387108445167542,-1.1867588758468628,2.3219401836395264,0.060676638036966324,-1.0561296939849854,-1.3458315134048462,1.3344638347625732,-1.316617727279663,0.43092620372772217,-0.8157232999801636,-3.3139233589172363,-1.1735427379608154,-0.3634396195411682,-0.07675065845251083,0.5687816739082336,0.9158485531806946,-0.43198487162590027,-0.46227890253067017,2.62656307220459,0.18005825579166412,-0.993294894695282,-0.3025670051574707,-1.4727872610092163,0.2814531624317169,2.5105700492858887,-0.05622353032231331,1.4165105819702148,0.7093700170516968,1.3277069330215454,0.7049039006233215,-0.5355700254440308,0.15423506498336792,2.0958681106567383,0.34394633769989014,-1.454096794128418,2.336475133895874,0.08697760105133057,0.8326036334037781,0.9828861951828003,-1.6129802465438843,2.26214599609375,0.6023518443107605,-0.14878199994564056,-0.5315203070640564,-1.5074291229248047,-0.06645934283733368,-0.35835540294647217,-0.403871089220047,1.4036096334457397,0.6747435927391052,-0.35003745555877686,0.5255357027053833,0.8981274366378784,-1.0474501848220825,-3.2535433769226074,2.5709753036499023,-0.7752789855003357,-1.2346608638763428,-2.649933099746704,1.288639783859253,0.9808192849159241,1.0582062005996704,2.5301482677459717,-0.013759263791143894,0.21195343136787415,-2.57308030128479,-0.298298716545105,0.4875026345252991,3.209397315979004,0.5840795040130615,1.2156888246536255,-3.4901161193847656,-0.9851148724555969,-0.7431808710098267,-0.6512506604194641,0.8909064531326294,1.4059865474700928,1.430347204208374,0.2884317934513092,0.8852910995483398,1.1745357513427734,0.3208172619342804,0.8267161846160889,1.6831436157226562,1.8165582418441772,1.2762856483459473,-0.10408110916614532,0.7012562155723572,-0.291864275932312,0.27512192726135254,1.024281620979309,-0.1750856339931488,1.6053321361541748,1.308377742767334,0.0748191848397255,0.04544999450445175,2.688093900680542,-0.588097870349884,0.036082182079553604,0.4247751832008362,0.4682447910308838,-0.6873021721839905,0.6679454445838928,0.22803236544132233,-0.46649420261383057,1.9357357025146484,1.2749242782592773,-1.6025506258010864,-1.4994957447052002,-0.1508762240409851,-0.08260007202625275,1.2390847206115723,-1.347010612487793,2.248255968093872,-1.0168794393539429,0.5392924547195435,0.46169060468673706,0.26347047090530396,1.7384366989135742,1.233883023262024,-1.435558557510376,1.6075875759124756,-0.7458739280700684,-1.5484776496887207,-0.3436247706413269,1.7158125638961792,-0.9990718364715576,2.3343114852905273,0.33755847811698914,-1.4155408143997192,1.1604087352752686,-0.11718033254146576,0.6774980425834656,-1.0908584594726562,-1.4536980390548706,0.037956222891807556,-0.5158740878105164,1.370931625366211,-1.112186312675476,1.6821788549423218,0.03459526225924492,-1.4271987676620483,1.091906189918518,2.5205934047698975,2.2267026901245117,0.6106537580490112,2.944603443145752,-1.3908365964889526,1.8654509782791138,-0.007581551093608141,1.407989740371704,-1.0848628282546997,-0.05559913441538811,-0.3997577130794525,1.2459027767181396,1.6492407321929932,0.10133937746286392,-0.4401750862598419,1.5333092212677002,1.9407764673233032,1.6218692064285278,0.6884276270866394,-1.2771592140197754,-0.24942021071910858,-1.4377224445343018,0.6906337738037109,0.051216498017311096,-1.4487483501434326,-0.7005341053009033,-1.163039207458496,2.1587841510772705,-0.3231006860733032,0.42508983612060547,-0.4516613185405731,0.12095819413661957,0.930075466632843,-1.5736749172210693,1.1590392589569092,1.1665868759155273,-0.01836279034614563,-0.007143780123442411,1.516198754310608,1.0885359048843384,-0.716167688369751,-1.9465084075927734,0.15201200544834137,0.6510727405548096,-1.212442398071289,0.31663277745246887,-1.7093706130981445,0.04049714654684067,0.29069554805755615,1.4039409160614014,-1.1567209959030151,0.09171630442142487,1.6389676332473755,-0.9356773495674133,1.5722492933273315,0.2717125415802002,-0.6935536861419678,-0.0577353835105896,1.0826153755187988,-0.04745025932788849,0.5340083837509155,-1.7015489339828491,-2.8640847206115723,0.28016501665115356,-1.2325161695480347,0.9091053009033203,-0.7734113335609436,-3.9180727005004883,0.2959141135215759,0.28394803404808044,-0.06591859459877014,0.48614302277565,1.429147720336914,-0.9380866885185242,3.181981325149536,0.13745509088039398,-1.1369892358779907,1.1523104906082153,0.8488656878471375,-0.691257655620575,-3.37668776512146,2.1518542766571045,1.473322868347168,1.997623324394226,-0.05683983489871025,1.3404014110565186,0.3853910565376282,0.36232686042785645,0.4969078302383423,0.7564975023269653,-1.5316146612167358,-1.1815977096557617,0.610005795955658,1.234859824180603,0.32744553685188293,-1.385215401649475,-0.10262133181095123,-1.040173053741455,0.4805149734020233,-0.1838962286710739,-0.3003901243209839,2.485787868499756,0.5198239088058472,-1.619081974029541,0.3355996608734131,-0.47645649313926697,-0.5105512738227844,-0.5495867133140564,-0.45181265473365784,-0.9756857752799988,0.8412654995918274,2.2713940143585205,0.19515611231327057,0.7424278855323792,1.2531291246414185,-0.4505334198474884,0.20670169591903687,0.09050287306308746,1.2327601909637451,-0.662674605846405,-0.03635580837726593,0.45005249977111816,-1.8415682315826416,2.0781261920928955,0.6225261688232422,-0.7074469327926636,0.7679275274276733,0.5436079502105713,0.14843742549419403,-2.2247612476348877,-0.5899139642715454,0.40564557909965515,-0.40768808126449585,-0.7641289234161377,0.16404710710048676,-0.2861379384994507,2.5133349895477295,0.6077732443809509,-0.567245602607727,0.5545982122421265,1.9942106008529663,-1.0380680561065674,1.0738595724105835,0.1678076982498169,1.1804066896438599,-0.28376466035842896,1.8778530359268188,-2.31638503074646,0.5196366310119629,-0.7791154980659485,0.18586117029190063,-0.18591952323913574,-0.9305967092514038,2.082124710083008,1.1949820518493652,-0.1617308259010315,-0.26090824604034424,-0.5717993974685669,-2.0176949501037598,-0.6067852973937988,2.0281944274902344,0.19464024901390076,-0.28983074426651,0.6417891383171082,0.25800490379333496,-0.4593019187450409
b'\xe5\x8a\xa0\xe9\x80\x9f',0.39195600152015686,-0.507591962814331,0.42854395508766174,0.3072548806667328,0.9813939929008484,0.5953967571258545,2.48159122467041,-0.3309420943260193,-0.42505398392677307,-1.1604267358779907,-1.6773594617843628,-2.0328776836395264,-0.7546344995498657,-0.7015823125839233,1.9514989852905273,-0.6858351826667786,-0.605405867099762,0.3976050317287445,0.22582906484603882,-0.02697701007127762,0.7796984314918518,-0.20992079377174377,0.039253707975149155,0.7466491460800171,1.2451251745224,0.8154352903366089,-1.2838205099105835,-2.667774200439453,1.054770588874817,0.14146843552589417,1.352142333984375,1.097180962562561,0.696101725101471,-0.19400666654109955,1.0582258701324463,0.6731411814689636,1.4563448429107666,-1.3806231021881104,-1.0407458543777466,0.43309345841407776,-0.17421376705169678,1.976725459098816,0.7439368963241577,0.020098833367228508,-0.8363654017448425,-0.7718362212181091,-0.9773335456848145,0.3355455696582794,0.016164055094122887,-1.2022061347961426,-0.22515888512134552,-0.5208384990692139,-0.17644262313842773,-0.5602866411209106,-0.44726377725601196,-0.2956060767173767,0.7460808753967285,0.07481177151203156,0.5791768431663513,-2.217564821243286,-0.4194428622722626,-0.5112804770469666,-1.17093026638031,-0.017576903104782104,0.7613080739974976,0.4390218257904053,-1.7476842403411865,-0.2766280770301819,-0.6359316110610962,0.9550631046295166,0.8451217412948608,-0.5919164419174194,0.20918647944927216,0.34645792841911316,-0.47192662954330444,0.1206856369972229,0.3655865788459778,-1.1027805805206299,-1.3447294235229492,-0.8870340585708618,-0.3279198706150055,0.15770822763442993,0.012199422344565392,-0.12384729087352753,0.8580005168914795,-0.6618341207504272,0.15805765986442566,-0.22584281861782074,-0.2900395691394806,1.8133020401000977,-0.48508527874946594,-0.4818308353424072,1.5572935342788696,0.5852797627449036,0.900580108165741,-0.9060095548629761,-0.5186715722084045,1.1304429769515991,0.2268800288438797,0.6971922516822815,0.030487462878227234,-0.9102961421012878,-1.713100552558899,-1.203993797302246,-1.1581288576126099,-0.22766630351543427,-1.2010048627853394,1.4009485244750977,0.40023496747016907,1.2145113945007324,-0.6324998736381531,-0.45533129572868347,1.3900134563446045,-0.8682615756988525,0.737494170665741,-0.3295581638813019,1.248496413230896,-0.0049399021081626415,0.20852212607860565,3.1585888862609863,0.6127393245697021,0.7201875448226929,0.3465302586555481,0.9321112036705017,0.19673040509223938,-0.18911372125148773,1.093513011932373,-0.3959866762161255,-0.14937974512577057,1.1652002334594727,-1.0284621715545654,0.9605239033699036,-0.5624728798866272,-2.6239166259765625,0.14412589371204376,-0.03398549184203148,-2.01450777053833,-0.7255925536155701,0.5511261224746704,1.1752111911773682,0.36370787024497986,-1.0178471803665161,-0.25492915511131287,-0.298452764749527,0.6991556286811829,-0.07434944063425064,0.3130345940589905,-0.1346225142478943,0.9318163990974426,-0.4481615126132965,-0.09150182455778122,1.0193599462509155,2.063291311264038,0.23415178060531616,-0.44168585538864136,-1.0811681747436523,-0.46916618943214417,-0.18871408700942993,0.214137002825737,1.6832246780395508,-2.3845386505126953,0.9070743918418884,1.0964206457138062,-0.2559022307395935,0.371609628200531,-0.35796400904655457,1.553046464920044,-0.530300498008728,0.7816163897514343,0.23097606003284454,0.4995068311691284,1.4042590856552124,1.0113942623138428,0.16849727928638458,0.548945426940918,-0.5512461066246033,0.6684958338737488,2.0087902545928955,1.0655784606933594,0.9166468977928162,-0.6664211750030518,-1.6679697036743164,1.0872704982757568,-1.0138417482376099,-0.7502153515815735,1.29208505153656,-1.2978005409240723,0.9224246740341187,-0.8497456312179565,-1.2777496576309204,2.375584363937378,-0.9571515917778015,1.1041243076324463,-0.3589741587638855,-0.9785944223403931,0.048182711005210876,0.9187347888946533,-0.20964647829532623,-0.9366945624351501,-1.1208969354629517,-0.10559449344873428,0.5219712853431702,0.1275303065776825,-0.9499655961990356,-0.5971304774284363,0.08335968852043152,0.5171514749526978,2.818657875061035,1.3353283405303955,0.21405015885829926,-0.5710161328315735,0.451729416847229,-0.382802277803421,0.5964840054512024,0.6470265984535217,-1.458174228668213,0.7322990298271179,-2.2557177543640137,1.5090893507003784,0.4869513213634491,-0.12978722155094147,-1.1027989387512207,-0.3489290475845337,2.1437878608703613,-0.6878395676612854,0.491113543510437,0.33711153268814087,0.1959747076034546,1.9823633432388306,0.02545042335987091,1.1504855155944824,0.6398741602897644,-0.13374225795269012,0.26314276456832886,-1.127117395401001,2.5024516582489014,-0.2788046896457672,0.8080174922943115,0.7886296510696411,1.3844338655471802,0.0787053182721138,-0.1027342677116394,-1.0495315790176392,-0.22060975432395935,-0.8222216963768005,-2.056349039077759,0.7832766175270081,1.8017170429229736,0.4570130705833435,1.2674686908721924,-0.5793817043304443,-0.21928130090236664,-1.0152819156646729,-1.7877790927886963,0.4080303907394409,-1.6480648517608643,-1.2180368900299072,1.5043638944625854,0.589016318321228,0.976661205291748,-0.7695965766906738,0.5019192099571228,-0.10831386595964432,-0.09846814721822739,0.9388128519058228,0.34092777967453003,0.6919454336166382,-1.2592804431915283,1.3048824071884155,-0.8864670991897583,0.08570893108844757,-0.41924014687538147,0.5022227168083191,-0.14384189248085022,0.9170278906822205,1.026139259338379,-0.7957491874694824,-0.9636461138725281,0.7471808195114136,0.7635970115661621,0.5938892364501953,0.04111868515610695,1.4640300273895264,-2.0618059635162354,-1.2092623710632324,0.39029648900032043,-1.2627900838851929,-0.32756808400154114,-0.2869434952735901,-0.44240400195121765,-1.4820845127105713,1.1078543663024902,0.46124130487442017,0.5091846585273743,0.12451993674039841,0.5731250643730164,-0.7295603156089783,2.2004926204681396,0.8022428154945374,1.088533878326416,-0.47088173031806946,-0.7054738402366638,-0.014761526137590408,-1.1789369583129883,-0.34210067987442017,0.26026856899261475,-0.6677150726318359,-1.3180612325668335,3.346984624862671,0.5100528001785278,-0.7033593654632568,1.4382407665252686,0.09989509731531143,0.5346381664276123,0.06909478455781937,1.7222789525985718,0.44709551334381104,-0.6422247290611267,-0.5951207280158997,0.9399951696395874,-1.057073950767517,-1.2630815505981445,-0.30120500922203064,-0.0696539655327797,1.1887142658233643,0.761648952960968,0.5634285807609558,-0.009764195419847965,0.32642802596092224,-0.09305592626333237,-1.350131869316101,-0.6574016809463501,-0.17877839505672455,0.9571225047111511,0.17583167552947998,-1.2424489259719849,-0.3286113142967224,-1.3204753398895264,0.9140633344650269,0.1914633810520172,-1.2226626873016357,-0.21798750758171082,1.4917136430740356,1.1419546604156494,0.3978268802165985,0.29508519172668457,-0.35463017225265503,0.7917062640190125,-0.826015055179596,0.9623546600341797,-0.7802704572677612,0.022229768335819244,0.705477237701416,0.09560573101043701,-0.685949444770813,0.1869620829820633,-0.6469454169273376,-1.01728355884552,0.7307637929916382,0.617637038230896,-0.8055562973022461,0.09098698943853378,-0.46816009283065796,2.239842653274536,-1.5884795188903809,0.9586086869239807,-2.4073355197906494,-0.6531002521514893,-0.03918839991092682,0.2896491289138794,0.03208136558532715,0.4832572937011719,0.024011170491576195,-0.6477980017662048,1.4830211400985718,-1.1729978322982788,-0.5187604427337646,-0.6908139586448669,0.13779722154140472,-0.9728908538818359,1.5839711427688599,-1.5427712202072144,-1.2945033311843872,-0.297763466835022,-1.6729763746261597,0.4303940236568451,0.6644043326377869,-0.6871392130851746,1.139474868774414,-0.5732001662254333,-0.38385966420173645,-0.43538111448287964,-0.4813041687011719,0.20824363827705383,0.3867270052433014,-0.5297200083732605,-0.1465243697166443,-0.3006937503814697,1.4175856113433838,-0.006652952171862125
